~o
<STREAMINFO> 1 25
<VECSIZE> 25<NULLD><MFCC_D_N_Z_0><DIAGC>
~s "silst"
<MEAN> 25
 -5.061662e+00 -1.812622e-01 -2.941769e+00 2.321263e+00 2.485857e+00 2.868100e+00 3.470947e+00 1.902845e+00 4.344169e+00 3.133468e+00 1.915589e+00 3.562370e+00 -6.426459e-02 1.144469e-01 2.001463e-02 1.809305e-02 -1.157042e-01 -6.262330e-02 -1.172514e-01 -3.987176e-02 -2.232790e-01 -1.040057e-01 -6.527269e-02 -9.661013e-02 1.543376e-01
<VARIANCE> 25
 1.323006e+01 2.042259e+01 1.442455e+01 2.014678e+01 1.412635e+01 1.971444e+01 2.050935e+01 2.119510e+01 2.129035e+01 1.600196e+01 2.128355e+01 1.946647e+01 1.254840e+00 1.884672e+00 1.268091e+00 1.802661e+00 1.463390e+00 2.123269e+00 1.834715e+00 2.270518e+00 2.082026e+00 1.773352e+00 1.819365e+00 1.868618e+00 8.737215e-01
<GCONST> 8.742272e+01
~h "a"
<BEGINHMM>
<NUMSTATES> 5
<STATE> 2
<MEAN> 25
 4.066351e+00 -6.175921e+00 -3.133075e+00 -6.040806e+00 -5.959886e+00 -3.441890e+00 3.527151e+00 -2.036148e-01 3.037884e+00 -1.175017e+00 4.825477e+00 2.531833e+00 1.871568e-01 -2.728779e-01 -4.503254e-01 -2.177775e-01 -4.758970e-01 -2.920219e-02 3.728786e-01 1.545150e-01 5.369848e-02 1.083677e-02 6.514853e-01 3.410493e-01 1.467806e-01
<VARIANCE> 25
 9.913156e+00 2.375640e+01 2.253636e+01 2.703710e+01 2.917331e+01 2.003945e+01 4.662644e+01 2.071635e+01 2.622772e+01 2.782893e+01 3.315573e+01 2.050650e+01 4.804530e-01 1.621096e+00 1.033872e+00 2.288405e+00 3.263744e+00 2.390096e+00 2.538920e+00 1.936891e+00 1.750159e+00 1.557530e+00 3.343343e+00 1.671368e+00 1.549375e+00
<GCONST> 9.159942e+01
<STATE> 3
<MEAN> 25
 5.771245e+00 -1.099936e+00 -6.724493e+00 -3.162404e+00 -2.018527e+00 -2.886302e+00 9.351891e-01 2.082111e+00 -8.561949e-01 -2.441986e+00 6.386521e+00 2.624336e+00 -2.747639e-01 1.654288e+00 3.126132e-01 2.076921e+00 1.864586e+00 1.118152e+00 -1.234745e+00 6.464021e-03 -7.524090e-02 3.689395e-01 -1.846710e+00 -7.551485e-01 -2.072186e+00
<VARIANCE> 25
 7.450860e+00 3.175175e+01 3.105827e+01 3.816464e+01 4.692945e+01 3.740632e+01 3.726161e+01 6.435982e+01 1.838184e+01 3.850209e+01 5.531304e+01 2.382001e+01 1.030954e+00 2.016330e+00 3.009101e+00 3.424584e+00 3.919126e+00 3.475303e+00 3.154443e+00 4.623677e+00 2.519334e+00 3.296498e+00 7.471601e+00 2.777631e+00 1.409373e+00
<GCONST> 1.013382e+02
<STATE> 4
<MEAN> 25
 1.409885e+00 8.389758e+00 -4.799552e+00 3.641387e+00 3.061049e+00 2.772936e+00 5.632578e-01 1.432478e+00 2.556899e-01 2.896872e+00 -2.425687e+00 1.046612e+00 -4.369288e-01 4.302383e-01 3.463497e-01 5.535196e-01 2.117696e-01 1.834310e-01 7.087287e-02 -4.225174e-02 -2.552318e-02 1.745964e-01 -4.929457e-01 -1.151689e-01 -6.603191e-01
<VARIANCE> 25
 2.039073e+01 3.922221e+01 3.619360e+01 3.953847e+01 3.622554e+01 2.313767e+01 4.106781e+01 2.722052e+01 2.038340e+01 2.533805e+01 4.122816e+01 3.283944e+01 4.660333e-01 1.195561e+00 1.354885e+00 2.449404e+00 2.409234e+00 2.051990e+00 2.090436e+00 1.674702e+00 1.561453e+00 1.803946e+00 2.595365e+00 1.414572e+00 5.157001e-01
<GCONST> 9.224534e+01
<TRANSP> 5
 0.000000e+00 1.000000e+00 0.000000e+00 0.000000e+00 0.000000e+00
 0.000000e+00 8.770849e-01 1.229151e-01 0.000000e+00 0.000000e+00
 0.000000e+00 0.000000e+00 7.466947e-01 2.533053e-01 0.000000e+00
 0.000000e+00 0.000000e+00 0.000000e+00 8.192795e-01 1.807205e-01
 0.000000e+00 0.000000e+00 0.000000e+00 0.000000e+00 0.000000e+00
<ENDHMM>
~h "b"
<BEGINHMM>
<NUMSTATES> 5
<STATE> 2
<MEAN> 25
 3.906253e+00 7.475425e+00 6.354177e+00 7.796311e+00 5.330086e+00 9.416856e-01 -3.609838e-01 -4.036849e+00 -2.874489e+00 -5.015697e+00 -4.045765e+00 -2.799759e+00 8.163652e-02 5.406957e-01 4.757327e-01 5.093886e-01 4.412018e-01 1.603873e-01 -7.710114e-02 -1.196534e-01 -1.361687e-01 -6.367451e-01 -3.773561e-01 -1.407799e-01 -3.372642e-02
<VARIANCE> 25
 1.219661e+01 8.595651e+00 1.140563e+01 8.088045e+00 1.028486e+01 1.533191e+01 1.421998e+01 2.004118e+01 2.966501e+01 1.916095e+01 1.565009e+01 1.314637e+01 1.805014e+00 1.814731e+00 1.446674e+00 8.899472e-01 1.165023e+00 1.384642e+00 2.186737e+00 2.412782e+00 2.847766e+00 2.153014e+00 1.747967e+00 1.541691e+00 9.212589e-01
<GCONST> 8.380963e+01
<STATE> 3
<MEAN> 25
 1.098595e+00 5.001047e+00 3.726636e+00 6.866855e+00 6.813357e+00 2.789967e+00 1.994224e+00 -1.912488e+00 -6.872346e-01 -3.568078e+00 -2.518859e+00 -1.003877e+00 3.225875e-01 -1.033747e+00 -1.064518e+00 -1.802349e+00 -1.673703e+00 -8.245834e-01 -9.980353e-01 4.334761e-01 4.331844e-01 1.095888e+00 9.165319e-01 4.107314e-01 2.231458e+00
<VARIANCE> 25
 1.590300e+01 1.172449e+01 1.937717e+01 1.412547e+01 1.318904e+01 1.630580e+01 2.390916e+01 2.362502e+01 3.205116e+01 2.262436e+01 1.878708e+01 1.301589e+01 2.807520e+00 1.742179e+00 2.156449e+00 3.438051e+00 3.033524e+00 3.638088e+00 2.694087e+00 4.091099e+00 3.823079e+00 2.355461e+00 2.560035e+00 1.710524e+00 3.923044e+00
<GCONST> 9.401369e+01
<STATE> 4
<MEAN> 25
 5.536607e+00 1.128342e+00 1.865312e+00 -1.541054e+00 -3.918819e+00 -3.024141e+00 -4.399586e+00 3.446335e-01 -1.541705e+00 2.308898e-01 6.082839e-01 -1.518943e+00 1.306563e+00 -1.500099e+00 -1.211391e-01 -2.851486e+00 -2.878328e+00 -3.501941e-01 -1.321884e+00 1.125041e+00 -6.515552e-01 1.296134e+00 5.875754e-01 -5.805010e-01 3.511858e+00
<VARIANCE> 25
 2.285563e+01 2.630808e+01 3.486859e+01 3.396434e+01 4.629868e+01 6.784814e+01 2.761395e+01 3.694801e+01 4.107936e+01 2.537911e+01 2.957146e+01 2.767645e+01 3.404284e+00 3.540077e+00 5.262577e+00 5.320271e+00 6.409570e+00 8.416455e+00 3.179653e+00 6.174110e+00 7.560497e+00 4.618757e+00 4.778545e+00 3.648485e+00 4.868574e+00
<GCONST> 1.088407e+02
<TRANSP> 5
 0.000000e+00 1.000000e+00 0.000000e+00 0.000000e+00 0.000000e+00
 0.000000e+00 7.946958e-01 2.053041e-01 0.000000e+00 0.000000e+00
 0.000000e+00 0.000000e+00 5.967459e-01 4.032541e-01 0.000000e+00
 0.000000e+00 0.000000e+00 0.000000e+00 5.777796e-01 4.222205e-01
 0.000000e+00 0.000000e+00 0.000000e+00 0.000000e+00 0.000000e+00
<ENDHMM>
~h "d"
<BEGINHMM>
<NUMSTATES> 5
<STATE> 2
<MEAN> 25
 1.929553e+00 2.509195e+00 6.361654e+00 2.644306e+00 -1.096735e-01 -4.075812e+00 -1.823330e+00 -1.123675e+00 -2.423796e+00 -1.851597e+00 -1.902777e+00 -2.207730e+00 1.698481e-01 3.955517e-02 2.693419e-01 -4.448831e-02 -6.348798e-01 -7.129997e-01 -2.416062e-01 -2.664940e-01 -3.706554e-01 1.532549e-01 3.523690e-01 4.520292e-01 4.041129e-01
<VARIANCE> 25
 2.941474e+01 3.430256e+01 3.136451e+01 5.471478e+01 6.758363e+01 4.715264e+01 4.801048e+01 4.095642e+01 2.874954e+01 4.519018e+01 2.755860e+01 1.516581e+01 3.593786e+00 2.671531e+00 4.253012e+00 6.818932e+00 8.678221e+00 6.549630e+00 3.858463e+00 4.413924e+00 4.102661e+00 2.985163e+00 3.048951e+00 2.054055e+00 6.313407e+00
<GCONST> 1.078540e+02
<STATE> 3
<MEAN> 25
 1.331523e+00 2.692737e-01 3.370502e+00 1.634143e+00 -1.443957e+00 -5.615505e+00 -2.445232e+00 -1.627792e-01 -4.175848e-01 6.310139e-01 1.057160e+00 2.241695e+00 -5.668623e-01 -9.054265e-01 -9.922574e-01 3.620366e-01 8.225387e-01 1.600476e+00 1.127232e+00 1.358999e+00 1.765811e+00 7.453282e-01 5.687253e-01 9.541489e-01 -8.725129e-01
<VARIANCE> 25
 2.099343e+01 1.689957e+01 3.558411e+01 3.298654e+01 6.159721e+01 5.408936e+01 4.628210e+01 4.289868e+01 3.942308e+01 2.966711e+01 3.626952e+01 3.463900e+01 2.682575e+00 1.198294e+00 3.127323e+00 1.909460e+00 6.337097e+00 6.230925e+00 3.428471e+00 4.308291e+00 3.045135e+00 4.336769e+00 4.389033e+00 4.439703e+00 2.058147e+00
<GCONST> 1.043871e+02
<STATE> 4
<MEAN> 25
 -3.123888e+00 -1.605662e+00 -1.476787e+00 2.200775e+00 2.992071e+00 2.720133e+00 3.949235e+00 2.385921e+00 4.546199e+00 2.069926e+00 1.782684e+00 3.223183e+00 -2.297096e-02 -1.264483e-01 -8.553520e-02 -3.163137e-02 1.468099e-02 1.924170e-01 1.618363e-01 1.034666e-01 1.069383e-01 4.157034e-02 3.387335e-02 -9.343396e-02 1.041573e-02
<VARIANCE> 25
 9.991695e+00 7.978683e+00 1.431540e+01 1.232760e+01 1.734732e+01 1.504343e+01 1.550157e+01 1.466407e+01 1.599188e+01 1.929562e+01 1.443058e+01 1.478850e+01 2.969294e-01 3.954422e-01 5.991197e-01 9.724419e-01 1.120329e+00 1.161030e+00 1.599160e+00 1.555151e+00 1.345824e+00 1.581043e+00 1.195382e+00 1.169052e+00 2.355685e-01
<GCONST> 7.572023e+01
<TRANSP> 5
 0.000000e+00 1.000000e+00 0.000000e+00 0.000000e+00 0.000000e+00
 0.000000e+00 7.019046e-01 2.980954e-01 0.000000e+00 0.000000e+00
 0.000000e+00 0.000000e+00 4.495975e-01 5.504025e-01 0.000000e+00
 0.000000e+00 0.000000e+00 0.000000e+00 8.460950e-01 1.539049e-01
 0.000000e+00 0.000000e+00 0.000000e+00 0.000000e+00 0.000000e+00
<ENDHMM>
~h "e"
<BEGINHMM>
<NUMSTATES> 5
<STATE> 2
<MEAN> 25
 -8.373410e+00 -9.932315e+00 1.512886e+01 -1.371456e+01 -2.019707e+00 8.748045e+00 2.757066e-01 7.359548e-01 1.327870e+00 4.194152e+00 1.136878e+00 -1.282508e+00 -7.926577e-01 -9.485208e-01 1.198049e+00 -1.071010e+00 -2.566672e-01 3.121989e-01 -1.312197e-01 2.052912e-01 -1.772837e-02 8.073683e-02 -2.005900e-01 -6.782966e-02 4.454879e-01
<VARIANCE> 25
 8.636397e+01 5.833767e+01 1.638548e+02 7.221666e+01 2.268110e+01 3.307928e+01 2.695671e+01 3.388637e+01 1.999480e+01 2.955864e+01 1.832411e+01 1.921833e+01 7.702048e+00 4.455678e+00 1.143363e+01 7.664768e+00 2.475643e+00 6.512475e+00 3.177204e+00 3.821123e+00 1.987675e+00 2.500631e+00 1.235176e+00 1.090291e+00 2.392493e+00
<GCONST> 1.055931e+02
<STATE> 3
<MEAN> 25
 -6.943644e-01 -4.811512e+00 5.990081e+00 -7.466408e+00 7.307301e-02 2.765633e+00 2.537160e-01 -3.848995e+00 -1.715369e+00 8.080517e-01 1.265075e+00 5.242928e-01 2.825320e+00 2.479207e+00 -3.354061e+00 2.282611e+00 3.266784e-01 -2.962895e+00 3.966989e-01 -1.862711e+00 -1.265729e+00 -1.308440e+00 4.599671e-01 1.050305e+00 1.712938e-01
<VARIANCE> 25
 4.317917e+01 5.336370e+01 7.859182e+01 5.959923e+01 3.085690e+01 5.475982e+01 4.682870e+01 3.393984e+01 2.039549e+01 3.478191e+01 2.202873e+01 1.768731e+01 3.937670e+00 4.606517e+00 5.758657e+00 3.905926e+00 3.067165e+00 5.193619e+00 4.592219e+00 5.570299e+00 1.784979e+00 4.557538e+00 2.625851e+00 1.586092e+00 2.381880e+00
<GCONST> 1.058863e+02
<STATE> 4
<MEAN> 25
 6.578130e+00 -1.609850e+00 -4.712067e+00 -1.764123e+00 -2.087831e+00 -5.295587e+00 1.811023e-01 -4.115052e+00 -4.730747e+00 -6.965780e+00 3.413168e+00 3.986035e+00 2.844602e-01 2.610357e-01 -6.377534e-01 2.009087e-01 -1.371389e-01 3.963136e-02 -5.450510e-02 5.036263e-01 2.294241e-01 -3.573510e-01 -2.281973e-01 3.611819e-02 -3.780406e-01
<VARIANCE> 25
 1.064498e+01 1.981902e+01 2.984043e+01 2.245958e+01 2.773032e+01 2.680953e+01 3.593443e+01 4.201570e+01 2.218488e+01 3.853181e+01 4.179512e+01 1.844134e+01 8.186188e-01 1.567383e+00 1.486071e+00 1.700704e+00 2.939446e+00 2.238522e+00 2.143090e+00 2.718917e+00 1.551904e+00 2.227790e+00 4.209293e+00 1.550529e+00 9.126973e-01
<GCONST> 9.298354e+01
<TRANSP> 5
 0.000000e+00 1.000000e+00 0.000000e+00 0.000000e+00 0.000000e+00
 0.000000e+00 7.931988e-01 2.068012e-01 0.000000e+00 0.000000e+00
 0.000000e+00 0.000000e+00 5.752681e-01 4.247318e-01 0.000000e+00
 0.000000e+00 0.000000e+00 0.000000e+00 8.269956e-01 1.730044e-01
 0.000000e+00 0.000000e+00 0.000000e+00 0.000000e+00 0.000000e+00
<ENDHMM>
~h "f"
<BEGINHMM>
<NUMSTATES> 5
<STATE> 2
<MEAN> 25
 -4.361655e+00 -3.982627e-01 -1.210827e+00 -2.406090e-01 1.624600e+00 6.456491e+00 5.172104e+00 -3.953513e-02 -6.741346e-01 9.089538e-01 -2.103222e+00 -1.006186e+00 -1.642789e+00 3.843914e-01 -2.139766e-01 -7.976360e-01 -7.363722e-01 -2.605721e+00 -3.219616e-01 9.642885e-02 -8.845804e-01 -5.332928e-01 2.488386e-01 6.841962e-01 -2.930040e-01
<VARIANCE> 25
 9.038922e+01 1.570830e+01 1.208818e+01 1.715267e+01 4.103632e+01 8.740669e+01 2.024675e+01 3.259180e+01 2.682603e+01 1.643307e+01 9.816193e+00 6.411625e+00 1.386474e+01 2.238636e+00 2.356803e+00 6.247055e+00 8.323965e+00 5.870628e+00 3.334732e+00 5.703425e+00 3.887848e+00 1.867606e+00 9.007118e-01 2.809553e+00 1.342787e+00
<GCONST> 9.961244e+01
<STATE> 3
<MEAN> 25
 -1.790312e+00 2.599386e+00 -5.280499e+00 -3.952626e+00 -3.976322e+00 1.139295e+00 4.608423e-01 -3.723154e-01 -1.301562e+00 -2.182165e+00 1.371026e+00 4.193788e-01 2.464341e-01 -5.438763e-01 -4.644900e-01 -1.254236e-01 -3.770760e-02 -2.123467e-01 -4.886058e-01 6.184140e-02 -2.067065e-02 6.250335e-01 8.901238e-01 4.535150e-01 -3.475991e-01
<VARIANCE> 25
 2.000966e+02 2.416109e+01 6.769833e+00 7.811346e+01 6.980280e+01 2.409521e+01 1.128126e+01 1.310190e+01 4.537288e+01 3.000064e+01 1.317241e+01 1.068536e+01 1.058718e+00 1.092782e+00 7.245827e-01 1.425087e+00 2.696052e+00 1.550935e+00 2.048754e+00 1.418645e+00 1.307508e+00 3.526376e+00 1.003620e+00 1.110718e+00 1.632792e+00
<GCONST> 9.009057e+01
<STATE> 4
<MEAN> 25
 -5.741423e+00 -3.011674e+00 -3.765282e+00 -2.265455e+00 3.048580e-01 3.078758e-01 8.517993e-01 1.185581e+00 1.781290e+00 3.113394e+00 -8.609563e-01 9.177358e-01 1.383590e-01 2.923421e-02 6.731794e-03 -1.978782e-02 1.363164e-02 1.707862e-02 -9.767225e-02 -1.888682e-01 -4.353993e-02 -1.001921e-01 -2.026037e-01 -1.301187e-02 -1.153026e-01
<VARIANCE> 25
 3.251855e+01 1.007747e+01 9.461426e+00 9.664865e+00 1.500845e+01 1.143619e+01 1.351002e+01 1.800241e+01 1.621895e+01 1.712539e+01 1.370942e+01 1.427969e+01 1.548588e+00 6.944415e-01 7.979263e-01 9.343982e-01 1.259305e+00 1.231700e+00 1.445950e+00 1.508924e+00 1.662432e+00 1.655825e+00 1.265312e+00 1.388149e+00 1.590359e+00
<GCONST> 8.083580e+01
<TRANSP> 5
 0.000000e+00 1.000000e+00 0.000000e+00 0.000000e+00 0.000000e+00
 0.000000e+00 5.672964e-01 4.327035e-01 0.000000e+00 0.000000e+00
 0.000000e+00 0.000000e+00 6.412050e-01 3.587950e-01 0.000000e+00
 0.000000e+00 0.000000e+00 0.000000e+00 9.253110e-01 7.468895e-02
 0.000000e+00 0.000000e+00 0.000000e+00 0.000000e+00 0.000000e+00
<ENDHMM>
~h "g"
<BEGINHMM>
<NUMSTATES> 5
<STATE> 2
<MEAN> 25
 1.103163e-02 3.190983e+00 5.614994e+00 3.571681e+00 4.320598e+00 4.389211e-01 4.021585e-01 -1.331754e+00 2.744296e+00 2.052540e-02 -4.880529e+00 -2.973950e+00 -1.140121e-01 -5.839381e-01 3.235266e-01 -5.016290e-01 3.668464e-01 -1.041978e+00 -5.650609e-01 -1.332181e+00 -3.991647e-01 -3.634704e-01 2.618429e-02 -2.202528e-01 2.104652e+00
<VARIANCE> 25
 2.670724e+01 9.734282e+01 3.437652e+01 5.068908e+01 3.389852e+01 2.974630e+01 3.606938e+01 4.823116e+01 1.934056e+01 2.359082e+01 2.140072e+01 2.709709e+01 3.766589e+00 1.045747e+01 5.110172e+00 6.545802e+00 4.108189e+00 3.798469e+00 3.670617e+00 6.227166e+00 2.017108e+00 2.558049e+00 2.453110e+00 3.012719e+00 5.832136e+00
<GCONST> 1.066015e+02
<STATE> 3
<MEAN> 25
 2.708756e+00 -2.836024e+00 1.781291e+00 3.360805e+00 4.904283e+00 -7.106196e+00 -7.974553e+00 -8.944538e+00 -2.544050e+00 -2.435853e+00 2.718031e+00 -2.231028e+00 6.807486e-01 2.880250e-01 2.500716e-03 -3.489400e-01 -1.499106e+00 3.430833e-01 -5.680010e-01 -6.004317e-01 -3.383626e-01 2.971407e-01 1.084288e+00 5.789495e-01 1.027182e-01
<VARIANCE> 25
 3.118602e+01 1.997753e+01 3.507603e+01 3.744526e+01 3.352239e+01 2.873220e+01 3.598572e+01 4.165657e+01 1.916030e+01 1.732862e+01 4.462267e+01 2.239236e+01 1.036031e+00 1.885266e+00 3.609731e+00 1.302491e+00 2.256646e+00 4.035900e+00 5.182087e+00 2.991359e+00 2.012110e+00 1.565636e+00 2.690598e+00 1.340963e+00 1.710675e+00
<GCONST> 9.659180e+01
<STATE> 4
<MEAN> 25
 2.358098e+00 1.781279e+00 1.253273e+01 -2.420447e+00 -1.002070e+01 -4.907401e+00 -3.651202e+00 -5.127037e+00 -9.819519e+00 1.015007e+00 1.807378e+00 -2.665502e+00 8.833548e-01 -4.029535e-01 5.613396e-01 1.339329e-01 -1.063066e+00 -3.379860e-01 1.053317e-01 1.529408e+00 -5.108593e-01 -4.844666e-02 3.741800e-01 -4.693968e-01 4.415863e-01
<VARIANCE> 25
 2.222488e+01 1.569110e+01 6.857523e+01 2.252603e+01 4.495185e+01 3.352060e+01 3.479325e+01 2.471950e+01 8.086545e+01 1.321109e+01 3.028432e+01 2.415574e+01 3.199790e+00 2.520329e+00 6.103264e+00 3.013348e+00 4.463345e+00 3.891384e+00 5.088613e+00 3.132622e+00 7.358988e+00 2.103093e+00 2.859051e+00 2.011887e+00 1.307664e+00
<GCONST> 1.021676e+02
<TRANSP> 5
 0.000000e+00 1.000000e+00 0.000000e+00 0.000000e+00 0.000000e+00
 0.000000e+00 8.441073e-01 1.558927e-01 0.000000e+00 0.000000e+00
 0.000000e+00 0.000000e+00 7.444702e-01 2.555298e-01 0.000000e+00
 0.000000e+00 0.000000e+00 0.000000e+00 7.605928e-01 2.394072e-01
 0.000000e+00 0.000000e+00 0.000000e+00 0.000000e+00 0.000000e+00
<ENDHMM>
~h "i"
<BEGINHMM>
<NUMSTATES> 5
<STATE> 2
<MEAN> 25
 2.782494e+00 -1.541310e+00 5.547691e+00 9.559266e+00 8.571751e+00 -8.083927e+00 -8.629025e+00 2.710080e-01 -4.699991e+00 -4.857157e+00 2.234227e+00 -8.059783e+00 -1.776298e-01 1.022867e-01 -9.313722e-02 5.100079e-01 -1.227433e-01 -3.092618e-01 -2.111746e-01 -2.135439e-02 -3.400811e-02 1.919954e-04 -4.106003e-01 -1.592858e-01 -4.509132e-01
<VARIANCE> 25
 7.108167e+00 1.726309e+01 3.387818e+01 3.779496e+01 2.688664e+01 5.522993e+01 3.078679e+01 4.195327e+01 1.927788e+01 2.587750e+01 3.186860e+01 3.784132e+01 6.373049e-01 9.759732e-01 1.551095e+00 2.787435e+00 3.092921e+00 4.721387e+00 2.885584e+00 1.811939e+00 1.361184e+00 1.268512e+00 1.741619e+00 1.688348e+00 7.684156e-01
<GCONST> 9.237176e+01
<STATE> 3
<MEAN> 25
 8.078926e-01 1.787190e+00 3.695143e+00 1.370133e+01 4.406841e+00 -3.720087e+00 -4.367272e+00 2.422935e+00 -7.184272e-02 4.721671e-01 -9.707896e-01 -4.202712e+00 -5.641955e-01 6.870362e-01 -4.195327e-01 -1.670971e-03 -2.675530e-01 9.725450e-01 1.094316e+00 8.415787e-01 9.385214e-01 9.026831e-01 -3.165560e-01 8.970875e-01 -1.251128e+00
<VARIANCE> 25
 1.191016e+01 3.735043e+01 3.135023e+01 2.670604e+01 1.779730e+01 3.635933e+01 2.949379e+01 6.033695e+01 3.183694e+01 2.202768e+01 2.833746e+01 2.235089e+01 4.835549e-01 1.588058e+00 1.488322e+00 2.675223e+00 1.707161e+00 3.454597e+00 3.154749e+00 1.636410e+00 1.075990e+00 5.461427e-01 1.397527e+00 1.717159e+00 5.656897e-01
<GCONST> 9.004295e+01
<STATE> 4
<MEAN> 25
 -3.860508e+00 5.588156e+00 -1.985123e+00 7.057000e+00 2.624619e+00 2.640584e-01 -1.191997e+00 1.590255e+00 3.253983e+00 2.912407e+00 -4.132784e+00 1.790365e+00 -1.845582e-01 4.436927e-02 -3.473832e-01 -5.546314e-01 -1.830136e-01 3.158492e-01 7.187852e-02 -1.808107e-01 6.636550e-02 4.691584e-02 -2.892501e-02 1.488127e-01 -2.318250e-01
<VARIANCE> 25
 1.773848e+01 2.515876e+01 2.170862e+01 1.964217e+01 1.975740e+01 5.675034e+01 3.373217e+01 3.458004e+01 2.118887e+01 1.368729e+01 1.660237e+01 1.052788e+01 4.089214e-01 7.673101e-01 1.116194e+00 1.158968e+00 1.397524e+00 2.724034e+00 2.607681e+00 1.529869e+00 1.560635e+00 9.932754e-01 1.331216e+00 9.258704e-01 1.389013e-01
<GCONST> 8.351293e+01
<TRANSP> 5
 0.000000e+00 1.000000e+00 0.000000e+00 0.000000e+00 0.000000e+00
 0.000000e+00 8.450211e-01 1.549789e-01 0.000000e+00 0.000000e+00
 0.000000e+00 0.000000e+00 7.683054e-01 2.316946e-01 0.000000e+00
 0.000000e+00 0.000000e+00 0.000000e+00 8.898307e-01 1.101693e-01
 0.000000e+00 0.000000e+00 0.000000e+00 0.000000e+00 0.000000e+00
<ENDHMM>
~h "j"
<BEGINHMM>
<NUMSTATES> 5
<STATE> 2
<MEAN> 25
 -6.760710e+00 -1.013391e+01 1.261561e+01 -4.465786e+00 -1.115646e-01 3.093382e+00 2.837171e+00 1.226901e+00 2.174355e+00 1.107060e+00 -3.689143e+00 -5.788234e+00 1.899813e+00 3.561888e-01 -7.150427e-01 1.886764e+00 1.600324e+00 -1.407145e+00 3.278248e-02 -8.539844e-01 -9.040617e-01 -1.029333e+00 1.103552e-01 -7.292115e-01 8.894892e-01
<VARIANCE> 25
 5.976234e+01 1.292751e+02 5.869259e+01 1.051087e+02 5.697805e+01 3.728132e+01 2.583330e+01 2.939303e+01 1.438230e+01 1.490866e+01 1.723144e+01 7.674601e+00 6.603728e+00 1.697872e+01 8.749931e+00 9.733702e+00 6.386962e+00 4.134193e+00 3.397583e+00 2.497781e+00 2.159485e+00 2.344019e+00 1.382761e+00 8.919259e-01 7.908617e+00
<GCONST> 1.066484e+02
<STATE> 3
<MEAN> 25
 4.087789e+00 -2.173275e+00 3.021940e+00 7.531001e+00 3.391469e+00 -3.939571e+00 -2.923031e+00 -4.464849e+00 -1.534511e-01 -3.853212e+00 -4.182002e+00 -7.558455e+00 5.608154e-02 5.044392e-01 -6.592098e-01 5.143172e-01 1.428470e-02 2.846511e-01 1.463749e-01 -2.095207e-01 -5.249287e-01 5.040994e-01 4.467232e-01 5.662428e-01 -9.660584e-01
<VARIANCE> 25
 2.835288e+00 5.785751e+01 7.824020e+00 1.561876e+01 1.766071e+01 1.895787e+01 3.449078e+01 4.971788e+01 1.225805e+01 8.423273e+00 2.024296e+01 1.020885e+01 9.095759e-01 1.527718e+00 1.132419e+00 1.204092e+00 2.229827e+00 2.686888e+00 2.120165e+00 1.818665e+00 8.181464e-01 1.847387e+00 8.672773e-01 1.196422e+00 1.648626e+00
<GCONST> 8.381050e+01
<STATE> 4
<MEAN> 25
 -8.799172e-01 5.821210e+00 2.435315e+00 9.999414e+00 5.789033e+00 4.904187e+00 4.158084e+00 1.875268e+00 1.256616e+00 4.286495e+00 -3.152784e+00 -9.415132e-01 -1.010654e+00 -1.695202e+00 1.027998e+00 -1.450979e+00 -6.539506e-01 7.010370e-01 7.405333e-01 1.057644e+00 -3.664593e-02 6.162906e-01 8.796253e-01 3.986265e-01 4.047499e-01
<VARIANCE> 25
 1.688338e+01 7.926436e+01 3.055730e+01 2.920791e+01 4.538128e+01 4.277669e+01 2.871826e+01 3.111139e+01 1.305423e+01 1.764657e+01 2.335092e+01 1.317604e+01 2.842077e+00 1.990417e+01 6.943589e+00 6.100727e+00 4.465540e+00 1.036982e+01 1.827909e+00 1.671276e+00 3.179809e+00 3.643720e+00 4.678316e+00 2.439258e+00 1.539561e+01
<GCONST> 1.058273e+02
<TRANSP> 5
 0.000000e+00 1.000000e+00 0.000000e+00 0.000000e+00 0.000000e+00
 0.000000e+00 7.318065e-01 2.681935e-01 0.000000e+00 0.000000e+00
 0.000000e+00 0.000000e+00 7.693359e-01 2.306641e-01 0.000000e+00
 0.000000e+00 0.000000e+00 0.000000e+00 8.327475e-01 1.672526e-01
 0.000000e+00 0.000000e+00 0.000000e+00 0.000000e+00 0.000000e+00
<ENDHMM>
~h "k"
<BEGINHMM>
<NUMSTATES> 5
<STATE> 2
<MEAN> 25
 -6.213264e+00 -1.765372e+00 -1.377082e+00 -9.325207e-01 1.115399e+00 -1.527782e+00 2.644435e+00 -5.848092e-01 2.545982e+00 2.354174e+00 -7.144048e-01 4.807748e+00 -1.553228e-01 -9.396671e-01 -2.447150e-01 -1.333720e+00 1.083023e-01 -8.731759e-01 -4.728725e-01 -5.968245e-01 -5.245820e-01 1.559187e-01 -5.761130e-01 -3.504595e-02 2.741118e+00
<VARIANCE> 25
 1.924823e+01 3.993745e+01 4.393438e+01 6.237284e+01 2.329704e+01 3.576984e+01 3.489174e+01 3.652001e+01 3.554938e+01 1.940270e+01 2.652683e+01 1.824655e+01 3.041838e+00 5.375320e+00 6.768309e+00 6.090229e+00 3.285711e+00 4.313456e+00 3.813239e+00 4.562126e+00 4.220351e+00 1.746725e+00 4.084428e+00 2.306979e+00 9.077956e+00
<GCONST> 1.055689e+02
<STATE> 3
<MEAN> 25
 -4.213481e+00 -4.252262e+00 -2.618623e+00 -3.943562e+00 2.803560e+00 -1.646563e+00 5.547651e-02 -9.095606e-01 2.573015e-01 1.785408e+00 -1.056401e+00 5.814649e-01 6.672302e-01 -2.618541e-01 6.956543e-01 -4.257125e-01 2.413855e-02 6.955214e-01 1.102339e-01 -1.820020e-02 -5.486088e-01 -7.710742e-01 7.086768e-01 -9.356623e-01 1.921384e+00
<VARIANCE> 25
 4.067440e+01 5.519847e+01 1.119493e+02 6.246418e+01 7.917838e+01 6.655836e+01 3.175400e+01 4.798163e+01 6.252248e+01 2.320214e+01 3.706615e+01 2.603175e+01 4.386197e+00 8.249899e+00 6.507253e+00 5.809371e+00 4.987552e+00 8.854061e+00 4.579450e+00 4.100376e+00 5.772339e+00 2.961417e+00 4.355845e+00 3.643267e+00 7.968169e+00
<GCONST> 1.141866e+02
<STATE> 4
<MEAN> 25
 8.223702e-01 -2.957694e+00 -1.073152e+00 -7.600659e-01 -1.739401e+00 3.746968e-01 4.441073e+00 -1.100281e+00 -2.765501e+00 -1.402086e+00 2.570223e-01 -1.248856e+00 5.140653e-01 2.195521e-01 5.156908e-01 5.657423e-01 -5.529241e-01 -1.989942e-01 -1.001522e-01 7.612149e-02 1.861049e-01 -4.847453e-01 1.533379e-01 -5.254024e-01 2.701164e-01
<VARIANCE> 25
 5.014654e+01 4.603609e+01 9.317355e+01 5.963337e+01 5.617226e+01 6.482929e+01 4.752954e+01 6.097906e+01 4.875170e+01 3.801217e+01 2.295243e+01 3.284687e+01 3.673745e+00 3.176656e+00 3.603077e+00 3.949111e+00 4.996119e+00 4.549799e+00 4.600255e+00 4.783620e+00 5.260513e+00 4.268665e+00 2.000839e+00 3.389162e+00 3.110546e+00
<GCONST> 1.101238e+02
<TRANSP> 5
 0.000000e+00 1.000000e+00 0.000000e+00 0.000000e+00 0.000000e+00
 0.000000e+00 6.564652e-01 3.435348e-01 0.000000e+00 0.000000e+00
 0.000000e+00 0.000000e+00 6.211489e-01 3.788511e-01 0.000000e+00
 0.000000e+00 0.000000e+00 0.000000e+00 6.491225e-01 3.508775e-01
 0.000000e+00 0.000000e+00 0.000000e+00 0.000000e+00 0.000000e+00
<ENDHMM>
~h "l"
<BEGINHMM>
<NUMSTATES> 5
<STATE> 2
<MEAN> 25
 1.042444e+01 5.378357e+00 -6.346839e+00 -1.411905e+01 -5.366220e+00 5.819113e+00 -2.892491e+00 -9.489683e-01 -7.379911e+00 8.395163e-01 1.327644e+00 -4.597609e+00 4.049325e-02 7.129408e-01 1.218291e-01 -1.411997e-01 -2.648086e-01 -1.488846e-01 1.720156e-02 4.318595e-02 -4.694020e-01 -2.019789e-01 4.292046e-03 5.609874e-01 -5.310426e-01
<VARIANCE> 25
 1.325764e+01 2.134577e+01 1.911963e+01 6.786379e+01 2.732288e+01 4.190995e+01 2.853005e+01 2.620202e+01 4.272431e+01 3.281052e+01 2.383854e+01 3.604494e+01 4.211718e-01 1.036811e+00 8.101811e-01 2.936576e+00 1.235824e+00 2.559705e+00 1.486115e+00 1.948123e+00 2.373592e+00 2.281417e+00 1.837677e+00 1.663203e+00 4.314111e-01
<GCONST> 9.064082e+01
<STATE> 3
<MEAN> 25
 6.309190e+00 6.235285e+00 -2.255694e+00 -4.531008e+00 -1.361346e+00 2.186514e+00 -2.443566e+00 -2.213128e+00 -3.752207e+00 -6.901909e-02 -1.452908e+00 -1.977545e+00 -9.722373e-01 -8.806706e-01 7.933072e-01 1.772440e+00 6.953265e-01 -2.943183e-01 3.491933e-01 1.424366e-01 1.277536e+00 -4.707394e-03 -4.197273e-01 3.114560e-02 -5.077194e-01
<VARIANCE> 25
 1.955359e+01 3.595694e+01 2.032689e+01 5.029063e+01 3.285485e+01 3.361656e+01 4.369184e+01 4.673156e+01 4.138147e+01 3.622856e+01 3.668146e+01 4.085543e+01 1.312183e+00 1.783789e+00 1.557036e+00 4.376184e+00 3.463811e+00 3.531731e+00 2.907380e+00 4.062990e+00 3.676805e+00 3.392161e+00 3.396513e+00 2.952158e+00 1.975724e+00
<GCONST> 1.019383e+02
<STATE> 4
<MEAN> 25
 -2.664810e+00 -9.150728e-01 -4.113046e-01 2.456379e+00 3.097242e+00 2.519201e+00 2.619898e+00 1.421990e+00 3.723114e+00 9.802712e-01 6.383677e-01 2.231959e+00 -2.240287e-01 -2.519549e-01 9.491262e-02 4.798886e-02 -2.153604e-02 -1.404942e-01 5.318989e-02 6.071889e-02 1.747747e-01 8.452407e-02 1.140084e-01 1.733095e-01 -1.433424e-01
<VARIANCE> 25
 2.259977e+01 1.980182e+01 1.394658e+01 1.986701e+01 2.312516e+01 1.992875e+01 2.252431e+01 2.380091e+01 2.791792e+01 1.879862e+01 2.583095e+01 2.338637e+01 3.149138e-01 5.529202e-01 7.664152e-01 1.000821e+00 9.530932e-01 1.383384e+00 1.367808e+00 1.545000e+00 1.806377e+00 1.804633e+00 1.886409e+00 1.354976e+00 1.899944e-01
<GCONST> 8.223001e+01
<TRANSP> 5
 0.000000e+00 1.000000e+00 0.000000e+00 0.000000e+00 0.000000e+00
 0.000000e+00 8.314949e-01 1.685051e-01 0.000000e+00 0.000000e+00
 0.000000e+00 0.000000e+00 7.371013e-01 2.628987e-01 0.000000e+00
 0.000000e+00 0.000000e+00 0.000000e+00 8.620965e-01 1.379036e-01
 0.000000e+00 0.000000e+00 0.000000e+00 0.000000e+00 0.000000e+00
<ENDHMM>
~h "m"
<BEGINHMM>
<NUMSTATES> 5
<STATE> 2
<MEAN> 25
 5.488080e+00 2.748651e+00 5.109427e+00 5.804543e+00 -1.759939e-01 -1.398214e+00 -5.365813e-01 -8.399385e+00 -7.023508e+00 -1.502699e+00 1.107157e+00 -3.526149e+00 1.505173e+00 1.234923e+00 1.454933e+00 2.007267e+00 1.002292e+00 -7.384023e-01 -5.760246e-01 -2.592599e+00 -2.049338e+00 6.306589e-01 2.897962e-01 -7.629497e-01 -1.104707e-01
<VARIANCE> 25
 2.967531e+01 1.701549e+01 2.450315e+01 2.862234e+01 2.441689e+01 3.098216e+01 2.671084e+01 5.639221e+01 5.196427e+01 2.410393e+01 3.421636e+01 2.741485e+01 4.145136e+00 2.537702e+00 3.654748e+00 2.777967e+00 3.085506e+00 4.086566e+00 2.427320e+00 3.988948e+00 3.706818e+00 3.738785e+00 3.560211e+00 3.934041e+00 2.739616e+00
<GCONST> 1.023991e+02
<STATE> 3
<MEAN> 25
 7.720220e+00 4.627699e+00 7.383343e+00 8.421730e+00 1.993657e+00 -3.035613e+00 -2.019613e+00 -1.209763e+01 -1.062192e+01 3.222943e-01 -8.155112e-01 -6.591243e+00 3.626268e-02 1.511067e-01 -1.415904e-02 5.499560e-02 6.803682e-02 -1.779020e-01 -7.518994e-02 9.693089e-02 1.599314e-01 -7.005206e-02 -7.104313e-02 -9.408197e-02 -7.565907e-02
<VARIANCE> 25
 9.223399e+00 8.311558e+00 1.549017e+01 9.326047e+00 1.263731e+01 4.088786e+01 2.749534e+01 4.874463e+01 3.277785e+01 2.093058e+01 4.609275e+01 2.816222e+01 4.699505e-01 7.033024e-01 8.044058e-01 9.011121e-01 7.671118e-01 1.130926e+00 1.240695e+00 1.961766e+00 2.071274e+00 1.761099e+00 1.386397e+00 1.689326e+00 4.588363e-01
<GCONST> 8.309168e+01
<STATE> 4
<MEAN> 25
 4.216408e+00 1.611821e+00 8.801058e+00 1.052132e+00 -4.919764e+00 -3.051221e+00 -3.544364e+00 -3.268870e+00 -6.005295e+00 -4.577446e+00 -5.863386e-01 -5.988107e+00 -5.715509e-01 -4.490879e-01 -2.250473e-01 -8.396121e-01 -4.217820e-01 3.218775e-01 5.282509e-01 1.360747e+00 7.206407e-01 -5.076216e-01 -4.432919e-01 2.345440e-01 3.759553e-01
<VARIANCE> 25
 3.892165e+01 5.661335e+01 6.832276e+01 5.791320e+01 5.747037e+01 5.971086e+01 5.465807e+01 1.132331e+02 4.538883e+01 2.654771e+01 3.586396e+01 2.985638e+01 2.065852e+00 2.207237e+00 3.732997e+00 3.927819e+00 5.704539e+00 3.922757e+00 3.478447e+00 6.253036e+00 3.565337e+00 3.145619e+00 2.150163e+00 2.751866e+00 2.677788e+00
<GCONST> 1.084400e+02
<TRANSP> 5
 0.000000e+00 1.000000e+00 0.000000e+00 0.000000e+00 0.000000e+00
 0.000000e+00 5.210125e-01 4.789875e-01 0.000000e+00 0.000000e+00
 0.000000e+00 0.000000e+00 8.353485e-01 1.646515e-01 0.000000e+00
 0.000000e+00 0.000000e+00 0.000000e+00 7.998849e-01 2.001151e-01
 0.000000e+00 0.000000e+00 0.000000e+00 0.000000e+00 0.000000e+00
<ENDHMM>
~h "n"
<BEGINHMM>
<NUMSTATES> 5
<STATE> 2
<MEAN> 25
 6.673180e+00 2.499233e+00 6.340821e+00 4.475086e+00 -2.600665e+00 -3.793890e+00 -1.897449e+00 -8.119855e+00 -9.377994e+00 -7.475495e-01 -5.782591e+00 -5.544286e+00 -1.918720e-01 2.905809e-01 5.993644e-02 2.319271e-01 1.642593e-01 1.315656e-01 -7.758439e-02 -1.959876e-01 1.743819e-01 -1.467004e-01 -1.474858e-01 1.643047e-01 -4.927176e-01
<VARIANCE> 25
 8.367557e+00 1.802119e+01 2.206891e+01 2.959322e+01 2.673872e+01 1.597956e+01 2.155769e+01 6.477238e+01 3.912658e+01 2.664568e+01 2.038178e+01 1.305395e+01 4.020239e-01 8.373327e-01 1.094052e+00 1.794239e+00 1.587857e+00 1.184252e+00 1.230886e+00 4.802692e+00 2.079405e+00 2.120537e+00 1.192309e+00 7.723414e-01 7.994359e-01
<GCONST> 8.644832e+01
<STATE> 3
<MEAN> 25
 1.177261e+00 3.412446e+00 1.709532e+00 4.821690e+00 3.534594e+00 4.055900e-01 -6.572850e-01 -1.308883e+00 -6.185526e-01 -3.813583e+00 -4.819893e+00 -1.942683e+00 -1.028977e+00 -5.790023e-01 -8.614223e-01 -3.320437e-01 5.542021e-01 7.054871e-01 7.615272e-01 9.905539e-01 1.155750e+00 7.592968e-01 8.661456e-01 8.468236e-01 -6.381817e-01
<VARIANCE> 25
 1.552407e+01 2.121957e+01 2.572415e+01 2.466516e+01 1.979586e+01 2.857926e+01 2.629304e+01 4.101903e+01 3.206982e+01 2.886802e+01 3.270712e+01 2.306338e+01 1.339266e+00 1.505333e+00 1.595185e+00 2.286252e+00 1.776829e+00 2.541439e+00 2.301636e+00 3.671066e+00 3.040110e+00 2.932920e+00 2.947140e+00 2.245830e+00 1.095081e+00
<GCONST> 9.478036e+01
<STATE> 4
<MEAN> 25
 -3.812988e+00 -2.144944e+00 -3.420958e+00 1.443547e+00 3.627472e+00 2.128114e+00 3.504730e+00 2.981630e+00 4.939981e+00 2.061411e+00 2.212916e+00 3.978965e+00 -4.484633e-02 -3.406752e-02 -3.913280e-02 -4.894716e-02 1.054474e-02 1.077872e-02 5.821027e-02 2.207794e-02 4.829292e-02 7.448475e-02 1.272202e-01 5.757550e-02 -2.770572e-02
<VARIANCE> 25
 6.474703e+00 1.020350e+01 1.043551e+01 1.359210e+01 1.054047e+01 1.247681e+01 1.507177e+01 1.601540e+01 2.033763e+01 1.515104e+01 2.085130e+01 1.749461e+01 2.616809e-01 3.593046e-01 4.924355e-01 6.768826e-01 8.393219e-01 1.048316e+00 1.299567e+00 1.528248e+00 1.427425e+00 1.534210e+00 1.398608e+00 1.327780e+00 1.345682e-01
<GCONST> 7.358009e+01
<TRANSP> 5
 0.000000e+00 1.000000e+00 0.000000e+00 0.000000e+00 0.000000e+00
 0.000000e+00 8.632508e-01 1.367491e-01 0.000000e+00 0.000000e+00
 0.000000e+00 0.000000e+00 7.309017e-01 2.690983e-01 0.000000e+00
 0.000000e+00 0.000000e+00 0.000000e+00 9.168614e-01 8.313862e-02
 0.000000e+00 0.000000e+00 0.000000e+00 0.000000e+00 0.000000e+00
<ENDHMM>
~h "p"
<BEGINHMM>
<NUMSTATES> 5
<STATE> 2
<MEAN> 25
 -1.544967e+00 2.198971e+00 -2.698154e+00 -1.213619e+00 4.855558e+00 4.269795e-01 8.794621e-01 8.881791e-01 3.320578e+00 1.056846e+00 1.300840e+00 9.070522e-01 4.054956e-01 3.023292e-02 -5.922234e-01 -6.546373e-01 -4.432781e-02 2.372595e-02 -2.541350e-01 -9.449628e-02 -8.055466e-02 2.107885e-01 1.827692e-01 -1.463902e-01 1.034307e+00
<VARIANCE> 25
 3.317655e+01 1.792888e+01 4.354068e+01 4.391161e+01 3.477951e+01 3.981573e+01 2.818537e+01 2.704560e+01 3.026687e+01 2.237604e+01 1.793060e+01 2.161670e+01 5.664519e+00 2.798541e+00 3.584727e+00 4.645377e+00 3.024949e+00 4.803238e+00 3.087672e+00 3.517109e+00 4.836958e+00 3.173294e+00 3.010933e+00 3.360829e+00 6.547283e+00
<GCONST> 1.038004e+02
<STATE> 3
<MEAN> 25
 3.862763e+00 -5.577707e-01 -4.024238e+00 -1.516098e+00 2.413675e+00 1.852244e+00 -3.464678e+00 7.574031e-01 1.284196e+00 2.432785e-01 -2.190253e+00 -2.930034e+00 -2.814028e-01 -1.104265e+00 6.894702e-01 1.086022e+00 -4.701657e-01 -3.012320e-01 7.713541e-02 9.220278e-01 4.628257e-01 -2.062065e-01 -4.136431e-01 3.478556e-01 4.589052e-01
<VARIANCE> 25
 2.859819e+01 3.147506e+01 5.208643e+01 4.215948e+01 3.101238e+01 2.716330e+01 6.066061e+01 4.866432e+01 2.699680e+01 4.337202e+01 5.562331e+01 3.092976e+01 5.676447e+00 3.831030e+00 5.897779e+00 4.145604e+00 5.827422e+00 2.898983e+00 8.511616e+00 6.625680e+00 6.534991e+00 6.240267e+00 5.687036e+00 4.544642e+00 5.768969e+00
<GCONST> 1.115344e+02
<STATE> 4
<MEAN> 25
 5.756823e-01 -7.908097e-01 -1.438745e+00 -3.913811e-01 1.375565e+00 1.292828e+00 1.196625e-01 -9.517348e-01 1.607630e+00 7.387970e-01 -5.968655e-01 -2.080815e+00 -1.148612e-01 -8.145292e-02 3.121876e-01 8.943117e-02 -4.357338e-01 3.429282e-02 1.843288e-01 -1.901418e-01 -1.549665e-01 1.055671e-01 1.096985e-01 1.482712e-01 5.219995e-01
<VARIANCE> 25
 2.089109e+01 1.790938e+01 2.445294e+01 2.281781e+01 2.629892e+01 1.731628e+01 3.384402e+01 3.388875e+01 3.160950e+01 3.063126e+01 2.269529e+01 2.608490e+01 3.027086e+00 1.801907e+00 3.749962e+00 1.570246e+00 3.050647e+00 1.933419e+00 4.529350e+00 2.945584e+00 3.207776e+00 2.640781e+00 1.642442e+00 2.245952e+00 2.995474e+00
<GCONST> 9.699490e+01
<TRANSP> 5
 0.000000e+00 1.000000e+00 0.000000e+00 0.000000e+00 0.000000e+00
 0.000000e+00 6.697393e-01 3.302608e-01 0.000000e+00 0.000000e+00
 0.000000e+00 0.000000e+00 4.891713e-01 5.108287e-01 0.000000e+00
 0.000000e+00 0.000000e+00 0.000000e+00 7.660557e-01 2.339443e-01
 0.000000e+00 0.000000e+00 0.000000e+00 0.000000e+00 0.000000e+00
<ENDHMM>
~h "r"
<BEGINHMM>
<NUMSTATES> 5
<STATE> 2
<MEAN> 25
 9.802650e+00 -2.052866e+00 -6.318208e+00 3.947008e+00 1.726123e+00 -4.928352e+00 -1.015737e+01 -1.161710e+00 1.960754e+00 -4.735325e+00 -4.484756e-01 8.821208e-01 1.145236e+00 -2.742674e-01 -8.689221e-01 6.348758e-01 -9.510696e-02 -8.848494e-01 -1.632119e+00 7.590783e-01 4.315192e-01 -8.927706e-01 -2.175809e-01 -1.023356e-01 8.228064e-01
<VARIANCE> 25
 5.914748e+01 2.918645e+01 6.242375e+01 2.399485e+01 3.105742e+01 8.467350e+01 7.253064e+01 7.267262e+01 5.109381e+01 5.424388e+01 2.418667e+01 3.089727e+01 4.083916e+00 3.040139e+00 4.649445e+00 2.113552e+00 3.828317e+00 4.428489e+00 4.912803e+00 7.164037e+00 4.818005e+00 5.158974e+00 2.516849e+00 2.909621e+00 3.318905e+00
<GCONST> 1.092999e+02
<STATE> 3
<MEAN> 25
 9.251480e+00 -2.313198e+00 -3.162662e+00 7.249470e+00 -3.392695e+00 -7.705574e+00 -1.031633e+01 4.511081e+00 -1.175956e+00 -8.366362e+00 9.945657e-01 2.564152e+00 -1.084059e+00 2.174670e-01 2.226730e+00 -1.722956e-01 -1.157901e+00 1.020669e-01 2.338886e+00 2.336681e-01 -1.810951e+00 4.289057e-01 1.328602e-01 -2.574282e-01 -5.782105e-01
<VARIANCE> 25
 3.870402e+01 4.089416e+01 5.741924e+01 5.611352e+01 4.673680e+01 7.520042e+01 6.896983e+01 5.500304e+01 5.750281e+01 6.015704e+01 3.904912e+01 3.589655e+01 1.878090e+00 3.065758e+00 3.563796e+00 3.174880e+00 4.848731e+00 4.102990e+00 3.545719e+00 6.265297e+00 4.960802e+00 6.076800e+00 3.814821e+00 2.892106e+00 3.244261e+00
<GCONST> 1.104433e+02
<STATE> 4
<MEAN> 25
 3.417040e-03 1.000133e+00 3.844312e+00 3.457116e+00 -1.156738e+00 -1.250045e+00 1.668383e+00 -1.621794e+00 -2.662771e+00 -1.453930e+00 1.348248e+00 -2.733546e-01 -6.483859e-01 1.637126e-02 3.636286e-01 -1.839068e-01 -2.132502e-01 2.896590e-01 4.679442e-01 -4.193243e-01 1.366973e-01 3.942068e-01 -9.587850e-02 -1.452479e-01 -4.549738e-01
<VARIANCE> 25
 1.025703e+02 4.101188e+01 9.836444e+01 3.507402e+01 7.091576e+01 4.450540e+01 5.123756e+01 6.093528e+01 3.382784e+01 4.831860e+01 3.777852e+01 3.947935e+01 5.266877e+00 2.600063e+00 3.696428e+00 4.447615e+00 5.093692e+00 5.212589e+00 4.322432e+00 5.149163e+00 4.700588e+00 5.033759e+00 3.823653e+00 3.776299e+00 3.080266e+00
<GCONST> 1.120048e+02
<TRANSP> 5
 0.000000e+00 1.000000e+00 0.000000e+00 0.000000e+00 0.000000e+00
 0.000000e+00 7.011695e-01 2.988305e-01 0.000000e+00 0.000000e+00
 0.000000e+00 0.000000e+00 5.723644e-01 4.276356e-01 0.000000e+00
 0.000000e+00 0.000000e+00 0.000000e+00 6.959310e-01 3.040691e-01
 0.000000e+00 0.000000e+00 0.000000e+00 0.000000e+00 0.000000e+00
<ENDHMM>
~h "s"
<BEGINHMM>
<NUMSTATES> 5
<STATE> 2
<MEAN> 25
 -7.221900e+00 2.030388e+00 -4.512840e-01 -2.888729e+00 5.315047e+00 -7.162899e+00 3.288727e+00 -6.591471e-02 -3.047524e-01 1.975303e-01 -2.844366e+00 2.410102e+00 -3.711317e+00 1.204639e+00 -4.818695e-01 -9.509223e-01 1.736261e+00 -1.311355e+00 1.732139e+00 4.775366e-01 2.664273e-01 -3.957565e-01 4.112995e-01 8.526682e-01 1.670532e+00
<VARIANCE> 25
 7.908846e+01 3.501208e+01 2.696151e+01 2.262594e+01 2.795918e+01 5.167723e+01 3.622672e+01 3.592904e+01 2.851691e+01 2.761646e+01 2.965746e+01 1.821215e+01 4.285666e+00 4.605530e+00 3.635206e+00 2.306382e+00 2.893694e+00 4.042931e+00 3.786689e+00 2.681901e+00 3.601492e+00 2.825576e+00 2.529082e+00 1.803935e+00 2.667716e+00
<GCONST> 1.024000e+02
<STATE> 3
<MEAN> 25
 -2.085341e+01 8.073586e+00 -2.863293e+00 -5.484496e+00 1.143734e+01 -7.435259e+00 7.424519e+00 2.764175e+00 7.387544e-01 -8.201161e-01 -2.878458e-01 6.207121e+00 -5.372455e-01 2.105435e-01 -3.222599e-01 -1.579522e-01 1.582092e-01 4.695975e-01 -1.212793e-01 2.647307e-01 2.307132e-01 -3.006015e-02 1.775848e-01 1.831847e-01 2.299667e-01
<VARIANCE> 25
 5.160419e+01 1.862638e+01 3.212698e+01 1.843858e+01 2.596293e+01 2.642447e+01 1.663741e+01 4.018572e+01 2.090108e+01 1.557392e+01 1.615649e+01 1.242777e+01 1.308276e+00 1.244620e+00 1.408594e+00 1.001093e+00 1.908111e+00 1.498291e+00 1.166616e+00 1.711268e+00 1.570622e+00 1.676293e+00 1.361186e+00 1.058070e+00 7.241469e-01
<GCONST> 8.690613e+01
<STATE> 4
<MEAN> 25
 -1.543683e+01 6.072464e+00 -6.561030e+00 -3.513579e+00 7.770696e+00 -6.604248e+00 6.759041e+00 5.389408e-01 3.950339e+00 -4.122635e-01 -3.073120e-01 4.065324e+00 1.507754e+00 -6.314867e-01 2.037784e-01 2.478479e-01 -8.016928e-01 2.048916e-01 -5.745562e-01 -3.363304e-01 6.673751e-02 2.015746e-01 -1.221255e-01 -5.818107e-01 -6.751028e-01
<VARIANCE> 25
 5.874142e+01 1.771273e+01 3.280312e+01 2.504339e+01 2.219471e+01 3.325505e+01 2.220884e+01 2.554052e+01 2.123679e+01 2.285592e+01 1.526004e+01 1.572064e+01 4.163483e+00 1.140116e+00 1.904731e+00 1.566281e+00 1.355965e+00 2.688783e+00 2.329271e+00 2.143553e+00 2.139768e+00 2.340869e+00 1.570283e+00 2.010433e+00 2.926876e+00
<GCONST> 9.360237e+01
<TRANSP> 5
 0.000000e+00 1.000000e+00 0.000000e+00 0.000000e+00 0.000000e+00
 0.000000e+00 7.000284e-01 2.999716e-01 0.000000e+00 0.000000e+00
 0.000000e+00 0.000000e+00 7.808915e-01 2.191085e-01 0.000000e+00
 0.000000e+00 0.000000e+00 0.000000e+00 8.266551e-01 1.733449e-01
 0.000000e+00 0.000000e+00 0.000000e+00 0.000000e+00 0.000000e+00
<ENDHMM>
~h "t"
<BEGINHMM>
<NUMSTATES> 5
<STATE> 2
<MEAN> 25
 -6.147608e+00 -2.157887e+00 1.227264e+00 -3.754618e+00 6.518117e-01 -6.307963e-01 1.311028e+00 -1.590925e+00 4.147720e-02 2.465578e-01 -2.281879e-02 2.454049e+00 -1.936888e+00 -4.547963e-01 7.840875e-01 -1.447208e+00 -6.400095e-01 -7.223952e-01 5.448449e-01 2.580521e-01 -3.789072e-01 6.121670e-02 3.163316e-01 6.799206e-01 2.704710e+00
<VARIANCE> 25
 4.171304e+01 2.445191e+01 3.693354e+01 3.855256e+01 2.755469e+01 2.698734e+01 3.193644e+01 2.858749e+01 3.072970e+01 2.183128e+01 2.097997e+01 1.982166e+01 4.106518e+00 2.740659e+00 3.886024e+00 3.707762e+00 2.001282e+00 4.365703e+00 4.561530e+00 4.383468e+00 4.311979e+00 3.251028e+00 3.298004e+00 2.608735e+00 1.049109e+01
<GCONST> 1.034975e+02
<STATE> 3
<MEAN> 25
 -7.003721e+00 -9.157417e-01 5.470039e+00 -1.384390e+00 -1.011508e+00 -4.325483e+00 3.834245e+00 2.172656e+00 -6.697350e-01 2.029267e-01 3.359864e-01 3.976479e+00 1.684820e+00 3.573121e-01 -9.009928e-02 1.398028e+00 3.866366e-01 4.251257e-01 -1.988705e-01 5.928814e-01 6.325601e-01 3.201073e-01 -5.398806e-02 -7.927128e-02 -1.630044e+00
<VARIANCE> 25
 6.714584e+01 3.035801e+01 4.001514e+01 4.262672e+01 3.721355e+01 5.327714e+01 3.925867e+01 4.406274e+01 2.427748e+01 3.713026e+01 2.591810e+01 2.244698e+01 5.159682e+00 3.032433e+00 3.098197e+00 2.424094e+00 3.803521e+00 6.460618e+00 4.366449e+00 2.536515e+00 3.111242e+00 3.200885e+00 2.485011e+00 2.174363e+00 3.613017e+00
<GCONST> 1.048696e+02
<STATE> 4
<MEAN> 25
 -3.651978e+00 -1.131103e+00 -1.731943e+00 1.311403e+00 2.924666e+00 2.836218e+00 3.231350e+00 1.767482e+00 3.883793e+00 2.294683e+00 1.725382e+00 3.069442e+00 1.539122e-01 7.040361e-03 -1.476474e-01 6.663176e-02 -4.980323e-02 9.619153e-02 -9.842354e-02 -1.638928e-02 3.607121e-02 -1.086213e-01 1.537174e-02 -7.103237e-02 -8.613756e-02
<VARIANCE> 25
 1.078952e+01 8.717174e+00 1.349486e+01 1.185649e+01 1.499161e+01 1.816617e+01 2.009598e+01 1.628514e+01 1.596621e+01 1.680194e+01 1.627094e+01 1.476863e+01 6.655559e-01 5.155215e-01 9.484630e-01 8.504180e-01 1.138928e+00 1.312355e+00 1.634709e+00 1.625869e+00 1.559394e+00 1.405147e+00 1.330448e+00 1.281138e+00 2.410354e-01
<GCONST> 7.802732e+01
<TRANSP> 5
 0.000000e+00 1.000000e+00 0.000000e+00 0.000000e+00 0.000000e+00
 0.000000e+00 6.621634e-01 3.378365e-01 0.000000e+00 0.000000e+00
 0.000000e+00 0.000000e+00 7.236338e-01 2.763662e-01 0.000000e+00
 0.000000e+00 0.000000e+00 0.000000e+00 8.945500e-01 1.054500e-01
 0.000000e+00 0.000000e+00 0.000000e+00 0.000000e+00 0.000000e+00
<ENDHMM>
~h "u"
<BEGINHMM>
<NUMSTATES> 5
<STATE> 2
<MEAN> 25
 -7.149547e-01 3.371763e+00 1.645498e+00 -7.601919e-01 5.853176e-01 -1.143016e+00 4.629484e+00 1.070056e+00 -1.130790e+00 -2.893267e-01 -5.577945e+00 -3.826570e+00 -2.372422e-01 -1.752410e-01 2.743901e-02 -1.852709e-01 1.651002e-01 -3.361217e-01 -1.470015e-01 1.094078e-01 -1.216846e-01 4.670930e-02 1.152852e-02 1.628161e-01 4.549297e-03
<VARIANCE> 25
 5.686985e+01 9.351079e+01 2.700849e+01 3.645311e+01 5.206956e+01 9.684351e+01 3.987396e+01 3.495637e+01 2.595991e+01 2.950020e+01 4.786113e+01 2.868260e+01 3.004323e+00 8.542356e+00 2.789858e+00 4.816383e+00 4.696632e+00 9.592802e+00 5.167463e+00 4.396300e+00 3.081065e+00 2.506802e+00 5.267754e+00 3.224549e+00 1.039372e+01
<GCONST> 1.110410e+02
<STATE> 3
<MEAN> 25
 4.778887e-01 -5.116671e+00 7.645669e+00 -3.533423e+00 1.426310e+00 -2.998075e-01 -1.382980e+00 -8.926884e-01 -1.828561e+00 -2.970190e-02 3.024125e+00 -1.653146e+00 1.979020e+00 1.853051e-01 -7.812642e-01 -4.521633e-01 -1.822882e-01 -1.296502e+00 -1.102286e+00 -1.401709e+00 -6.524438e-01 -1.649696e+00 2.025747e+00 4.497777e-01 2.298835e+00
<VARIANCE> 25
 3.226149e+01 7.254222e+01 6.383988e+01 2.830119e+01 6.141805e+01 7.334666e+01 3.622416e+01 4.174310e+01 2.033892e+01 3.301827e+01 4.814447e+01 2.081574e+01 1.937078e+00 8.848183e+00 5.799514e+00 4.046569e+00 8.005383e+00 7.302770e+00 3.980253e+00 8.844295e+00 3.929742e+00 1.836518e+00 7.182305e+00 1.907456e+00 8.223301e+00
<GCONST> 1.106853e+02
<STATE> 4
<MEAN> 25
 6.114737e+00 -1.920200e+00 1.672062e+00 -3.670943e+00 -7.660505e-01 -5.581219e+00 -2.621742e+00 -1.168130e-01 -5.875544e-01 -3.891838e+00 3.362488e+00 -3.102125e+00 4.143136e-02 1.489352e-02 -1.570936e-01 -8.555836e-02 -3.028115e-01 1.560601e-01 5.268851e-02 3.073703e-02 3.027239e-02 1.157707e-02 -1.712370e-02 1.228342e-02 -1.340460e-01
<VARIANCE> 25
 3.292732e+01 7.323799e+01 3.500120e+01 2.351633e+01 3.318888e+01 4.077816e+01 3.477479e+01 3.514305e+01 2.755591e+01 3.186972e+01 4.093453e+01 1.739873e+01 1.268250e+00 2.413468e+00 2.219637e+00 1.875923e+00 2.841913e+00 2.952921e+00 2.262617e+00 2.612433e+00 1.221172e+00 1.737780e+00 2.534154e+00 1.564616e+00 1.456827e+00
<GCONST> 9.706834e+01
<TRANSP> 5
 0.000000e+00 1.000000e+00 0.000000e+00 0.000000e+00 0.000000e+00
 0.000000e+00 8.695511e-01 1.304488e-01 0.000000e+00 0.000000e+00
 0.000000e+00 0.000000e+00 5.682318e-01 4.317681e-01 0.000000e+00
 0.000000e+00 0.000000e+00 0.000000e+00 9.173823e-01 8.261770e-02
 0.000000e+00 0.000000e+00 0.000000e+00 0.000000e+00 0.000000e+00
<ENDHMM>
~h "v"
<BEGINHMM>
<NUMSTATES> 5
<STATE> 2
<MEAN> 25
 1.872782e+00 1.616510e+00 -2.057003e+00 3.051854e+00 3.220788e+00 1.919016e+00 -6.907090e-01 -1.300862e+00 9.271136e-03 -1.968127e+00 -2.838793e+00 -9.305905e-01 -1.373594e+00 -5.277736e-01 -4.817699e-01 -1.732064e-01 1.354462e-01 7.935660e-02 9.085608e-01 7.949088e-01 1.360864e+00 3.414010e-01 9.000328e-02 8.472334e-01 -8.446327e-01
<VARIANCE> 25
 3.184404e+01 1.339387e+01 2.443737e+01 1.509242e+01 2.142588e+01 1.920388e+01 1.355528e+01 1.456395e+01 1.958990e+01 1.386132e+01 2.025097e+01 1.995130e+01 1.409604e+00 1.490007e+00 1.263727e+00 1.841621e+00 3.570959e+00 3.507953e+00 2.021640e+00 1.258171e+00 2.282016e+00 1.139517e+00 2.046710e+00 1.367718e+00 9.062461e-01
<GCONST> 8.775836e+01
<STATE> 3
<MEAN> 25
 -5.063399e+00 -4.124048e-01 -2.180547e+00 4.007258e+00 1.933271e+00 8.086156e-01 -4.841998e-02 1.489991e+00 3.564748e+00 1.681562e+00 6.585749e-01 1.612848e+00 -1.945937e-01 -3.307543e-01 2.244175e-02 -2.912098e-02 1.727148e-01 1.310355e-01 2.155179e-01 5.949304e-02 6.411429e-03 2.246457e-01 2.610162e-01 2.313502e-01 -2.626992e-01
<VARIANCE> 25
 1.855808e+01 1.407458e+01 1.579664e+01 1.416099e+01 1.583980e+01 9.195240e+00 1.762276e+01 1.629030e+01 1.022299e+01 1.350115e+01 1.391301e+01 1.727824e+01 2.117081e+00 4.439351e-01 8.395406e-01 5.242963e-01 1.651213e+00 1.288423e+00 1.846399e+00 1.015278e+00 1.475803e+00 1.492333e+00 2.054105e+00 1.727162e+00 9.254228e-01
<GCONST> 8.045219e+01
<STATE> 4
<MEAN> 25
 -2.249029e+00 -3.654932e+00 -3.257987e+00 -3.099690e-01 1.933073e+00 4.694797e-01 1.479728e+00 1.409743e+00 3.134928e+00 2.040012e+00 -1.079852e+00 2.426847e+00 2.273249e-02 5.346176e-02 3.541507e-02 4.220785e-02 1.262330e-02 -9.009952e-03 -2.161382e-02 -3.195104e-02 -6.036210e-02 -2.988760e-02 -3.845115e-02 -3.558379e-02 1.058536e-02
<VARIANCE> 25
 1.113311e+00 7.451751e+00 6.767885e+00 8.176494e+00 9.910389e+00 1.112501e+01 1.355719e+01 1.047140e+01 1.540289e+01 1.504121e+01 1.589299e+01 1.184846e+01 1.931983e-01 2.844277e-01 5.570542e-01 6.085490e-01 8.578795e-01 1.134753e+00 1.330606e+00 1.166482e+00 2.037337e+00 1.715198e+00 1.174208e+00 1.314326e+00 5.792586e-02
<GCONST> 6.768410e+01
<TRANSP> 5
 0.000000e+00 1.000000e+00 0.000000e+00 0.000000e+00 0.000000e+00
 0.000000e+00 6.018348e-01 3.981652e-01 0.000000e+00 0.000000e+00
 0.000000e+00 0.000000e+00 5.494973e-01 4.505027e-01 0.000000e+00
 0.000000e+00 0.000000e+00 0.000000e+00 9.449148e-01 5.508523e-02
 0.000000e+00 0.000000e+00 0.000000e+00 0.000000e+00 0.000000e+00
<ENDHMM>
~h "w"
<BEGINHMM>
<NUMSTATES> 5
<STATE> 2
<MEAN> 25
 1.015528e+01 7.848203e+00 -1.603153e+00 -5.600814e+00 -1.990184e-01 4.627516e+00 -8.966864e-01 -4.921225e+00 -2.131360e+00 -1.734746e+00 1.286526e+00 -5.189222e-01 5.406911e-01 -1.703982e-01 -2.773326e-01 -2.459439e-01 -4.641088e-01 3.933991e-01 -4.211840e-01 6.501713e-03 1.884083e-02 4.097573e-01 5.347919e-01 -7.237672e-01 9.252191e-01
<VARIANCE> 25
 1.120068e+01 1.280454e+01 1.815523e+01 4.312172e+01 1.646386e+01 4.468538e+01 4.512426e+01 3.771996e+01 4.074391e+01 4.580352e+01 4.741453e+01 2.394501e+01 2.568990e+00 3.319716e+00 1.299397e+00 3.939192e+00 2.088610e+00 5.608042e+00 3.703629e+00 3.234378e+00 4.880459e+00 6.086625e+00 3.848760e+00 3.533740e+00 1.551193e+00
<GCONST> 1.013430e+02
<STATE> 3
<MEAN> 25
 7.663334e+00 -1.812190e+00 -3.664962e-01 1.781152e+00 -4.539734e+00 -1.042490e+00 -2.426390e+00 3.586769e+00 2.775085e+00 -2.301495e-01 1.931064e-01 -7.172842e+00 -4.034151e-01 -1.272652e+00 1.464102e+00 1.220163e+00 -1.653437e+00 -3.296542e+00 1.406296e+00 3.715006e+00 -3.059314e-01 -1.765051e+00 -1.310244e+00 4.874087e-01 3.667943e-01
<VARIANCE> 25
 7.321678e+00 1.860504e+01 2.616660e+01 2.062061e+01 2.560252e+01 6.528961e+01 7.697395e+01 7.467878e+01 3.608946e+01 5.517355e+01 2.825401e+01 3.475658e+01 7.933611e-01 1.557335e+00 2.094286e+00 3.903454e+00 2.245786e+00 4.494421e+00 3.313258e+00 2.808722e+00 7.206704e+00 2.806103e+00 7.828657e+00 3.517200e+00 5.586102e-01
<GCONST> 1.003113e+02
<STATE> 4
<MEAN> 25
 7.178865e+00 -3.631870e+00 6.025308e-01 4.184672e+00 -1.137444e+01 -7.057550e+00 -1.890085e+00 1.046284e+01 -3.046941e-01 -3.425644e+00 4.133492e+00 -1.155173e+00 -2.185479e-01 7.439072e-02 -1.081138e-01 -4.319533e-01 -1.670972e-01 -1.454928e-01 -2.248574e-01 -6.687157e-01 -7.583368e-01 2.563980e-01 1.547123e-01 3.399955e-01 -5.710930e-01
<VARIANCE> 25
 1.551554e+01 1.596728e+01 2.474850e+01 2.903790e+01 4.502790e+01 1.641380e+01 7.527519e+01 8.297826e+01 4.058693e+01 2.028945e+01 2.513441e+01 2.398470e+01 7.874813e-01 8.862026e-01 1.245686e+00 1.162288e+00 2.379222e+00 1.573454e+00 1.482364e+00 2.065057e+00 2.391093e+00 1.736264e+00 2.767860e+00 2.209106e+00 8.047189e-01
<GCONST> 9.196309e+01
<TRANSP> 5
 0.000000e+00 1.000000e+00 0.000000e+00 0.000000e+00 0.000000e+00
 0.000000e+00 8.835901e-01 1.164099e-01 0.000000e+00 0.000000e+00
 0.000000e+00 0.000000e+00 6.749181e-01 3.250820e-01 0.000000e+00
 0.000000e+00 0.000000e+00 0.000000e+00 8.220100e-01 1.779900e-01
 0.000000e+00 0.000000e+00 0.000000e+00 0.000000e+00 0.000000e+00
<ENDHMM>
~h "y"
<BEGINHMM>
<NUMSTATES> 5
<STATE> 2
<MEAN> 25
 -1.093239e+01 -5.989636e-01 1.152010e+01 -2.247513e+00 -2.509433e+00 9.757591e-01 6.613221e+00 -7.619097e+00 2.759487e-01 2.277082e+00 -1.490395e+00 2.814804e+00 1.301860e+00 1.153423e+00 1.176088e+00 1.110025e+00 -1.547110e+00 -8.215045e-01 -4.295501e-01 -4.831464e-01 -1.726078e+00 -1.067599e+00 -2.436248e-01 -5.474706e-01 3.476785e-01
<VARIANCE> 25
 6.442680e+01 3.138828e+01 5.046674e+01 4.199448e+01 3.340593e+01 3.058771e+01 5.509906e+01 2.899998e+01 2.250890e+01 2.776298e+01 4.061606e+01 1.936593e+01 8.877629e+00 3.217895e+00 2.914502e+00 4.407773e+00 3.421614e+00 3.279682e+00 5.495375e+00 3.700468e+00 5.848344e+00 1.987308e+00 3.647372e+00 2.883307e+00 2.109269e+00
<GCONST> 1.055166e+02
<STATE> 3
<MEAN> 25
 3.914861e+00 6.090653e+00 1.097168e+01 5.409183e+00 -6.647180e+00 -6.617198e+00 -2.528369e+00 -5.586005e+00 -8.407530e+00 -3.418336e+00 2.592975e+00 -1.398446e+00 1.274281e+00 8.027221e-02 5.011777e-01 1.017489e+00 -2.106107e+00 -1.192789e+00 -1.024091e+00 1.749518e+00 -2.578942e+00 -1.284584e+00 1.541289e+00 -7.944109e-01 4.630408e-01
<VARIANCE> 25
 1.421520e+01 2.126548e+01 5.920038e+01 1.993511e+01 6.998151e+01 3.908688e+01 2.981488e+01 6.415034e+01 8.629848e+01 2.116405e+01 1.879852e+01 2.287281e+01 5.457075e+00 3.397201e+00 3.802171e+00 5.117353e+00 4.151899e+00 4.878303e+00 8.115116e+00 7.253807e+00 7.420520e+00 4.026689e+00 5.203473e+00 2.525195e+00 1.317384e+00
<GCONST> 1.069960e+02
<STATE> 4
<MEAN> 25
 3.094068e+00 5.893308e+00 1.470253e+01 7.084722e+00 -9.518492e+00 -6.970293e+00 -2.660668e+00 -3.440672e+00 -1.235532e+01 -3.426376e+00 5.619418e+00 -3.160490e+00 4.341793e-01 -1.669758e-01 -9.158685e-01 5.998343e-02 9.555135e-01 -3.687727e-01 -6.360776e-01 7.584288e-01 7.211329e-01 -2.842022e-01 -4.122041e-01 2.192966e-02 -2.544294e-01
<VARIANCE> 25
 1.030051e+01 1.982219e+01 4.075278e+01 3.053443e+01 4.419970e+01 4.551667e+01 2.618243e+01 4.198905e+01 4.995196e+01 3.411477e+01 2.539939e+01 1.712131e+01 6.926596e-01 5.980508e-01 2.706390e+00 2.929237e+00 4.057014e+00 3.918880e+00 2.439265e+00 2.710910e+00 4.832392e+00 2.662833e+00 2.774574e+00 1.396206e+00 8.989419e-01
<GCONST> 9.616419e+01
<TRANSP> 5
 0.000000e+00 1.000000e+00 0.000000e+00 0.000000e+00 0.000000e+00
 0.000000e+00 7.398279e-01 2.601721e-01 0.000000e+00 0.000000e+00
 0.000000e+00 0.000000e+00 6.404790e-01 3.595210e-01 0.000000e+00
 0.000000e+00 0.000000e+00 0.000000e+00 7.265639e-01 2.734360e-01
 0.000000e+00 0.000000e+00 0.000000e+00 0.000000e+00 0.000000e+00
<ENDHMM>
~h "z"
<BEGINHMM>
<NUMSTATES> 5
<STATE> 2
<MEAN> 25
 -1.220670e+01 1.163964e+01 4.365527e+00 -3.242699e+00 8.840458e+00 -4.971828e+00 1.883503e+00 -1.098023e+00 -2.219344e+00 -2.212083e+00 -1.716319e+00 3.698460e+00 -3.034946e+00 3.218517e-01 -8.140308e-01 -9.624133e-01 1.674214e+00 -1.833324e-01 3.358001e-01 8.086152e-01 8.977923e-01 4.260094e-01 1.073772e-01 1.947746e-01 5.189480e-01
<VARIANCE> 25
 9.156994e+01 2.733472e+01 8.197311e+01 4.117293e+01 7.097775e+01 6.401659e+01 2.396948e+01 1.992974e+01 4.772487e+01 1.340539e+01 1.871788e+01 1.322719e+01 3.244996e+00 1.856937e+00 3.475500e+00 3.071248e+00 5.676697e+00 4.862409e+00 1.628443e+00 2.380113e+00 1.605699e+00 1.454798e+00 1.526919e+00 1.812292e+00 6.244727e-01
<GCONST> 9.869169e+01
<STATE> 3
<MEAN> 25
 -2.114198e+01 7.645723e+00 -2.187888e+00 -7.766481e+00 1.078911e+01 -8.625943e+00 5.038291e+00 3.591810e+00 1.158604e+00 9.139675e-01 -2.008001e+00 5.087596e+00 1.030507e+00 -9.463889e-01 8.899187e-02 6.014919e-02 -6.758691e-01 -4.342837e-01 1.473216e-01 -1.917239e-02 -2.463596e-01 3.238539e-01 -2.218646e-01 -1.855907e-01 -5.577780e-01
<VARIANCE> 25
 2.517788e+01 2.202755e+01 3.018608e+01 3.234757e+01 1.307658e+01 3.544558e+01 3.294378e+01 1.794335e+01 2.025284e+01 2.148381e+01 1.567366e+01 1.304809e+01 2.863366e+00 8.039486e-01 1.369217e+00 9.870199e-01 1.756895e+00 1.701856e+00 1.894047e+00 1.762889e+00 1.956212e+00 1.437524e+00 1.419709e+00 1.194043e+00 1.205766e+00
<GCONST> 8.825091e+01
<STATE> 4
<MEAN> 25
 -5.628360e+00 -1.844696e+00 -1.609855e+00 -1.889861e+00 1.623417e+00 -4.998799e+00 2.553324e+00 1.820423e-01 -9.261108e-01 2.133069e+00 -1.432769e+00 1.776151e+00 5.280812e-01 -3.342408e-01 -1.114129e-01 3.284299e-01 -3.592915e-01 7.348740e-01 -1.805014e-01 -1.664736e-01 2.746055e-01 7.441293e-02 3.946415e-02 -1.555696e-01 -5.221337e-01
<VARIANCE> 25
 1.543988e+01 2.163920e+01 3.073864e+01 1.711046e+01 3.182080e+01 4.097567e+01 3.272158e+01 2.558201e+01 4.869004e+01 2.218770e+01 1.552751e+01 1.373345e+01 2.814683e+00 1.345316e+00 2.158170e+00 1.631146e+00 2.901062e+00 3.040642e+00 2.889659e+00 2.982285e+00 2.891432e+00 2.438240e+00 1.328453e+00 1.431481e+00 2.111913e+00
<GCONST> 9.453844e+01
<TRANSP> 5
 0.000000e+00 1.000000e+00 0.000000e+00 0.000000e+00 0.000000e+00
 0.000000e+00 8.285011e-01 1.714989e-01 0.000000e+00 0.000000e+00
 0.000000e+00 0.000000e+00 8.775777e-01 1.224223e-01 0.000000e+00
 0.000000e+00 0.000000e+00 0.000000e+00 9.063800e-01 9.362001e-02
 0.000000e+00 0.000000e+00 0.000000e+00 0.000000e+00 0.000000e+00
<ENDHMM>
~h "aa"
<BEGINHMM>
<NUMSTATES> 5
<STATE> 2
<MEAN> 25
 4.089737e+00 2.602111e-01 3.332270e-01 -2.425873e+00 1.269052e+00 5.896993e+00 -1.486352e-01 -6.302778e-01 1.613689e+00 5.480732e-01 -2.523083e-01 -4.629789e+00 1.196158e+00 -5.778586e-01 -6.791133e-01 -1.151367e+00 -6.362799e-01 1.957156e+00 -2.253439e-01 -2.589747e-01 -1.006721e-01 -1.129817e-01 7.223055e-01 -1.003334e+00 1.084991e+00
<VARIANCE> 25
 3.735382e+01 3.478334e+01 2.961039e+01 5.539022e+01 3.227066e+01 5.410276e+01 4.250670e+01 3.164013e+01 2.632215e+01 2.699348e+01 2.735938e+01 5.750036e+01 6.150589e+00 2.794602e+00 2.385022e+00 4.349988e+00 3.946324e+00 4.952669e+00 3.407329e+00 3.398882e+00 3.508136e+00 3.105581e+00 2.543320e+00 3.878963e+00 1.066697e+00
<GCONST> 1.044626e+02
<STATE> 3
<MEAN> 25
 8.993692e+00 -4.953805e+00 -6.622628e+00 -1.046998e+01 4.104675e-02 1.641955e+01 -5.659243e-01 -3.135319e+00 9.398236e-01 -7.680175e-01 1.430746e+00 -1.091778e+01 2.322003e-03 2.043797e-01 -1.329923e-01 2.120700e-01 9.234686e-03 -2.795779e-01 3.309859e-02 3.810686e-02 -3.104146e-01 1.449241e-01 -3.205316e-01 2.033404e-01 -4.741566e-01
<VARIANCE> 25
 9.310501e+00 2.339558e+01 1.164586e+01 2.354129e+01 1.426412e+01 4.776778e+01 4.089980e+01 3.633936e+01 5.142039e+01 5.155751e+01 3.257003e+01 3.663942e+01 2.790288e-01 1.154114e+00 7.339639e-01 1.155861e+00 1.058785e+00 2.557525e+00 1.711817e+00 2.341485e+00 1.469453e+00 1.460332e+00 1.556536e+00 1.740742e+00 1.005938e+00
<GCONST> 8.859288e+01
<STATE> 4
<MEAN> 25
 7.634169e-01 -2.994375e+00 -4.052797e+00 -2.935629e+00 7.766320e-01 2.442123e+00 -1.351181e+00 2.727773e-01 1.608091e+00 1.443163e+00 -1.898021e+00 -9.725112e-01 -1.298971e-01 8.988764e-02 1.936018e-01 2.391662e-01 1.504373e-02 -2.380942e-01 9.227265e-02 1.711080e-01 1.533736e-01 2.360700e-01 1.125869e-01 3.165787e-01 -2.694432e-01
<VARIANCE> 25
 1.528097e+01 7.638953e+00 1.034863e+01 1.587158e+01 1.227347e+01 2.928226e+01 1.561588e+01 2.208786e+01 2.277028e+01 1.636754e+01 2.020819e+01 2.003750e+01 4.744637e-01 7.451403e-01 1.748610e+00 1.207356e+00 9.120142e-01 1.511522e+00 1.414244e+00 2.162814e+00 2.319870e+00 1.759965e+00 2.629672e+00 1.531338e+00 9.535539e-01
<GCONST> 8.335914e+01
<TRANSP> 5
 0.000000e+00 1.000000e+00 0.000000e+00 0.000000e+00 0.000000e+00
 0.000000e+00 7.855727e-01 2.144273e-01 0.000000e+00 0.000000e+00
 0.000000e+00 0.000000e+00 8.567009e-01 1.432991e-01 0.000000e+00
 0.000000e+00 0.000000e+00 0.000000e+00 8.493513e-01 1.506487e-01
 0.000000e+00 0.000000e+00 0.000000e+00 0.000000e+00 0.000000e+00
<ENDHMM>
~h "ae"
<BEGINHMM>
<NUMSTATES> 5
<STATE> 2
<MEAN> 25
 1.146957e+00 -2.389950e+00 4.442855e-01 1.006220e+00 -1.610051e+00 -2.092808e+00 8.538518e-01 2.102243e+00 -4.798290e-01 -2.422208e+00 -1.503064e+00 -2.358840e+00 1.201341e+00 -1.367344e+00 1.957275e-01 -7.902891e-01 -8.809313e-01 -3.667301e-01 7.858595e-03 1.259776e+00 -8.678847e-01 -8.907477e-01 -1.125721e+00 -1.539088e+00 2.662872e+00
<VARIANCE> 25
 2.781977e+01 4.727311e+01 3.779581e+01 2.515880e+01 4.354419e+01 3.935656e+01 3.187841e+01 3.875079e+01 3.605737e+01 2.423908e+01 3.909376e+01 3.698499e+01 2.505687e+00 3.318408e+00 3.122796e+00 1.753194e+00 4.805494e+00 3.315042e+00 2.799148e+00 2.531972e+00 5.042847e+00 3.598064e+00 5.238727e+00 5.257709e+00 6.496080e+00
<GCONST> 1.052312e+02
<STATE> 3
<MEAN> 25
 6.100793e+00 -8.471687e+00 -2.155734e+00 -2.384057e+00 -2.667883e+00 -8.957718e-01 2.295890e+00 4.907113e+00 -1.743484e+00 -6.738448e+00 -6.349124e+00 -8.378279e+00 2.981892e-01 -5.483789e-02 -4.039883e-01 1.190233e-01 3.176635e-01 2.526457e-01 -1.819403e-01 -2.001881e-01 3.458022e-01 -1.451707e-01 -1.873417e-01 -2.883253e-01 1.050063e-01
<VARIANCE> 25
 1.063953e+01 2.885159e+01 3.287691e+01 1.455782e+01 2.525707e+01 2.469868e+01 2.671620e+01 3.171402e+01 2.977308e+01 2.361341e+01 3.894484e+01 4.129021e+01 3.843198e-01 8.462145e-01 7.747036e-01 1.124537e+00 1.436288e+00 1.331363e+00 1.318390e+00 1.690380e+00 1.315046e+00 1.589267e+00 1.404480e+00 1.855043e+00 8.678517e-01
<GCONST> 8.670210e+01
<STATE> 4
<MEAN> 25
 7.919359e+00 -5.948845e+00 -2.493519e+00 1.943209e-01 -2.517476e+00 -3.733451e+00 8.999847e-01 4.592297e+00 8.511014e-01 -5.277153e+00 -4.951649e+00 -7.784021e+00 -3.021059e-01 1.465000e+00 7.156643e-01 8.632298e-01 2.536649e-01 -1.829918e-01 5.617838e-02 -1.392519e+00 -2.967874e-01 1.422888e+00 5.765848e-01 8.807802e-01 -1.947405e+00
<VARIANCE> 25
 1.230051e+01 2.407507e+01 4.283174e+01 1.601424e+01 3.217345e+01 4.374105e+01 4.123874e+01 4.077444e+01 5.598839e+01 4.586077e+01 3.229062e+01 4.769011e+01 1.726615e+00 2.115494e+00 2.217903e+00 2.810194e+00 3.227234e+00 3.513939e+00 2.136138e+00 5.716633e+00 4.076400e+00 3.445718e+00 2.173039e+00 3.379248e+00 2.675570e+00
<GCONST> 1.017119e+02
<TRANSP> 5
 0.000000e+00 1.000000e+00 0.000000e+00 0.000000e+00 0.000000e+00
 0.000000e+00 7.986199e-01 2.013800e-01 0.000000e+00 0.000000e+00
 0.000000e+00 0.000000e+00 8.711407e-01 1.288593e-01 0.000000e+00
 0.000000e+00 0.000000e+00 0.000000e+00 7.373571e-01 2.626429e-01
 0.000000e+00 0.000000e+00 0.000000e+00 0.000000e+00 0.000000e+00
<ENDHMM>
~h "ah"
<BEGINHMM>
<NUMSTATES> 5
<STATE> 2
<MEAN> 25
 3.197612e+00 -3.328991e+00 1.326930e+00 -5.971093e-01 -3.539812e+00 -3.372833e+00 -1.223177e+00 7.169377e-01 -9.914188e-01 -1.348733e+00 -2.850137e+00 -3.422999e+00 1.691945e+00 -2.805509e-01 -5.473349e-01 -7.766855e-01 -2.787390e-01 -1.035674e-01 -7.532395e-01 -6.790368e-02 -5.577413e-01 1.904081e-01 -4.750765e-01 -1.491774e+00 1.263016e+00
<VARIANCE> 25
 4.015813e+01 3.896782e+01 4.842997e+01 4.180323e+01 4.081896e+01 6.929467e+01 5.257634e+01 7.108777e+01 4.194201e+01 2.976591e+01 3.077662e+01 4.632845e+01 3.920605e+00 3.370991e+00 3.916423e+00 4.746357e+00 3.541891e+00 5.986590e+00 3.933414e+00 5.540700e+00 5.324227e+00 3.130855e+00 3.568031e+00 4.992695e+00 5.339692e+00
<GCONST> 1.104900e+02
<STATE> 3
<MEAN> 25
 7.888108e+00 -1.364125e+00 -2.463754e+00 -3.636281e+00 -2.838378e+00 -5.327843e-01 -5.052916e+00 -1.107897e+00 -1.557952e+00 1.400227e+00 -3.053123e+00 -7.755631e+00 3.010411e-01 9.177815e-01 -1.609073e-01 8.265966e-02 5.384424e-01 5.014458e-01 1.006279e-01 -9.132179e-01 -4.674633e-01 3.028283e-01 2.604757e-01 1.553976e-01 -8.956512e-01
<VARIANCE> 25
 2.378124e+01 4.447697e+01 3.908420e+01 5.325381e+01 2.499652e+01 6.498277e+01 4.412690e+01 6.598937e+01 4.760088e+01 3.481618e+01 4.357190e+01 6.471459e+01 2.107976e+00 2.810137e+00 2.994890e+00 5.514356e+00 2.916425e+00 3.860037e+00 2.776955e+00 3.801571e+00 4.421706e+00 3.962107e+00 2.997166e+00 3.990898e+00 3.135960e+00
<GCONST> 1.071273e+02
<STATE> 4
<MEAN> 25
 5.459399e+00 -1.146499e-01 -2.097900e+00 9.186519e-01 -1.630891e-01 1.624484e+00 1.690715e-01 -1.622800e-01 9.524288e-01 1.671016e-02 -2.060613e+00 -5.088365e+00 -1.903809e-01 3.791128e-01 6.758706e-02 5.489192e-02 4.106187e-01 1.351089e-01 3.685427e-01 -1.827885e-01 -2.782745e-01 2.041091e-01 3.026164e-01 4.112519e-01 -6.036295e-01
<VARIANCE> 25
 3.713591e+01 2.057212e+01 4.103232e+01 5.536317e+01 2.125556e+01 3.654739e+01 3.310305e+01 6.721729e+01 5.537565e+01 3.057941e+01 4.110614e+01 5.040969e+01 2.241833e+00 1.864857e+00 2.075246e+00 2.531911e+00 1.830197e+00 2.828332e+00 1.820111e+00 3.231749e+00 2.866094e+00 2.555492e+00 2.609640e+00 3.019031e+00 1.604597e+00
<GCONST> 1.007811e+02
<TRANSP> 5
 0.000000e+00 1.000000e+00 0.000000e+00 0.000000e+00 0.000000e+00
 0.000000e+00 5.918426e-01 4.081574e-01 0.000000e+00 0.000000e+00
 0.000000e+00 0.000000e+00 5.839542e-01 4.160458e-01 0.000000e+00
 0.000000e+00 0.000000e+00 0.000000e+00 6.056002e-01 3.943998e-01
 0.000000e+00 0.000000e+00 0.000000e+00 0.000000e+00 0.000000e+00
<ENDHMM>
~h "ao"
<BEGINHMM>
<NUMSTATES> 5
<STATE> 2
<MEAN> 25
 -5.709143e+00 -2.235842e+00 -1.278906e-01 -1.216516e+00 -2.412869e+00 -4.809044e-01 2.874835e+00 8.603697e-01 1.170144e+00 4.545809e-01 8.398157e-01 2.033611e+00 2.576861e+00 1.039090e+00 -2.993634e-01 -1.779370e+00 -1.272484e+00 1.295838e+00 -7.002541e-01 -3.179626e-01 -8.193333e-01 -9.234942e-01 1.697987e-01 -4.674970e-01 1.174427e+00
<VARIANCE> 25
 8.716784e+01 4.751629e+01 1.215286e+01 2.466256e+01 3.266043e+01 3.066026e+01 4.289594e+01 2.649158e+01 2.805503e+01 2.352159e+01 2.149571e+01 2.251063e+01 1.545709e+01 3.719186e+00 1.630486e+00 7.879315e+00 6.345692e+00 7.714325e+00 4.703105e+00 3.280457e+00 4.958271e+00 3.611594e+00 3.438030e+00 3.602690e+00 8.212236e+00
<GCONST> 1.073365e+02
<STATE> 3
<MEAN> 25
 9.793514e+00 4.910367e+00 -4.880572e+00 -2.330995e+01 -5.090903e+00 1.579026e+01 -4.036523e-01 -1.679403e+00 -1.873272e+00 -7.341413e+00 -3.446281e-01 -2.966369e+00 9.169169e-01 5.712276e-01 -1.063964e-01 -1.224991e+00 -1.046890e+00 4.146834e-01 1.417371e-01 6.044883e-02 -1.776741e-01 -2.604199e-01 -1.216098e-01 -3.155792e-02 6.911635e-01
<VARIANCE> 25
 1.020591e+01 2.712252e+01 1.427650e+01 4.522205e+01 3.895470e+01 3.916385e+01 2.172464e+01 1.378883e+01 1.828768e+01 2.307811e+01 1.089859e+01 1.193481e+01 1.685819e+00 6.216678e-01 7.527435e-01 5.251648e+00 1.920150e+00 4.597619e+00 1.154917e+00 2.134099e+00 1.433195e+00 1.936924e+00 1.224802e+00 1.715807e+00 2.685872e+00
<GCONST> 8.923923e+01
<STATE> 4
<MEAN> 25
 1.390577e+01 6.603128e+00 -6.388203e+00 -6.541071e+00 -6.377094e+00 5.667932e+00 -5.516185e+00 1.673549e+00 -5.391153e+00 -5.448197e+00 3.599951e+00 2.326227e+00 6.865413e-02 -4.324110e-01 -3.033235e-01 1.065658e+00 7.856594e-01 -5.063070e-01 -7.638832e-01 4.016792e-02 3.466085e-01 2.621098e-02 -2.625874e-03 2.378955e-01 -7.784150e-04
<VARIANCE> 25
 8.459141e+00 2.601705e+01 2.969554e+01 8.035202e+01 4.936126e+01 3.395272e+01 5.560706e+01 2.234177e+01 4.519368e+01 2.346141e+01 5.220861e+01 2.298771e+01 1.404596e-01 5.760359e-01 9.409612e-01 1.062431e+00 1.355240e+00 2.002638e+00 3.862556e+00 2.581719e+00 3.629379e+00 2.010778e+00 2.721731e+00 1.847380e+00 2.463149e-01
<GCONST> 9.070876e+01
<TRANSP> 5
 0.000000e+00 1.000000e+00 0.000000e+00 0.000000e+00 0.000000e+00
 0.000000e+00 7.724770e-01 2.275231e-01 0.000000e+00 0.000000e+00
 0.000000e+00 0.000000e+00 8.058065e-01 1.941934e-01 0.000000e+00
 0.000000e+00 0.000000e+00 0.000000e+00 9.065616e-01 9.343848e-02
 0.000000e+00 0.000000e+00 0.000000e+00 0.000000e+00 0.000000e+00
<ENDHMM>
~h "aw"
<BEGINHMM>
<NUMSTATES> 5
<STATE> 2
<MEAN> 25
 7.886405e+00 -3.201671e+00 -4.336671e+00 -1.153631e+00 -1.423099e-01 5.852703e+00 -4.055052e+00 3.729671e+00 1.051513e+00 -3.096524e+00 -3.856352e+00 -8.035306e+00 2.217288e-01 6.530990e-01 -4.486336e-01 2.425601e-01 1.706062e-01 3.464302e-01 -5.012278e-01 -9.286124e-01 -2.743663e-01 1.198224e-02 7.278024e-01 6.682790e-02 -5.036073e-01
<VARIANCE> 25
 7.429147e+00 1.975207e+01 2.058915e+01 3.150128e+01 2.523032e+01 5.530883e+01 5.859034e+01 3.269059e+01 1.988264e+01 8.728365e+01 3.837730e+01 1.682665e+01 1.437508e-01 7.063113e-01 5.981420e-01 8.576905e-01 1.509389e+00 1.170674e+00 2.297999e+00 1.712514e+00 1.432979e+00 2.172998e+00 3.635220e+00 1.152073e+00 2.258580e-01
<GCONST> 8.620320e+01
<STATE> 3
<MEAN> 25
 7.710904e+00 6.094072e+00 -3.128684e+00 -4.854407e-01 -7.235559e-01 2.677483e+00 -6.836760e+00 -9.345841e+00 -7.793878e+00 -1.087686e+00 4.329269e+00 -5.092218e+00 -3.967045e-01 -5.491186e-02 9.180745e-01 5.255502e-01 4.054452e-01 -9.629628e-01 6.231990e-01 -2.936193e-01 8.620448e-02 -1.061966e-01 -8.530453e-01 3.887893e-01 -8.045895e-01
<VARIANCE> 25
 1.552805e+01 2.186142e+01 2.760033e+01 2.538879e+01 1.459801e+01 4.882230e+01 4.050222e+01 3.137597e+01 3.856770e+01 4.630537e+01 5.609786e+01 1.750980e+01 1.342232e+00 1.889086e+00 1.584724e+00 3.462419e+00 1.135862e+00 3.272916e+00 4.107754e+00 4.486966e+00 5.912651e+00 4.823953e+00 3.550289e+00 2.382812e+00 2.080864e+00
<GCONST> 9.949915e+01
<STATE> 4
<MEAN> 25
 2.580449e+00 -2.359818e+00 -4.753116e+00 -1.129226e+00 3.205638e+00 7.541500e+00 4.860190e+00 -3.809788e+00 4.703617e+00 -5.538827e-01 1.643672e-01 -5.356928e+00 -3.042476e-01 -6.037214e-01 -3.745504e-03 3.935117e-02 5.846115e-02 2.598356e-01 3.654386e-01 2.674262e-01 4.400882e-01 -4.204491e-02 8.237879e-02 3.978873e-01 3.613500e-02
<VARIANCE> 25
 3.476248e+01 4.054897e+01 2.475640e+01 2.142967e+01 1.065865e+01 6.074224e+01 2.590882e+01 3.462057e+01 3.630761e+01 2.096178e+01 3.001377e+01 5.581635e+01 6.773814e-01 2.297843e+00 1.528065e+00 1.851990e+00 1.111825e+00 2.595585e+00 2.351175e+00 3.174599e+00 3.797045e+00 4.274100e+00 1.773395e+00 2.917236e+00 9.842809e-01
<GCONST> 9.576944e+01
<TRANSP> 5
 0.000000e+00 1.000000e+00 0.000000e+00 0.000000e+00 0.000000e+00
 0.000000e+00 9.096541e-01 9.034590e-02 0.000000e+00 0.000000e+00
 0.000000e+00 0.000000e+00 8.206836e-01 1.793164e-01 0.000000e+00
 0.000000e+00 0.000000e+00 0.000000e+00 7.911264e-01 2.088736e-01
 0.000000e+00 0.000000e+00 0.000000e+00 0.000000e+00 0.000000e+00
<ENDHMM>
~h "ay"
<BEGINHMM>
<NUMSTATES> 5
<STATE> 2
<MEAN> 25
 9.543296e+00 -5.924747e+00 8.579408e+00 -1.819361e+00 -1.451860e+01 -7.392035e+00 -4.932959e+00 4.526278e+00 -7.758029e+00 -1.947110e+00 1.834079e-02 -1.301055e+00 -6.777582e-01 9.875611e-01 1.905586e+00 -4.722328e-01 -4.400939e-01 7.948682e-02 2.703344e-02 -1.508154e+00 -1.530766e+00 2.838961e-01 1.617791e-01 -1.258589e-01 -4.992870e-01
<VARIANCE> 25
 1.056244e+01 2.455771e+01 5.012675e+01 1.607747e+01 2.952567e+01 2.462916e+01 2.622143e+01 5.718654e+01 5.506591e+01 1.991208e+01 2.315421e+01 2.467821e+01 1.087562e+00 1.791029e+00 2.523317e+00 7.413391e-01 2.156160e+00 2.124037e+00 2.113563e+00 4.292844e+00 2.949523e+00 2.058930e+00 2.735775e+00 2.230978e+00 7.582611e-01
<GCONST> 9.380319e+01
<STATE> 3
<MEAN> 25
 -3.968827e-01 4.540380e+00 1.353877e+01 3.015696e-01 -3.959994e+00 -3.857268e+00 -6.039420e-01 -4.949674e+00 -9.761332e+00 -3.012331e+00 -2.026268e+00 -4.245413e+00 -1.281940e+00 8.508821e-01 -1.543033e+00 1.503001e+00 3.050908e+00 1.206934e+00 1.952425e+00 7.718189e-01 1.874563e+00 -4.063234e-02 -2.187202e-01 5.812545e-01 -2.013280e+00
<VARIANCE> 25
 3.550146e+01 2.509343e+01 5.708640e+01 4.737860e+01 6.217791e+01 3.676581e+01 4.241096e+01 3.555590e+01 6.486407e+01 2.358045e+01 2.010011e+01 3.704568e+01 6.158989e+00 3.791071e+00 7.304677e+00 5.063188e+00 2.733706e+00 2.937458e+00 1.538787e+00 3.315315e+00 6.781004e+00 3.342758e+00 1.976696e+00 2.514391e+00 4.907984e+00
<GCONST> 1.064296e+02
<STATE> 4
<MEAN> 25
 -7.084739e+00 5.475836e+00 1.348560e+00 1.312904e+00 8.404939e+00 -5.728107e-01 8.414421e+00 1.526905e+00 2.493105e+00 1.435847e+00 8.986414e-02 2.041938e+00 -7.734538e-01 -5.811836e-01 -1.146829e+00 -6.109276e-01 3.603373e-01 5.208544e-01 3.439866e-01 6.641524e-01 1.239295e+00 6.086316e-01 3.302588e-01 8.388492e-01 -5.808455e-01
<VARIANCE> 25
 1.099292e+02 1.932747e+01 1.085000e+02 7.539491e+01 2.706851e+01 7.802448e+01 2.570768e+01 2.723675e+01 2.216553e+01 1.392974e+01 2.254403e+01 2.229613e+01 3.165301e+00 8.503942e-01 2.736515e+00 1.981256e+00 1.133405e+00 1.580381e+00 9.702514e-01 2.015411e+00 3.248777e+00 1.982461e+00 3.067915e+00 2.041661e+00 6.727332e-01
<GCONST> 9.601207e+01
<TRANSP> 5
 0.000000e+00 1.000000e+00 0.000000e+00 0.000000e+00 0.000000e+00
 0.000000e+00 8.706904e-01 1.293096e-01 0.000000e+00 0.000000e+00
 0.000000e+00 0.000000e+00 7.895417e-01 2.104583e-01 0.000000e+00
 0.000000e+00 0.000000e+00 0.000000e+00 7.286359e-01 2.713641e-01
 0.000000e+00 0.000000e+00 0.000000e+00 0.000000e+00 0.000000e+00
<ENDHMM>
~h "ch"
<BEGINHMM>
<NUMSTATES> 5
<STATE> 2
<MEAN> 25
 -3.630152e+00 -2.016718e+00 -8.013992e-01 3.758854e+00 2.626220e+00 1.284191e+00 3.929678e+00 2.550331e+00 5.250851e+00 2.355762e+00 4.192541e-01 3.409213e+00 -2.577267e-01 -8.264894e-02 1.728492e-01 -3.424558e-01 7.294967e-02 3.098714e-01 -1.895335e-01 -2.324743e-01 1.867207e-01 1.540462e-01 2.826695e-01 -8.732300e-02 -1.004017e-01
<VARIANCE> 25
 5.057561e+00 7.442020e+00 1.151992e+01 8.514820e+00 1.053570e+01 1.257862e+01 1.277254e+01 2.095871e+01 9.169376e+00 1.470043e+01 1.730789e+01 1.320452e+01 7.929085e-01 9.949238e-01 9.168521e-01 1.502992e+00 1.421025e+00 2.122046e+00 1.688213e+00 1.744494e+00 1.356559e+00 2.130461e+00 1.359935e+00 1.536977e+00 1.190991e+00
<GCONST> 7.921366e+01
<STATE> 3
<MEAN> 25
 -8.776593e+00 -4.302958e+00 2.317080e+00 -2.859937e+00 1.728791e+00 6.660473e+00 -9.575320e-01 -4.838285e-01 5.995004e+00 -2.120241e+00 2.933689e+00 4.519495e+00 -3.971657e+00 8.764343e-01 1.986361e+00 -1.958629e+00 -9.172094e-01 1.139659e+00 -9.991185e-01 -2.160700e+00 8.935972e-01 -1.284187e+00 5.608094e-01 -1.122536e-01 2.786708e+00
<VARIANCE> 25
 3.336705e+01 2.413354e+01 1.744340e+01 2.109524e+01 2.035255e+01 1.947732e+01 4.378773e+01 3.394674e+01 1.592764e+01 1.766124e+01 9.164764e+00 3.373113e+00 2.044362e+00 3.089572e+00 9.570898e-01 1.150643e+00 2.315737e+00 3.291625e+00 4.299316e+00 2.166217e+00 1.328166e+00 2.382415e+00 1.058092e+00 1.701155e+00 3.841132e+00
<GCONST> 9.019093e+01
<STATE> 4
<MEAN> 25
 -1.720738e+01 4.808052e-01 8.996668e+00 -2.878264e+00 -5.194691e+00 1.671814e+00 6.071146e+00 -7.184997e+00 5.037516e+00 -2.593668e+00 2.676311e+00 -1.391652e+00 1.261630e+00 7.228635e-03 9.654682e-02 8.060749e-01 -7.154883e-01 -2.010528e+00 3.679717e-02 -5.232952e-02 -8.859702e-01 -3.783770e-01 -5.606554e-01 -5.082204e-01 6.240839e-01
<VARIANCE> 25
 3.963503e+01 1.063373e+01 1.207677e+01 2.225181e+01 1.888634e+01 4.498486e+01 2.540624e+01 2.630125e+01 1.469854e+01 1.013068e+01 1.401332e+01 1.359609e+01 8.639162e+00 1.489580e+00 1.752092e+00 2.419586e+00 2.607962e+00 3.044785e+00 6.202440e+00 2.780291e+00 1.066644e+00 1.872309e+00 1.114290e+00 1.520115e+00 2.670444e+00
<GCONST> 9.220650e+01
<TRANSP> 5
 0.000000e+00 1.000000e+00 0.000000e+00 0.000000e+00 0.000000e+00
 0.000000e+00 9.004801e-01 9.951995e-02 0.000000e+00 0.000000e+00
 0.000000e+00 0.000000e+00 6.471446e-01 3.528555e-01 0.000000e+00
 0.000000e+00 0.000000e+00 0.000000e+00 8.811641e-01 1.188358e-01
 0.000000e+00 0.000000e+00 0.000000e+00 0.000000e+00 0.000000e+00
<ENDHMM>
~h "dh"
<BEGINHMM>
<NUMSTATES> 5
<STATE> 2
<MEAN> 25
 1.071862e+00 4.349960e+00 3.475139e+00 3.144706e+00 -3.610295e+00 -6.363604e+00 -4.735197e+00 -1.820358e+00 -1.325029e+00 -9.146611e-02 3.917260e-01 -3.071517e+00 2.216548e+00 -2.064415e+00 6.532504e-01 -7.810019e-01 -2.468843e+00 -1.449718e+00 -1.691480e+00 6.849766e-01 2.954180e-01 5.516900e-02 5.146524e-01 -7.214398e-01 1.216557e+00
<VARIANCE> 25
 1.766636e+01 2.435551e+01 1.843911e+01 1.384488e+01 3.117042e+01 3.797375e+01 4.342853e+01 1.420479e+01 1.526109e+01 1.036672e+01 1.374438e+01 2.171608e+01 2.004642e+00 1.486203e+00 1.556492e+00 2.772678e+00 1.978468e+00 2.588081e+00 1.719547e+00 1.027749e+00 1.163560e+00 2.533841e+00 2.133715e+00 3.433358e+00 1.190359e+00
<GCONST> 8.982087e+01
<STATE> 3
<MEAN> 25
 7.621303e+00 -2.401309e+00 3.344567e+00 9.246423e+00 -1.015622e+01 -1.242220e+01 -7.976703e+00 3.679473e+00 4.289057e-01 -5.491058e+00 3.297295e+00 3.764157e+00 7.904914e-01 -2.180211e-01 -1.440411e+00 1.281884e+00 3.284937e-01 -1.796506e-01 -1.163663e+00 9.902204e-01 1.991484e-01 -9.192525e-01 1.006391e-01 6.000987e-01 -4.775352e-01
<VARIANCE> 25
 5.786184e+00 2.382049e+01 2.461788e+01 3.738538e+01 2.040277e+01 3.144971e+01 4.797271e+01 1.961396e+01 1.683749e+01 2.146834e+01 1.582067e+01 3.545101e+01 3.352447e-01 5.426105e-01 6.571012e-01 1.677345e+00 1.843779e+00 1.433774e+00 9.532446e-01 8.827794e-01 1.433148e+00 1.412510e+00 4.765169e-01 1.796500e+00 2.723637e-01
<GCONST> 8.167011e+01
<STATE> 4
<MEAN> 25
 9.115907e+00 4.049360e-01 -3.640629e+00 1.149669e+01 -7.296947e+00 -9.314232e+00 -1.408421e+01 6.407887e+00 6.585521e-01 -7.651079e+00 3.069930e+00 4.466185e+00 -4.082552e-02 5.694576e-01 -3.749560e-01 -3.900762e-01 7.126828e-01 5.165890e-01 1.698906e-01 -3.032449e-01 6.096646e-01 -1.861100e-01 -4.209671e-01 -2.509352e-01 -7.742978e-01
<VARIANCE> 25
 2.284521e+00 1.812368e+01 5.580745e+00 4.308081e+01 1.205643e+01 3.999307e+01 2.980946e+01 1.687828e+01 2.685724e+01 2.082240e+01 1.355679e+01 6.126760e+01 5.979817e-01 7.541203e-01 8.123812e-01 6.978360e-01 8.678680e-01 1.182344e+00 1.711954e+00 9.041709e-01 1.629503e+00 9.114464e-01 1.128237e+00 1.523791e+00 2.146832e-01
<GCONST> 7.909810e+01
<TRANSP> 5
 0.000000e+00 1.000000e+00 0.000000e+00 0.000000e+00 0.000000e+00
 0.000000e+00 7.471289e-01 2.528711e-01 0.000000e+00 0.000000e+00
 0.000000e+00 0.000000e+00 7.826401e-01 2.173599e-01 0.000000e+00
 0.000000e+00 0.000000e+00 0.000000e+00 6.332825e-01 3.667175e-01
 0.000000e+00 0.000000e+00 0.000000e+00 0.000000e+00 0.000000e+00
<ENDHMM>
~h "eh"
<BEGINHMM>
<NUMSTATES> 5
<STATE> 2
<MEAN> 25
 4.461298e+00 -5.358155e+00 2.198256e+00 -1.846410e+00 -6.884912e+00 -5.677241e+00 2.415816e+00 6.943410e+00 -3.071769e+00 -2.444436e+00 -3.355455e+00 -5.320952e+00 5.626447e-01 -4.779061e-01 -2.270312e-01 -3.512352e-01 -9.768008e-02 -6.507381e-01 -3.537894e-01 2.934370e-01 -2.990971e-01 -2.652441e-01 -5.653104e-01 -7.676477e-01 8.074909e-01
<VARIANCE> 25
 2.575111e+01 1.522309e+01 2.404291e+01 1.631461e+01 4.258894e+01 4.244733e+01 5.191289e+01 2.049128e+01 2.155458e+01 2.741801e+01 1.829147e+01 3.235567e+01 1.953219e+00 1.976448e+00 2.281618e+00 2.141072e+00 3.153059e+00 3.348924e+00 3.785617e+00 2.614120e+00 2.562010e+00 2.389921e+00 2.117296e+00 3.348112e+00 2.953887e+00
<GCONST> 9.756440e+01
<STATE> 3
<MEAN> 25
 5.682391e+00 -2.025978e+00 2.124675e+00 -7.789585e-01 -4.512810e+00 -7.727623e+00 -2.712428e+00 3.529722e+00 -3.125016e+00 -1.777100e+00 -5.227684e+00 -5.376235e+00 -3.868556e-01 1.142987e+00 -1.084589e-01 4.829818e-01 1.023985e+00 6.402757e-01 -7.219377e-02 -1.054396e+00 2.234471e-01 -3.085742e-03 -4.382328e-01 1.919453e-01 -1.178302e+00
<VARIANCE> 25
 1.751315e+01 4.185626e+01 3.326822e+01 4.263677e+01 5.541581e+01 4.150916e+01 2.824406e+01 2.899212e+01 1.435677e+01 3.036874e+01 2.900214e+01 2.642910e+01 1.260906e+00 1.663443e+00 1.995751e+00 3.100881e+00 4.508579e+00 3.726115e+00 1.982620e+00 2.228185e+00 2.430135e+00 1.999171e+00 2.193037e+00 1.992727e+00 4.497917e+00
<GCONST> 9.839907e+01
<STATE> 4
<MEAN> 25
 -5.591566e-01 8.012588e-01 -4.916501e-02 8.680857e-01 1.473360e+00 -1.923537e+00 9.523048e-01 1.446483e+00 3.964391e-01 3.666335e-01 -2.322756e+00 -2.567234e+00 2.366070e-01 3.860177e-01 1.379482e-01 -2.153518e-01 1.295219e-02 4.308302e-01 -2.051067e-01 -6.539773e-01 -3.189905e-01 3.197277e-01 3.315693e-01 -1.574937e-01 2.845851e-01
<VARIANCE> 25
 6.082733e+01 3.115793e+01 5.271792e+01 2.767496e+01 3.689919e+01 4.401498e+01 4.469909e+01 2.240521e+01 3.775213e+01 2.226554e+01 3.140848e+01 4.995852e+01 4.551315e+00 2.146508e+00 2.657540e+00 3.610012e+00 2.968386e+00 4.546848e+00 3.286952e+00 3.375343e+00 2.948281e+00 2.599309e+00 2.174297e+00 3.053524e+00 3.185759e+00
<GCONST> 1.038113e+02
<TRANSP> 5
 0.000000e+00 1.000000e+00 0.000000e+00 0.000000e+00 0.000000e+00
 0.000000e+00 8.008437e-01 1.991563e-01 0.000000e+00 0.000000e+00
 0.000000e+00 0.000000e+00 7.219477e-01 2.780522e-01 0.000000e+00
 0.000000e+00 0.000000e+00 0.000000e+00 7.126940e-01 2.873061e-01
 0.000000e+00 0.000000e+00 0.000000e+00 0.000000e+00 0.000000e+00
<ENDHMM>
~h "er"
<BEGINHMM>
<NUMSTATES> 5
<STATE> 2
<MEAN> 25
 1.159750e+01 -2.227046e-01 -3.701905e+00 8.008162e+00 -7.738349e-01 -9.925941e+00 -1.516427e+01 4.847854e+00 1.504576e+00 -7.715492e+00 1.115306e+00 5.550027e+00 2.346213e-01 -4.732998e-02 -4.325472e-01 2.284932e-01 1.980633e-01 -1.541554e-01 -7.011726e-01 4.625044e-01 3.381350e-01 -1.352503e-01 -3.234732e-01 5.774346e-02 -2.151160e-01
<VARIANCE> 25
 1.293650e+01 1.380502e+01 4.922045e+01 4.484981e+01 4.053791e+01 5.050613e+01 5.349876e+01 4.924773e+01 4.180433e+01 2.987452e+01 3.779909e+01 1.685614e+01 8.992187e-01 6.101483e-01 1.436821e+00 1.001125e+00 1.766349e+00 1.822366e+00 3.087757e+00 1.948787e+00 1.951605e+00 1.415535e+00 1.506699e+00 1.245267e+00 3.392012e-01
<GCONST> 9.121075e+01
<STATE> 3
<MEAN> 25
 5.141979e+00 -1.260666e+00 -1.661616e+00 7.367578e+00 -9.255601e-01 -7.175985e+00 -6.795856e+00 5.529765e+00 1.442795e+00 -6.308684e+00 -3.670297e+00 3.182185e+00 -1.296735e+00 -2.646287e-01 5.173926e-01 -9.812961e-01 -2.216218e-02 9.750353e-01 1.865393e+00 -5.349537e-01 -4.684361e-01 7.475619e-01 -1.474613e-01 -5.273576e-01 -6.557522e-01
<VARIANCE> 25
 2.829074e+01 2.001826e+01 2.339276e+01 3.840089e+01 3.153087e+01 6.546194e+01 6.617081e+01 5.169190e+01 4.018005e+01 2.962142e+01 3.218930e+01 2.901975e+01 1.364321e+00 1.009912e+00 2.026570e+00 2.379342e+00 2.834347e+00 3.951214e+00 3.726252e+00 3.369118e+00 2.733029e+00 2.543149e+00 2.838088e+00 1.876583e+00 8.306387e-01
<GCONST> 9.904346e+01
<STATE> 4
<MEAN> 25
 -1.443594e+00 -3.381462e+00 -4.067763e+00 -2.204222e+00 8.056148e-01 7.263036e-01 -3.660324e-01 7.956863e-01 2.496833e+00 1.841273e+00 -1.593635e+00 8.796702e-01 -9.180281e-02 3.138142e-02 7.811844e-03 -1.011644e-01 7.206336e-02 1.911826e-01 1.237901e-01 -6.862038e-02 5.174014e-02 2.025926e-01 1.220499e-01 -5.971297e-02 -6.173801e-02
<VARIANCE> 25
 6.254109e+00 4.743830e+00 1.210726e+01 1.029843e+01 1.283924e+01 1.758208e+01 1.510329e+01 1.586284e+01 1.912788e+01 1.859528e+01 1.483406e+01 1.519726e+01 3.800307e-01 4.500176e-01 8.005968e-01 1.056937e+00 1.034945e+00 1.395356e+00 1.627337e+00 1.586735e+00 1.628169e+00 1.608483e+00 1.543340e+00 1.691357e+00 1.591227e-01
<GCONST> 7.582045e+01
<TRANSP> 5
 0.000000e+00 1.000000e+00 0.000000e+00 0.000000e+00 0.000000e+00
 0.000000e+00 9.062027e-01 9.379734e-02 0.000000e+00 0.000000e+00
 0.000000e+00 0.000000e+00 8.527827e-01 1.472173e-01 0.000000e+00
 0.000000e+00 0.000000e+00 0.000000e+00 9.341626e-01 6.583750e-02
 0.000000e+00 0.000000e+00 0.000000e+00 0.000000e+00 0.000000e+00
<ENDHMM>
~h "ey"
<BEGINHMM>
<NUMSTATES> 5
<STATE> 2
<MEAN> 25
 2.889379e+00 1.782166e+00 1.421035e+01 -4.615974e+00 -1.444201e+01 1.435237e+00 -2.463003e+00 -2.816938e+00 -9.808961e+00 2.723867e+00 7.913871e-01 -4.718761e+00 -1.178334e-01 3.066975e-01 4.939229e-01 -1.303498e-01 8.550257e-02 2.991569e-01 -2.382901e-01 -7.293710e-01 -2.160084e-01 6.099837e-02 -5.309573e-02 -2.405186e-01 -2.670096e-01
<VARIANCE> 25
 8.058117e+00 1.612150e+01 1.883250e+01 3.681260e+01 1.205790e+01 5.391147e+01 5.578994e+01 3.867314e+01 2.587885e+01 1.583405e+01 3.639705e+01 2.169135e+01 1.747048e-01 3.418617e-01 5.278829e-01 5.631043e-01 5.644823e-01 8.665906e-01 8.512641e-01 1.083202e+00 1.171288e+00 7.736307e-01 8.271799e-01 6.811242e-01 1.379658e-01
<GCONST> 7.671561e+01
<STATE> 3
<MEAN> 25
 2.820853e+00 3.124072e+00 1.489986e+01 -3.561199e-01 -1.219067e+01 -1.143355e+00 3.861191e-02 -5.019614e+00 -1.037624e+01 -3.805778e-01 2.429422e+00 -5.695375e+00 1.069749e-01 -3.261002e-02 -4.930671e-01 6.328990e-01 7.540674e-01 -5.262562e-01 2.004634e-01 3.575409e-01 1.704434e-02 -5.997304e-01 1.984977e-02 1.400670e-01 -8.411712e-01
<VARIANCE> 25
 8.138341e+00 2.683318e+01 4.241340e+01 5.321875e+01 2.483999e+01 4.038642e+01 6.670047e+01 7.840141e+01 3.848838e+01 2.126827e+01 3.642896e+01 2.657828e+01 8.672088e-01 8.918766e-01 1.229640e+00 1.191815e+00 1.492958e+00 3.059435e+00 3.040679e+00 3.169591e+00 2.510086e+00 1.935757e+00 1.910427e+00 1.573480e+00 3.780106e-01
<GCONST> 9.372962e+01
<STATE> 4
<MEAN> 25
 2.958252e+00 1.218216e+00 7.611967e+00 9.803753e-01 -5.724474e+00 -2.149692e+00 6.341595e-01 -1.674586e+00 -5.301626e+00 -2.096286e+00 -7.895423e-01 -5.739433e+00 -4.020747e-01 8.683930e-02 -2.009903e+00 8.671876e-01 2.061325e+00 1.802315e-01 -1.582938e-01 2.919247e-01 1.607238e+00 -2.138216e-01 -5.926521e-01 6.930072e-01 -1.186622e+00
<VARIANCE> 25
 1.389245e+01 3.346368e+01 7.727806e+01 2.395376e+01 3.766343e+01 4.253121e+01 5.615034e+01 8.170979e+01 5.603325e+01 2.785165e+01 2.499099e+01 3.021878e+01 4.030655e+00 1.421153e+00 2.444889e+00 4.613636e+00 3.149243e+00 6.054447e+00 5.586339e+00 3.120766e+00 3.576009e+00 3.013914e+00 3.068238e+00 3.040701e+00 1.402316e+00
<GCONST> 1.043258e+02
<TRANSP> 5
 0.000000e+00 1.000000e+00 0.000000e+00 0.000000e+00 0.000000e+00
 0.000000e+00 8.972104e-01 1.027897e-01 0.000000e+00 0.000000e+00
 0.000000e+00 0.000000e+00 4.920895e-01 5.079105e-01 0.000000e+00
 0.000000e+00 0.000000e+00 0.000000e+00 6.993408e-01 3.006592e-01
 0.000000e+00 0.000000e+00 0.000000e+00 0.000000e+00 0.000000e+00
<ENDHMM>
~h "hh"
<BEGINHMM>
<NUMSTATES> 5
<STATE> 2
<MEAN> 25
 2.975410e+00 -4.537712e+00 -2.002878e+00 -3.895575e-01 4.750072e+00 7.657328e+00 1.100760e+00 2.168815e-01 2.655084e+00 1.064483e-01 -6.306719e-01 -6.404015e+00 -3.377241e-01 -3.135636e-01 -2.220246e-01 -2.863372e-01 -1.868647e-01 -1.847704e-01 4.271904e-01 -3.312440e-01 -8.449224e-02 -3.745109e-02 4.217451e-01 6.261994e-01 -6.985661e-02
<VARIANCE> 25
 3.726055e+01 4.909520e+01 6.082654e+01 7.697803e+01 3.854491e+01 2.155577e+01 4.845127e+01 4.272552e+01 1.667415e+01 1.917229e+01 2.072943e+01 9.088043e+01 7.183363e-01 1.032788e+00 1.448870e+00 2.268412e+00 1.819255e+00 2.047233e+00 1.285483e+00 1.992295e+00 1.690395e+00 1.939106e+00 1.657049e+00 2.725871e+00 3.854684e-01
<GCONST> 9.446478e+01
<STATE> 3
<MEAN> 25
 -3.751842e+00 -3.392392e+00 -5.288801e+00 -1.861399e+00 3.136866e+00 6.472671e+00 3.020880e+00 -1.526486e+00 1.431255e+00 3.697248e-01 6.353195e+00 6.823872e+00 3.789984e-01 4.651609e-01 -2.571372e-01 2.513585e-01 -2.892714e-01 4.820445e-01 2.176984e-01 5.730635e-01 -1.825368e-01 -2.635651e-01 6.006518e-02 -1.951008e-01 6.428131e-02
<VARIANCE> 25
 1.902472e+01 3.960042e+01 3.160377e+01 3.139159e+01 2.166032e+01 6.070827e+01 1.421605e+01 4.704777e+01 6.226400e+01 3.459982e+01 3.205219e+01 2.991424e+01 1.545807e+00 1.970318e+00 2.067384e+00 1.345431e+00 1.048375e+00 4.954065e+00 1.410126e+00 2.996427e+00 2.156991e+00 2.217485e+00 1.597519e+00 1.648478e+00 6.227213e-01
<GCONST> 9.498439e+01
<STATE> 4
<MEAN> 25
 -4.688207e+00 -4.746748e-01 -3.196030e-01 2.802400e+00 2.530044e+00 2.480379e+00 3.732378e+00 1.654291e+00 4.586237e+00 1.916564e+00 2.702248e+00 4.421083e+00 5.718421e-02 -3.810263e-02 -3.336795e-02 -8.758252e-02 -6.166061e-02 -4.599734e-02 3.802911e-02 -1.314234e-03 -6.984410e-02 5.518395e-02 -9.591610e-02 -7.728717e-02 1.143917e-03
<VARIANCE> 25
 5.512327e+00 3.230809e+00 5.461614e+00 6.132251e+00 8.992229e+00 9.308551e+00 1.301675e+01 1.743176e+01 1.195790e+01 1.438849e+01 1.364831e+01 1.198605e+01 2.683993e-01 3.110844e-01 4.562295e-01 5.889248e-01 8.105386e-01 1.114120e+00 1.276549e+00 1.449573e+00 1.263338e+00 1.604553e+00 1.486184e+00 1.095318e+00 1.199376e-01
<GCONST> 6.822429e+01
<TRANSP> 5
 0.000000e+00 1.000000e+00 0.000000e+00 0.000000e+00 0.000000e+00
 0.000000e+00 7.375478e-01 2.624522e-01 0.000000e+00 0.000000e+00
 0.000000e+00 0.000000e+00 6.047535e-01 3.952465e-01 0.000000e+00
 0.000000e+00 0.000000e+00 0.000000e+00 9.444948e-01 5.550524e-02
 0.000000e+00 0.000000e+00 0.000000e+00 0.000000e+00 0.000000e+00
<ENDHMM>
~h "ih"
<BEGINHMM>
<NUMSTATES> 5
<STATE> 2
<MEAN> 25
 4.227262e+00 3.392565e-02 5.984510e+00 -5.571291e-01 -8.618490e+00 -3.880488e+00 -1.798280e+00 -1.838534e+00 -8.395849e+00 -1.101947e+00 -9.269505e-01 -4.520061e+00 -5.195392e-02 3.966144e-01 -5.474479e-02 3.350450e-01 4.767592e-01 1.089714e-01 1.296898e-01 -5.236312e-01 1.158346e-01 -8.361772e-02 -2.299070e-01 -2.876994e-01 -3.551594e-01
<VARIANCE> 25
 2.936338e+01 3.019313e+01 4.694017e+01 4.113062e+01 6.439771e+01 6.074211e+01 4.037610e+01 6.971192e+01 6.368194e+01 3.091389e+01 2.857527e+01 4.040872e+01 2.356754e+00 2.478909e+00 4.302864e+00 3.376504e+00 6.613281e+00 5.303044e+00 4.188157e+00 4.228565e+00 6.228179e+00 2.728194e+00 2.720032e+00 1.823324e+00 5.952124e+00
<GCONST> 1.082414e+02
<STATE> 3
<MEAN> 25
 1.238098e+00 4.537783e+00 3.403229e+00 1.181713e+00 2.781023e+00 -3.503394e+00 -5.479194e+00 -2.199433e+00 -6.763980e-01 -1.659715e+00 -3.537496e+00 -3.084714e+00 -4.092754e-01 -2.691663e-01 -4.059947e-01 1.679395e-01 6.225606e-01 3.501179e-01 3.543841e-01 6.495399e-01 9.286861e-01 7.926565e-02 2.240529e-01 4.144763e-01 -1.663924e-01
<VARIANCE> 25
 1.914384e+01 3.157197e+01 3.087193e+01 4.105188e+01 5.007980e+01 3.575779e+01 1.075243e+02 4.200588e+01 2.446315e+01 2.229476e+01 2.531968e+01 2.599309e+01 2.228092e+00 2.384818e+00 2.813513e+00 1.618380e+00 5.349728e+00 3.307140e+00 3.633259e+00 4.307178e+00 3.366798e+00 1.702223e+00 2.091030e+00 1.504902e+00 2.413429e+00
<GCONST> 1.007757e+02
<STATE> 4
<MEAN> 25
 -1.711415e+00 2.208428e-01 2.328872e+00 4.185727e+00 3.249406e+00 2.522495e+00 5.910517e+00 4.384136e+00 6.072324e+00 3.312185e+00 2.221096e+00 2.791597e+00 -4.433213e-01 -4.088823e-01 -4.297465e-01 -3.345708e-01 1.566210e-01 8.845466e-02 1.007111e-01 -6.568824e-02 2.544205e-01 4.215840e-01 6.200644e-01 3.516680e-01 -3.992244e-01
<VARIANCE> 25
 2.688198e+01 2.805693e+01 3.448607e+01 2.334671e+01 3.688951e+01 3.748360e+01 4.194095e+01 3.883638e+01 3.248240e+01 3.577581e+01 2.048708e+01 2.852416e+01 2.092341e+00 1.867602e+00 2.366507e+00 1.823297e+00 2.429425e+00 1.743928e+00 2.127228e+00 2.519319e+00 2.795436e+00 2.682468e+00 1.486362e+00 1.983597e+00 1.458804e+00
<GCONST> 9.674077e+01
<TRANSP> 5
 0.000000e+00 1.000000e+00 0.000000e+00 0.000000e+00 0.000000e+00
 0.000000e+00 7.846936e-01 2.153064e-01 0.000000e+00 0.000000e+00
 0.000000e+00 0.000000e+00 6.184274e-01 3.815726e-01 0.000000e+00
 0.000000e+00 0.000000e+00 0.000000e+00 6.329020e-01 3.670981e-01
 0.000000e+00 0.000000e+00 0.000000e+00 0.000000e+00 0.000000e+00
<ENDHMM>
~h "iy"
<BEGINHMM>
<NUMSTATES> 5
<STATE> 2
<MEAN> 25
 2.126455e+00 3.771895e+00 9.561038e+00 2.925647e+00 -4.090503e+00 -3.001528e+00 -1.654646e+00 -6.540383e+00 -6.594715e+00 -2.158452e+00 1.655627e+00 -2.475009e+00 6.282490e-01 6.417585e-01 2.474231e+00 -5.140135e-01 -2.127693e+00 -3.246284e-01 -7.708446e-01 -1.394104e+00 -2.332645e+00 -2.716703e-01 2.478354e-01 -1.096445e+00 1.517852e+00
<VARIANCE> 25
 4.327372e+01 2.883302e+01 6.047943e+01 5.406188e+01 7.089837e+01 5.373371e+01 3.657999e+01 5.169845e+01 5.649566e+01 5.179855e+01 3.626123e+01 5.978891e+01 3.587141e+00 3.024446e+00 4.168817e+00 6.021288e+00 5.543649e+00 6.773868e+00 4.298188e+00 3.793064e+00 4.749801e+00 5.300578e+00 4.308114e+00 3.457949e+00 1.960850e+00
<GCONST> 1.112463e+02
<STATE> 3
<MEAN> 25
 2.262111e+00 7.052779e+00 1.741306e+01 -1.294213e+00 -8.931313e+00 -4.008878e-01 -4.601046e+00 -1.273452e+01 -9.835612e+00 -3.770128e+00 1.047008e+00 -4.669680e+00 -1.282418e-02 5.410352e-02 -3.170686e-02 -5.202534e-01 -8.779707e-02 4.177989e-01 -2.481177e-01 5.714847e-02 1.586598e-01 -3.504280e-02 9.226952e-02 -1.573790e-01 1.212514e-01
<VARIANCE> 25
 2.022435e+01 2.664858e+01 1.959964e+01 3.976802e+01 4.179370e+01 4.289595e+01 2.128853e+01 4.553787e+01 2.284871e+01 4.992604e+01 4.767422e+01 2.430864e+01 1.096123e+00 1.994285e+00 1.370405e+00 2.764400e+00 2.114782e+00 3.125866e+00 2.008477e+00 2.395803e+00 1.442935e+00 1.675249e+00 1.897871e+00 2.727716e+00 3.917673e-01
<GCONST> 9.452151e+01
<STATE> 4
<MEAN> 25
 3.416712e+00 2.817279e+00 2.071135e+01 -3.580003e+00 -1.117174e+01 -6.177820e-01 -1.067509e+01 -5.782500e+00 -1.369528e+01 -1.438662e+00 8.565481e-03 -6.165143e+00 1.110452e-02 -1.551027e-01 -8.117168e-01 7.136786e-01 6.680318e-01 -3.088698e-01 3.106802e-01 5.429277e-01 6.577219e-01 -1.200779e-01 -1.950714e-01 8.285907e-02 -4.594944e-01
<VARIANCE> 25
 8.966191e+00 1.801112e+01 4.233265e+01 4.934866e+01 2.388337e+01 4.248742e+01 4.651684e+01 2.800743e+01 2.734273e+01 2.537006e+01 2.740111e+01 1.713858e+01 6.176090e-01 7.434292e-01 2.254726e+00 1.383005e+00 1.883817e+00 1.557931e+00 2.276189e+00 1.747312e+00 2.634810e+00 2.436486e+00 1.529887e+00 2.597493e+00 5.256523e-01
<GCONST> 9.087659e+01
<TRANSP> 5
 0.000000e+00 1.000000e+00 0.000000e+00 0.000000e+00 0.000000e+00
 0.000000e+00 7.429077e-01 2.570922e-01 0.000000e+00 0.000000e+00
 0.000000e+00 0.000000e+00 7.769991e-01 2.230008e-01 0.000000e+00
 0.000000e+00 0.000000e+00 0.000000e+00 8.006587e-01 1.993413e-01
 0.000000e+00 0.000000e+00 0.000000e+00 0.000000e+00 0.000000e+00
<ENDHMM>
~h "jh"
<BEGINHMM>
<NUMSTATES> 5
<STATE> 2
<MEAN> 25
 -1.562387e+00 -1.038865e+00 -8.379613e-01 6.750313e-01 -4.167305e+00 -1.519818e+00 -7.190285e-01 -3.996517e+00 -2.173598e+00 7.716907e-01 3.312148e-01 1.627645e+00 5.954763e-01 -7.372335e-01 7.413048e-01 -9.175140e-01 -2.353145e+00 -1.851079e+00 -1.760459e+00 7.547954e-02 -1.337345e+00 -1.189378e-01 -8.116431e-01 -1.423621e+00 4.796465e+00
<VARIANCE> 25
 2.908942e+01 1.350682e+01 3.387921e+01 1.112619e+01 3.978896e+01 3.683088e+01 2.244955e+01 5.100212e+01 2.148365e+01 1.297919e+01 7.633686e+00 2.195778e+01 1.057366e+01 2.489983e+00 2.906704e+00 2.219082e+00 2.798553e+00 6.149035e+00 1.377659e+00 1.204358e+01 4.184350e+00 1.361007e+00 6.069676e-01 1.751427e+00 7.818350e+00
<GCONST> 9.758427e+01
<STATE> 3
<MEAN> 25
 5.739229e+00 -6.916585e+00 -5.744656e-01 -4.845027e+00 -4.729236e+00 -2.715373e+00 -5.901343e+00 -2.246332e-01 1.014286e+00 9.972224e-01 -3.272179e+00 -8.592561e+00 2.147539e-01 -1.986139e-01 3.435626e-01 3.985768e-02 -4.089937e-02 -4.858132e-01 1.059672e-01 3.032433e-01 -4.574432e-01 -1.741160e-01 -1.436838e-02 8.340252e-02 -2.057998e-01
<VARIANCE> 25
 2.022284e+02 3.151889e+01 4.136261e+01 1.482906e+01 1.894100e+01 4.764246e+01 5.420183e+01 4.930404e+01 1.373603e+01 1.646755e+01 1.506413e+01 5.800691e+01 2.752141e+00 1.278239e+00 2.866798e+00 2.307214e+00 2.812193e+00 4.862896e+00 2.190506e+00 4.107919e+00 3.753596e+00 1.723325e+00 2.688858e+00 3.050792e+00 6.095009e-01
<GCONST> 9.945207e+01
<STATE> 4
<MEAN> 25
 4.097681e-01 5.636889e-01 1.109384e+01 -3.204585e-01 -4.280194e+00 -3.599820e+00 -5.495525e+00 2.159034e-01 -8.577721e+00 -4.578721e+00 -1.413105e+00 -3.652842e+00 -2.732887e-01 3.701984e-01 6.213823e-02 -8.554246e-02 4.953841e-01 9.582412e-01 6.064739e-02 -2.681452e-01 5.723126e-01 -9.983139e-02 1.708281e-01 -8.407493e-03 -3.111251e-01
<VARIANCE> 25
 6.018644e+01 3.404558e+01 3.224514e+01 3.657046e+01 5.355272e+01 5.819880e+01 2.255381e+01 2.571792e+01 7.270586e+01 1.581157e+01 1.947631e+01 1.551970e+01 8.476314e+00 3.477627e+00 3.406973e+00 5.123312e+00 4.408736e+00 5.677114e+00 3.987199e+00 2.696794e+00 6.961307e+00 1.890811e+00 2.134960e+00 1.950902e+00 7.021008e+00
<GCONST> 1.056022e+02
<TRANSP> 5
 0.000000e+00 1.000000e+00 0.000000e+00 0.000000e+00 0.000000e+00
 0.000000e+00 7.897897e-01 2.102103e-01 0.000000e+00 0.000000e+00
 0.000000e+00 0.000000e+00 8.932354e-01 1.067646e-01 0.000000e+00
 0.000000e+00 0.000000e+00 0.000000e+00 9.233346e-01 7.666545e-02
 0.000000e+00 0.000000e+00 0.000000e+00 0.000000e+00 0.000000e+00
<ENDHMM>
~h "ng"
<BEGINHMM>
<NUMSTATES> 5
<STATE> 2
<MEAN> 25
 2.912521e+00 2.794687e+00 -3.164583e+00 6.012048e+00 3.112769e+00 -1.703088e+00 2.155082e+00 -4.925154e+00 -2.454656e+00 -1.704487e-01 -6.237822e-01 -3.440577e+00 -8.413481e-01 -7.311844e-01 -4.578710e-01 -4.173891e-01 4.678636e-01 6.719300e-01 2.202235e-01 1.005578e+00 1.001739e+00 4.286209e-01 8.852374e-01 1.241342e+00 -7.369974e-01
<VARIANCE> 25
 3.832812e+01 5.229649e+00 8.986094e+00 7.273211e+00 3.815787e+00 1.626020e+01 7.299846e+00 2.717075e+01 3.197544e+01 8.152930e+00 1.015687e+01 3.126111e+01 1.243493e+00 1.079197e+00 1.484099e+00 5.852267e-01 5.659655e-01 2.047724e+00 2.012226e+00 2.225170e+00 1.574510e+00 2.357065e+00 2.392757e+00 2.480577e+00 1.993121e-01
<GCONST> 7.944825e+01
<STATE> 3
<MEAN> 25
 -6.261615e+00 -1.292106e+00 -7.490783e-01 1.703986e+00 4.957721e+00 5.273412e+00 6.057004e+00 4.132941e+00 6.208972e+00 3.778262e+00 3.783122e+00 5.269747e+00 -1.685068e-02 -2.867159e-02 -4.798244e-02 3.311870e-02 7.851305e-02 2.320461e-02 1.110267e-01 6.809262e-02 9.721212e-02 9.625127e-02 1.043984e-01 3.108749e-02 -5.152903e-02
<VARIANCE> 25
 1.563246e+00 1.664927e+00 6.734793e+00 6.392283e+00 6.697470e+00 8.532666e+00 9.809435e+00 1.013154e+01 1.063086e+01 1.140707e+01 8.919998e+00 8.227725e+00 1.540625e-01 2.586392e-01 3.786356e-01 9.537978e-01 5.943778e-01 7.977197e-01 1.199107e+00 1.302117e+00 1.056736e+00 1.504335e+00 1.381733e+00 1.089086e+00 4.992371e-02
<GCONST> 6.173737e+01
<STATE> 4
<MEAN> 25
 -6.185545e+00 -7.588070e-02 -5.509628e+00 2.332014e+00 6.044614e+00 5.001638e+00 6.419242e+00 3.628449e+00 6.457971e+00 3.895306e+00 4.172205e+00 5.517391e+00 -6.654578e-02 1.052612e-01 -7.401104e-02 7.651106e-02 -4.590250e-02 -1.188033e-01 -9.275109e-02 3.805882e-02 -7.763393e-02 -2.496414e-01 1.344915e-02 1.437846e-01 1.155038e-01
<VARIANCE> 25
 4.416083e+00 4.395536e+00 1.790190e+01 3.190489e+00 6.552202e+00 9.345094e+00 9.733162e+00 1.021826e+01 1.513768e+01 1.380481e+01 8.219524e+00 8.781341e+00 4.628205e-01 2.918035e-01 6.519535e-01 5.189486e-01 7.005917e-01 1.108032e+00 1.102846e+00 9.475164e-01 2.177452e+00 1.381636e+00 9.775022e-01 1.093183e+00 1.426245e-01
<GCONST> 6.721870e+01
<TRANSP> 5
 0.000000e+00 1.000000e+00 0.000000e+00 0.000000e+00 0.000000e+00
 0.000000e+00 7.888702e-01 2.111298e-01 0.000000e+00 0.000000e+00
 0.000000e+00 0.000000e+00 9.350680e-01 6.493202e-02 0.000000e+00
 0.000000e+00 0.000000e+00 0.000000e+00 8.709849e-01 1.290151e-01
 0.000000e+00 0.000000e+00 0.000000e+00 0.000000e+00 0.000000e+00
<ENDHMM>
~h "ow"
<BEGINHMM>
<NUMSTATES> 5
<STATE> 2
<MEAN> 25
 1.156628e+01 1.794901e+00 -4.114666e+00 -1.026483e+01 -3.878311e+00 7.553744e+00 -8.833233e+00 -4.104760e+00 -5.488761e+00 1.811185e+00 3.202042e+00 -3.404604e+00 5.828949e-02 4.594640e-01 -1.994790e-02 -1.319235e-01 -1.314757e-01 1.714395e-01 2.317905e-01 -1.406678e-01 -4.566249e-01 -5.451968e-01 2.667746e-02 4.045852e-01 -3.839919e-01
<VARIANCE> 25
 4.906603e+00 3.148471e+01 1.567543e+01 1.800503e+01 2.734618e+01 3.270960e+01 3.733689e+01 3.429956e+01 5.000710e+01 5.441765e+01 2.743407e+01 3.353636e+01 1.104497e-01 4.834716e-01 3.309598e-01 7.352152e-01 5.474345e-01 1.201494e+00 7.649947e-01 9.792941e-01 9.623488e-01 1.402182e+00 1.122717e+00 6.772231e-01 1.323315e-01
<GCONST> 7.826652e+01
<STATE> 3
<MEAN> 25
 9.063879e+00 4.992357e+00 -3.631481e-01 -1.855086e+00 -2.318122e+00 2.653922e+00 -4.509577e+00 -4.670345e+00 -3.636145e+00 -6.223872e+00 2.345868e-01 -2.214543e+00 -7.010928e-01 -5.239112e-01 1.489266e-01 7.146280e-01 4.758699e-01 -3.648976e-01 2.119968e-01 2.097758e-01 5.893520e-01 4.310201e-01 -3.196815e-02 -3.668149e-02 -5.672071e-01
<VARIANCE> 25
 1.754972e+01 2.202716e+01 4.187947e+01 3.676627e+01 2.186622e+01 2.212236e+01 3.275463e+01 3.221709e+01 3.322218e+01 2.771950e+01 4.657325e+01 4.059134e+01 1.281363e+00 9.853116e-01 1.312101e+00 2.938617e+00 2.247544e+00 2.199561e+00 2.568603e+00 2.660384e+00 3.268378e+00 2.424870e+00 3.046407e+00 1.989474e+00 6.201156e-01
<GCONST> 9.525330e+01
<STATE> 4
<MEAN> 25
 -3.987155e+00 -2.422012e+00 -2.576045e+00 1.417519e+00 1.956798e+00 2.380849e+00 3.362044e+00 1.961703e+00 3.855340e+00 2.407100e+00 2.340118e+00 2.857721e+00 -1.089995e-01 -1.131948e-01 -1.822685e-02 7.516748e-02 9.777182e-02 1.045353e-01 1.221017e-01 6.260104e-02 9.160143e-03 9.993041e-02 7.027586e-02 1.031060e-01 -4.215162e-02
<VARIANCE> 25
 9.644300e+00 4.880718e+00 8.419001e+00 1.082188e+01 1.066839e+01 1.323851e+01 2.026164e+01 1.212534e+01 9.665917e+00 1.423318e+01 1.753575e+01 1.600160e+01 2.024992e-01 3.035412e-01 7.248192e-01 7.006826e-01 1.242439e+00 1.064399e+00 1.296309e+00 1.280492e+00 9.646314e-01 1.481598e+00 1.514646e+00 1.190939e+00 5.027409e-02
<GCONST> 7.060245e+01
<TRANSP> 5
 0.000000e+00 1.000000e+00 0.000000e+00 0.000000e+00 0.000000e+00
 0.000000e+00 9.444860e-01 5.551398e-02 0.000000e+00 0.000000e+00
 0.000000e+00 0.000000e+00 9.228542e-01 7.714578e-02 0.000000e+00
 0.000000e+00 0.000000e+00 0.000000e+00 9.315938e-01 6.840624e-02
 0.000000e+00 0.000000e+00 0.000000e+00 0.000000e+00 0.000000e+00
<ENDHMM>
~h "oy"
<BEGINHMM>
<NUMSTATES> 5
<STATE> 2
<MEAN> 25
 1.325559e+01 -1.889965e+00 3.498525e+00 -5.878213e+00 -1.196236e+01 2.432214e-01 -8.248562e+00 -1.291467e+00 -8.573430e+00 -1.883058e+00 2.467777e-01 -7.967048e+00 -3.080626e-01 5.440258e-02 2.821907e-01 2.034850e-01 3.401209e-01 -3.838944e-01 1.540795e-01 -1.836825e-01 -2.545575e-01 1.045648e-02 -5.947798e-03 1.386581e-01 -1.159690e-01
<VARIANCE> 25
 1.465044e+01 5.688536e+01 9.513645e+01 6.643200e+01 4.187053e+01 9.884078e+01 5.828360e+01 5.242176e+01 4.294992e+01 2.823574e+01 2.525963e+01 3.184575e+01 2.182645e+00 2.572015e+00 4.041508e+00 3.444128e+00 3.740337e+00 5.338017e+00 4.132844e+00 4.651663e+00 3.724705e+00 3.145814e+00 2.725173e+00 3.124830e+00 5.873298e-01
<GCONST> 1.059470e+02
<STATE> 3
<MEAN> 25
 -1.521528e+01 6.295527e+00 -3.562133e+00 -3.266818e+00 9.700163e+00 -9.599119e+00 3.953292e+00 1.335931e+00 6.571886e-01 -7.557806e-01 -2.721810e+00 2.863638e+00 -6.468433e-01 -2.072841e-01 -7.472502e-01 2.115285e-01 5.374321e-01 3.695908e-01 8.549216e-04 6.693432e-01 8.811887e-01 4.732419e-01 2.239042e-02 4.439303e-01 -5.271323e-01
<VARIANCE> 25
 5.952065e+01 7.408865e+00 1.914329e+01 1.798805e+01 2.782231e+01 1.405953e+01 3.778327e+01 2.669234e+01 3.073929e+01 2.454745e+01 1.663623e+01 2.137781e+01 1.047490e+01 5.544325e-01 3.415844e+00 2.512107e+00 2.548909e+00 3.181102e+00 2.223287e+00 1.612902e+00 4.327007e+00 3.571429e+00 2.281408e+00 1.400981e+00 1.923326e+00
<GCONST> 9.509555e+01
<STATE> 4
<MEAN> 25
 -4.656586e+00 -7.800982e-01 -5.323799e-01 3.789724e+00 3.612440e+00 1.978458e+00 3.054409e+00 9.683453e-01 4.389312e+00 1.397774e+00 7.466552e-01 2.857261e+00 -2.963336e-02 -9.523770e-02 1.708522e-02 1.501369e-01 -1.499417e-01 2.405258e-01 -5.271442e-03 -3.353430e-02 3.133599e-02 -3.448257e-02 5.383944e-02 -4.847015e-02 -1.408943e-01
<VARIANCE> 25
 1.333489e+01 9.309383e+00 1.520787e+01 1.760809e+01 1.357812e+01 2.070891e+01 1.896891e+01 2.175134e+01 2.423641e+01 1.538737e+01 1.359039e+01 1.700039e+01 1.131240e+00 1.264770e+00 1.752068e+00 1.746132e+00 1.466634e+00 2.144305e+00 2.037983e+00 2.733153e+00 1.878412e+00 1.735949e+00 1.818547e+00 2.118717e+00 9.093477e-01
<GCONST> 8.615942e+01
<TRANSP> 5
 0.000000e+00 1.000000e+00 0.000000e+00 0.000000e+00 0.000000e+00
 0.000000e+00 9.673024e-01 3.269757e-02 0.000000e+00 0.000000e+00
 0.000000e+00 0.000000e+00 9.032593e-01 9.674063e-02 0.000000e+00
 0.000000e+00 0.000000e+00 0.000000e+00 9.556932e-01 4.430684e-02
