~o
<STREAMINFO> 1 25
<VECSIZE> 25<NULLD><MFCC_D_N_Z_0><DIAGC>
~s "silst"
<MEAN> 25
 -4.868053e+00 -4.865267e-01 -3.141247e+00 2.222260e+00 2.659864e+00 2.786007e+00 3.453753e+00 1.956825e+00 4.446805e+00 3.067960e+00 1.880395e+00 3.447437e+00 -5.169635e-02 1.590903e-01 3.425391e-02 7.829015e-02 -6.279727e-02 -2.168852e-02 -1.097988e-01 -1.763919e-02 -1.984013e-01 -1.137881e-01 -7.269365e-02 -1.106127e-01 1.506144e-01
<VARIANCE> 25
 1.197866e+01 1.638350e+01 1.336542e+01 1.759410e+01 1.289408e+01 1.779830e+01 2.010098e+01 1.963104e+01 1.929194e+01 1.511844e+01 2.009983e+01 1.904446e+01 1.153662e+00 1.684379e+00 1.218796e+00 1.570821e+00 1.320599e+00 1.956286e+00 1.773397e+00 2.194205e+00 2.091948e+00 1.813309e+00 1.827507e+00 1.860692e+00 7.530982e-01
<GCONST> 8.561865e+01
~h "a"
<BEGINHMM>
<NUMSTATES> 5
<STATE> 2
<MEAN> 25
 3.717638e+00 -6.617663e+00 -2.258132e+00 -6.147935e+00 -5.940219e+00 -3.456209e+00 2.633759e+00 -4.712200e-01 3.484563e+00 -6.556804e-01 4.994735e+00 2.103672e+00 1.534356e-01 -1.934366e-01 -4.072784e-01 -1.597867e-01 -3.438494e-01 -2.649711e-02 3.022823e-01 1.820410e-01 2.209620e-02 -7.381570e-03 5.272574e-01 3.032023e-01 6.169444e-02
<VARIANCE> 25
 1.014267e+01 2.217102e+01 2.627728e+01 2.429248e+01 2.436940e+01 1.812494e+01 5.022519e+01 1.925765e+01 2.392546e+01 2.546212e+01 3.040325e+01 2.053836e+01 4.194323e-01 1.506881e+00 9.150481e-01 2.091383e+00 2.768095e+00 2.142854e+00 2.256762e+00 1.751734e+00 1.647117e+00 1.379921e+00 2.884880e+00 1.538366e+00 1.465742e+00
<GCONST> 8.967405e+01
<STATE> 3
<MEAN> 25
 5.590235e+00 -1.131242e+00 -6.350390e+00 -2.992117e+00 -2.118012e+00 -2.948397e+00 8.279553e-01 2.296209e+00 -9.042316e-01 -2.511670e+00 6.222827e+00 2.344952e+00 -3.216154e-01 1.597297e+00 3.370281e-01 2.061312e+00 1.837137e+00 1.147065e+00 -1.195028e+00 1.009913e-01 -5.538099e-02 3.819613e-01 -1.815008e+00 -7.274375e-01 -2.106300e+00
<VARIANCE> 25
 7.533289e+00 3.225828e+01 2.967313e+01 4.038910e+01 4.560624e+01 3.653191e+01 3.741558e+01 6.270488e+01 1.848658e+01 3.627625e+01 5.721215e+01 2.313829e+01 9.974345e-01 2.071473e+00 2.944375e+00 3.469162e+00 3.956938e+00 3.475401e+00 3.277268e+00 4.805682e+00 2.506095e+00 3.257536e+00 7.519439e+00 2.805859e+00 1.440688e+00
<GCONST> 1.013456e+02
<STATE> 4
<MEAN> 25
 1.279636e+00 8.356996e+00 -4.586456e+00 3.695941e+00 3.142507e+00 2.768861e+00 5.435581e-01 1.479972e+00 2.709724e-01 2.980343e+00 -2.440488e+00 1.049618e+00 -4.068557e-01 4.088072e-01 3.157262e-01 5.016330e-01 1.954587e-01 1.600728e-01 6.494315e-02 -5.925754e-02 -3.361568e-02 1.275767e-01 -4.500821e-01 -7.637928e-02 -6.056630e-01
<VARIANCE> 25
 2.000266e+01 4.130750e+01 3.690569e+01 4.064372e+01 3.671776e+01 2.317363e+01 4.224043e+01 2.653417e+01 2.070495e+01 2.535023e+01 4.273215e+01 3.327203e+01 4.634239e-01 1.151961e+00 1.308915e+00 2.300634e+00 2.424878e+00 2.038929e+00 2.023809e+00 1.545908e+00 1.556364e+00 1.775114e+00 2.495450e+00 1.338063e+00 4.416335e-01
<GCONST> 9.188612e+01
<TRANSP> 5
 0.000000e+00 1.000000e+00 0.000000e+00 0.000000e+00 0.000000e+00
 0.000000e+00 8.844107e-01 1.155893e-01 0.000000e+00 0.000000e+00
 0.000000e+00 0.000000e+00 7.556828e-01 2.443172e-01 0.000000e+00
 0.000000e+00 0.000000e+00 0.000000e+00 8.203846e-01 1.796154e-01
 0.000000e+00 0.000000e+00 0.000000e+00 0.000000e+00 0.000000e+00
<ENDHMM>
~h "b"
<BEGINHMM>
<NUMSTATES> 5
<STATE> 2
<MEAN> 25
 3.946552e+00 7.584142e+00 6.469158e+00 7.899733e+00 5.420263e+00 9.755136e-01 -4.213062e-01 -4.085394e+00 -2.984246e+00 -5.159042e+00 -4.081750e+00 -2.864726e+00 1.041022e-02 4.464536e-01 3.994660e-01 4.530074e-01 4.308773e-01 1.954826e-01 -4.078085e-03 -4.022822e-02 -4.614771e-02 -5.185109e-01 -3.150130e-01 -1.030582e-01 -5.544500e-02
<VARIANCE> 25
 1.145309e+01 7.894665e+00 1.100040e+01 7.778109e+00 1.061276e+01 1.503036e+01 1.388180e+01 1.967465e+01 2.925387e+01 1.854486e+01 1.555071e+01 1.309524e+01 1.764628e+00 1.771352e+00 1.411627e+00 9.031093e-01 1.111614e+00 1.370996e+00 2.218920e+00 2.400924e+00 2.787483e+00 2.106595e+00 1.657585e+00 1.453322e+00 8.381452e-01
<GCONST> 8.314481e+01
<STATE> 3
<MEAN> 25
 1.220702e+00 5.000244e+00 3.607927e+00 7.076712e+00 6.965921e+00 2.826881e+00 2.123469e+00 -1.869354e+00 -6.434563e-01 -3.550999e+00 -2.519888e+00 -9.368780e-01 3.477872e-01 -1.047130e+00 -1.167285e+00 -1.853427e+00 -1.740781e+00 -8.702316e-01 -1.049921e+00 3.743061e-01 4.816425e-01 1.091547e+00 9.334170e-01 4.385802e-01 2.221641e+00
<VARIANCE> 25
 1.612753e+01 1.182342e+01 1.926302e+01 1.180271e+01 1.177001e+01 1.680989e+01 2.440057e+01 2.450095e+01 3.319481e+01 2.385107e+01 1.931051e+01 1.241317e+01 2.735713e+00 1.809960e+00 2.056788e+00 3.402625e+00 2.752050e+00 3.346058e+00 2.112080e+00 4.233352e+00 3.881958e+00 2.394104e+00 2.656824e+00 1.720050e+00 3.367276e+00
<GCONST> 9.337766e+01
<STATE> 4
<MEAN> 25
 5.069052e+00 1.396588e+00 1.760565e+00 -1.320220e+00 -3.503449e+00 -2.473082e+00 -4.015996e+00 1.520874e-01 -1.162901e+00 1.739401e-01 4.861140e-01 -1.459874e+00 1.352831e+00 -1.469191e+00 -1.219892e-01 -2.870725e+00 -2.928973e+00 -4.445972e-01 -1.408426e+00 1.113970e+00 -6.124998e-01 1.291111e+00 6.060461e-01 -5.346867e-01 3.678115e+00
<VARIANCE> 25
 2.529921e+01 2.394576e+01 3.354055e+01 3.139062e+01 4.467896e+01 5.671698e+01 2.788259e+01 3.454031e+01 3.849040e+01 2.531954e+01 2.857217e+01 2.755049e+01 3.339258e+00 3.518994e+00 5.184477e+00 5.224127e+00 6.287884e+00 8.574621e+00 3.088836e+00 6.147233e+00 7.291098e+00 4.674145e+00 4.715260e+00 3.665220e+00 4.667130e+00
<GCONST> 1.081839e+02
<TRANSP> 5
 0.000000e+00 1.000000e+00 0.000000e+00 0.000000e+00 0.000000e+00
 0.000000e+00 7.967272e-01 2.032728e-01 0.000000e+00 0.000000e+00
 0.000000e+00 0.000000e+00 5.436674e-01 4.563327e-01 0.000000e+00
 0.000000e+00 0.000000e+00 0.000000e+00 5.901617e-01 4.098383e-01
 0.000000e+00 0.000000e+00 0.000000e+00 0.000000e+00 0.000000e+00
<ENDHMM>
~h "d"
<BEGINHMM>
<NUMSTATES> 5
<STATE> 2
<MEAN> 25
 1.851737e+00 2.604637e+00 6.320721e+00 2.564437e+00 -8.869381e-02 -4.011866e+00 -1.913540e+00 -1.095731e+00 -2.495772e+00 -1.714323e+00 -1.845491e+00 -2.189710e+00 2.653455e-01 3.161825e-02 3.410438e-01 -1.525500e-01 -8.017328e-01 -7.494349e-01 -2.778680e-01 -2.315984e-01 -4.084803e-01 1.706242e-01 3.811615e-01 4.254708e-01 4.161488e-01
<VARIANCE> 25
 2.939571e+01 3.388396e+01 3.110864e+01 5.475925e+01 6.790138e+01 4.737428e+01 4.715385e+01 4.096192e+01 2.868025e+01 4.445455e+01 2.713875e+01 1.636177e+01 3.634831e+00 2.717788e+00 3.824646e+00 6.871543e+00 8.228648e+00 6.432044e+00 3.701654e+00 4.421909e+00 3.905246e+00 2.888719e+00 3.048361e+00 2.120604e+00 6.137628e+00
<GCONST> 1.076073e+02
<STATE> 3
<MEAN> 25
 1.016786e+00 2.062196e-01 3.013262e+00 1.447057e+00 -1.167598e+00 -4.964746e+00 -2.103452e+00 -1.514089e-01 -1.976776e-01 7.045367e-01 7.642199e-01 2.196106e+00 -6.233104e-01 -8.642786e-01 -1.083265e+00 3.570275e-01 8.338606e-01 1.621035e+00 1.325956e+00 1.358574e+00 1.845923e+00 8.000540e-01 5.355145e-01 8.947965e-01 -9.793302e-01
<VARIANCE> 25
 2.018503e+01 1.639781e+01 3.497985e+01 3.400991e+01 6.020826e+01 5.766688e+01 4.550893e+01 4.152172e+01 3.815174e+01 2.866525e+01 3.593530e+01 3.284047e+01 2.354079e+00 1.110602e+00 2.858106e+00 1.423111e+00 5.499363e+00 5.744123e+00 2.984600e+00 3.929127e+00 3.274210e+00 4.405887e+00 4.243298e+00 4.338444e+00 1.663989e+00
<GCONST> 1.029675e+02
<STATE> 4
<MEAN> 25
 -3.063416e+00 -1.864443e+00 -1.858835e+00 1.970174e+00 2.903826e+00 2.651165e+00 3.822819e+00 2.612921e+00 4.629539e+00 2.352040e+00 1.679436e+00 3.182616e+00 -1.385511e-03 -8.695565e-02 -5.478993e-02 -4.297913e-02 -2.038025e-02 1.357297e-01 1.352775e-01 8.255795e-02 4.681546e-02 1.002914e-02 3.174922e-02 -6.560605e-02 1.192650e-02
<VARIANCE> 25
 9.761523e+00 6.699690e+00 1.400967e+01 1.183776e+01 1.598547e+01 1.442185e+01 1.503359e+01 1.449507e+01 1.551964e+01 1.935184e+01 1.435128e+01 1.451206e+01 2.252420e-01 3.644347e-01 5.887156e-01 8.464617e-01 9.664230e-01 1.010599e+00 1.495325e+00 1.580480e+00 1.399286e+00 1.628896e+00 1.207415e+00 1.157029e+00 1.901333e-01
<GCONST> 7.424485e+01
<TRANSP> 5
 0.000000e+00 1.000000e+00 0.000000e+00 0.000000e+00 0.000000e+00
 0.000000e+00 7.006512e-01 2.993488e-01 0.000000e+00 0.000000e+00
 0.000000e+00 0.000000e+00 4.756962e-01 5.243039e-01 0.000000e+00
 0.000000e+00 0.000000e+00 0.000000e+00 8.550799e-01 1.449201e-01
 0.000000e+00 0.000000e+00 0.000000e+00 0.000000e+00 0.000000e+00
<ENDHMM>
~h "e"
<BEGINHMM>
<NUMSTATES> 5
<STATE> 2
<MEAN> 25
 -8.329950e+00 -9.972423e+00 1.505200e+01 -1.365784e+01 -2.014381e+00 8.558775e+00 3.347956e-01 6.903172e-01 1.341332e+00 4.160409e+00 9.840493e-01 -1.295754e+00 -7.097158e-01 -8.902593e-01 1.097457e+00 -1.030747e+00 -2.160381e-01 3.326458e-01 -1.235712e-01 2.176364e-01 4.875205e-03 4.467745e-02 -2.228925e-01 -2.969643e-02 4.314049e-01
<VARIANCE> 25
 8.546506e+01 5.734907e+01 1.623510e+02 7.166719e+01 2.295729e+01 3.461968e+01 2.652073e+01 3.328581e+01 1.966158e+01 2.875896e+01 1.900974e+01 1.872739e+01 7.774895e+00 4.391814e+00 1.153925e+01 7.701492e+00 2.423523e+00 6.260335e+00 3.087555e+00 3.904501e+00 1.974964e+00 2.500986e+00 1.201275e+00 1.131211e+00 2.357357e+00
<GCONST> 1.054679e+02
<STATE> 3
<MEAN> 25
 -9.721332e-02 -4.344940e+00 5.300638e+00 -7.280247e+00 1.740529e-01 2.129403e+00 6.343781e-01 -3.767935e+00 -1.880245e+00 5.703867e-01 1.571879e+00 9.488949e-01 2.818804e+00 2.478320e+00 -3.388954e+00 2.281377e+00 3.246757e-01 -2.982132e+00 4.307131e-01 -1.780250e+00 -1.281695e+00 -1.387630e+00 5.438395e-01 1.127979e+00 1.812699e-01
<VARIANCE> 25
 4.109216e+01 5.048642e+01 7.581200e+01 5.690968e+01 3.077475e+01 5.983945e+01 4.479403e+01 3.904539e+01 2.177285e+01 3.607337e+01 2.320545e+01 2.345156e+01 3.747406e+00 4.086969e+00 5.481626e+00 3.870350e+00 2.947282e+00 5.699254e+00 4.546705e+00 6.040054e+00 1.782606e+00 4.668238e+00 2.713134e+00 1.428531e+00 2.335221e+00
<GCONST> 1.061443e+02
<STATE> 4
<MEAN> 25
 6.612947e+00 -1.770354e+00 -4.367743e+00 -1.452290e+00 -2.029543e+00 -5.601927e+00 1.219240e-01 -4.353905e+00 -4.817066e+00 -7.040554e+00 3.325977e+00 3.790927e+00 3.265350e-01 2.351768e-01 -6.591520e-01 1.870292e-01 -1.869186e-01 6.793633e-02 -1.057434e-01 4.229157e-01 2.991356e-01 -3.260246e-01 -2.249508e-01 1.144301e-03 -3.374874e-01
<VARIANCE> 25
 9.083107e+00 2.033996e+01 2.828034e+01 2.156653e+01 2.961957e+01 2.511334e+01 3.701085e+01 4.079755e+01 2.188771e+01 3.878437e+01 4.436525e+01 1.740951e+01 6.907679e-01 1.487026e+00 1.341513e+00 1.741075e+00 2.977008e+00 2.121938e+00 2.058372e+00 2.401402e+00 1.451739e+00 2.049841e+00 4.317235e+00 1.393710e+00 8.441956e-01
<GCONST> 9.193642e+01
<TRANSP> 5
 0.000000e+00 1.000000e+00 0.000000e+00 0.000000e+00 0.000000e+00
 0.000000e+00 7.987053e-01 2.012947e-01 0.000000e+00 0.000000e+00
 0.000000e+00 0.000000e+00 5.739840e-01 4.260159e-01 0.000000e+00
 0.000000e+00 0.000000e+00 0.000000e+00 8.144486e-01 1.855514e-01
 0.000000e+00 0.000000e+00 0.000000e+00 0.000000e+00 0.000000e+00
<ENDHMM>
~h "f"
<BEGINHMM>
<NUMSTATES> 5
<STATE> 2
<MEAN> 25
 -4.409461e+00 -3.527246e-01 -1.279509e+00 -3.509813e-01 1.496902e+00 6.410313e+00 5.246605e+00 2.057347e-01 -5.680740e-01 1.110171e+00 -1.933005e+00 -9.328194e-01 -1.652271e+00 4.047558e-01 -1.704405e-01 -8.483821e-01 -7.156721e-01 -2.618792e+00 -3.999090e-01 -7.511356e-02 -1.078940e+00 -6.354436e-01 1.584004e-01 6.495091e-01 -2.387963e-01
<VARIANCE> 25
 9.053356e+01 1.543532e+01 1.255478e+01 1.779565e+01 4.099841e+01 8.831379e+01 1.914223e+01 3.354817e+01 2.754009e+01 1.760306e+01 1.061326e+01 6.483473e+00 1.386561e+01 2.232284e+00 2.309100e+00 6.117764e+00 8.360634e+00 5.776750e+00 3.162245e+00 5.818127e+00 3.120090e+00 1.508222e+00 8.214160e-01 2.844998e+00 1.390442e+00
<GCONST> 9.927013e+01
<STATE> 3
<MEAN> 25
 -1.549514e+00 2.572439e+00 -5.410343e+00 -4.233036e+00 -4.141798e+00 1.005452e+00 3.828384e-01 -4.256272e-01 -1.620964e+00 -2.333992e+00 1.336635e+00 7.507085e-01 2.556100e-01 -5.309190e-01 -4.571373e-01 -7.279027e-02 3.166053e-02 -2.486430e-01 -5.460449e-01 -5.949562e-02 -9.374620e-02 5.120190e-01 7.695416e-01 4.085736e-01 -3.320463e-01
<VARIANCE> 25
 2.037769e+02 2.425754e+01 7.036423e+00 7.696230e+01 6.727657e+01 2.419246e+01 1.122775e+01 1.279053e+01 4.496610e+01 2.921483e+01 1.435424e+01 1.018214e+01 1.201359e+00 1.114105e+00 7.539384e-01 1.508583e+00 2.916903e+00 1.613426e+00 2.068415e+00 1.262960e+00 1.205065e+00 3.309151e+00 1.120679e+00 1.222210e+00 1.784309e+00
<GCONST> 9.048053e+01
<STATE> 4
<MEAN> 25
 -6.248957e+00 -2.851418e+00 -3.522561e+00 -2.423599e+00 -2.272617e-02 8.705756e-02 7.452660e-01 6.464644e-01 1.461500e+00 2.674679e+00 -7.051275e-01 7.548680e-01 1.691743e-01 2.896832e-02 1.037861e-02 -1.014798e-02 2.159913e-02 2.464322e-02 -1.197026e-01 -1.979885e-01 -1.155273e-02 -8.511344e-02 -2.034051e-01 -1.926072e-02 -1.499616e-01
<VARIANCE> 25
 3.506767e+01 1.109135e+01 9.890458e+00 1.002792e+01 1.553247e+01 1.192338e+01 1.468521e+01 1.611266e+01 1.567901e+01 1.614486e+01 1.396887e+01 1.539112e+01 1.691930e+00 7.682652e-01 8.340271e-01 9.531966e-01 1.343398e+00 1.336543e+00 1.519795e+00 1.283541e+00 1.550594e+00 1.632257e+00 1.226280e+00 1.397251e+00 1.760834e+00
<GCONST> 8.141894e+01
<TRANSP> 5
 0.000000e+00 1.000000e+00 0.000000e+00 0.000000e+00 0.000000e+00
 0.000000e+00 5.673923e-01 4.326077e-01 0.000000e+00 0.000000e+00
 0.000000e+00 0.000000e+00 6.471032e-01 3.528967e-01 0.000000e+00
 0.000000e+00 0.000000e+00 0.000000e+00 9.139609e-01 8.603908e-02
 0.000000e+00 0.000000e+00 0.000000e+00 0.000000e+00 0.000000e+00
<ENDHMM>
~h "g"
<BEGINHMM>
<NUMSTATES> 5
<STATE> 2
<MEAN> 25
 8.076151e-01 3.461786e+00 5.653442e+00 3.554503e+00 3.813830e+00 -1.018441e-01 7.815631e-02 -1.136980e+00 2.433248e+00 2.716030e-01 -4.524320e+00 -2.997663e+00 -5.656212e-02 -4.413273e-01 3.573324e-01 -4.245378e-01 3.609193e-01 -9.932908e-01 -5.122086e-01 -1.191103e+00 -3.377793e-01 -2.751010e-01 3.699539e-02 -2.277408e-01 1.977917e+00
<VARIANCE> 25
 3.261553e+01 9.096370e+01 3.261580e+01 4.673429e+01 3.449106e+01 3.187948e+01 3.488372e+01 4.634258e+01 2.020180e+01 2.352214e+01 2.153614e+01 2.570923e+01 3.697569e+00 9.939158e+00 5.021356e+00 6.088217e+00 4.027179e+00 3.798941e+00 3.453671e+00 6.161408e+00 2.179252e+00 2.636450e+00 2.293421e+00 2.986385e+00 5.575502e+00
<GCONST> 1.063432e+02
<STATE> 3
<MEAN> 25
 2.776254e+00 -2.773238e+00 1.758252e+00 3.293375e+00 4.831930e+00 -7.074267e+00 -7.830299e+00 -8.856989e+00 -2.637027e+00 -2.413622e+00 2.866128e+00 -2.255255e+00 6.694408e-01 2.959597e-01 7.551384e-03 -3.380957e-01 -1.492476e+00 3.495311e-01 -5.207586e-01 -6.010387e-01 -3.288060e-01 3.114557e-01 1.033907e+00 5.936550e-01 9.254608e-02
<VARIANCE> 25
 3.095725e+01 1.987557e+01 3.430420e+01 3.723553e+01 3.369274e+01 2.860247e+01 3.698166e+01 4.170415e+01 1.952190e+01 1.720243e+01 4.590143e+01 2.231062e+01 1.052812e+00 1.885131e+00 3.593982e+00 1.312942e+00 2.209037e+00 4.036082e+00 5.416080e+00 3.049262e+00 1.977842e+00 1.576594e+00 2.738133e+00 1.351795e+00 1.673820e+00
<GCONST> 9.667166e+01
<STATE> 4
<MEAN> 25
 2.281677e+00 1.838444e+00 1.274834e+01 -2.430591e+00 -1.015537e+01 -4.833488e+00 -3.725578e+00 -5.211609e+00 -9.891570e+00 1.029527e+00 1.657707e+00 -2.628023e+00 9.135476e-01 -4.206725e-01 5.910896e-01 1.422808e-01 -1.081545e+00 -3.495519e-01 5.068789e-02 1.563908e+00 -5.558896e-01 -5.842147e-02 4.224274e-01 -5.135604e-01 4.493283e-01
<VARIANCE> 25
 2.211163e+01 1.586648e+01 6.763179e+01 2.284689e+01 4.422130e+01 3.339990e+01 3.469322e+01 2.443367e+01 8.176136e+01 1.340557e+01 2.844711e+01 2.448055e+01 3.197309e+00 2.477476e+00 6.101192e+00 3.037895e+00 4.513503e+00 3.850876e+00 5.001446e+00 3.118429e+00 7.304281e+00 2.091877e+00 2.843196e+00 1.937047e+00 1.339219e+00
<GCONST> 1.020521e+02
<TRANSP> 5
 0.000000e+00 1.000000e+00 0.000000e+00 0.000000e+00 0.000000e+00
 0.000000e+00 8.570493e-01 1.429507e-01 0.000000e+00 0.000000e+00
 0.000000e+00 0.000000e+00 7.495219e-01 2.504781e-01 0.000000e+00
 0.000000e+00 0.000000e+00 0.000000e+00 7.556384e-01 2.443616e-01
 0.000000e+00 0.000000e+00 0.000000e+00 0.000000e+00 0.000000e+00
<ENDHMM>
~h "i"
<BEGINHMM>
<NUMSTATES> 5
<STATE> 2
<MEAN> 25
 2.649517e+00 -1.619815e+00 5.787751e+00 9.560651e+00 8.663031e+00 -7.880453e+00 -8.543358e+00 2.731625e-01 -4.675481e+00 -4.976455e+00 1.977279e+00 -8.212246e+00 -1.521727e-01 7.495871e-02 -1.111937e-01 4.509376e-01 -1.757657e-01 -2.858213e-01 -1.663266e-01 -1.663768e-02 -1.779893e-02 -9.780386e-03 -3.897475e-01 -1.103587e-01 -4.137442e-01
<VARIANCE> 25
 7.066996e+00 1.745680e+01 3.254601e+01 3.805047e+01 2.533154e+01 5.648153e+01 2.952223e+01 4.260151e+01 1.956302e+01 2.415019e+01 3.234192e+01 3.752506e+01 6.133938e-01 8.704846e-01 1.503443e+00 2.637177e+00 3.009950e+00 4.591601e+00 2.739769e+00 1.840315e+00 1.303642e+00 1.184473e+00 1.732941e+00 1.691553e+00 6.898767e-01
<GCONST> 9.167865e+01
<STATE> 3
<MEAN> 25
 7.064455e-01 1.816272e+00 3.257879e+00 1.360223e+01 4.172571e+00 -3.640997e+00 -4.100408e+00 2.496222e+00 3.223838e-02 7.734980e-01 -9.503106e-01 -3.840971e+00 -5.791143e-01 7.159693e-01 -5.273622e-01 -2.722671e-02 -2.674335e-01 9.339659e-01 1.138445e+00 8.155741e-01 9.169177e-01 1.004278e+00 -2.664767e-01 9.707104e-01 -1.311632e+00
<VARIANCE> 25
 1.221541e+01 3.381670e+01 3.012574e+01 2.858718e+01 1.719682e+01 3.927213e+01 3.077456e+01 6.029301e+01 3.201386e+01 2.099149e+01 2.865692e+01 2.113071e+01 4.935801e-01 1.696759e+00 1.551747e+00 2.743277e+00 1.737998e+00 3.509280e+00 3.190479e+00 1.603661e+00 1.255805e+00 5.864567e-01 1.644019e+00 1.847856e+00 6.072019e-01
<GCONST> 9.070467e+01
<STATE> 4
<MEAN> 25
 -3.937505e+00 5.507557e+00 -2.153186e+00 6.856488e+00 2.542624e+00 4.243911e-01 -1.048009e+00 1.399141e+00 3.192573e+00 3.047164e+00 -4.089412e+00 1.854365e+00 -1.968736e-01 -3.239501e-03 -3.128434e-01 -5.574073e-01 -2.053063e-01 2.683572e-01 1.050359e-02 -1.654168e-01 8.617564e-02 4.361033e-02 -1.765715e-02 1.132054e-01 -2.085083e-01
<VARIANCE> 25
 1.770216e+01 2.447613e+01 2.097429e+01 2.019343e+01 2.011183e+01 5.620879e+01 3.442525e+01 3.189568e+01 2.101153e+01 1.379268e+01 1.655521e+01 1.004181e+01 3.897811e-01 8.297440e-01 1.060731e+00 1.217596e+00 1.474285e+00 2.941573e+00 2.756058e+00 1.533274e+00 1.521612e+00 9.713469e-01 1.364262e+00 8.773712e-01 1.407843e-01
<GCONST> 8.352659e+01
<TRANSP> 5
 0.000000e+00 1.000000e+00 0.000000e+00 0.000000e+00 0.000000e+00
 0.000000e+00 8.453856e-01 1.546145e-01 0.000000e+00 0.000000e+00
 0.000000e+00 0.000000e+00 7.739319e-01 2.260681e-01 0.000000e+00
 0.000000e+00 0.000000e+00 0.000000e+00 8.907953e-01 1.092047e-01
 0.000000e+00 0.000000e+00 0.000000e+00 0.000000e+00 0.000000e+00
<ENDHMM>
~h "j"
<BEGINHMM>
<NUMSTATES> 5
<STATE> 2
<MEAN> 25
 -6.689000e+00 -1.015051e+01 1.257755e+01 -4.382091e+00 -7.152218e-02 3.076120e+00 2.816954e+00 1.187805e+00 2.177420e+00 1.063115e+00 -3.679357e+00 -5.825433e+00 1.909280e+00 3.562581e-01 -7.374890e-01 1.881536e+00 1.591377e+00 -1.399548e+00 3.465075e-02 -8.533502e-01 -9.132117e-01 -1.045146e+00 1.002009e-01 -7.424837e-01 8.758405e-01
<VARIANCE> 25
 6.014224e+01 1.278055e+02 5.863122e+01 1.055433e+02 5.680459e+01 3.704781e+01 2.586564e+01 2.921653e+01 1.458071e+01 1.505687e+01 1.688336e+01 7.634177e+00 6.566750e+00 1.687868e+01 8.729535e+00 9.693265e+00 6.370903e+00 4.134120e+00 3.379376e+00 2.476343e+00 2.154948e+00 2.375279e+00 1.383586e+00 9.064265e-01 7.888671e+00
<GCONST> 1.066210e+02
<STATE> 3
<MEAN> 25
 3.990184e+00 -2.087405e+00 3.045360e+00 7.506712e+00 3.129481e+00 -3.686049e+00 -3.031279e+00 -4.452061e+00 1.110408e-01 -3.790854e+00 -4.401000e+00 -7.573343e+00 3.845042e-02 5.638847e-01 -6.622738e-01 4.554669e-01 6.718429e-02 2.117705e-01 1.630403e-01 -1.940783e-01 -5.814102e-01 5.237439e-01 5.206755e-01 5.430349e-01 -9.387082e-01
<VARIANCE> 25
 2.454488e+00 5.960398e+01 8.036554e+00 1.591064e+01 1.532720e+01 1.661163e+01 3.473190e+01 5.138839e+01 1.079538e+01 8.640025e+00 1.998845e+01 1.045103e+01 8.840187e-01 1.441702e+00 1.098652e+00 1.094407e+00 2.168135e+00 2.564155e+00 2.153948e+00 1.861454e+00 5.922826e-01 1.796780e+00 6.514763e-01 1.128799e+00 1.660302e+00
<GCONST> 8.248061e+01
<STATE> 4
<MEAN> 25
 -3.060716e-01 6.384680e+00 2.090082e+00 1.057044e+01 6.105479e+00 4.786938e+00 3.890760e+00 1.576240e+00 1.073323e+00 3.899193e+00 -3.352673e+00 -1.085655e+00 -9.477876e-01 -1.502973e+00 8.596912e-01 -1.275329e+00 -7.432528e-01 7.373754e-01 8.471622e-01 1.102481e+00 2.368165e-02 6.652768e-01 7.140770e-01 4.015560e-01 1.802246e-01
<VARIANCE> 25
 1.376876e+01 6.588235e+01 2.646216e+01 2.150004e+01 4.652975e+01 4.900088e+01 2.656089e+01 3.041510e+01 1.491192e+01 1.700454e+01 2.049542e+01 1.342897e+01 2.838614e+00 1.942606e+01 6.387510e+00 6.177293e+00 4.490895e+00 1.070824e+01 1.497007e+00 1.513617e+00 3.310441e+00 3.519015e+00 4.693932e+00 2.512591e+00 1.477225e+01
<GCONST> 1.046723e+02
<TRANSP> 5
 0.000000e+00 1.000000e+00 0.000000e+00 0.000000e+00 0.000000e+00
 0.000000e+00 7.332449e-01 2.667551e-01 0.000000e+00 0.000000e+00
 0.000000e+00 0.000000e+00 7.643135e-01 2.356866e-01 0.000000e+00
 0.000000e+00 0.000000e+00 0.000000e+00 8.283486e-01 1.716515e-01
 0.000000e+00 0.000000e+00 0.000000e+00 0.000000e+00 0.000000e+00
<ENDHMM>
~h "k"
<BEGINHMM>
<NUMSTATES> 5
<STATE> 2
<MEAN> 25
 -6.091191e+00 -1.591201e+00 -1.665465e+00 -4.636528e-01 8.933393e-01 -1.188986e+00 2.811971e+00 -4.821321e-01 2.519237e+00 2.352587e+00 -4.976390e-01 4.973967e+00 -1.532909e-01 -9.484058e-01 -2.251218e-01 -1.295022e+00 1.995968e-02 -9.292074e-01 -4.963731e-01 -6.368678e-01 -5.146745e-01 1.918674e-01 -6.314903e-01 -2.908778e-02 2.649923e+00
<VARIANCE> 25
 1.705598e+01 3.945926e+01 4.081513e+01 5.627049e+01 2.179806e+01 3.444910e+01 3.538741e+01 3.600099e+01 3.449369e+01 1.930850e+01 2.729590e+01 1.907426e+01 2.814082e+00 4.971396e+00 6.482877e+00 6.029590e+00 3.281541e+00 4.131073e+00 3.910108e+00 4.276525e+00 4.014570e+00 1.713747e+00 3.816995e+00 2.283787e+00 8.939703e+00
<GCONST> 1.047377e+02
<STATE> 3
<MEAN> 25
 -4.110620e+00 -4.197990e+00 -3.345532e+00 -3.953805e+00 2.639533e+00 -1.845496e+00 6.168741e-02 -9.911232e-01 1.804198e-01 1.857505e+00 -1.347177e+00 6.323136e-01 5.530016e-01 -4.629323e-01 6.661603e-01 -7.060356e-01 1.078376e-02 6.252306e-01 1.181155e-01 3.218917e-03 -6.227487e-01 -7.475579e-01 8.244768e-01 -8.803353e-01 2.121215e+00
<VARIANCE> 25
 3.695590e+01 5.781869e+01 1.048566e+02 6.250830e+01 7.872261e+01 6.674814e+01 3.212062e+01 4.551352e+01 6.382270e+01 2.320187e+01 3.751157e+01 2.633511e+01 4.221414e+00 8.808492e+00 6.814943e+00 5.513000e+00 4.534963e+00 8.655823e+00 4.381907e+00 3.944983e+00 5.547563e+00 2.661092e+00 4.573863e+00 3.654320e+00 8.761724e+00
<GCONST> 1.138930e+02
<STATE> 4
<MEAN> 25
 3.411555e-01 -3.181483e+00 -5.874591e-01 -7.882445e-01 -1.729871e+00 -1.476601e-01 4.482453e+00 -9.154319e-01 -2.703829e+00 -1.153703e+00 3.494732e-01 -1.017244e+00 5.793068e-01 3.228996e-01 5.733589e-01 6.912739e-01 -4.020458e-01 -2.354345e-01 -1.853468e-01 1.415778e-01 2.443605e-01 -5.154833e-01 1.750719e-01 -5.357375e-01 2.781501e-01
<VARIANCE> 25
 4.902398e+01 4.544598e+01 9.730089e+01 5.952225e+01 5.580370e+01 6.419200e+01 4.803799e+01 6.183306e+01 4.745445e+01 3.813985e+01 2.302933e+01 3.235273e+01 4.005813e+00 3.328315e+00 3.654972e+00 3.907296e+00 5.273661e+00 4.528284e+00 4.717602e+00 4.906224e+00 5.120893e+00 4.192855e+00 2.029481e+00 3.568121e+00 3.032252e+00
<GCONST> 1.103344e+02
<TRANSP> 5
 0.000000e+00 1.000000e+00 0.000000e+00 0.000000e+00 0.000000e+00
 0.000000e+00 6.572859e-01 3.427141e-01 0.000000e+00 0.000000e+00
 0.000000e+00 0.000000e+00 6.029026e-01 3.970974e-01 0.000000e+00
 0.000000e+00 0.000000e+00 0.000000e+00 6.718835e-01 3.281165e-01
 0.000000e+00 0.000000e+00 0.000000e+00 0.000000e+00 0.000000e+00
<ENDHMM>
~h "l"
<BEGINHMM>
<NUMSTATES> 5
<STATE> 2
<MEAN> 25
 1.035531e+01 5.429971e+00 -6.296535e+00 -1.394084e+01 -5.380643e+00 5.742111e+00 -2.785018e+00 -8.577357e-01 -7.322566e+00 7.487637e-01 1.264984e+00 -4.467827e+00 1.267844e-02 6.981005e-01 1.397558e-01 -9.531029e-02 -2.506370e-01 -1.746705e-01 2.001469e-02 2.814353e-02 -4.495652e-01 -1.967009e-01 -1.530600e-02 5.581278e-01 -5.327793e-01
<VARIANCE> 25
 1.328620e+01 2.120289e+01 1.966432e+01 6.963021e+01 2.782383e+01 4.270309e+01 2.853137e+01 2.591567e+01 4.202300e+01 3.236708e+01 2.374488e+01 3.579878e+01 3.908973e-01 1.027940e+00 8.080603e-01 2.888901e+00 1.243881e+00 2.477606e+00 1.478454e+00 1.933379e+00 2.340217e+00 2.208721e+00 1.811147e+00 1.629321e+00 4.155907e-01
<GCONST> 9.041499e+01
<STATE> 3
<MEAN> 25
 6.204994e+00 6.259047e+00 -2.206300e+00 -4.555019e+00 -1.275119e+00 2.215971e+00 -2.341497e+00 -2.427176e+00 -3.841612e+00 -4.778790e-02 -1.254824e+00 -1.882392e+00 -9.976119e-01 -9.431160e-01 7.558591e-01 1.709679e+00 6.544554e-01 -1.797584e-01 3.133085e-01 1.518818e-01 1.372456e+00 7.008382e-02 -3.216861e-01 -4.620491e-02 -5.177169e-01
<VARIANCE> 25
 2.073915e+01 3.601870e+01 2.061965e+01 5.157170e+01 3.262609e+01 3.388511e+01 4.414569e+01 4.664867e+01 4.138083e+01 3.702667e+01 3.742108e+01 4.067469e+01 1.224241e+00 1.782925e+00 1.529069e+00 4.728593e+00 3.321777e+00 3.359385e+00 2.958558e+00 3.798147e+00 3.593594e+00 3.458496e+00 3.465342e+00 3.228859e+00 1.862527e+00
<GCONST> 1.019799e+02
<STATE> 4
<MEAN> 25
 -2.780828e+00 -9.932634e-01 -4.321583e-01 2.442500e+00 3.085562e+00 2.568372e+00 2.685598e+00 1.501397e+00 3.898222e+00 1.104090e+00 8.269765e-01 2.329989e+00 -2.117525e-01 -2.377720e-01 1.013952e-01 5.707369e-02 -2.730602e-02 -1.332534e-01 4.476441e-02 4.819073e-02 1.639274e-01 7.247917e-02 1.162302e-01 1.793738e-01 -1.483946e-01
<VARIANCE> 25
 2.158981e+01 1.793886e+01 1.343985e+01 1.980581e+01 2.266415e+01 1.967490e+01 2.245852e+01 2.233023e+01 2.705169e+01 1.873494e+01 2.548786e+01 2.355747e+01 2.978157e-01 5.190262e-01 7.535906e-01 9.626976e-01 9.763860e-01 1.405664e+00 1.344654e+00 1.543668e+00 1.796706e+00 1.848732e+00 1.866686e+00 1.295997e+00 1.691617e-01
<GCONST> 8.159974e+01
<TRANSP> 5
 0.000000e+00 1.000000e+00 0.000000e+00 0.000000e+00 0.000000e+00
 0.000000e+00 8.326654e-01 1.673346e-01 0.000000e+00 0.000000e+00
 0.000000e+00 0.000000e+00 7.343224e-01 2.656777e-01 0.000000e+00
 0.000000e+00 0.000000e+00 0.000000e+00 8.644257e-01 1.355744e-01
 0.000000e+00 0.000000e+00 0.000000e+00 0.000000e+00 0.000000e+00
<ENDHMM>
~h "m"
<BEGINHMM>
<NUMSTATES> 5
<STATE> 2
<MEAN> 25
 5.837066e+00 2.821291e+00 5.079540e+00 5.806422e+00 -3.059972e-01 -1.317631e+00 -6.808373e-01 -8.678303e+00 -7.401706e+00 -1.725098e+00 1.132703e+00 -3.671255e+00 1.392789e+00 1.146590e+00 1.400544e+00 2.024317e+00 1.066897e+00 -7.962224e-01 -5.790678e-01 -2.516309e+00 -2.003860e+00 6.735269e-01 2.870707e-01 -7.128447e-01 -1.752050e-01
<VARIANCE> 25
 2.824529e+01 1.563191e+01 2.561814e+01 3.135603e+01 2.375696e+01 3.037012e+01 2.572297e+01 5.764398e+01 4.928484e+01 2.598761e+01 3.502718e+01 2.857406e+01 3.883565e+00 2.447129e+00 4.020653e+00 2.848566e+00 3.149983e+00 3.885574e+00 2.422651e+00 4.100543e+00 3.874896e+00 3.835009e+00 3.636081e+00 3.906726e+00 2.737753e+00
<GCONST> 1.025227e+02
<STATE> 3
<MEAN> 25
 7.728172e+00 4.641582e+00 7.401520e+00 8.432706e+00 2.028314e+00 -3.048989e+00 -2.046073e+00 -1.204727e+01 -1.061386e+01 3.544880e-01 -8.134743e-01 -6.611132e+00 4.128245e-02 1.550822e-01 -7.505673e-03 5.085297e-02 4.931850e-02 -1.767319e-01 -8.411201e-02 8.441919e-02 1.575158e-01 -6.374767e-02 -7.109369e-02 -8.481253e-02 -6.759333e-02
<VARIANCE> 25
 9.276337e+00 8.358399e+00 1.551387e+01 9.318605e+00 1.248533e+01 4.144674e+01 2.751181e+01 4.910731e+01 3.346973e+01 2.101377e+01 4.587216e+01 2.825512e+01 4.450165e-01 7.135283e-01 7.710950e-01 8.472881e-01 7.062426e-01 1.117350e+00 1.241546e+00 1.890988e+00 2.029278e+00 1.730527e+00 1.349224e+00 1.677995e+00 4.499272e-01
<GCONST> 8.277030e+01
<STATE> 4
<MEAN> 25
 4.211802e+00 1.572395e+00 8.794496e+00 1.083691e+00 -5.145810e+00 -2.823318e+00 -3.767792e+00 -3.566593e+00 -6.112875e+00 -4.616525e+00 -4.925189e-01 -5.915806e+00 -5.988857e-01 -4.400394e-01 -1.952050e-01 -8.873237e-01 -4.851975e-01 3.934326e-01 4.862538e-01 1.332128e+00 7.300458e-01 -5.380697e-01 -4.408591e-01 2.783875e-01 3.635587e-01
<VARIANCE> 25
 3.877407e+01 5.624342e+01 6.892606e+01 5.780316e+01 5.117034e+01 5.825906e+01 5.060127e+01 1.116688e+02 4.483531e+01 2.648916e+01 3.624902e+01 2.833420e+01 1.977080e+00 2.265416e+00 3.710166e+00 3.819858e+00 5.317714e+00 3.798795e+00 3.408391e+00 6.271743e+00 3.601758e+00 3.149955e+00 2.056174e+00 2.493160e+00 2.718862e+00
<GCONST> 1.078603e+02
<TRANSP> 5
 0.000000e+00 1.000000e+00 0.000000e+00 0.000000e+00 0.000000e+00
 0.000000e+00 5.331467e-01 4.668533e-01 0.000000e+00 0.000000e+00
 0.000000e+00 0.000000e+00 8.324732e-01 1.675268e-01 0.000000e+00
 0.000000e+00 0.000000e+00 0.000000e+00 7.995583e-01 2.004416e-01
 0.000000e+00 0.000000e+00 0.000000e+00 0.000000e+00 0.000000e+00
<ENDHMM>
~h "n"
<BEGINHMM>
<NUMSTATES> 5
<STATE> 2
<MEAN> 25
 6.722515e+00 2.677397e+00 6.497794e+00 4.678711e+00 -2.729435e+00 -3.871866e+00 -1.868844e+00 -8.593032e+00 -9.506645e+00 -4.930897e-01 -5.782082e+00 -5.538827e+00 -1.958359e-01 2.619990e-01 4.902070e-02 2.066320e-01 1.770688e-01 1.408476e-01 -9.095105e-02 -1.561683e-01 2.080508e-01 -1.622341e-01 -1.609819e-01 1.603860e-01 -4.679786e-01
<VARIANCE> 25
 8.245728e+00 1.801958e+01 2.075902e+01 2.801398e+01 2.734279e+01 1.693931e+01 2.114482e+01 6.203400e+01 3.838221e+01 2.427831e+01 1.974474e+01 1.307034e+01 3.819406e-01 8.082865e-01 1.014196e+00 1.667331e+00 1.593055e+00 1.167324e+00 1.196684e+00 4.457009e+00 1.983122e+00 2.026943e+00 1.164042e+00 7.637256e-01 7.190875e-01
<GCONST> 8.560951e+01
<STATE> 3
<MEAN> 25
 1.327589e+00 3.062426e+00 1.563982e+00 4.298872e+00 3.225294e+00 1.366116e-01 -8.162362e-01 -8.484260e-01 -5.646986e-01 -4.089988e+00 -4.700831e+00 -1.800775e+00 -9.910712e-01 -5.953385e-01 -8.770372e-01 -3.925929e-01 4.261363e-01 6.288596e-01 8.191721e-01 1.006789e+00 1.121188e+00 7.122084e-01 9.601278e-01 8.673860e-01 -5.645335e-01
<VARIANCE> 25
 1.608302e+01 2.189546e+01 2.657534e+01 2.697801e+01 2.198917e+01 2.879031e+01 2.804464e+01 4.207841e+01 3.133728e+01 3.106493e+01 3.383017e+01 2.362214e+01 1.336809e+00 1.622545e+00 1.556622e+00 2.328718e+00 2.144007e+00 2.593547e+00 2.420922e+00 3.924033e+00 3.051276e+00 3.072094e+00 3.018073e+00 2.306194e+00 1.305906e+00
<GCONST> 9.594846e+01
<STATE> 4
<MEAN> 25
 -3.897883e+00 -2.129364e+00 -3.395825e+00 1.453532e+00 3.643161e+00 2.126323e+00 3.674993e+00 3.079978e+00 5.033061e+00 2.098584e+00 2.343426e+00 4.129462e+00 -4.305228e-02 -3.100953e-02 -3.984493e-02 -4.482976e-02 1.901006e-02 1.990109e-02 5.776184e-02 2.284102e-02 4.509923e-02 7.186884e-02 1.129417e-01 4.915935e-02 -3.424624e-02
<VARIANCE> 25
 6.227998e+00 9.976434e+00 1.045068e+01 1.321449e+01 1.053161e+01 1.256397e+01 1.448912e+01 1.536808e+01 1.985367e+01 1.517310e+01 2.011749e+01 1.684772e+01 2.555012e-01 3.503165e-01 4.735724e-01 6.485989e-01 8.127801e-01 1.054031e+00 1.306791e+00 1.507375e+00 1.414113e+00 1.532131e+00 1.369742e+00 1.297229e+00 1.231423e-01
<GCONST> 7.301185e+01
<TRANSP> 5
 0.000000e+00 1.000000e+00 0.000000e+00 0.000000e+00 0.000000e+00
 0.000000e+00 8.600121e-01 1.399879e-01 0.000000e+00 0.000000e+00
 0.000000e+00 0.000000e+00 7.476178e-01 2.523822e-01 0.000000e+00
 0.000000e+00 0.000000e+00 0.000000e+00 9.158002e-01 8.419988e-02
 0.000000e+00 0.000000e+00 0.000000e+00 0.000000e+00 0.000000e+00
<ENDHMM>
~h "p"
<BEGINHMM>
<NUMSTATES> 5
<STATE> 2
<MEAN> 25
 -1.780200e+00 2.129249e+00 -2.630425e+00 -1.003201e+00 4.920957e+00 2.327543e-01 7.677653e-01 7.569812e-01 3.142557e+00 1.120076e+00 1.400811e+00 1.039776e+00 5.529044e-01 8.513048e-02 -5.801861e-01 -5.093692e-01 -7.002146e-02 2.302668e-02 -3.736555e-01 -3.153195e-01 -3.164911e-01 1.547072e-01 2.360688e-01 -1.662215e-01 1.151936e+00
<VARIANCE> 25
 3.151179e+01 1.870194e+01 3.916552e+01 4.062834e+01 2.789104e+01 3.491673e+01 2.730022e+01 2.900903e+01 3.123287e+01 2.070205e+01 1.741129e+01 1.972086e+01 5.938361e+00 2.658356e+00 3.488220e+00 4.990590e+00 3.121104e+00 4.897240e+00 3.351470e+00 3.699296e+00 4.558849e+00 2.876518e+00 2.752940e+00 3.317318e+00 6.415842e+00
<GCONST> 1.030692e+02
<STATE> 3
<MEAN> 25
 4.794618e+00 -1.716582e-01 -4.265422e+00 -2.043792e+00 1.776536e+00 2.113190e+00 -4.302421e+00 1.731738e-01 8.556988e-01 4.764811e-01 -1.891916e+00 -3.640088e+00 -2.634025e-01 -1.220605e+00 8.915035e-01 8.473217e-01 -5.946119e-01 -3.288133e-01 1.724774e-01 1.266846e+00 5.619208e-01 -3.559044e-01 -5.040559e-01 1.692187e-01 6.090350e-01
<VARIANCE> 25
 2.360523e+01 3.280232e+01 5.214114e+01 3.843956e+01 2.555624e+01 2.966096e+01 5.957344e+01 5.742573e+01 2.649217e+01 4.415275e+01 6.068837e+01 3.321627e+01 4.742921e+00 3.587476e+00 5.761898e+00 3.901476e+00 5.872950e+00 2.945603e+00 8.163266e+00 6.970440e+00 6.083341e+00 5.754772e+00 6.223165e+00 5.079423e+00 4.690254e+00
<GCONST> 1.110369e+02
<STATE> 4
<MEAN> 25
 8.049943e-01 -7.369399e-01 -1.347790e+00 -4.436564e-01 1.205171e+00 1.342452e+00 1.057766e-01 -6.741277e-01 1.774513e+00 6.970913e-01 -5.078726e-01 -2.230658e+00 -1.529634e-01 -1.159111e-01 3.510649e-01 1.253459e-01 -3.782340e-01 5.953817e-03 2.464508e-01 -7.610624e-02 -1.328736e-01 9.828501e-02 8.470159e-02 1.886102e-01 5.070164e-01
<VARIANCE> 25
 2.061362e+01 1.669262e+01 2.418711e+01 2.064573e+01 2.878927e+01 1.846837e+01 3.329796e+01 3.456968e+01 3.081482e+01 2.822663e+01 2.136656e+01 2.714976e+01 2.735050e+00 1.704292e+00 3.616114e+00 1.518206e+00 2.974736e+00 1.789826e+00 4.349636e+00 3.195629e+00 3.490602e+00 2.714788e+00 1.557291e+00 2.234157e+00 2.974925e+00
<GCONST> 9.658935e+01
<TRANSP> 5
 0.000000e+00 1.000000e+00 0.000000e+00 0.000000e+00 0.000000e+00
 0.000000e+00 6.835046e-01 3.164954e-01 0.000000e+00 0.000000e+00
 0.000000e+00 0.000000e+00 5.067482e-01 4.932518e-01 0.000000e+00
 0.000000e+00 0.000000e+00 0.000000e+00 7.676946e-01 2.323054e-01
 0.000000e+00 0.000000e+00 0.000000e+00 0.000000e+00 0.000000e+00
<ENDHMM>
~h "r"
<BEGINHMM>
<NUMSTATES> 5
<STATE> 2
<MEAN> 25
 9.823129e+00 -1.867335e+00 -6.540952e+00 3.717653e+00 2.187454e+00 -4.774871e+00 -1.014485e+01 -1.674080e+00 1.927492e+00 -4.579621e+00 -4.419129e-01 1.037637e+00 1.181901e+00 -2.687734e-01 -9.986342e-01 6.017022e-01 4.652295e-02 -8.133560e-01 -1.661703e+00 6.151720e-01 4.976883e-01 -8.575237e-01 -2.592641e-01 -1.526714e-01 8.473623e-01
<VARIANCE> 25
 5.645876e+01 2.741014e+01 6.171644e+01 2.611075e+01 3.200545e+01 8.419835e+01 7.313177e+01 6.813016e+01 4.762572e+01 5.453088e+01 2.664640e+01 3.031268e+01 3.802701e+00 2.936131e+00 4.088610e+00 2.154753e+00 3.453354e+00 4.587714e+00 4.672463e+00 7.201578e+00 4.578017e+00 4.873343e+00 2.583901e+00 2.752430e+00 3.095133e+00
<GCONST> 1.087094e+02
<STATE> 3
<MEAN> 25
 9.867168e+00 -2.851364e+00 -3.927935e+00 7.178082e+00 -3.369750e+00 -7.741773e+00 -1.093481e+01 4.767165e+00 -5.296017e-01 -8.643220e+00 1.077766e+00 2.467086e+00 -1.067661e+00 1.831717e-01 2.195113e+00 -8.339061e-02 -1.179829e+00 -1.101169e-03 2.298316e+00 4.324749e-01 -1.799345e+00 3.013383e-01 1.028943e-01 -2.863081e-01 -5.097713e-01
<VARIANCE> 25
 3.463935e+01 3.931426e+01 5.612393e+01 5.404469e+01 4.827842e+01 7.301839e+01 6.705006e+01 5.499504e+01 5.801899e+01 5.797839e+01 3.915633e+01 3.499340e+01 1.362243e+00 3.029754e+00 3.368939e+00 3.202416e+00 4.415071e+00 3.962802e+00 3.568944e+00 6.230579e+00 4.307483e+00 5.327933e+00 3.647613e+00 2.789852e+00 2.910419e+00
<GCONST> 1.091863e+02
<STATE> 4
<MEAN> 25
 -2.748986e-01 1.001953e+00 3.213236e+00 3.269785e+00 -9.995782e-01 -8.800550e-01 1.752349e+00 -1.528761e+00 -2.722616e+00 -1.453101e+00 1.098443e+00 -1.017183e-01 -8.387744e-01 4.813012e-02 4.480310e-01 -1.214107e-01 -2.536613e-01 3.516806e-01 5.157365e-01 -3.576449e-01 9.946413e-02 5.088484e-01 -1.302121e-01 -8.439197e-02 -6.573662e-01
<VARIANCE> 25
 9.768843e+01 4.132586e+01 1.008859e+02 3.722123e+01 7.040046e+01 4.585596e+01 5.127888e+01 6.065997e+01 3.592939e+01 5.080196e+01 3.764109e+01 3.831805e+01 5.535216e+00 2.779177e+00 3.763419e+00 4.588469e+00 5.102283e+00 5.237870e+00 4.459911e+00 5.157420e+00 4.937613e+00 5.196458e+00 3.921691e+00 3.766916e+00 3.335044e+00
<GCONST> 1.125323e+02
<TRANSP> 5
 0.000000e+00 1.000000e+00 0.000000e+00 0.000000e+00 0.000000e+00
 0.000000e+00 7.063634e-01 2.936366e-01 0.000000e+00 0.000000e+00
 0.000000e+00 0.000000e+00 5.794193e-01 4.205808e-01 0.000000e+00
 0.000000e+00 0.000000e+00 0.000000e+00 7.067728e-01 2.932272e-01
 0.000000e+00 0.000000e+00 0.000000e+00 0.000000e+00 0.000000e+00
<ENDHMM>
~h "s"
<BEGINHMM>
<NUMSTATES> 5
<STATE> 2
<MEAN> 25
 -7.401941e+00 2.096768e+00 -6.093186e-01 -2.910705e+00 5.367097e+00 -7.178255e+00 3.297455e+00 -8.657465e-02 -1.951069e-01 2.919599e-01 -2.734290e+00 2.388424e+00 -3.647537e+00 1.153883e+00 -5.357642e-01 -9.868746e-01 1.718184e+00 -1.270168e+00 1.626610e+00 5.160893e-01 2.805668e-01 -3.905312e-01 4.022492e-01 8.662463e-01 1.669327e+00
<VARIANCE> 25
 8.069934e+01 3.591159e+01 2.795992e+01 2.305093e+01 2.899001e+01 5.125500e+01 3.610892e+01 3.646016e+01 2.764214e+01 2.774908e+01 2.907091e+01 1.784344e+01 4.316231e+00 4.645619e+00 3.588007e+00 2.211574e+00 2.920439e+00 4.199829e+00 3.991505e+00 2.825915e+00 3.753067e+00 2.738250e+00 2.519103e+00 1.817233e+00 2.454707e+00
<GCONST> 1.025161e+02
<STATE> 3
<MEAN> 25
 -2.072212e+01 8.311285e+00 -4.267663e+00 -4.832784e+00 1.090109e+01 -7.768843e+00 7.882538e+00 1.965075e+00 1.633192e+00 -1.217110e+00 -5.668362e-02 5.921074e+00 -3.626580e-01 1.343058e-01 -3.033402e-01 -1.151702e-01 8.985443e-02 3.051938e-01 -7.876948e-02 2.382487e-01 2.391371e-01 1.782044e-02 1.216892e-01 8.256049e-02 2.059998e-01
<VARIANCE> 25
 4.403686e+01 1.650609e+01 3.751960e+01 1.740780e+01 2.393623e+01 2.121596e+01 1.559537e+01 3.694490e+01 2.277126e+01 1.576202e+01 1.563161e+01 1.239617e+01 9.796960e-01 1.105336e+00 1.126159e+00 9.452271e-01 1.622251e+00 1.509346e+00 1.066941e+00 1.751329e+00 1.658110e+00 1.641513e+00 1.337070e+00 1.020175e+00 5.788584e-01
<GCONST> 8.518163e+01
<STATE> 4
<MEAN> 25
 -1.408381e+01 5.093385e+00 -5.862282e+00 -3.892745e+00 7.366909e+00 -5.922855e+00 5.899963e+00 7.316698e-01 3.796613e+00 2.382468e-01 -4.836399e-01 3.858116e+00 1.900586e+00 -7.591379e-01 3.612851e-01 2.998929e-01 -9.472730e-01 3.329231e-01 -7.172147e-01 -3.885795e-01 -1.699334e-03 2.002657e-01 -1.142562e-01 -6.152627e-01 -9.679309e-01
<VARIANCE> 25
 6.779232e+01 1.704628e+01 3.283772e+01 2.989801e+01 2.533633e+01 3.818451e+01 2.423526e+01 2.839717e+01 2.242425e+01 2.460807e+01 1.560235e+01 1.650848e+01 4.146020e+00 1.140437e+00 2.268061e+00 1.774797e+00 1.472161e+00 3.081007e+00 2.478117e+00 2.233550e+00 2.087409e+00 2.596981e+00 1.656116e+00 2.220968e+00 3.086418e+00
<GCONST> 9.545091e+01
<TRANSP> 5
 0.000000e+00 1.000000e+00 0.000000e+00 0.000000e+00 0.000000e+00
 0.000000e+00 7.133246e-01 2.866754e-01 0.000000e+00 0.000000e+00
 0.000000e+00 0.000000e+00 8.251584e-01 1.748416e-01 0.000000e+00
 0.000000e+00 0.000000e+00 0.000000e+00 7.781415e-01 2.218585e-01
 0.000000e+00 0.000000e+00 0.000000e+00 0.000000e+00 0.000000e+00
<ENDHMM>
~h "t"
<BEGINHMM>
<NUMSTATES> 5
<STATE> 2
<MEAN> 25
 -6.141788e+00 -2.235707e+00 1.383127e+00 -3.825967e+00 5.769073e-01 -7.185414e-01 1.178763e+00 -1.746585e+00 1.593757e-02 3.358294e-01 2.687360e-02 2.453939e+00 -1.899961e+00 -5.221324e-01 7.265186e-01 -1.501870e+00 -6.858881e-01 -8.256418e-01 4.891396e-01 2.503972e-01 -3.653919e-01 2.547011e-02 2.935141e-01 6.478382e-01 2.817760e+00
<VARIANCE> 25
 4.264214e+01 2.361259e+01 3.854786e+01 3.773196e+01 2.784573e+01 2.623638e+01 3.182861e+01 2.981627e+01 3.053440e+01 2.137268e+01 2.273037e+01 1.982165e+01 4.220150e+00 2.641334e+00 4.116474e+00 3.543199e+00 1.861552e+00 4.105790e+00 4.457909e+00 4.286778e+00 4.233229e+00 3.186641e+00 3.284234e+00 2.471096e+00 9.518744e+00
<GCONST> 1.032089e+02
<STATE> 3
<MEAN> 25
 -6.678782e+00 -9.053639e-01 5.372371e+00 -1.315786e+00 -9.247042e-01 -4.115525e+00 3.804209e+00 2.127761e+00 -4.649849e-01 3.612314e-01 3.149676e-01 3.816641e+00 1.664707e+00 3.189074e-01 -1.488608e-01 1.322003e+00 3.651219e-01 4.701297e-01 -2.216747e-01 5.578160e-01 6.900521e-01 3.730783e-01 -4.872913e-02 -3.088356e-02 -1.630340e+00
<VARIANCE> 25
 6.796844e+01 2.987358e+01 4.039941e+01 4.269046e+01 3.724770e+01 5.503036e+01 3.943563e+01 4.310648e+01 2.497022e+01 3.705520e+01 2.594227e+01 2.349076e+01 5.137295e+00 3.014682e+00 3.098735e+00 2.533032e+00 3.869008e+00 6.277222e+00 4.366262e+00 2.449304e+00 3.042246e+00 3.187305e+00 2.591405e+00 2.242298e+00 3.580739e+00
<GCONST> 1.049892e+02
<STATE> 4
<MEAN> 25
 -3.476225e+00 -1.208101e+00 -1.758924e+00 1.222587e+00 2.865633e+00 2.725642e+00 2.997292e+00 1.756210e+00 3.910697e+00 2.207244e+00 1.687034e+00 3.021334e+00 1.401970e-01 -8.057251e-03 -1.475947e-01 7.265218e-02 -6.690130e-02 1.067031e-01 -1.021778e-01 -4.020017e-02 2.829750e-02 -1.065912e-01 2.148560e-02 -6.531060e-02 -8.788588e-02
<VARIANCE> 25
 1.161397e+01 8.742541e+00 1.288015e+01 1.206439e+01 1.500483e+01 1.797444e+01 1.953971e+01 1.614330e+01 1.567166e+01 1.701023e+01 1.625658e+01 1.514694e+01 5.778762e-01 4.603843e-01 8.681633e-01 8.513244e-01 1.147891e+00 1.277947e+00 1.572593e+00 1.573508e+00 1.415613e+00 1.385486e+00 1.318953e+00 1.234921e+00 1.868854e-01
<GCONST> 7.720351e+01
<TRANSP> 5
 0.000000e+00 1.000000e+00 0.000000e+00 0.000000e+00 0.000000e+00
 0.000000e+00 6.627495e-01 3.372505e-01 0.000000e+00 0.000000e+00
 0.000000e+00 0.000000e+00 7.321151e-01 2.678849e-01 0.000000e+00
 0.000000e+00 0.000000e+00 0.000000e+00 8.917331e-01 1.082669e-01
 0.000000e+00 0.000000e+00 0.000000e+00 0.000000e+00 0.000000e+00
<ENDHMM>
~h "u"
<BEGINHMM>
<NUMSTATES> 5
<STATE> 2
<MEAN> 25
 -5.035561e-01 3.610075e+00 1.669725e+00 -6.022601e-01 7.901150e-01 -1.482611e+00 4.803167e+00 1.135317e+00 -8.997069e-01 -2.285825e-01 -5.776343e+00 -4.091339e+00 -2.952805e-01 -1.756931e-01 -4.729854e-02 -1.402500e-01 3.088371e-01 -4.378664e-01 -2.689054e-03 2.451477e-01 -1.164347e-01 1.172002e-01 -7.278851e-02 8.749794e-02 -3.515488e-02
<VARIANCE> 25
 5.711847e+01 8.739950e+01 2.682973e+01 3.703911e+01 5.681044e+01 9.499311e+01 4.171209e+01 3.597978e+01 2.575748e+01 3.038610e+01 4.551205e+01 3.236839e+01 3.036996e+00 8.458153e+00 3.002890e+00 4.917369e+00 4.842211e+00 9.483187e+00 5.166236e+00 4.271252e+00 2.981587e+00 2.392086e+00 5.293695e+00 3.350962e+00 9.980164e+00
<GCONST> 1.112294e+02
<STATE> 3
<MEAN> 25
 1.245553e-01 -5.696268e+00 7.907609e+00 -3.709427e+00 1.464358e+00 -1.226218e-02 -8.531291e-01 4.009678e-01 -1.986848e+00 2.740108e-01 3.344677e+00 -1.839898e+00 1.990565e+00 -1.435856e-01 -2.935551e-01 -6.041670e-01 -6.383428e-02 -1.006385e+00 -1.443334e+00 -1.536283e+00 -7.552942e-01 -1.737977e+00 2.293453e+00 4.181750e-01 2.628584e+00
<VARIANCE> 25
 4.245983e+01 8.565755e+01 7.065961e+01 2.929132e+01 6.062687e+01 8.275451e+01 3.819146e+01 4.220242e+01 2.068679e+01 3.491119e+01 5.039536e+01 1.970575e+01 1.933590e+00 9.851505e+00 6.347372e+00 4.715170e+00 8.237486e+00 7.836299e+00 4.037794e+00 8.785986e+00 3.910399e+00 1.944060e+00 6.070895e+00 2.662796e+00 8.411376e+00
<GCONST> 1.121929e+02
<STATE> 4
<MEAN> 25
 6.990496e+00 -4.836771e-01 1.053587e+00 -3.069240e+00 -1.341319e-01 -5.782344e+00 -2.000632e+00 1.397994e-01 -1.942641e+00 -5.024296e+00 2.822639e+00 -3.420106e+00 7.222314e-02 1.485902e-02 -1.762342e-01 -1.043018e-01 -3.612490e-01 1.504026e-01 5.114184e-02 -1.648673e-02 1.976153e-02 -1.526527e-03 1.371987e-02 -1.155073e-02 -9.980102e-02
<VARIANCE> 25
 3.336971e+01 7.409873e+01 3.798645e+01 2.515022e+01 3.769075e+01 4.827491e+01 3.858936e+01 4.062260e+01 2.092205e+01 2.826357e+01 4.580585e+01 1.905191e+01 1.490419e+00 2.859630e+00 2.681642e+00 2.146249e+00 3.359859e+00 3.487515e+00 2.577399e+00 3.068980e+00 1.294401e+00 1.917651e+00 2.841578e+00 1.663428e+00 1.734435e+00
<GCONST> 9.938184e+01
<TRANSP> 5
 0.000000e+00 1.000000e+00 0.000000e+00 0.000000e+00 0.000000e+00
 0.000000e+00 8.734403e-01 1.265597e-01 0.000000e+00 0.000000e+00
 0.000000e+00 0.000000e+00 5.652385e-01 4.347615e-01 0.000000e+00
 0.000000e+00 0.000000e+00 0.000000e+00 9.024038e-01 9.759619e-02
 0.000000e+00 0.000000e+00 0.000000e+00 0.000000e+00 0.000000e+00
<ENDHMM>
~h "v"
<BEGINHMM>
<NUMSTATES> 5
<STATE> 2
<MEAN> 25
 2.265751e+00 2.025022e+00 -1.681199e+00 3.302469e+00 2.971955e+00 1.702344e+00 -1.149616e+00 -1.622573e+00 -7.385694e-01 -2.317069e+00 -2.700623e+00 -9.701294e-01 -1.394966e+00 -5.311089e-01 -5.542063e-01 -1.958295e-01 2.664382e-01 1.706733e-01 9.628192e-01 7.480655e-01 1.371913e+00 3.422983e-01 -9.261019e-02 7.731647e-01 -8.573068e-01
<VARIANCE> 25
 3.002174e+01 1.449295e+01 2.607473e+01 1.433065e+01 2.320951e+01 2.198867e+01 1.493065e+01 1.468080e+01 2.150715e+01 1.329691e+01 2.040896e+01 1.941813e+01 1.348894e+00 1.583133e+00 1.262962e+00 1.849925e+00 3.957046e+00 3.550868e+00 1.924488e+00 1.251573e+00 2.323250e+00 1.153229e+00 2.004363e+00 1.530060e+00 9.625435e-01
<GCONST> 8.840605e+01
<STATE> 3
<MEAN> 25
 -5.025048e+00 -2.560029e-01 -2.048890e+00 3.932139e+00 1.868083e+00 5.415507e-01 -3.990966e-01 1.317741e+00 3.144294e+00 1.430022e+00 7.678366e-01 1.523014e+00 -2.043031e-01 -3.238801e-01 -1.825766e-02 -8.474582e-02 1.543930e-01 1.459299e-01 1.727596e-01 6.207610e-02 1.091024e-01 3.598540e-01 2.389982e-01 1.646423e-01 -2.859443e-01
<VARIANCE> 25
 1.888984e+01 1.442221e+01 1.612725e+01 1.528405e+01 1.514138e+01 8.793927e+00 1.694745e+01 1.792685e+01 1.065830e+01 1.220758e+01 1.469847e+01 1.741768e+01 2.170536e+00 5.000167e-01 9.248480e-01 5.810879e-01 1.738620e+00 1.358404e+00 1.842252e+00 1.064441e+00 1.654721e+00 1.684266e+00 2.057377e+00 1.788137e+00 9.037730e-01
<GCONST> 8.130330e+01
<STATE> 4
<MEAN> 25
 -2.243605e+00 -3.697130e+00 -3.268024e+00 -3.657910e-01 1.836054e+00 4.185063e-01 1.423281e+00 1.383344e+00 3.152233e+00 2.063828e+00 -1.206059e+00 2.343677e+00 1.618181e-02 4.475042e-02 3.582379e-02 5.205968e-02 1.971396e-02 -1.043892e-02 -2.081798e-02 -1.760668e-02 -4.483866e-02 -2.835991e-02 -4.248731e-02 -2.411006e-02 9.720906e-03
<VARIANCE> 25
 1.117459e+00 7.632634e+00 6.868239e+00 8.252971e+00 9.784212e+00 1.113583e+01 1.371259e+01 1.072729e+01 1.522679e+01 1.503690e+01 1.546095e+01 1.175371e+01 1.937058e-01 2.723406e-01 5.285265e-01 5.995594e-01 8.541895e-01 1.143766e+00 1.319487e+00 1.182098e+00 1.994295e+00 1.689955e+00 1.190681e+00 1.323865e+00 5.898412e-02
<GCONST> 6.761549e+01
<TRANSP> 5
 0.000000e+00 1.000000e+00 0.000000e+00 0.000000e+00 0.000000e+00
 0.000000e+00 6.248074e-01 3.751927e-01 0.000000e+00 0.000000e+00
 0.000000e+00 0.000000e+00 5.429061e-01 4.570939e-01 0.000000e+00
 0.000000e+00 0.000000e+00 0.000000e+00 9.434698e-01 5.653020e-02
 0.000000e+00 0.000000e+00 0.000000e+00 0.000000e+00 0.000000e+00
<ENDHMM>
~h "w"
<BEGINHMM>
<NUMSTATES> 5
<STATE> 2
<MEAN> 25
 1.018553e+01 8.091681e+00 -1.405922e+00 -5.680339e+00 -1.970704e-01 4.463909e+00 -7.153892e-01 -4.809318e+00 -2.205648e+00 -1.985849e+00 1.056143e+00 -2.155101e-01 5.535952e-01 -1.226582e-01 -3.018183e-01 -3.392601e-01 -4.210897e-01 5.047623e-01 -3.894456e-01 -9.424451e-02 -6.667553e-02 4.162264e-01 6.387433e-01 -6.466766e-01 9.251663e-01
<VARIANCE> 25
 1.122731e+01 1.130117e+01 1.741528e+01 4.381605e+01 1.672068e+01 4.407978e+01 4.334071e+01 3.732810e+01 4.004643e+01 4.251631e+01 4.589011e+01 2.216367e+01 2.384534e+00 2.985708e+00 1.260639e+00 3.524605e+00 2.023618e+00 5.203761e+00 3.735066e+00 2.973772e+00 4.503859e+00 6.150625e+00 3.618121e+00 3.277597e+00 1.558523e+00
<GCONST> 1.002380e+02
<STATE> 3
<MEAN> 25
 7.762720e+00 -1.395982e+00 -1.091023e+00 1.305731e+00 -3.897420e+00 3.110296e-01 -3.208462e+00 2.251328e+00 2.990879e+00 8.506535e-01 1.009499e+00 -7.449493e+00 -4.868663e-01 -1.474372e+00 1.475843e+00 1.487590e+00 -1.625180e+00 -3.444422e+00 1.190814e+00 3.838208e+00 7.241839e-02 -1.611374e+00 -1.631143e+00 1.955854e-01 4.731446e-01
<VARIANCE> 25
 7.564540e+00 1.839775e+01 2.892128e+01 2.311462e+01 2.567115e+01 7.132113e+01 7.375002e+01 8.370829e+01 3.610059e+01 5.932238e+01 3.623438e+01 3.353847e+01 8.025860e-01 1.696323e+00 2.048800e+00 4.181747e+00 2.269870e+00 4.143883e+00 3.844752e+00 2.201164e+00 7.941861e+00 3.330497e+00 6.919977e+00 4.809820e+00 6.236342e-01
<GCONST> 1.015420e+02
<STATE> 4
<MEAN> 25
 7.397354e+00 -3.601465e+00 5.724716e-01 4.319200e+00 -1.119211e+01 -6.992479e+00 -1.611896e+00 1.076478e+01 1.221971e-02 -3.805887e+00 3.960030e+00 -1.322609e+00 -1.984578e-01 -2.678107e-03 -9.191728e-02 -3.917589e-01 -2.843612e-01 -1.399079e-01 -1.895816e-01 -5.124764e-01 -8.089349e-01 2.268104e-01 2.580979e-01 3.075624e-01 -4.622079e-01
<VARIANCE> 25
 1.517183e+01 1.512352e+01 2.508025e+01 2.885789e+01 4.476773e+01 1.574182e+01 8.042444e+01 8.235134e+01 3.972419e+01 2.023892e+01 2.603330e+01 2.563807e+01 7.703962e-01 7.870417e-01 1.196986e+00 1.079840e+00 2.387043e+00 1.535445e+00 1.619875e+00 1.982805e+00 2.571124e+00 1.669694e+00 2.895710e+00 2.272594e+00 6.391549e-01
<GCONST> 9.163179e+01
<TRANSP> 5
 0.000000e+00 1.000000e+00 0.000000e+00 0.000000e+00 0.000000e+00
 0.000000e+00 8.795252e-01 1.204747e-01 0.000000e+00 0.000000e+00
 0.000000e+00 0.000000e+00 6.822403e-01 3.177597e-01 0.000000e+00
 0.000000e+00 0.000000e+00 0.000000e+00 8.172306e-01 1.827694e-01
 0.000000e+00 0.000000e+00 0.000000e+00 0.000000e+00 0.000000e+00
<ENDHMM>
~h "y"
<BEGINHMM>
<NUMSTATES> 5
<STATE> 2
<MEAN> 25
 -1.159480e+01 -8.221205e-01 1.107246e+01 -3.312680e+00 -1.905868e+00 1.219187e+00 6.195438e+00 -7.047952e+00 9.772655e-01 2.344575e+00 -1.404446e+00 3.014286e+00 1.000889e+00 9.952216e-01 1.201637e+00 1.094573e+00 -1.488243e+00 -6.842695e-01 -1.174281e-01 -5.247266e-01 -1.472950e+00 -8.875740e-01 -3.335126e-01 -4.489354e-01 4.203190e-01
<VARIANCE> 25
 6.292370e+01 2.917591e+01 4.845811e+01 4.923374e+01 3.469007e+01 2.738545e+01 5.582105e+01 3.000249e+01 2.061462e+01 2.641687e+01 3.871810e+01 1.892424e+01 8.518768e+00 3.165738e+00 2.833012e+00 4.150362e+00 3.182896e+00 3.224857e+00 5.194314e+00 3.456038e+00 5.284167e+00 2.012416e+00 3.283961e+00 2.565600e+00 2.187552e+00
<GCONST> 1.046698e+02
<STATE> 3
<MEAN> 25
 3.447741e+00 6.692689e+00 1.141661e+01 5.147262e+00 -6.321929e+00 -6.262625e+00 -2.224071e+00 -6.810603e+00 -7.900329e+00 -2.817952e+00 1.953554e+00 -1.530155e+00 1.602225e+00 1.234280e-01 4.922110e-01 1.134433e+00 -2.255672e+00 -1.284677e+00 -1.454615e+00 1.984334e+00 -2.968115e+00 -1.411134e+00 1.749587e+00 -9.202647e-01 4.751664e-01
<VARIANCE> 25
 1.674234e+01 1.735086e+01 6.403717e+01 2.122092e+01 7.108911e+01 3.855669e+01 2.848965e+01 5.225628e+01 8.038072e+01 2.105772e+01 1.933203e+01 2.189431e+01 5.358280e+00 3.548826e+00 3.832815e+00 5.175869e+00 4.337240e+00 4.488344e+00 6.610619e+00 5.217441e+00 6.105600e+00 3.735692e+00 4.201342e+00 2.638542e+00 1.239306e+00
<GCONST> 1.057263e+02
<STATE> 4
<MEAN> 25
 3.482045e+00 5.546895e+00 1.424820e+01 7.453762e+00 -9.787648e+00 -7.476336e+00 -3.241916e+00 -2.675107e+00 -1.319871e+01 -3.952085e+00 6.116038e+00 -3.226930e+00 4.591250e-01 -1.944457e-01 -9.681824e-01 1.100682e-01 9.475772e-01 -5.942456e-01 -6.088925e-01 8.752379e-01 7.105142e-01 -4.183442e-01 -3.352482e-01 7.166383e-02 -1.578669e-01
<VARIANCE> 25
 1.014885e+01 2.204119e+01 4.114798e+01 2.903997e+01 4.286073e+01 4.377607e+01 2.659228e+01 4.877279e+01 4.559046e+01 3.524363e+01 2.247018e+01 1.708982e+01 6.831674e-01 6.262243e-01 2.692928e+00 2.818808e+00 4.106955e+00 3.008190e+00 2.711657e+00 2.325498e+00 4.380403e+00 2.557027e+00 2.776661e+00 1.397439e+00 6.727886e-01
<GCONST> 9.538950e+01
<TRANSP> 5
 0.000000e+00 1.000000e+00 0.000000e+00 0.000000e+00 0.000000e+00
 0.000000e+00 7.583082e-01 2.416918e-01 0.000000e+00 0.000000e+00
 0.000000e+00 0.000000e+00 6.399008e-01 3.600991e-01 0.000000e+00
 0.000000e+00 0.000000e+00 0.000000e+00 7.205248e-01 2.794751e-01
 0.000000e+00 0.000000e+00 0.000000e+00 0.000000e+00 0.000000e+00
<ENDHMM>
~h "z"
<BEGINHMM>
<NUMSTATES> 5
<STATE> 2
<MEAN> 25
 -1.202259e+01 1.159128e+01 4.550270e+00 -3.066562e+00 8.749435e+00 -4.892566e+00 1.902086e+00 -1.146045e+00 -2.221760e+00 -2.193217e+00 -1.709338e+00 3.634686e+00 -3.077886e+00 3.433836e-01 -8.278102e-01 -9.608884e-01 1.692432e+00 -1.344260e-01 3.347696e-01 8.202205e-01 9.201193e-01 4.331297e-01 1.012776e-01 1.740200e-01 5.245504e-01
<VARIANCE> 25
 9.020043e+01 2.800271e+01 8.122272e+01 4.185678e+01 7.155338e+01 6.412274e+01 2.431347e+01 2.025903e+01 4.735667e+01 1.317487e+01 1.893786e+01 1.335480e+01 3.205214e+00 1.878944e+00 3.472796e+00 3.169622e+00 5.703778e+00 4.814190e+00 1.624310e+00 2.346794e+00 1.595342e+00 1.457307e+00 1.540053e+00 1.792861e+00 6.337661e-01
<GCONST> 9.876074e+01
<STATE> 3
<MEAN> 25
 -2.159216e+01 7.917037e+00 -2.338174e+00 -7.818863e+00 1.098404e+01 -8.437677e+00 5.110762e+00 3.658337e+00 1.289224e+00 8.127929e-01 -1.809638e+00 5.253783e+00 8.604985e-01 -9.623516e-01 8.226924e-02 5.558347e-04 -6.242542e-01 -4.768763e-01 2.148361e-01 1.007805e-01 -1.961904e-01 3.164850e-01 -1.958449e-01 -1.228564e-01 -4.624048e-01
<VARIANCE> 25
 2.162218e+01 2.122737e+01 2.864322e+01 3.296386e+01 1.265362e+01 3.438797e+01 3.025635e+01 1.801411e+01 1.851511e+01 2.028967e+01 1.390015e+01 1.226110e+01 2.524015e+00 7.797539e-01 1.346778e+00 9.811864e-01 1.635529e+00 1.615912e+00 1.742454e+00 1.577345e+00 1.957512e+00 1.463376e+00 1.456676e+00 1.094140e+00 1.042917e+00
<GCONST> 8.686907e+01
<STATE> 4
<MEAN> 25
 -6.070236e+00 -1.627526e+00 -1.080787e+00 -2.071653e+00 1.586108e+00 -5.698456e+00 2.594597e+00 2.937737e-01 -1.267846e+00 1.971154e+00 -1.690883e+00 1.726418e+00 6.972832e-01 -3.517598e-01 -9.800819e-02 3.799093e-01 -4.372599e-01 7.769588e-01 -2.417472e-01 -3.145053e-01 2.210921e-01 9.747632e-02 -6.161459e-02 -2.239862e-01 -6.276422e-01
<VARIANCE> 25
 1.675381e+01 2.427672e+01 3.431263e+01 1.908488e+01 3.418095e+01 4.318429e+01 3.525093e+01 2.692446e+01 5.235509e+01 2.423938e+01 1.793994e+01 1.374395e+01 3.355098e+00 1.404802e+00 2.330417e+00 1.689109e+00 3.102758e+00 3.084005e+00 3.060596e+00 3.082108e+00 3.044098e+00 2.546189e+00 1.293569e+00 1.542744e+00 2.372052e+00
<GCONST> 9.627171e+01
<TRANSP> 5
 0.000000e+00 1.000000e+00 0.000000e+00 0.000000e+00 0.000000e+00
 0.000000e+00 8.264304e-01 1.735696e-01 0.000000e+00 0.000000e+00
 0.000000e+00 0.000000e+00 8.733509e-01 1.266492e-01 0.000000e+00
 0.000000e+00 0.000000e+00 0.000000e+00 9.015222e-01 9.847780e-02
 0.000000e+00 0.000000e+00 0.000000e+00 0.000000e+00 0.000000e+00
<ENDHMM>
~h "aa"
<BEGINHMM>
<NUMSTATES> 5
<STATE> 2
<MEAN> 25
 3.653309e+00 5.665261e-01 3.273649e-01 -2.087353e+00 1.947541e+00 5.195953e+00 -2.103555e-01 -6.562033e-01 1.574644e+00 6.094822e-01 -3.172112e-01 -4.278957e+00 1.371765e+00 -5.268267e-01 -6.419369e-01 -1.173409e+00 -7.857600e-01 2.072500e+00 -2.911466e-01 -3.366356e-01 -1.415605e-01 -1.365091e-01 6.789708e-01 -1.134379e+00 1.122661e+00
<VARIANCE> 25
 3.881398e+01 3.338137e+01 3.030523e+01 5.093686e+01 3.580944e+01 5.345760e+01 4.071251e+01 3.239009e+01 2.663129e+01 2.566584e+01 2.637020e+01 5.479995e+01 6.780653e+00 2.856986e+00 2.434127e+00 4.714438e+00 4.103054e+00 5.465886e+00 3.447154e+00 3.522988e+00 4.240490e+00 3.160198e+00 2.538668e+00 3.855407e+00 1.075543e+00
<GCONST> 1.049607e+02
<STATE> 3
<MEAN> 25
 8.976403e+00 -4.947248e+00 -6.542412e+00 -1.052824e+01 -2.391955e-02 1.654172e+01 -5.293977e-01 -3.056706e+00 1.024203e+00 -6.825384e-01 1.508443e+00 -1.086594e+01 2.819342e-02 1.764411e-01 -1.889777e-01 1.544589e-01 3.074242e-02 -1.921104e-01 8.706689e-03 3.283364e-02 -3.583088e-01 9.415654e-02 -2.674021e-01 1.766852e-01 -4.260834e-01
<VARIANCE> 25
 9.011822e+00 2.332924e+01 1.197833e+01 2.436122e+01 1.439360e+01 4.669294e+01 4.088624e+01 3.592544e+01 4.991095e+01 5.083732e+01 3.182098e+01 3.694057e+01 2.505219e-01 1.189227e+00 6.486977e-01 1.164460e+00 1.019976e+00 2.668780e+00 1.705284e+00 2.282120e+00 1.497604e+00 1.510800e+00 1.524436e+00 1.828814e+00 9.745378e-01
<GCONST> 8.836699e+01
<STATE> 4
<MEAN> 25
 8.292145e-01 -3.014785e+00 -4.110149e+00 -2.932513e+00 7.428144e-01 2.479858e+00 -1.423619e+00 2.063866e-01 1.527039e+00 1.464117e+00 -1.869063e+00 -1.008304e+00 -1.053932e-01 1.041522e-01 1.922606e-01 2.284918e-01 1.568258e-02 -2.475389e-01 8.373000e-02 1.571155e-01 1.340118e-01 2.188197e-01 5.463876e-02 2.791599e-01 -2.629171e-01
<VARIANCE> 25
 1.518909e+01 7.574486e+00 1.059072e+01 1.620681e+01 1.226011e+01 2.959623e+01 1.470153e+01 2.225402e+01 2.339667e+01 1.693617e+01 2.092471e+01 2.037848e+01 4.076812e-01 7.262337e-01 1.683102e+00 1.146113e+00 9.557463e-01 1.555931e+00 1.369220e+00 2.001185e+00 2.199121e+00 1.677052e+00 2.476751e+00 1.350820e+00 9.596014e-01
<GCONST> 8.287579e+01
<TRANSP> 5
 0.000000e+00 1.000000e+00 0.000000e+00 0.000000e+00 0.000000e+00
 0.000000e+00 7.850013e-01 2.149987e-01 0.000000e+00 0.000000e+00
 0.000000e+00 0.000000e+00 8.600159e-01 1.399841e-01 0.000000e+00
 0.000000e+00 0.000000e+00 0.000000e+00 8.486730e-01 1.513269e-01
 0.000000e+00 0.000000e+00 0.000000e+00 0.000000e+00 0.000000e+00
<ENDHMM>
~h "ae"
<BEGINHMM>
<NUMSTATES> 5
<STATE> 2
<MEAN> 25
 1.298208e+00 -2.595333e+00 4.007398e-01 8.975402e-01 -1.712261e+00 -2.199458e+00 9.343348e-01 2.361051e+00 -5.555952e-01 -2.575480e+00 -1.793639e+00 -2.478175e+00 1.211012e+00 -1.359597e+00 1.722262e-01 -8.042420e-01 -8.572575e-01 -3.269534e-01 -1.121708e-02 1.227623e+00 -8.589488e-01 -8.652590e-01 -1.133599e+00 -1.501464e+00 2.649195e+00
<VARIANCE> 25
 2.795407e+01 4.759609e+01 3.706610e+01 2.537144e+01 4.341152e+01 3.907719e+01 3.195184e+01 3.991183e+01 3.609722e+01 2.430402e+01 4.158114e+01 3.685416e+01 2.467272e+00 3.261651e+00 3.075541e+00 1.713119e+00 4.838234e+00 3.389466e+00 2.780006e+00 2.509582e+00 4.870112e+00 3.592669e+00 5.124740e+00 5.102055e+00 6.407759e+00
<GCONST> 1.051554e+02
<STATE> 3
<MEAN> 25
 6.148301e+00 -8.395411e+00 -2.201809e+00 -2.340437e+00 -2.599373e+00 -7.292446e-01 2.283502e+00 4.817973e+00 -1.624733e+00 -6.765297e+00 -6.246129e+00 -8.512253e+00 2.777560e-01 1.008711e-03 -3.820187e-01 1.395472e-01 2.991660e-01 1.994958e-01 -1.671496e-01 -2.064167e-01 3.540594e-01 -8.953432e-02 -1.387215e-01 -2.797488e-01 3.925530e-02
<VARIANCE> 25
 1.043406e+01 2.923491e+01 3.440984e+01 1.441365e+01 2.536721e+01 2.512096e+01 2.692215e+01 3.084507e+01 3.080820e+01 2.392826e+01 3.861429e+01 4.246298e+01 3.514452e-01 7.988898e-01 7.779564e-01 1.120750e+00 1.422688e+00 1.412693e+00 1.320937e+00 1.756931e+00 1.289325e+00 1.656250e+00 1.361901e+00 1.846477e+00 7.656023e-01
<GCONST> 8.660445e+01
<STATE> 4
<MEAN> 25
 7.919676e+00 -5.524312e+00 -1.921570e+00 4.525970e-01 -2.596643e+00 -4.113341e+00 9.655674e-01 4.211030e+00 4.997577e-01 -4.942136e+00 -4.838623e+00 -7.339868e+00 -3.734504e-01 1.575423e+00 7.818154e-01 9.329377e-01 2.870280e-01 -1.002549e-01 3.245724e-02 -1.587658e+00 -3.562226e-01 1.464854e+00 5.892158e-01 9.025624e-01 -2.078663e+00
<VARIANCE> 25
 1.265944e+01 2.519969e+01 4.487022e+01 1.646596e+01 3.354649e+01 4.145268e+01 4.210796e+01 4.503870e+01 5.842487e+01 4.619332e+01 3.162269e+01 4.539339e+01 2.056243e+00 2.134823e+00 2.276642e+00 2.918766e+00 3.243149e+00 3.424554e+00 2.208897e+00 5.794803e+00 4.307877e+00 3.419394e+00 2.253919e+00 3.471193e+00 2.613624e+00
<GCONST> 1.023102e+02
<TRANSP> 5
 0.000000e+00 1.000000e+00 0.000000e+00 0.000000e+00 0.000000e+00
 0.000000e+00 8.033165e-01 1.966835e-01 0.000000e+00 0.000000e+00
 0.000000e+00 0.000000e+00 8.740405e-01 1.259595e-01 0.000000e+00
 0.000000e+00 0.000000e+00 0.000000e+00 7.261493e-01 2.738507e-01
 0.000000e+00 0.000000e+00 0.000000e+00 0.000000e+00 0.000000e+00
<ENDHMM>
~h "ah"
<BEGINHMM>
<NUMSTATES> 5
<STATE> 2
<MEAN> 25
 2.884158e+00 -3.109806e+00 1.470754e+00 -4.612813e-01 -3.299697e+00 -3.318515e+00 -1.020568e+00 3.985851e-01 -9.751387e-01 -1.339033e+00 -2.679688e+00 -3.037882e+00 1.715665e+00 -3.042302e-01 -4.817879e-01 -8.066821e-01 -3.728662e-01 -1.123955e-01 -7.588081e-01 4.409373e-02 -6.418026e-01 1.402284e-01 -4.997910e-01 -1.492196e+00 1.320000e+00
<VARIANCE> 25
 4.100072e+01 3.695555e+01 4.744179e+01 4.325866e+01 4.009909e+01 7.039976e+01 5.257127e+01 6.686998e+01 4.397465e+01 2.960470e+01 3.052983e+01 4.337614e+01 3.774956e+00 3.425187e+00 4.099988e+00 4.908294e+00 3.569521e+00 6.105851e+00 4.089800e+00 5.326245e+00 5.526679e+00 3.128477e+00 3.585122e+00 5.020891e+00 5.450582e+00
<GCONST> 1.105281e+02
<STATE> 3
<MEAN> 25
 7.981415e+00 -2.107810e+00 -2.311402e+00 -3.511530e+00 -3.237957e+00 -1.160465e+00 -5.162887e+00 -2.944103e-01 -1.642526e+00 1.136941e+00 -3.303081e+00 -7.968181e+00 3.295540e-01 9.476465e-01 -2.133358e-01 6.696011e-02 5.972623e-01 5.548981e-01 9.833711e-02 -9.844248e-01 -4.945182e-01 3.317772e-01 2.619814e-01 9.416482e-02 -9.011276e-01
<VARIANCE> 25
 2.296122e+01 4.501354e+01 4.081839e+01 5.347876e+01 2.706472e+01 6.473255e+01 4.499649e+01 7.115196e+01 4.505235e+01 3.491935e+01 4.064721e+01 6.478945e+01 2.039937e+00 2.753432e+00 2.944163e+00 5.365691e+00 2.815932e+00 3.650510e+00 2.678807e+00 3.827420e+00 4.263866e+00 3.982819e+00 2.955069e+00 3.779974e+00 3.043825e+00
<GCONST> 1.068548e+02
<STATE> 4
<MEAN> 25
 5.737401e+00 1.397408e-01 -1.933081e+00 8.368681e-01 -2.179822e-01 1.691069e+00 1.926710e-01 -3.376091e-01 5.997670e-01 -7.852041e-03 -2.156393e+00 -5.243327e+00 -1.820049e-01 4.062616e-01 8.531798e-02 1.101153e-01 4.123123e-01 1.402927e-01 4.139518e-01 -2.753978e-01 -2.997181e-01 1.804447e-01 2.761198e-01 4.384868e-01 -6.628413e-01
<VARIANCE> 25
 3.487606e+01 2.051008e+01 4.223952e+01 5.727856e+01 2.176126e+01 3.689260e+01 3.313835e+01 6.880725e+01 5.677221e+01 3.153216e+01 4.156332e+01 4.877189e+01 2.288417e+00 1.926336e+00 2.150431e+00 2.568929e+00 1.851649e+00 2.950118e+00 1.884115e+00 3.485567e+00 2.887941e+00 2.703771e+00 2.653795e+00 3.140903e+00 1.676796e+00
<GCONST> 1.013007e+02
<TRANSP> 5
 0.000000e+00 1.000000e+00 0.000000e+00 0.000000e+00 0.000000e+00
 0.000000e+00 5.780059e-01 4.219941e-01 0.000000e+00 0.000000e+00
 0.000000e+00 0.000000e+00 5.939797e-01 4.060203e-01 0.000000e+00
 0.000000e+00 0.000000e+00 0.000000e+00 6.054852e-01 3.945148e-01
 0.000000e+00 0.000000e+00 0.000000e+00 0.000000e+00 0.000000e+00
<ENDHMM>
~h "ao"
<BEGINHMM>
<NUMSTATES> 5
<STATE> 2
<MEAN> 25
 -5.686931e+00 -2.238710e+00 -1.365820e-01 -1.314580e+00 -2.551087e+00 -5.265662e-01 2.851660e+00 8.119878e-01 1.094362e+00 4.072004e-01 8.042154e-01 1.988055e+00 2.566842e+00 1.034814e+00 -2.891759e-01 -1.752593e+00 -1.279636e+00 1.282488e+00 -6.943945e-01 -3.187687e-01 -7.948381e-01 -8.918367e-01 1.673504e-01 -4.720747e-01 1.156324e+00
<VARIANCE> 25
 8.912084e+01 4.827368e+01 1.226005e+01 2.568051e+01 3.301115e+01 3.079260e+01 4.319495e+01 2.664315e+01 2.811307e+01 2.367460e+01 2.154124e+01 2.246034e+01 1.552181e+01 3.732203e+00 1.634794e+00 7.851564e+00 6.415260e+00 7.768060e+00 4.690863e+00 3.299025e+00 4.977831e+00 3.547921e+00 3.475284e+00 3.619217e+00 8.221833e+00
<GCONST> 1.074901e+02
<STATE> 3
<MEAN> 25
 1.009208e+01 5.241407e+00 -4.595992e+00 -2.320177e+01 -5.525167e+00 1.603539e+01 -7.299963e-01 -1.495232e+00 -1.887589e+00 -7.344828e+00 -4.477262e-01 -2.884945e+00 8.573820e-01 6.350912e-01 -6.373885e-02 -1.079267e+00 -9.828516e-01 2.904920e-01 9.304133e-02 1.327953e-01 -5.690238e-02 -1.273567e-01 -1.323206e-01 -3.983322e-02 5.967387e-01
<VARIANCE> 25
 1.157266e+01 2.866272e+01 1.578215e+01 4.314415e+01 4.130340e+01 3.571807e+01 2.280362e+01 1.437529e+01 1.814013e+01 2.278764e+01 1.077213e+01 1.186184e+01 1.628802e+00 7.099439e-01 7.573606e-01 5.241832e+00 1.842087e+00 4.772046e+00 1.164080e+00 2.167462e+00 1.754819e+00 2.188241e+00 1.244554e+00 1.646590e+00 2.735966e+00
<GCONST> 8.993089e+01
<STATE> 4
<MEAN> 25
 1.385759e+01 6.493156e+00 -6.571738e+00 -6.282949e+00 -6.218652e+00 5.374063e+00 -5.342247e+00 1.694811e+00 -5.559754e+00 -5.351009e+00 3.793207e+00 2.372814e+00 7.877663e-02 -4.990693e-01 -3.403563e-01 1.038874e+00 8.229032e-01 -4.401384e-01 -7.797428e-01 -1.097694e-03 2.998475e-01 -1.943436e-02 1.519085e-02 2.593241e-01 3.133597e-02
<VARIANCE> 25
 8.615697e+00 2.565574e+01 2.904090e+01 7.550665e+01 4.900530e+01 3.009976e+01 5.472213e+01 2.129524e+01 4.554332e+01 2.366966e+01 5.250600e+01 2.329817e+01 1.383493e-01 4.292410e-01 9.406092e-01 1.040562e+00 1.343667e+00 1.939100e+00 3.992093e+00 2.520014e+00 3.618780e+00 1.916731e+00 2.771122e+00 1.899426e+00 2.151354e-01
<GCONST> 8.996967e+01
<TRANSP> 5
 0.000000e+00 1.000000e+00 0.000000e+00 0.000000e+00 0.000000e+00
 0.000000e+00 7.712753e-01 2.287247e-01 0.000000e+00 0.000000e+00
 0.000000e+00 0.000000e+00 8.139400e-01 1.860601e-01 0.000000e+00
 0.000000e+00 0.000000e+00 0.000000e+00 9.025055e-01 9.749441e-02
 0.000000e+00 0.000000e+00 0.000000e+00 0.000000e+00 0.000000e+00
<ENDHMM>
~h "aw"
<BEGINHMM>
<NUMSTATES> 5
<STATE> 2
<MEAN> 25
 7.873934e+00 -3.400629e+00 -4.315183e+00 -1.106513e+00 -4.608198e-02 5.743365e+00 -3.828840e+00 3.948474e+00 1.130627e+00 -3.318066e+00 -4.279000e+00 -7.986502e+00 2.096270e-01 6.125896e-01 -4.424982e-01 2.415470e-01 1.854635e-01 3.363222e-01 -5.187148e-01 -8.691785e-01 -2.073476e-01 7.272796e-02 6.510452e-01 3.304286e-02 -4.885051e-01
<VARIANCE> 25
 7.355263e+00 1.842405e+01 2.027080e+01 3.191465e+01 2.564855e+01 5.595749e+01 5.792732e+01 3.064871e+01 1.966524e+01 8.662833e+01 3.211608e+01 1.657009e+01 1.376296e-01 6.617151e-01 6.268167e-01 8.510181e-01 1.502767e+00 1.211945e+00 2.305822e+00 1.575669e+00 1.239727e+00 2.012925e+00 3.425422e+00 1.139713e+00 2.062091e-01
<GCONST> 8.535928e+01
<STATE> 3
<MEAN> 25
 7.858335e+00 5.882838e+00 -3.443726e+00 -6.102849e-01 -8.330300e-01 2.936547e+00 -7.082987e+00 -9.198354e+00 -7.505706e+00 -6.968203e-01 4.653821e+00 -5.408875e+00 -3.412515e-01 6.775250e-02 9.155869e-01 5.664373e-01 3.476371e-01 -9.559283e-01 5.571677e-01 -4.571944e-01 -1.088026e-01 -2.358246e-01 -6.506467e-01 3.939343e-01 -8.142146e-01
<VARIANCE> 25
 1.541036e+01 2.218525e+01 2.692202e+01 2.431913e+01 1.431461e+01 4.958752e+01 4.036624e+01 3.155932e+01 3.927188e+01 4.699268e+01 5.865175e+01 1.823697e+01 1.325465e+00 1.983188e+00 1.601844e+00 3.414110e+00 1.195972e+00 3.241410e+00 3.888269e+00 4.587732e+00 6.002352e+00 4.894283e+00 4.385280e+00 2.300104e+00 2.006567e+00
<GCONST> 9.976576e+01
<STATE> 4
<MEAN> 25
 2.448898e+00 -2.384228e+00 -4.517302e+00 -9.286352e-01 3.204436e+00 7.338667e+00 4.825656e+00 -3.785974e+00 4.530535e+00 -6.324160e-01 6.841030e-02 -5.297632e+00 -3.226306e-01 -5.550379e-01 2.743083e-02 5.032369e-02 4.592249e-02 2.853916e-01 3.995496e-01 3.180028e-01 4.833708e-01 -3.025340e-02 7.335455e-02 4.243198e-01 2.067973e-02
<VARIANCE> 25
 3.517995e+01 4.143258e+01 2.544292e+01 2.227168e+01 1.085231e+01 6.271282e+01 2.637650e+01 3.353596e+01 3.611126e+01 2.086879e+01 2.919095e+01 5.486691e+01 7.311685e-01 2.502352e+00 1.718764e+00 1.852472e+00 1.192178e+00 2.455708e+00 2.478278e+00 3.393260e+00 3.830762e+00 4.315012e+00 1.754342e+00 2.896470e+00 1.009745e+00
<GCONST> 9.628913e+01
<TRANSP> 5
 0.000000e+00 1.000000e+00 0.000000e+00 0.000000e+00 0.000000e+00
 0.000000e+00 9.076733e-01 9.232672e-02 0.000000e+00 0.000000e+00
 0.000000e+00 0.000000e+00 8.298396e-01 1.701604e-01 0.000000e+00
 0.000000e+00 0.000000e+00 0.000000e+00 7.973964e-01 2.026036e-01
 0.000000e+00 0.000000e+00 0.000000e+00 0.000000e+00 0.000000e+00
<ENDHMM>
~h "ay"
<BEGINHMM>
<NUMSTATES> 5
<STATE> 2
<MEAN> 25
 9.515913e+00 -5.876489e+00 8.465325e+00 -1.769901e+00 -1.424951e+01 -7.036432e+00 -4.789308e+00 5.150065e+00 -7.514542e+00 -1.836694e+00 -3.455163e-03 -1.392869e+00 -6.490612e-01 9.864421e-01 1.832390e+00 -4.080408e-01 -4.605180e-01 6.293187e-02 1.540104e-02 -1.507157e+00 -1.507446e+00 2.840965e-01 1.854449e-01 -1.107958e-01 -5.206327e-01
<VARIANCE> 25
 9.676051e+00 2.310973e+01 4.837958e+01 1.576990e+01 3.155161e+01 2.792498e+01 2.594779e+01 6.555227e+01 5.622189e+01 1.967589e+01 2.294895e+01 2.517364e+01 9.066488e-01 1.696970e+00 2.607880e+00 7.750156e-01 2.141098e+00 2.149348e+00 2.011685e+00 4.174180e+00 2.906396e+00 1.960650e+00 2.697457e+00 2.200004e+00 6.359231e-01
<GCONST> 9.343904e+01
<STATE> 3
<MEAN> 25
 -3.134195e-01 4.368279e+00 1.343765e+01 1.710560e-01 -4.338728e+00 -3.896346e+00 -7.003543e-01 -5.037130e+00 -9.818089e+00 -2.971530e+00 -1.969991e+00 -4.277247e+00 -1.331812e+00 9.116129e-01 -1.486103e+00 1.456370e+00 3.047845e+00 1.166888e+00 1.901538e+00 7.202912e-01 1.822477e+00 -9.950498e-02 -2.255383e-01 5.562816e-01 -1.988145e+00
<VARIANCE> 25
 3.454635e+01 2.583263e+01 5.965495e+01 4.637732e+01 6.314304e+01 3.600776e+01 4.194054e+01 3.476796e+01 6.431899e+01 2.342678e+01 2.020504e+01 3.594078e+01 5.963500e+00 3.754675e+00 7.259995e+00 5.126842e+00 2.628409e+00 2.942916e+00 1.661110e+00 3.382022e+00 6.815928e+00 3.346021e+00 1.950919e+00 2.429742e+00 5.011284e+00
<GCONST> 1.063780e+02
<STATE> 4
<MEAN> 25
 -6.996782e+00 5.489917e+00 1.448121e+00 1.443822e+00 8.345274e+00 -3.926540e-01 8.305432e+00 1.555865e+00 2.401768e+00 1.335599e+00 2.468824e-01 1.962288e+00 -8.050961e-01 -5.828570e-01 -1.171406e+00 -6.147727e-01 3.821929e-01 5.025753e-01 3.695062e-01 6.735150e-01 1.265619e+00 6.126822e-01 3.470350e-01 8.709968e-01 -5.529218e-01
<VARIANCE> 25
 1.085991e+02 1.942825e+01 1.078126e+02 7.423840e+01 2.713299e+01 7.726604e+01 2.615278e+01 2.652364e+01 2.293575e+01 1.374270e+01 2.039993e+01 2.314862e+01 3.132418e+00 8.783772e-01 2.753181e+00 2.015507e+00 1.143473e+00 1.555458e+00 9.617032e-01 2.059715e+00 3.288114e+00 2.040723e+00 3.140494e+00 2.107479e+00 6.027176e-01
<GCONST> 9.596196e+01
<TRANSP> 5
 0.000000e+00 1.000000e+00 0.000000e+00 0.000000e+00 0.000000e+00
 0.000000e+00 8.712875e-01 1.287125e-01 0.000000e+00 0.000000e+00
 0.000000e+00 0.000000e+00 7.924826e-01 2.075174e-01 0.000000e+00
 0.000000e+00 0.000000e+00 0.000000e+00 7.273430e-01 2.726570e-01
 0.000000e+00 0.000000e+00 0.000000e+00 0.000000e+00 0.000000e+00
<ENDHMM>
~h "ch"
<BEGINHMM>
<NUMSTATES> 5
<STATE> 2
<MEAN> 25
 -3.641391e+00 -2.088102e+00 -8.120623e-01 3.724950e+00 2.605211e+00 1.307778e+00 3.928465e+00 2.577639e+00 5.234347e+00 2.332089e+00 4.760410e-01 3.410801e+00 -2.740692e-01 -8.035009e-02 1.743979e-01 -3.524846e-01 7.249174e-02 2.934381e-01 -2.067427e-01 -2.314415e-01 1.642068e-01 1.383598e-01 2.943908e-01 -7.882179e-02 -8.133647e-02
<VARIANCE> 25
 5.101462e+00 7.923486e+00 1.156196e+01 8.627101e+00 1.082644e+01 1.229131e+01 1.288675e+01 2.108376e+01 9.237391e+00 1.456214e+01 1.769131e+01 1.323067e+01 8.478383e-01 9.976830e-01 9.285727e-01 1.502992e+00 1.404798e+00 2.087075e+00 1.708236e+00 1.785241e+00 1.292359e+00 2.084447e+00 1.387091e+00 1.559323e+00 1.218615e+00
<GCONST> 7.941858e+01
<STATE> 3
<MEAN> 25
 -9.201961e+00 -3.976481e+00 2.509302e+00 -2.992229e+00 1.906949e+00 6.775178e+00 -9.597767e-01 -5.743124e-01 5.961311e+00 -2.255261e+00 2.912429e+00 4.476632e+00 -3.983043e+00 9.278926e-01 1.975425e+00 -1.927437e+00 -9.525234e-01 1.129598e+00 -9.515318e-01 -2.174201e+00 9.190856e-01 -1.273161e+00 5.117040e-01 -1.876441e-01 2.814135e+00
<VARIANCE> 25
 3.610033e+01 2.461523e+01 1.794522e+01 2.095264e+01 1.944724e+01 1.850752e+01 4.443456e+01 3.380313e+01 1.533362e+01 1.705858e+01 9.163111e+00 3.451992e+00 2.038632e+00 3.051139e+00 9.423405e-01 1.267505e+00 2.436120e+00 3.371559e+00 4.349654e+00 2.020663e+00 1.324264e+00 2.494863e+00 9.820015e-01 1.609906e+00 3.918984e+00
<GCONST> 9.019115e+01
<STATE> 4
<MEAN> 25
 -1.607497e+01 4.208037e-01 8.848909e+00 -2.659016e+00 -5.105568e+00 9.230195e-01 5.633713e+00 -7.196387e+00 4.844742e+00 -2.835565e+00 2.321084e+00 -1.404841e+00 1.475577e+00 -1.952144e-02 -4.189520e-02 7.301669e-01 -7.047896e-01 -1.992061e+00 -2.325499e-01 -6.593648e-02 -9.011555e-01 -3.906279e-01 -5.232670e-01 -4.121014e-01 6.044351e-01
<VARIANCE> 25
 6.246081e+01 1.018595e+01 1.251187e+01 2.243344e+01 1.915365e+01 5.422955e+01 2.882137e+01 2.523930e+01 1.614033e+01 1.079901e+01 1.612523e+01 1.325344e+01 8.870499e+00 1.449717e+00 2.044095e+00 2.469268e+00 2.483979e+00 3.078359e+00 7.275413e+00 3.029895e+00 1.024433e+00 1.800393e+00 1.161328e+00 1.702683e+00 2.538901e+00
<GCONST> 9.362627e+01
<TRANSP> 5
 0.000000e+00 1.000000e+00 0.000000e+00 0.000000e+00 0.000000e+00
 0.000000e+00 9.005896e-01 9.941041e-02 0.000000e+00 0.000000e+00
 0.000000e+00 0.000000e+00 6.427104e-01 3.572896e-01 0.000000e+00
 0.000000e+00 0.000000e+00 0.000000e+00 8.860930e-01 1.139070e-01
 0.000000e+00 0.000000e+00 0.000000e+00 0.000000e+00 0.000000e+00
<ENDHMM>
~h "dh"
<BEGINHMM>
<NUMSTATES> 5
<STATE> 2
<MEAN> 25
 4.749448e-01 4.798430e+00 3.083852e+00 2.947001e+00 -2.867865e+00 -5.543559e+00 -4.391978e+00 -2.155481e+00 -1.270528e+00 -4.317682e-02 5.590762e-01 -3.049867e+00 2.192574e+00 -1.928102e+00 5.286207e-01 -8.920259e-01 -2.445642e+00 -1.461823e+00 -1.689004e+00 6.335143e-01 3.041990e-01 1.369454e-01 5.799865e-01 -8.961926e-01 1.272906e+00
<VARIANCE> 25
 2.262461e+01 2.373205e+01 1.758262e+01 1.734228e+01 3.178028e+01 3.700458e+01 4.869682e+01 1.354541e+01 1.431875e+01 1.462521e+01 1.349275e+01 2.831931e+01 2.072383e+00 1.621721e+00 1.691550e+00 2.696812e+00 2.028466e+00 2.706127e+00 1.743280e+00 1.033720e+00 1.243961e+00 2.316979e+00 2.099195e+00 3.263818e+00 1.165440e+00
<GCONST> 9.096217e+01
<STATE> 3
<MEAN> 25
 7.534477e+00 -2.327175e+00 3.550620e+00 8.801002e+00 -1.003122e+01 -1.234418e+01 -7.713282e+00 3.662561e+00 4.764943e-01 -5.403551e+00 3.325457e+00 3.572451e+00 7.894861e-01 -2.817772e-01 -1.424936e+00 1.333568e+00 2.691251e-01 -1.747313e-01 -1.152809e+00 9.975536e-01 2.188789e-01 -9.970292e-01 8.263791e-02 6.920900e-01 -4.673398e-01
<VARIANCE> 25
 6.211402e+00 2.382238e+01 2.522553e+01 3.860220e+01 2.086957e+01 3.183740e+01 4.578650e+01 1.929277e+01 1.743511e+01 1.918806e+01 1.560150e+01 3.634057e+01 3.289591e-01 5.107498e-01 7.463903e-01 1.487457e+00 1.836625e+00 1.480931e+00 1.017545e+00 8.586134e-01 1.502731e+00 1.482760e+00 4.417319e-01 1.518052e+00 2.537129e-01
<GCONST> 8.147726e+01
<STATE> 4
<MEAN> 25
 9.261088e+00 7.818608e-02 -4.118805e+00 1.252870e+01 -6.348787e+00 -9.708679e+00 -1.360072e+01 6.810314e+00 2.265817e+00 -8.168466e+00 3.720032e+00 5.072716e+00 -9.435778e-02 5.425451e-01 -3.295149e-01 -2.965464e-01 7.399788e-01 3.575073e-01 -3.758819e-03 -2.355335e-01 4.029259e-01 -1.394428e-01 -3.413453e-01 -9.834168e-02 -7.323653e-01
<VARIANCE> 25
 2.275310e+00 1.830998e+01 6.884277e+00 3.344067e+01 1.565022e+01 3.399355e+01 2.810614e+01 1.466836e+01 3.040548e+01 1.633341e+01 1.366954e+01 5.576913e+01 5.080926e-01 6.321549e-01 8.204289e-01 7.145681e-01 8.366128e-01 1.372102e+00 1.273709e+00 7.939783e-01 1.396113e+00 7.869394e-01 7.560577e-01 1.151152e+00 1.587134e-01
<GCONST> 7.685210e+01
<TRANSP> 5
 0.000000e+00 1.000000e+00 0.000000e+00 0.000000e+00 0.000000e+00
 0.000000e+00 7.695151e-01 2.304849e-01 0.000000e+00 0.000000e+00
 0.000000e+00 0.000000e+00 7.808893e-01 2.191107e-01 0.000000e+00
 0.000000e+00 0.000000e+00 0.000000e+00 7.170110e-01 2.829890e-01
 0.000000e+00 0.000000e+00 0.000000e+00 0.000000e+00 0.000000e+00
<ENDHMM>
~h "eh"
<BEGINHMM>
<NUMSTATES> 5
<STATE> 2
<MEAN> 25
 4.538190e+00 -5.380989e+00 2.213194e+00 -1.694681e+00 -7.045065e+00 -5.672877e+00 2.527545e+00 7.052320e+00 -3.108897e+00 -2.450989e+00 -3.307971e+00 -5.205439e+00 5.492123e-01 -5.148873e-01 -2.354601e-01 -3.650441e-01 -1.689972e-01 -6.511641e-01 -2.966190e-01 3.151244e-01 -3.269447e-01 -2.047165e-01 -5.064443e-01 -7.276738e-01 8.032857e-01
<VARIANCE> 25
 2.315322e+01 1.420296e+01 2.410200e+01 1.561624e+01 4.133250e+01 3.920917e+01 5.078152e+01 1.953241e+01 2.170731e+01 2.713076e+01 1.831975e+01 3.272919e+01 1.752423e+00 1.859197e+00 2.166868e+00 2.047620e+00 3.027035e+00 3.106884e+00 3.681489e+00 2.606655e+00 2.462459e+00 2.351877e+00 1.964275e+00 3.307251e+00 2.728541e+00
<GCONST> 9.654292e+01
<STATE> 3
<MEAN> 25
 5.710909e+00 -2.980129e+00 2.183745e+00 -1.369874e+00 -5.778273e+00 -8.377717e+00 -2.593364e+00 4.087080e+00 -3.552814e+00 -1.695568e+00 -5.163319e+00 -5.343771e+00 -4.297764e-01 1.345766e+00 1.945097e-02 6.350174e-01 1.232813e+00 7.694102e-01 -1.115167e-01 -1.315141e+00 1.760979e-01 -1.175871e-02 -5.661314e-01 2.421629e-01 -1.551786e+00
<VARIANCE> 25
 1.850856e+01 3.701971e+01 3.612186e+01 3.886469e+01 4.620576e+01 4.114251e+01 2.686064e+01 2.488557e+01 1.736043e+01 3.344128e+01 3.133583e+01 2.706749e+01 1.179101e+00 1.291874e+00 2.055909e+00 3.094680e+00 3.795409e+00 3.528677e+00 2.027248e+00 2.051040e+00 2.792155e+00 2.157541e+00 2.040552e+00 1.835180e+00 4.154879e+00
<GCONST> 9.771719e+01
<STATE> 4
<MEAN> 25
 -2.572552e-01 1.623002e+00 8.363320e-01 1.330659e+00 1.722797e+00 -1.976675e+00 4.321773e-01 7.698525e-01 -2.218433e-01 -8.966797e-02 -2.726722e+00 -3.093408e+00 2.432819e-01 3.519107e-01 3.203702e-02 -3.369282e-01 -8.901787e-03 4.081875e-01 -2.919182e-01 -6.785947e-01 -2.982814e-01 3.235009e-01 2.804426e-01 -2.334118e-01 3.950464e-01
<VARIANCE> 25
 6.307628e+01 3.115538e+01 5.097521e+01 3.447137e+01 4.350077e+01 4.418682e+01 5.110521e+01 2.442424e+01 3.946511e+01 2.255519e+01 3.269961e+01 4.964783e+01 4.786668e+00 2.231411e+00 2.769815e+00 3.784920e+00 3.399261e+00 4.958008e+00 3.419626e+00 3.376097e+00 2.832270e+00 2.555961e+00 2.578947e+00 3.320196e+00 3.440466e+00
<GCONST> 1.052277e+02
<TRANSP> 5
 0.000000e+00 1.000000e+00 0.000000e+00 0.000000e+00 0.000000e+00
 0.000000e+00 8.006185e-01 1.993814e-01 0.000000e+00 0.000000e+00
 0.000000e+00 0.000000e+00 7.016119e-01 2.983881e-01 0.000000e+00
 0.000000e+00 0.000000e+00 0.000000e+00 7.177522e-01 2.822478e-01
 0.000000e+00 0.000000e+00 0.000000e+00 0.000000e+00 0.000000e+00
<ENDHMM>
~h "er"
<BEGINHMM>
<NUMSTATES> 5
<STATE> 2
<MEAN> 25
 1.154229e+01 -1.490425e-01 -3.647281e+00 8.038650e+00 -7.356186e-01 -9.828777e+00 -1.512821e+01 4.917650e+00 1.421923e+00 -7.670208e+00 1.118574e+00 5.576936e+00 2.252212e-01 -4.681926e-02 -4.481275e-01 2.370819e-01 2.288321e-01 -1.238962e-01 -6.896018e-01 4.293262e-01 3.450781e-01 -1.135881e-01 -3.437064e-01 3.997588e-02 -2.333534e-01
<VARIANCE> 25
 1.288523e+01 1.408816e+01 4.885490e+01 4.493878e+01 4.088675e+01 5.141749e+01 5.276413e+01 4.871526e+01 4.074446e+01 3.058760e+01 3.793913e+01 1.660166e+01 8.095137e-01 5.770265e-01 1.356213e+00 1.030723e+00 1.615253e+00 1.684886e+00 2.976700e+00 1.873042e+00 1.958841e+00 1.395094e+00 1.518641e+00 1.221892e+00 3.150142e-01
<GCONST> 9.068024e+01
<STATE> 3
<MEAN> 25
 5.071889e+00 -1.382591e+00 -1.751855e+00 7.153473e+00 -7.740348e-01 -7.328187e+00 -6.904449e+00 5.071879e+00 1.466798e+00 -6.290645e+00 -3.785568e+00 3.179034e+00 -1.310079e+00 -2.939378e-01 5.185549e-01 -1.002709e+00 -4.733883e-02 9.391778e-01 1.860941e+00 -4.821161e-01 -4.262099e-01 7.432697e-01 -1.225634e-01 -5.208386e-01 -6.255448e-01
<VARIANCE> 25
 3.102454e+01 1.912631e+01 2.429755e+01 3.733757e+01 3.243233e+01 6.438192e+01 7.045395e+01 4.896660e+01 4.165981e+01 2.978137e+01 3.179465e+01 2.770699e+01 1.358710e+00 1.054328e+00 2.099435e+00 2.362895e+00 3.003229e+00 4.194318e+00 3.771863e+00 3.685577e+00 2.788461e+00 2.656966e+00 2.869353e+00 1.877356e+00 8.788763e-01
<GCONST> 9.952156e+01
<STATE> 4
<MEAN> 25
 -1.399539e+00 -3.403635e+00 -4.013250e+00 -2.421181e+00 6.344997e-01 5.749002e-01 -5.091310e-01 7.114622e-01 2.396643e+00 1.786735e+00 -1.745519e+00 8.729091e-01 -8.968269e-02 2.611809e-02 -6.936065e-03 -8.748525e-02 6.565838e-02 1.962551e-01 1.222448e-01 -6.425676e-02 6.180883e-02 1.972076e-01 1.240932e-01 -5.184007e-02 -6.690245e-02
<VARIANCE> 25
 6.392177e+00 4.596910e+00 1.188898e+01 9.338852e+00 1.190447e+01 1.697476e+01 1.447129e+01 1.578088e+01 1.841104e+01 1.834591e+01 1.375145e+01 1.504057e+01 3.691191e-01 4.269589e-01 8.093542e-01 1.029468e+00 1.024497e+00 1.393962e+00 1.636228e+00 1.563645e+00 1.630106e+00 1.598981e+00 1.507885e+00 1.709545e+00 1.527269e-01
<GCONST> 7.522248e+01
<TRANSP> 5
 0.000000e+00 1.000000e+00 0.000000e+00 0.000000e+00 0.000000e+00
 0.000000e+00 9.043562e-01 9.564377e-02 0.000000e+00 0.000000e+00
 0.000000e+00 0.000000e+00 8.545694e-01 1.454306e-01 0.000000e+00
 0.000000e+00 0.000000e+00 0.000000e+00 9.302511e-01 6.974886e-02
 0.000000e+00 0.000000e+00 0.000000e+00 0.000000e+00 0.000000e+00
<ENDHMM>
~h "ey"
<BEGINHMM>
<NUMSTATES> 5
<STATE> 2
<MEAN> 25
 2.850883e+00 1.787041e+00 1.427445e+01 -4.905793e+00 -1.455137e+01 1.617345e+00 -2.681613e+00 -2.982738e+00 -9.858450e+00 2.752675e+00 6.891665e-01 -4.791766e+00 -1.185944e-01 3.138881e-01 4.814040e-01 -1.453120e-01 1.078672e-01 2.862538e-01 -2.512152e-01 -7.269562e-01 -1.813378e-01 7.026194e-02 -6.946313e-02 -2.312386e-01 -2.636532e-01
<VARIANCE> 25
 7.852142e+00 1.599961e+01 1.848688e+01 3.499429e+01 1.229088e+01 5.301303e+01 5.558541e+01 3.671136e+01 2.559538e+01 1.568503e+01 3.659740e+01 2.161284e+01 1.608112e-01 3.344785e-01 4.835095e-01 5.214603e-01 5.021647e-01 8.357162e-01 7.844688e-01 1.020442e+00 1.076477e+00 7.466490e-01 7.568855e-01 6.788282e-01 1.262084e-01
<GCONST> 7.567576e+01
<STATE> 3
<MEAN> 25
 2.914324e+00 3.156147e+00 1.481686e+01 1.334612e-01 -1.232671e+01 -1.032286e+00 3.250806e-01 -4.950540e+00 -1.014164e+01 -2.648851e-01 2.972812e+00 -6.044833e+00 1.535306e-01 -9.079129e-02 -5.475098e-01 6.404408e-01 8.042512e-01 -5.565512e-01 2.417610e-01 4.407194e-01 2.457441e-02 -6.367637e-01 -5.942455e-02 5.985815e-02 -8.483489e-01
<VARIANCE> 25
 6.650372e+00 2.666251e+01 3.596223e+01 5.293317e+01 2.681196e+01 4.596955e+01 6.554770e+01 7.818758e+01 3.519508e+01 2.090611e+01 3.701262e+01 2.682437e+01 7.361300e-01 7.893841e-01 1.275892e+00 1.409427e+00 1.545017e+00 3.236184e+00 3.012345e+00 3.098185e+00 2.167939e+00 1.914864e+00 2.066490e+00 1.565077e+00 3.691800e-01
<GCONST> 9.332428e+01
<STATE> 4
<MEAN> 25
 2.910617e+00 1.007764e+00 7.189091e+00 1.010762e+00 -5.426769e+00 -2.919094e+00 1.546959e-01 -1.123724e+00 -5.195740e+00 -2.503367e+00 -1.008425e+00 -5.354508e+00 -5.436864e-01 1.083703e-01 -2.101030e+00 8.721973e-01 2.222905e+00 3.638218e-01 -1.336422e-01 2.015130e-01 1.797126e+00 -1.226950e-01 -6.410194e-01 7.929139e-01 -1.239634e+00
<VARIANCE> 25
 1.774162e+01 3.389301e+01 7.614251e+01 2.225704e+01 4.151327e+01 4.054440e+01 5.624904e+01 7.761261e+01 5.479750e+01 2.657021e+01 2.588565e+01 3.154819e+01 4.645158e+00 1.745765e+00 2.630384e+00 4.746852e+00 3.482296e+00 5.946538e+00 5.506466e+00 3.280965e+00 3.555905e+00 3.017988e+00 3.324332e+00 3.068829e+00 1.547705e+00
<GCONST> 1.052546e+02
<TRANSP> 5
 0.000000e+00 1.000000e+00 0.000000e+00 0.000000e+00 0.000000e+00
 0.000000e+00 8.936512e-01 1.063488e-01 0.000000e+00 0.000000e+00
 0.000000e+00 0.000000e+00 5.951611e-01 4.048389e-01 0.000000e+00
 0.000000e+00 0.000000e+00 0.000000e+00 6.903352e-01 3.096649e-01
 0.000000e+00 0.000000e+00 0.000000e+00 0.000000e+00 0.000000e+00
<ENDHMM>
~h "hh"
<BEGINHMM>
<NUMSTATES> 5
<STATE> 2
<MEAN> 25
 2.793553e+00 -4.373039e+00 -2.001659e+00 -3.596227e-01 4.218873e+00 8.100794e+00 1.269165e+00 6.090484e-01 2.982279e+00 -2.721564e-04 -7.248262e-01 -6.705883e+00 -4.464002e-01 -4.363725e-01 -3.230167e-01 -4.136248e-01 -2.063559e-01 -1.818942e-01 4.552931e-01 -2.700849e-01 4.917273e-02 -3.480064e-02 6.137029e-01 5.798627e-01 -5.594693e-02
<VARIANCE> 25
 3.535900e+01 4.646873e+01 5.889454e+01 7.210426e+01 4.127134e+01 2.154020e+01 4.778505e+01 3.533767e+01 2.179435e+01 1.829792e+01 2.245346e+01 7.945289e+01 9.572896e-01 1.155155e+00 1.669537e+00 2.739444e+00 1.845093e+00 2.242258e+00 1.723872e+00 2.424401e+00 2.114241e+00 2.047002e+00 2.463956e+00 3.001038e+00 5.414175e-01
<GCONST> 9.672520e+01
<STATE> 3
<MEAN> 25
 -2.653198e+00 -3.248467e+00 -5.269969e+00 -2.860260e+00 2.834478e+00 5.917541e+00 1.882617e+00 -2.236505e+00 5.155792e-02 -5.832167e-01 6.300714e+00 5.507604e+00 2.956262e-01 8.276454e-02 -3.025493e-02 1.775925e-01 -1.633929e-01 2.051001e-01 2.089554e-01 3.224649e-01 -2.476280e-01 -2.507992e-01 1.601958e-01 6.720839e-02 2.226217e-01
<VARIANCE> 25
 2.481368e+01 3.950682e+01 3.072508e+01 2.914655e+01 3.015752e+01 5.423844e+01 1.926221e+01 4.527430e+01 5.862676e+01 3.671995e+01 2.615743e+01 3.920515e+01 1.565198e+00 2.656418e+00 1.957778e+00 1.262313e+00 1.426974e+00 4.769718e+00 2.149004e+00 3.195673e+00 1.804061e+00 1.959473e+00 1.537840e+00 2.334573e+00 7.258043e-01
<GCONST> 9.680523e+01
<STATE> 4
<MEAN> 25
 -4.755702e+00 -5.176476e-01 -2.592410e-01 2.760719e+00 2.543933e+00 2.476526e+00 3.715650e+00 1.723414e+00 4.567856e+00 1.934818e+00 2.581905e+00 4.369691e+00 5.085118e-02 -2.006520e-02 -3.161797e-02 -7.942704e-02 -3.592648e-02 -4.033710e-02 2.227289e-02 -3.427585e-03 -6.492677e-02 4.369835e-02 -8.749324e-02 -4.647048e-02 -1.046572e-02
<VARIANCE> 25
 5.282300e+00 3.333969e+00 6.486998e+00 6.948940e+00 1.058435e+01 8.541640e+00 1.198917e+01 1.750765e+01 1.224809e+01 1.385974e+01 1.336439e+01 1.242571e+01 2.485866e-01 2.675628e-01 4.153416e-01 5.581036e-01 7.609230e-01 1.010408e+00 1.122138e+00 1.350806e+00 1.188775e+00 1.514365e+00 1.505029e+00 1.059483e+00 8.884159e-02
<GCONST> 6.733597e+01
<TRANSP> 5
 0.000000e+00 1.000000e+00 0.000000e+00 0.000000e+00 0.000000e+00
 0.000000e+00 7.517479e-01 2.482520e-01 0.000000e+00 0.000000e+00
 0.000000e+00 0.000000e+00 6.940925e-01 3.059075e-01 0.000000e+00
 0.000000e+00 0.000000e+00 0.000000e+00 9.385012e-01 6.149878e-02
 0.000000e+00 0.000000e+00 0.000000e+00 0.000000e+00 0.000000e+00
<ENDHMM>
~h "ih"
<BEGINHMM>
<NUMSTATES> 5
<STATE> 2
<MEAN> 25
 4.409056e+00 -2.185249e-01 5.807963e+00 -7.173233e-01 -8.784595e+00 -3.910536e+00 -1.908846e+00 -1.559088e+00 -8.515399e+00 -9.648635e-01 -9.510577e-01 -4.455694e+00 2.590488e-02 4.522570e-01 -4.664746e-02 3.517602e-01 3.665465e-01 2.325991e-02 1.421998e-01 -5.361412e-01 -5.766392e-02 -1.492280e-01 -1.988693e-01 -2.919954e-01 -3.214624e-01
<VARIANCE> 25
 2.854469e+01 3.038407e+01 4.827861e+01 3.997752e+01 6.289819e+01 6.634974e+01 4.051316e+01 6.845395e+01 6.493516e+01 3.044777e+01 2.933969e+01 4.050991e+01 2.435495e+00 2.506161e+00 4.165971e+00 3.464291e+00 6.373577e+00 5.226665e+00 3.997639e+00 4.080358e+00 6.201344e+00 2.611746e+00 2.749879e+00 1.854760e+00 5.810526e+00
<GCONST> 1.081617e+02
<STATE> 3
<MEAN> 25
 1.277395e+00 5.006982e+00 3.418091e+00 1.388364e+00 2.725475e+00 -3.201135e+00 -4.849862e+00 -2.638243e+00 -1.060399e+00 -1.864887e+00 -3.432674e+00 -2.891468e+00 -4.836972e-01 -1.507438e-01 -3.012056e-01 2.431867e-01 6.987697e-01 4.042915e-01 3.090158e-01 5.635653e-01 9.583764e-01 4.746595e-02 1.524154e-01 3.933870e-01 -1.573035e-01
<VARIANCE> 25
 1.877479e+01 3.045074e+01 3.061172e+01 3.847960e+01 4.637654e+01 3.748793e+01 1.014776e+02 4.202077e+01 2.552035e+01 2.125325e+01 2.510892e+01 2.672684e+01 2.179659e+00 2.451859e+00 2.683438e+00 1.613717e+00 5.295625e+00 3.349682e+00 3.635367e+00 4.367261e+00 3.319404e+00 1.594534e+00 2.183997e+00 1.344446e+00 2.548617e+00
<GCONST> 1.004520e+02
<STATE> 4
<MEAN> 25
 -1.670279e+00 2.018022e-01 2.404379e+00 4.281689e+00 3.312662e+00 2.502148e+00 5.901086e+00 4.364128e+00 6.010442e+00 3.284384e+00 2.137184e+00 2.759733e+00 -4.978647e-01 -4.096307e-01 -4.392307e-01 -3.276104e-01 1.875280e-01 1.153287e-01 1.248231e-01 -6.163782e-02 2.763937e-01 4.443359e-01 6.419554e-01 3.768594e-01 -4.010065e-01
<VARIANCE> 25
 2.666046e+01 2.782743e+01 3.447173e+01 2.363232e+01 3.637672e+01 3.801726e+01 4.202146e+01 4.015364e+01 3.328218e+01 3.478464e+01 1.992561e+01 2.790213e+01 2.058671e+00 1.792125e+00 2.463680e+00 1.812226e+00 2.408747e+00 1.807133e+00 2.184189e+00 2.532608e+00 2.801286e+00 2.744664e+00 1.545785e+00 1.954736e+00 1.596171e+00
<GCONST> 9.689281e+01
<TRANSP> 5
 0.000000e+00 1.000000e+00 0.000000e+00 0.000000e+00 0.000000e+00
 0.000000e+00 7.891251e-01 2.108749e-01 0.000000e+00 0.000000e+00
 0.000000e+00 0.000000e+00 6.589055e-01 3.410945e-01 0.000000e+00
 0.000000e+00 0.000000e+00 0.000000e+00 6.361875e-01 3.638125e-01
 0.000000e+00 0.000000e+00 0.000000e+00 0.000000e+00 0.000000e+00
<ENDHMM>
~h "iy"
<BEGINHMM>
<NUMSTATES> 5
<STATE> 2
<MEAN> 25
 2.144343e+00 3.675047e+00 9.410607e+00 3.343946e+00 -3.982346e+00 -3.045738e+00 -1.721699e+00 -6.089715e+00 -6.459706e+00 -2.171374e+00 1.476706e+00 -2.153211e+00 7.311521e-01 6.320813e-01 2.565429e+00 -5.020458e-01 -2.302330e+00 -3.661496e-01 -7.520633e-01 -1.396074e+00 -2.466571e+00 -4.972905e-01 2.569024e-01 -1.012105e+00 1.532353e+00
<VARIANCE> 25
 4.302872e+01 2.878207e+01 5.922189e+01 5.893110e+01 7.025953e+01 5.213670e+01 3.603868e+01 5.460656e+01 5.856628e+01 5.100465e+01 3.572480e+01 6.042779e+01 3.661920e+00 2.990191e+00 4.176156e+00 6.048587e+00 6.030382e+00 6.717492e+00 4.314875e+00 3.900629e+00 5.060094e+00 6.498372e+00 4.262871e+00 3.477724e+00 1.907319e+00
<GCONST> 1.116786e+02
<STATE> 3
<MEAN> 25
 2.358971e+00 7.003571e+00 1.726696e+01 -9.828187e-01 -8.786077e+00 -5.400227e-01 -4.536863e+00 -1.254395e+01 -9.632450e+00 -3.785200e+00 1.037013e+00 -4.565823e+00 -2.351752e-02 5.445912e-02 -7.473458e-03 -5.396073e-01 -8.815508e-02 4.496340e-01 -2.445770e-01 2.081903e-02 1.538489e-01 -1.670427e-02 9.034303e-02 -1.679950e-01 1.304270e-01
<VARIANCE> 25
 2.002715e+01 2.666404e+01 1.962874e+01 4.127232e+01 4.520340e+01 4.214945e+01 2.087367e+01 4.566750e+01 2.351045e+01 4.926995e+01 4.621072e+01 2.477528e+01 1.081615e+00 1.976826e+00 1.368703e+00 2.684935e+00 2.021584e+00 3.117324e+00 1.933551e+00 2.465181e+00 1.439600e+00 1.662672e+00 1.923147e+00 2.716889e+00 3.803152e-01
<GCONST> 9.445805e+01
<STATE> 4
<MEAN> 25
 3.323371e+00 2.858032e+00 2.099207e+01 -3.796161e+00 -1.116074e+01 -4.033020e-01 -1.082803e+01 -5.939322e+00 -1.391214e+01 -1.422348e+00 -3.669685e-02 -6.282912e+00 9.347776e-03 -1.620405e-01 -7.792791e-01 7.199381e-01 6.141730e-01 -3.235237e-01 3.210622e-01 5.431734e-01 6.006497e-01 -1.501818e-01 -1.835704e-01 7.636263e-02 -4.530994e-01
<VARIANCE> 25
 8.725775e+00 1.781373e+01 3.942750e+01 4.867890e+01 2.360552e+01 4.289954e+01 4.596094e+01 2.726018e+01 2.531310e+01 2.520676e+01 2.788856e+01 1.628522e+01 5.927463e-01 7.239732e-01 2.230696e+00 1.378903e+00 1.700339e+00 1.496984e+00 2.328187e+00 1.726335e+00 2.557989e+00 2.437776e+00 1.452866e+00 2.570018e+00 4.960908e-01
<GCONST> 9.023311e+01
<TRANSP> 5
 0.000000e+00 1.000000e+00 0.000000e+00 0.000000e+00 0.000000e+00
 0.000000e+00 7.479373e-01 2.520627e-01 0.000000e+00 0.000000e+00
 0.000000e+00 0.000000e+00 7.834427e-01 2.165573e-01 0.000000e+00
 0.000000e+00 0.000000e+00 0.000000e+00 7.967487e-01 2.032513e-01
 0.000000e+00 0.000000e+00 0.000000e+00 0.000000e+00 0.000000e+00
<ENDHMM>
~h "jh"
<BEGINHMM>
<NUMSTATES> 5
<STATE> 2
<MEAN> 25
 -1.703702e+00 -1.119755e+00 -1.062120e+00 5.120640e-01 -4.418302e+00 -1.597233e+00 -7.612041e-01 -4.158661e+00 -2.317255e+00 8.719333e-01 4.488752e-01 1.693195e+00 8.371581e-01 -6.477180e-01 7.915651e-01 -7.932280e-01 -2.409341e+00 -2.066793e+00 -1.831634e+00 1.686657e-01 -1.448658e+00 -1.478263e-01 -8.406698e-01 -1.529364e+00 4.852197e+00
<VARIANCE> 25
 2.912822e+01 1.277058e+01 3.353333e+01 1.045569e+01 4.006520e+01 3.714928e+01 2.292258e+01 5.251516e+01 2.203457e+01 1.343092e+01 7.720565e+00 2.195510e+01 9.483405e+00 2.369771e+00 2.952930e+00 1.980432e+00 2.790144e+00 5.153270e+00 1.323518e+00 1.244989e+01 4.070711e+00 1.414477e+00 5.908797e-01 1.520551e+00 8.105198e+00
<GCONST> 9.702939e+01
<STATE> 3
<MEAN> 25
 6.279864e+00 -6.952145e+00 -6.881841e-01 -4.883626e+00 -4.748034e+00 -2.901909e+00 -6.197253e+00 -7.401682e-02 9.476674e-01 1.023965e+00 -3.260381e+00 -8.745688e+00 1.485455e-01 -1.844722e-01 3.777139e-01 -1.630401e-03 -3.683572e-02 -4.427011e-01 1.267318e-01 3.069500e-01 -4.450930e-01 -1.395044e-01 1.601071e-02 1.122987e-01 -1.856176e-01
<VARIANCE> 25
 1.901067e+02 3.169106e+01 4.017453e+01 1.455280e+01 1.957027e+01 4.937723e+01 5.034016e+01 5.109922e+01 1.456999e+01 1.634309e+01 1.515015e+01 5.589189e+01 2.360252e+00 1.267059e+00 2.924246e+00 2.235719e+00 2.851024e+00 4.803652e+00 2.000009e+00 4.110179e+00 3.815808e+00 1.642779e+00 2.697963e+00 3.049649e+00 5.701069e-01
<GCONST> 9.903972e+01
<STATE> 4
<MEAN> 25
 8.964347e-02 6.365423e-01 1.135254e+01 -4.283606e-01 -4.350345e+00 -3.707232e+00 -5.451203e+00 9.088173e-02 -8.813999e+00 -4.713146e+00 -1.312554e+00 -3.601939e+00 -2.292781e-01 4.139790e-01 7.043462e-02 -4.861259e-02 4.923201e-01 8.622888e-01 -1.645006e-03 -3.001318e-01 5.218166e-01 -1.312737e-01 7.919706e-02 -5.510617e-03 -3.456483e-01
<VARIANCE> 25
 6.462315e+01 3.447737e+01 3.026676e+01 3.637310e+01 5.333983e+01 5.548251e+01 2.400859e+01 2.481813e+01 6.959481e+01 1.545316e+01 1.909342e+01 1.575063e+01 8.878530e+00 3.402134e+00 3.351797e+00 5.243566e+00 4.479376e+00 5.616212e+00 4.072073e+00 2.701348e+00 6.943317e+00 1.982242e+00 1.848265e+00 1.942300e+00 7.158620e+00
<GCONST> 1.054952e+02
<TRANSP> 5
 0.000000e+00 1.000000e+00 0.000000e+00 0.000000e+00 0.000000e+00
 0.000000e+00 7.788556e-01 2.211445e-01 0.000000e+00 0.000000e+00
 0.000000e+00 0.000000e+00 8.926036e-01 1.073965e-01 0.000000e+00
 0.000000e+00 0.000000e+00 0.000000e+00 9.218681e-01 7.813189e-02
 0.000000e+00 0.000000e+00 0.000000e+00 0.000000e+00 0.000000e+00
<ENDHMM>
~h "ng"
<BEGINHMM>
<NUMSTATES> 5
<STATE> 2
<MEAN> 25
 2.952192e+00 2.809138e+00 -3.109129e+00 6.010239e+00 3.172728e+00 -1.737040e+00 2.115361e+00 -5.000058e+00 -2.493176e+00 -1.720083e-01 -7.358019e-01 -3.468807e+00 -8.452821e-01 -7.468346e-01 -4.918199e-01 -4.051129e-01 4.930421e-01 6.541505e-01 2.118887e-01 1.034449e+00 1.027683e+00 4.258708e-01 8.886635e-01 1.237437e+00 -7.503234e-01
<VARIANCE> 25
 3.739735e+01 5.299779e+00 9.806186e+00 7.198792e+00 3.774022e+00 1.533390e+01 7.360742e+00 2.618084e+01 3.160668e+01 8.275032e+00 9.777978e+00 3.082720e+01 1.254278e+00 1.085299e+00 1.505845e+00 5.984114e-01 6.206515e-01 2.012843e+00 1.977862e+00 2.276577e+00 1.594725e+00 2.395180e+00 2.371464e+00 2.499067e+00 2.019092e-01
<GCONST> 7.953886e+01
<STATE> 3
<MEAN> 25
 -6.344814e+00 -1.300926e+00 -4.054890e-01 1.606271e+00 4.849023e+00 5.292945e+00 6.055387e+00 4.175108e+00 6.228916e+00 3.838796e+00 3.856645e+00 5.205285e+00 -1.197188e-02 -4.123454e-02 -4.557855e-02 1.073373e-02 7.085504e-02 2.169583e-02 9.925485e-02 4.922647e-02 9.444483e-02 7.201263e-02 1.598650e-01 6.108319e-02 -4.684079e-02
<VARIANCE> 25
 1.471627e+00 1.689520e+00 4.348116e+00 6.322937e+00 6.632767e+00 8.868785e+00 9.984201e+00 1.028921e+01 1.090726e+01 1.120240e+01 8.934224e+00 8.054702e+00 1.614751e-01 2.608875e-01 3.869760e-01 9.736865e-01 6.161438e-01 8.179880e-01 1.236042e+00 1.329990e+00 1.055370e+00 1.439497e+00 1.294736e+00 1.102975e+00 5.074960e-02
<GCONST> 6.142245e+01
<STATE> 4
<MEAN> 25
 -6.047999e+00 -2.034166e-01 -5.617594e+00 2.443143e+00 6.141132e+00 5.075758e+00 6.403326e+00 3.638321e+00 6.408082e+00 3.799775e+00 3.987501e+00 5.592110e+00 -7.642418e-02 1.214694e-01 -5.886592e-02 1.056882e-01 -1.456297e-02 -7.255421e-02 -3.292623e-02 6.906795e-02 -5.688860e-02 -1.600758e-01 -5.917326e-02 7.461998e-02 8.104309e-02
<VARIANCE> 25
 4.206850e+00 4.097307e+00 1.747308e+01 3.429218e+00 6.509940e+00 8.591788e+00 9.290977e+00 9.945360e+00 1.418745e+01 1.395184e+01 8.305643e+00 8.930300e+00 4.193330e-01 2.617837e-01 6.039593e-01 5.141521e-01 6.554070e-01 1.033631e+00 1.060595e+00 9.283925e-01 2.027444e+00 1.536672e+00 1.122208e+00 1.061782e+00 1.125112e-01
<GCONST> 6.637485e+01
<TRANSP> 5
 0.000000e+00 1.000000e+00 0.000000e+00 0.000000e+00 0.000000e+00
 0.000000e+00 7.907874e-01 2.092127e-01 0.000000e+00 0.000000e+00
 0.000000e+00 0.000000e+00 9.315703e-01 6.842975e-02 0.000000e+00
 0.000000e+00 0.000000e+00 0.000000e+00 8.822050e-01 1.177950e-01
 0.000000e+00 0.000000e+00 0.000000e+00 0.000000e+00 0.000000e+00
<ENDHMM>
~h "ow"
<BEGINHMM>
<NUMSTATES> 5
<STATE> 2
<MEAN> 25
 1.153554e+01 1.634840e+00 -4.048770e+00 -1.047647e+01 -4.001485e+00 7.757127e+00 -8.889145e+00 -4.090740e+00 -5.683920e+00 2.046410e+00 3.393230e+00 -3.446719e+00 7.348091e-02 4.959460e-01 -4.221782e-02 -1.432430e-01 -1.201346e-01 1.830815e-01 2.386929e-01 -1.553386e-01 -4.769790e-01 -5.629331e-01 1.145199e-02 4.551151e-01 -3.967862e-01
<VARIANCE> 25
 4.637129e+00 3.018672e+01 1.442203e+01 1.732182e+01 2.497601e+01 3.203456e+01 3.605174e+01 3.487565e+01 4.829933e+01 5.495695e+01 2.690564e+01 3.198925e+01 1.045019e-01 4.318126e-01 2.834972e-01 7.397088e-01 5.481802e-01 1.140515e+00 7.097909e-01 9.697905e-01 9.528590e-01 1.408353e+00 1.157528e+00 6.306434e-01 1.299443e-01
<GCONST> 7.730759e+01
<STATE> 3
<MEAN> 25
 8.869507e+00 5.096449e+00 -5.035066e-01 -1.885148e+00 -2.308126e+00 2.635537e+00 -4.399012e+00 -4.716220e+00 -3.814255e+00 -6.090336e+00 -1.281179e-01 -1.987997e+00 -7.271530e-01 -5.184367e-01 1.286767e-01 6.815210e-01 4.553301e-01 -2.912299e-01 2.144375e-01 1.878520e-01 5.697961e-01 4.558364e-01 4.420112e-02 -2.775160e-03 -5.662493e-01
<VARIANCE> 25
 2.001434e+01 2.345194e+01 4.077060e+01 3.675089e+01 2.311537e+01 2.143627e+01 3.329808e+01 3.052950e+01 3.322095e+01 2.600706e+01 4.437981e+01 3.991070e+01 1.249245e+00 9.866489e-01 1.292848e+00 2.854562e+00 2.193606e+00 2.073412e+00 2.656401e+00 2.608166e+00 3.162955e+00 2.403154e+00 3.043330e+00 2.085151e+00 6.040053e-01
<GCONST> 9.511835e+01
<STATE> 4
<MEAN> 25
 -4.015650e+00 -2.425721e+00 -2.587657e+00 1.389168e+00 1.919992e+00 2.386945e+00 3.392164e+00 1.984155e+00 3.866473e+00 2.482221e+00 2.457506e+00 2.918477e+00 -8.268754e-02 -9.849206e-02 -9.063955e-03 6.950319e-02 1.092440e-01 8.175886e-02 1.121513e-01 6.348543e-02 -1.007904e-03 9.599261e-02 4.685251e-02 6.325794e-02 -3.976121e-02
<VARIANCE> 25
 9.738947e+00 4.967509e+00 8.050549e+00 1.101545e+01 1.057277e+01 1.315893e+01 2.042013e+01 1.215220e+01 9.546007e+00 1.370816e+01 1.692283e+01 1.590855e+01 1.549362e-01 2.597056e-01 7.054839e-01 6.580630e-01 1.256877e+00 1.034148e+00 1.213795e+00 1.237373e+00 9.532416e-01 1.429848e+00 1.465920e+00 1.124438e+00 4.140121e-02
<GCONST> 6.954374e+01
<TRANSP> 5
 0.000000e+00 1.000000e+00 0.000000e+00 0.000000e+00 0.000000e+00
 0.000000e+00 9.416953e-01 5.830467e-02 0.000000e+00 0.000000e+00
 0.000000e+00 0.000000e+00 9.253592e-01 7.464080e-02 0.000000e+00
 0.000000e+00 0.000000e+00 0.000000e+00 9.301794e-01 6.982063e-02
 0.000000e+00 0.000000e+00 0.000000e+00 0.000000e+00 0.000000e+00
<ENDHMM>
~h "oy"
<BEGINHMM>
<NUMSTATES> 5
<STATE> 2
<MEAN> 25
 1.340457e+01 -1.836904e+00 3.400786e+00 -6.043951e+00 -1.215271e+01 4.330059e-01 -8.342734e+00 -1.158707e+00 -8.622301e+00 -1.844457e+00 3.282755e-01 -8.054504e+00 -3.124682e-01 6.123676e-02 3.357564e-01 1.877843e-01 3.005420e-01 -3.727116e-01 1.677788e-01 -1.689772e-01 -2.776368e-01 2.532208e-02 -3.013752e-02 1.093156e-01 -9.983940e-02
<VARIANCE> 25
 1.318865e+01 5.840612e+01 9.515016e+01 6.596017e+01 3.991655e+01 9.792770e+01 5.703354e+01 5.186089e+01 4.140536e+01 2.830591e+01 2.472108e+01 3.116137e+01 1.784281e+00 2.579025e+00 3.806849e+00 3.478099e+00 3.749247e+00 5.315743e+00 3.783882e+00 4.594244e+00 3.728609e+00 3.139620e+00 2.721466e+00 3.108446e+00 6.209384e-01
<GCONST> 1.053912e+02
<STATE> 3
<MEAN> 25
 -1.457390e+01 6.170473e+00 -3.342936e+00 -3.082265e+00 9.610747e+00 -9.496571e+00 3.768464e+00 1.165690e+00 4.737551e-01 -6.650720e-01 -2.879170e+00 2.828368e+00 -6.579287e-01 -1.711636e-01 -7.647449e-01 2.822591e-01 5.330704e-01 3.900968e-01 7.503923e-02 5.703174e-01 8.618684e-01 3.949625e-01 5.032090e-02 4.439127e-01 -5.889311e-01
<VARIANCE> 25
 6.565733e+01 7.884126e+00 2.327202e+01 1.808642e+01 2.827618e+01 1.476599e+01 3.869355e+01 2.846615e+01 3.252629e+01 2.450229e+01 1.658551e+01 2.086328e+01 1.055964e+01 5.704268e-01 3.669836e+00 2.538551e+00 2.785477e+00 3.399034e+00 2.603494e+00 1.974856e+00 4.246312e+00 3.595166e+00 2.224962e+00 1.521227e+00 2.015645e+00
<GCONST> 9.636321e+01
<STATE> 4
<MEAN> 25
 -4.702485e+00 -7.725883e-01 -5.270297e-01 3.827999e+00 3.459333e+00 1.969124e+00 3.212455e+00 9.450496e-01 4.363795e+00 1.340820e+00 8.328047e-01 2.860066e+00 -4.470246e-02 -1.192225e-01 2.049239e-02 1.168329e-01 -1.254370e-01 2.013716e-01 -1.888097e-02 1.705268e-04 4.862038e-02 -3.249546e-02 6.006116e-02 -2.968638e-02 -1.118611e-01
<VARIANCE> 25
 1.406818e+01 9.813851e+00 1.582788e+01 1.809932e+01 1.306276e+01 2.087328e+01 1.916870e+01 2.254388e+01 2.512495e+01 1.596619e+01 1.296220e+01 1.762616e+01 1.135550e+00 1.349200e+00 1.844750e+00 1.777773e+00 1.508319e+00 2.124695e+00 2.127002e+00 2.722139e+00 1.899928e+00 1.780546e+00 1.915864e+00 2.204436e+00 8.573776e-01
<GCONST> 8.667561e+01
<TRANSP> 5
 0.000000e+00 1.000000e+00 0.000000e+00 0.000000e+00 0.000000e+00
 0.000000e+00 9.671283e-01 3.287161e-02 0.000000e+00 0.000000e+00
 0.000000e+00 0.000000e+00 9.074646e-01 9.253539e-02 0.000000e+00
 0.000000e+00 0.000000e+00 0.000000e+00 9.511535e-01 4.884642e-02
