~o
<STREAMINFO> 1 25
<VECSIZE> 25<NULLD><MFCC_D_N_Z_0><DIAGC>
~h "a"
<BEGINHMM>
<NUMSTATES> 5
<STATE> 2
<MEAN> 25
 4.120809e+00 -5.167029e+00 -3.806668e+00 -5.936113e+00 -4.853374e+00 -3.364867e+00 3.115246e+00 2.632843e-01 1.750333e+00 -1.969378e+00 5.175019e+00 3.278387e+00 2.575964e-01 -1.230049e-01 -3.512473e-01 -1.562629e-01 -2.020494e-01 3.968740e-02 1.992540e-01 2.113495e-01 -2.368588e-02 -3.250618e-02 6.248627e-01 1.822811e-01 1.223057e-01
<VARIANCE> 25
 1.274685e+01 3.583662e+01 2.701662e+01 2.981475e+01 4.815782e+01 3.071427e+01 4.323239e+01 2.693521e+01 3.132337e+01 2.833488e+01 4.975629e+01 1.931069e+01 9.115062e-01 2.784400e+00 1.580311e+00 3.206392e+00 5.070186e+00 3.590036e+00 3.301834e+00 2.448498e+00 2.388270e+00 2.148381e+00 4.935644e+00 2.026265e+00 3.300118e+00
<GCONST> 9.945567e+01
<STATE> 3
<MEAN> 25
 5.029145e+00 -1.991736e+00 -5.717671e+00 -3.406458e+00 -2.710525e+00 -2.254005e+00 2.198620e+00 1.452977e+00 4.553359e-01 -1.846976e+00 5.189463e+00 2.077430e+00 -7.743653e-02 1.115474e+00 -4.582701e-02 1.339380e+00 1.177013e+00 6.464720e-01 -4.887063e-01 4.137403e-02 -2.074384e-01 9.919892e-02 -1.151067e+00 -4.230862e-01 -1.327838e+00
<VARIANCE> 25
 8.516627e+00 3.683745e+01 2.679415e+01 3.583047e+01 4.494764e+01 2.780014e+01 4.568125e+01 4.917228e+01 2.036251e+01 3.302407e+01 5.357939e+01 2.047259e+01 7.638667e-01 2.452606e+00 2.310861e+00 3.851455e+00 4.316553e+00 3.153900e+00 3.282045e+00 3.296685e+00 1.875106e+00 2.426272e+00 7.837049e+00 2.263748e+00 2.253270e+00
<GCONST> 9.993082e+01
<STATE> 4
<MEAN> 25
 2.693950e+00 6.964931e+00 -5.858078e+00 2.588213e+00 2.715919e+00 2.222533e+00 1.373534e+00 1.409463e+00 2.881841e-01 1.937622e+00 -1.365383e+00 1.660274e+00 -4.308964e-01 5.557863e-01 2.473215e-01 7.250023e-01 4.042209e-01 2.610637e-01 -5.202313e-02 1.198316e-01 -2.440798e-02 2.597468e-01 -6.307377e-01 -1.394370e-01 -8.967083e-01
<VARIANCE> 25
 2.045856e+01 4.616079e+01 3.144597e+01 3.621473e+01 4.124635e+01 3.061709e+01 4.000397e+01 3.175122e+01 1.672928e+01 2.974189e+01 4.322088e+01 2.638909e+01 7.556945e-01 1.770588e+00 1.846276e+00 3.522958e+00 3.095261e+00 2.567464e+00 2.353153e+00 2.012963e+00 1.567768e+00 1.884587e+00 3.611033e+00 1.730636e+00 1.035502e+00
<GCONST> 9.611478e+01
<TRANSP> 5
 0.000000e+00 1.000000e+00 0.000000e+00 0.000000e+00 0.000000e+00
 0.000000e+00 8.479395e-01 1.520605e-01 0.000000e+00 0.000000e+00
 0.000000e+00 0.000000e+00 7.486770e-01 2.513230e-01 0.000000e+00
 0.000000e+00 0.000000e+00 0.000000e+00 8.217978e-01 1.782022e-01
 0.000000e+00 0.000000e+00 0.000000e+00 0.000000e+00 0.000000e+00
<ENDHMM>
~h "b"
<BEGINHMM>
<NUMSTATES> 5
<STATE> 2
<MEAN> 25
 1.792747e+00 3.904698e+00 2.963773e+00 4.944883e+00 4.204723e+00 1.258461e+00 3.487145e-01 -2.088152e+00 -1.069322e+00 -2.608488e+00 -2.561083e+00 -1.827385e+00 5.680252e-01 6.093477e-01 5.014172e-01 3.169467e-01 8.898230e-02 -2.848593e-01 -4.912610e-01 -3.306572e-01 -5.214201e-01 -7.104242e-01 -5.491728e-01 -3.446679e-01 5.078867e-01
<VARIANCE> 25
 2.930180e+01 2.933570e+01 3.052290e+01 2.636217e+01 1.959571e+01 2.128520e+01 2.762628e+01 3.838226e+01 4.024752e+01 3.019188e+01 3.517839e+01 2.713536e+01 2.037622e+00 2.996537e+00 2.473132e+00 2.405964e+00 2.142335e+00 2.422373e+00 2.816813e+00 4.215209e+00 3.787474e+00 3.197768e+00 3.288075e+00 3.081070e+00 3.715266e+00
<GCONST> 1.001932e+02
<STATE> 3
<MEAN> 25
 3.516502e+00 3.882109e+00 3.316234e+00 4.363279e+00 3.577387e+00 8.062703e-01 -9.510841e-01 -1.834591e+00 -1.762493e+00 -3.306896e+00 -3.569454e+00 -2.777126e+00 3.762660e-01 -3.076009e-01 -1.388942e-01 -6.128241e-01 -5.197719e-01 -1.087631e-01 -4.121520e-01 2.505357e-01 1.721751e-02 2.224396e-01 8.164156e-03 -1.372599e-01 1.150587e+00
<VARIANCE> 25
 2.578802e+01 3.746994e+01 3.159466e+01 4.173832e+01 3.413818e+01 2.733406e+01 3.334515e+01 4.085554e+01 3.012942e+01 2.921147e+01 3.095530e+01 2.765707e+01 2.384932e+00 2.632650e+00 2.349829e+00 4.027688e+00 3.817218e+00 3.383345e+00 3.114305e+00 4.102686e+00 3.445514e+00 2.894836e+00 2.902442e+00 3.649919e+00 5.400522e+00
<GCONST> 1.031303e+02
<STATE> 4
<MEAN> 25
 6.525588e+00 5.263323e-01 2.624893e+00 -1.999534e+00 -3.037995e+00 -7.533031e-01 -4.987430e+00 -9.860744e-01 -4.761908e+00 -1.429975e+00 -2.377038e+00 -4.342006e+00 9.676310e-02 -2.204705e-01 2.219805e-02 -6.568822e-01 -6.409478e-01 -1.352655e-01 -2.816190e-01 1.742710e-02 -1.958226e-01 2.913871e-01 2.074285e-01 -4.315376e-02 7.347457e-01
<VARIANCE> 25
 3.582036e+01 4.303185e+01 6.194075e+01 7.667100e+01 7.661775e+01 5.656400e+01 6.110522e+01 4.686709e+01 6.036448e+01 3.510495e+01 3.641109e+01 3.222009e+01 2.451946e+00 2.759086e+00 2.989158e+00 6.726021e+00 6.476046e+00 4.494753e+00 3.317138e+00 4.041058e+00 4.897880e+00 3.156352e+00 3.194442e+00 3.283228e+00 5.809227e+00
<GCONST> 1.105407e+02
<TRANSP> 5
 0.000000e+00 1.000000e+00 0.000000e+00 0.000000e+00 0.000000e+00
 0.000000e+00 6.892916e-01 3.107085e-01 0.000000e+00 0.000000e+00
 0.000000e+00 0.000000e+00 6.817973e-01 3.182026e-01 0.000000e+00
 0.000000e+00 0.000000e+00 0.000000e+00 8.605283e-01 1.394717e-01
 0.000000e+00 0.000000e+00 0.000000e+00 0.000000e+00 0.000000e+00
<ENDHMM>
~h "d"
<BEGINHMM>
<NUMSTATES> 5
<STATE> 2
<MEAN> 25
 2.892073e+00 7.812302e-01 4.255074e+00 1.935931e+00 -1.641812e+00 -3.905523e+00 -1.715606e+00 -1.004636e+00 -2.414561e+00 -1.165088e+00 -1.884141e+00 -1.832141e+00 2.308393e-02 1.565094e-01 -8.054660e-02 2.058572e-01 -9.015981e-02 -8.170792e-02 1.378283e-02 -6.519248e-02 2.224271e-01 6.310704e-02 1.906198e-01 2.682133e-01 -1.493128e-01
<VARIANCE> 25
 2.977906e+01 2.960060e+01 4.899752e+01 4.741936e+01 5.231590e+01 5.107928e+01 3.621270e+01 5.078154e+01 3.888928e+01 3.641942e+01 3.665714e+01 2.100388e+01 1.876207e+00 1.893888e+00 2.844321e+00 4.659588e+00 5.210636e+00 4.406793e+00 3.048068e+00 3.756707e+00 3.025891e+00 3.038674e+00 2.517327e+00 1.905580e+00 3.654704e+00
<GCONST> 1.042957e+02
<STATE> 3
<MEAN> 25
 2.284166e+00 8.051794e-01 2.449917e+00 1.950766e+00 -1.342800e+00 -3.129477e+00 -1.046239e+00 -1.287639e+00 -7.281198e-01 2.675984e-03 -1.281542e-01 -7.009687e-01 -6.641471e-03 -6.506742e-02 -2.334437e-01 -9.993905e-02 4.397814e-02 1.517469e-01 9.203724e-02 3.830491e-02 3.626951e-01 2.366812e-01 2.106135e-01 2.207229e-01 -1.216140e-01
<VARIANCE> 25
 3.317890e+01 2.683385e+01 4.290612e+01 4.271842e+01 4.912943e+01 4.930606e+01 4.101089e+01 4.754155e+01 3.639825e+01 3.016293e+01 2.877290e+01 2.454551e+01 1.980282e+00 1.524083e+00 2.277368e+00 3.610070e+00 4.278497e+00 4.412047e+00 2.716511e+00 4.024767e+00 2.592637e+00 2.805150e+00 2.303424e+00 2.118028e+00 2.144026e+00
<GCONST> 1.020540e+02
<STATE> 4
<MEAN> 25
 -4.066153e-01 -2.954864e-03 1.537517e-01 1.821935e+00 1.173007e+00 -1.986320e-01 1.517777e+00 4.749145e-01 2.068752e+00 1.495188e+00 6.609386e-01 1.340305e+00 -7.699361e-02 -1.962158e-02 -1.453207e-01 -1.551367e-01 1.188449e-01 2.224723e-01 1.161373e-01 7.999013e-02 9.511136e-02 4.521501e-02 7.245544e-02 2.026566e-02 1.112460e-02
<VARIANCE> 25
 3.723907e+01 1.909253e+01 3.016704e+01 2.975891e+01 3.606660e+01 3.378067e+01 3.477475e+01 3.521390e+01 3.164973e+01 2.579491e+01 2.295835e+01 3.004363e+01 1.217061e+00 9.072266e-01 1.544705e+00 2.087361e+00 2.484863e+00 2.928858e+00 1.911716e+00 2.716979e+00 2.163326e+00 2.156411e+00 1.795526e+00 1.742815e+00 1.045651e+00
<GCONST> 9.439797e+01
<TRANSP> 5
 0.000000e+00 1.000000e+00 0.000000e+00 0.000000e+00 0.000000e+00
 0.000000e+00 6.098890e-01 3.901110e-01 0.000000e+00 0.000000e+00
 0.000000e+00 0.000000e+00 5.343217e-01 4.656784e-01 0.000000e+00
 0.000000e+00 0.000000e+00 0.000000e+00 7.275763e-01 2.724237e-01
 0.000000e+00 0.000000e+00 0.000000e+00 0.000000e+00 0.000000e+00
<ENDHMM>
~h "e"
<BEGINHMM>
<NUMSTATES> 5
<STATE> 2
<MEAN> 25
 -5.893672e+00 -9.096525e+00 1.285241e+01 -1.080846e+01 -1.834420e+00 6.144181e+00 1.336178e-02 -1.049400e+00 5.211677e-03 3.019400e+00 1.327989e+00 -1.254281e+00 -4.994643e-01 -7.768531e-01 1.018007e+00 -8.590941e-01 -8.477540e-02 3.168008e-01 9.549058e-02 1.427340e-01 -2.134692e-02 5.862567e-02 -9.890950e-02 6.348515e-02 5.534284e-01
<VARIANCE> 25
 7.875623e+01 6.820967e+01 1.531494e+02 1.004864e+02 3.119339e+01 6.125928e+01 3.253866e+01 4.092048e+01 2.570247e+01 3.887351e+01 2.346987e+01 1.827750e+01 9.040738e+00 8.377870e+00 1.461484e+01 9.238252e+00 2.678913e+00 7.054405e+00 4.113315e+00 6.346332e+00 2.223042e+00 3.276646e+00 1.909083e+00 1.506842e+00 3.239357e+00
<GCONST> 1.115466e+02
<STATE> 3
<MEAN> 25
 -2.510804e+00 -7.271390e+00 7.997785e+00 -7.778018e+00 -1.287641e+00 2.212354e+00 -3.760360e-01 -1.607512e+00 -1.900768e+00 -1.671744e-01 9.195306e-01 2.015831e-01 1.383328e+00 8.293014e-01 -1.366177e+00 7.307581e-01 -6.844387e-02 -1.330160e+00 1.224425e-01 -6.808506e-01 -4.333233e-01 -6.258935e-01 4.112284e-01 5.221332e-01 3.917730e-01
<VARIANCE> 25
 6.138198e+01 6.231029e+01 1.125369e+02 8.146351e+01 3.306250e+01 7.575975e+01 3.642573e+01 4.815157e+01 2.573211e+01 4.196224e+01 3.200638e+01 1.859787e+01 5.254652e+00 8.375981e+00 9.799695e+00 6.468383e+00 3.839177e+00 6.295556e+00 3.428293e+00 5.980065e+00 2.928502e+00 3.527326e+00 2.874391e+00 1.576834e+00 3.007197e+00
<GCONST> 1.110753e+02
<STATE> 4
<MEAN> 25
 5.595400e+00 -3.253157e+00 -3.487411e+00 -3.868490e+00 -2.380893e+00 -2.710998e+00 5.532776e-01 -3.199502e+00 -2.516167e+00 -4.208038e+00 4.160266e+00 3.675445e+00 3.692805e-01 5.292237e-01 -8.064011e-01 4.004939e-01 -2.811531e-02 -3.163351e-01 4.008348e-02 2.984440e-01 1.563904e-01 -3.427289e-01 5.386444e-02 1.892647e-01 -3.423586e-01
<VARIANCE> 25
 3.046801e+01 3.556043e+01 6.886583e+01 3.575899e+01 2.487752e+01 4.838875e+01 2.988417e+01 4.745251e+01 3.072714e+01 4.316179e+01 4.304327e+01 2.473949e+01 2.781598e+00 4.708460e+00 3.770172e+00 2.989185e+00 4.533311e+00 5.158523e+00 2.339948e+00 4.334271e+00 2.427249e+00 3.088432e+00 4.073184e+00 1.931983e+00 2.888665e+00
<GCONST> 1.048563e+02
<TRANSP> 5
 0.000000e+00 1.000000e+00 0.000000e+00 0.000000e+00 0.000000e+00
 0.000000e+00 7.890462e-01 2.109538e-01 0.000000e+00 0.000000e+00
 0.000000e+00 0.000000e+00 5.804635e-01 4.195365e-01 0.000000e+00
 0.000000e+00 0.000000e+00 0.000000e+00 7.462206e-01 2.537794e-01
 0.000000e+00 0.000000e+00 0.000000e+00 0.000000e+00 0.000000e+00
<ENDHMM>
~h "f"
<BEGINHMM>
<NUMSTATES> 5
<STATE> 2
<MEAN> 25
 -4.310042e+00 -4.751210e-01 -2.507691e+00 -1.356320e+00 9.313443e-01 3.071242e+00 2.591163e+00 1.295724e+00 8.677590e-01 7.626027e-01 -1.283662e+00 1.415835e-01 -6.000893e-01 2.409048e-01 -1.092996e-01 -4.479687e-01 -4.043188e-01 -8.082547e-01 -9.312169e-02 -8.689930e-02 -6.036587e-01 -2.954238e-01 1.035282e-01 2.849299e-01 -2.181236e-01
<VARIANCE> 25
 9.481536e+01 2.484091e+01 1.490424e+01 3.287838e+01 4.498547e+01 6.057411e+01 2.238397e+01 2.485335e+01 2.834804e+01 2.406953e+01 1.245780e+01 1.088723e+01 8.578138e+00 1.631403e+00 1.170621e+00 3.350965e+00 5.647624e+00 5.448777e+00 2.380610e+00 3.326586e+00 2.870213e+00 2.469960e+00 1.330998e+00 2.059112e+00 1.546391e+00
<GCONST> 9.847687e+01
<STATE> 3
<MEAN> 25
 -5.856460e+00 -9.939258e-01 -3.252758e+00 -2.363353e+00 -5.675332e-01 1.112641e+00 1.729274e+00 7.659786e-01 1.387986e-01 6.412074e-01 -6.380208e-01 6.775501e-01 -1.679023e-01 -1.595507e-02 -2.185944e-01 -1.761841e-01 -2.194828e-01 -3.138303e-01 -2.480807e-01 -2.964735e-01 -1.716942e-01 4.206559e-02 2.592054e-01 1.446231e-01 -1.156135e-01
<VARIANCE> 25
 1.033923e+02 2.345372e+01 1.168985e+01 3.215913e+01 3.937112e+01 2.273827e+01 1.575977e+01 2.294822e+01 2.663764e+01 2.447604e+01 1.165077e+01 1.136590e+01 4.201898e+00 1.322028e+00 9.277232e-01 1.672078e+00 2.451904e+00 3.128466e+00 1.821781e+00 2.026325e+00 1.721408e+00 2.334631e+00 1.149105e+00 1.222382e+00 1.266423e+00
<GCONST> 9.118787e+01
<STATE> 4
<MEAN> 25
 -6.293361e+00 -1.738068e+00 -4.137619e+00 -2.631847e+00 -1.298574e-01 3.154121e-01 8.517558e-01 3.405741e-01 6.686659e-01 1.676145e+00 -7.703077e-01 1.338551e+00 3.991380e-01 1.127100e-01 -1.164493e-01 -6.747516e-02 -1.729843e-03 -7.443373e-02 -2.876509e-01 -1.598641e-01 -2.378552e-02 -6.561221e-02 1.946392e-02 8.329740e-02 2.299276e-02
<VARIANCE> 25
 6.878671e+01 1.517191e+01 1.130329e+01 1.802015e+01 2.322712e+01 1.390054e+01 1.503447e+01 1.702752e+01 2.063556e+01 2.051739e+01 1.444339e+01 1.413792e+01 3.644263e+00 1.510615e+00 1.026335e+00 1.125834e+00 1.934812e+00 1.649618e+00 1.754474e+00 1.372948e+00 1.399515e+00 2.049759e+00 1.338775e+00 1.434096e+00 1.319915e+00
<GCONST> 8.677734e+01
<TRANSP> 5
 0.000000e+00 1.000000e+00 0.000000e+00 0.000000e+00 0.000000e+00
 0.000000e+00 7.027419e-01 2.972582e-01 0.000000e+00 0.000000e+00
 0.000000e+00 0.000000e+00 7.170191e-01 2.829809e-01 0.000000e+00
 0.000000e+00 0.000000e+00 0.000000e+00 8.726716e-01 1.273284e-01
 0.000000e+00 0.000000e+00 0.000000e+00 0.000000e+00 0.000000e+00
<ENDHMM>
~h "g"
<BEGINHMM>
<NUMSTATES> 5
<STATE> 2
<MEAN> 25
 1.447386e+00 2.174367e+00 4.600957e+00 2.677250e+00 2.683105e+00 -2.760530e+00 -6.981430e-01 -1.982796e+00 2.696121e-01 -1.684363e-01 -3.618132e+00 -3.972394e+00 4.376725e-01 -3.836376e-02 3.514622e-01 9.501075e-02 -8.863252e-02 -9.610226e-01 -7.160962e-01 -1.156525e+00 -2.726301e-01 -1.869305e-01 3.747710e-02 -2.279036e-01 1.176330e+00
<VARIANCE> 25
 1.895774e+01 8.769375e+01 3.562517e+01 4.335451e+01 4.244947e+01 5.484450e+01 3.773512e+01 5.874152e+01 3.355883e+01 2.164256e+01 3.558533e+01 2.649000e+01 2.407979e+00 7.661778e+00 4.867006e+00 5.003544e+00 4.166631e+00 3.685709e+00 4.567227e+00 6.581829e+00 2.486470e+00 2.595016e+00 3.573685e+00 2.737553e+00 6.202498e+00
<GCONST> 1.078112e+02
<STATE> 3
<MEAN> 25
 1.569256e+00 6.547045e-01 4.127508e+00 2.559657e+00 1.940058e+00 -4.705999e+00 -3.973949e+00 -6.706693e+00 -1.073079e+00 -4.895538e-01 -1.890307e+00 -2.557932e+00 4.896219e-02 -4.017508e-02 2.709652e-01 -3.345082e-01 -8.144217e-01 -3.953471e-01 -4.880214e-01 -2.554363e-01 -5.354543e-01 -3.695146e-02 6.395028e-01 3.557877e-01 7.470751e-01
<VARIANCE> 25
 2.999254e+01 4.468687e+01 5.156467e+01 4.526290e+01 5.575453e+01 4.654133e+01 4.456812e+01 5.184874e+01 3.994678e+01 1.943506e+01 4.614521e+01 2.086540e+01 3.272073e+00 5.118551e+00 5.616158e+00 3.191053e+00 4.632406e+00 4.287718e+00 3.908120e+00 5.102317e+00 3.304142e+00 2.204380e+00 2.891760e+00 1.898700e+00 3.741687e+00
<GCONST> 1.067281e+02
<STATE> 4
<MEAN> 25
 1.440245e+00 1.957768e+00 8.156857e+00 -7.493060e-01 -4.551226e+00 -4.938144e+00 -4.362716e+00 -5.513654e+00 -6.387387e+00 -1.075520e-01 8.997329e-02 -2.077386e+00 1.412369e-02 8.914218e-02 9.294836e-02 -3.834480e-02 -3.747091e-01 -9.042144e-02 1.741159e-01 5.607898e-01 -2.058875e-01 -1.045500e-01 4.187284e-01 1.729485e-01 2.315640e-01
<VARIANCE> 25
 4.664362e+01 3.357084e+01 8.946825e+01 3.546661e+01 8.984836e+01 5.216121e+01 4.085139e+01 3.773536e+01 8.199006e+01 1.915938e+01 3.226693e+01 3.000223e+01 5.250137e+00 3.194474e+00 5.314155e+00 3.100839e+00 5.381289e+00 4.676862e+00 3.988113e+00 3.092787e+00 6.214090e+00 2.365208e+00 2.904819e+00 2.336128e+00 1.906147e+00
<GCONST> 1.080006e+02
<TRANSP> 5
 0.000000e+00 1.000000e+00 0.000000e+00 0.000000e+00 0.000000e+00
 0.000000e+00 8.578422e-01 1.421578e-01 0.000000e+00 0.000000e+00
 0.000000e+00 0.000000e+00 7.086616e-01 2.913383e-01 0.000000e+00
 0.000000e+00 0.000000e+00 0.000000e+00 8.020731e-01 1.979269e-01
 0.000000e+00 0.000000e+00 0.000000e+00 0.000000e+00 0.000000e+00
<ENDHMM>
~h "i"
<BEGINHMM>
<NUMSTATES> 5
<STATE> 2
<MEAN> 25
 2.654492e+00 -1.311287e+00 4.211957e+00 1.031737e+01 7.363241e+00 -7.818190e+00 -8.133080e+00 -4.118776e-02 -4.319673e+00 -3.288412e+00 2.190361e+00 -7.181534e+00 -3.660070e-01 3.091570e-01 1.105308e-01 6.987855e-01 -2.617075e-02 -2.095578e-01 -8.535513e-02 4.225150e-02 1.035835e-01 9.273814e-02 -6.177245e-01 -1.340055e-01 -6.735738e-01
<VARIANCE> 25
 9.055807e+00 2.221615e+01 4.023968e+01 3.469339e+01 3.130042e+01 5.845229e+01 3.530299e+01 3.560255e+01 2.534647e+01 2.961392e+01 3.426866e+01 3.982361e+01 7.305229e-01 1.573699e+00 1.682499e+00 3.715954e+00 3.457957e+00 5.174692e+00 3.769319e+00 1.894982e+00 1.623851e+00 1.603231e+00 1.801094e+00 1.832747e+00 9.803900e-01
<GCONST> 9.593449e+01
<STATE> 3
<MEAN> 25
 1.040355e+00 5.925972e-01 4.111045e+00 1.228553e+01 5.197094e+00 -4.806179e+00 -5.623554e+00 1.740185e+00 -1.202342e+00 -1.468542e+00 -8.033273e-01 -5.451035e+00 -3.123840e-01 6.431226e-01 -1.400569e-01 1.807749e-01 -2.728859e-01 6.737729e-01 6.786714e-01 6.700073e-01 6.308861e-01 4.517092e-01 -3.011861e-01 5.462904e-01 -9.313626e-01
<VARIANCE> 25
 1.220975e+01 3.572639e+01 3.852904e+01 3.166011e+01 2.382294e+01 4.563741e+01 3.074316e+01 5.583065e+01 2.703668e+01 3.290653e+01 2.974978e+01 3.257804e+01 6.596380e-01 1.685437e+00 1.207212e+00 2.266503e+00 1.716990e+00 3.550796e+00 3.205159e+00 1.533185e+00 1.120300e+00 9.178078e-01 1.202708e+00 1.624766e+00 6.772140e-01
<GCONST> 9.205859e+01
<STATE> 4
<MEAN> 25
 -2.260577e+00 5.323046e+00 -5.121685e-01 8.870470e+00 2.364984e+00 -2.006712e+00 -2.651080e+00 2.796235e+00 3.115754e+00 2.618721e+00 -3.358028e+00 6.800764e-01 -2.501985e-01 2.128185e-01 -3.428484e-01 -4.449123e-01 -1.348413e-01 4.638929e-01 2.266234e-01 6.589098e-02 3.854642e-01 2.413176e-01 -7.325289e-02 4.157074e-01 -4.287329e-01
<VARIANCE> 25
 1.742379e+01 3.434883e+01 3.165490e+01 3.117522e+01 1.948211e+01 4.486617e+01 3.468357e+01 4.044254e+01 2.464186e+01 1.825511e+01 2.030480e+01 1.703740e+01 4.639171e-01 8.928034e-01 1.295631e+00 1.234175e+00 1.338794e+00 2.478172e+00 2.612757e+00 1.564874e+00 1.378970e+00 9.862218e-01 1.251993e+00 1.104635e+00 2.940493e-01
<GCONST> 8.681351e+01
<TRANSP> 5
 0.000000e+00 1.000000e+00 0.000000e+00 0.000000e+00 0.000000e+00
 0.000000e+00 8.264006e-01 1.735994e-01 0.000000e+00 0.000000e+00
 0.000000e+00 0.000000e+00 7.081279e-01 2.918721e-01 0.000000e+00
 0.000000e+00 0.000000e+00 0.000000e+00 8.692786e-01 1.307214e-01
 0.000000e+00 0.000000e+00 0.000000e+00 0.000000e+00 0.000000e+00
<ENDHMM>
~h "j"
<BEGINHMM>
<NUMSTATES> 5
<STATE> 2
<MEAN> 25
 -3.203977e+00 -7.594444e+00 9.991221e+00 -5.827561e-01 9.328773e-01 1.725304e+00 1.918130e+00 5.257871e-01 1.837538e+00 -5.551913e-01 -4.784518e+00 -6.919372e+00 1.320412e+00 1.904927e-01 -6.232716e-01 1.426726e+00 9.716663e-01 -1.191822e+00 -1.026249e-01 -8.364702e-01 -7.346572e-01 -6.782889e-01 3.184051e-01 -3.710230e-01 4.797026e-01
<VARIANCE> 25
 5.661682e+01 1.408096e+02 6.531961e+01 1.013057e+02 4.400645e+01 3.664869e+01 3.407351e+01 3.869804e+01 1.168373e+01 1.660907e+01 1.941025e+01 1.009226e+01 6.142140e+00 1.473821e+01 8.028256e+00 8.805272e+00 6.996808e+00 4.323830e+00 3.472574e+00 2.294189e+00 1.308009e+00 2.605763e+00 1.308390e+00 1.196504e+00 5.915096e+00
<GCONST> 1.065446e+02
<STATE> 3
<MEAN> 25
 3.368041e+00 -1.163671e+00 3.764913e+00 7.451440e+00 3.586058e+00 -3.513519e+00 -1.882044e+00 -2.974263e+00 2.040097e-02 -2.713063e+00 -3.793299e+00 -6.723639e+00 -4.021870e-02 1.603557e-03 -4.639758e-01 2.814938e-01 5.768861e-02 1.509533e-01 6.041944e-02 -3.472583e-01 -7.682449e-01 5.638152e-01 9.115108e-01 7.132354e-01 -5.628957e-01
<VARIANCE> 25
 5.785732e+00 7.136665e+01 2.393694e+01 2.341066e+01 2.568891e+01 2.860347e+01 4.754231e+01 5.956921e+01 1.457965e+01 1.418336e+01 2.322915e+01 9.455817e+00 1.689700e+00 5.498540e+00 3.843917e+00 3.963663e+00 3.414903e+00 3.647914e+00 2.542938e+00 1.761725e+00 1.800492e+00 2.373381e+00 1.624310e+00 1.237014e+00 2.745689e+00
<GCONST> 9.570564e+01
<STATE> 4
<MEAN> 25
 -2.076773e-01 1.780470e+00 3.717999e+00 7.783462e+00 5.910579e+00 2.954791e+00 2.933817e+00 1.131459e+00 -9.161106e-02 2.330606e+00 -1.581949e+00 -1.771505e+00 -2.595796e-01 -1.015801e+00 3.309394e-01 -8.914970e-01 9.869096e-02 -1.750676e-01 3.690668e-02 2.612675e-01 -4.830802e-01 -2.565134e-01 9.215744e-01 2.853718e-01 7.894542e-01
<VARIANCE> 25
 1.894207e+01 1.022726e+02 5.585107e+01 4.307515e+01 4.601889e+01 5.694876e+01 3.419793e+01 3.824996e+01 1.884795e+01 2.900571e+01 2.571397e+01 1.462044e+01 3.465827e+00 1.730212e+01 7.822575e+00 5.353377e+00 5.001657e+00 1.210770e+01 4.492644e+00 4.174996e+00 3.721789e+00 5.378787e+00 4.208671e+00 2.302166e+00 1.552670e+01
<GCONST> 1.114564e+02
<TRANSP> 5
 0.000000e+00 1.000000e+00 0.000000e+00 0.000000e+00 0.000000e+00
 0.000000e+00 7.981603e-01 2.018398e-01 0.000000e+00 0.000000e+00
 0.000000e+00 0.000000e+00 6.742099e-01 3.257901e-01 0.000000e+00
 0.000000e+00 0.000000e+00 0.000000e+00 8.700579e-01 1.299421e-01
 0.000000e+00 0.000000e+00 0.000000e+00 0.000000e+00 0.000000e+00
<ENDHMM>
~h "k"
<BEGINHMM>
<NUMSTATES> 5
<STATE> 2
<MEAN> 25
 -3.480995e+00 -1.881257e+00 -1.031673e+00 -1.029256e+00 1.018666e+00 -1.753390e+00 1.663958e+00 -1.437753e-01 1.034739e+00 1.375509e+00 -4.445594e-01 1.947852e+00 1.524398e-01 -4.704714e-01 4.674964e-02 -4.842448e-01 1.076478e-01 -9.052657e-01 2.762699e-02 -1.632085e-01 -4.560416e-01 7.952119e-03 -1.789879e-01 -1.598852e-01 1.855580e+00
<VARIANCE> 25
 4.429099e+01 3.488251e+01 5.446627e+01 4.871609e+01 3.935502e+01 5.642633e+01 3.574323e+01 4.558079e+01 4.829174e+01 2.512606e+01 3.130446e+01 3.198866e+01 3.210623e+00 4.373489e+00 4.707373e+00 5.431288e+00 3.545579e+00 7.191998e+00 4.045511e+00 4.168127e+00 4.877220e+00 2.469844e+00 4.614447e+00 3.088159e+00 1.015407e+01
<GCONST> 1.096954e+02
<STATE> 3
<MEAN> 25
 -1.443233e+00 -2.425338e+00 -4.754896e-01 -1.652318e+00 4.561971e-01 -3.598982e+00 1.370651e+00 -7.898020e-01 -9.087619e-01 6.114582e-01 -8.289691e-01 2.913722e-01 4.646147e-01 -7.902236e-02 1.678409e-01 1.940110e-01 -1.031313e-01 -2.093254e-01 -1.113817e-01 -4.903431e-02 -2.606715e-01 -3.483544e-01 1.209126e-01 -4.927931e-01 9.157681e-01
<VARIANCE> 25
 5.740283e+01 3.599306e+01 7.569221e+01 5.786334e+01 5.932220e+01 7.291299e+01 4.674660e+01 5.112352e+01 5.695902e+01 3.213318e+01 3.741729e+01 3.491157e+01 3.828387e+00 4.423477e+00 4.578664e+00 5.309699e+00 3.976713e+00 8.158731e+00 4.098560e+00 4.535253e+00 5.581093e+00 3.056308e+00 4.276218e+00 3.933276e+00 7.952805e+00
<GCONST> 1.129585e+02
<STATE> 4
<MEAN> 25
 1.362295e+00 -2.580448e+00 7.127342e-01 -4.402153e-01 -2.579283e+00 -2.191231e+00 6.428622e-01 -8.908602e-01 -2.931795e+00 -9.753080e-01 -1.364577e-01 -2.758325e+00 1.572684e-01 1.471341e-02 2.399510e-02 9.877365e-02 -1.985163e-02 2.692280e-01 -1.888135e-01 -3.520460e-02 -3.177192e-02 -2.096051e-01 9.268872e-02 -2.342988e-01 -1.187245e-01
<VARIANCE> 25
 6.749969e+01 2.947475e+01 7.658028e+01 4.882622e+01 6.796147e+01 5.941771e+01 6.132269e+01 5.170258e+01 5.937035e+01 3.840050e+01 3.197328e+01 4.150346e+01 3.162303e+00 2.547014e+00 3.216276e+00 3.964593e+00 3.862710e+00 5.781691e+00 3.357689e+00 3.750005e+00 5.045612e+00 3.218375e+00 2.721321e+00 3.183211e+00 4.113503e+00
<GCONST> 1.096885e+02
<TRANSP> 5
 0.000000e+00 1.000000e+00 0.000000e+00 0.000000e+00 0.000000e+00
 0.000000e+00 6.980945e-01 3.019055e-01 0.000000e+00 0.000000e+00
 0.000000e+00 0.000000e+00 6.595274e-01 3.404727e-01 0.000000e+00
 0.000000e+00 0.000000e+00 0.000000e+00 8.050763e-01 1.949238e-01
 0.000000e+00 0.000000e+00 0.000000e+00 0.000000e+00 0.000000e+00
<ENDHMM>
~h "l"
<BEGINHMM>
<NUMSTATES> 5
<STATE> 2
<MEAN> 25
 8.749666e+00 3.858010e+00 -4.346776e+00 -1.064227e+01 -3.854008e+00 3.377858e+00 -2.306707e+00 -7.479382e-01 -5.829940e+00 -2.891797e-01 -6.978495e-02 -4.284936e+00 -3.031791e-02 3.435019e-01 5.340564e-02 -1.481856e-02 -5.066799e-02 8.083761e-02 -2.040007e-03 6.596097e-02 -1.526851e-01 4.778728e-03 -7.947846e-02 2.068099e-01 -3.945739e-01
<VARIANCE> 25
 2.591907e+01 3.260927e+01 2.251602e+01 9.732367e+01 3.552932e+01 5.168407e+01 3.295752e+01 3.583497e+01 5.030256e+01 3.769447e+01 2.776450e+01 3.802477e+01 8.921011e-01 1.415580e+00 1.254923e+00 3.884574e+00 1.900682e+00 2.973295e+00 1.812314e+00 2.400051e+00 3.065309e+00 2.537434e+00 2.212220e+00 1.962448e+00 7.684268e-01
<GCONST> 9.775349e+01
<STATE> 3
<MEAN> 25
 5.990195e+00 3.489230e+00 -3.209276e+00 -5.431385e+00 -1.952492e+00 3.160007e+00 -1.114357e+00 -5.036541e-01 -3.716439e+00 -1.166959e-01 -3.693848e-01 -2.750228e+00 -3.356665e-01 -4.443075e-02 2.761715e-01 6.002445e-01 7.054447e-02 -9.925595e-02 2.331536e-02 -2.272483e-02 3.053422e-01 -3.289345e-02 2.057214e-02 2.435400e-01 -4.270976e-01
<VARIANCE> 25
 3.184171e+01 3.733243e+01 2.672384e+01 7.229809e+01 3.908511e+01 4.711324e+01 3.383656e+01 3.810186e+01 5.033864e+01 3.989085e+01 3.187442e+01 4.058741e+01 9.113509e-01 1.594429e+00 1.199517e+00 3.067816e+00 2.097780e+00 2.524522e+00 1.879683e+00 2.429923e+00 3.140800e+00 2.693597e+00 2.488226e+00 2.065594e+00 7.198812e-01
<GCONST> 9.835035e+01
<STATE> 4
<MEAN> 25
 -1.037497e-01 8.680964e-01 -1.621286e+00 4.259207e-01 1.231381e+00 2.604569e+00 8.195503e-01 6.662159e-01 1.369174e+00 8.863690e-01 1.012530e+00 5.628074e-01 -2.401979e-01 -1.351358e-01 1.784329e-01 2.811791e-01 4.610895e-02 -1.885346e-01 4.398065e-03 -4.869461e-02 2.397527e-01 -4.482036e-03 -1.592656e-04 9.654523e-02 -1.833843e-01
<VARIANCE> 25
 4.539010e+01 3.241414e+01 1.845646e+01 3.752837e+01 3.001376e+01 3.473932e+01 2.712562e+01 3.395208e+01 5.021056e+01 2.681482e+01 2.804668e+01 3.581274e+01 6.268702e-01 1.053964e+00 9.465966e-01 1.851779e+00 1.543051e+00 1.851006e+00 1.571700e+00 1.975357e+00 2.180906e+00 2.164838e+00 2.052157e+00 1.852876e+00 5.140131e-01
<GCONST> 9.222504e+01
<TRANSP> 5
 0.000000e+00 1.000000e+00 0.000000e+00 0.000000e+00 0.000000e+00
 0.000000e+00 7.997985e-01 2.002015e-01 0.000000e+00 0.000000e+00
 0.000000e+00 0.000000e+00 6.970546e-01 3.029453e-01 0.000000e+00
 0.000000e+00 0.000000e+00 0.000000e+00 8.632501e-01 1.367499e-01
 0.000000e+00 0.000000e+00 0.000000e+00 0.000000e+00 0.000000e+00
<ENDHMM>
~h "m"
<BEGINHMM>
<NUMSTATES> 5
<STATE> 2
<MEAN> 25
 2.789916e+00 2.011015e+00 3.117572e+00 3.127607e+00 1.124817e+00 -3.524239e-01 -3.330588e-01 -6.295902e+00 -4.180893e+00 1.892528e-01 -6.568589e-01 -2.507917e+00 7.249939e-01 4.612637e-01 5.560086e-01 6.290156e-01 2.322577e-01 -4.576392e-01 -2.476954e-01 -8.348912e-01 -7.586517e-01 3.028944e-02 -2.373951e-01 -2.821710e-01 6.428295e-02
<VARIANCE> 25
 6.000061e+01 2.361903e+01 4.515349e+01 3.823535e+01 2.144939e+01 3.562672e+01 2.562582e+01 6.091994e+01 5.863909e+01 2.459646e+01 2.526441e+01 3.279763e+01 3.350637e+00 1.720941e+00 2.677059e+00 2.716971e+00 1.837696e+00 2.891265e+00 2.274974e+00 4.654017e+00 3.820350e+00 2.154541e+00 2.300165e+00 2.380603e+00 1.637740e+00
<GCONST> 1.007106e+02
<STATE> 3
<MEAN> 25
 5.656953e+00 2.989406e+00 4.808487e+00 5.288671e+00 1.463881e+00 -1.454247e+00 -1.325409e+00 -9.106969e+00 -7.570423e+00 -1.604500e-01 -1.326317e+00 -4.220783e+00 2.065508e-01 6.228502e-02 7.110464e-02 3.391355e-01 1.527828e-01 -1.907945e-01 -1.262226e-02 -2.807952e-03 -1.919455e-01 -1.282338e-01 -1.439807e-01 -1.707538e-01 1.752114e-01
<VARIANCE> 25
 3.372282e+01 1.936375e+01 4.149482e+01 3.334802e+01 2.187671e+01 4.842071e+01 3.207581e+01 7.634942e+01 6.541425e+01 2.633173e+01 3.538627e+01 2.787336e+01 2.086099e+00 1.320497e+00 2.446046e+00 2.860374e+00 2.203900e+00 2.601860e+00 2.233031e+00 5.303847e+00 3.857175e+00 2.342826e+00 2.186174e+00 2.135269e+00 1.214838e+00
<GCONST> 9.988898e+01
<STATE> 4
<MEAN> 25
 4.855588e+00 1.703854e+00 7.075013e+00 2.767607e+00 -2.258125e+00 -2.975477e+00 -3.296551e+00 -5.406531e+00 -6.571887e+00 -2.540390e+00 -2.028176e+00 -5.808897e+00 -1.997425e-01 -2.785219e-01 -1.856299e-01 -3.606205e-01 -1.790810e-01 -5.453072e-02 2.017966e-01 8.763646e-01 4.387634e-01 -2.116777e-01 -1.033171e-01 9.968682e-02 2.216219e-01
<VARIANCE> 25
 4.158702e+01 4.287914e+01 7.128037e+01 5.465401e+01 6.030390e+01 5.888055e+01 4.840588e+01 1.209917e+02 5.859689e+01 3.057583e+01 3.520288e+01 3.081869e+01 1.786202e+00 1.765470e+00 2.861903e+00 2.978129e+00 3.732862e+00 2.832807e+00 2.660180e+00 5.462084e+00 3.286026e+00 2.480989e+00 2.130220e+00 2.362215e+00 1.585974e+00
<GCONST> 1.055325e+02
<TRANSP> 5
 0.000000e+00 1.000000e+00 0.000000e+00 0.000000e+00 0.000000e+00
 0.000000e+00 6.466737e-01 3.533264e-01 0.000000e+00 0.000000e+00
 0.000000e+00 0.000000e+00 6.635248e-01 3.364752e-01 0.000000e+00
 0.000000e+00 0.000000e+00 0.000000e+00 8.609132e-01 1.390867e-01
 0.000000e+00 0.000000e+00 0.000000e+00 0.000000e+00 0.000000e+00
<ENDHMM>
~h "n"
<BEGINHMM>
<NUMSTATES> 5
<STATE> 2
<MEAN> 25
 3.898195e+00 7.461376e-01 2.326938e+00 3.353194e+00 -7.897778e-01 -2.532693e+00 -8.265375e-01 -1.835862e+00 -3.706927e+00 -2.127686e+00 -5.559131e+00 -3.663765e+00 -1.959879e-01 3.916077e-01 -1.003852e-01 4.297861e-01 3.004620e-01 1.359062e-01 2.788728e-02 -2.168887e-02 2.841530e-01 -6.060871e-02 -4.154409e-02 3.027813e-01 -6.044734e-01
<VARIANCE> 25
 2.705973e+01 3.445400e+01 4.316343e+01 4.080756e+01 3.115136e+01 2.362412e+01 3.209390e+01 7.477280e+01 4.568726e+01 3.154515e+01 3.289647e+01 3.594814e+01 1.075152e+00 1.875181e+00 1.692354e+00 2.899675e+00 2.230110e+00 2.181995e+00 2.074124e+00 5.877120e+00 2.447282e+00 2.701950e+00 2.322326e+00 1.657514e+00 1.752108e+00
<GCONST> 9.916383e+01
<STATE> 3
<MEAN> 25
 2.263979e+00 2.005318e+00 1.068896e+00 4.276324e+00 1.201516e+00 -9.670656e-01 -2.317647e-01 -8.117576e-01 -1.509064e+00 -2.028704e+00 -4.441375e+00 -1.994343e+00 -3.992209e-01 9.614798e-02 -1.901974e-01 1.896512e-01 3.959821e-01 4.110200e-01 2.816451e-01 1.812979e-01 4.338513e-01 1.513418e-01 2.832685e-01 3.278125e-01 -5.240782e-01
<VARIANCE> 25
 2.636618e+01 3.161748e+01 3.729792e+01 3.572301e+01 2.872399e+01 2.469917e+01 3.335973e+01 6.282097e+01 4.487194e+01 3.505339e+01 3.586016e+01 3.148684e+01 1.061428e+00 1.622821e+00 1.389604e+00 2.074535e+00 1.826509e+00 2.069181e+00 2.159625e+00 4.314850e+00 2.270663e+00 2.586198e+00 2.297097e+00 1.838550e+00 1.263403e+00
<GCONST> 9.707825e+01
<STATE> 4
<MEAN> 25
 -2.222988e+00 -9.526235e-01 -2.257041e+00 2.197741e+00 3.017026e+00 1.461272e+00 2.755121e+00 1.892720e+00 3.439268e+00 1.009961e+00 1.077990e+00 2.574651e+00 -1.132152e-01 -2.407104e-02 -8.599912e-02 -5.272842e-02 8.795518e-02 6.208882e-02 1.187275e-01 4.319639e-02 1.115049e-01 1.247549e-01 1.181903e-01 7.661550e-02 -1.012423e-01
<VARIANCE> 25
 1.756548e+01 1.954174e+01 2.169217e+01 2.435287e+01 1.567753e+01 1.830665e+01 1.971164e+01 3.151267e+01 3.441233e+01 2.320304e+01 3.101098e+01 2.482594e+01 6.446321e-01 7.080309e-01 8.645241e-01 1.175455e+00 1.131186e+00 1.439800e+00 1.629480e+00 2.064914e+00 2.008592e+00 1.963133e+00 1.652680e+00 1.433457e+00 4.465395e-01
<GCONST> 8.583611e+01
<TRANSP> 5
 0.000000e+00 1.000000e+00 0.000000e+00 0.000000e+00 0.000000e+00
 0.000000e+00 6.635349e-01 3.364650e-01 0.000000e+00 0.000000e+00
 0.000000e+00 0.000000e+00 6.277145e-01 3.722855e-01 0.000000e+00
 0.000000e+00 0.000000e+00 0.000000e+00 9.010572e-01 9.894274e-02
 0.000000e+00 0.000000e+00 0.000000e+00 0.000000e+00 0.000000e+00
<ENDHMM>
~h "p"
<BEGINHMM>
<NUMSTATES> 5
<STATE> 2
<MEAN> 25
 1.871086e+00 1.167397e+00 -1.467015e+00 -3.197235e+00 -2.396992e-01 -7.369567e-01 6.015632e-01 3.013753e-01 6.337376e-01 -8.311786e-01 -1.290681e+00 -2.578371e+00 -1.486640e-01 -7.155491e-02 2.866932e-01 1.078712e-01 -1.077713e-01 -4.061226e-01 3.038055e-01 2.400086e-01 -1.551658e-02 -8.953381e-02 -2.577369e-01 4.513209e-02 4.966478e-01
<VARIANCE> 25
 3.725466e+01 3.371924e+01 4.280417e+01 5.758041e+01 5.582754e+01 5.558516e+01 4.419658e+01 2.411983e+01 4.063534e+01 3.141479e+01 3.386384e+01 3.187008e+01 3.816023e+00 3.653025e+00 3.811800e+00 6.002306e+00 4.612726e+00 5.913888e+00 4.413343e+00 2.782506e+00 4.542715e+00 3.235873e+00 3.904064e+00 2.581087e+00 8.140385e+00
<GCONST> 1.087144e+02
<STATE> 3
<MEAN> 25
 9.678893e-01 7.873455e-01 -4.629050e-01 -1.546041e+00 1.883212e-01 1.674286e-01 4.591814e-01 9.011140e-02 1.900154e-01 -7.700087e-01 -1.698739e+00 -1.941064e+00 -4.032064e-01 -3.693141e-01 3.014356e-01 5.663491e-01 8.474135e-02 2.294893e-01 -5.374509e-02 -3.898834e-02 -1.016036e-01 1.337555e-01 6.563420e-02 3.457471e-01 4.430040e-02
<VARIANCE> 25
 4.005893e+01 2.638533e+01 5.294226e+01 4.115656e+01 4.113024e+01 3.775800e+01 5.126933e+01 2.889919e+01 4.420238e+01 3.768528e+01 3.703277e+01 2.806558e+01 5.502406e+00 3.275611e+00 3.818867e+00 4.995867e+00 3.778562e+00 4.260642e+00 5.113234e+00 3.377872e+00 5.039737e+00 3.664787e+00 3.601590e+00 2.892536e+00 7.734013e+00
<GCONST> 1.083833e+02
<STATE> 4
<MEAN> 25
 2.989644e-01 -4.373188e-01 -4.901036e-01 -1.032589e+00 1.339454e-01 1.395820e+00 -3.661665e-01 -7.406489e-01 6.478233e-01 -2.690407e-01 -1.024756e+00 -1.014429e+00 -6.183451e-02 -2.863211e-01 1.481451e-01 1.106911e-02 -1.997616e-01 2.121773e-01 1.922441e-02 -1.885631e-01 -1.638544e-01 9.175320e-02 1.349382e-01 1.431042e-01 3.343622e-01
<VARIANCE> 25
 4.056702e+01 2.310582e+01 4.365704e+01 3.488499e+01 2.990785e+01 2.868940e+01 5.591818e+01 3.351376e+01 3.700198e+01 3.244942e+01 3.173728e+01 2.751998e+01 3.540346e+00 2.332392e+00 3.635182e+00 2.439219e+00 3.158234e+00 2.444179e+00 4.595336e+00 3.058356e+00 3.651208e+00 3.338912e+00 2.547902e+00 2.349400e+00 3.372246e+00
<GCONST> 1.027577e+02
<TRANSP> 5
 0.000000e+00 1.000000e+00 0.000000e+00 0.000000e+00 0.000000e+00
 0.000000e+00 7.259474e-01 2.740526e-01 0.000000e+00 0.000000e+00
 0.000000e+00 0.000000e+00 6.672800e-01 3.327200e-01 0.000000e+00
 0.000000e+00 0.000000e+00 0.000000e+00 7.369153e-01 2.630846e-01
 0.000000e+00 0.000000e+00 0.000000e+00 0.000000e+00 0.000000e+00
<ENDHMM>
~h "r"
<BEGINHMM>
<NUMSTATES> 5
<STATE> 2
<MEAN> 25
 5.116200e+00 -1.366390e+00 -2.857921e+00 3.825073e+00 4.733885e-01 -3.539527e+00 -5.410390e+00 5.026005e-01 -4.866073e-02 -3.739340e+00 4.621566e-01 1.416842e+00 4.466820e-01 -1.323304e-01 7.760006e-02 3.271569e-01 -3.080746e-01 -6.115991e-01 -5.747867e-01 2.216614e-01 -2.831467e-01 -2.656239e-01 -8.572885e-02 -2.207537e-01 5.433676e-01
<VARIANCE> 25
 5.862924e+01 3.340469e+01 7.587858e+01 3.740484e+01 5.005198e+01 7.960914e+01 7.933109e+01 6.834502e+01 5.409449e+01 6.217099e+01 2.863246e+01 4.040025e+01 3.819628e+00 3.142596e+00 6.435400e+00 2.775781e+00 4.882481e+00 4.665431e+00 6.263765e+00 6.004107e+00 6.206827e+00 5.964602e+00 3.099246e+00 3.476903e+00 4.133516e+00
<GCONST> 1.130691e+02
<STATE> 3
<MEAN> 25
 4.838266e+00 -1.271946e+00 -1.414418e+00 4.239783e+00 -5.559961e-01 -4.031991e+00 -5.132127e+00 7.447014e-01 -8.039404e-01 -3.512694e+00 1.675469e-01 1.161110e+00 -1.259385e-01 -8.917600e-02 5.086296e-01 -5.348270e-02 -4.771386e-01 -8.933841e-02 1.860538e-01 -2.198166e-02 -2.927387e-01 1.327747e-01 -2.906041e-02 -2.270404e-01 6.026725e-02
<VARIANCE> 25
 6.639464e+01 3.967637e+01 7.600169e+01 4.084418e+01 5.670972e+01 7.726452e+01 7.447144e+01 5.998193e+01 5.205731e+01 6.651673e+01 3.462587e+01 3.830787e+01 3.703153e+00 3.083864e+00 5.837834e+00 3.482496e+00 5.238326e+00 5.691223e+00 6.186090e+00 5.793069e+00 5.603435e+00 5.644134e+00 3.258305e+00 3.428450e+00 3.703746e+00
<GCONST> 1.135915e+02
<STATE> 4
<MEAN> 25
 1.934639e+00 -5.172064e-01 2.484134e+00 3.010596e+00 -2.100790e+00 -2.892596e+00 -2.242003e+00 -1.071123e+00 -1.516855e+00 -2.952126e+00 5.255172e-01 1.406681e-01 -1.961904e-01 4.872360e-02 2.169806e-01 -1.881100e-01 -9.930531e-02 1.917215e-01 1.933615e-01 -1.555147e-01 -7.702142e-03 1.315022e-01 2.235912e-02 -1.624955e-01 -1.198860e-01
<VARIANCE> 25
 1.018179e+02 3.463148e+01 1.043318e+02 3.728701e+01 6.836402e+01 5.449989e+01 7.073158e+01 5.353278e+01 4.234965e+01 5.422654e+01 3.649224e+01 3.514191e+01 3.920911e+00 2.388273e+00 4.513312e+00 3.661865e+00 5.216012e+00 4.827900e+00 4.649875e+00 4.695529e+00 4.432200e+00 4.377007e+00 3.119641e+00 3.333781e+00 2.725086e+00
<GCONST> 1.114000e+02
<TRANSP> 5
 0.000000e+00 1.000000e+00 0.000000e+00 0.000000e+00 0.000000e+00
 0.000000e+00 6.536311e-01 3.463689e-01 0.000000e+00 0.000000e+00
 0.000000e+00 0.000000e+00 6.278625e-01 3.721375e-01 0.000000e+00
 0.000000e+00 0.000000e+00 0.000000e+00 7.532122e-01 2.467878e-01
 0.000000e+00 0.000000e+00 0.000000e+00 0.000000e+00 0.000000e+00
<ENDHMM>
~h "s"
<BEGINHMM>
<NUMSTATES> 5
<STATE> 2
<MEAN> 25
 -1.192325e+01 3.104166e+00 -5.951163e-01 -4.534416e+00 6.848991e+00 -5.524251e+00 4.239304e+00 1.989757e+00 -6.214738e-02 5.480352e-01 -1.287904e+00 3.615691e+00 -1.798144e+00 6.613112e-01 -2.991915e-01 -5.542089e-01 6.473321e-01 -4.332077e-01 7.928571e-01 6.728447e-02 -3.032526e-02 -3.759142e-01 1.988851e-01 3.917257e-01 9.616519e-01
<VARIANCE> 25
 1.136403e+02 4.335836e+01 5.372268e+01 3.597061e+01 4.218237e+01 5.799003e+01 3.629924e+01 4.359678e+01 2.875969e+01 2.383391e+01 2.646464e+01 2.196607e+01 7.347148e+00 3.487193e+00 3.346297e+00 2.821102e+00 3.609472e+00 3.750303e+00 4.118293e+00 2.764477e+00 3.102015e+00 2.146823e+00 2.022861e+00 2.077149e+00 3.314632e+00
<GCONST> 1.051364e+02
<STATE> 3
<MEAN> 25
 -1.375412e+01 4.925921e+00 -2.308902e+00 -4.739280e+00 6.370811e+00 -5.374859e+00 5.261839e+00 1.136840e+00 7.964687e-01 -9.698493e-01 -4.950081e-01 3.869962e+00 -9.059361e-02 3.078292e-01 -2.080065e-01 2.479780e-03 -1.333419e-01 8.323289e-03 2.893372e-02 -4.166831e-02 1.990762e-01 -1.598715e-01 1.209902e-01 -8.572978e-02 4.237456e-01
<VARIANCE> 25
 1.237639e+02 4.071333e+01 5.982994e+01 3.195945e+01 5.565002e+01 5.758653e+01 3.947239e+01 3.868476e+01 2.424348e+01 2.643874e+01 2.030203e+01 2.227396e+01 8.581114e+00 2.997908e+00 3.086285e+00 2.377913e+00 3.108700e+00 3.143011e+00 3.857878e+00 2.951372e+00 2.467940e+00 2.265093e+00 1.735387e+00 2.034143e+00 2.445022e+00
<GCONST> 1.038372e+02
<STATE> 4
<MEAN> 25
 -1.229425e+01 4.918280e+00 -3.949239e+00 -3.111158e+00 5.905371e+00 -6.267104e+00 5.553797e+00 1.765466e-01 2.002821e+00 -6.207863e-01 -7.316784e-01 3.294505e+00 1.067653e+00 -4.244801e-01 1.641703e-01 1.411704e-01 -5.805649e-01 2.235315e-01 -3.615637e-01 3.066093e-02 -5.661644e-02 1.036888e-01 -2.268004e-02 -3.457573e-01 -1.455855e-01
<VARIANCE> 25
 1.213348e+02 3.590006e+01 4.695813e+01 2.629952e+01 5.465447e+01 4.407125e+01 3.641723e+01 2.862810e+01 2.708426e+01 2.555590e+01 1.868412e+01 2.781836e+01 5.106899e+00 2.304232e+00 2.560759e+00 1.625305e+00 2.352513e+00 2.828724e+00 2.670253e+00 2.959037e+00 2.223400e+00 2.313827e+00 1.773677e+00 2.089892e+00 2.867654e+00
<GCONST> 1.008298e+02
<TRANSP> 5
 0.000000e+00 1.000000e+00 0.000000e+00 0.000000e+00 0.000000e+00
 0.000000e+00 7.957172e-01 2.042828e-01 0.000000e+00 0.000000e+00
 0.000000e+00 0.000000e+00 7.108447e-01 2.891553e-01 0.000000e+00
 0.000000e+00 0.000000e+00 0.000000e+00 8.794518e-01 1.205482e-01
 0.000000e+00 0.000000e+00 0.000000e+00 0.000000e+00 0.000000e+00
<ENDHMM>
~h "t"
<BEGINHMM>
<NUMSTATES> 5
<STATE> 2
<MEAN> 25
 -4.641659e+00 -1.744820e+00 2.181498e+00 -2.164905e+00 -3.190344e-01 -1.143652e+00 1.479365e+00 -6.110898e-01 3.345238e-01 1.276244e-01 2.547211e-01 1.967725e+00 -7.020801e-01 -3.110819e-01 1.973784e-01 -5.320377e-01 -2.382334e-01 -2.775337e-01 3.303179e-01 3.805091e-01 4.378447e-02 1.396303e-01 2.082782e-01 4.722013e-01 6.993372e-01
<VARIANCE> 25
 5.689388e+01 3.166840e+01 4.109605e+01 4.057960e+01 3.166381e+01 4.017916e+01 3.771394e+01 4.031290e+01 3.908661e+01 2.984869e+01 2.944019e+01 3.255629e+01 6.048476e+00 2.841147e+00 4.076074e+00 4.154115e+00 3.258587e+00 4.339369e+00 3.835541e+00 3.625092e+00 4.452645e+00 2.970459e+00 3.043380e+00 2.856438e+00 1.136109e+01
<GCONST> 1.073945e+02
<STATE> 3
<MEAN> 25
 -4.865812e+00 -1.818606e+00 2.697638e+00 -2.218603e+00 -9.384634e-01 -2.383290e+00 2.040878e+00 7.315265e-01 3.183132e-01 4.187057e-01 7.603921e-01 2.650514e+00 5.404638e-01 8.387885e-02 -8.741956e-02 4.188457e-01 -6.470027e-02 -1.125785e-01 -1.347857e-03 4.450815e-01 1.177908e-01 8.218384e-02 5.009239e-03 -4.414004e-02 -3.499103e-01
<VARIANCE> 25
 6.279543e+01 2.673179e+01 4.462210e+01 3.900290e+01 3.215722e+01 4.623058e+01 4.167604e+01 4.069562e+01 3.340396e+01 3.081778e+01 2.698795e+01 2.706157e+01 5.651482e+00 2.389819e+00 3.313396e+00 3.369468e+00 2.838071e+00 5.019354e+00 3.732731e+00 3.013089e+00 3.446574e+00 2.738477e+00 2.449197e+00 2.408204e+00 6.954838e+00
<GCONST> 1.051564e+02
<STATE> 4
<MEAN> 25
 -3.621925e+00 -1.604949e+00 -2.583477e-01 4.902201e-01 1.269877e+00 9.537011e-01 3.281429e+00 1.113303e+00 2.346915e+00 1.907317e+00 8.725602e-01 2.558757e+00 4.494534e-01 9.913974e-02 -1.718085e-01 2.604750e-01 3.662571e-02 1.131052e-01 -1.578566e-01 8.396890e-02 -1.718961e-02 -3.848126e-02 -3.455079e-02 -1.556677e-01 -1.956968e-01
<VARIANCE> 25
 3.063270e+01 1.641836e+01 2.450558e+01 1.889479e+01 2.587208e+01 3.496258e+01 3.483537e+01 2.353571e+01 2.238390e+01 2.278233e+01 1.703989e+01 1.932442e+01 2.679537e+00 1.217279e+00 1.652931e+00 1.480375e+00 1.870455e+00 2.712018e+00 2.576226e+00 2.309150e+00 2.378035e+00 1.873763e+00 1.654041e+00 1.959289e+00 2.192727e+00
<GCONST> 9.279240e+01
<TRANSP> 5
 0.000000e+00 1.000000e+00 0.000000e+00 0.000000e+00 0.000000e+00
 0.000000e+00 6.656960e-01 3.343041e-01 0.000000e+00 0.000000e+00
 0.000000e+00 0.000000e+00 5.759073e-01 4.240926e-01 0.000000e+00
 0.000000e+00 0.000000e+00 0.000000e+00 8.281033e-01 1.718967e-01
 0.000000e+00 0.000000e+00 0.000000e+00 0.000000e+00 0.000000e+00
<ENDHMM>
~h "u"
<BEGINHMM>
<NUMSTATES> 5
<STATE> 2
<MEAN> 25
 -2.889211e-01 2.255959e+00 1.288982e+00 -1.986884e+00 1.171521e-01 -4.977000e-01 2.035292e+00 -2.772177e-03 -1.278035e+00 -1.643399e-02 -2.613448e+00 -2.830503e+00 1.945421e-02 -3.673337e-01 -2.715902e-02 -3.313568e-01 -3.435678e-01 -3.802695e-02 -1.783484e-01 -2.443306e-01 -7.569043e-02 9.940068e-02 3.513120e-01 3.354809e-01 2.244615e-01
<VARIANCE> 25
 5.647606e+01 1.012181e+02 2.530205e+01 2.602188e+01 4.304876e+01 8.639427e+01 4.060454e+01 3.351179e+01 2.182917e+01 2.737944e+01 4.579253e+01 2.318835e+01 3.429527e+00 8.472389e+00 2.581492e+00 4.037066e+00 4.896043e+00 7.747484e+00 4.492274e+00 4.588892e+00 2.158668e+00 2.227758e+00 4.842630e+00 2.586886e+00 1.120537e+01
<GCONST> 1.087754e+02
<STATE> 3
<MEAN> 25
 1.239800e+00 -3.860872e+00 3.748589e+00 -4.916211e+00 -2.341168e+00 -2.417429e+00 -1.877030e+00 -1.594809e+00 2.305948e-02 -4.114962e-01 2.857234e+00 -9.245305e-01 8.588098e-01 -5.563644e-01 -2.463794e-01 -6.828839e-01 -7.202611e-01 -5.175616e-01 -2.057472e-01 -3.463150e-01 4.358587e-01 -3.891723e-01 7.499166e-01 2.080055e-01 1.508530e+00
<VARIANCE> 25
 3.213779e+01 5.195807e+01 2.676706e+01 2.438845e+01 3.378745e+01 4.880301e+01 3.042733e+01 3.261163e+01 1.938751e+01 2.519023e+01 3.560361e+01 1.739044e+01 2.107890e+00 4.478035e+00 2.439317e+00 2.437264e+00 4.197175e+00 4.658327e+00 3.333972e+00 4.860880e+00 1.872008e+00 2.759640e+00 4.730692e+00 1.790617e+00 6.656689e+00
<GCONST> 1.022363e+02
<STATE> 4
<MEAN> 25
 6.912096e+00 -4.042339e+00 1.156096e+00 -4.936213e+00 -1.364779e+00 -4.460194e+00 -2.554433e+00 -8.899861e-02 7.921009e-01 -2.910619e+00 4.820649e+00 -1.596332e+00 8.605058e-02 1.247245e-01 -3.158332e-01 1.682790e-03 -6.152954e-02 1.652578e-01 9.798014e-02 -4.582401e-02 1.530676e-01 4.002252e-02 -2.075006e-01 1.393834e-01 -1.437684e-01
<VARIANCE> 25
 3.654229e+01 7.257181e+01 4.496952e+01 2.959194e+01 4.229566e+01 3.651043e+01 3.938522e+01 3.749755e+01 3.061165e+01 4.084124e+01 3.774500e+01 1.968196e+01 1.795760e+00 2.894075e+00 2.705238e+00 2.130252e+00 3.367108e+00 3.366970e+00 2.829665e+00 3.369839e+00 1.656032e+00 2.562312e+00 3.273870e+00 1.814854e+00 2.205998e+00
<GCONST> 1.015062e+02
<TRANSP> 5
 0.000000e+00 1.000000e+00 0.000000e+00 0.000000e+00 0.000000e+00
 0.000000e+00 8.470280e-01 1.529720e-01 0.000000e+00 0.000000e+00
 0.000000e+00 0.000000e+00 6.456380e-01 3.543620e-01 0.000000e+00
 0.000000e+00 0.000000e+00 0.000000e+00 8.933530e-01 1.066470e-01
 0.000000e+00 0.000000e+00 0.000000e+00 0.000000e+00 0.000000e+00
<ENDHMM>
~h "v"
<BEGINHMM>
<NUMSTATES> 5
<STATE> 2
<MEAN> 25
 1.713680e+00 -9.646529e-01 -1.046827e+00 5.082938e-01 2.208186e-01 1.418224e+00 -1.238503e+00 4.657742e-02 1.818165e+00 -6.221860e-01 1.033421e+00 -2.468836e+00 -4.383717e-01 -2.375647e-01 -2.329332e-01 -8.494444e-02 5.545269e-01 4.301458e-01 4.951840e-01 1.881824e-02 2.911672e-01 2.269649e-01 8.726415e-02 -1.048554e-01 2.937962e-02
<VARIANCE> 25
 4.747144e+01 2.165994e+01 2.765051e+01 4.141688e+01 2.750632e+01 7.487220e+01 2.014677e+01 2.528178e+01 2.058962e+01 1.922895e+01 3.215894e+01 5.364727e+01 1.657315e+00 1.057493e+00 8.052807e-01 1.059369e+00 1.834088e+00 1.780525e+00 1.722317e+00 1.964273e+00 1.507393e+00 1.504806e+00 1.752838e+00 2.490132e+00 8.747268e-01
<GCONST> 9.218673e+01
<STATE> 3
<MEAN> 25
 8.360382e-01 -1.758185e+00 -1.715773e+00 3.082898e-01 1.218221e+00 1.907742e+00 -2.176260e-01 -1.905486e-01 2.067628e+00 -3.358591e-02 8.644435e-01 -2.105844e+00 -3.544348e-01 -1.168219e-02 -9.039058e-02 2.732179e-03 3.478988e-01 2.108154e-01 3.965730e-01 -1.938092e-01 -7.921785e-03 1.978174e-01 -1.081191e-01 9.709901e-02 -2.695322e-02
<VARIANCE> 25
 4.558468e+01 1.876400e+01 2.628162e+01 3.752349e+01 2.442457e+01 6.922160e+01 2.289698e+01 2.634338e+01 1.718239e+01 1.937714e+01 2.546991e+01 5.920122e+01 1.419533e+00 6.514695e-01 6.611098e-01 6.119226e-01 1.102772e+00 1.256252e+00 1.700917e+00 1.599271e+00 1.163586e+00 1.477072e+00 1.641518e+00 1.454108e+00 7.461844e-01
<GCONST> 8.801611e+01
<STATE> 4
<MEAN> 25
 -3.511901e-01 -3.277655e+00 -2.759729e+00 -4.139510e-01 1.806309e+00 2.245287e+00 6.266900e-01 1.893622e-02 2.814368e+00 8.280357e-01 -1.160884e+00 1.735256e-03 -2.298870e-02 1.289667e-01 4.203776e-02 4.635001e-02 7.344338e-02 8.140553e-02 1.334232e-01 1.809693e-02 -1.661777e-02 2.148586e-02 -4.396442e-02 9.201251e-03 -4.177691e-03
<VARIANCE> 25
 2.052483e+01 1.316294e+01 1.413047e+01 2.218064e+01 1.429161e+01 4.881853e+01 1.893486e+01 2.094396e+01 1.746839e+01 1.734539e+01 2.043291e+01 3.595853e+01 8.892033e-01 5.404990e-01 7.148857e-01 8.174002e-01 1.107637e+00 1.293476e+00 1.664544e+00 1.463607e+00 1.761838e+00 1.692329e+00 1.311701e+00 1.463202e+00 3.817817e-01
<GCONST> 8.289896e+01
<TRANSP> 5
 0.000000e+00 1.000000e+00 0.000000e+00 0.000000e+00 0.000000e+00
 0.000000e+00 5.888005e-01 4.111995e-01 0.000000e+00 0.000000e+00
 0.000000e+00 0.000000e+00 6.363122e-01 3.636878e-01 0.000000e+00
 0.000000e+00 0.000000e+00 0.000000e+00 9.299300e-01 7.006998e-02
 0.000000e+00 0.000000e+00 0.000000e+00 0.000000e+00 0.000000e+00
<ENDHMM>
~h "w"
<BEGINHMM>
<NUMSTATES> 5
<STATE> 2
<MEAN> 25
 8.305748e+00 3.513942e+00 -9.921252e-01 -2.374447e+00 -2.687299e+00 1.037241e+00 -2.416947e+00 4.709468e-01 -1.252015e+00 -1.327634e+00 2.176201e+00 -2.558805e+00 3.066417e-01 -3.164751e-01 7.788056e-02 1.918829e-02 -5.635199e-01 -2.424217e-01 -3.168546e-01 5.576550e-01 4.940970e-02 -8.099815e-02 2.840625e-01 -3.389131e-01 6.956010e-01
<VARIANCE> 25
 1.989817e+01 4.227285e+01 2.329451e+01 4.655546e+01 3.440341e+01 6.472771e+01 4.244464e+01 7.943167e+01 4.676756e+01 3.985329e+01 4.313659e+01 3.388775e+01 2.924036e+00 3.658339e+00 2.916839e+00 4.391608e+00 3.547879e+00 9.883501e+00 4.463226e+00 7.315597e+00 6.213361e+00 5.636528e+00 5.967380e+00 4.500582e+00 2.159471e+00
<GCONST> 1.098995e+02
<STATE> 3
<MEAN> 25
 7.647218e+00 4.294604e-01 2.316217e-01 -1.152540e-01 -5.865005e+00 -2.412058e+00 -3.139587e+00 3.982460e+00 -1.155519e+00 -1.182447e+00 2.757207e+00 -2.424557e+00 -8.674115e-03 -2.614490e-01 2.677403e-01 8.298765e-02 -4.462163e-01 -7.070535e-01 -3.767954e-02 3.566321e-01 -3.206476e-01 8.673429e-02 -6.783973e-02 1.497152e-01 4.816830e-02
<VARIANCE> 25
 1.575418e+01 3.834411e+01 2.587886e+01 4.149068e+01 5.023409e+01 6.178559e+01 4.646244e+01 9.951890e+01 4.315281e+01 3.483273e+01 4.037379e+01 3.479384e+01 1.692093e+00 2.355490e+00 2.166234e+00 3.111798e+00 3.236440e+00 6.549764e+00 3.551912e+00 6.674397e+00 6.130022e+00 4.036135e+00 5.472187e+00 3.842388e+00 2.040436e+00
<GCONST> 1.068498e+02
<STATE> 4
<MEAN> 25
 6.161391e+00 -3.044575e-01 9.047040e-01 4.114817e-01 -7.722015e+00 -3.597922e+00 -2.119596e+00 3.205480e+00 -7.572683e-01 -1.766613e+00 2.044851e+00 -1.652625e+00 -3.553439e-01 5.768919e-02 -6.997811e-02 -1.240197e-01 3.122104e-01 3.114822e-02 2.604814e-01 -1.925530e-01 5.484765e-02 1.143274e-01 -3.425150e-01 6.043068e-02 -5.082971e-01
<VARIANCE> 25
 2.129704e+01 3.024622e+01 4.037549e+01 5.034257e+01 7.033162e+01 4.563416e+01 7.354857e+01 9.465653e+01 4.852449e+01 2.634272e+01 2.770254e+01 2.366677e+01 1.425302e+00 1.721263e+00 2.058467e+00 2.215780e+00 4.051807e+00 3.429434e+00 2.388544e+00 3.887012e+00 3.744683e+00 2.418071e+00 2.845471e+00 1.996086e+00 1.779109e+00
<GCONST> 1.023841e+02
<TRANSP> 5
 0.000000e+00 1.000000e+00 0.000000e+00 0.000000e+00 0.000000e+00
 0.000000e+00 8.376082e-01 1.623919e-01 0.000000e+00 0.000000e+00
 0.000000e+00 0.000000e+00 7.312111e-01 2.687890e-01 0.000000e+00
 0.000000e+00 0.000000e+00 0.000000e+00 8.513874e-01 1.486126e-01
 0.000000e+00 0.000000e+00 0.000000e+00 0.000000e+00 0.000000e+00
<ENDHMM>
~h "y"
<BEGINHMM>
<NUMSTATES> 5
<STATE> 2
<MEAN> 25
 -1.872336e+00 1.588683e+00 8.826900e+00 2.391526e+00 -3.901669e+00 -3.583048e+00 1.181204e+00 -4.776441e+00 -4.956247e+00 -1.545520e+00 1.612589e+00 -4.006182e-01 9.045966e-01 5.120463e-01 5.438694e-01 8.266554e-01 -6.717490e-01 -7.163237e-01 -7.325622e-01 8.726465e-02 -1.200315e+00 -8.086792e-01 1.976438e-01 -4.339419e-01 1.624009e-01
<VARIANCE> 25
 1.075101e+02 3.329884e+01 6.339939e+01 4.061940e+01 5.486928e+01 5.164496e+01 8.450546e+01 4.528872e+01 8.333631e+01 4.009819e+01 3.900572e+01 2.890465e+01 6.366826e+00 3.111773e+00 4.830010e+00 3.217087e+00 4.816242e+00 3.587857e+00 6.945858e+00 5.409842e+00 7.152224e+00 3.479459e+00 5.193388e+00 2.722671e+00 2.551438e+00
<GCONST> 1.123304e+02
<STATE> 3
<MEAN> 25
 2.181253e+00 3.579482e+00 8.274304e+00 4.132475e+00 -4.296936e+00 -4.075256e+00 -2.577776e+00 -5.424468e+00 -7.470514e+00 -3.064398e+00 1.670064e+00 -1.921811e+00 5.740861e-01 3.689320e-01 2.355789e-01 2.984159e-01 -3.650328e-01 -1.794944e-01 -3.572431e-01 -1.510773e-01 -4.804699e-01 -1.678270e-01 -1.037231e-01 -3.593393e-01 3.358072e-02
<VARIANCE> 25
 7.099377e+01 3.304620e+01 7.121169e+01 3.168721e+01 5.482816e+01 4.894006e+01 6.449951e+01 5.868586e+01 7.517992e+01 3.776760e+01 4.088814e+01 3.423722e+01 4.715513e+00 3.505599e+00 5.812160e+00 3.388059e+00 5.420910e+00 4.001305e+00 7.751919e+00 6.609911e+00 7.058294e+00 4.918890e+00 4.958830e+00 3.026413e+00 3.116747e+00
<GCONST> 1.129496e+02
<STATE> 4
<MEAN> 25
 1.492628e+00 4.020101e+00 9.581657e+00 3.957380e+00 -4.429437e+00 -2.616860e+00 -1.427989e+00 -5.790110e+00 -5.192631e+00 -1.382503e+00 1.566133e+00 -2.323308e+00 4.790532e-01 -7.191207e-02 -3.184218e-01 -6.498616e-02 4.913153e-02 -6.217289e-02 -3.435379e-01 3.466159e-01 1.079550e-01 1.898124e-02 -8.566017e-02 -4.688787e-02 1.052334e-02
<VARIANCE> 25
 6.511573e+01 2.981728e+01 7.297304e+01 3.322179e+01 5.118564e+01 5.483816e+01 4.975921e+01 5.633733e+01 6.914530e+01 2.916401e+01 3.659042e+01 3.565199e+01 4.372154e+00 1.969931e+00 4.389255e+00 3.316564e+00 4.903987e+00 4.037310e+00 4.575499e+00 4.916629e+00 5.682673e+00 3.249829e+00 3.570825e+00 2.244329e+00 2.361499e+00
<GCONST> 1.087594e+02
<TRANSP> 5
 0.000000e+00 1.000000e+00 0.000000e+00 0.000000e+00 0.000000e+00
 0.000000e+00 7.717829e-01 2.282172e-01 0.000000e+00 0.000000e+00
 0.000000e+00 0.000000e+00 7.585881e-01 2.414119e-01 0.000000e+00
 0.000000e+00 0.000000e+00 0.000000e+00 8.382431e-01 1.617569e-01
 0.000000e+00 0.000000e+00 0.000000e+00 0.000000e+00 0.000000e+00
<ENDHMM>
~h "z"
<BEGINHMM>
<NUMSTATES> 5
<STATE> 2
<MEAN> 25
 -1.306106e+01 9.565944e+00 2.005651e+00 -4.472432e+00 8.130552e+00 -6.063871e+00 2.080354e+00 7.082446e-01 -2.290667e+00 -1.327047e+00 -1.977942e+00 3.723714e+00 -1.436858e+00 -9.923822e-02 -1.296102e-01 -5.944401e-01 6.394027e-01 -2.596154e-01 4.209984e-01 2.585275e-01 4.120337e-01 3.937067e-01 -8.523225e-02 1.889758e-02 1.571191e-01
<VARIANCE> 25
 1.277226e+02 2.850282e+01 6.891910e+01 4.751260e+01 7.361496e+01 4.968286e+01 3.015532e+01 2.569477e+01 4.586834e+01 2.126452e+01 1.643032e+01 1.856075e+01 6.490930e+00 1.669040e+00 2.989676e+00 2.647661e+00 6.090276e+00 4.129116e+00 2.070863e+00 2.879729e+00 2.385783e+00 1.717339e+00 1.513556e+00 2.033326e+00 9.260322e-01
<GCONST> 1.016204e+02
<STATE> 3
<MEAN> 25
 -1.496239e+01 5.551940e+00 -7.241892e-01 -5.419533e+00 7.578068e+00 -6.442737e+00 3.840252e+00 2.383681e+00 1.721234e-02 8.257024e-01 -1.544497e+00 3.448211e+00 5.169353e-01 -6.201783e-01 -6.619108e-02 7.268394e-02 -4.432143e-01 -6.378044e-02 1.040627e-01 -4.564739e-02 -2.934862e-02 3.357885e-01 -4.872574e-03 -1.831035e-01 -3.951800e-01
<VARIANCE> 25
 1.011078e+02 3.800876e+01 4.470714e+01 3.963483e+01 5.351691e+01 5.152801e+01 3.168371e+01 2.181726e+01 3.565822e+01 2.124380e+01 1.659185e+01 2.489185e+01 4.545108e+00 1.227770e+00 2.070176e+00 1.595330e+00 3.455407e+00 2.758238e+00 2.041041e+00 2.230593e+00 2.449606e+00 1.812422e+00 1.539214e+00 1.605746e+00 1.429075e+00
<GCONST> 9.823161e+01
<STATE> 4
<MEAN> 25
 -4.898325e+00 4.511435e-02 -1.233921e-01 -2.761150e+00 1.265684e+00 -2.655525e+00 3.222397e+00 1.218123e+00 -1.484275e+00 1.446358e+00 -7.443817e-01 -6.830423e-01 5.439337e-01 -3.663125e-01 1.742563e-01 1.709669e-01 -2.492006e-01 3.350241e-01 -2.841496e-02 -2.303216e-01 2.574537e-04 5.976512e-02 -1.391692e-02 -1.595168e-01 -4.768172e-01
<VARIANCE> 25
 1.340275e+02 3.342345e+01 4.668668e+01 3.542175e+01 7.680100e+01 5.844970e+01 3.232119e+01 3.321618e+01 5.418737e+01 2.496438e+01 1.741035e+01 6.484113e+01 2.679996e+00 1.383209e+00 2.015744e+00 1.356754e+00 2.530451e+00 3.169491e+00 2.631066e+00 2.875903e+00 2.679349e+00 2.092796e+00 1.594673e+00 1.682647e+00 1.434325e+00
<GCONST> 1.008859e+02
<TRANSP> 5
 0.000000e+00 1.000000e+00 0.000000e+00 0.000000e+00 0.000000e+00
 0.000000e+00 8.829989e-01 1.170011e-01 0.000000e+00 0.000000e+00
 0.000000e+00 0.000000e+00 8.039692e-01 1.960308e-01 0.000000e+00
 0.000000e+00 0.000000e+00 0.000000e+00 9.069654e-01 9.303460e-02
 0.000000e+00 0.000000e+00 0.000000e+00 0.000000e+00 0.000000e+00
<ENDHMM>
~h "aa"
<BEGINHMM>
<NUMSTATES> 5
<STATE> 2
<MEAN> 25
 5.517820e+00 -4.597511e+00 -5.149618e+00 -6.334853e+00 3.534374e-01 9.751919e+00 -3.004072e-01 -2.166823e-01 1.673221e+00 4.678002e-01 -6.785597e-01 -7.632406e+00 3.292799e-01 -1.662529e-01 -4.115613e-01 -3.698551e-01 -1.583674e-02 8.797206e-01 -1.508453e-02 -1.782215e-01 -2.321572e-01 -8.670905e-02 1.397067e-01 -1.839648e-01 3.987934e-02
<VARIANCE> 25
 3.769521e+01 2.509182e+01 2.267740e+01 5.153124e+01 2.528915e+01 7.689843e+01 3.852643e+01 3.717701e+01 3.599242e+01 4.178302e+01 2.010315e+01 6.142298e+01 1.789797e+00 1.366803e+00 1.177466e+00 2.666171e+00 1.685654e+00 4.269868e+00 1.771008e+00 2.172144e+00 2.287650e+00 2.478945e+00 2.176224e+00 2.714639e+00 1.590561e+00
<GCONST> 9.847218e+01
<STATE> 3
<MEAN> 25
 5.605241e+00 -3.343779e+00 -5.385220e+00 -6.230896e+00 4.104430e-01 1.021638e+01 -1.901720e-01 -3.784340e-01 6.674011e-01 6.779717e-01 -4.481116e-01 -6.512863e+00 1.632598e-01 2.743191e-01 -1.442286e-02 6.792450e-02 -1.789256e-01 9.812806e-02 -1.957432e-01 -3.226612e-02 -3.168002e-01 9.308312e-02 -1.887318e-03 1.641116e-01 -1.825380e-01
<VARIANCE> 25
 3.613468e+01 2.243928e+01 2.324803e+01 4.869408e+01 1.988272e+01 8.246664e+01 4.509218e+01 4.952903e+01 4.236333e+01 4.556275e+01 2.830841e+01 6.029750e+01 1.765488e+00 1.360554e+00 1.441972e+00 2.150237e+00 1.935451e+00 3.319499e+00 2.295790e+00 3.047035e+00 2.453987e+00 2.906430e+00 2.317958e+00 3.175528e+00 1.996762e+00
<GCONST> 1.002637e+02
<STATE> 4
<MEAN> 25
 3.137100e+00 -2.009368e+00 -4.041306e+00 -4.223030e+00 1.533891e-01 6.412291e+00 -9.013859e-01 -3.347493e-01 6.257998e-01 1.403098e+00 -5.985585e-01 -2.774884e+00 -1.636256e-02 3.327235e-01 1.783436e-01 1.406864e-01 -1.740437e-01 -2.503396e-01 -1.631439e-01 1.077236e-02 -1.822752e-01 2.326006e-01 3.940838e-02 3.492943e-01 -2.203740e-01
<VARIANCE> 25
 3.296141e+01 2.070793e+01 2.275951e+01 3.696267e+01 1.816611e+01 7.588590e+01 3.328915e+01 3.928041e+01 3.312482e+01 3.215799e+01 2.621584e+01 4.427076e+01 1.602144e+00 1.155209e+00 1.811203e+00 2.015213e+00 1.839280e+00 2.831306e+00 2.107275e+00 3.364239e+00 2.393166e+00 2.215460e+00 2.255826e+00 2.714381e+00 1.316432e+00
<GCONST> 9.691418e+01
<TRANSP> 5
 0.000000e+00 1.000000e+00 0.000000e+00 0.000000e+00 0.000000e+00
 0.000000e+00 8.047093e-01 1.952906e-01 0.000000e+00 0.000000e+00
 0.000000e+00 0.000000e+00 7.358097e-01 2.641903e-01 0.000000e+00
 0.000000e+00 0.000000e+00 0.000000e+00 8.512409e-01 1.487590e-01
 0.000000e+00 0.000000e+00 0.000000e+00 0.000000e+00 0.000000e+00
<ENDHMM>
~h "ae"
<BEGINHMM>
<NUMSTATES> 5
<STATE> 2
<MEAN> 25
 -7.645252e-01 -3.386774e+00 -1.856517e-01 -9.265653e-01 -1.203747e+00 -1.345528e+00 3.328109e+00 1.760648e+00 5.932436e-01 -1.818738e+00 -1.667126e+00 -3.233029e+00 5.155434e-01 -6.831749e-01 -3.870393e-02 -1.835051e-01 -2.541185e-01 -1.911388e-01 8.848897e-02 2.833322e-01 -4.100876e-01 -7.324011e-01 -7.750812e-01 -7.501835e-01 1.378439e+00
<VARIANCE> 25
 6.514935e+01 3.773248e+01 3.816482e+01 2.230419e+01 3.365584e+01 3.378883e+01 3.178383e+01 4.233744e+01 4.042028e+01 3.030125e+01 4.443222e+01 5.227377e+01 2.996311e+00 2.856031e+00 1.884174e+00 1.584386e+00 2.879339e+00 2.066289e+00 2.160482e+00 3.294396e+00 3.723951e+00 2.628165e+00 3.194695e+00 4.007936e+00 4.869597e+00
<GCONST> 1.030030e+02
<STATE> 3
<MEAN> 25
 3.546659e+00 -6.575503e+00 -2.038938e+00 -1.304775e+00 -1.695146e+00 -1.470286e+00 2.478492e+00 3.506093e+00 -5.721025e-01 -4.893239e+00 -5.177951e+00 -6.577184e+00 6.510163e-01 -3.424890e-01 -2.731489e-01 -5.647064e-02 -7.290560e-02 2.306081e-02 -2.463671e-01 2.935347e-02 -9.863314e-02 -4.027146e-01 -4.491690e-01 -5.003788e-01 8.143780e-01
<VARIANCE> 25
 4.179723e+01 4.874243e+01 3.540084e+01 1.923772e+01 3.075884e+01 3.196121e+01 2.654897e+01 4.243861e+01 3.660511e+01 3.636135e+01 4.230954e+01 5.527073e+01 1.997508e+00 2.407388e+00 1.311981e+00 1.806422e+00 2.378422e+00 1.858158e+00 1.738975e+00 2.821746e+00 2.664165e+00 2.686576e+00 2.769652e+00 3.587441e+00 4.370923e+00
<GCONST> 1.002079e+02
<STATE> 4
<MEAN> 25
 6.573632e+00 -4.905728e+00 -2.250561e+00 5.013290e-02 -1.635298e+00 -1.955952e+00 8.482955e-01 8.200304e-01 -1.784801e+00 -4.131698e+00 -6.234135e+00 -7.291125e+00 2.891007e-02 5.810760e-01 -1.380218e-02 2.193421e-01 1.402029e-01 4.362155e-02 -1.448659e-01 -5.923029e-01 -2.250565e-03 4.068464e-01 2.225673e-01 2.845303e-01 -6.355075e-01
<VARIANCE> 25
 2.269148e+01 4.589225e+01 5.353832e+01 2.993700e+01 3.092884e+01 3.960718e+01 2.517305e+01 6.365772e+01 7.444482e+01 4.990239e+01 3.056386e+01 4.800060e+01 1.897345e+00 2.264189e+00 2.157794e+00 2.694438e+00 2.220663e+00 2.465692e+00 1.986366e+00 4.885506e+00 4.326405e+00 3.782570e+00 2.065874e+00 3.213531e+00 2.878908e+00
<GCONST> 1.032122e+02
<TRANSP> 5
 0.000000e+00 1.000000e+00 0.000000e+00 0.000000e+00 0.000000e+00
 0.000000e+00 7.700726e-01 2.299274e-01 0.000000e+00 0.000000e+00
 0.000000e+00 0.000000e+00 7.596502e-01 2.403498e-01 0.000000e+00
 0.000000e+00 0.000000e+00 0.000000e+00 8.714070e-01 1.285929e-01
 0.000000e+00 0.000000e+00 0.000000e+00 0.000000e+00 0.000000e+00
<ENDHMM>
~h "ah"
<BEGINHMM>
<NUMSTATES> 5
<STATE> 2
<MEAN> 25
 2.965943e+00 -5.193377e-01 -8.529201e-01 -1.053170e+00 -4.139975e-01 -7.276479e-01 -2.068877e-01 -2.183210e-01 -8.849342e-01 2.822692e-01 -1.700118e+00 -2.853572e+00 5.391591e-01 3.532062e-02 -1.059465e-01 -2.254961e-01 7.245415e-02 1.287326e-01 -1.756352e-01 -2.989782e-01 -3.225827e-01 1.387363e-01 -1.669072e-01 -2.739338e-01 7.160043e-02
<VARIANCE> 25
 6.559650e+01 4.306075e+01 4.297763e+01 4.851141e+01 3.074286e+01 4.828131e+01 4.273917e+01 5.889819e+01 6.573328e+01 2.950980e+01 3.595419e+01 5.195895e+01 3.170891e+00 2.918657e+00 2.575679e+00 4.261180e+00 2.391330e+00 3.634787e+00 2.442619e+00 3.979812e+00 4.188091e+00 3.176360e+00 3.144950e+00 3.541867e+00 3.906416e+00
<GCONST> 1.071908e+02
<STATE> 3
<MEAN> 25
 3.045310e+00 2.359271e-01 -8.540539e-01 -7.027215e-01 -6.251499e-02 -3.696197e-02 -4.890755e-01 -1.305544e+00 -9.797578e-01 5.889592e-01 -1.390666e+00 -2.627898e+00 1.975758e-01 1.261791e-01 -1.134319e-02 -1.532357e-01 5.326810e-02 1.709080e-01 -7.650860e-02 -1.580403e-01 -2.576781e-01 6.380306e-03 5.207031e-02 1.026255e-02 -2.618742e-02
<VARIANCE> 25
 6.756119e+01 3.854798e+01 4.310216e+01 5.942844e+01 3.011176e+01 4.221241e+01 4.623310e+01 5.126702e+01 6.229005e+01 2.962900e+01 3.280577e+01 5.266817e+01 2.759612e+00 2.650686e+00 2.109560e+00 4.222002e+00 2.274759e+00 3.254375e+00 2.448480e+00 3.477322e+00 3.643594e+00 2.991406e+00 2.757142e+00 3.106319e+00 3.224878e+00
<GCONST> 1.055813e+02
<STATE> 4
<MEAN> 25
 7.606226e-01 9.691028e-02 -9.401456e-01 8.141070e-01 9.648592e-01 9.809004e-01 8.885446e-01 -7.593638e-02 9.757344e-01 1.275605e+00 -2.215546e-01 -8.003171e-01 2.368417e-02 9.007291e-02 2.683867e-02 -1.338601e-01 -1.138966e-04 2.126686e-02 1.725625e-02 -1.020019e-02 -4.852479e-02 -6.045154e-02 1.209746e-01 1.339566e-01 -7.034750e-02
<VARIANCE> 25
 6.380182e+01 2.595834e+01 3.720603e+01 5.651613e+01 2.843573e+01 3.543253e+01 4.495015e+01 4.340992e+01 5.891281e+01 2.899419e+01 3.370444e+01 5.447505e+01 2.303271e+00 1.732339e+00 1.377797e+00 2.843985e+00 1.827627e+00 2.498032e+00 2.101122e+00 2.780508e+00 2.575230e+00 2.413161e+00 2.337266e+00 2.784148e+00 2.260855e+00
<GCONST> 1.010089e+02
<TRANSP> 5
 0.000000e+00 1.000000e+00 0.000000e+00 0.000000e+00 0.000000e+00
 0.000000e+00 5.787218e-01 4.212783e-01 0.000000e+00 0.000000e+00
 0.000000e+00 0.000000e+00 5.478166e-01 4.521835e-01 0.000000e+00
 0.000000e+00 0.000000e+00 0.000000e+00 7.288471e-01 2.711528e-01
 0.000000e+00 0.000000e+00 0.000000e+00 0.000000e+00 0.000000e+00
<ENDHMM>
~h "ao"
<BEGINHMM>
<NUMSTATES> 5
<STATE> 2
<MEAN> 25
 -4.661723e+00 1.051966e+00 6.381355e-01 -2.844105e+00 -1.846344e+00 3.622149e+00 1.680720e+00 -1.665181e+00 2.587600e+00 -1.868997e+00 2.615406e+00 -2.186918e-01 1.751261e+00 7.005262e-01 -4.871948e-01 -1.720109e+00 -7.426662e-01 1.330279e+00 -5.475057e-01 -4.308208e-01 -6.622272e-01 -7.257495e-01 2.874589e-01 -3.191668e-01 5.200008e-01
<VARIANCE> 25
 1.159867e+02 2.141132e+01 3.623519e+01 5.772743e+01 3.644281e+01 3.710052e+01 2.730244e+01 3.194255e+01 3.962530e+01 2.438654e+01 1.998467e+01 1.613063e+01 1.044093e+01 1.852524e+00 1.618724e+00 7.182613e+00 4.107310e+00 5.638057e+00 2.758181e+00 4.211450e+00 3.312164e+00 2.955390e+00 2.105738e+00 2.312257e+00 3.766088e+00
<GCONST> 1.042400e+02
<STATE> 3
<MEAN> 25
 7.987846e+00 3.872334e+00 -3.716437e+00 -1.650126e+01 -4.530200e+00 1.139251e+01 -4.099642e-01 -6.772335e-01 -2.487118e+00 -5.038521e+00 9.418011e-01 -1.826858e+00 1.071306e+00 5.529944e-01 -1.458104e-01 -1.189465e+00 -6.863927e-01 4.695499e-01 -1.149657e-01 1.114640e-01 -4.071479e-01 -3.790205e-01 -1.787968e-01 -8.358623e-02 7.210534e-01
<VARIANCE> 25
 3.828532e+01 2.387156e+01 1.465848e+01 1.257659e+02 4.386539e+01 7.007027e+01 2.563800e+01 1.721488e+01 3.179000e+01 2.734268e+01 2.169299e+01 1.634513e+01 3.178522e+00 1.010745e+00 8.710549e-01 6.739328e+00 2.787282e+00 5.067050e+00 1.531496e+00 2.491492e+00 2.453897e+00 2.569385e+00 1.518348e+00 1.968260e+00 2.649079e+00
<GCONST> 9.787740e+01
<STATE> 4
<MEAN> 25
 1.271698e+01 6.569199e+00 -5.875216e+00 -7.750261e+00 -6.403777e+00 5.153663e+00 -5.239010e+00 1.722925e+00 -3.909010e+00 -6.089790e+00 3.837016e+00 1.735142e+00 -5.468036e-02 -2.147178e-01 1.017295e-03 1.190654e+00 3.019735e-01 -7.573140e-01 -2.957172e-01 7.234467e-02 5.305629e-02 -1.429185e-01 1.017057e-01 3.117006e-01 -1.121640e-01
<VARIANCE> 25
 1.730899e+01 2.568398e+01 2.876975e+01 1.729468e+02 4.201702e+01 6.479768e+01 7.108189e+01 3.531914e+01 4.413910e+01 2.760423e+01 3.550994e+01 2.315425e+01 7.070596e-01 8.778718e-01 1.502406e+00 2.548231e+00 2.313066e+00 2.245680e+00 4.131854e+00 2.685765e+00 3.571533e+00 2.320126e+00 2.263282e+00 1.625403e+00 4.316823e-01
<GCONST> 9.760821e+01
<TRANSP> 5
 0.000000e+00 1.000000e+00 0.000000e+00 0.000000e+00 0.000000e+00
 0.000000e+00 7.789906e-01 2.210094e-01 0.000000e+00 0.000000e+00
 0.000000e+00 0.000000e+00 7.924853e-01 2.075147e-01 0.000000e+00
 0.000000e+00 0.000000e+00 0.000000e+00 9.265587e-01 7.344138e-02
 0.000000e+00 0.000000e+00 0.000000e+00 0.000000e+00 0.000000e+00
<ENDHMM>
~h "aw"
<BEGINHMM>
<NUMSTATES> 5
<STATE> 2
<MEAN> 25
 4.874460e+00 1.123621e+00 -1.414661e-01 -2.104979e-01 6.496377e-01 4.202452e+00 -1.745906e+00 -2.677962e-01 -7.756268e-02 4.844527e-01 -1.009234e+00 -4.324897e+00 -1.776037e-01 2.087865e-01 -4.281570e-01 2.115854e-01 -5.409915e-03 7.898076e-02 -1.384876e-01 -3.908025e-01 -1.065926e-01 -1.655536e-01 4.791659e-01 4.476926e-01 -4.372084e-01
<VARIANCE> 25
 1.820141e+01 3.852301e+01 2.951401e+01 4.182637e+01 2.766968e+01 4.554409e+01 4.698475e+01 6.103359e+01 4.300164e+01 5.377160e+01 6.948224e+01 2.863914e+01 1.095035e+00 2.073342e+00 1.452900e+00 1.944085e+00 1.629836e+00 1.920547e+00 2.675215e+00 3.713534e+00 2.600095e+00 4.107490e+00 5.881402e+00 1.421537e+00 1.083499e+00
<GCONST> 9.992768e+01
<STATE> 3
<MEAN> 25
 3.174189e+00 2.112670e+00 -6.087515e-01 1.069864e+00 1.277070e+00 2.558187e+00 -1.596219e+00 -2.774012e+00 -1.640194e+00 -5.275460e-01 1.043886e+00 -1.990461e+00 -4.533209e-01 -2.879739e-01 -1.021916e-01 -5.449697e-02 5.390069e-02 -4.027742e-01 1.837902e-01 -9.794693e-02 1.618384e-01 8.440007e-02 6.102239e-02 4.985529e-01 -3.707008e-01
<VARIANCE> 25
 3.172297e+01 3.415993e+01 2.955014e+01 2.786366e+01 2.689644e+01 3.661973e+01 4.662137e+01 6.708537e+01 5.879147e+01 4.230329e+01 6.227370e+01 2.993189e+01 1.060180e+00 1.750783e+00 1.933218e+00 2.018135e+00 1.747167e+00 2.439902e+00 2.456317e+00 3.851627e+00 3.202421e+00 4.108345e+00 4.364669e+00 1.592106e+00 1.994107e+00
<GCONST> 1.008211e+02
<STATE> 4
<MEAN> 25
 -9.103694e-02 -1.241799e+00 -2.908392e+00 -7.163094e-01 2.313089e+00 3.313977e+00 2.248234e+00 -5.982444e-01 2.921893e+00 1.636481e+00 5.973755e-01 -9.286487e-01 -1.143829e-01 -2.716829e-01 -4.751388e-02 -1.127350e-01 -4.356384e-02 3.800983e-02 1.596649e-01 -1.751162e-02 2.073596e-01 3.286263e-02 7.279440e-03 3.670913e-02 1.544838e-01
<VARIANCE> 25
 2.532759e+01 2.317423e+01 2.094111e+01 1.986789e+01 1.410735e+01 3.894849e+01 3.080078e+01 4.521790e+01 3.991058e+01 2.734242e+01 2.439461e+01 4.417555e+01 8.788741e-01 1.658859e+00 1.041455e+00 1.542416e+00 1.259951e+00 1.881192e+00 2.274863e+00 3.037491e+00 2.619377e+00 2.922372e+00 1.777443e+00 2.093447e+00 1.372446e+00
<GCONST> 9.319109e+01
<TRANSP> 5
 0.000000e+00 1.000000e+00 0.000000e+00 0.000000e+00 0.000000e+00
 0.000000e+00 7.768645e-01 2.231354e-01 0.000000e+00 0.000000e+00
 0.000000e+00 0.000000e+00 7.202727e-01 2.797273e-01 0.000000e+00
 0.000000e+00 0.000000e+00 0.000000e+00 9.197616e-01 8.023842e-02
 0.000000e+00 0.000000e+00 0.000000e+00 0.000000e+00 0.000000e+00
<ENDHMM>
~h "ay"
<BEGINHMM>
<NUMSTATES> 5
<STATE> 2
<MEAN> 25
 7.198839e+00 -3.435702e+00 6.314360e+00 -1.277601e-01 -8.924608e+00 -7.293825e+00 -6.027317e+00 -2.447058e-01 -5.975647e+00 -3.733386e+00 -6.931880e-01 -1.801021e+00 -3.734665e-01 3.803961e-01 7.744398e-01 -1.038460e-01 7.075542e-03 1.016028e-01 1.490304e-01 -3.384020e-01 -5.581099e-01 6.818648e-02 -1.491216e-02 -2.034376e-01 -1.884788e-01
<VARIANCE> 25
 7.253072e+01 4.272765e+01 1.115624e+02 3.135601e+01 9.107880e+01 4.249786e+01 6.511481e+01 5.742003e+01 7.476283e+01 3.421414e+01 1.980202e+01 2.525105e+01 4.220403e+00 2.765392e+00 7.182709e+00 3.162183e+00 5.689422e+00 2.795575e+00 4.707741e+00 6.027748e+00 5.477480e+00 2.912574e+00 2.456386e+00 2.250628e+00 4.140586e+00
<GCONST> 1.102878e+02
<STATE> 3
<MEAN> 25
 -1.173314e-01 2.473941e+00 9.227966e+00 -1.274990e-01 -3.077249e+00 -3.758561e+00 6.753640e-01 -1.498242e+00 -5.996358e+00 -1.544750e+00 -9.871856e-01 -3.203713e+00 -8.862961e-01 2.884434e-01 -1.210350e+00 4.682623e-01 1.572018e+00 7.710437e-01 9.442221e-01 4.452400e-01 1.092583e+00 3.682346e-01 -9.794047e-02 2.382127e-01 -8.027461e-01
<VARIANCE> 25
 6.789554e+01 4.490015e+01 7.895195e+01 4.497018e+01 1.016238e+02 4.351921e+01 5.462288e+01 4.865733e+01 6.108154e+01 2.403668e+01 1.864492e+01 4.817096e+01 5.836027e+00 2.847933e+00 6.227845e+00 5.050964e+00 4.527538e+00 3.118474e+00 3.063579e+00 4.104211e+00 6.653549e+00 2.735868e+00 2.221795e+00 3.006014e+00 7.388056e+00
<GCONST> 1.107548e+02
<STATE> 4
<MEAN> 25
 -5.671523e+00 2.953866e+00 3.394614e-01 -1.727447e+00 3.545728e+00 -3.028480e+00 3.682439e+00 9.186904e-01 8.934844e-02 1.129247e+00 -2.197990e+00 -1.729118e+00 -3.285640e-01 -2.835094e-01 -7.076200e-01 -2.522313e-01 4.103939e-01 3.501002e-01 1.568398e-01 3.845042e-01 8.102850e-01 5.296695e-01 -6.681561e-02 4.302754e-01 -2.556196e-01
<VARIANCE> 25
 1.126792e+02 4.275434e+01 7.565522e+01 5.258033e+01 6.976278e+01 6.129892e+01 5.349477e+01 4.004718e+01 2.953643e+01 2.201809e+01 2.599699e+01 8.483247e+01 3.317318e+00 1.627627e+00 3.502077e+00 2.991585e+00 2.570862e+00 3.505343e+00 2.074648e+00 3.180503e+00 4.230551e+00 2.050029e+00 2.526202e+00 2.464142e+00 6.872146e+00
<GCONST> 1.069591e+02
<TRANSP> 5
 0.000000e+00 1.000000e+00 0.000000e+00 0.000000e+00 0.000000e+00
 0.000000e+00 9.236584e-01 7.634161e-02 0.000000e+00 0.000000e+00
 0.000000e+00 0.000000e+00 7.251982e-01 2.748018e-01 0.000000e+00
 0.000000e+00 0.000000e+00 0.000000e+00 7.750368e-01 2.249633e-01
 0.000000e+00 0.000000e+00 0.000000e+00 0.000000e+00 0.000000e+00
<ENDHMM>
~h "ch"
<BEGINHMM>
<NUMSTATES> 5
<STATE> 2
<MEAN> 25
 -3.280541e+00 -1.955073e+00 -7.250627e-01 3.757734e+00 2.304322e+00 7.611516e-01 3.776314e+00 2.614909e+00 4.401834e+00 1.387457e+00 -4.689406e-02 3.313150e+00 -3.877887e-01 5.659154e-02 1.052317e-01 -9.496060e-02 1.301605e-01 5.778172e-01 -1.252053e-01 -5.548799e-02 3.867563e-01 2.260555e-01 3.749171e-01 3.158493e-02 -5.674659e-01
<VARIANCE> 25
 1.013170e+01 1.129923e+01 1.369803e+01 1.086376e+01 1.292941e+01 1.652979e+01 1.629228e+01 2.278616e+01 1.268751e+01 2.074413e+01 1.603665e+01 1.425788e+01 1.318970e+00 1.309935e+00 9.389564e-01 2.084054e+00 1.523680e+00 2.659962e+00 1.808164e+00 2.213072e+00 1.616955e+00 2.363263e+00 1.454164e+00 1.553550e+00 3.180189e+00
<GCONST> 8.529340e+01
<STATE> 3
<MEAN> 25
 -6.830806e+00 -2.004067e+00 1.463214e+00 -2.184342e-01 1.569388e+00 4.450743e+00 1.811517e+00 6.062110e-01 4.728272e+00 -1.106886e+00 2.069368e+00 2.788290e+00 -2.081043e+00 3.043275e-01 1.062416e+00 -1.028333e+00 -4.705224e-01 8.731292e-01 -4.192131e-01 -1.366339e+00 4.901020e-01 -5.516572e-01 3.103873e-01 -8.300320e-02 1.546028e+00
<VARIANCE> 25
 5.613584e+01 2.567831e+01 2.205404e+01 2.520504e+01 1.751507e+01 2.464886e+01 3.338820e+01 3.475063e+01 2.005252e+01 1.599842e+01 1.424805e+01 9.363839e+00 3.988004e+00 2.493625e+00 1.447986e+00 2.168928e+00 3.260469e+00 3.034048e+00 4.378530e+00 2.175364e+00 1.162928e+00 2.299118e+00 1.351032e+00 1.301002e+00 4.915387e+00
<GCONST> 9.445634e+01
<STATE> 4
<MEAN> 25
 -1.730515e+01 1.032625e+00 7.907434e+00 -3.786127e+00 -3.466205e+00 4.194449e+00 3.253475e+00 -6.340197e+00 5.248754e+00 -2.104384e+00 3.082257e+00 -2.848756e-02 -3.240058e-01 2.846161e-01 6.808675e-01 4.319945e-01 -9.646906e-01 -9.891028e-01 4.799840e-01 -5.836096e-01 -3.065594e-01 -2.210350e-01 -2.441169e-01 -6.999202e-01 1.173679e+00
<VARIANCE> 25
 4.914451e+01 1.364523e+01 1.353417e+01 2.074249e+01 2.402454e+01 2.710337e+01 3.147046e+01 2.718528e+01 1.591179e+01 1.010961e+01 1.168377e+01 1.467459e+01 8.014086e+00 1.712938e+00 1.297409e+00 1.856390e+00 2.019813e+00 3.440055e+00 3.100845e+00 2.453129e+00 1.547881e+00 1.514492e+00 1.176920e+00 1.076713e+00 3.563025e+00
<GCONST> 9.137313e+01
<TRANSP> 5
 0.000000e+00 1.000000e+00 0.000000e+00 0.000000e+00 0.000000e+00
 0.000000e+00 9.056414e-01 9.435862e-02 0.000000e+00 0.000000e+00
 0.000000e+00 0.000000e+00 6.772818e-01 3.227182e-01 0.000000e+00
 0.000000e+00 0.000000e+00 0.000000e+00 8.118063e-01 1.881937e-01
 0.000000e+00 0.000000e+00 0.000000e+00 0.000000e+00 0.000000e+00
<ENDHMM>
~h "dh"
<BEGINHMM>
<NUMSTATES> 5
<STATE> 2
<MEAN> 25
 4.158346e+00 2.158677e+00 4.280581e+00 6.505086e+00 -4.060052e+00 -7.900242e+00 -6.779559e+00 -1.832360e+00 -1.959129e+00 -1.453402e+00 2.032704e-01 -1.971592e+00 4.036666e-01 -2.780205e-01 -2.476244e-01 6.474326e-01 -2.060553e-01 -6.165187e-02 -5.484272e-01 1.581717e-02 -1.576621e-01 -2.902268e-01 4.375289e-02 2.870677e-01 -2.407358e-01
<VARIANCE> 25
 1.352128e+01 2.752588e+01 1.893846e+01 2.829192e+01 4.209242e+01 3.906158e+01 3.423671e+01 5.285564e+01 3.568886e+01 3.115240e+01 2.403489e+01 5.656757e+01 1.495963e+00 1.776816e+00 1.938370e+00 2.310520e+00 3.035797e+00 1.729995e+00 2.114451e+00 2.161688e+00 1.929837e+00 1.697590e+00 1.215073e+00 2.070717e+00 1.061802e+00
<GCONST> 9.510913e+01
<STATE> 3
<MEAN> 25
 5.500868e+00 1.430445e+00 1.782768e+00 9.865236e+00 -5.140532e+00 -7.709123e+00 -8.320597e+00 6.598936e-01 -1.159091e+00 -3.977231e+00 1.309278e+00 1.412255e+00 2.678832e-01 -1.027557e-01 -6.101603e-01 1.895864e-01 1.320619e-01 1.161772e-01 -5.027611e-01 3.547135e-01 3.088341e-02 -3.242742e-01 -1.153862e-01 6.045899e-02 -3.428514e-01
<VARIANCE> 25
 1.613930e+01 2.573487e+01 2.179774e+01 3.002262e+01 4.168512e+01 4.486902e+01 3.754536e+01 5.771686e+01 3.512633e+01 3.215585e+01 2.469600e+01 4.008631e+01 9.594390e-01 9.512181e-01 1.298386e+00 2.417810e+00 2.087989e+00 1.346776e+00 2.034909e+00 1.629402e+00 1.730338e+00 1.750877e+00 1.235283e+00 2.041559e+00 8.548753e-01
<GCONST> 9.276379e+01
<STATE> 4
<MEAN> 25
 5.147654e+00 1.321993e+00 -5.238451e-01 8.771274e+00 -3.793587e+00 -6.354362e+00 -8.737844e+00 1.846105e+00 -1.113032e+00 -4.382400e+00 -9.238961e-02 1.564311e+00 -1.438498e-01 -1.361061e-01 -2.873903e-01 -5.764228e-01 4.367710e-01 3.810023e-01 1.971385e-01 1.870616e-01 3.210246e-01 1.180025e-01 -3.106856e-01 -3.034242e-01 -5.700577e-01
<VARIANCE> 25
 2.246869e+01 1.740033e+01 2.113124e+01 4.143517e+01 3.161246e+01 4.412297e+01 4.958718e+01 5.586642e+01 3.132584e+01 2.976406e+01 2.693014e+01 4.531409e+01 9.667941e-01 1.065093e+00 1.090538e+00 2.023124e+00 1.729760e+00 1.249808e+00 2.450065e+00 2.260116e+00 1.856785e+00 1.954430e+00 2.061695e+00 2.238899e+00 6.376982e-01
<GCONST> 9.347394e+01
<TRANSP> 5
 0.000000e+00 1.000000e+00 0.000000e+00 0.000000e+00 0.000000e+00
 0.000000e+00 7.986718e-01 2.013282e-01 0.000000e+00 0.000000e+00
 0.000000e+00 0.000000e+00 7.567382e-01 2.432618e-01 0.000000e+00
 0.000000e+00 0.000000e+00 0.000000e+00 8.260165e-01 1.739835e-01
 0.000000e+00 0.000000e+00 0.000000e+00 0.000000e+00 0.000000e+00
<ENDHMM>
~h "eh"
<BEGINHMM>
<NUMSTATES> 5
<STATE> 2
<MEAN> 25
 2.700701e+00 -2.635868e+00 1.251151e+00 -6.251143e-01 -3.322722e+00 -4.974704e+00 -1.286594e-01 4.113793e+00 -2.399555e+00 -1.982198e+00 -3.273998e+00 -3.651413e+00 6.158097e-02 -8.281367e-02 -2.046377e-01 6.750649e-03 2.483543e-01 -7.807956e-02 4.103006e-03 6.765636e-02 4.724573e-02 -2.170146e-01 -2.024290e-01 -9.602094e-02 2.548000e-01
<VARIANCE> 25
 5.007240e+01 3.447754e+01 3.276634e+01 2.247094e+01 4.606890e+01 4.583546e+01 4.667828e+01 4.521502e+01 2.861392e+01 2.914313e+01 2.355529e+01 3.931001e+01 2.373721e+00 2.120315e+00 1.965270e+00 1.994170e+00 2.971914e+00 3.937158e+00 3.223478e+00 3.056614e+00 2.693539e+00 2.181906e+00 2.316863e+00 3.644696e+00 3.242885e+00
<GCONST> 1.016795e+02
<STATE> 3
<MEAN> 25
 2.063976e+00 -2.030276e+00 5.650624e-01 -1.444898e-01 -2.213818e+00 -4.301795e+00 3.812058e-01 3.435168e+00 -1.604468e+00 -1.371349e+00 -3.215858e+00 -3.082419e+00 4.283219e-02 2.299783e-01 -1.246046e-01 1.359658e-01 3.195359e-01 2.663467e-01 3.261841e-02 -3.720447e-01 1.665351e-01 1.005811e-01 -4.105469e-02 -2.605160e-02 -1.480385e-01
<VARIANCE> 25
 5.240862e+01 3.538969e+01 3.864172e+01 2.199567e+01 4.305840e+01 4.672499e+01 4.707415e+01 3.682618e+01 3.179396e+01 3.213927e+01 2.976546e+01 4.369901e+01 2.323382e+00 1.652526e+00 1.842682e+00 1.964814e+00 3.074361e+00 3.579608e+00 3.073202e+00 2.477199e+00 2.233672e+00 2.174889e+00 2.081112e+00 2.644646e+00 2.443212e+00
<GCONST> 1.006219e+02
<STATE> 4
<MEAN> 25
 -2.816793e-01 -1.784017e+00 -1.091862e+00 3.943350e-01 4.477564e-01 -1.281071e+00 1.696726e+00 2.712676e+00 1.656561e+00 7.680815e-01 -1.026215e+00 -7.991894e-01 2.032835e-01 1.361786e-01 4.240249e-02 -3.662269e-02 2.981203e-02 2.303729e-01 -9.833916e-02 -2.819118e-01 -2.076589e-02 5.847957e-02 5.464835e-02 -1.858698e-01 -1.056437e-01
<VARIANCE> 25
 4.137256e+01 2.059606e+01 3.139150e+01 1.834109e+01 3.299950e+01 4.001942e+01 3.133112e+01 2.312601e+01 3.437780e+01 2.985469e+01 3.374125e+01 4.326758e+01 2.165188e+00 1.142272e+00 1.430542e+00 1.927835e+00 2.171488e+00 2.847767e+00 2.539524e+00 2.292771e+00 1.887164e+00 2.101276e+00 1.769842e+00 1.898332e+00 1.497973e+00
<GCONST> 9.553889e+01
<TRANSP> 5
 0.000000e+00 1.000000e+00 0.000000e+00 0.000000e+00 0.000000e+00
 0.000000e+00 6.552544e-01 3.447457e-01 0.000000e+00 0.000000e+00
 0.000000e+00 0.000000e+00 6.166198e-01 3.833802e-01 0.000000e+00
 0.000000e+00 0.000000e+00 0.000000e+00 7.950192e-01 2.049808e-01
 0.000000e+00 0.000000e+00 0.000000e+00 0.000000e+00 0.000000e+00
<ENDHMM>
~h "er"
<BEGINHMM>
<NUMSTATES> 5
<STATE> 2
<MEAN> 25
 1.006123e+01 -5.008258e-01 -2.961090e+00 8.120325e+00 -1.123061e+00 -9.046461e+00 -1.386707e+01 4.367032e+00 1.210162e+00 -7.187154e+00 6.859300e-02 4.546906e+00 -7.448847e-02 -5.041724e-02 -1.439993e-01 1.197613e-01 1.165179e-01 7.423864e-02 -1.031532e-01 2.997817e-01 1.486304e-01 -8.260865e-02 -1.125303e-01 -4.423826e-02 -2.581385e-01
<VARIANCE> 25
 3.046428e+01 1.464889e+01 5.003509e+01 4.128020e+01 4.118761e+01 4.532542e+01 8.478026e+01 5.652065e+01 3.552333e+01 3.050127e+01 3.479808e+01 2.524318e+01 2.065870e+00 8.298962e-01 1.993795e+00 1.387905e+00 2.447203e+00 3.067844e+00 5.145258e+00 2.603574e+00 2.152195e+00 1.935518e+00 1.905109e+00 1.707754e+00 6.092807e-01
<GCONST> 9.773261e+01
<STATE> 3
<MEAN> 25
 5.645358e+00 -8.018438e-01 -1.503679e+00 7.277567e+00 -8.248010e-01 -6.279890e+00 -7.561226e+00 4.834648e+00 1.316021e+00 -5.651305e+00 -1.070912e+00 3.079343e+00 -6.553791e-01 -1.409266e-01 2.779641e-01 -4.188899e-01 -7.089301e-02 5.593030e-01 1.039584e+00 -6.382285e-02 -1.905454e-01 3.323461e-01 -1.060358e-01 -2.974559e-01 -3.292285e-01
<VARIANCE> 25
 4.205333e+01 1.960348e+01 2.653706e+01 5.029290e+01 2.893032e+01 5.713459e+01 8.178411e+01 4.760198e+01 2.700717e+01 4.350987e+01 3.347453e+01 3.265421e+01 1.286960e+00 8.806268e-01 1.745367e+00 1.891791e+00 2.477791e+00 3.216072e+00 3.597363e+00 2.912644e+00 2.257458e+00 2.544435e+00 2.173125e+00 2.135568e+00 7.047430e-01
<GCONST> 9.827866e+01
<STATE> 4
<MEAN> 25
 -3.236975e-01 -2.278200e+00 -2.253340e+00 7.096046e-01 5.310333e-01 -5.159816e-01 -5.564330e-01 2.141832e+00 1.598674e+00 -1.463390e-01 -1.635432e+00 1.236590e+00 -1.837963e-01 2.748318e-02 4.100651e-02 -2.952584e-01 3.376463e-02 1.488220e-01 2.241281e-01 -1.962118e-01 -3.418447e-02 2.607220e-01 3.610393e-02 -1.025609e-01 -9.287455e-02
<VARIANCE> 25
 2.725130e+01 1.296098e+01 1.837488e+01 3.183330e+01 2.038760e+01 2.840166e+01 3.015521e+01 3.212472e+01 2.268591e+01 3.269277e+01 2.217409e+01 2.073015e+01 7.751780e-01 6.693678e-01 1.008322e+00 1.412590e+00 1.334858e+00 1.630544e+00 2.196881e+00 1.923950e+00 1.867539e+00 1.713269e+00 1.701453e+00 1.843975e+00 3.680781e-01
<GCONST> 8.738599e+01
<TRANSP> 5
 0.000000e+00 1.000000e+00 0.000000e+00 0.000000e+00 0.000000e+00
 0.000000e+00 8.917952e-01 1.082048e-01 0.000000e+00 0.000000e+00
 0.000000e+00 0.000000e+00 7.779956e-01 2.220044e-01 0.000000e+00
 0.000000e+00 0.000000e+00 0.000000e+00 9.233388e-01 7.666118e-02
 0.000000e+00 0.000000e+00 0.000000e+00 0.000000e+00 0.000000e+00
<ENDHMM>
~h "ey"
<BEGINHMM>
<NUMSTATES> 5
<STATE> 2
<MEAN> 25
 1.659984e+00 1.289208e+00 1.194486e+01 -3.068322e+00 -1.147481e+01 -5.197412e-01 -4.232976e-01 -1.644315e+00 -7.017727e+00 1.652286e+00 1.196374e+00 -2.881596e+00 -1.732716e-01 2.354692e-01 5.750495e-01 -2.010913e-01 -1.616430e-01 2.472909e-01 -1.580168e-01 -4.372998e-01 -1.486786e-01 1.869259e-01 -1.026688e-02 -1.227883e-01 -8.038963e-03
<VARIANCE> 25
 3.189555e+01 2.039273e+01 4.594790e+01 3.215657e+01 5.425565e+01 4.247054e+01 6.193531e+01 4.707899e+01 5.610412e+01 2.231065e+01 2.687426e+01 2.432108e+01 1.720433e+00 9.085949e-01 1.912253e+00 1.489066e+00 2.506652e+00 1.729282e+00 2.521208e+00 2.504711e+00 3.263046e+00 1.584117e+00 1.616070e+00 1.286741e+00 9.033599e-01
<GCONST> 9.613380e+01
<STATE> 3
<MEAN> 25
 4.655735e-01 1.974941e+00 1.214259e+01 -2.276316e+00 -9.338120e+00 -4.413070e-01 -5.303382e-01 -2.778590e+00 -6.163244e+00 9.906153e-01 1.110144e+00 -2.896477e+00 -1.375246e-01 8.553794e-02 -2.884696e-02 1.198480e-01 2.913869e-01 1.500445e-02 -5.647572e-02 -1.563465e-01 5.071104e-02 -1.481598e-01 -5.304152e-02 -8.177584e-02 -2.367227e-01
<VARIANCE> 25
 5.208761e+01 1.916594e+01 5.163211e+01 3.614780e+01 6.284469e+01 4.255550e+01 6.353120e+01 5.509359e+01 6.311322e+01 2.513276e+01 2.831496e+01 2.863150e+01 2.644691e+00 9.458289e-01 2.180698e+00 1.492861e+00 2.691036e+00 2.060204e+00 2.655584e+00 3.108318e+00 3.756998e+00 1.696174e+00 1.617887e+00 1.338843e+00 9.465119e-01
<GCONST> 9.899442e+01
<STATE> 4
<MEAN> 25
 1.275635e+00 2.404747e+00 9.101926e+00 -8.275142e-01 -6.960361e+00 4.287580e-01 -1.521011e+00 -3.834346e+00 -5.323388e+00 1.035426e-02 -1.530240e-01 -3.525256e+00 9.021810e-02 -2.015038e-04 -3.864451e-01 2.311903e-01 3.681760e-01 -6.201613e-02 -6.375861e-02 2.598870e-02 1.339315e-01 -2.110590e-01 -1.663999e-01 -1.271477e-02 -4.084468e-01
<VARIANCE> 25
 5.610147e+01 2.138037e+01 5.973552e+01 4.370146e+01 6.208124e+01 4.741616e+01 5.792603e+01 6.341251e+01 5.922198e+01 2.710419e+01 3.160763e+01 2.875162e+01 2.559722e+00 9.884531e-01 1.833811e+00 1.852483e+00 3.066977e+00 2.651735e+00 3.036349e+00 2.995004e+00 3.454218e+00 2.039718e+00 1.554520e+00 1.461156e+00 9.384221e-01
<GCONST> 1.004571e+02
<TRANSP> 5
 0.000000e+00 1.000000e+00 0.000000e+00 0.000000e+00 0.000000e+00
 0.000000e+00 8.300636e-01 1.699364e-01 0.000000e+00 0.000000e+00
 0.000000e+00 0.000000e+00 7.790976e-01 2.209024e-01 0.000000e+00
 0.000000e+00 0.000000e+00 0.000000e+00 9.101321e-01 8.986791e-02
 0.000000e+00 0.000000e+00 0.000000e+00 0.000000e+00 0.000000e+00
<ENDHMM>
~h "hh"
<BEGINHMM>
<NUMSTATES> 5
<STATE> 2
<MEAN> 25
 3.822280e-01 -3.964211e+00 -3.267070e+00 -1.184369e+00 1.910220e+00 4.472155e+00 1.388185e+00 1.206806e+00 2.748256e+00 -9.646769e-02 7.708636e-02 -3.151974e+00 -1.610587e-02 -2.278318e-01 -1.331578e-01 -3.932992e-02 -8.663251e-02 3.469075e-01 3.071117e-01 6.380540e-02 6.038981e-02 -1.925227e-01 6.570580e-02 -1.191684e-01 6.906148e-02
<VARIANCE> 25
 4.353109e+01 3.363852e+01 2.971584e+01 4.406258e+01 3.068655e+01 4.271216e+01 3.755635e+01 3.366133e+01 1.571693e+01 1.815863e+01 2.335431e+01 1.037110e+02 6.124750e-01 1.104213e+00 9.881667e-01 1.587104e+00 1.487498e+00 2.985725e+00 1.200303e+00 1.782139e+00 1.376546e+00 1.848366e+00 1.930010e+00 2.125881e+00 7.190795e-01
<GCONST> 9.250617e+01
<STATE> 3
<MEAN> 25
 -2.453409e+00 -2.243448e+00 -1.873233e+00 1.316140e+00 2.388108e+00 3.728112e+00 3.823770e+00 1.835519e+00 3.876123e+00 4.118996e-01 1.181150e+00 1.015143e+00 3.080214e-02 4.034939e-02 8.013298e-02 1.816671e-01 2.690480e-02 2.524899e-01 4.095218e-02 1.490443e-01 -6.287319e-03 4.910515e-02 -7.774279e-03 -1.118303e-02 1.084000e-01
<VARIANCE> 25
 2.965948e+01 2.479496e+01 2.173921e+01 2.844012e+01 2.345727e+01 3.689854e+01 2.600387e+01 3.116802e+01 1.540635e+01 1.580546e+01 2.074981e+01 5.489869e+01 5.989926e-01 1.138387e+00 8.446071e-01 1.175634e+00 1.043887e+00 2.471466e+00 1.260720e+00 2.164777e+00 1.222701e+00 1.553967e+00 1.463670e+00 1.407310e+00 5.711691e-01
<GCONST> 8.733464e+01
<STATE> 4
<MEAN> 25
 -3.791298e+00 -1.496846e+00 -9.060739e-01 2.345165e+00 1.944829e+00 2.726651e+00 3.544995e+00 1.651136e+00 3.979500e+00 1.354126e+00 1.971477e+00 2.482642e+00 1.680465e-01 -5.876565e-02 1.062053e-02 -7.617536e-02 -1.134901e-01 -7.655468e-02 2.402728e-02 6.535840e-02 -1.437099e-01 -5.173768e-02 -7.962158e-02 -1.254543e-01 1.849684e-01
<VARIANCE> 25
 1.855886e+01 1.519102e+01 1.039102e+01 1.767335e+01 1.344028e+01 2.269755e+01 2.242593e+01 2.228774e+01 1.509944e+01 1.723721e+01 1.782298e+01 3.504581e+01 7.116936e-01 1.058419e+00 7.474588e-01 1.139227e+00 9.803176e-01 1.723211e+00 1.762441e+00 1.974720e+00 1.524156e+00 1.458333e+00 1.507698e+00 1.405901e+00 6.697367e-01
<GCONST> 8.321171e+01
<TRANSP> 5
 0.000000e+00 1.000000e+00 0.000000e+00 0.000000e+00 0.000000e+00
 0.000000e+00 7.010688e-01 2.989312e-01 0.000000e+00 0.000000e+00
 0.000000e+00 0.000000e+00 7.213892e-01 2.786108e-01 0.000000e+00
 0.000000e+00 0.000000e+00 0.000000e+00 9.201971e-01 7.980290e-02
 0.000000e+00 0.000000e+00 0.000000e+00 0.000000e+00 0.000000e+00
<ENDHMM>
~h "ih"
<BEGINHMM>
<NUMSTATES> 5
<STATE> 2
<MEAN> 25
 1.848394e+00 1.475789e+00 3.377319e+00 2.425576e+00 -2.855375e+00 -1.602921e+00 3.069297e-01 -3.434186e+00 -4.530868e+00 -3.580574e-01 -8.752325e-01 -1.399595e+00 -1.955718e-01 8.214813e-02 -1.370981e-01 1.290154e-01 1.916691e-01 6.162698e-03 8.614426e-02 -2.021845e-01 3.299408e-01 1.157774e-01 1.967737e-01 1.080397e-02 -1.981229e-01
<VARIANCE> 25
 4.000073e+01 2.347382e+01 3.611696e+01 2.791685e+01 5.947743e+01 4.032943e+01 3.645313e+01 6.080547e+01 8.802746e+01 3.042045e+01 2.349071e+01 3.869632e+01 2.092066e+00 2.113513e+00 2.793081e+00 2.610385e+00 4.240903e+00 2.985723e+00 2.374907e+00 4.462806e+00 3.878625e+00 2.473045e+00 2.022533e+00 1.713070e+00 3.317761e+00
<GCONST> 1.029746e+02
<STATE> 3
<MEAN> 25
 -2.106557e-01 1.052436e+00 2.166034e+00 1.941965e+00 -9.569028e-01 -9.208459e-01 1.033538e+00 -1.583120e+00 -7.480513e-01 4.497831e-01 1.672626e-01 -3.877172e-01 -3.032577e-01 -1.866596e-01 -2.206310e-01 -6.547745e-02 2.305805e-01 2.492923e-02 5.904166e-02 3.280285e-01 4.171188e-01 5.226710e-02 1.538535e-01 9.243707e-02 -2.094812e-03
<VARIANCE> 25
 3.383017e+01 2.310678e+01 4.317998e+01 2.294622e+01 5.912996e+01 3.892569e+01 4.654001e+01 4.210369e+01 6.162156e+01 2.418233e+01 2.243380e+01 3.993404e+01 2.298657e+00 2.002528e+00 2.637079e+00 2.151481e+00 3.291885e+00 2.683252e+00 2.458886e+00 2.878952e+00 3.227342e+00 2.331321e+00 1.846293e+00 1.847381e+00 2.323636e+00
<GCONST> 1.004196e+02
<STATE> 4
<MEAN> 25
 -1.265422e+00 -5.073926e-01 4.083832e-01 1.897761e+00 1.033729e+00 1.027145e+00 2.814894e+00 1.586340e+00 2.916804e+00 1.685218e+00 1.345487e+00 1.380287e+00 -1.960007e-01 -1.928746e-01 -2.047111e-01 -8.119874e-02 1.239179e-01 5.811305e-02 3.892227e-02 1.562694e-01 2.367087e-01 6.882641e-02 9.353101e-02 9.176228e-02 -2.539776e-02
<VARIANCE> 25
 2.973422e+01 2.058817e+01 3.446682e+01 2.074586e+01 4.909027e+01 3.676853e+01 4.385664e+01 3.159526e+01 4.708569e+01 2.666750e+01 1.980581e+01 3.896151e+01 1.534118e+00 1.355636e+00 2.152656e+00 1.399748e+00 2.242161e+00 2.084981e+00 2.140718e+00 1.968800e+00 2.358410e+00 1.995084e+00 1.571331e+00 1.811642e+00 1.390365e+00
<GCONST> 9.519286e+01
<TRANSP> 5
 0.000000e+00 1.000000e+00 0.000000e+00 0.000000e+00 0.000000e+00
 0.000000e+00 6.741711e-01 3.258289e-01 0.000000e+00 0.000000e+00
 0.000000e+00 0.000000e+00 6.227804e-01 3.772196e-01 0.000000e+00
 0.000000e+00 0.000000e+00 0.000000e+00 7.954820e-01 2.045180e-01
 0.000000e+00 0.000000e+00 0.000000e+00 0.000000e+00 0.000000e+00
<ENDHMM>
~h "iy"
<BEGINHMM>
<NUMSTATES> 5
<STATE> 2
<MEAN> 25
 -1.885460e-01 4.784840e+00 1.202858e+01 5.102307e-01 -5.985428e+00 -7.200936e-01 -1.356445e+00 -9.244179e+00 -7.057208e+00 -2.158214e+00 2.616728e+00 -5.105683e+00 5.322746e-02 5.694403e-01 9.902182e-01 -3.660498e-01 -4.982504e-01 7.997543e-02 -2.480694e-01 -7.187100e-01 -5.702747e-01 5.264720e-03 3.957120e-03 -5.185887e-01 5.173501e-01
<VARIANCE> 25
 7.092068e+01 2.475303e+01 6.028107e+01 4.526918e+01 5.350688e+01 3.568811e+01 3.311749e+01 4.793543e+01 4.781286e+01 3.433680e+01 4.160090e+01 3.656248e+01 2.823594e+00 1.952869e+00 3.812633e+00 3.648436e+00 4.690504e+00 3.555609e+00 2.570361e+00 3.293027e+00 3.837902e+00 2.535837e+00 2.883601e+00 3.414110e+00 1.646918e+00
<GCONST> 1.053354e+02
<STATE> 3
<MEAN> 25
 9.652563e-01 5.627764e+00 1.518975e+01 -1.014800e+00 -6.881325e+00 6.400391e-02 -3.635726e+00 -9.857402e+00 -8.147080e+00 -1.598723e+00 1.108682e+00 -5.266887e+00 1.270950e-01 2.208889e-02 -1.448477e-02 8.068090e-03 6.475500e-02 8.137516e-02 -1.868818e-01 3.632402e-02 1.677404e-02 8.058730e-02 -7.935129e-02 -1.384031e-01 -1.757813e-02
<VARIANCE> 25
 6.199181e+01 2.325097e+01 5.358153e+01 5.015197e+01 4.817486e+01 3.945085e+01 5.168080e+01 5.523576e+01 4.536999e+01 3.175124e+01 3.557775e+01 2.884082e+01 1.742552e+00 1.648329e+00 2.677358e+00 3.211143e+00 3.110110e+00 2.914875e+00 2.287072e+00 2.790380e+00 2.397725e+00 2.074236e+00 2.160218e+00 2.763631e+00 1.055773e+00
<GCONST> 1.015391e+02
<STATE> 4
<MEAN> 25
 2.426276e+00 3.420369e+00 1.419447e+01 -6.202098e-02 -6.672150e+00 -3.354122e-01 -5.709614e+00 -6.401622e+00 -8.529244e+00 -9.830160e-01 -2.008437e-01 -5.608731e+00 -9.389361e-02 -2.274814e-01 -7.730408e-01 4.161084e-01 4.871860e-01 -9.865318e-02 2.843659e-01 3.949701e-01 5.503576e-01 -2.406542e-02 -1.859862e-01 1.904611e-01 -3.379593e-01
<VARIANCE> 25
 3.125278e+01 2.157461e+01 9.887244e+01 5.929984e+01 4.873838e+01 3.214691e+01 7.159690e+01 5.500457e+01 6.872523e+01 2.157595e+01 2.503798e+01 3.053155e+01 9.908218e-01 8.871596e-01 2.158189e+00 1.834571e+00 2.155946e+00 2.267105e+00 2.310146e+00 2.037579e+00 2.740604e+00 2.097458e+00 1.796500e+00 2.652575e+00 7.234321e-01
<GCONST> 9.808254e+01
<TRANSP> 5
 0.000000e+00 1.000000e+00 0.000000e+00 0.000000e+00 0.000000e+00
 0.000000e+00 8.405362e-01 1.594639e-01 0.000000e+00 0.000000e+00
 0.000000e+00 0.000000e+00 7.746750e-01 2.253250e-01 0.000000e+00
 0.000000e+00 0.000000e+00 0.000000e+00 8.480688e-01 1.519312e-01
 0.000000e+00 0.000000e+00 0.000000e+00 0.000000e+00 0.000000e+00
<ENDHMM>
~h "jh"
<BEGINHMM>
<NUMSTATES> 5
<STATE> 2
<MEAN> 25
 1.461057e+00 -2.661867e+00 3.053572e-03 2.510433e-01 -3.898871e+00 -2.278894e+00 -2.394304e+00 -1.994423e+00 -1.080163e+00 3.761920e-01 -1.199166e+00 -2.284984e+00 3.566726e-01 -6.274568e-01 -4.910852e-02 -9.714658e-01 -5.557185e-01 -3.151302e-01 -6.929921e-01 -3.342716e-01 -1.457432e-01 1.402007e-01 -4.873726e-01 -1.246950e+00 2.440850e+00
<VARIANCE> 25
 1.017367e+02 2.740208e+01 4.137597e+01 3.146676e+01 3.378557e+01 4.582479e+01 4.102025e+01 4.375773e+01 2.344923e+01 1.543071e+01 1.666474e+01 5.105578e+01 6.622571e+00 2.387497e+00 2.570722e+00 2.412119e+00 4.953407e+00 8.041512e+00 2.674587e+00 9.288333e+00 5.016328e+00 2.020461e+00 1.577537e+00 1.841642e+00 1.078002e+01
<GCONST> 1.057695e+02
<STATE> 3
<MEAN> 25
 4.337760e+00 -5.674428e+00 -1.369429e-01 -3.401242e+00 -4.754914e+00 -2.427292e+00 -4.860116e+00 -1.256236e+00 -5.865842e-01 5.795075e-01 -2.724545e+00 -6.904466e+00 2.870813e-01 -2.988164e-01 4.341479e-01 -3.938743e-01 -3.358671e-01 -3.564600e-01 -3.365900e-01 2.560807e-01 -2.980641e-01 -6.892461e-02 -1.571582e-01 -3.260166e-01 4.713808e-01
<VARIANCE> 25
 1.571466e+02 3.514610e+01 5.147462e+01 2.633442e+01 2.556444e+01 4.965231e+01 4.443763e+01 4.034233e+01 3.424892e+01 1.713820e+01 1.696018e+01 6.490468e+01 5.921093e+00 1.789589e+00 3.400664e+00 2.728678e+00 3.868169e+00 7.199558e+00 2.919696e+00 4.871059e+00 4.600529e+00 1.623156e+00 2.248069e+00 2.682662e+00 4.126249e+00
<GCONST> 1.055868e+02
<STATE> 4
<MEAN> 25
 2.499971e+00 -1.930441e+00 7.540689e+00 -2.084634e+00 -4.426778e+00 -3.965737e+00 -5.082661e+00 2.531424e-01 -5.724662e+00 -2.832821e+00 -1.750245e+00 -4.337570e+00 -9.209301e-02 1.087457e-01 1.310848e-02 -6.270603e-02 1.837439e-01 1.318776e-01 9.278943e-02 -2.000166e-01 5.316162e-02 -6.565139e-02 -4.689333e-02 2.476078e-03 -2.265166e-01
<VARIANCE> 25
 8.977995e+01 4.596331e+01 5.656588e+01 3.817505e+01 4.172019e+01 7.514796e+01 3.152080e+01 4.437729e+01 7.659148e+01 2.258795e+01 2.306637e+01 2.547017e+01 6.263786e+00 2.905420e+00 2.982854e+00 4.834019e+00 3.601587e+00 5.733951e+00 2.967162e+00 4.820956e+00 5.848832e+00 1.916579e+00 2.091201e+00 2.272551e+00 4.694147e+00
<GCONST> 1.078553e+02
<TRANSP> 5
 0.000000e+00 1.000000e+00 0.000000e+00 0.000000e+00 0.000000e+00
 0.000000e+00 8.096673e-01 1.903328e-01 0.000000e+00 0.000000e+00
 0.000000e+00 0.000000e+00 8.269187e-01 1.730812e-01 0.000000e+00
 0.000000e+00 0.000000e+00 0.000000e+00 9.544886e-01 4.551141e-02
 0.000000e+00 0.000000e+00 0.000000e+00 0.000000e+00 0.000000e+00
<ENDHMM>
~h "ng"
<BEGINHMM>
<NUMSTATES> 5
<STATE> 2
<MEAN> 25
 -2.458061e+00 1.814232e-01 -1.795378e+00 2.464935e+00 3.555969e+00 2.557267e+00 3.936010e+00 5.838978e-01 2.302745e+00 2.429281e+00 2.073838e+00 2.481964e+00 -2.658322e-01 -1.442543e-01 -6.563947e-02 -1.950449e-01 1.141115e-01 1.702378e-01 1.594685e-01 1.616922e-01 2.666732e-01 2.209049e-01 4.548020e-01 3.902949e-01 -2.217589e-01
<VARIANCE> 25
 2.663758e+01 6.131614e+00 1.073195e+01 1.134150e+01 9.883101e+00 2.046227e+01 1.064448e+01 2.802574e+01 2.843402e+01 1.934723e+01 1.491919e+01 2.902672e+01 5.465542e-01 5.209311e-01 8.460463e-01 8.753445e-01 1.059109e+00 1.298349e+00 1.256843e+00 1.086430e+00 1.661930e+00 2.360060e+00 1.982464e+00 1.874529e+00 2.089197e-01
<GCONST> 7.941998e+01
<STATE> 3
<MEAN> 25
 -4.688946e+00 -2.531896e-01 -1.794446e+00 1.700021e+00 4.218661e+00 3.604893e+00 4.681643e+00 2.200515e+00 4.595760e+00 3.088722e+00 3.496162e+00 4.136441e+00 -1.768479e-01 -6.274309e-02 -2.231383e-01 -4.401949e-02 5.700488e-02 2.856243e-02 1.246722e-01 2.081923e-01 2.674072e-01 1.114873e-01 3.008693e-01 2.226518e-01 -6.816244e-02
<VARIANCE> 25
 8.919005e+00 4.167656e+00 7.482552e+00 6.774357e+00 8.225557e+00 1.447121e+01 1.208724e+01 1.627905e+01 1.582091e+01 1.377459e+01 1.085765e+01 1.181420e+01 4.273858e-01 4.418300e-01 6.461368e-01 1.013033e+00 9.645574e-01 1.046247e+00 1.158654e+00 1.267956e+00 2.117557e+00 1.712936e+00 1.610790e+00 1.709854e+00 1.737791e-01
<GCONST> 7.264265e+01
<STATE> 4
<MEAN> 25
 -4.864378e+00 -2.651048e-01 -2.741710e+00 2.027056e+00 4.385791e+00 3.397207e+00 4.700414e+00 2.368157e+00 5.066419e+00 2.805625e+00 3.875160e+00 4.808536e+00 -8.384138e-03 -1.370785e-01 -2.182594e-01 7.164308e-02 -1.285692e-01 -3.274711e-01 -7.004582e-02 2.647310e-01 3.724829e-02 -2.007300e-01 -3.725804e-02 9.668794e-02 2.549277e-01
<VARIANCE> 25
 7.122147e+00 5.680086e+00 7.436377e+00 4.655027e+00 7.076274e+00 1.321141e+01 1.396828e+01 1.028330e+01 1.322291e+01 1.074036e+01 1.069022e+01 9.938922e+00 3.687742e-01 5.199960e-01 5.976211e-01 8.403208e-01 9.952800e-01 1.983965e+00 1.247785e+00 1.015802e+00 2.587003e+00 1.504294e+00 2.137082e+00 1.937772e+00 6.493506e-01
<GCONST> 7.324347e+01
<TRANSP> 5
 0.000000e+00 1.000000e+00 0.000000e+00 0.000000e+00 0.000000e+00
 0.000000e+00 8.950526e-01 1.049474e-01 0.000000e+00 0.000000e+00
 0.000000e+00 0.000000e+00 8.312879e-01 1.687120e-01 0.000000e+00
 0.000000e+00 0.000000e+00 0.000000e+00 8.557550e-01 1.442449e-01
 0.000000e+00 0.000000e+00 0.000000e+00 0.000000e+00 0.000000e+00
<ENDHMM>
~h "ow"
<BEGINHMM>
<NUMSTATES> 5
<STATE> 2
<MEAN> 25
 1.110931e+01 1.799608e+00 -3.833431e+00 -8.457260e+00 -3.411289e+00 5.174859e+00 -9.112968e+00 -3.701669e+00 -4.997867e+00 5.031307e-01 1.115691e+00 -3.770264e+00 -2.699032e-02 1.252967e-01 -3.253552e-02 -2.409251e-02 -7.431486e-02 2.267150e-01 1.653621e-01 -5.393389e-02 -1.359236e-01 -2.387174e-01 1.410387e-01 1.806068e-01 -3.048731e-01
<VARIANCE> 25
 9.168533e+00 3.620691e+01 1.810253e+01 3.097462e+01 2.805013e+01 4.793513e+01 3.860116e+01 4.590124e+01 5.502591e+01 6.105645e+01 4.168669e+01 3.600153e+01 4.650410e-01 1.133176e+00 5.796342e-01 1.276193e+00 1.191354e+00 1.616048e+00 1.146614e+00 1.920461e+00 1.730314e+00 1.730158e+00 1.525792e+00 1.133962e+00 3.727323e-01
<GCONST> 8.935835e+01
<STATE> 3
<MEAN> 25
 8.552228e+00 3.351930e+00 -2.786178e+00 -2.790924e+00 -1.741390e+00 5.089686e+00 -5.094303e+00 -1.954741e+00 -3.345366e+00 -5.831575e+00 5.566509e-01 -2.199131e+00 -5.482340e-01 -1.563400e-01 2.892607e-01 5.496385e-01 1.759188e-01 -2.303564e-01 4.411005e-01 2.117662e-03 3.443857e-01 1.937954e-01 -1.437846e-01 6.852028e-02 -5.931634e-01
<VARIANCE> 25
 2.596838e+01 3.221537e+01 3.093425e+01 4.158122e+01 3.105645e+01 4.654368e+01 5.238047e+01 5.164090e+01 3.963299e+01 4.287826e+01 3.835783e+01 3.716603e+01 1.253422e+00 1.268905e+00 9.045827e-01 2.275159e+00 2.063510e+00 2.153899e+00 2.528194e+00 2.674127e+00 2.640223e+00 2.300748e+00 2.828077e+00 1.771414e+00 5.375448e-01
<GCONST> 9.709853e+01
<STATE> 4
<MEAN> 25
 4.213851e-01 8.402647e-01 -1.700954e+00 1.195515e+00 1.313604e+00 2.128201e+00 -3.605833e-01 -8.129858e-01 -1.181365e-01 -4.667449e-01 1.067125e+00 1.963867e+00 -1.103585e-01 -6.520755e-02 -1.451601e-02 5.308296e-02 4.485157e-02 -1.983073e-02 7.574742e-02 6.652897e-02 6.908534e-02 7.106787e-02 -2.195944e-02 6.966504e-02 -1.002443e-01
<VARIANCE> 25
 4.024769e+01 3.794968e+01 2.278370e+01 2.834671e+01 1.658123e+01 2.516076e+01 3.596356e+01 3.928497e+01 6.493794e+01 2.944585e+01 3.496841e+01 2.946502e+01 6.791810e-01 1.059066e+00 8.889799e-01 1.203306e+00 1.238439e+00 1.315461e+00 1.761032e+00 2.075229e+00 2.097473e+00 1.756056e+00 1.539156e+00 1.510578e+00 4.080870e-01
<GCONST> 9.030250e+01
<TRANSP> 5
 0.000000e+00 1.000000e+00 0.000000e+00 0.000000e+00 0.000000e+00
 0.000000e+00 9.559559e-01 4.404410e-02 0.000000e+00 0.000000e+00
 0.000000e+00 0.000000e+00 8.591102e-01 1.408897e-01 0.000000e+00
 0.000000e+00 0.000000e+00 0.000000e+00 9.793933e-01 2.060666e-02
 0.000000e+00 0.000000e+00 0.000000e+00 0.000000e+00 0.000000e+00
<ENDHMM>
~h "oy"
<BEGINHMM>
<NUMSTATES> 5
<STATE> 2
<MEAN> 25
 4.268380e+00 7.197281e-01 3.319360e+00 -5.089032e+00 -3.307525e+00 -4.119349e+00 -4.148132e+00 -3.368762e+00 -5.697155e+00 -2.141692e+00 -6.371480e-01 -3.421849e+00 -6.325042e-01 2.796702e-01 -3.028482e-01 1.628109e-01 5.626500e-01 -5.332335e-01 4.132676e-01 3.121783e-01 -6.772791e-02 -2.900834e-02 -9.823693e-02 3.834067e-01 -2.529384e-01
<VARIANCE> 25
 1.593945e+02 5.881067e+01 9.777375e+01 9.348835e+01 9.142982e+01 7.429407e+01 9.097456e+01 3.821870e+01 8.550903e+01 1.746307e+01 1.696153e+01 2.481204e+01 9.456815e+00 1.681466e+00 6.281744e+00 2.863718e+00 4.167508e+00 4.854392e+00 6.365162e+00 4.716889e+00 5.144587e+00 2.255774e+00 2.553313e+00 2.794935e+00 8.356819e-01
<GCONST> 1.108441e+02
<STATE> 3
<MEAN> 25
 -1.010539e+01 5.447475e+00 -1.506539e+00 -2.229733e+00 7.099047e+00 -7.131724e+00 3.111456e+00 -1.631282e-01 -8.430408e-01 -9.534078e-01 -1.830061e+00 2.009005e+00 -8.364351e-01 -1.699593e-01 -5.716401e-01 1.591805e-01 5.620582e-01 3.011434e-01 1.072015e-01 4.973008e-01 7.985209e-01 1.954294e-01 -3.383528e-02 4.421566e-01 -4.006477e-01
<VARIANCE> 25
 1.423167e+02 1.460841e+01 3.986536e+01 5.303735e+01 5.148558e+01 3.059666e+01 4.489458e+01 3.586398e+01 4.740129e+01 2.364958e+01 1.438412e+01 2.378203e+01 7.120599e+00 9.437351e-01 3.362788e+00 2.102829e+00 2.540876e+00 3.079714e+00 2.879887e+00 1.971279e+00 3.876011e+00 3.094475e+00 2.117160e+00 1.587274e+00 1.359032e+00
<GCONST> 1.005046e+02
<STATE> 4
<MEAN> 25
 -5.910576e+00 6.373857e-02 -1.647842e+00 2.585197e+00 4.449749e+00 7.087773e-01 3.103420e+00 1.172982e+00 3.854796e+00 1.649927e+00 -8.357955e-02 3.267103e+00 2.098702e-01 -1.096261e-01 -1.208604e-01 8.867782e-03 -3.034274e-02 1.846748e-01 -3.134846e-02 -5.252421e-03 -5.155957e-02 6.901275e-02 4.338035e-03 2.047806e-02 -9.091209e-02
<VARIANCE> 25
 3.669487e+01 1.374613e+01 2.406093e+01 2.702818e+01 1.974384e+01 3.518156e+01 1.947934e+01 1.971363e+01 2.918154e+01 1.593115e+01 1.536518e+01 1.744637e+01 1.823224e+00 1.008023e+00 2.217146e+00 2.069307e+00 1.472519e+00 2.152545e+00 1.907066e+00 2.194695e+00 2.797704e+00 1.840793e+00 1.664342e+00 1.964370e+00 1.741826e+00
<GCONST> 9.097066e+01
<TRANSP> 5
 0.000000e+00 1.000000e+00 0.000000e+00 0.000000e+00 0.000000e+00
 0.000000e+00 9.195094e-01 8.049064e-02 0.000000e+00 0.000000e+00
 0.000000e+00 0.000000e+00 7.797235e-01 2.202765e-01 0.000000e+00
 0.000000e+00 0.000000e+00 0.000000e+00 9.690452e-01 3.095484e-02
 0.000000e+00 0.000000e+00 0.000000e+00 0.000000e+00 0.000000e+00
<ENDHMM>
~h "sh"
<BEGINHMM>
<NUMSTATES> 5
<STATE> 2
<MEAN> 25
 -1.292776e+01 -8.310080e-01 6.450274e+00 -6.375805e-01 -1.912262e+00 -1.036071e+00 5.569939e+00 -2.164763e+00 3.836811e+00 -9.007027e-01 6.193259e-01 2.570930e+00 -1.039560e-01 -2.496012e-01 -2.586609e-01 -1.381268e-01 9.583659e-02 1.000929e-01 1.789861e-01 4.043572e-01 5.492057e-01 1.362879e-01 2.440382e-01 3.758136e-01 -1.961152e-01
<VARIANCE> 25
