~o
<STREAMINFO> 1 25
<VECSIZE> 25<NULLD><MFCC_D_N_Z_0><DIAGC>
~h "a"
<BEGINHMM>
<NUMSTATES> 5
<STATE> 2
<MEAN> 25
 2.448250e+00 -1.117602e+00 -3.150865e+00 -1.321453e+00 -1.227396e+00 -1.183495e+00 9.811772e-01 3.209623e-01 5.430474e-01 -1.286152e-01 2.290193e+00 1.586029e+00 -1.178926e-02 1.767048e-01 -4.471373e-02 1.889498e-01 1.207873e-01 1.682802e-01 -8.680454e-03 3.693964e-02 -1.989916e-02 5.916096e-02 -1.116997e-02 1.812994e-02 -2.426397e-01
<VARIANCE> 25
 2.566875e+01 5.870115e+01 3.797375e+01 5.769579e+01 4.746115e+01 4.237246e+01 4.471066e+01 3.155627e+01 2.914305e+01 3.215796e+01 5.099892e+01 2.516928e+01 1.236509e+00 2.747048e+00 2.136382e+00 3.520041e+00 4.032275e+00 3.419013e+00 3.003666e+00 2.638351e+00 2.194299e+00 2.115356e+00 4.311841e+00 2.213598e+00 3.310333e+00
<GCONST> 1.027376e+02
<STATE> 3
<MEAN> 25
 2.205476e+00 -4.703711e-01 -3.184574e+00 -6.879267e-01 -8.257093e-01 -6.038628e-01 1.040730e+00 4.995541e-01 4.842073e-01 6.799410e-02 2.013221e+00 1.605804e+00 -8.180304e-02 2.709450e-01 7.788393e-03 2.527402e-01 1.702855e-01 2.100222e-01 -1.548534e-02 7.439709e-02 -3.672283e-03 6.321465e-02 -1.279040e-01 -1.235442e-04 -3.719862e-01
<VARIANCE> 25
 2.524376e+01 5.997606e+01 3.876477e+01 5.638942e+01 4.669956e+01 4.290814e+01 4.541040e+01 3.256406e+01 2.758640e+01 3.176850e+01 5.197363e+01 2.409505e+01 1.110340e+00 2.703833e+00 2.109246e+00 3.568635e+00 3.934008e+00 3.270977e+00 2.935163e+00 2.679013e+00 2.092788e+00 2.013750e+00 4.406971e+00 2.135900e+00 2.995745e+00
<GCONST> 1.022821e+02
<STATE> 4
<MEAN> 25
 1.278310e+00 8.843614e-01 -2.560515e+00 5.924475e-01 3.992726e-02 3.158208e-01 1.252245e+00 9.407876e-01 5.439890e-01 4.720106e-01 1.032655e+00 1.549231e+00 -1.605087e-01 2.709522e-01 4.071843e-02 2.555148e-01 1.760681e-01 1.838040e-01 -8.730418e-03 1.280478e-01 3.628529e-02 4.652497e-02 -2.080306e-01 -2.863251e-02 -4.167986e-01
<VARIANCE> 25
 3.102929e+01 6.785709e+01 4.335255e+01 5.183319e+01 4.518552e+01 4.502972e+01 4.357679e+01 3.112407e+01 2.498234e+01 3.033693e+01 4.810009e+01 2.256217e+01 1.016310e+00 2.591281e+00 2.097937e+00 3.287698e+00 3.580911e+00 3.062459e+00 2.692235e+00 2.367845e+00 1.878864e+00 1.858981e+00 3.919587e+00 1.939301e+00 2.540523e+00
<GCONST> 1.011254e+02
<TRANSP> 5
 0.000000e+00 1.000000e+00 0.000000e+00 0.000000e+00 0.000000e+00
 0.000000e+00 6.668092e-01 3.331908e-01 0.000000e+00 0.000000e+00
 0.000000e+00 0.000000e+00 6.668091e-01 3.331909e-01 0.000000e+00
 0.000000e+00 0.000000e+00 0.000000e+00 8.010762e-01 1.989238e-01
 0.000000e+00 0.000000e+00 0.000000e+00 0.000000e+00 0.000000e+00
<ENDHMM>
~h "b"
<BEGINHMM>
<NUMSTATES> 5
<STATE> 2
<MEAN> 25
 8.757103e-01 3.940815e-01 3.203329e-01 2.794971e-01 4.932142e-01 4.941707e-01 -7.454125e-01 -2.123808e-01 -3.800631e-01 -3.261709e-01 -3.500174e-01 -2.369416e-01 6.584691e-02 1.501826e-02 2.742940e-02 -4.154274e-02 -2.894410e-02 -1.140635e-02 -3.720844e-02 9.175997e-04 -3.576551e-02 -3.789727e-02 -3.179514e-02 -3.789524e-02 1.024315e-01
<VARIANCE> 25
 7.021768e+01 3.530023e+01 5.438492e+01 5.137754e+01 4.775059e+01 4.435664e+01 5.690305e+01 4.564439e+01 6.125829e+01 3.343973e+01 3.706457e+01 4.204289e+01 2.270859e+00 1.940010e+00 2.053225e+00 2.594694e+00 2.543928e+00 2.780367e+00 2.864146e+00 3.154269e+00 3.361361e+00 2.571943e+00 2.538080e+00 2.286957e+00 2.777263e+00
<GCONST> 1.044445e+02
<STATE> 3
<MEAN> 25
 1.125587e+00 4.260203e-01 4.003873e-01 4.327980e-02 3.221712e-01 4.566302e-01 -8.938618e-01 -2.107889e-01 -5.201707e-01 -4.429606e-01 -4.445354e-01 -3.865591e-01 5.187391e-02 6.570973e-03 1.773109e-02 -5.691895e-02 -4.093654e-02 -1.074695e-02 -3.044716e-02 2.977294e-03 -2.836645e-02 -2.368445e-02 -1.897299e-02 -3.131634e-02 9.589516e-02
<VARIANCE> 25
 7.073441e+01 3.597015e+01 5.532891e+01 5.437659e+01 4.961919e+01 4.547882e+01 5.714206e+01 4.624121e+01 6.126518e+01 3.360423e+01 3.775718e+01 4.241533e+01 2.279957e+00 1.907306e+00 2.103967e+00 2.761146e+00 2.672778e+00 2.879801e+00 2.896855e+00 3.136880e+00 3.411190e+00 2.586700e+00 2.578727e+00 2.284806e+00 2.892167e+00
<GCONST> 1.048974e+02
<STATE> 4
<MEAN> 25
 1.261160e+00 3.816571e-01 5.152027e-01 -5.185204e-01 -2.148106e-01 2.689925e-01 -1.053163e+00 -2.637650e-01 -7.630613e-01 -4.483633e-01 -4.469455e-01 -5.585954e-01 1.800342e-02 -3.422622e-03 1.645175e-02 -5.643243e-02 -5.471203e-02 -1.682356e-02 -1.153836e-02 -2.637631e-03 -2.260674e-02 -2.449813e-03 3.136654e-03 -1.749117e-02 5.493807e-02
<VARIANCE> 25
 7.345409e+01 3.601193e+01 5.817095e+01 5.720412e+01 5.560284e+01 4.832742e+01 5.901627e+01 4.515084e+01 6.309304e+01 3.367299e+01 3.730927e+01 4.307134e+01 2.297021e+00 1.827415e+00 2.187325e+00 2.918226e+00 2.886617e+00 2.993137e+00 2.920535e+00 3.081906e+00 3.487533e+00 2.609020e+00 2.586169e+00 2.262305e+00 2.946619e+00
<GCONST> 1.054622e+02
<TRANSP> 5
 0.000000e+00 1.000000e+00 0.000000e+00 0.000000e+00 0.000000e+00
 0.000000e+00 7.695246e-01 2.304754e-01 0.000000e+00 0.000000e+00
 0.000000e+00 0.000000e+00 7.695247e-01 2.304753e-01 0.000000e+00
 0.000000e+00 0.000000e+00 0.000000e+00 8.994954e-01 1.005046e-01
 0.000000e+00 0.000000e+00 0.000000e+00 0.000000e+00 0.000000e+00
<ENDHMM>
~h "d"
<BEGINHMM>
<NUMSTATES> 5
<STATE> 2
<MEAN> 25
 7.937235e-01 3.363492e-01 5.322843e-01 5.117033e-01 -3.160305e-01 -6.457361e-01 -1.409669e-02 -3.179856e-01 -7.155589e-01 -5.712771e-01 -1.893463e-01 -5.248330e-01 -4.791059e-04 -1.484263e-02 -5.449278e-02 -5.066022e-02 -2.775249e-02 1.681971e-03 -2.080158e-04 1.002980e-02 1.261839e-02 -3.254407e-03 2.234569e-02 2.587449e-02 -1.627449e-02
<VARIANCE> 25
 6.116531e+01 3.397073e+01 6.215079e+01 4.932750e+01 5.327802e+01 5.397623e+01 5.001447e+01 4.676160e+01 5.796296e+01 3.483309e+01 2.978175e+01 3.824857e+01 1.891910e+00 1.573011e+00 1.957518e+00 2.551658e+00 2.931465e+00 3.119441e+00 2.682111e+00 3.119920e+00 2.912342e+00 2.592067e+00 2.105196e+00 2.114697e+00 2.241699e+00
<GCONST> 1.033424e+02
<STATE> 3
<MEAN> 25
 7.479182e-01 3.208816e-01 3.269788e-01 3.722279e-01 -3.629262e-01 -5.669385e-01 3.480874e-02 -2.627747e-01 -6.336842e-01 -5.479228e-01 -1.266634e-01 -4.302435e-01 -1.339834e-02 4.213736e-03 -5.647518e-02 -4.345655e-02 -1.780833e-02 2.059603e-02 1.418766e-03 1.404818e-02 2.341725e-02 7.666192e-03 1.800974e-02 2.929275e-02 -4.159185e-02
<VARIANCE> 25
 6.093635e+01 3.294946e+01 6.146929e+01 4.898865e+01 5.262410e+01 5.302468e+01 4.905611e+01 4.605600e+01 5.752158e+01 3.463150e+01 2.969077e+01 3.840787e+01 1.914627e+00 1.493060e+00 1.940878e+00 2.566238e+00 2.894020e+00 3.000187e+00 2.643585e+00 3.102033e+00 2.912773e+00 2.577374e+00 2.117265e+00 2.125467e+00 2.160715e+00
<GCONST> 1.030665e+02
<STATE> 4
<MEAN> 25
 5.604289e-01 3.749875e-01 1.799294e-01 2.914712e-01 -2.432267e-01 -2.698971e-01 1.831690e-01 -1.111541e-01 -4.344760e-01 -4.949295e-01 -1.542192e-01 -4.054266e-01 -2.685930e-02 1.314104e-02 -4.614466e-02 -2.515188e-02 7.056513e-03 3.659476e-02 1.149026e-02 1.858338e-02 3.180523e-02 1.889698e-02 6.806398e-03 2.415403e-02 -4.848921e-02
<VARIANCE> 25
 6.220706e+01 3.222424e+01 5.930339e+01 4.876872e+01 5.097398e+01 5.130107e+01 4.754184e+01 4.562002e+01 5.621307e+01 3.439848e+01 2.878616e+01 3.852305e+01 1.970620e+00 1.411773e+00 1.922337e+00 2.524114e+00 2.853704e+00 2.866944e+00 2.531004e+00 3.055238e+00 2.911218e+00 2.514240e+00 2.093138e+00 2.107388e+00 2.052658e+00
<GCONST> 1.025929e+02
<TRANSP> 5
 0.000000e+00 1.000000e+00 0.000000e+00 0.000000e+00 0.000000e+00
 0.000000e+00 7.646047e-01 2.353954e-01 0.000000e+00 0.000000e+00
 0.000000e+00 0.000000e+00 7.646043e-01 2.353957e-01 0.000000e+00
 0.000000e+00 0.000000e+00 0.000000e+00 8.953303e-01 1.046697e-01
 0.000000e+00 0.000000e+00 0.000000e+00 0.000000e+00 0.000000e+00
<ENDHMM>
~h "e"
<BEGINHMM>
<NUMSTATES> 5
<STATE> 2
<MEAN> 25
 8.548732e-01 -2.698964e+00 3.405543e+00 -2.550380e+00 2.885928e-01 -2.695907e-01 -8.446971e-01 -2.318986e+00 -1.267472e+00 -1.709282e+00 6.785479e-01 -6.748125e-02 3.450082e-02 4.977074e-02 -2.512473e-01 -1.101256e-01 -1.009451e-01 1.269588e-02 7.557785e-02 2.029673e-01 5.000875e-03 -9.096275e-02 -5.774936e-03 1.109637e-01 -1.527443e-01
<VARIANCE> 25
 6.669067e+01 6.723738e+01 1.177269e+02 9.069908e+01 4.237695e+01 7.253990e+01 3.789840e+01 4.463078e+01 2.455456e+01 4.634722e+01 4.240794e+01 2.773549e+01 3.896504e+00 4.496073e+00 5.736220e+00 4.613498e+00 3.342259e+00 5.302134e+00 2.852563e+00 4.129193e+00 2.329731e+00 2.943206e+00 2.933669e+00 1.784851e+00 2.876383e+00
<GCONST> 1.093198e+02
<STATE> 3
<MEAN> 25
 1.030792e+00 -2.595156e+00 2.577359e+00 -2.840316e+00 -2.207723e-02 -4.307773e-01 -7.070271e-01 -1.760563e+00 -1.273742e+00 -2.023661e+00 7.119064e-01 1.576960e-01 4.499737e-02 4.559106e-03 -2.662798e-01 -1.229961e-01 -1.345721e-01 -5.784759e-02 5.998789e-02 1.720403e-01 -4.496402e-03 -9.088527e-02 2.831027e-02 9.234245e-02 -9.585597e-02
<VARIANCE> 25
 6.750563e+01 6.589258e+01 1.170281e+02 8.608392e+01 4.208602e+01 7.349541e+01 3.869445e+01 4.357460e+01 2.409751e+01 4.632133e+01 4.479664e+01 2.848912e+01 3.714485e+00 4.349066e+00 5.382976e+00 4.448192e+00 3.298552e+00 5.192342e+00 3.019617e+00 4.017939e+00 2.306545e+00 2.951783e+00 2.988453e+00 1.743883e+00 2.891004e+00
<GCONST> 1.091265e+02
<STATE> 4
<MEAN> 25
 1.624679e+00 -2.526215e+00 1.258676e+00 -3.001131e+00 -5.323017e-01 -1.097615e+00 -6.590515e-01 -1.343127e+00 -1.321717e+00 -2.327731e+00 1.042433e+00 3.675986e-01 6.759148e-02 2.293973e-03 -2.836991e-01 -4.688459e-02 -1.530311e-01 -1.067633e-01 2.697098e-02 7.835864e-02 6.351069e-04 -1.207507e-02 8.094329e-02 7.677761e-02 -7.266594e-02
<VARIANCE> 25
 6.382412e+01 6.184660e+01 1.119059e+02 7.810621e+01 4.118684e+01 7.296613e+01 4.005057e+01 4.291622e+01 2.396487e+01 4.538752e+01 4.662192e+01 3.166661e+01 3.357371e+00 4.183663e+00 5.081715e+00 4.159741e+00 3.235674e+00 4.978925e+00 3.145282e+00 3.748335e+00 2.186217e+00 2.928774e+00 3.045002e+00 1.809357e+00 2.743068e+00
<GCONST> 1.085625e+02
<TRANSP> 5
 0.000000e+00 1.000000e+00 0.000000e+00 0.000000e+00 0.000000e+00
 0.000000e+00 6.599858e-01 3.400142e-01 0.000000e+00 0.000000e+00
 0.000000e+00 0.000000e+00 6.599857e-01 3.400144e-01 0.000000e+00
 0.000000e+00 0.000000e+00 0.000000e+00 7.768333e-01 2.231667e-01
 0.000000e+00 0.000000e+00 0.000000e+00 0.000000e+00 0.000000e+00
<ENDHMM>
~h "f"
<BEGINHMM>
<NUMSTATES> 5
<STATE> 2
<MEAN> 25
 -5.839774e-02 -2.390970e-01 -8.571208e-01 -2.935717e-01 -3.229663e-01 -3.291385e-02 -1.224976e-01 1.152568e+00 -2.629278e-01 -6.971288e-01 -6.043974e-01 2.392308e-01 3.481450e-03 -1.015449e-02 4.771452e-03 -1.683567e-03 -2.751013e-03 1.156292e-02 -2.103495e-02 -2.029665e-03 4.944296e-03 1.012229e-02 1.455426e-03 1.721377e-02 -4.287341e-02
<VARIANCE> 25
 9.108178e+01 3.240884e+01 4.351186e+01 4.468098e+01 4.270934e+01 6.290010e+01 5.448964e+01 4.763713e+01 4.017504e+01 3.505373e+01 2.959052e+01 3.397629e+01 3.436642e+00 1.785508e+00 1.868820e+00 2.244486e+00 2.644803e+00 3.187746e+00 2.733688e+00 2.772926e+00 2.929518e+00 2.565767e+00 2.237577e+00 2.000608e+00 1.748668e+00
<GCONST> 1.029108e+02
<STATE> 3
<MEAN> 25
 -3.448432e-02 -2.841669e-01 -8.140106e-01 -2.817508e-01 -3.409948e-01 8.702282e-03 -2.144001e-01 1.133611e+00 -2.418346e-01 -6.588398e-01 -5.929633e-01 3.210756e-01 5.385373e-03 -8.956824e-03 9.690006e-03 3.271186e-03 -3.469987e-03 7.389976e-03 -1.944774e-02 -6.605683e-03 5.000366e-03 8.957204e-03 2.277846e-03 1.863256e-02 -4.850748e-02
<VARIANCE> 25
 9.000097e+01 3.179119e+01 4.396178e+01 4.371674e+01 4.278785e+01 6.193826e+01 5.375278e+01 4.675400e+01 3.974942e+01 3.464037e+01 2.965198e+01 3.407651e+01 3.368289e+00 1.740555e+00 1.837878e+00 2.179677e+00 2.627123e+00 3.161139e+00 2.701688e+00 2.760458e+00 2.896069e+00 2.543326e+00 2.214780e+00 1.985080e+00 1.702525e+00
<GCONST> 1.026167e+02
<STATE> 4
<MEAN> 25
 -9.261397e-02 -3.965479e-01 -4.322301e-01 -1.299215e-01 -4.458178e-01 2.589186e-02 -2.472938e-01 8.594548e-01 -2.114050e-01 -7.014945e-01 -5.733160e-01 4.140804e-01 1.049655e-02 -7.150963e-03 1.890863e-02 9.626246e-03 -2.440520e-03 8.219723e-05 -1.589649e-02 -1.278166e-02 5.716654e-03 4.989556e-03 9.630448e-04 1.657501e-02 -5.316126e-02
<VARIANCE> 25
 8.668095e+01 3.065787e+01 4.792190e+01 4.302045e+01 4.296568e+01 5.817076e+01 5.295741e+01 4.457941e+01 3.971516e+01 3.457845e+01 3.015301e+01 3.496002e+01 3.271861e+00 1.646104e+00 1.845034e+00 2.123978e+00 2.628662e+00 3.095439e+00 2.664887e+00 2.724441e+00 2.867077e+00 2.541391e+00 2.193336e+00 1.987266e+00 1.645747e+00
<GCONST> 1.023241e+02
<TRANSP> 5
 0.000000e+00 1.000000e+00 0.000000e+00 0.000000e+00 0.000000e+00
 0.000000e+00 7.776212e-01 2.223789e-01 0.000000e+00 0.000000e+00
 0.000000e+00 0.000000e+00 7.776211e-01 2.223789e-01 0.000000e+00
 0.000000e+00 0.000000e+00 0.000000e+00 9.080441e-01 9.195596e-02
 0.000000e+00 0.000000e+00 0.000000e+00 0.000000e+00 0.000000e+00
<ENDHMM>
~h "g"
<BEGINHMM>
<NUMSTATES> 5
<STATE> 2
<MEAN> 25
 9.268218e-01 3.800579e-01 1.891957e+00 1.045756e+00 8.221290e-01 -1.453874e+00 -1.260013e+00 -9.576201e-01 2.243705e-01 -1.981872e-01 -3.350968e-01 -1.796314e+00 5.097518e-02 -9.155410e-02 1.193862e-01 -1.283922e-02 -3.701371e-02 -4.219959e-02 -1.924264e-01 -1.575096e-01 -1.405619e-03 -8.775388e-03 1.013769e-01 1.582827e-02 1.357398e-01
<VARIANCE> 25
 4.587546e+01 5.150106e+01 6.747340e+01 5.231591e+01 4.655847e+01 6.143711e+01 5.357703e+01 6.112085e+01 4.823791e+01 2.690345e+01 3.469197e+01 4.266023e+01 2.589417e+00 3.864602e+00 3.208493e+00 3.390361e+00 2.994555e+00 3.789334e+00 3.051340e+00 4.559141e+00 2.549668e+00 2.446068e+00 2.520150e+00 2.478664e+00 3.093071e+00
<GCONST> 1.069477e+02
<STATE> 3
<MEAN> 25
 8.038113e-01 -6.838084e-02 2.288936e+00 7.752480e-01 6.281812e-01 -1.337998e+00 -1.621835e+00 -1.117407e+00 2.518797e-01 -1.848005e-01 -1.351277e-01 -1.718951e+00 -7.086602e-02 -1.631703e-01 1.404954e-01 -1.416284e-01 -7.248313e-02 7.432373e-02 -9.523237e-02 -2.040439e-02 -1.772244e-03 8.770497e-03 7.805617e-02 3.807645e-02 6.359913e-02
<VARIANCE> 25
 5.058839e+01 5.061985e+01 7.798955e+01 5.682796e+01 4.669906e+01 6.439227e+01 5.354530e+01 6.083764e+01 4.956446e+01 2.727107e+01 3.375686e+01 4.210365e+01 2.805556e+00 3.443859e+00 3.515022e+00 3.556535e+00 3.047904e+00 3.934439e+00 2.916633e+00 4.494613e+00 2.640845e+00 2.388909e+00 2.441448e+00 2.419565e+00 2.787342e+00
<GCONST> 1.072522e+02
<STATE> 4
<MEAN> 25
 4.175679e-01 -5.283778e-01 2.247115e+00 8.953574e-03 7.264530e-02 -9.998934e-01 -1.437499e+00 -8.388059e-01 7.769176e-02 -2.590857e-01 -1.235745e-01 -1.426697e+00 -9.439184e-02 -1.353412e-01 9.649312e-02 -1.605712e-01 -5.997982e-02 9.902048e-02 -1.416433e-02 3.849014e-02 -2.406294e-02 8.174647e-03 5.301894e-02 3.640614e-02 1.896850e-02
<VARIANCE> 25
 5.723105e+01 4.639124e+01 8.993351e+01 5.883396e+01 4.933440e+01 6.622298e+01 5.173922e+01 5.606789e+01 5.706659e+01 2.806277e+01 3.163568e+01 4.352835e+01 2.904815e+00 2.902799e+00 3.559426e+00 3.542259e+00 3.069796e+00 3.738896e+00 2.818145e+00 4.018919e+00 2.857830e+00 2.380700e+00 2.307674e+00 2.295967e+00 2.600221e+00
<GCONST> 1.071501e+02
<TRANSP> 5
 0.000000e+00 1.000000e+00 0.000000e+00 0.000000e+00 0.000000e+00
 0.000000e+00 7.387697e-01 2.612304e-01 0.000000e+00 0.000000e+00
 0.000000e+00 0.000000e+00 7.387694e-01 2.612306e-01 0.000000e+00
 0.000000e+00 0.000000e+00 0.000000e+00 8.727781e-01 1.272219e-01
 0.000000e+00 0.000000e+00 0.000000e+00 0.000000e+00 0.000000e+00
<ENDHMM>
~h "i"
<BEGINHMM>
<NUMSTATES> 5
<STATE> 2
<MEAN> 25
 -5.518364e-01 5.750033e-01 3.435809e-01 6.109197e+00 2.720624e+00 -1.962344e+00 -3.150698e+00 3.158013e-01 -3.507021e-01 4.011108e-02 -9.129403e-01 -1.560512e+00 -1.629222e-01 2.034677e-01 -2.710515e-02 2.111042e-01 5.891135e-02 1.050320e-01 3.394175e-02 1.854816e-02 1.054144e-01 1.111195e-01 -1.866926e-01 3.393293e-02 -3.520839e-01
<VARIANCE> 25
 2.705479e+01 4.308161e+01 4.220368e+01 5.563355e+01 4.010650e+01 5.538152e+01 4.230308e+01 4.010788e+01 2.975542e+01 3.050752e+01 3.483266e+01 3.718773e+01 9.658190e-01 2.234797e+00 2.347988e+00 3.312588e+00 2.636613e+00 3.573118e+00 3.686228e+00 2.408067e+00 1.830132e+00 1.585143e+00 2.224385e+00 1.911092e+00 1.668411e+00
<GCONST> 1.001600e+02
<STATE> 3
<MEAN> 25
 -1.147387e+00 1.151846e+00 1.546643e-01 6.431108e+00 2.698598e+00 -1.511099e+00 -2.875662e+00 4.229439e-01 2.999369e-02 4.251144e-01 -1.443450e+00 -1.355459e+00 -1.846158e-01 2.165993e-01 -6.279279e-02 1.343224e-01 -1.209356e-02 1.289079e-01 1.062025e-01 9.165672e-02 1.469688e-01 1.561240e-01 -1.442752e-01 6.990361e-02 -3.832216e-01
<VARIANCE> 25
 2.684667e+01 4.008009e+01 3.856714e+01 5.338361e+01 3.727652e+01 5.657308e+01 4.108414e+01 4.057598e+01 2.912592e+01 2.858013e+01 3.255107e+01 3.567778e+01 8.527842e-01 1.949711e+00 2.111589e+00 2.962082e+00 2.412606e+00 3.329105e+00 3.520887e+00 2.318573e+00 1.731333e+00 1.500099e+00 2.078228e+00 1.765550e+00 1.398838e+00
<GCONST> 9.852711e+01
<STATE> 4
<MEAN> 25
 -2.578360e+00 1.421233e+00 -2.957559e-01 5.788103e+00 1.971271e+00 -2.461265e-01 -1.845164e+00 8.056971e-01 6.290928e-01 1.105229e+00 -1.853006e+00 -6.776221e-01 -1.685422e-01 1.567964e-01 -9.924391e-02 6.269882e-03 -9.796223e-02 1.325187e-01 1.224052e-01 1.187610e-01 1.535186e-01 1.556807e-01 -7.158141e-02 8.669201e-02 -3.267225e-01
<VARIANCE> 25
 2.705301e+01 3.826623e+01 3.220369e+01 5.025612e+01 3.305545e+01 5.694128e+01 3.763761e+01 3.613196e+01 2.695025e+01 2.389238e+01 2.563612e+01 3.225726e+01 6.869771e-01 1.533033e+00 1.688070e+00 2.213206e+00 1.936576e+00 2.810844e+00 2.970901e+00 1.961558e+00 1.500079e+00 1.328709e+00 1.686210e+00 1.521660e+00 1.030287e+00
<GCONST> 9.470787e+01
<TRANSP> 5
 0.000000e+00 1.000000e+00 0.000000e+00 0.000000e+00 0.000000e+00
 0.000000e+00 6.907501e-01 3.092498e-01 0.000000e+00 0.000000e+00
 0.000000e+00 0.000000e+00 6.907498e-01 3.092501e-01 0.000000e+00
 0.000000e+00 0.000000e+00 0.000000e+00 8.283395e-01 1.716605e-01
 0.000000e+00 0.000000e+00 0.000000e+00 0.000000e+00 0.000000e+00
<ENDHMM>
~h "j"
<BEGINHMM>
<NUMSTATES> 5
<STATE> 2
<MEAN> 25
 1.130666e+00 -1.720714e+00 5.193361e+00 5.051781e+00 3.610591e+00 -3.430504e-01 1.290183e-01 2.369246e-01 1.341905e+00 -1.621295e+00 -4.014969e+00 -5.591161e+00 4.300973e-01 4.336337e-01 -3.986159e-01 7.255812e-01 3.238932e-01 -3.691796e-01 -3.094328e-02 -2.905128e-01 -2.573627e-01 1.936935e-02 1.359589e-01 1.177342e-01 -3.097385e-01
<VARIANCE> 25
 3.321884e+01 1.137161e+02 5.237444e+01 6.634607e+01 3.492191e+01 4.082262e+01 4.143306e+01 5.226118e+01 2.284398e+01 2.109517e+01 4.070220e+01 1.502133e+01 3.955822e+00 9.801579e+00 5.973664e+00 6.745718e+00 5.273869e+00 5.963866e+00 2.979537e+00 2.990346e+00 2.369032e+00 2.929178e+00 3.498762e+00 1.515929e+00 5.533117e+00
<GCONST> 1.081793e+02
<STATE> 3
<MEAN> 25
 1.725675e+00 -5.363219e-01 4.409242e+00 6.355127e+00 4.266401e+00 -4.882756e-01 4.507173e-02 -2.774868e-01 7.532099e-01 -1.137455e+00 -3.356946e+00 -4.848395e+00 1.061456e-01 2.369432e-01 -2.085075e-01 2.980058e-01 1.252841e-01 2.761973e-02 1.958342e-02 -1.491067e-01 -2.772786e-01 2.298512e-01 3.929347e-01 3.242707e-01 -3.637005e-01
<VARIANCE> 25
 2.247018e+01 9.608165e+01 4.602095e+01 5.036981e+01 3.445561e+01 4.413210e+01 3.920719e+01 5.172705e+01 2.422097e+01 2.482054e+01 3.820946e+01 1.667912e+01 3.394296e+00 1.065746e+01 5.939975e+00 6.090333e+00 5.110028e+00 6.675110e+00 3.117664e+00 2.688239e+00 2.711344e+00 3.188932e+00 3.557100e+00 1.686344e+00 7.044600e+00
<GCONST> 1.079038e+02
<STATE> 4
<MEAN> 25
 1.534135e+00 4.142710e-02 4.068701e+00 6.536149e+00 4.645232e+00 4.588042e-01 2.088100e-01 -4.042470e-01 5.182540e-02 -3.573261e-01 -1.998429e+00 -3.620947e+00 -1.387165e-01 -3.375487e-02 -7.338128e-02 -1.466549e-01 -6.202285e-02 2.662660e-01 7.029698e-02 7.857843e-03 -2.430072e-01 2.191881e-01 5.050938e-01 3.808092e-01 -2.619646e-01
<VARIANCE> 25
 2.093498e+01 9.011449e+01 4.665504e+01 4.482216e+01 3.958260e+01 5.182304e+01 3.543368e+01 4.518551e+01 2.434289e+01 2.930586e+01 3.873446e+01 1.757817e+01 2.877979e+00 1.179926e+01 6.021989e+00 5.085787e+00 5.118587e+00 7.306043e+00 3.470610e+00 2.851219e+00 3.196898e+00 3.705290e+00 4.054900e+00 1.850937e+00 9.544280e+00
<GCONST> 1.088371e+02
<TRANSP> 5
 0.000000e+00 1.000000e+00 0.000000e+00 0.000000e+00 0.000000e+00
 0.000000e+00 5.983645e-01 4.016355e-01 0.000000e+00 0.000000e+00
 0.000000e+00 0.000000e+00 5.983644e-01 4.016356e-01 0.000000e+00
 0.000000e+00 0.000000e+00 0.000000e+00 7.030526e-01 2.969474e-01
 0.000000e+00 0.000000e+00 0.000000e+00 0.000000e+00 0.000000e+00
<ENDHMM>
~h "k"
<BEGINHMM>
<NUMSTATES> 5
<STATE> 2
<MEAN> 25
 -2.881449e-01 -7.114465e-01 -3.208933e-01 -3.947448e-01 4.125363e-02 -8.007308e-01 1.543372e-01 7.698125e-02 -2.387625e-01 -2.797414e-01 4.432624e-01 1.539546e-01 7.828361e-02 -2.040238e-02 1.234698e-02 3.065551e-02 -1.364715e-02 -8.543394e-02 -3.051051e-02 -2.865064e-02 -3.439604e-02 -3.831128e-02 -2.519761e-02 -8.009017e-02 1.237461e-01
<VARIANCE> 25
 6.538887e+01 3.275415e+01 5.434628e+01 4.642501e+01 5.383606e+01 5.045018e+01 5.256145e+01 4.315646e+01 5.539482e+01 3.388387e+01 3.149017e+01 3.894839e+01 2.330090e+00 2.339806e+00 2.398264e+00 2.955372e+00 2.825946e+00 3.549361e+00 2.914015e+00 3.186680e+00 3.336514e+00 2.365553e+00 2.554054e+00 2.212203e+00 3.184361e+00
<GCONST> 1.048769e+02
<STATE> 3
<MEAN> 25
 6.093505e-02 -7.484701e-01 -2.883202e-01 -2.603926e-01 -1.092439e-02 -1.013565e+00 1.419904e-03 -1.493169e-02 -3.769633e-01 -4.342322e-01 3.328437e-01 -1.500394e-01 9.791352e-02 -1.600747e-02 1.516197e-02 3.699600e-02 -9.284562e-03 -5.940434e-02 -4.152763e-02 -2.804305e-02 -3.120149e-02 -3.861716e-02 -2.590826e-02 -8.554821e-02 1.140910e-01
<VARIANCE> 25
 6.609483e+01 3.278073e+01 5.395416e+01 4.650568e+01 5.510162e+01 5.212288e+01 5.438456e+01 4.414917e+01 5.583806e+01 3.465531e+01 3.211553e+01 3.944184e+01 2.321863e+00 2.261119e+00 2.408131e+00 2.937405e+00 2.874433e+00 3.611648e+00 2.948744e+00 3.237075e+00 3.398355e+00 2.355917e+00 2.593947e+00 2.259409e+00 3.088742e+00
<GCONST> 1.051010e+02
<STATE> 4
<MEAN> 25
 5.870984e-01 -6.445585e-01 -1.392190e-01 -1.673560e-01 -1.224393e-01 -8.981251e-01 -8.968277e-02 -1.344940e-01 -4.862430e-01 -5.027150e-01 1.583529e-01 -5.904541e-01 7.038791e-02 -1.146286e-03 2.041706e-02 2.839760e-02 -2.231590e-03 -1.865749e-02 -2.619183e-02 -1.656665e-02 -1.799373e-02 -2.394069e-02 -1.944930e-02 -5.889254e-02 5.772620e-02
<VARIANCE> 25
 6.998601e+01 3.230585e+01 5.293348e+01 4.666186e+01 5.669495e+01 5.434125e+01 5.586401e+01 4.617268e+01 5.635440e+01 3.532633e+01 3.218473e+01 4.050167e+01 2.352262e+00 2.043264e+00 2.340724e+00 2.846277e+00 2.815818e+00 3.523806e+00 2.937945e+00 3.247609e+00 3.396243e+00 2.407033e+00 2.529539e+00 2.260146e+00 2.784966e+00
<GCONST> 1.050254e+02
<TRANSP> 5
 0.000000e+00 1.000000e+00 0.000000e+00 0.000000e+00 0.000000e+00
 0.000000e+00 7.472843e-01 2.527157e-01 0.000000e+00 0.000000e+00
 0.000000e+00 0.000000e+00 7.472833e-01 2.527167e-01 0.000000e+00
 0.000000e+00 0.000000e+00 0.000000e+00 8.789232e-01 1.210768e-01
 0.000000e+00 0.000000e+00 0.000000e+00 0.000000e+00 0.000000e+00
<ENDHMM>
~h "l"
<BEGINHMM>
<NUMSTATES> 5
<STATE> 2
<MEAN> 25
 1.333926e+00 4.113939e-01 -2.756736e-01 -1.381068e+00 -4.591641e-01 4.414548e-01 -2.192103e-01 -2.457786e-01 -2.987147e-01 -2.275045e-01 1.217529e-01 -5.759284e-01 -3.966440e-02 -3.316803e-02 2.477435e-02 5.092232e-02 7.573122e-04 -8.994775e-03 6.089796e-03 -2.809506e-03 1.921265e-02 3.227858e-02 4.307608e-02 2.407443e-02 -2.149083e-02
<VARIANCE> 25
 6.887491e+01 3.703691e+01 4.801911e+01 6.465965e+01 4.528056e+01 5.847615e+01 4.793278e+01 4.371077e+01 5.397322e+01 3.483587e+01 3.148306e+01 4.222230e+01 1.938627e+00 1.544498e+00 1.777969e+00 2.727595e+00 2.380719e+00 2.871072e+00 2.412296e+00 2.810140e+00 2.921226e+00 2.436957e+00 2.168300e+00 2.109920e+00 1.664142e+00
<GCONST> 1.025964e+02
<STATE> 3
<MEAN> 25
 1.168712e+00 3.357582e-01 -1.693456e-01 -1.138348e+00 -4.093745e-01 3.820960e-01 -1.736822e-01 -2.383557e-01 -2.509066e-01 -1.251748e-01 2.605631e-01 -4.823196e-01 -4.672141e-02 -3.391120e-02 2.589858e-02 6.457029e-02 8.931574e-03 -8.400487e-03 7.973292e-03 3.583028e-04 1.429675e-02 3.152945e-02 4.615249e-02 2.497309e-02 -2.937174e-02
<VARIANCE> 25
 6.918323e+01 3.672672e+01 4.884846e+01 6.256530e+01 4.571081e+01 5.812687e+01 4.797142e+01 4.411278e+01 5.399834e+01 3.392358e+01 3.139146e+01 4.196777e+01 1.947437e+00 1.542931e+00 1.799686e+00 2.646275e+00 2.399833e+00 2.865672e+00 2.402800e+00 2.808955e+00 2.880397e+00 2.416732e+00 2.162660e+00 2.091624e+00 1.655741e+00
<GCONST> 1.025034e+02
<STATE> 4
<MEAN> 25
 1.004544e+00 4.669324e-01 3.311713e-02 -5.704621e-01 -1.675519e-01 3.234822e-01 -1.869710e-01 -2.009237e-01 -2.123440e-01 1.872427e-02 3.727274e-01 -3.606546e-01 -4.405388e-02 -1.582325e-02 1.514011e-02 6.188536e-02 1.649472e-02 -8.988103e-03 7.739595e-03 4.492619e-03 9.406870e-03 2.231609e-02 2.144110e-02 2.153951e-02 -4.076945e-02
<VARIANCE> 25
 7.025965e+01 3.812558e+01 5.077224e+01 5.878283e+01 4.591119e+01 5.773771e+01 4.930427e+01 4.514503e+01 5.445885e+01 3.253975e+01 3.148266e+01 4.196514e+01 1.968310e+00 1.536097e+00 1.839106e+00 2.526830e+00 2.376394e+00 2.841166e+00 2.442509e+00 2.839927e+00 2.860582e+00 2.367723e+00 2.108203e+00 2.090305e+00 1.653011e+00
<GCONST> 1.024859e+02
<TRANSP> 5
 0.000000e+00 1.000000e+00 0.000000e+00 0.000000e+00 0.000000e+00
 0.000000e+00 7.590340e-01 2.409660e-01 0.000000e+00 0.000000e+00
 0.000000e+00 0.000000e+00 7.590349e-01 2.409652e-01 0.000000e+00
 0.000000e+00 0.000000e+00 0.000000e+00 8.914302e-01 1.085698e-01
 0.000000e+00 0.000000e+00 0.000000e+00 0.000000e+00 0.000000e+00
<ENDHMM>
~h "m"
<BEGINHMM>
<NUMSTATES> 5
<STATE> 2
<MEAN> 25
 2.385064e-01 -8.846059e-02 5.543427e-01 -4.566611e-01 7.432532e-02 5.495481e-03 1.069479e-01 -1.151200e+00 -1.034513e+00 -4.389488e-02 -8.028339e-01 -8.789614e-01 9.358864e-02 7.999407e-03 1.869098e-02 -6.607061e-03 -5.130330e-03 -7.085235e-02 -4.662792e-02 -2.799400e-02 -4.251201e-02 -3.594521e-02 -4.096350e-02 -4.739437e-02 1.067789e-01
<VARIANCE> 25
 6.407260e+01 3.142387e+01 6.461249e+01 4.777033e+01 4.215501e+01 5.343917e+01 4.007605e+01 5.600530e+01 5.921558e+01 3.453877e+01 2.719971e+01 3.621842e+01 2.521423e+00 1.524981e+00 2.278244e+00 2.387327e+00 2.485036e+00 3.103669e+00 2.891319e+00 3.388091e+00 3.044916e+00 2.291429e+00 2.188321e+00 1.983892e+00 1.833542e+00
<GCONST> 1.029238e+02
<STATE> 3
<MEAN> 25
 5.619100e-01 -1.129369e-01 6.302562e-01 -4.698715e-01 -2.010410e-02 -1.635912e-01 -8.600739e-02 -1.224618e+00 -1.200518e+00 -2.049948e-01 -9.322031e-01 -1.025608e+00 7.780326e-02 -1.903715e-02 1.020646e-02 -5.961123e-03 -2.624112e-02 -3.992862e-02 -4.885614e-02 -2.276889e-02 -3.600495e-02 -4.197929e-02 -2.982357e-02 -2.991280e-02 9.469177e-02
<VARIANCE> 25
 6.326549e+01 3.097406e+01 6.609995e+01 4.841858e+01 4.437543e+01 5.376287e+01 4.098540e+01 5.778554e+01 5.954937e+01 3.482248e+01 2.756237e+01 3.634595e+01 2.509495e+00 1.533590e+00 2.270026e+00 2.410284e+00 2.542969e+00 2.975321e+00 2.899540e+00 3.508041e+00 3.054396e+00 2.313728e+00 2.214575e+00 2.030161e+00 1.839199e+00
<GCONST> 1.031508e+02
<STATE> 4
<MEAN> 25
 9.849017e-01 -3.314422e-01 7.954779e-01 -5.586842e-01 -4.118678e-01 -4.385347e-01 -4.432622e-01 -1.117702e+00 -1.286219e+00 -5.078136e-01 -8.913548e-01 -1.238716e+00 5.030346e-02 -1.730216e-02 3.330179e-03 -8.468485e-03 -3.587358e-02 -7.902041e-03 -3.156352e-02 5.226667e-03 -8.388089e-03 -3.507218e-02 4.701535e-03 -1.372464e-02 7.458311e-02
<VARIANCE> 25
 6.467960e+01 3.149701e+01 6.864843e+01 4.797902e+01 4.803385e+01 5.389088e+01 4.443101e+01 5.922952e+01 5.678378e+01 3.496273e+01 2.918918e+01 3.757609e+01 2.496763e+00 1.560107e+00 2.231595e+00 2.425946e+00 2.654511e+00 2.771772e+00 2.863096e+00 3.527746e+00 2.962882e+00 2.326213e+00 2.239554e+00 2.152367e+00 1.811971e+00
<GCONST> 1.034486e+02
<TRANSP> 5
 0.000000e+00 1.000000e+00 0.000000e+00 0.000000e+00 0.000000e+00
 0.000000e+00 7.655091e-01 2.344909e-01 0.000000e+00 0.000000e+00
 0.000000e+00 0.000000e+00 7.655095e-01 2.344904e-01 0.000000e+00
 0.000000e+00 0.000000e+00 0.000000e+00 8.979662e-01 1.020338e-01
 0.000000e+00 0.000000e+00 0.000000e+00 0.000000e+00 0.000000e+00
<ENDHMM>
~h "n"
<BEGINHMM>
<NUMSTATES> 5
<STATE> 2
<MEAN> 25
 2.689991e-01 9.044043e-02 -7.148168e-02 3.408746e-01 3.706718e-01 -5.569746e-01 6.055984e-01 5.323217e-02 -1.541741e-01 -3.446996e-01 -1.960933e-02 2.431869e-01 -2.752437e-02 7.282623e-02 -1.297753e-02 8.461601e-02 7.073503e-02 3.980520e-02 -7.357352e-04 5.773282e-02 6.517517e-02 1.632102e-02 -5.884985e-02 2.948784e-03 -1.019502e-01
<VARIANCE> 25
 5.602669e+01 3.294007e+01 5.500977e+01 4.044071e+01 4.917554e+01 4.442647e+01 4.763839e+01 5.023619e+01 5.482423e+01 3.108822e+01 4.215821e+01 3.826640e+01 1.826709e+00 1.810421e+00 1.826658e+00 2.534826e+00 2.789600e+00 2.712709e+00 2.589113e+00 3.145406e+00 2.754480e+00 2.192533e+00 2.967979e+00 1.977948e+00 2.144562e+00
<GCONST> 1.026523e+02
<STATE> 3
<MEAN> 25
 1.488628e-01 2.555525e-01 -1.323335e-01 5.615283e-01 5.664014e-01 -4.359231e-01 6.191729e-01 2.344261e-01 6.626319e-02 -2.648347e-01 -1.081350e-01 3.042761e-01 -3.617444e-02 6.884807e-02 -7.696169e-03 9.294928e-02 6.513651e-02 3.862407e-02 5.084766e-03 5.348943e-02 5.016350e-02 2.609994e-02 -6.087483e-02 -4.548019e-03 -1.044538e-01
<VARIANCE> 25
 5.578493e+01 3.361447e+01 5.536066e+01 4.078429e+01 4.872848e+01 4.461302e+01 4.752922e+01 4.921697e+01 5.422874e+01 3.112038e+01 4.195852e+01 3.816899e+01 1.826074e+00 1.783531e+00 1.830248e+00 2.479652e+00 2.717357e+00 2.696355e+00 2.596181e+00 3.053469e+00 2.723935e+00 2.200527e+00 2.902623e+00 1.961936e+00 2.069975e+00
<GCONST> 1.024703e+02
<STATE> 4
<MEAN> 25
 -2.059966e-01 1.952920e-01 -4.664158e-02 6.251706e-01 7.252532e-01 -2.688225e-01 5.627372e-01 2.656913e-01 2.759276e-01 -1.110333e-02 9.939589e-03 4.776925e-01 -3.204672e-02 3.177534e-02 -5.380425e-03 5.754936e-02 2.717767e-02 2.540725e-02 9.736503e-03 2.405419e-02 2.414771e-02 3.389952e-02 -1.872569e-02 3.974209e-03 -6.377962e-02
<VARIANCE> 25
 5.643307e+01 3.202492e+01 5.599384e+01 3.928851e+01 4.764001e+01 4.488680e+01 4.706029e+01 4.743195e+01 5.418357e+01 3.111453e+01 3.907137e+01 3.846864e+01 1.860662e+00 1.665735e+00 1.796816e+00 2.215014e+00 2.513488e+00 2.638730e+00 2.536574e+00 2.921662e+00 2.729375e+00 2.232678e+00 2.550050e+00 1.919356e+00 1.921693e+00
<GCONST> 1.017225e+02
<TRANSP> 5
 0.000000e+00 1.000000e+00 0.000000e+00 0.000000e+00 0.000000e+00
 0.000000e+00 7.505742e-01 2.494258e-01 0.000000e+00 0.000000e+00
 0.000000e+00 0.000000e+00 7.505737e-01 2.494263e-01 0.000000e+00
 0.000000e+00 0.000000e+00 0.000000e+00 8.854882e-01 1.145119e-01
 0.000000e+00 0.000000e+00 0.000000e+00 0.000000e+00 0.000000e+00
<ENDHMM>
~h "p"
<BEGINHMM>
<NUMSTATES> 5
<STATE> 2
<MEAN> 25
 5.261013e-01 4.128866e-01 3.901592e-01 -8.373981e-01 -7.914288e-01 1.814090e-03 -8.275409e-02 -3.440969e-01 -3.275156e-01 -1.746549e-01 -5.593360e-01 -5.864158e-01 -3.698899e-02 6.974673e-02 2.660783e-02 2.054152e-02 -3.293673e-02 3.167697e-02 6.545132e-03 1.854587e-02 -4.631854e-02 -5.351729e-03 -1.334195e-02 2.402819e-02 -1.034422e-01
<VARIANCE> 25
 5.932376e+01 3.286608e+01 4.949213e+01 5.136949e+01 4.676546e+01 5.129840e+01 5.614254e+01 4.002385e+01 4.911121e+01 3.193740e+01 3.085070e+01 3.594380e+01 2.509825e+00 2.260012e+00 2.137886e+00 2.819647e+00 2.621156e+00 3.387080e+00 3.346173e+00 2.892009e+00 3.108048e+00 2.549476e+00 2.458613e+00 2.064332e+00 3.242564e+00
<GCONST> 1.040884e+02
<STATE> 3
<MEAN> 25
 3.482188e-01 6.014721e-01 4.869469e-01 -7.348469e-01 -8.930743e-01 1.540356e-01 -1.470333e-01 -3.023579e-01 -4.286190e-01 -1.424781e-01 -5.149075e-01 -4.224794e-01 -6.788118e-02 4.633526e-02 1.769246e-02 3.052435e-02 -2.504942e-02 5.394342e-02 -2.355437e-02 1.133821e-02 -2.675418e-02 2.106128e-02 1.664399e-02 5.325248e-02 -1.257865e-01
<VARIANCE> 25
 6.048028e+01 3.215320e+01 4.958805e+01 5.217206e+01 4.715637e+01 5.110030e+01 5.644432e+01 4.038449e+01 4.986457e+01 3.188564e+01 3.147427e+01 3.514863e+01 2.553264e+00 2.195945e+00 2.162516e+00 2.738256e+00 2.572829e+00 3.240552e+00 3.277882e+00 2.907950e+00 3.097229e+00 2.551672e+00 2.428498e+00 2.033899e+00 3.324086e+00
<GCONST> 1.040209e+02
<STATE> 4
<MEAN> 25
 2.777839e-01 5.255825e-01 5.892075e-01 -4.918225e-01 -9.458523e-01 1.845982e-01 -4.807128e-01 -2.108460e-01 -2.776553e-01 -4.549422e-02 -1.264388e-01 -8.502103e-02 -2.483786e-02 -1.024561e-02 1.471096e-02 1.952826e-03 -2.006291e-02 2.194070e-02 -2.241159e-02 4.497604e-04 1.183678e-02 1.564112e-02 4.431790e-02 3.662673e-02 -2.095918e-02
<VARIANCE> 25
 6.149150e+01 3.025228e+01 5.001910e+01 5.290371e+01 4.873807e+01 4.945626e+01 5.951040e+01 4.220270e+01 5.082681e+01 3.215699e+01 3.155464e+01 3.476011e+01 2.438115e+00 1.933510e+00 2.163296e+00 2.506097e+00 2.551407e+00 2.873330e+00 3.164459e+00 2.913281e+00 3.038976e+00 2.488756e+00 2.359207e+00 1.978476e+00 2.903747e+00
<GCONST> 1.034560e+02
<TRANSP> 5
 0.000000e+00 1.000000e+00 0.000000e+00 0.000000e+00 0.000000e+00
 0.000000e+00 7.572407e-01 2.427593e-01 0.000000e+00 0.000000e+00
 0.000000e+00 0.000000e+00 7.572403e-01 2.427596e-01 0.000000e+00
 0.000000e+00 0.000000e+00 0.000000e+00 8.886502e-01 1.113498e-01
 0.000000e+00 0.000000e+00 0.000000e+00 0.000000e+00 0.000000e+00
<ENDHMM>
~h "r"
<BEGINHMM>
<NUMSTATES> 5
<STATE> 2
<MEAN> 25
 5.975239e-01 -1.471288e-01 -3.315929e-01 1.022814e+00 1.109740e-01 -2.656599e-01 -1.149279e+00 -3.076279e-01 -5.076448e-01 -6.283389e-01 1.742770e-01 1.042843e-01 -9.706061e-02 5.237447e-02 9.011078e-03 5.947108e-02 7.809348e-04 9.665919e-03 2.507811e-02 6.181685e-02 -9.903820e-03 2.203552e-02 -5.072028e-02 -7.388281e-03 -1.409374e-01
<VARIANCE> 25
 6.819443e+01 3.657509e+01 6.688954e+01 4.552294e+01 5.295577e+01 5.483024e+01 5.375497e+01 4.697329e+01 4.535399e+01 3.737739e+01 3.070832e+01 3.968970e+01 2.475911e+00 2.208812e+00 2.962065e+00 2.468931e+00 2.967639e+00 3.132827e+00 3.195069e+00 3.311427e+00 3.040762e+00 2.668695e+00 2.425144e+00 2.223959e+00 2.636148e+00
<GCONST> 1.051644e+02
<STATE> 3
<MEAN> 25
 2.460684e-01 -3.017491e-02 -2.347921e-01 1.164486e+00 9.473834e-02 -2.557514e-01 -1.051266e+00 -1.355118e-01 -5.182007e-01 -5.377031e-01 1.970487e-02 5.860503e-02 -1.017916e-01 3.566237e-02 2.869136e-02 4.013036e-02 -1.577583e-02 1.342007e-04 3.205538e-02 4.708891e-02 -5.052592e-03 2.847344e-02 -4.979720e-02 -1.545735e-02 -1.193583e-01
<VARIANCE> 25
 6.845860e+01 3.601145e+01 6.757792e+01 4.422640e+01 5.356808e+01 5.545113e+01 5.403166e+01 4.635353e+01 4.550958e+01 3.719008e+01 3.095161e+01 3.950132e+01 2.460935e+00 2.204027e+00 2.960334e+00 2.512361e+00 2.979776e+00 3.158870e+00 3.219179e+00 3.295716e+00 3.067396e+00 2.623550e+00 2.482019e+00 2.236668e+00 2.732412e+00
<GCONST> 1.052304e+02
<STATE> 4
<MEAN> 25
 -7.089162e-02 9.261147e-03 1.971707e-01 1.046389e+00 -1.288946e-01 -3.562193e-01 -8.475996e-01 -1.564385e-01 -5.084599e-01 -4.671793e-01 -1.406896e-01 -1.765095e-01 -6.822743e-02 1.409314e-02 3.652848e-02 8.191147e-03 -1.758413e-02 1.326685e-04 3.320548e-02 1.660227e-02 3.474466e-03 2.531624e-02 -3.408541e-02 -1.967979e-02 -5.828971e-02
<VARIANCE> 25
 7.135336e+01 3.460575e+01 6.917653e+01 4.274751e+01 5.529562e+01 5.470244e+01 5.546907e+01 4.626555e+01 4.725681e+01 3.682804e+01 3.069984e+01 3.910546e+01 2.459957e+00 2.020662e+00 2.905752e+00 2.571633e+00 2.968169e+00 3.116687e+00 3.181092e+00 3.223006e+00 3.156050e+00 2.556326e+00 2.441674e+00 2.237427e+00 2.688676e+00
<GCONST> 1.051098e+02
<TRANSP> 5
 0.000000e+00 1.000000e+00 0.000000e+00 0.000000e+00 0.000000e+00
 0.000000e+00 7.397974e-01 2.602026e-01 0.000000e+00 0.000000e+00
 0.000000e+00 0.000000e+00 7.397969e-01 2.602031e-01 0.000000e+00
 0.000000e+00 0.000000e+00 0.000000e+00 8.705394e-01 1.294606e-01
 0.000000e+00 0.000000e+00 0.000000e+00 0.000000e+00 0.000000e+00
<ENDHMM>
~h "s"
<BEGINHMM>
<NUMSTATES> 5
<STATE> 2
<MEAN> 25
 -1.908254e+00 -9.190125e-01 6.290786e-01 -1.775764e+00 1.907058e-01 -6.915997e-01 4.984431e-01 1.948554e-01 6.351470e-02 1.224520e-01 1.745945e-01 4.651571e-01 6.828301e-02 2.665935e-02 -7.771384e-02 1.793085e-02 -2.121464e-02 -4.282835e-02 9.982124e-03 -3.319998e-02 -2.283360e-02 -4.855102e-02 -1.917154e-02 2.967706e-03 5.612719e-02
<VARIANCE> 25
 1.025868e+02 4.876449e+01 7.788013e+01 6.115764e+01 5.520529e+01 6.798835e+01 5.426416e+01 4.420591e+01 4.169580e+01 3.341899e+01 2.933797e+01 3.340300e+01 3.875715e+00 2.443213e+00 3.722439e+00 2.728853e+00 2.462945e+00 3.592921e+00 2.790292e+00 3.140419e+00 2.824061e+00 2.270430e+00 2.035745e+00 1.951616e+00 2.244414e+00
<GCONST> 1.060367e+02
<STATE> 3
<MEAN> 25
 -1.612791e+00 -8.072954e-01 3.446247e-01 -1.587927e+00 9.688292e-02 -7.952584e-01 4.958302e-01 6.144265e-02 -2.958196e-02 -5.210732e-02 8.321529e-02 4.720868e-01 1.182690e-01 5.754963e-02 -1.303706e-01 6.454344e-02 -2.080534e-02 -4.570399e-02 4.336088e-03 -4.287535e-02 -2.198459e-02 -5.441117e-02 -1.826723e-02 1.009069e-02 1.713669e-02
<VARIANCE> 25
 1.006788e+02 4.791350e+01 7.326645e+01 5.958583e+01 5.433583e+01 6.641889e+01 5.291936e+01 4.494427e+01 4.234660e+01 3.355371e+01 2.989479e+01 3.354884e+01 3.760533e+00 2.401664e+00 3.515206e+00 2.673463e+00 2.495293e+00 3.518388e+00 2.743142e+00 3.154835e+00 2.826284e+00 2.304032e+00 2.084257e+00 1.975244e+00 2.215863e+00
<GCONST> 1.058009e+02
<STATE> 4
<MEAN> 25
 -1.199466e+00 -3.805405e-01 -3.523943e-01 -8.966629e-01 2.362721e-02 -9.622374e-01 4.965097e-01 6.212400e-02 -9.598270e-02 -2.883078e-01 -1.831868e-01 4.666548e-01 8.893047e-02 4.360271e-02 -1.021540e-01 6.062709e-02 -1.530011e-02 -1.752807e-02 -7.751984e-04 -2.123697e-02 -7.208583e-03 -3.491529e-02 -1.671473e-02 1.153033e-02 -3.103776e-02
<VARIANCE> 25
 9.839999e+01 4.351463e+01 5.896675e+01 5.229612e+01 5.626838e+01 6.428352e+01 5.211354e+01 4.426978e+01 4.526814e+01 3.316716e+01 2.955085e+01 3.477245e+01 3.501127e+00 2.187371e+00 2.927227e+00 2.449847e+00 2.519212e+00 3.418190e+00 2.722808e+00 3.117800e+00 2.918423e+00 2.320099e+00 2.132419e+00 2.028401e+00 2.335521e+00
<GCONST> 1.050523e+02
<TRANSP> 5
 0.000000e+00 1.000000e+00 0.000000e+00 0.000000e+00 0.000000e+00
 0.000000e+00 7.498728e-01 2.501272e-01 0.000000e+00 0.000000e+00
 0.000000e+00 0.000000e+00 7.498723e-01 2.501277e-01 0.000000e+00
 0.000000e+00 0.000000e+00 0.000000e+00 8.870227e-01 1.129773e-01
 0.000000e+00 0.000000e+00 0.000000e+00 0.000000e+00 0.000000e+00
<ENDHMM>
~h "t"
<BEGINHMM>
<NUMSTATES> 5
<STATE> 2
<MEAN> 25
 -4.036618e-01 -3.632124e-01 6.435710e-01 -6.313388e-01 -5.079886e-01 -3.350025e-01 -3.527464e-02 -1.423000e-02 -2.230960e-01 7.883260e-02 3.406095e-01 3.506804e-01 1.675026e-03 2.472422e-02 -5.168381e-02 -2.736331e-03 2.961816e-02 1.469782e-03 4.305252e-03 -2.881207e-02 2.437497e-02 5.418489e-03 2.373447e-02 3.721181e-02 -2.569756e-02
<VARIANCE> 25
 6.566109e+01 3.325004e+01 5.511948e+01 4.753717e+01 4.635308e+01 4.565313e+01 4.962411e+01 4.505756e+01 4.996767e+01 3.145440e+01 3.123715e+01 3.692131e+01 2.688216e+00 1.953867e+00 2.457726e+00 2.466091e+00 2.658651e+00 2.911695e+00 2.740894e+00 2.970977e+00 3.078788e+00 2.425918e+00 2.461619e+00 2.061659e+00 3.161100e+00
<GCONST> 1.036769e+02
<STATE> 3
<MEAN> 25
 -4.387312e-01 -2.681749e-01 4.678909e-01 -5.954914e-01 -3.976877e-01 -2.915601e-01 7.672476e-03 -6.906509e-02 -1.272116e-01 1.021297e-01 4.067649e-01 4.604090e-01 -5.306713e-03 3.932896e-02 -6.085737e-02 1.915482e-02 3.153227e-02 8.140667e-03 9.200241e-03 -1.826948e-02 1.975269e-02 6.054778e-03 5.621751e-03 3.365622e-02 -5.985101e-02
<VARIANCE> 25
 6.574595e+01 3.227111e+01 5.443599e+01 4.725135e+01 4.554055e+01 4.519619e+01 4.904057e+01 4.512836e+01 4.947778e+01 3.133956e+01 3.043614e+01 3.719691e+01 2.639461e+00 1.835991e+00 2.402373e+00 2.433039e+00 2.611866e+00 2.865777e+00 2.698664e+00 2.921210e+00 3.027524e+00 2.422190e+00 2.401744e+00 2.070339e+00 2.973288e+00
<GCONST> 1.032768e+02
<STATE> 4
<MEAN> 25
 -5.131361e-01 -1.438836e-01 2.852341e-01 -3.473011e-01 -1.892067e-01 -2.165988e-01 1.117092e-01 1.636814e-02 -1.354140e-02 1.330743e-01 3.689167e-01 5.006936e-01 -1.705342e-02 2.661752e-02 -4.084356e-02 3.114500e-02 2.734848e-02 1.629842e-02 1.033553e-02 7.356883e-04 1.471316e-02 4.486071e-03 1.353048e-03 1.720436e-02 -6.914078e-02
<VARIANCE> 25
 6.568925e+01 3.079564e+01 5.326316e+01 4.553110e+01 4.430641e+01 4.510440e+01 4.907967e+01 4.391694e+01 4.905848e+01 3.124228e+01 2.910938e+01 3.801110e+01 2.541263e+00 1.667039e+00 2.275156e+00 2.395061e+00 2.497814e+00 2.842829e+00 2.634872e+00 2.778867e+00 3.007523e+00 2.401761e+00 2.303462e+00 2.091093e+00 2.656510e+00
<GCONST> 1.025892e+02
<TRANSP> 5
 0.000000e+00 1.000000e+00 0.000000e+00 0.000000e+00 0.000000e+00
 0.000000e+00 7.552796e-01 2.447204e-01 0.000000e+00 0.000000e+00
 0.000000e+00 0.000000e+00 7.552802e-01 2.447199e-01 0.000000e+00
 0.000000e+00 0.000000e+00 0.000000e+00 8.862523e-01 1.137477e-01
 0.000000e+00 0.000000e+00 0.000000e+00 0.000000e+00 0.000000e+00
<ENDHMM>
~h "u"
<BEGINHMM>
<NUMSTATES> 5
<STATE> 2
<MEAN> 25
 1.276991e+00 -1.242114e+00 1.118291e+00 -2.106600e+00 -2.025839e+00 -8.448271e-01 5.089519e-01 -4.942470e-01 1.940974e-01 -6.019379e-01 1.063181e-01 -1.136454e+00 -3.811075e-02 -5.331087e-01 -1.322798e-02 -2.564029e-01 -1.577744e-01 1.649006e-01 -1.795478e-01 -1.839178e-01 6.164546e-02 7.215799e-02 3.512010e-01 2.482587e-01 2.842526e-01
<VARIANCE> 25
 4.684637e+01 6.302951e+01 3.561529e+01 3.928476e+01 4.107485e+01 5.196007e+01 3.410044e+01 3.496786e+01 2.473361e+01 3.372250e+01 4.731911e+01 3.111655e+01 2.395545e+00 5.034777e+00 2.957727e+00 2.770229e+00 3.346650e+00 3.940950e+00 2.737177e+00 2.919515e+00 2.200195e+00 2.494447e+00 3.868618e+00 2.381096e+00 5.340414e+00
<GCONST> 1.048010e+02
<STATE> 3
<MEAN> 25
 1.504368e+00 -2.652052e+00 9.336225e-01 -2.819808e+00 -2.317477e+00 -5.530544e-01 9.267990e-02 -8.954626e-01 6.022586e-01 -4.201423e-01 1.101536e+00 -4.298224e-01 5.441000e-02 -4.405413e-01 -5.490529e-02 -2.367261e-01 -6.650478e-02 9.504206e-02 -1.615368e-01 -1.409370e-01 9.981813e-02 4.459732e-02 3.329702e-01 2.124212e-01 3.411014e-01
<VARIANCE> 25
 4.634792e+01 6.082664e+01 3.908913e+01 4.015574e+01 4.010203e+01 4.753402e+01 3.443311e+01 3.434422e+01 2.555964e+01 3.439269e+01 4.618647e+01 3.192290e+01 2.331760e+00 4.678670e+00 2.819097e+00 2.478145e+00 3.309595e+00 3.615852e+00 2.574017e+00 2.818774e+00 2.064047e+00 2.430601e+00 3.762299e+00 2.345984e+00 4.889353e+00
<GCONST> 1.041280e+02
<STATE> 4
<MEAN> 25
 3.472398e+00 -3.204608e+00 4.009683e-01 -3.169462e+00 -1.479037e+00 -1.274175e+00 -4.523073e-01 -8.833688e-01 9.642756e-01 -7.644117e-01 2.345787e+00 7.987878e-02 7.683167e-02 -1.184557e-01 -1.239081e-01 -5.674328e-02 6.950419e-02 3.049487e-02 -7.753354e-02 -6.460677e-02 6.805032e-02 4.451386e-02 1.691353e-01 1.664035e-01 1.321669e-01
<VARIANCE> 25
 5.100401e+01 7.364391e+01 4.583091e+01 4.408480e+01 4.644556e+01 4.858722e+01 4.113490e+01 3.527100e+01 2.694402e+01 3.897345e+01 4.283011e+01 3.432089e+01 2.131851e+00 3.665073e+00 2.637688e+00 2.463288e+00 3.507176e+00 3.522272e+00 2.777629e+00 2.861518e+00 1.850108e+00 2.477153e+00 3.316106e+00 2.422029e+00 3.882566e+00
<GCONST> 1.045167e+02
<TRANSP> 5
 0.000000e+00 1.000000e+00 0.000000e+00 0.000000e+00 0.000000e+00
 0.000000e+00 6.858494e-01 3.141505e-01 0.000000e+00 0.000000e+00
 0.000000e+00 0.000000e+00 6.858494e-01 3.141506e-01 0.000000e+00
 0.000000e+00 0.000000e+00 0.000000e+00 8.303549e-01 1.696451e-01
 0.000000e+00 0.000000e+00 0.000000e+00 0.000000e+00 0.000000e+00
<ENDHMM>
~h "v"
<BEGINHMM>
<NUMSTATES> 5
<STATE> 2
<MEAN> 25
 3.755283e-01 3.197841e-01 4.985412e-01 -4.289840e-01 3.920179e-01 -1.566813e-02 -4.962391e-01 -1.076027e+00 3.733701e-02 -1.456775e-01 8.385500e-01 -3.782757e-01 4.121698e-02 -2.672342e-02 -2.108478e-02 4.180796e-02 1.628653e-02 1.085253e-02 5.521388e-03 1.346698e-04 1.370184e-03 1.425474e-03 1.158749e-02 -6.464470e-04 -2.014791e-02
<VARIANCE> 25
 6.674989e+01 2.981890e+01 7.299651e+01 4.423331e+01 4.153984e+01 7.732747e+01 5.612685e+01 4.529981e+01 5.301174e+01 3.181847e+01 2.792701e+01 4.392896e+01 2.272898e+00 1.190353e+00 1.677758e+00 1.851223e+00 2.084461e+00 2.539541e+00 2.573505e+00 2.643794e+00 2.555815e+00 2.124447e+00 1.859003e+00 2.339220e+00 1.416244e+00
<GCONST> 1.013036e+02
<STATE> 3
<MEAN> 25
 5.642394e-01 2.068730e-01 3.641211e-01 -2.083714e-01 4.407221e-01 5.148877e-02 -4.817849e-01 -1.061779e+00 9.166650e-02 -1.461657e-01 8.736984e-01 -3.648700e-01 3.969954e-02 -2.574609e-02 -3.292023e-02 4.986151e-02 1.090909e-02 1.839478e-02 6.668255e-03 5.496259e-03 1.451892e-02 6.612090e-04 5.699396e-03 7.365377e-03 -3.004729e-02
<VARIANCE> 25
 6.274843e+01 2.993267e+01 7.267623e+01 4.381964e+01 4.027786e+01 7.754713e+01 5.674181e+01 4.472268e+01 5.331525e+01 3.214562e+01 2.787575e+01 4.373036e+01 2.118770e+00 1.178495e+00 1.670911e+00 1.787591e+00 2.058378e+00 2.570057e+00 2.561713e+00 2.628589e+00 2.607314e+00 2.147919e+00 1.842043e+00 2.339431e+00 1.394039e+00
<GCONST> 1.010872e+02
<STATE> 4
<MEAN> 25
 9.539942e-01 1.262953e-01 -8.876248e-03 1.706278e-01 5.779449e-01 1.391971e-01 -5.533347e-01 -1.126941e+00 2.698830e-01 -2.406317e-01 7.489287e-01 -4.387039e-01 2.260053e-02 -1.804317e-02 -3.254593e-02 4.359822e-02 1.181018e-02 2.105555e-02 8.983759e-03 4.616621e-03 2.320764e-02 7.043234e-03 -2.388751e-04 8.689991e-03 -3.637595e-02
<VARIANCE> 25
 5.762854e+01 3.061639e+01 6.885395e+01 4.407499e+01 3.773447e+01 7.869199e+01 5.498799e+01 4.427177e+01 5.161470e+01 3.409084e+01 2.793111e+01 4.274356e+01 1.984630e+00 1.178506e+00 1.648299e+00 1.742451e+00 2.055175e+00 2.579425e+00 2.548571e+00 2.631719e+00 2.681259e+00 2.216551e+00 1.851353e+00 2.332748e+00 1.394251e+00
<GCONST> 1.008451e+02
<TRANSP> 5
 0.000000e+00 1.000000e+00 0.000000e+00 0.000000e+00 0.000000e+00
 0.000000e+00 7.692702e-01 2.307297e-01 0.000000e+00 0.000000e+00
 0.000000e+00 0.000000e+00 7.692705e-01 2.307296e-01 0.000000e+00
 0.000000e+00 0.000000e+00 0.000000e+00 8.979049e-01 1.020950e-01
 0.000000e+00 0.000000e+00 0.000000e+00 0.000000e+00 0.000000e+00
<ENDHMM>
~h "w"
<BEGINHMM>
<NUMSTATES> 5
<STATE> 2
<MEAN> 25
 2.610964e+00 6.114822e-01 -5.156422e-01 -2.989174e-01 -1.877049e+00 -2.682177e-01 -9.906698e-01 2.880195e-01 1.276937e-01 -5.504586e-01 2.306696e-01 -5.900270e-01 -1.103857e-02 1.006329e-02 4.240862e-02 2.037266e-02 8.169310e-03 -2.067428e-02 -9.466289e-04 -3.813239e-04 -5.370236e-03 6.765101e-03 -1.598755e-03 1.415916e-02 -9.802401e-03
<VARIANCE> 25
 4.701961e+01 3.350236e+01 5.396282e+01 5.161497e+01 5.596035e+01 5.238638e+01 5.044650e+01 4.842054e+01 4.521881e+01 3.226917e+01 2.960876e+01 3.208068e+01 2.270444e+00 1.790004e+00 2.198030e+00 2.448791e+00 3.058237e+00 3.536833e+00 2.653303e+00 3.065322e+00 3.146901e+00 2.674613e+00 2.558348e+00 2.425649e+00 1.956464e+00
<GCONST> 1.033565e+02
<STATE> 3
<MEAN> 25
 2.554918e+00 6.580306e-01 -3.223986e-01 -2.021497e-01 -1.833522e+00 -3.476495e-01 -9.784129e-01 2.927110e-01 1.058609e-01 -5.163471e-01 2.260744e-01 -5.299767e-01 -1.200181e-02 1.231457e-02 4.169642e-02 2.025000e-02 1.072831e-02 -1.508943e-02 4.506847e-03 1.833000e-03 -3.435039e-03 1.165146e-02 1.658239e-04 1.331916e-02 -1.279166e-02
<VARIANCE> 25
 4.693718e+01 3.328211e+01 5.491993e+01 5.310592e+01 5.649099e+01 5.097478e+01 5.014085e+01 4.760146e+01 4.556213e+01 3.198555e+01 2.917452e+01 3.218971e+01 2.290647e+00 1.782406e+00 2.200707e+00 2.467850e+00 3.065995e+00 3.439270e+00 2.584140e+00 3.031545e+00 3.082554e+00 2.613374e+00 2.508526e+00 2.372999e+00 1.906916e+00
<GCONST> 1.031801e+02
<STATE> 4
<MEAN> 25
 2.481999e+00 8.400711e-01 2.451050e-01 -6.353646e-05 -1.881097e+00 -4.725405e-01 -8.702699e-01 2.284157e-01 1.705069e-02 -5.591339e-01 3.270774e-01 -4.859243e-01 -1.571813e-02 1.416880e-02 4.046755e-02 2.149090e-02 1.745308e-02 -5.473162e-03 1.517562e-02 1.806349e-03 -2.387833e-03 1.520947e-02 6.707724e-04 9.443535e-03 -1.763716e-02
<VARIANCE> 25
 4.610391e+01 3.303399e+01 5.779340e+01 5.662607e+01 5.793268e+01 4.849328e+01 5.120606e+01 4.697608e+01 4.638748e+01 3.180121e+01 2.918411e+01 3.246806e+01 2.283561e+00 1.778360e+00 2.246095e+00 2.547804e+00 3.076688e+00 3.277512e+00 2.525790e+00 2.985230e+00 2.978078e+00 2.510887e+00 2.449950e+00 2.277978e+00 1.830625e+00
<GCONST> 1.030583e+02
<TRANSP> 5
 0.000000e+00 1.000000e+00 0.000000e+00 0.000000e+00 0.000000e+00
 0.000000e+00 7.675230e-01 2.324771e-01 0.000000e+00 0.000000e+00
 0.000000e+00 0.000000e+00 7.675232e-01 2.324768e-01 0.000000e+00
 0.000000e+00 0.000000e+00 0.000000e+00 8.961571e-01 1.038429e-01
 0.000000e+00 0.000000e+00 0.000000e+00 0.000000e+00 0.000000e+00
<ENDHMM>
~h "y"
<BEGINHMM>
<NUMSTATES> 5
<STATE> 2
<MEAN> 25
 9.649808e-01 -1.248653e-01 1.070974e+00 3.898664e-01 -7.234473e-01 -1.287980e+00 -1.539598e+00 -5.152282e-01 -1.251209e+00 -2.774947e-01 -1.005622e-01 -3.723292e-01 5.947377e-02 3.972014e-03 -7.357346e-04 4.321029e-03 -7.382576e-03 1.652545e-03 -3.036486e-02 -2.276008e-02 -2.299342e-02 9.842038e-03 -9.067072e-03 -5.928274e-02 2.414046e-02
<VARIANCE> 25
 7.237832e+01 2.989460e+01 6.558569e+01 4.502148e+01 4.359749e+01 4.756782e+01 6.995923e+01 5.201369e+01 6.492292e+01 3.634198e+01 3.431684e+01 3.864301e+01 2.679944e+00 1.675373e+00 2.632352e+00 2.596292e+00 2.617485e+00 2.614680e+00 3.524669e+00 3.336653e+00 3.929694e+00 2.811884e+00 2.608381e+00 2.092156e+00 2.169270e+00
<GCONST> 1.050954e+02
<STATE> 3
<MEAN> 25
 1.110165e+00 -9.193737e-02 1.091891e+00 3.470851e-01 -7.394962e-01 -1.228203e+00 -1.571239e+00 -6.375507e-01 -1.290446e+00 -1.992982e-01 -1.640012e-01 -5.889578e-01 3.530477e-02 8.487386e-03 6.109959e-03 -1.221996e-02 -6.116689e-03 1.471505e-02 -5.722510e-03 -2.894385e-02 -9.886263e-03 1.848749e-02 -2.024855e-02 -5.497582e-02 2.511415e-02
<VARIANCE> 25
 7.306149e+01 3.056730e+01 6.593729e+01 4.482491e+01 4.324673e+01 4.754195e+01 6.968820e+01 5.258663e+01 6.443475e+01 3.572517e+01 3.446128e+01 3.967976e+01 2.685491e+00 1.716038e+00 2.648707e+00 2.599499e+00 2.622350e+00 2.636999e+00 3.495453e+00 3.328865e+00 3.825985e+00 2.846965e+00 2.563524e+00 2.113029e+00 2.193527e+00
<GCONST> 1.051550e+02
<STATE> 4
<MEAN> 25
 9.896157e-01 1.166687e-01 1.318073e+00 2.956592e-01 -7.549055e-01 -1.122358e+00 -1.287034e+00 -8.221615e-01 -1.231811e+00 4.644520e-02 -2.849617e-01 -7.427851e-01 -4.262365e-03 1.898734e-02 1.862640e-02 -1.716417e-02 -4.651051e-03 2.206770e-02 3.009891e-02 -2.391315e-02 5.311215e-03 2.116005e-02 -2.495940e-02 -3.397731e-02 2.110401e-02
<VARIANCE> 25
 7.209264e+01 3.244932e+01 6.728530e+01 4.471531e+01 4.195190e+01 4.734612e+01 6.478318e+01 5.347652e+01 6.114378e+01 3.325206e+01 3.540595e+01 3.990673e+01 2.681233e+00 1.713231e+00 2.565368e+00 2.560059e+00 2.633073e+00 2.648835e+00 3.263103e+00 3.262200e+00 3.586562e+00 2.777454e+00 2.489820e+00 2.071655e+00 2.107793e+00
<GCONST> 1.047280e+02
<TRANSP> 5
 0.000000e+00 1.000000e+00 0.000000e+00 0.000000e+00 0.000000e+00
 0.000000e+00 7.569160e-01 2.430840e-01 0.000000e+00 0.000000e+00
 0.000000e+00 0.000000e+00 7.569163e-01 2.430837e-01 0.000000e+00
 0.000000e+00 0.000000e+00 0.000000e+00 8.854716e-01 1.145284e-01
 0.000000e+00 0.000000e+00 0.000000e+00 0.000000e+00 0.000000e+00
<ENDHMM>
~h "z"
<BEGINHMM>
<NUMSTATES> 5
<STATE> 2
<MEAN> 25
 -1.222364e+00 3.077579e-01 5.633132e-01 -1.552169e-01 1.030649e-01 -6.978856e-01 7.723901e-01 5.526137e-01 -9.506568e-01 -6.135086e-02 -1.690657e-01 5.391586e-01 3.343221e-02 -1.773691e-02 -2.242590e-02 -2.814732e-02 -1.252576e-02 4.261571e-02 1.232080e-02 -3.984182e-03 -1.482328e-02 9.694997e-03 -2.530669e-03 -3.077750e-02 -4.362455e-03
<VARIANCE> 25
 9.531007e+01 3.927362e+01 6.290237e+01 4.619453e+01 5.399473e+01 5.087151e+01 4.935048e+01 5.112115e+01 5.369296e+01 4.004449e+01 2.429709e+01 4.461606e+01 2.901992e+00 1.477332e+00 2.362550e+00 2.130993e+00 2.990912e+00 2.870291e+00 2.894515e+00 3.363537e+00 2.936868e+00 2.576153e+00 2.033861e+00 2.197786e+00 1.891562e+00
<GCONST> 1.042183e+02
<STATE> 3
<MEAN> 25
 -1.073641e+00 2.376764e-01 4.557764e-01 -2.734115e-01 4.223183e-02 -5.192885e-01 8.185628e-01 5.491919e-01 -1.012501e+00 -2.463690e-02 -1.845836e-01 4.101419e-01 2.719194e-02 -1.414540e-02 -3.040995e-02 -2.884054e-02 -1.144912e-02 3.905938e-02 1.174776e-02 -5.638871e-03 -6.166483e-03 1.399681e-02 1.109771e-03 -2.804494e-02 -1.520813e-02
<VARIANCE> 25
 9.409435e+01 3.907753e+01 6.281073e+01 4.622803e+01 5.343668e+01 5.121809e+01 4.834526e+01 5.016463e+01 5.422064e+01 4.044466e+01 2.439109e+01 4.566947e+01 2.791087e+00 1.468069e+00 2.314353e+00 2.118503e+00 2.914345e+00 2.857191e+00 2.853249e+00 3.328988e+00 2.904464e+00 2.602807e+00 2.042523e+00 2.209865e+00 1.866393e+00
<GCONST> 1.040722e+02
<STATE> 4
<MEAN> 25
 -8.311549e-01 2.275939e-01 3.545475e-01 -4.514429e-01 -2.890329e-01 -2.318504e-01 9.746457e-01 3.896596e-01 -1.228308e+00 9.516615e-02 -1.805420e-01 6.437704e-02 2.039391e-02 -5.237613e-03 -3.294081e-02 -2.252820e-02 -8.714148e-03 3.616385e-02 8.209904e-03 -3.848480e-03 8.761226e-03 1.215477e-02 6.471816e-03 -1.584189e-02 -3.228708e-02
<VARIANCE> 25
 9.546168e+01 3.830445e+01 6.430273e+01 4.594809e+01 5.413570e+01 5.331470e+01 4.659435e+01 4.639148e+01 5.691729e+01 3.859929e+01 2.413638e+01 4.784443e+01 2.626182e+00 1.479612e+00 2.360810e+00 2.161223e+00 2.786298e+00 2.853841e+00 2.756179e+00 3.210627e+00 2.918633e+00 2.594819e+00 2.059405e+00 2.219414e+00 1.833672e+00
<GCONST> 1.039264e+02
<TRANSP> 5
 0.000000e+00 1.000000e+00 0.000000e+00 0.000000e+00 0.000000e+00
 0.000000e+00 7.725550e-01 2.274450e-01 0.000000e+00 0.000000e+00
 0.000000e+00 0.000000e+00 7.725554e-01 2.274446e-01 0.000000e+00
 0.000000e+00 0.000000e+00 0.000000e+00 9.054800e-01 9.452002e-02
 0.000000e+00 0.000000e+00 0.000000e+00 0.000000e+00 0.000000e+00
<ENDHMM>
~h "aa"
<BEGINHMM>
<NUMSTATES> 5
<STATE> 2
<MEAN> 25
 2.666580e-01 -4.401460e-01 -7.426654e-01 -1.088837e+00 4.965688e-02 1.365682e+00 2.121029e-01 -1.513558e-01 5.712333e-02 2.348627e-02 -4.744003e-02 -1.261455e+00 -1.218226e-02 1.225028e-02 1.056738e-02 1.761148e-02 -1.936804e-02 -8.230592e-03 7.210221e-03 -1.073812e-02 1.284463e-02 8.983398e-03 3.911469e-03 1.592305e-02 -1.755588e-02
<VARIANCE> 25
 7.873261e+01 3.224965e+01 5.087115e+01 5.641843e+01 4.494988e+01 6.837291e+01 4.615637e+01 5.029472e+01 5.365774e+01 3.480842e+01 2.839398e+01 4.706644e+01 2.259939e+00 1.469419e+00 2.057185e+00 2.382452e+00 2.275926e+00 3.113346e+00 2.410255e+00 3.135300e+00 3.228950e+00 2.452125e+00 2.193923e+00 2.468344e+00 2.050925e+00
<GCONST> 1.035061e+02
<STATE> 3
<MEAN> 25
 2.184797e-01 -3.850594e-01 -6.835629e-01 -1.019234e+00 -3.453945e-02 1.322711e+00 2.480142e-01 -1.983433e-01 1.008608e-01 6.525533e-02 -2.788394e-02 -1.194836e+00 -1.039492e-02 1.400506e-02 1.462255e-02 1.439135e-02 -1.942531e-02 -1.005198e-02 8.928397e-03 -9.451608e-03 8.614217e-03 9.951608e-03 5.142348e-03 1.632960e-02 -9.673922e-03
<VARIANCE> 25
 7.970422e+01 3.225932e+01 5.184458e+01 5.520808e+01 4.551122e+01 6.721868e+01 4.610469e+01 4.988028e+01 5.427798e+01 3.461428e+01 2.827993e+01 4.606327e+01 2.285054e+00 1.469784e+00 2.072276e+00 2.355078e+00 2.300382e+00 3.068214e+00 2.418613e+00 3.163788e+00 3.234175e+00 2.475426e+00 2.178069e+00 2.440421e+00 2.013798e+00
<GCONST> 1.034721e+02
<STATE> 4
<MEAN> 25
 1.759514e-01 -2.781997e-01 -5.708481e-01 -8.921233e-01 -1.627234e-01 1.226221e+00 2.699867e-01 -2.835924e-01 1.458431e-01 1.253550e-01 -2.152848e-02 -1.060382e+00 -5.554358e-03 1.391987e-02 2.002804e-02 1.178762e-02 -1.885818e-02 -1.373462e-02 1.103457e-02 -5.638277e-03 2.921188e-03 9.840320e-03 8.134246e-03 1.894082e-02 2.149421e-03
<VARIANCE> 25
 8.097555e+01 3.263189e+01 5.283544e+01 5.412049e+01 4.665444e+01 6.690337e+01 4.649064e+01 4.835685e+01 5.318512e+01 3.416010e+01 2.818185e+01 4.391527e+01 2.385914e+00 1.467260e+00 2.118971e+00 2.335406e+00 2.347705e+00 3.034685e+00 2.439435e+00 3.120709e+00 3.189106e+00 2.473913e+00 2.125670e+00 2.375875e+00 1.970639e+00
<GCONST> 1.033832e+02
<TRANSP> 5
 0.000000e+00 1.000000e+00 0.000000e+00 0.000000e+00 0.000000e+00
 0.000000e+00 7.704006e-01 2.295994e-01 0.000000e+00 0.000000e+00
 0.000000e+00 0.000000e+00 7.704012e-01 2.295988e-01 0.000000e+00
 0.000000e+00 0.000000e+00 0.000000e+00 8.987933e-01 1.012067e-01
 0.000000e+00 0.000000e+00 0.000000e+00 0.000000e+00 0.000000e+00
<ENDHMM>
~h "ae"
<BEGINHMM>
<NUMSTATES> 5
<STATE> 2
<MEAN> 25
 4.748908e-01 -7.283229e-01 -2.407833e-01 -1.074227e-01 -2.298406e-01 -4.019573e-01 7.724019e-01 4.191599e-01 -5.762304e-02 -6.728991e-01 -7.688240e-01 -1.458577e+00 7.274409e-02 -2.003801e-02 -2.257130e-02 -3.894548e-02 -4.257171e-02 -2.788294e-02 -3.027695e-02 -3.516810e-02 -3.812347e-02 -2.022059e-02 -5.382632e-02 -6.653212e-02 9.052131e-02
<VARIANCE> 25
 7.025696e+01 3.816668e+01 6.426093e+01 4.294890e+01 4.356722e+01 4.699956e+01 4.059401e+01 4.919522e+01 5.989993e+01 3.330577e+01 3.804197e+01 4.911383e+01 2.347048e+00 1.776171e+00 1.963175e+00 2.300638e+00 2.663984e+00 2.591305e+00 2.347176e+00 3.338323e+00 2.907668e+00 2.471149e+00 2.367874e+00 2.279244e+00 2.716739e+00
<GCONST> 1.037024e+02
<STATE> 3
<MEAN> 25
 7.900113e-01 -7.649966e-01 -3.155853e-01 -2.524141e-01 -3.960598e-01 -4.964950e-01 6.024493e-01 2.252491e-01 -2.469841e-01 -7.405982e-01 -9.786476e-01 -1.718132e+00 6.831328e-02 -7.789887e-03 -1.814154e-02 -3.218772e-02 -3.488739e-02 -1.841807e-02 -4.008131e-02 -4.665762e-02 -4.265017e-02 -1.434623e-02 -4.621707e-02 -5.263677e-02 6.751065e-02
<VARIANCE> 25
 7.004671e+01 3.878903e+01 6.518468e+01 4.458631e+01 4.399740e+01 4.787948e+01 3.992808e+01 4.966227e+01 5.963233e+01 3.345047e+01 3.844955e+01 4.839318e+01 2.407110e+00 1.788773e+00 2.033144e+00 2.403539e+00 2.714661e+00 2.650065e+00 2.362329e+00 3.367256e+00 3.012566e+00 2.516845e+00 2.402193e+00 2.307206e+00 2.736753e+00
<GCONST> 1.040394e+02
<STATE> 4
<MEAN> 25
 1.277945e+00 -6.708148e-01 -2.111604e-01 -3.636826e-01 -6.105827e-01 -6.301922e-01 1.512389e-01 -1.791983e-01 -6.275681e-01 -8.641048e-01 -1.219104e+00 -1.953870e+00 4.297970e-02 9.788309e-03 1.156864e-03 -1.383455e-02 -2.229292e-02 -8.096325e-03 -4.845618e-02 -5.239125e-02 -3.183973e-02 -1.019392e-02 -2.627957e-02 -1.820247e-02 1.537402e-02
<VARIANCE> 25
 6.881210e+01 3.882370e+01 6.837025e+01 4.685555e+01 4.458003e+01 4.884271e+01 4.069278e+01 5.102532e+01 6.057536e+01 3.320815e+01 3.823315e+01 4.651107e+01 2.456679e+00 1.772139e+00 2.148714e+00 2.582821e+00 2.708518e+00 2.721771e+00 2.399741e+00 3.427902e+00 3.113818e+00 2.545970e+00 2.433835e+00 2.326608e+00 2.655967e+00
<GCONST> 1.043945e+02
<TRANSP> 5
 0.000000e+00 1.000000e+00 0.000000e+00 0.000000e+00 0.000000e+00
 0.000000e+00 7.700222e-01 2.299778e-01 0.000000e+00 0.000000e+00
 0.000000e+00 0.000000e+00 7.700223e-01 2.299777e-01 0.000000e+00
 0.000000e+00 0.000000e+00 0.000000e+00 8.982114e-01 1.017885e-01
 0.000000e+00 0.000000e+00 0.000000e+00 0.000000e+00 0.000000e+00
<ENDHMM>
~h "ah"
<BEGINHMM>
<NUMSTATES> 5
<STATE> 2
<MEAN> 25
 4.191754e-01 6.860425e-03 -5.436594e-01 -4.399953e-01 1.612083e-01 2.144198e-02 1.734775e-01 -1.369023e-01 -3.529411e-02 1.667649e-01 -4.524199e-01 -2.065409e-01 3.195419e-03 4.198121e-03 9.160385e-03 5.118918e-04 4.554834e-03 1.210696e-02 -5.699509e-03 1.790890e-03 6.222592e-03 -1.268547e-03 7.583622e-03 2.115375e-02 -2.029209e-02
<VARIANCE> 25
 6.992477e+01 3.252122e+01 5.145763e+01 5.538127e+01 4.554385e+01 4.884693e+01 4.817276e+01 4.475571e+01 5.904501e+01 3.174206e+01 3.007054e+01 4.112505e+01 2.432289e+00 1.678899e+00 1.945996e+00 2.782903e+00 2.395298e+00 2.884861e+00 2.497495e+00 2.979324e+00 2.958304e+00 2.365423e+00 2.164930e+00 2.267732e+00 2.473127e+00
<GCONST> 1.031491e+02
<STATE> 3
<MEAN> 25
 4.172002e-01 1.800073e-02 -4.798076e-01 -4.191565e-01 1.819418e-01 5.706839e-02 1.402444e-01 -1.279837e-01 -1.560344e-02 1.561080e-01 -4.195394e-01 -1.141684e-01 -3.889470e-03 2.700925e-03 1.572332e-02 6.907279e-03 5.965317e-03 8.887619e-03 -7.531140e-03 4.484345e-03 6.778947e-03 -2.558471e-03 9.184999e-03 2.274733e-02 -2.089570e-02
<VARIANCE> 25
 6.994770e+01 3.235752e+01 5.069728e+01 5.586744e+01 4.510526e+01 4.882413e+01 4.818159e+01 4.431774e+01 5.868913e+01 3.182473e+01 2.989811e+01 4.049503e+01 2.407258e+00 1.676073e+00 1.917587e+00 2.770055e+00 2.374426e+00 2.846446e+00 2.497768e+00 2.961545e+00 2.926111e+00 2.350066e+00 2.161142e+00 2.223705e+00 2.471357e+00
<GCONST> 1.029949e+02
<STATE> 4
<MEAN> 25
 3.821915e-01 2.553868e-02 -3.435590e-01 -3.335686e-01 2.362554e-01 5.471638e-02 -1.512308e-03 -1.027885e-01 -2.064877e-02 1.249305e-01 -3.955788e-01 -1.808066e-02 -1.235680e-02 2.715187e-03 2.190470e-02 1.357458e-02 6.932245e-03 5.588720e-03 -9.296966e-03 4.885886e-03 6.417384e-03 -4.533090e-03 1.029216e-02 1.912553e-02 -1.553431e-02
<VARIANCE> 25
 7.017992e+01 3.207609e+01 5.141419e+01 5.477628e+01 4.509711e+01 4.999237e+01 4.940947e+01 4.377151e+01 5.870682e+01 3.237895e+01 2.990662e+01 3.995971e+01 2.358007e+00 1.656615e+00 1.864625e+00 2.650217e+00 2.330589e+00 2.766781e+00 2.501385e+00 2.909069e+00 2.882420e+00 2.333259e+00 2.159356e+00 2.168567e+00 2.401180e+00
<GCONST> 1.027796e+02
<TRANSP> 5
 0.000000e+00 1.000000e+00 0.000000e+00 0.000000e+00 0.000000e+00
 0.000000e+00 7.658080e-01 2.341919e-01 0.000000e+00 0.000000e+00
 0.000000e+00 0.000000e+00 7.658078e-01 2.341922e-01 0.000000e+00
 0.000000e+00 0.000000e+00 0.000000e+00 8.949180e-01 1.050821e-01
 0.000000e+00 0.000000e+00 0.000000e+00 0.000000e+00 0.000000e+00
<ENDHMM>
~h "ao"
<BEGINHMM>
<NUMSTATES> 5
<STATE> 2
<MEAN> 25
 1.228605e+00 1.097247e+00 -8.140095e-01 -2.430985e+00 -1.572217e+00 1.762835e+00 -1.623788e-01 1.690146e-01 -5.043376e-01 -1.164462e+00 1.376954e+00 6.040557e-01 7.980329e-02 2.469594e-02 -2.535323e-02 -5.591077e-02 -4.533561e-02 4.892595e-02 -4.623659e-02 -3.312885e-02 -3.173937e-02 -5.966866e-02 1.521314e-02 -2.047690e-02 6.314693e-02
<VARIANCE> 25
 9.646568e+01 3.032617e+01 4.479482e+01 9.772742e+01 4.319899e+01 6.414732e+01 5.590417e+01 3.663737e+01 4.618184e+01 3.612759e+01 3.079150e+01 3.116401e+01 3.191622e+00 1.428787e+00 1.628433e+00 3.812925e+00 2.801245e+00 3.505924e+00 2.897615e+00 2.533448e+00 3.118608e+00 2.468982e+00 2.023237e+00 2.020389e+00 1.947629e+00
<GCONST> 1.038874e+02
<STATE> 3
<MEAN> 25
 1.612003e+00 1.207319e+00 -9.122002e-01 -2.672074e+00 -1.810089e+00 1.972302e+00 -3.528845e-01 1.266894e-04 -6.474168e-01 -1.454620e+00 1.401555e+00 5.176697e-01 8.373187e-02 2.171992e-02 -2.030110e-02 -5.619726e-02 -5.297500e-02 4.764894e-02 -3.919399e-02 -3.944783e-02 -3.190950e-02 -6.383711e-02 8.396188e-04 -2.036247e-02 6.399605e-02
<VARIANCE> 25
 9.645188e+01 3.135851e+01 4.697015e+01 1.049373e+02 4.334399e+01 6.737125e+01 5.664301e+01 3.678500e+01 4.538137e+01 3.708252e+01 3.066634e+01 3.151419e+01 3.118588e+00 1.413359e+00 1.643711e+00 3.824669e+00 2.689675e+00 3.551271e+00 2.933137e+00 2.531318e+00 3.069908e+00 2.492722e+00 2.009911e+00 2.038264e+00 1.944947e+00
<GCONST> 1.040812e+02
<STATE> 4
<MEAN> 25
 2.051572e+00 1.134786e+00 -5.427116e-01 -2.461507e+00 -2.272485e+00 1.759546e+00 -5.571581e-01 -4.310953e-01 -9.163735e-01 -1.866450e+00 1.232522e+00 3.005976e-01 5.018138e-02 -8.291391e-03 8.743702e-03 6.263788e-03 -3.825103e-02 -2.938296e-03 -1.860755e-02 -3.017239e-02 -2.136124e-02 -2.965688e-02 -1.769158e-02 -1.557127e-02 1.978299e-02
<VARIANCE> 25
 9.786752e+01 3.367694e+01 5.545901e+01 1.033663e+02 4.508218e+01 6.550510e+01 5.763294e+01 3.925208e+01 4.618981e+01 3.721448e+01 3.158478e+01 3.181574e+01 3.025357e+00 1.444949e+00 1.766505e+00 3.472417e+00 2.740912e+00 3.422418e+00 2.993709e+00 2.665245e+00 3.143718e+00 2.503221e+00 2.047049e+00 2.045028e+00 1.736526e+00
<GCONST> 1.044292e+02
<TRANSP> 5
 0.000000e+00 1.000000e+00 0.000000e+00 0.000000e+00 0.000000e+00
 0.000000e+00 7.719883e-01 2.280117e-01 0.000000e+00 0.000000e+00
 0.000000e+00 0.000000e+00 7.719890e-01 2.280110e-01 0.000000e+00
 0.000000e+00 0.000000e+00 0.000000e+00 9.014609e-01 9.853904e-02
 0.000000e+00 0.000000e+00 0.000000e+00 0.000000e+00 0.000000e+00
<ENDHMM>
~h "aw"
<BEGINHMM>
<NUMSTATES> 5
<STATE> 2
<MEAN> 25
 9.080331e-01 2.168741e-02 7.699642e-02 9.739131e-01 9.016111e-01 7.486523e-01 -1.231220e-01 3.086880e-01 8.543739e-02 -3.688189e-01 2.108160e-01 -3.402868e-01 -3.735044e-02 3.324908e-04 2.642813e-02 -1.571302e-02 -6.625906e-03 -1.764941e-02 2.895765e-02 4.840039e-03 -2.204157e-02 1.128722e-02 3.526521e-02 4.021260e-02 -3.552585e-02
<VARIANCE> 25
 4.958680e+01 3.421512e+01 3.984690e+01 4.255561e+01 2.994975e+01 4.719320e+01 5.456012e+01 4.899828e+01 5.211930e+01 3.703744e+01 3.578092e+01 4.283398e+01 1.885185e+00 1.858203e+00 1.756488e+00 2.263095e+00 2.051917e+00 2.698373e+00 2.564764e+00 2.922060e+00 2.726647e+00 2.689548e+00 2.750275e+00 2.141791e+00 2.383524e+00
<GCONST> 1.018579e+02
<STATE> 3
<MEAN> 25
 7.189175e-01 2.361048e-02 2.185834e-01 9.072253e-01 8.722613e-01 6.619217e-01 3.617141e-02 3.322601e-01 -6.685179e-03 -3.033816e-01 3.828421e-01 -1.402532e-01 -3.909243e-02 -5.026111e-05 3.047371e-02 -1.301182e-02 -8.724221e-03 -1.783904e-02 3.353262e-02 4.071784e-03 -2.173102e-02 1.342935e-02 3.488527e-02 4.174776e-02 -3.590735e-02
<VARIANCE> 25
 5.057965e+01 3.379930e+01 4.023778e+01 4.211460e+01 3.080315e+01 4.698866e+01 5.411301e+01 4.956058e+01 5.413917e+01 3.649896e+01 3.542167e+01 4.287817e+01 1.904887e+00 1.804189e+00 1.734826e+00 2.213192e+00 2.040513e+00 2.690900e+00 2.571798e+00 2.911331e+00 2.751362e+00 2.659774e+00 2.709074e+00 2.135335e+00 2.285965e+00
<GCONST> 1.017810e+02
<STATE> 4
<MEAN> 25
 5.348585e-01 1.118001e-01 4.259409e-01 8.666347e-01 8.489586e-01 5.637246e-01 3.405981e-01 4.007714e-01 -5.692178e-02 -2.280078e-01 5.766920e-01 1.151671e-01 -3.723566e-02 2.434471e-04 2.991476e-02 -1.113017e-02 -4.725600e-03 -1.147096e-02 3.719790e-02 5.897756e-03 -1.136139e-02 1.229618e-02 2.952522e-02 3.754313e-02 -2.827528e-02
<VARIANCE> 25
 4.981061e+01 3.461002e+01 3.982436e+01 4.228830e+01 3.168666e+01 4.729771e+01 5.107564e+01 5.075861e+01 5.562460e+01 3.617292e+01 3.403086e+01 4.179121e+01 1.876929e+00 1.755237e+00 1.691542e+00 2.124591e+00 2.026104e+00 2.692324e+00 2.504534e+00 2.922416e+00 2.775921e+00 2.618475e+00 2.594917e+00 2.099604e+00 2.113556e+00
<GCONST> 1.014537e+02
<TRANSP> 5
 0.000000e+00 1.000000e+00 0.000000e+00 0.000000e+00 0.000000e+00
 0.000000e+00 7.839158e-01 2.160843e-01 0.000000e+00 0.000000e+00
 0.000000e+00 0.000000e+00 7.839158e-01 2.160842e-01 0.000000e+00
 0.000000e+00 0.000000e+00 0.000000e+00 9.154031e-01 8.459689e-02
 0.000000e+00 0.000000e+00 0.000000e+00 0.000000e+00 0.000000e+00
<ENDHMM>
~h "ay"
<BEGINHMM>
<NUMSTATES> 5
<STATE> 2
<MEAN> 25
 2.056210e-02 -1.814766e-01 1.337083e+00 2.795845e-01 -5.362361e-01 -1.619489e+00 7.716474e-01 6.775166e-01 -2.016766e-01 7.168267e-02 -5.493994e-01 -1.580260e-01 -5.379904e-02 -1.520505e-03 -8.132672e-03 -1.305786e-02 5.919216e-02 1.090181e-02 4.343645e-02 -6.051406e-03 1.671775e-03 5.520466e-02 -1.929905e-02 -1.853155e-02 -3.760382e-02
<VARIANCE> 25
 9.466704e+01 3.342166e+01 6.701722e+01 3.702854e+01 7.741203e+01 5.592976e+01 6.542632e+01 4.687613e+01 5.384555e+01 3.352075e+01 2.301690e+01 3.942685e+01 3.118426e+00 1.783616e+00 3.455408e+00 2.626740e+00 3.381640e+00 2.904154e+00 3.054683e+00 3.834207e+00 3.625679e+00 2.360151e+00 2.016045e+00 2.280981e+00 3.620818e+00
<GCONST> 1.061598e+02
<STATE> 3
<MEAN> 25
 -1.904672e-01 -1.976234e-01 1.263370e+00 2.243693e-01 -2.566599e-01 -1.534300e+00 9.407640e-01 6.602892e-01 -1.679986e-01 3.032048e-01 -6.175054e-01 -2.355740e-01 -4.380660e-02 -5.506604e-03 -2.554522e-02 -1.432049e-02 6.082565e-02 2.409831e-02 3.305859e-02 -1.059837e-02 8.367743e-03 4.882286e-02 -1.540983e-02 -2.049124e-02 -4.483262e-02
<VARIANCE> 25
 9.280707e+01 3.340554e+01 6.445096e+01 3.586658e+01 7.505365e+01 5.611884e+01 6.308329e+01 4.515201e+01 5.219352e+01 3.344194e+01 2.330240e+01 4.123947e+01 3.053819e+00 1.746796e+00 3.310342e+00 2.565817e+00 3.313129e+00 2.951962e+00 2.985040e+00 3.781420e+00 3.532126e+00 2.307145e+00 1.982610e+00 2.305595e+00 3.673165e+00
<GCONST> 1.058011e+02
<STATE> 4
<MEAN> 25
 -4.484979e-01 -2.226633e-01 1.109121e+00 2.337037e-01 2.713296e-01 -1.273522e+00 1.179588e+00 6.031387e-01 3.877428e-04 5.784370e-01 -6.276680e-01 -3.227848e-01 -2.850999e-02 -7.004114e-03 -4.177515e-02 -1.190535e-02 5.576856e-02 3.842014e-02 1.665401e-02 -1.094684e-02 1.737044e-02 3.226023e-02 -7.578909e-03 -1.685237e-02 -6.374607e-02
<VARIANCE> 25
 9.052252e+01 3.317794e+01 6.079874e+01 3.472261e+01 7.126254e+01 5.752608e+01 6.096172e+01 4.195188e+01 4.958426e+01 3.394771e+01 2.364693e+01 4.342154e+01 2.978418e+00 1.676978e+00 3.093059e+00 2.440452e+00 3.142215e+00 2.976575e+00 2.883565e+00 3.618260e+00 3.386410e+00 2.236811e+00 1.914648e+00 2.317440e+00 3.511882e+00
<GCONST> 1.051189e+02
<TRANSP> 5
 0.000000e+00 1.000000e+00 0.000000e+00 0.000000e+00 0.000000e+00
 0.000000e+00 7.679745e-01 2.320255e-01 0.000000e+00 0.000000e+00
 0.000000e+00 0.000000e+00 7.679749e-01 2.320251e-01 0.000000e+00
 0.000000e+00 0.000000e+00 0.000000e+00 8.957342e-01 1.042658e-01
 0.000000e+00 0.000000e+00 0.000000e+00 0.000000e+00 0.000000e+00
<ENDHMM>
~h "ch"
<BEGINHMM>
<NUMSTATES> 5
<STATE> 2
<MEAN> 25
 -2.153365e+00 -9.650671e-01 -8.245972e-01 8.112996e-01 1.272890e+00 1.309125e-01 1.728541e+00 1.168657e+00 1.294931e+00 3.111222e-01 6.060755e-01 1.132855e+00 -3.223175e-05 2.331701e-02 7.010043e-02 -6.746505e-02 -5.487908e-02 3.025975e-02 -2.392498e-02 -3.527464e-02 -5.518623e-02 -5.063643e-02 -7.428031e-03 -5.454193e-02 8.485109e-02
<VARIANCE> 25
 5.985654e+01 2.395377e+01 5.037648e+01 2.751845e+01 3.857019e+01 3.905595e+01 3.556095e+01 2.931800e+01 4.058971e+01 2.434939e+01 2.521946e+01 3.473404e+01 2.397622e+00 1.439792e+00 1.902058e+00 2.158751e+00 2.137326e+00 2.949094e+00 2.310474e+00 2.409068e+00 2.432408e+00 1.961374e+00 2.452001e+00 2.366266e+00 3.778732e+00
<GCONST> 9.924700e+01
<STATE> 3
<MEAN> 25
 -2.126239e+00 -7.888077e-01 -4.777995e-01 4.945033e-01 1.015458e+00 3.260257e-01 1.521861e+00 9.478205e-01 1.021577e+00 1.216892e-01 5.939658e-01 8.502809e-01 5.097287e-03 4.508728e-02 8.985692e-02 -7.653818e-02 -6.620708e-02 3.981013e-02 -5.437274e-02 -5.998778e-02 -6.930942e-02 -4.566394e-02 -5.386231e-03 -7.104081e-02 8.467082e-02
<VARIANCE> 25
 6.458572e+01 2.506923e+01 5.671641e+01 3.036178e+01 4.034901e+01 3.843013e+01 3.738164e+01 3.170386e+01 4.243348e+01 2.466757e+01 2.490258e+01 3.597411e+01 2.499791e+00 1.441325e+00 1.876222e+00 2.230824e+00 2.185043e+00 2.913107e+00 2.326285e+00 2.445655e+00 2.470275e+00 1.970815e+00 2.440518e+00 2.378224e+00 3.704115e+00
<GCONST> 9.991665e+01
<STATE> 4
<MEAN> 25
 -1.740999e+00 -2.362242e-01 5.137517e-02 -8.518557e-02 4.114405e-01 7.025733e-01 7.816873e-01 4.218919e-01 3.848616e-01 -7.454244e-02 5.271948e-01 2.961274e-01 5.559972e-02 5.565466e-02 8.802533e-02 -7.439406e-02 -7.966219e-02 3.856006e-02 -9.169108e-02 -6.824599e-02 -8.754812e-02 -2.563398e-02 -4.043188e-03 -7.909932e-02 7.410595e-02
<VARIANCE> 25
 7.403812e+01 2.725171e+01 7.218092e+01 3.851123e+01 4.751816e+01 3.912854e+01 4.443216e+01 3.572177e+01 5.074574e+01 2.456417e+01 2.358245e+01 3.684589e+01 2.581732e+00 1.476791e+00 2.024851e+00 2.397784e+00 2.254536e+00 2.841659e+00 2.280469e+00 2.599011e+00 2.648492e+00 2.059829e+00 2.357837e+00 2.371882e+00 3.145568e+00
<GCONST> 1.013990e+02
<TRANSP> 5
 0.000000e+00 1.000000e+00 0.000000e+00 0.000000e+00 0.000000e+00
 0.000000e+00 7.745498e-01 2.254502e-01 0.000000e+00 0.000000e+00
 0.000000e+00 0.000000e+00 7.745498e-01 2.254502e-01 0.000000e+00
 0.000000e+00 0.000000e+00 0.000000e+00 9.061662e-01 9.383381e-02
 0.000000e+00 0.000000e+00 0.000000e+00 0.000000e+00 0.000000e+00
<ENDHMM>
~h "dh"
<BEGINHMM>
<NUMSTATES> 5
<STATE> 2
<MEAN> 25
 2.274194e+00 1.064499e+00 9.192537e-01 1.862427e+00 -1.523390e+00 -8.781613e-01 -1.729892e+00 -2.645385e-01 -8.783432e-01 -7.988886e-01 1.597396e-01 -1.090087e+00 -1.323119e-02 3.196006e-02 5.002100e-03 7.439038e-03 1.899939e-02 5.000163e-02 4.441403e-02 3.003586e-02 1.543473e-02 7.692970e-03 5.796308e-02 6.067778e-02 -1.613019e-02
<VARIANCE> 25
 4.516940e+01 3.023255e+01 3.672126e+01 6.534534e+01 3.892484e+01 5.811562e+01 5.218792e+01 4.973619e+01 4.086635e+01 3.048238e+01 3.393580e+01 4.284931e+01 1.712980e+00 1.711601e+00 1.988910e+00 2.518512e+00 2.239826e+00 2.929970e+00 2.603787e+00 2.923764e+00 2.219151e+00 2.014925e+00 2.232605e+00 2.374728e+00 1.688831e+00
<GCONST> 1.012325e+02
<STATE> 3
<MEAN> 25
 2.215737e+00 1.183760e+00 9.249958e-01 1.848734e+00 -1.436495e+00 -6.626949e-01 -1.556089e+00 -1.254091e-01 -8.243367e-01 -7.475713e-01 3.930489e-01 -8.581169e-01 -2.650550e-02 2.616438e-02 -1.933392e-03 -1.185608e-02 2.973445e-02 6.121078e-02 5.162104e-02 3.686648e-02 1.509728e-02 1.861754e-02 5.878558e-02 5.838495e-02 -2.619036e-02
<VARIANCE> 25
 4.798688e+01 3.003655e+01 3.559616e+01 6.691676e+01 3.975700e+01 5.974718e+01 5.236288e+01 4.986693e+01 4.139919e+01 3.049249e+01 3.327642e+01 4.402008e+01 1.692697e+00 1.659027e+00 1.946587e+00 2.505882e+00 2.265037e+00 2.996891e+00 2.594514e+00 2.882402e+00 2.169620e+00 1.983498e+00 2.246226e+00 2.456798e+00 1.615410e+00
<GCONST> 1.012582e+02
<STATE> 4
<MEAN> 25
 2.174246e+00 1.358948e+00 9.556664e-01 1.539534e+00 -1.311748e+00 -2.859545e-01 -1.363808e+00 5.232034e-02 -9.803022e-01 -6.248471e-01 6.780083e-01 -7.958158e-01 -4.342853e-02 9.329493e-03 -2.061632e-02 -3.997649e-02 3.734675e-02 6.659648e-02 5.102107e-02 4.499212e-02 1.318515e-02 3.257744e-02 4.823294e-02 4.368430e-02 -3.450186e-02
<VARIANCE> 25
 5.249542e+01 3.063875e+01 3.527126e+01 6.916910e+01 4.109168e+01 6.347989e+01 5.263340e+01 5.300799e+01 4.224350e+01 3.158647e+01 3.326802e+01 4.636116e+01 1.634745e+00 1.593975e+00 1.874442e+00 2.488980e+00 2.298041e+00 3.114553e+00 2.564980e+00 2.883818e+00 2.082608e+00 1.949310e+00 2.321462e+00 2.597278e+00 1.570764e+00
<GCONST> 1.015835e+02
<TRANSP> 5
 0.000000e+00 1.000000e+00 0.000000e+00 0.000000e+00 0.000000e+00
 0.000000e+00 7.660015e-01 2.339985e-01 0.000000e+00 0.000000e+00
 0.000000e+00 0.000000e+00 7.660016e-01 2.339984e-01 0.000000e+00
 0.000000e+00 0.000000e+00 0.000000e+00 8.937127e-01 1.062873e-01
 0.000000e+00 0.000000e+00 0.000000e+00 0.000000e+00 0.000000e+00
<ENDHMM>
~h "eh"
<BEGINHMM>
<NUMSTATES> 5
<STATE> 2
<MEAN> 25
 3.032361e-01 2.054643e-02 -1.324964e-02 1.633434e-01 -2.667112e-01 -1.213304e+00 -3.128753e-01 4.574094e-01 -2.693695e-02 -4.844357e-01 -6.308437e-01 -3.605120e-01 -1.648900e-02 2.192109e-02 -2.241810e-02 -8.699385e-03 2.090371e-02 1.462746e-02 1.357953e-02 -2.744127e-03 7.336538e-03 1.411071e-02 1.291059e-02 1.820599e-02 -3.370391e-02
<VARIANCE> 25
 6.281135e+01 2.857810e+01 4.910382e+01 4.467370e+01 4.565530e+01 5.783879e+01 4.697726e+01 4.485288e+01 4.808764e+01 3.121609e+01 3.060490e+01 4.131422e+01 2.229450e+00 1.538603e+00 1.820100e+00 2.370831e+00 2.468489e+00 3.211830e+00 2.606090e+00 2.806500e+00 2.665849e+00 2.393612e+00 2.079279e+00 2.196454e+00 2.230938e+00
<GCONST> 1.020508e+02
<STATE> 3
<MEAN> 25
 2.114480e-01 1.039062e-01 -1.308800e-01 1.286446e-01 -1.691329e-01 -1.136975e+00 -2.314105e-01 4.566957e-01 3.740020e-02 -4.080731e-01 -5.514945e-01 -2.585126e-01 -1.911158e-02 1.917375e-02 -2.365149e-02 -7.106781e-03 2.236077e-02 2.117606e-02 2.064397e-02 -4.041607e-04 1.515439e-02 1.981375e-02 1.980089e-02 2.407803e-02 -4.278428e-02
<VARIANCE> 25
 6.253114e+01 2.828614e+01 4.878770e+01 4.479087e+01 4.518760e+01 5.635370e+01 4.745959e+01 4.450407e+01 4.778124e+01 3.122813e+01 3.074739e+01 4.123262e+01 2.214485e+00 1.530486e+00 1.791158e+00 2.388156e+00 2.426994e+00 3.148642e+00 2.612023e+00 2.773143e+00 2.623627e+00 2.380911e+00 2.076130e+00 2.201356e+00 2.144546e+00
<GCONST> 1.018676e+02
<STATE> 4
<MEAN> 25
 -1.017184e-02 2.001044e-01 -3.092078e-01 1.126445e-01 5.782438e-03 -1.027302e+00 -2.674580e-02 4.736488e-01 2.314338e-01 -3.217545e-01 -3.227745e-01 -2.691170e-02 -2.658254e-02 8.458873e-03 -2.680434e-02 -1.782393e-03 2.576596e-02 2.873180e-02 2.796190e-02 6.170786e-03 3.167123e-02 2.533865e-02 2.938273e-02 3.249637e-02 -5.452888e-02
<VARIANCE> 25
 6.150694e+01 2.748842e+01 4.771210e+01 4.394769e+01 4.416932e+01 5.518275e+01 4.842699e+01 4.365517e+01 4.701493e+01 3.162224e+01 3.095478e+01 4.142086e+01 2.176468e+00 1.501356e+00 1.740288e+00 2.403850e+00 2.349415e+00 3.089994e+00 2.647394e+00 2.705917e+00 2.553301e+00 2.373859e+00 2.078108e+00 2.199869e+00 2.045705e+00
<GCONST> 1.015478e+02
<TRANSP> 5
 0.000000e+00 1.000000e+00 0.000000e+00 0.000000e+00 0.000000e+00
 0.000000e+00 7.714707e-01 2.285293e-01 0.000000e+00 0.000000e+00
 0.000000e+00 0.000000e+00 7.714705e-01 2.285295e-01 0.000000e+00
 0.000000e+00 0.000000e+00 0.000000e+00 8.997863e-01 1.002137e-01
 0.000000e+00 0.000000e+00 0.000000e+00 0.000000e+00 0.000000e+00
<ENDHMM>
~h "er"
<BEGINHMM>
<NUMSTATES> 5
<STATE> 2
<MEAN> 25
 9.115323e-01 2.596445e-01 2.426529e-01 1.112478e+00 8.482575e-02 -1.176466e+00 -1.222650e+00 8.343266e-01 4.948901e-02 -7.212144e-01 1.636709e-02 2.071674e-01 -4.946245e-02 8.185834e-03 1.296620e-02 -4.806101e-03 5.517025e-03 2.265966e-02 4.398929e-02 -7.443631e-03 -9.459454e-03 1.717782e-02 7.102752e-03 -9.038531e-03 -4.375065e-02
<VARIANCE> 25
 7.043477e+01 2.819907e+01 5.010988e+01 4.728564e+01 4.969250e+01 6.208289e+01 6.757397e+01 5.162086e+01 4.530130e+01 3.854028e+01 2.878929e+01 3.767581e+01 2.359370e+00 1.365324e+00 1.721717e+00 1.904690e+00 2.591964e+00 3.045928e+00 3.010571e+00 2.965481e+00 2.589457e+00 2.264727e+00 2.094065e+00 2.149219e+00 1.369930e+00
<GCONST> 1.021575e+02
<STATE> 3
<MEAN> 25
 6.872092e-01 2.966374e-01 2.817297e-01 1.083173e+00 1.197439e-01 -1.066965e+00 -1.031590e+00 7.890266e-01 1.121685e-02 -6.383456e-01 3.599653e-02 1.697413e-01 -5.442619e-02 8.797981e-03 4.514863e-03 -6.453062e-03 7.008522e-03 2.689355e-02 4.487058e-02 -1.356643e-02 -7.809172e-03 2.185252e-02 2.264523e-03 -9.168738e-03 -4.694159e-02
<VARIANCE> 25
 6.971950e+01 2.825847e+01 4.939208e+01 4.631414e+01 4.932394e+01 6.069350e+01 6.540977e+01 5.185925e+01 4.506597e+01 3.844416e+01 2.831905e+01 3.784946e+01 2.321711e+00 1.351158e+00 1.692915e+00 1.886895e+00 2.573380e+00 2.987893e+00 2.918916e+00 2.941215e+00 2.575362e+00 2.261312e+00 2.055440e+00 2.135490e+00 1.356640e+00
<GCONST> 1.018766e+02
<STATE> 4
<MEAN> 25
 3.590560e-01 3.299442e-01 2.794173e-01 1.052290e+00 2.188198e-01 -8.651316e-01 -6.956813e-01 6.776206e-01 1.253028e-02 -5.254721e-01 -1.317850e-03 1.241599e-01 -5.622169e-02 8.785889e-03 -6.268866e-03 -1.094594e-02 9.373734e-03 2.821746e-02 3.894173e-02 -2.097988e-02 -3.935396e-03 2.303078e-02 -4.382753e-03 -9.332639e-03 -4.487354e-02
<VARIANCE> 25
 6.607033e+01 2.848623e+01 4.859421e+01 4.463939e+01 4.767696e+01 5.893279e+01 6.069925e+01 5.141463e+01 4.419920e+01 3.852613e+01 2.773069e+01 3.756432e+01 2.250192e+00 1.326375e+00 1.673756e+00 1.861778e+00 2.541534e+00 2.881018e+00 2.744536e+00 2.834585e+00 2.513221e+00 2.234536e+00 1.978232e+00 2.076576e+00 1.338093e+00
<GCONST> 1.012468e+02
<TRANSP> 5
 0.000000e+00 1.000000e+00 0.000000e+00 0.000000e+00 0.000000e+00
 0.000000e+00 7.717481e-01 2.282519e-01 0.000000e+00 0.000000e+00
 0.000000e+00 0.000000e+00 7.717484e-01 2.282517e-01 0.000000e+00
 0.000000e+00 0.000000e+00 0.000000e+00 9.018419e-01 9.815806e-02
 0.000000e+00 0.000000e+00 0.000000e+00 0.000000e+00 0.000000e+00
<ENDHMM>
~h "ey"
<BEGINHMM>
<NUMSTATES> 5
<STATE> 2
<MEAN> 25
 -5.901905e-01 1.864417e-01 1.971688e+00 -1.746599e-01 -1.370387e+00 1.850374e-02 -1.807138e-01 -8.347121e-01 -7.675807e-01 3.351906e-01 2.085196e-01 -6.185002e-03 5.521584e-03 -1.114186e-02 -2.581320e-02 1.024290e-02 9.071647e-03 -7.951353e-03 6.859761e-04 2.743390e-02 1.020082e-02 -8.615118e-03 9.123946e-03 8.088708e-03 6.239944e-03
<VARIANCE> 25
 5.437980e+01 2.760992e+01 8.155948e+01 3.500496e+01 6.409464e+01 4.165822e+01 4.958505e+01 5.145597e+01 6.263820e+01 3.178838e+01 2.745460e+01 3.437779e+01 2.202482e+00 1.492497e+00 2.269822e+00 1.895036e+00 2.803160e+00 2.422648e+00 2.607578e+00 3.030611e+00 3.205558e+00 2.381190e+00 1.944688e+00 1.893383e+00 1.802420e+00
<GCONST> 1.019555e+02
<STATE> 3
<MEAN> 25
 -5.641741e-01 1.391000e-01 1.850071e+00 -1.296350e-01 -1.326104e+00 -1.906529e-02 -1.763742e-01 -7.114107e-01 -7.292306e-01 2.921724e-01 2.443640e-01 2.637300e-02 6.401666e-03 -9.283824e-03 -3.011589e-02 1.055683e-02 1.147439e-02 -1.011278e-02 1.927766e-03 2.783196e-02 6.606768e-03 -1.062200e-02 8.440534e-03 5.584246e-03 8.935599e-03
<VARIANCE> 25
 5.468957e+01 2.795856e+01 8.155098e+01 3.525857e+01 6.384642e+01 4.242929e+01 4.980940e+01 5.175737e+01 6.265199e+01 3.211156e+01 2.760338e+01 3.450417e+01 2.209569e+00 1.515420e+00 2.275453e+00 1.895428e+00 2.813195e+00 2.443858e+00 2.592790e+00 3.049320e+00 3.227209e+00 2.372539e+00 1.950662e+00 1.903194e+00 1.826740e+00
<GCONST> 1.020837e+02
<STATE> 4
<MEAN> 25
 -4.763129e-01 1.092022e-01 1.621216e+00 -1.130061e-01 -1.258067e+00 -5.773699e-02 -2.072250e-01 -4.598514e-01 -7.400850e-01 1.658599e-01 2.674186e-01 1.347007e-02 9.123354e-03 -7.162743e-03 -4.177957e-02 1.097375e-02 2.080548e-02 -7.234864e-03 3.741921e-03 2.748330e-02 6.134562e-03 -1.140061e-02 4.261469e-03 1.481629e-03 4.825169e-03
<VARIANCE> 25
 5.581767e+01 2.822451e+01 8.199711e+01 3.666786e+01 6.335579e+01 4.405714e+01 5.098376e+01 5.170481e+01 6.272450e+01 3.305832e+01 2.819388e+01 3.487363e+01 2.204525e+00 1.532956e+00 2.253068e+00 1.889667e+00 2.812610e+00 2.505363e+00 2.586138e+00 3.037178e+00 3.266058e+00 2.359025e+00 1.971068e+00 1.914220e+00 1.837030e+00
<GCONST> 1.023149e+02
<TRANSP> 5
 0.000000e+00 1.000000e+00 0.000000e+00 0.000000e+00 0.000000e+00
 0.000000e+00 7.706647e-01 2.293353e-01 0.000000e+00 0.000000e+00
 0.000000e+00 0.000000e+00 7.706652e-01 2.293348e-01 0.000000e+00
 0.000000e+00 0.000000e+00 0.000000e+00 9.001982e-01 9.980182e-02
 0.000000e+00 0.000000e+00 0.000000e+00 0.000000e+00 0.000000e+00
<ENDHMM>
~h "hh"
<BEGINHMM>
<NUMSTATES> 5
<STATE> 2
<MEAN> 25
 1.526848e-01 -2.783621e-01 5.297634e-02 5.731692e-02 -3.399709e-01 9.762197e-01 1.584931e-01 -1.716138e-01 2.194711e-01 -6.453976e-01 2.285598e-01 -2.728338e-01 -5.470332e-02 3.334115e-02 -2.588970e-02 2.702143e-02 6.311492e-02 3.133398e-03 5.154982e-02 -5.139048e-03 2.008745e-02 1.432906e-02 -1.375439e-02 4.845566e-02 -9.348289e-02
<VARIANCE> 25
 6.613174e+01 3.509691e+01 3.855192e+01 4.737684e+01 4.102029e+01 4.930130e+01 5.571268e+01 4.106209e+01 4.963964e+01 3.156170e+01 3.191425e+01 5.457008e+01 1.824127e+00 1.708698e+00 1.455182e+00 2.479862e+00 2.167510e+00 2.740736e+00 2.709021e+00 2.692610e+00 2.370635e+00 2.462701e+00 2.402647e+00 1.985664e+00 1.765640e+00
<GCONST> 1.014579e+02
<STATE> 3
<MEAN> 25
 -5.876466e-02 -1.442083e-01 -6.116511e-02 1.427357e-01 -8.345500e-02 9.959124e-01 3.385635e-01 -2.065567e-01 2.681551e-01 -5.849566e-01 1.756063e-01 -8.295006e-02 -4.483634e-02 3.202951e-02 -2.470805e-02 1.773303e-02 5.768643e-02 4.609137e-03 3.860194e-02 -8.065253e-03 8.265737e-03 1.503922e-02 -1.093431e-02 4.431523e-02 -7.353885e-02
<VARIANCE> 25
 6.626316e+01 3.490119e+01 3.772437e+01 4.594231e+01 3.834007e+01 4.779197e+01 5.606961e+01 4.055766e+01 5.005796e+01 3.126374e+01 3.119461e+01 5.349606e+01 1.815230e+00 1.689059e+00 1.457132e+00 2.420172e+00 2.085262e+00 2.680661e+00 2.725494e+00 2.665791e+00 2.384415e+00 2.412333e+00 2.347392e+00 1.985028e+00 1.733850e+00
<GCONST> 1.010926e+02
<STATE> 4
<MEAN> 25
 -1.574410e-02 6.990533e-02 -3.779418e-01 6.259261e-02 1.590775e-01 1.057094e+00 2.590925e-01 -3.150422e-01 -3.732636e-02 -5.100553e-01 1.031476e-01 6.891434e-02 -1.349750e-02 2.619933e-02 -2.331898e-02 -2.797871e-07 3.435261e-02 -6.153984e-04 7.973125e-03 -8.265447e-03 -1.430577e-02 1.187073e-02 -8.103835e-03 2.101512e-02 -2.522195e-02
<VARIANCE> 25
 6.595270e+01 3.612228e+01 3.581496e+01 4.646824e+01 3.429385e+01 4.517655e+01 5.845747e+01 3.959157e+01 5.367751e+01 3.078448e+01 3.113285e+01 5.237424e+01 1.810886e+00 1.705084e+00 1.451140e+00 2.471750e+00 1.971448e+00 2.622345e+00 2.814686e+00 2.637987e+00 2.439594e+00 2.371290e+00 2.261280e+00 2.076060e+00 1.744101e+00
<GCONST> 1.009494e+02
<TRANSP> 5
 0.000000e+00 1.000000e+00 0.000000e+00 0.000000e+00 0.000000e+00
 0.000000e+00 7.732422e-01 2.267579e-01 0.000000e+00 0.000000e+00
 0.000000e+00 0.000000e+00 7.732423e-01 2.267576e-01 0.000000e+00
 0.000000e+00 0.000000e+00 0.000000e+00 9.024631e-01 9.753682e-02
 0.000000e+00 0.000000e+00 0.000000e+00 0.000000e+00 0.000000e+00
<ENDHMM>
~h "ih"
<BEGINHMM>
<NUMSTATES> 5
<STATE> 2
<MEAN> 25
 -2.702587e-01 2.837372e-01 1.184742e+00 5.179498e-01 -4.996082e-01 -7.600942e-01 1.135999e-01 -5.479367e-01 -3.453466e-01 3.000441e-01 2.244096e-01 5.326521e-02 3.561105e-03 -1.650143e-02 -3.139784e-02 -7.378633e-03 6.794939e-03 2.365161e-02 1.256304e-03 4.182921e-02 2.802693e-02 1.846994e-02 1.264091e-02 1.424527e-02 -1.258099e-02
<VARIANCE> 25
 6.615302e+01 2.771991e+01 5.038663e+01 4.028517e+01 4.593967e+01 4.782154e+01 5.400962e+01 5.053728e+01 6.109298e+01 2.933536e+01 2.834822e+01 4.106250e+01 2.315081e+00 1.599470e+00 2.068999e+00 2.342773e+00 2.675850e+00 2.678941e+00 2.458867e+00 3.110516e+00 3.282124e+00 2.319719e+00 2.217750e+00 1.941566e+00 2.340450e+00
<GCONST> 1.024663e+02
<STATE> 3
<MEAN> 25
 -2.691885e-01 2.219344e-01 1.007402e+00 4.621297e-01 -4.519243e-01 -6.434723e-01 1.175639e-01 -3.720358e-01 -2.081533e-01 3.846892e-01 2.850457e-01 1.101715e-01 -9.924148e-04 -1.269244e-02 -4.127126e-02 -1.452814e-02 1.222677e-02 2.608375e-02 -7.496928e-04 3.975860e-02 3.146138e-02 1.747636e-02 1.325583e-02 1.367686e-02 -1.001895e-02
<VARIANCE> 25
 6.603722e+01 2.752554e+01 4.923732e+01 4.062773e+01 4.627778e+01 4.677376e+01 5.471422e+01 5.017125e+01 5.933581e+01 2.917653e+01 2.865014e+01 4.141219e+01 2.302724e+00 1.600870e+00 2.071260e+00 2.341235e+00 2.650090e+00 2.668081e+00 2.445759e+00 3.098659e+00 3.247008e+00 2.312630e+00 2.225951e+00 1.965554e+00 2.362957e+00
<GCONST> 1.024030e+02
<STATE> 4
<MEAN> 25
 -2.385163e-01 1.676098e-01 7.184950e-01 2.401902e-01 -3.946366e-01 -4.111036e-01 1.330132e-01 -1.640195e-01 -4.451582e-02 4.997037e-01 3.486404e-01 8.880799e-02 -2.021839e-03 -5.372948e-03 -4.606930e-02 -1.127187e-02 2.669912e-02 2.927349e-02 7.954990e-04 3.391203e-02 3.286220e-02 1.407336e-02 1.107799e-02 1.328479e-02 -1.581519e-02
<VARIANCE> 25
 6.884433e+01 2.805738e+01 4.849430e+01 4.212831e+01 4.658061e+01 4.578519e+01 5.532983e+01 4.872463e+01 5.737571e+01 2.945507e+01 2.946556e+01 4.177687e+01 2.315037e+00 1.597634e+00 2.068611e+00 2.340333e+00 2.549467e+00 2.631767e+00 2.418450e+00 3.023162e+00 3.189647e+00 2.326607e+00 2.256716e+00 2.012102e+00 2.304862e+00
<GCONST> 1.023784e+02
<TRANSP> 5
 0.000000e+00 1.000000e+00 0.000000e+00 0.000000e+00 0.000000e+00
 0.000000e+00 7.670649e-01 2.329351e-01 0.000000e+00 0.000000e+00
 0.000000e+00 0.000000e+00 7.670648e-01 2.329352e-01 0.000000e+00
 0.000000e+00 0.000000e+00 0.000000e+00 8.958511e-01 1.041490e-01
 0.000000e+00 0.000000e+00 0.000000e+00 0.000000e+00 0.000000e+00
<ENDHMM>
~h "iy"
<BEGINHMM>
<NUMSTATES> 5
<STATE> 2
<MEAN> 25
 -5.380209e-01 3.265223e-01 2.069269e+00 -1.607458e-01 -6.585072e-01 -1.202307e-02 1.086252e-01 -1.462405e+00 -1.069202e+00 -4.357439e-01 1.416262e-01 -1.202770e+00 1.696933e-02 -1.673494e-02 -1.981745e-02 -1.995265e-02 -3.771297e-03 6.214487e-03 -1.571527e-02 -6.752668e-03 -1.367641e-02 1.870823e-02 -1.134143e-02 -9.077168e-03 -1.679215e-02
<VARIANCE> 25
 6.446562e+01 3.143141e+01 8.524009e+01 4.629688e+01 4.662311e+01 4.394840e+01 5.189848e+01 5.673495e+01 5.743807e+01 3.455657e+01 2.832311e+01 4.087162e+01 2.248735e+00 1.441885e+00 2.350378e+00 2.493762e+00 2.523515e+00 2.493652e+00 2.620445e+00 2.825804e+00 2.926278e+00 2.508085e+00 2.078715e+00 2.487504e+00 1.910929e+00
<GCONST> 1.031717e+02
<STATE> 3
<MEAN> 25
 -4.421659e-01 2.386435e-01 1.940879e+00 -2.352926e-01 -6.628159e-01 1.902441e-02 6.035108e-02 -1.466665e+00 -1.115716e+00 -3.432692e-01 9.572639e-02 -1.231816e+00 2.512516e-02 -2.068884e-02 -2.991390e-02 -1.732210e-02 -3.024484e-03 6.445516e-03 -1.246150e-02 1.549025e-03 -9.874226e-03 2.058713e-02 -9.362024e-03 -6.069423e-03 -2.111291e-02
<VARIANCE> 25
 6.268363e+01 3.124216e+01 8.583768e+01 4.681955e+01 4.623685e+01 4.322984e+01 5.219842e+01 5.604580e+01 5.856409e+01 3.428603e+01 2.746360e+01 4.023619e+01 2.177654e+00 1.408866e+00 2.308237e+00 2.483475e+00 2.472914e+00 2.445235e+00 2.586414e+00 2.806808e+00 2.909948e+00 2.485351e+00 2.043957e+00 2.477744e+00 1.875307e+00
<GCONST> 1.028982e+02
<STATE> 4
<MEAN> 25
 -2.484801e-01 9.034104e-02 1.532245e+00 -3.197039e-01 -6.277242e-01 9.039312e-02 1.003594e-01 -1.337959e+00 -1.107457e+00 -1.767174e-01 7.138446e-02 -1.269488e+00 2.574966e-02 -2.651756e-02 -4.656117e-02 -9.866011e-03 3.371009e-03 1.035533e-02 2.594583e-03 1.420143e-02 3.116981e-03 2.247028e-02 -5.727298e-03 4.423967e-03 -2.984626e-02
<VARIANCE> 25
 5.866679e+01 3.100632e+01 8.471503e+01 4.729800e+01 4.627922e+01 4.210919e+01 5.204623e+01 5.412878e+01 6.093757e+01 3.375076e+01 2.660179e+01 3.971755e+01 2.026365e+00 1.359118e+00 2.235595e+00 2.438364e+00 2.418302e+00 2.382826e+00 2.511904e+00 2.782112e+00 2.903358e+00 2.472707e+00 2.002196e+00 2.449092e+00 1.859693e+00
<GCONST> 1.024449e+02
<TRANSP> 5
 0.000000e+00 1.000000e+00 0.000000e+00 0.000000e+00 0.000000e+00
 0.000000e+00 7.720965e-01 2.279035e-01 0.000000e+00 0.000000e+00
 0.000000e+00 0.000000e+00 7.720965e-01 2.279036e-01 0.000000e+00
 0.000000e+00 0.000000e+00 0.000000e+00 9.004241e-01 9.957594e-02
 0.000000e+00 0.000000e+00 0.000000e+00 0.000000e+00 0.000000e+00
<ENDHMM>
~h "jh"
<BEGINHMM>
<NUMSTATES> 5
<STATE> 2
<MEAN> 25
 1.880146e+00 -1.297888e+00 8.123239e-01 -3.322304e-01 -2.204762e+00 -4.815531e-01 -1.919039e+00 -1.155347e-01 -1.038666e+00 -1.775092e+00 -2.234221e-01 -1.439237e+00 6.943172e-02 -3.129347e-02 1.575095e-01 -3.638455e-02 -3.722163e-02 -7.141501e-02 -6.664049e-02 -3.619423e-02 -1.260628e-01 -7.688831e-02 -6.226299e-02 -1.205186e-01 1.637335e-01
<VARIANCE> 25
 8.477362e+01 3.423891e+01 5.516135e+01 4.024664e+01 3.976986e+01 6.576475e+01 5.123877e+01 4.114050e+01 6.412416e+01 2.817947e+01 2.592831e+01 5.359586e+01 3.806093e+00 1.910904e+00 2.004413e+00 3.023394e+00 2.873559e+00 5.179358e+00 2.531950e+00 4.143362e+00 3.851303e+00 1.981498e+00 2.030356e+00 2.316890e+00 4.500960e+00
<GCONST> 1.058061e+02
<STATE> 3
<MEAN> 25
 2.095608e+00 -1.340570e+00 1.493534e+00 -4.812668e-01 -2.321968e+00 -7.588881e-01 -2.142428e+00 -2.794963e-01 -1.546085e+00 -2.085913e+00 -4.739653e-01 -1.877997e+00 4.112931e-02 -4.829927e-03 1.568269e-01 -3.349605e-02 -2.500637e-02 -6.284559e-02 -4.720009e-02 -3.805303e-02 -1.176741e-01 -6.997991e-02 -5.864340e-02 -9.346920e-02 1.110299e-01
<VARIANCE> 25
 8.374270e+01 3.644026e+01 5.875923e+01 4.131318e+01 3.934873e+01 6.809610e+01 4.878365e+01 4.325894e+01 6.641470e+01 2.819980e+01 2.639559e+01 5.246330e+01 3.894603e+00 1.983466e+00 2.111322e+00 3.127284e+00 2.849044e+00 5.261794e+00 2.551588e+00 4.136491e+00 3.931850e+00 1.979870e+00 1.995979e+00 2.345666e+00 4.460819e+00
<GCONST> 1.061686e+02
<STATE> 4
<MEAN> 25
 2.189690e+00 -1.075009e+00 2.496576e+00 -7.277285e-01 -2.366034e+00 -1.018107e+00 -2.350572e+00 -6.179705e-01 -2.145027e+00 -2.496914e+00 -8.028352e-01 -2.297332e+00 -2.194955e-03 4.153206e-02 1.226897e-01 -2.900223e-02 3.475462e-03 -4.051500e-02 -1.705493e-02 -4.582289e-02 -8.483700e-02 -4.340270e-02 -4.994298e-02 -4.280276e-02 2.499446e-02
<VARIANCE> 25
 8.244144e+01 3.810641e+01 6.206497e+01 4.337588e+01 3.871460e+01 7.151122e+01 4.525217e+01 4.506439e+01 6.848931e+01 2.926928e+01 2.753133e+01 4.808833e+01 4.002495e+00 2.096024e+00 2.252292e+00 3.255336e+00 2.795969e+00 5.239976e+00 2.579437e+00 3.991962e+00 4.003016e+00 2.033945e+00 1.960569e+00 2.364542e+00 4.284706e+00
<GCONST> 1.064569e+02
<TRANSP> 5
 0.000000e+00 1.000000e+00 0.000000e+00 0.000000e+00 0.000000e+00
 0.000000e+00 7.589875e-01 2.410124e-01 0.000000e+00 0.000000e+00
 0.000000e+00 0.000000e+00 7.589877e-01 2.410123e-01 0.000000e+00
 0.000000e+00 0.000000e+00 0.000000e+00 8.841083e-01 1.158917e-01
 0.000000e+00 0.000000e+00 0.000000e+00 0.000000e+00 0.000000e+00
<ENDHMM>
~h "ng"
<BEGINHMM>
<NUMSTATES> 5
<STATE> 2
<MEAN> 25
 -1.686130e+00 1.614207e-01 -1.841572e+00 9.352292e-01 2.620670e+00 4.976115e-01 1.935634e+00 5.963683e-01 2.941849e+00 1.511103e+00 7.427779e-01 1.619641e+00 -3.440978e-02 -3.051750e-02 -1.262624e-01 -4.055168e-02 6.285878e-02 -6.362902e-03 -2.751693e-02 7.026733e-02 1.160220e-01 1.821751e-02 2.697825e-02 4.867705e-02 3.090445e-02
<VARIANCE> 25
 6.349257e+01 1.593068e+01 3.629624e+01 2.352117e+01 3.267609e+01 4.787580e+01 6.488696e+01 3.846297e+01 5.170122e+01 2.702177e+01 2.903421e+01 3.849794e+01 2.004635e+00 1.157643e+00 1.336617e+00 1.558595e+00 1.566777e+00 2.121999e+00 2.478067e+00 2.412654e+00 2.380695e+00 2.170542e+00 2.200253e+00 2.093221e+00 1.580966e+00
<GCONST> 9.724757e+01
<STATE> 3
<MEAN> 25
 -1.799093e+00 3.878939e-02 -2.353452e+00 7.548193e-01 2.843952e+00 4.987854e-01 1.797848e+00 8.764402e-01 3.377160e+00 1.591217e+00 8.504333e-01 1.798290e+00 -1.012598e-02 -1.754781e-02 -1.054892e-01 -4.359224e-02 2.631112e-02 -5.809450e-03 -4.273285e-02 4.870226e-02 6.505025e-02 6.500053e-03 1.643907e-02 2.208406e-02 6.713723e-02
<VARIANCE> 25
 6.646690e+01 1.633332e+01 3.663416e+01 2.421056e+01 3.238155e+01 4.862430e+01 7.063318e+01 3.606564e+01 4.742883e+01 2.701301e+01 2.882420e+01 3.711034e+01 2.068332e+00 1.205527e+00 1.370187e+00 1.547799e+00 1.624262e+00 2.156047e+00 2.565660e+00 2.426133e+00 2.365774e+00 2.165637e+00 2.251226e+00 2.102672e+00 1.686087e+00
<GCONST> 9.751804e+01
<STATE> 4
<MEAN> 25
 -1.650684e+00 5.064439e-03 -3.049942e+00 5.764446e-01 2.943965e+00 5.886773e-01 1.604252e+00 1.021731e+00 3.561312e+00 1.736281e+00 1.025145e+00 1.806717e+00 4.035871e-03 -2.867272e-03 -6.410573e-02 -3.652012e-02 -1.336815e-02 1.044661e-02 -4.482004e-02 2.856104e-02 6.402517e-03 -3.301967e-03 1.077176e-02 3.097822e-03 7.111076e-02
<VARIANCE> 25
 6.868446e+01 1.668665e+01 3.795564e+01 2.629688e+01 3.305430e+01 4.717756e+01 7.553341e+01 3.476345e+01 4.519594e+01 2.710705e+01 2.822140e+01 3.679028e+01 2.071610e+00 1.274211e+00 1.405004e+00 1.566415e+00 1.668893e+00 2.193691e+00 2.605055e+00 2.464730e+00 2.413362e+00 2.192598e+00 2.301529e+00 2.124162e+00 1.824751e+00
<GCONST> 9.794952e+01
<TRANSP> 5
 0.000000e+00 1.000000e+00 0.000000e+00 0.000000e+00 0.000000e+00
 0.000000e+00 7.648288e-01 2.351712e-01 0.000000e+00 0.000000e+00
 0.000000e+00 0.000000e+00 7.648287e-01 2.351712e-01 0.000000e+00
 0.000000e+00 0.000000e+00 0.000000e+00 8.930266e-01 1.069734e-01
 0.000000e+00 0.000000e+00 0.000000e+00 0.000000e+00 0.000000e+00
<ENDHMM>
~h "ow"
<BEGINHMM>
<NUMSTATES> 5
<STATE> 2
<MEAN> 25
 3.748743e+00 5.269302e-01 -1.708455e+00 -1.509397e+00 -4.329138e-01 2.246316e+00 -2.565198e+00 -9.278241e-01 -1.020863e+00 -1.345859e+00 3.421764e-01 -1.647719e-01 -5.390414e-02 -2.459839e-02 1.024598e-02 6.962052e-02 3.136623e-02 5.310122e-03 6.316910e-02 2.724053e-02 3.335689e-02 -1.903358e-03 -5.132262e-03 1.438985e-02 -9.763549e-02
<VARIANCE> 25
 6.621839e+01 3.439326e+01 3.414048e+01 5.817661e+01 3.084071e+01 5.012272e+01 5.986515e+01 4.860267e+01 6.192822e+01 4.212922e+01 4.072906e+01 4.154718e+01 1.381818e+00 1.402441e+00 1.142213e+00 2.124965e+00 1.731733e+00 2.482668e+00 1.927398e+00 2.449463e+00 2.304465e+00 2.221782e+00 2.068134e+00 1.844408e+00 1.279960e+00
<GCONST> 9.966889e+01
<STATE> 3
<MEAN> 25
 3.468293e+00 4.124876e-01 -1.638880e+00 -1.175902e+00 -2.917349e-01 2.232674e+00 -2.249530e+00 -7.975322e-01 -8.752799e-01 -1.333024e+00 3.009147e-01 -9.679107e-02 -6.644852e-02 -2.362944e-02 2.076773e-02 7.390706e-02 3.023286e-02 -7.490950e-03 7.446706e-02 2.727214e-02 3.203015e-02 5.088537e-03 -7.752803e-03 1.475646e-02 -1.019748e-01
<VARIANCE> 25
 6.399821e+01 3.355738e+01 3.398152e+01 5.604132e+01 3.088285e+01 4.880537e+01 5.937265e+01 4.869941e+01 6.092941e+01 4.204458e+01 3.996406e+01 4.122896e+01 1.323434e+00 1.380751e+00 1.123745e+00 2.063727e+00 1.721157e+00 2.392879e+00 1.918697e+00 2.468940e+00 2.269517e+00 2.213231e+00 2.043978e+00 1.846532e+00 1.297983e+00
<GCONST> 9.933205e+01
<STATE> 4
<MEAN> 25
 2.840544e+00 2.916971e-01 -1.539517e+00 -4.715787e-01 1.289042e-02 2.035276e+00 -1.566793e+00 -4.233651e-01 -5.615339e-01 -1.202106e+00 2.258471e-01 2.336324e-01 -7.823548e-02 -2.162272e-02 2.923088e-02 6.310265e-02 2.506203e-02 -2.312952e-02 8.106817e-02 2.545016e-02 2.055808e-02 1.835542e-02 -1.247342e-02 1.181840e-02 -9.620575e-02
<VARIANCE> 25
 5.825126e+01 3.399597e+01 3.288643e+01 5.122288e+01 3.080970e+01 4.497400e+01 5.569442e+01 4.947248e+01 6.226348e+01 4.083629e+01 3.937134e+01 4.064533e+01 1.231590e+00 1.365435e+00 1.091785e+00 1.984868e+00 1.722382e+00 2.205517e+00 1.929238e+00 2.473084e+00 2.253942e+00 2.178515e+00 2.010964e+00 1.859094e+00 1.330480e+00
<GCONST> 9.872723e+01
<TRANSP> 5
 0.000000e+00 1.000000e+00 0.000000e+00 0.000000e+00 0.000000e+00
 0.000000e+00 7.791781e-01 2.208218e-01 0.000000e+00 0.000000e+00
 0.000000e+00 0.000000e+00 7.791781e-01 2.208218e-01 0.000000e+00
 0.000000e+00 0.000000e+00 0.000000e+00 9.101508e-01 8.984923e-02
 0.000000e+00 0.000000e+00 0.000000e+00 0.000000e+00 0.000000e+00
<ENDHMM>
~h "oy"
<BEGINHMM>
<NUMSTATES> 5
<STATE> 2
<MEAN> 25
 -4.738969e-01 2.394824e-02 3.388523e-01 4.276522e-01 4.670857e-01 6.615447e-01 6.924054e-01 1.591866e-01 5.583302e-01 8.595931e-02 1.620370e-01 1.712210e-01 -2.145672e-02 -1.335982e-02 -3.303628e-02 3.913778e-03 2.219319e-02 1.044553e-02 -1.183754e-03 3.963358e-03 2.986945e-02 1.887489e-02 2.168754e-02 2.947153e-02 -4.647787e-02
<VARIANCE> 25
 9.945055e+01 3.023010e+01 5.551161e+01 5.577404e+01 7.299808e+01 4.965632e+01 5.345214e+01 3.592354e+01 6.091492e+01 2.331247e+01 1.907343e+01 4.161490e+01 2.840721e+00 1.640802e+00 3.056215e+00 2.688787e+00 2.349512e+00 3.189860e+00 2.798726e+00 3.225364e+00 3.180715e+00 2.541744e+00 2.025870e+00 2.278166e+00 1.661212e+00
<GCONST> 1.036711e+02
<STATE> 3
<MEAN> 25
 -5.768211e-01 -4.110548e-02 1.552013e-01 4.333293e-01 5.682288e-01 6.993683e-01 6.783345e-01 1.810184e-01 6.899233e-01 1.801590e-01 2.735509e-01 3.197363e-01 -1.391237e-02 -1.269835e-02 -3.865074e-02 -3.852947e-03 1.171936e-02 5.797099e-03 -5.639276e-03 1.255195e-03 1.726355e-02 1.856294e-02 2.118373e-02 2.349799e-02 -3.443747e-02
<VARIANCE> 25
 9.736775e+01 2.984474e+01 5.427743e+01 5.477044e+01 7.189316e+01 4.825742e+01 5.298034e+01 3.504711e+01 5.984924e+01 2.304632e+01 1.918057e+01 4.050388e+01 2.792736e+00 1.614707e+00 3.042222e+00 2.647115e+00 2.311227e+00 3.134302e+00 2.765390e+00 3.184250e+00 3.169157e+00 2.515333e+00 2.015292e+00 2.270126e+00 1.638866e+00
<GCONST> 1.033199e+02
<STATE> 4
<MEAN> 25
 -5.963914e-01 -6.831793e-02 -1.964107e-01 3.299989e-01 6.343639e-01 7.692208e-01 6.229936e-01 2.412810e-01 6.983649e-01 2.954253e-01 4.193900e-01 4.685335e-01 -4.891690e-03 -8.802745e-03 -4.501605e-02 -1.140642e-02 2.059649e-03 2.460169e-03 -6.462945e-03 3.327554e-05 2.937212e-03 1.746382e-02 1.884791e-02 1.690115e-02 -2.644380e-02
<VARIANCE> 25
 9.588891e+01 2.961482e+01 5.289146e+01 5.434915e+01 7.169408e+01 4.677836e+01 5.231615e+01 3.377516e+01 5.848639e+01 2.277378e+01 1.949479e+01 3.997363e+01 2.691607e+00 1.590253e+00 3.028697e+00 2.619304e+00 2.284236e+00 3.053978e+00 2.680060e+00 3.115395e+00 3.199188e+00 2.497990e+00 2.014046e+00 2.268712e+00 1.582311e+00
<GCONST> 1.029561e+02
<TRANSP> 5
 0.000000e+00 1.000000e+00 0.000000e+00 0.000000e+00 0.000000e+00
 0.000000e+00 8.079816e-01 1.920184e-01 0.000000e+00 0.000000e+00
 0.000000e+00 0.000000e+00 8.079815e-01 1.920185e-01 0.000000e+00
 0.000000e+00 0.000000e+00 0.000000e+00 9.406320e-01 5.936790e-02
 0.000000e+00 0.000000e+00 0.000000e+00 0.000000e+00 0.000000e+00
<ENDHMM>
~h "sh"
<BEGINHMM>
<NUMSTATES> 5
<STATE> 2
<MEAN> 25
 -1.856124e+00 -6.550639e-01 7.059022e-01 9.544870e-01 2.775061e-01 4.158748e-01 1.590586e+00 -2.719595e-01 1.627049e+00 3.475391e-01 -3.390008e-01 1.098243e+00 2.607483e-02 -1.250059e-02 -7.903682e-02 6.297179e-03 3.976780e-02 1.304630e-02 -2.548439e-02 4.361388e-02 3.174429e-02 1.623543e-02 2.395289e-02 2.945926e-02 -3.668467e-02
<VARIANCE> 25
