~o
<STREAMINFO> 1 25
<VECSIZE> 25<NULLD><MFCC_D_N_Z_0><DIAGC>
~s "silst"
<MEAN> 25
 -5.293969e+00 3.301436e-01 -2.726330e+00 2.582505e+00 2.383002e+00 3.026681e+00 3.472123e+00 1.795804e+00 4.194450e+00 3.472324e+00 1.558118e+00 3.862168e+00 -9.031011e-02 9.060046e-02 -1.505205e-03 -7.239605e-02 -2.013097e-01 -1.461947e-01 -9.353403e-02 -1.409777e-02 -2.284575e-01 -8.119145e-02 -6.328920e-02 -8.759747e-02 1.693534e-01
<VARIANCE> 25
 1.491547e+01 2.834317e+01 1.577413e+01 2.309668e+01 1.702909e+01 2.127655e+01 1.919329e+01 2.309439e+01 2.204675e+01 1.655137e+01 2.273442e+01 1.762066e+01 1.391470e+00 2.048412e+00 1.307480e+00 2.000266e+00 1.665853e+00 2.386755e+00 1.812917e+00 2.435820e+00 2.124613e+00 1.817924e+00 1.700070e+00 1.608400e+00 1.228880e+00
<GCONST> 8.920863e+01
~h "a"
<BEGINHMM>
<NUMSTATES> 5
<STATE> 2
<MEAN> 25
 4.203389e+00 -6.006911e+00 -3.339179e+00 -6.031224e+00 -5.682499e+00 -3.430607e+00 3.662517e+00 -6.678966e-02 2.898913e+00 -1.488670e+00 4.648182e+00 2.677357e+00 2.501577e-01 -2.597386e-01 -4.677576e-01 -2.274820e-01 -4.340933e-01 -8.685824e-02 4.124301e-01 1.517492e-01 4.418327e-03 -5.598659e-02 6.733932e-01 3.276706e-01 2.239378e-01
<VARIANCE> 25
 1.002066e+01 2.454125e+01 2.271489e+01 2.796606e+01 3.873893e+01 2.240728e+01 4.687309e+01 2.120112e+01 2.795548e+01 2.828386e+01 3.608696e+01 1.993114e+01 6.390029e-01 1.645311e+00 1.084379e+00 2.340856e+00 3.961159e+00 2.877384e+00 2.560328e+00 2.022440e+00 1.889055e+00 1.697986e+00 3.489081e+00 1.670937e+00 1.872659e+00
<GCONST> 9.344016e+01
<STATE> 3
<MEAN> 25
 5.807779e+00 -1.364208e+00 -6.779735e+00 -3.502590e+00 -2.243023e+00 -3.006222e+00 1.087868e+00 2.045981e+00 -7.908173e-01 -2.489338e+00 6.581861e+00 2.729698e+00 -2.266124e-01 1.660649e+00 2.165684e-01 2.030794e+00 1.853269e+00 1.044386e+00 -1.212853e+00 -5.126435e-02 -1.428991e-01 3.229295e-01 -1.828686e+00 -7.059073e-01 -2.028252e+00
<VARIANCE> 25
 7.497566e+00 3.141837e+01 3.024443e+01 3.617056e+01 4.668305e+01 3.555664e+01 3.722389e+01 6.311150e+01 1.813994e+01 3.948210e+01 5.325044e+01 2.385516e+01 1.034439e+00 2.006194e+00 3.042215e+00 3.362851e+00 3.967051e+00 3.493821e+00 3.140301e+00 4.297646e+00 2.499130e+00 3.245829e+00 7.543186e+00 2.766750e+00 1.454229e+00
<GCONST> 1.010968e+02
<STATE> 4
<MEAN> 25
 1.611106e+00 8.307295e+00 -5.037155e+00 3.451099e+00 3.104929e+00 2.772106e+00 4.941006e-01 1.345469e+00 2.537461e-01 2.868132e+00 -2.299625e+00 1.169026e+00 -4.567663e-01 4.690779e-01 3.702885e-01 6.259850e-01 2.764617e-01 2.273628e-01 5.417905e-02 -5.331920e-02 -5.207025e-02 2.232422e-01 -5.241530e-01 -1.309900e-01 -7.272424e-01
<VARIANCE> 25
 2.058638e+01 3.731829e+01 3.710271e+01 3.727123e+01 3.668435e+01 2.420765e+01 3.899665e+01 2.841707e+01 1.871376e+01 2.490134e+01 4.137951e+01 3.258228e+01 4.968830e-01 1.265508e+00 1.454497e+00 2.644737e+00 2.456949e+00 2.153147e+00 2.203551e+00 1.781983e+00 1.597327e+00 1.865017e+00 2.757535e+00 1.543581e+00 6.324527e-01
<GCONST> 9.297201e+01
<TRANSP> 5
 0.000000e+00 1.000000e+00 0.000000e+00 0.000000e+00 0.000000e+00
 0.000000e+00 8.738986e-01 1.261014e-01 0.000000e+00 0.000000e+00
 0.000000e+00 0.000000e+00 7.441917e-01 2.558082e-01 0.000000e+00
 0.000000e+00 0.000000e+00 0.000000e+00 8.138384e-01 1.861617e-01
 0.000000e+00 0.000000e+00 0.000000e+00 0.000000e+00 0.000000e+00
<ENDHMM>
~h "b"
<BEGINHMM>
<NUMSTATES> 5
<STATE> 2
<MEAN> 25
 3.746947e+00 7.204463e+00 5.944773e+00 7.461505e+00 5.178850e+00 9.575716e-01 -1.295032e-01 -3.813651e+00 -2.593835e+00 -4.698404e+00 -3.962584e+00 -2.601533e+00 2.343769e-01 6.919821e-01 6.263741e-01 6.068937e-01 4.397329e-01 6.139512e-02 -2.241984e-01 -2.501123e-01 -2.857515e-01 -7.960944e-01 -4.768097e-01 -2.004467e-01 9.963587e-03
<VARIANCE> 25
 1.412627e+01 1.074098e+01 1.355665e+01 8.872842e+00 9.768225e+00 1.587623e+01 1.534062e+01 2.117647e+01 3.081360e+01 2.067634e+01 1.569094e+01 1.329294e+01 1.896683e+00 1.958652e+00 1.483541e+00 8.943772e-01 1.233718e+00 1.356914e+00 2.151292e+00 2.792269e+00 3.080204e+00 2.287703e+00 2.015226e+00 1.761614e+00 1.068525e+00
<GCONST> 8.557262e+01
<STATE> 3
<MEAN> 25
 1.291742e+00 5.068295e+00 3.948469e+00 6.731684e+00 6.391417e+00 2.480975e+00 1.479761e+00 -1.882190e+00 -6.946092e-01 -3.641548e+00 -2.751300e+00 -1.280486e+00 2.882886e-01 -9.738128e-01 -8.868775e-01 -1.679831e+00 -1.522520e+00 -6.325153e-01 -8.291001e-01 4.818892e-01 3.535987e-01 1.053130e+00 8.631871e-01 3.261385e-01 2.127607e+00
<VARIANCE> 25
 1.533315e+01 1.251933e+01 2.016090e+01 1.686582e+01 1.639336e+01 1.629281e+01 2.419058e+01 2.016657e+01 2.636602e+01 2.161049e+01 1.765325e+01 1.415101e+01 2.822073e+00 1.741798e+00 2.263617e+00 3.478226e+00 3.960473e+00 3.976291e+00 3.269760e+00 3.843273e+00 3.552788e+00 2.335494e+00 2.522547e+00 1.738277e+00 4.630225e+00
<GCONST> 9.474717e+01
<STATE> 4
<MEAN> 25
 6.281450e+00 5.966661e-01 2.151461e+00 -2.165039e+00 -4.847632e+00 -3.701015e+00 -4.976749e+00 5.507696e-01 -2.536327e+00 1.793159e-01 1.062806e+00 -1.879110e+00 1.158293e+00 -1.372087e+00 -1.055903e-01 -2.650091e+00 -2.676518e+00 -1.309329e-01 -1.144956e+00 9.551550e-01 -7.201973e-01 1.112593e+00 4.869109e-01 -5.531701e-01 3.030989e+00
<VARIANCE> 25
 2.306946e+01 3.096077e+01 3.994304e+01 3.923261e+01 5.029420e+01 9.319143e+01 2.757496e+01 4.186805e+01 5.320033e+01 2.585422e+01 3.394587e+01 2.777998e+01 3.480643e+00 3.902166e+00 5.261109e+00 6.618435e+00 6.351778e+00 8.631890e+00 3.622727e+00 6.011995e+00 7.664469e+00 4.862870e+00 4.587483e+00 3.384124e+00 6.503939e+00
<GCONST> 1.109319e+02
<TRANSP> 5
 0.000000e+00 1.000000e+00 0.000000e+00 0.000000e+00 0.000000e+00
 0.000000e+00 7.859076e-01 2.140925e-01 0.000000e+00 0.000000e+00
 0.000000e+00 0.000000e+00 6.719233e-01 3.280768e-01 0.000000e+00
 0.000000e+00 0.000000e+00 0.000000e+00 5.617006e-01 4.382994e-01
 0.000000e+00 0.000000e+00 0.000000e+00 0.000000e+00 0.000000e+00
<ENDHMM>
~h "d"
<BEGINHMM>
<NUMSTATES> 5
<STATE> 2
<MEAN> 25
 2.225002e+00 2.379431e+00 6.620626e+00 2.850786e+00 -3.613323e-01 -4.389118e+00 -2.090930e+00 -1.261296e+00 -2.348420e+00 -2.033359e+00 -2.281340e+00 -2.207984e+00 1.763156e-03 7.602748e-02 5.141474e-02 1.810906e-01 -3.070026e-01 -5.139381e-01 -1.486355e-01 -3.227852e-01 -2.043616e-01 4.731596e-02 2.398009e-01 3.914587e-01 1.856103e-01
<VARIANCE> 25
 2.859697e+01 3.524372e+01 2.995207e+01 5.093185e+01 6.325835e+01 5.156351e+01 4.666412e+01 4.170704e+01 3.066326e+01 4.459232e+01 2.939724e+01 1.502478e+01 3.432266e+00 2.861186e+00 4.772709e+00 6.902839e+00 9.047745e+00 6.796022e+00 3.854669e+00 4.741480e+00 4.110068e+00 3.296067e+00 3.297373e+00 2.080507e+00 7.138157e+00
<GCONST> 1.084687e+02
<STATE> 3
<MEAN> 25
 1.565449e+00 2.203586e-01 3.563249e+00 1.684657e+00 -1.629368e+00 -5.684834e+00 -2.340779e+00 -6.758947e-01 -7.838526e-01 5.754665e-01 9.163756e-01 1.581468e+00 -4.399118e-01 -7.427452e-01 -8.628656e-01 2.262834e-01 5.734414e-01 1.386350e+00 8.623214e-01 1.177564e+00 1.485301e+00 6.449097e-01 5.547783e-01 9.332580e-01 -6.303255e-01
<VARIANCE> 25
 2.442643e+01 2.068622e+01 3.260720e+01 3.316858e+01 6.138776e+01 5.312506e+01 4.912132e+01 4.964584e+01 3.924572e+01 2.983893e+01 3.776120e+01 3.636403e+01 2.952656e+00 1.619521e+00 3.756717e+00 2.469164e+00 7.394757e+00 6.929903e+00 3.716403e+00 5.198587e+00 3.956327e+00 4.373172e+00 4.426958e+00 4.430426e+00 2.939924e+00
<GCONST> 1.069332e+02
<STATE> 4
<MEAN> 25
 -3.161854e+00 -1.577562e+00 -1.148108e+00 1.949441e+00 2.906988e+00 2.319201e+00 3.790342e+00 2.398558e+00 4.264206e+00 2.048053e+00 1.608656e+00 2.975480e+00 -2.836027e-02 -1.123479e-01 -7.001322e-02 -1.200182e-02 3.271522e-02 2.349264e-01 1.717225e-01 1.023095e-01 1.136786e-01 1.188798e-02 2.773426e-02 -9.753827e-02 1.148180e-02
<VARIANCE> 25
 1.195918e+01 9.954533e+00 1.572503e+01 1.368272e+01 1.960187e+01 1.626815e+01 1.718493e+01 1.672711e+01 1.704213e+01 2.182117e+01 1.506439e+01 1.675871e+01 4.321742e-01 5.127747e-01 7.170946e-01 1.138690e+00 1.441402e+00 1.480646e+00 1.694958e+00 1.606109e+00 1.445728e+00 1.724777e+00 1.256165e+00 1.243151e+00 3.171801e-01
<GCONST> 7.923474e+01
<TRANSP> 5
 0.000000e+00 1.000000e+00 0.000000e+00 0.000000e+00 0.000000e+00
 0.000000e+00 7.138937e-01 2.861063e-01 0.000000e+00 0.000000e+00
 0.000000e+00 0.000000e+00 3.924957e-01 6.075042e-01 0.000000e+00
 0.000000e+00 0.000000e+00 0.000000e+00 8.253262e-01 1.746738e-01
 0.000000e+00 0.000000e+00 0.000000e+00 0.000000e+00 0.000000e+00
<ENDHMM>
~h "e"
<BEGINHMM>
<NUMSTATES> 5
<STATE> 2
<MEAN> 25
 -8.323456e+00 -9.828476e+00 1.500815e+01 -1.347577e+01 -2.095676e+00 8.684174e+00 2.163520e-01 5.955554e-01 1.248647e+00 4.150983e+00 1.217475e+00 -1.269848e+00 -8.444397e-01 -1.054735e+00 1.265586e+00 -1.185662e+00 -2.474521e-01 3.445245e-01 -5.351656e-02 3.002445e-01 -5.550185e-02 8.681032e-02 -1.909642e-01 -1.149691e-01 5.183040e-01
<VARIANCE> 25
 8.632465e+01 6.046761e+01 1.637707e+02 7.651987e+01 2.283044e+01 3.350988e+01 2.859004e+01 3.507902e+01 1.996720e+01 3.019142e+01 1.775123e+01 1.921520e+01 7.490311e+00 4.463346e+00 1.121956e+01 7.644855e+00 2.512418e+00 6.617136e+00 3.371332e+00 3.948710e+00 2.001464e+00 2.605957e+00 1.272966e+00 1.069257e+00 3.006878e+00
<GCONST> 1.061493e+02
<STATE> 3
<MEAN> 25
 -1.409583e+00 -5.451816e+00 6.689330e+00 -7.819150e+00 1.804501e-01 3.142385e+00 1.631061e-01 -3.493138e+00 -1.668967e+00 1.200668e+00 8.858922e-01 4.735218e-02 2.889407e+00 2.579903e+00 -3.290514e+00 2.320452e+00 3.976249e-01 -2.812639e+00 3.507294e-01 -1.784415e+00 -1.183110e+00 -1.339035e+00 3.998441e-01 9.431694e-01 1.701525e-01
<VARIANCE> 25
 4.173144e+01 6.125562e+01 7.856141e+01 6.637359e+01 3.058653e+01 5.157283e+01 4.653831e+01 3.450260e+01 2.128415e+01 3.181236e+01 2.162560e+01 1.597033e+01 3.840462e+00 4.638840e+00 6.129442e+00 3.960220e+00 3.015528e+00 5.195156e+00 4.678226e+00 5.581827e+00 1.811559e+00 4.423189e+00 2.444215e+00 1.515481e+00 2.667948e+00
<GCONST> 1.059149e+02
<STATE> 4
<MEAN> 25
 6.585816e+00 -1.726262e+00 -4.658117e+00 -1.928305e+00 -2.222077e+00 -5.051579e+00 1.673259e-01 -4.159682e+00 -4.634325e+00 -6.874055e+00 3.584798e+00 4.120203e+00 3.070334e-01 2.973521e-01 -7.134365e-01 2.396992e-01 -9.047242e-02 -3.051090e-02 -3.560006e-02 4.576757e-01 2.002361e-01 -3.742135e-01 -2.037828e-01 1.207385e-01 -3.862134e-01
<VARIANCE> 25
 1.093543e+01 1.823939e+01 2.999404e+01 2.411092e+01 2.684793e+01 2.787512e+01 3.662513e+01 4.176881e+01 2.374779e+01 3.922507e+01 4.077345e+01 1.793897e+01 9.079567e-01 1.840515e+00 1.594700e+00 1.734032e+00 2.971893e+00 2.574803e+00 2.081269e+00 3.000635e+00 1.648795e+00 2.316441e+00 4.255950e+00 1.593419e+00 1.048875e+00
<GCONST> 9.390818e+01
<TRANSP> 5
 0.000000e+00 1.000000e+00 0.000000e+00 0.000000e+00 0.000000e+00
 0.000000e+00 7.928692e-01 2.071308e-01 0.000000e+00 0.000000e+00
 0.000000e+00 0.000000e+00 5.689186e-01 4.310814e-01 0.000000e+00
 0.000000e+00 0.000000e+00 0.000000e+00 8.307057e-01 1.692943e-01
 0.000000e+00 0.000000e+00 0.000000e+00 0.000000e+00 0.000000e+00
<ENDHMM>
~h "f"
<BEGINHMM>
<NUMSTATES> 5
<STATE> 2
<MEAN> 25
 -4.238754e+00 -4.086387e-01 -1.241281e+00 -2.820159e-01 1.668724e+00 6.499586e+00 5.265326e+00 1.072679e-02 -6.410863e-01 9.470714e-01 -2.078854e+00 -1.020377e+00 -1.626353e+00 3.894910e-01 -2.181251e-01 -7.968085e-01 -7.589195e-01 -2.603755e+00 -2.864904e-01 1.373186e-01 -9.031407e-01 -5.624610e-01 2.461144e-01 6.607670e-01 -2.893366e-01
<VARIANCE> 25
 8.984367e+01 1.585227e+01 1.187798e+01 1.722925e+01 4.120472e+01 8.729061e+01 2.097161e+01 3.167028e+01 2.654889e+01 1.623147e+01 9.846966e+00 6.312228e+00 1.394746e+01 2.219515e+00 2.333987e+00 6.245059e+00 8.390420e+00 5.899608e+00 3.333603e+00 5.702147e+00 4.042295e+00 1.998263e+00 9.434274e-01 2.875490e+00 1.366984e+00
<GCONST> 9.977005e+01
<STATE> 3
<MEAN> 25
 -2.267533e+00 2.521913e+00 -4.977784e+00 -3.779490e+00 -3.673727e+00 1.150705e+00 5.988255e-01 -8.042121e-02 -9.538541e-01 -1.758988e+00 1.305983e+00 1.620838e-01 1.985658e-01 -4.865037e-01 -4.450679e-01 -1.550018e-01 -1.473551e-01 -2.006649e-01 -5.063410e-01 8.572545e-03 -9.906171e-02 5.315564e-01 8.592806e-01 4.255533e-01 -3.214643e-01
<VARIANCE> 25
 1.920083e+02 2.443574e+01 7.444060e+00 7.681884e+01 7.237096e+01 2.341925e+01 1.207466e+01 1.734647e+01 4.457207e+01 3.301293e+01 1.312349e+01 1.016943e+01 1.096090e+00 1.010782e+00 7.030100e-01 1.371282e+00 2.466632e+00 1.556466e+00 1.980867e+00 1.547867e+00 1.537371e+00 3.411725e+00 9.833461e-01 1.070022e+00 1.545185e+00
<GCONST> 9.039188e+01
<STATE> 4
<MEAN> 25
 -5.739149e+00 -3.043455e+00 -3.802062e+00 -2.250489e+00 2.556100e-01 3.107462e-01 8.407597e-01 1.162436e+00 1.772962e+00 3.089463e+00 -9.076468e-01 9.653099e-01 1.437885e-01 3.062951e-02 1.052468e-02 -2.800952e-02 1.860883e-02 1.145321e-02 -8.504679e-02 -1.823987e-01 -3.654465e-02 -9.918935e-02 -2.014450e-01 -6.675079e-03 -1.080681e-01
<VARIANCE> 25
 3.237072e+01 9.974081e+00 9.156679e+00 9.761769e+00 1.483168e+01 1.154499e+01 1.319304e+01 1.773614e+01 1.600488e+01 1.721855e+01 1.332289e+01 1.425773e+01 1.539590e+00 7.206950e-01 8.012336e-01 9.117034e-01 1.238593e+00 1.226257e+00 1.408774e+00 1.511962e+00 1.603027e+00 1.709450e+00 1.295300e+00 1.387385e+00 1.579151e+00
<GCONST> 8.069623e+01
<TRANSP> 5
 0.000000e+00 1.000000e+00 0.000000e+00 0.000000e+00 0.000000e+00
 0.000000e+00 5.629602e-01 4.370398e-01 0.000000e+00 0.000000e+00
 0.000000e+00 0.000000e+00 6.433170e-01 3.566829e-01 0.000000e+00
 0.000000e+00 0.000000e+00 0.000000e+00 9.255669e-01 7.443308e-02
 0.000000e+00 0.000000e+00 0.000000e+00 0.000000e+00 0.000000e+00
<ENDHMM>
~h "g"
<BEGINHMM>
<NUMSTATES> 5
<STATE> 2
<MEAN> 25
 2.499359e-01 3.148965e+00 5.652388e+00 3.748982e+00 4.234659e+00 3.629853e-01 3.829983e-01 -1.281728e+00 2.714169e+00 -1.180123e-02 -4.955192e+00 -3.105427e+00 -2.678434e-02 -6.174320e-01 3.200683e-01 -4.557022e-01 3.592647e-01 -1.033242e+00 -6.090084e-01 -1.357558e+00 -3.967424e-01 -3.606188e-01 2.071587e-02 -2.555265e-01 2.091122e+00
<VARIANCE> 25
 2.287279e+01 9.904204e+01 3.478494e+01 4.870695e+01 3.412996e+01 3.011599e+01 3.627013e+01 4.823553e+01 1.983907e+01 2.397689e+01 2.179981e+01 2.651122e+01 3.526227e+00 1.067341e+01 5.242970e+00 6.615457e+00 4.163082e+00 3.828629e+00 3.829731e+00 6.380727e+00 2.014914e+00 2.578001e+00 2.487420e+00 3.009938e+00 5.967100e+00
<GCONST> 1.066201e+02
<STATE> 3
<MEAN> 25
 2.584671e+00 -2.899467e+00 1.793275e+00 3.409930e+00 5.010143e+00 -7.170901e+00 -7.968906e+00 -8.993772e+00 -2.530216e+00 -2.392823e+00 2.537784e+00 -2.279320e+00 5.989718e-01 2.602979e-01 -1.894327e-02 -4.114882e-01 -1.486738e+00 2.113787e-01 -7.291318e-01 -6.811860e-01 -3.775217e-01 2.842484e-01 1.211812e+00 5.978976e-01 1.778235e-01
<VARIANCE> 25
 2.888547e+01 2.085479e+01 3.659155e+01 3.740429e+01 3.525087e+01 2.907983e+01 3.696048e+01 4.182304e+01 1.693366e+01 1.770247e+01 4.375975e+01 2.152221e+01 1.549907e+00 1.906745e+00 3.629664e+00 1.438759e+00 2.389172e+00 3.874088e+00 4.355958e+00 2.814161e+00 2.105780e+00 1.495932e+00 2.576404e+00 1.352851e+00 1.926827e+00
<GCONST> 9.691599e+01
<STATE> 4
<MEAN> 25
 2.049297e+00 1.728510e+00 1.205396e+01 -2.509467e+00 -9.284640e+00 -4.915428e+00 -3.670480e+00 -5.101612e+00 -9.240504e+00 9.365268e-01 1.875078e+00 -2.480132e+00 7.972800e-01 -3.108813e-01 4.897063e-01 1.157389e-01 -1.011152e+00 -2.965631e-01 2.244917e-01 1.448909e+00 -3.941373e-01 -6.559224e-02 2.790096e-01 -3.616234e-01 4.548876e-01
<VARIANCE> 25
 3.143528e+01 1.584569e+01 6.945753e+01 2.350107e+01 5.308061e+01 3.409978e+01 3.393737e+01 2.619403e+01 8.613234e+01 1.308757e+01 3.167381e+01 2.562402e+01 3.285645e+00 2.669285e+00 6.098839e+00 2.867026e+00 4.483914e+00 3.975102e+00 5.226530e+00 3.013640e+00 7.464009e+00 2.142827e+00 2.875260e+00 2.120849e+00 1.301704e+00
<GCONST> 1.030873e+02
<TRANSP> 5
 0.000000e+00 1.000000e+00 0.000000e+00 0.000000e+00 0.000000e+00
 0.000000e+00 8.399426e-01 1.600574e-01 0.000000e+00 0.000000e+00
 0.000000e+00 0.000000e+00 7.330064e-01 2.669936e-01 0.000000e+00
 0.000000e+00 0.000000e+00 0.000000e+00 7.730687e-01 2.269312e-01
 0.000000e+00 0.000000e+00 0.000000e+00 0.000000e+00 0.000000e+00
<ENDHMM>
~h "i"
<BEGINHMM>
<NUMSTATES> 5
<STATE> 2
<MEAN> 25
 3.031386e+00 -1.309176e+00 5.050148e+00 9.467375e+00 8.414893e+00 -8.542890e+00 -8.659898e+00 4.501261e-01 -4.831649e+00 -4.612885e+00 2.798668e+00 -7.777962e+00 -2.306416e-01 1.289551e-01 -5.671453e-02 6.263694e-01 -9.359359e-02 -3.796746e-01 -2.184647e-01 -6.385473e-03 -1.867350e-02 3.016592e-02 -4.496501e-01 -1.807344e-01 -5.133700e-01
<VARIANCE> 25
 6.774092e+00 1.605202e+01 3.530609e+01 3.944220e+01 2.882613e+01 5.284354e+01 3.352629e+01 3.834643e+01 1.975408e+01 2.760218e+01 2.946571e+01 3.902111e+01 6.821355e-01 1.128925e+00 1.660772e+00 3.020458e+00 3.335910e+00 5.000476e+00 3.145950e+00 1.866098e+00 1.498038e+00 1.401293e+00 1.882223e+00 1.787482e+00 8.741654e-01
<GCONST> 9.346696e+01
<STATE> 3
<MEAN> 25
 9.103932e-01 1.048467e+00 4.359936e+00 1.337238e+01 5.032287e+00 -3.622617e+00 -4.934110e+00 1.619785e+00 -5.040822e-01 -5.168218e-01 -1.344603e+00 -5.064799e+00 -4.830793e-01 6.463926e-01 -3.223926e-01 -1.146411e-02 -2.478559e-01 9.762975e-01 9.642401e-01 7.648923e-01 8.085579e-01 7.563263e-01 -3.035891e-01 7.548777e-01 -1.127041e+00
<VARIANCE> 25
 1.098800e+01 4.155655e+01 3.291121e+01 2.665439e+01 1.923957e+01 3.604745e+01 2.802360e+01 6.356768e+01 2.960631e+01 2.559211e+01 2.811743e+01 2.501000e+01 4.880453e-01 1.411671e+00 1.312078e+00 2.429797e+00 1.550274e+00 3.208075e+00 3.086763e+00 1.635339e+00 1.023283e+00 5.981252e-01 1.180802e+00 1.665258e+00 6.077089e-01
<GCONST> 8.975755e+01
<STATE> 4
<MEAN> 25
 -3.659192e+00 5.556500e+00 -1.645571e+00 7.380780e+00 2.604679e+00 1.569983e-02 -1.354446e+00 1.850593e+00 3.358067e+00 2.985250e+00 -4.013157e+00 1.682399e+00 -1.845275e-01 7.205749e-02 -3.796460e-01 -5.568096e-01 -1.707501e-01 3.488562e-01 1.125482e-01 -1.895843e-01 8.605757e-02 7.594160e-02 -2.895807e-02 1.970506e-01 -2.554433e-01
<VARIANCE> 25
 1.710801e+01 2.593467e+01 2.290175e+01 2.023542e+01 1.937387e+01 5.539131e+01 3.273548e+01 3.611380e+01 2.104181e+01 1.331272e+01 1.752928e+01 1.061321e+01 4.115448e-01 7.571301e-01 1.167388e+00 1.173382e+00 1.407512e+00 2.621725e+00 2.572675e+00 1.534305e+00 1.595011e+00 1.005373e+00 1.307881e+00 1.012267e+00 1.473999e-01
<GCONST> 8.376090e+01
<TRANSP> 5
 0.000000e+00 1.000000e+00 0.000000e+00 0.000000e+00 0.000000e+00
 0.000000e+00 8.362495e-01 1.637505e-01 0.000000e+00 0.000000e+00
 0.000000e+00 0.000000e+00 7.787067e-01 2.212933e-01 0.000000e+00
 0.000000e+00 0.000000e+00 0.000000e+00 8.888860e-01 1.111140e-01
 0.000000e+00 0.000000e+00 0.000000e+00 0.000000e+00 0.000000e+00
<ENDHMM>
~h "j"
<BEGINHMM>
<NUMSTATES> 5
<STATE> 2
<MEAN> 25
 -6.809767e+00 -1.009884e+01 1.262578e+01 -4.546724e+00 -1.210758e-01 3.089701e+00 2.847175e+00 1.272010e+00 2.171944e+00 1.150636e+00 -3.720115e+00 -5.764100e+00 1.890039e+00 3.488625e-01 -6.921732e-01 1.894524e+00 1.593894e+00 -1.397332e+00 3.536107e-02 -8.542347e-01 -8.997847e-01 -1.028527e+00 1.196489e-01 -7.158619e-01 8.968827e-01
<VARIANCE> 25
 5.934947e+01 1.309862e+02 5.876812e+01 1.039171e+02 5.702833e+01 3.742852e+01 2.554595e+01 2.927285e+01 1.382365e+01 1.464558e+01 1.793170e+01 7.834151e+00 6.627855e+00 1.701160e+01 8.760246e+00 9.726919e+00 6.429913e+00 4.113689e+00 3.394271e+00 2.513800e+00 2.156518e+00 2.317931e+00 1.354409e+00 8.778926e-01 7.911955e+00
<GCONST> 1.066015e+02
<STATE> 3
<MEAN> 25
 4.095135e+00 -2.251840e+00 3.102606e+00 7.505798e+00 3.433067e+00 -3.984997e+00 -2.829999e+00 -4.532729e+00 -3.082654e-01 -3.870694e+00 -4.051001e+00 -7.581843e+00 6.607395e-02 4.810756e-01 -6.861840e-01 5.242782e-01 6.695610e-03 3.082264e-01 1.331721e-01 -2.208460e-01 -5.160761e-01 5.092629e-01 4.414771e-01 5.804977e-01 -9.798632e-01
<VARIANCE> 25
 2.955469e+00 5.723130e+01 7.233638e+00 1.548340e+01 1.846471e+01 1.969147e+01 3.587656e+01 4.914090e+01 1.173745e+01 8.511798e+00 1.953685e+01 1.026243e+01 9.412670e-01 1.569955e+00 1.143060e+00 1.262188e+00 2.255543e+00 2.738303e+00 2.137063e+00 1.810673e+00 8.861188e-01 1.903997e+00 9.508917e-01 1.220802e+00 1.649735e+00
<GCONST> 8.417582e+01
<STATE> 4
<MEAN> 25
 -1.299289e+00 3.429515e+00 4.472555e+00 8.547987e+00 5.252199e+00 4.770665e+00 3.695283e+00 2.453657e+00 1.309529e+00 3.992068e+00 -2.603153e+00 -1.553068e+00 -8.226337e-01 -1.563452e+00 9.153261e-01 -1.170971e+00 -2.723909e-01 2.109579e-01 3.865841e-01 6.727672e-01 -1.223393e-01 3.152634e-01 1.023410e+00 4.659851e-01 6.588480e-01
<VARIANCE> 25
 1.793398e+01 1.188209e+02 6.479620e+01 4.780669e+01 4.414630e+01 4.132721e+01 3.294214e+01 3.371296e+01 1.170737e+01 1.933512e+01 2.586433e+01 1.638677e+01 3.192027e+00 2.031831e+01 8.704458e+00 6.969930e+00 5.420340e+00 1.153855e+01 3.261818e+00 3.019114e+00 3.165197e+00 4.278368e+00 4.342227e+00 2.325775e+00 1.474596e+01
<GCONST> 1.099527e+02
<TRANSP> 5
 0.000000e+00 1.000000e+00 0.000000e+00 0.000000e+00 0.000000e+00
 0.000000e+00 7.312617e-01 2.687383e-01 0.000000e+00 0.000000e+00
 0.000000e+00 0.000000e+00 7.694789e-01 2.305211e-01 0.000000e+00
 0.000000e+00 0.000000e+00 0.000000e+00 8.508590e-01 1.491410e-01
 0.000000e+00 0.000000e+00 0.000000e+00 0.000000e+00 0.000000e+00
<ENDHMM>
~h "k"
<BEGINHMM>
<NUMSTATES> 5
<STATE> 2
<MEAN> 25
 -6.379966e+00 -1.731118e+00 -1.468373e+00 -9.973228e-01 1.213546e+00 -1.837531e+00 2.744872e+00 -1.185150e-01 2.489071e+00 2.109603e+00 -6.862554e-01 4.766115e+00 -9.310217e-02 -9.226631e-01 -1.984237e-01 -1.221089e+00 9.409668e-02 -7.933866e-01 -3.904707e-01 -5.222914e-01 -5.534274e-01 1.222919e-01 -5.017497e-01 -2.182141e-02 2.600478e+00
<VARIANCE> 25
 2.127671e+01 3.972048e+01 4.619484e+01 6.612812e+01 2.548977e+01 3.751071e+01 3.472128e+01 3.414055e+01 3.611467e+01 1.893844e+01 2.601917e+01 1.857703e+01 3.140671e+00 5.455875e+00 6.693581e+00 6.198153e+00 3.213973e+00 4.631222e+00 3.815480e+00 4.474164e+00 4.132339e+00 1.651605e+00 4.418017e+00 2.403686e+00 9.073157e+00
<GCONST> 1.059531e+02
<STATE> 3
<MEAN> 25
 -3.716200e+00 -4.081023e+00 -2.084950e+00 -4.117075e+00 2.460649e+00 -1.465775e+00 2.405257e-01 -1.238077e+00 -1.786306e-01 1.798194e+00 -1.086140e+00 6.790489e-01 7.819595e-01 -1.530254e-01 7.629681e-01 -1.109583e-01 -2.339492e-02 5.899553e-01 5.384381e-03 -2.575776e-02 -4.397379e-01 -7.565104e-01 5.457498e-01 -9.848970e-01 1.755935e+00
<VARIANCE> 25
 4.684341e+01 5.265924e+01 1.146797e+02 6.115014e+01 7.771273e+01 6.857853e+01 3.306729e+01 4.899678e+01 6.127465e+01 2.523046e+01 3.756450e+01 2.678442e+01 4.431138e+00 7.797564e+00 6.290752e+00 5.903067e+00 5.349800e+00 8.739079e+00 4.843257e+00 4.261123e+00 5.793569e+00 3.305823e+00 4.132040e+00 3.791963e+00 7.014277e+00
<GCONST> 1.145227e+02
<STATE> 4
<MEAN> 25
 1.674397e+00 -2.554287e+00 -1.248940e+00 -9.835511e-01 -2.712772e+00 1.081019e+00 3.577409e+00 -1.252579e+00 -2.730601e+00 -1.673023e+00 3.738108e-01 -1.753276e+00 4.458695e-01 4.461008e-02 3.351520e-01 4.750745e-01 -5.151291e-01 -5.433030e-02 -1.929437e-01 -4.773374e-03 1.470241e-01 -3.272870e-01 2.099400e-01 -5.381193e-01 2.427806e-01
<VARIANCE> 25
 6.138445e+01 4.770280e+01 9.001170e+01 5.888134e+01 6.744833e+01 6.583966e+01 5.738552e+01 5.779130e+01 4.855914e+01 3.704039e+01 2.358884e+01 3.513267e+01 3.226753e+00 3.219970e+00 3.546954e+00 3.786431e+00 4.568210e+00 4.868640e+00 4.393761e+00 4.289644e+00 4.877415e+00 4.164444e+00 2.163652e+00 3.283965e+00 3.160298e+00
<GCONST> 1.103238e+02
<TRANSP> 5
 0.000000e+00 1.000000e+00 0.000000e+00 0.000000e+00 0.000000e+00
 0.000000e+00 6.781420e-01 3.218581e-01 0.000000e+00 0.000000e+00
 0.000000e+00 0.000000e+00 6.321690e-01 3.678309e-01 0.000000e+00
 0.000000e+00 0.000000e+00 0.000000e+00 6.540827e-01 3.459173e-01
 0.000000e+00 0.000000e+00 0.000000e+00 0.000000e+00 0.000000e+00
<ENDHMM>
~h "l"
<BEGINHMM>
<NUMSTATES> 5
<STATE> 2
<MEAN> 25
 1.053156e+01 5.209774e+00 -6.398777e+00 -1.422181e+01 -5.312261e+00 5.688471e+00 -2.995040e+00 -1.025711e+00 -7.467365e+00 9.123511e-01 1.188013e+00 -4.904104e+00 6.649427e-02 7.352420e-01 1.072386e-01 -1.763593e-01 -2.903214e-01 -9.405327e-02 3.101755e-02 5.444460e-02 -4.801726e-01 -2.018494e-01 4.636532e-02 5.720114e-01 -5.509192e-01
<VARIANCE> 25
 1.301042e+01 2.183868e+01 1.925244e+01 6.749194e+01 2.716743e+01 4.239825e+01 2.863400e+01 2.725625e+01 4.223913e+01 3.245486e+01 2.325960e+01 3.674876e+01 5.022513e-01 1.072130e+00 8.550577e-01 3.229252e+00 1.240130e+00 2.704482e+00 1.519704e+00 1.968068e+00 2.441456e+00 2.354076e+00 1.897793e+00 1.680674e+00 4.883068e-01
<GCONST> 9.134321e+01
<STATE> 3
<MEAN> 25
 6.456527e+00 6.128981e+00 -2.710373e+00 -4.451833e+00 -1.639233e+00 2.411611e+00 -2.472593e+00 -1.848244e+00 -3.676425e+00 -1.645526e-01 -1.904179e+00 -2.137634e+00 -9.680459e-01 -7.635444e-01 8.300006e-01 1.748867e+00 7.235155e-01 -2.429715e-01 3.772741e-01 1.334859e-01 1.205947e+00 -6.447742e-02 -4.436201e-01 1.142142e-01 -6.103893e-01
<VARIANCE> 25
 1.705399e+01 3.303864e+01 1.977701e+01 4.611524e+01 2.838914e+01 3.424522e+01 4.032748e+01 4.436433e+01 4.020880e+01 3.557980e+01 3.383921e+01 3.519755e+01 1.146839e+00 1.680278e+00 1.460519e+00 4.152521e+00 3.169131e+00 3.278167e+00 2.669480e+00 3.950574e+00 3.399089e+00 3.090014e+00 3.169202e+00 2.704710e+00 1.596965e+00
<GCONST> 9.993736e+01
<STATE> 4
<MEAN> 25
 -2.281754e+00 -6.508479e-01 -2.851546e-01 2.354815e+00 2.882093e+00 2.303262e+00 2.634505e+00 1.064289e+00 3.348528e+00 7.839974e-01 5.111930e-01 2.027784e+00 -2.050135e-01 -2.361053e-01 9.175508e-02 6.125675e-02 -3.050909e-02 -1.167688e-01 4.094947e-02 6.952070e-02 1.801605e-01 1.163296e-01 1.122678e-01 1.132234e-01 -1.077369e-01
<VARIANCE> 25
 2.255224e+01 2.154609e+01 1.416629e+01 1.887986e+01 2.300404e+01 2.020148e+01 2.053054e+01 2.523823e+01 2.891810e+01 2.005018e+01 2.888941e+01 2.533817e+01 3.495823e-01 6.347566e-01 7.186688e-01 1.088781e+00 9.561608e-01 1.282465e+00 1.348394e+00 1.573874e+00 1.791900e+00 1.758634e+00 1.943444e+00 1.456143e+00 2.395282e-01
<GCONST> 8.303667e+01
<TRANSP> 5
 0.000000e+00 1.000000e+00 0.000000e+00 0.000000e+00 0.000000e+00
 0.000000e+00 8.245460e-01 1.754539e-01 0.000000e+00 0.000000e+00
 0.000000e+00 0.000000e+00 7.238406e-01 2.761594e-01 0.000000e+00
 0.000000e+00 0.000000e+00 0.000000e+00 8.817837e-01 1.182163e-01
 0.000000e+00 0.000000e+00 0.000000e+00 0.000000e+00 0.000000e+00
<ENDHMM>
~h "m"
<BEGINHMM>
<NUMSTATES> 5
<STATE> 2
<MEAN> 25
 4.861289e+00 2.810868e+00 5.044421e+00 5.497955e+00 -5.842910e-02 -1.056282e+00 -2.863244e-01 -7.759121e+00 -6.372410e+00 -1.057902e+00 1.061287e+00 -3.430980e+00 1.649669e+00 1.310325e+00 1.552786e+00 1.993994e+00 8.551899e-01 -7.551582e-01 -5.576773e-01 -2.580643e+00 -2.129677e+00 5.224366e-01 2.102260e-01 -7.394471e-01 -2.281020e-03
<VARIANCE> 25
 3.570766e+01 1.852760e+01 2.346329e+01 2.732576e+01 2.534114e+01 3.181877e+01 2.807723e+01 5.517832e+01 5.443144e+01 2.077287e+01 3.272046e+01 2.773162e+01 4.153610e+00 2.589190e+00 3.463568e+00 2.734606e+00 2.828452e+00 4.129950e+00 2.482177e+00 3.831029e+00 3.404578e+00 3.626199e+00 3.575603e+00 3.870729e+00 2.750143e+00
<GCONST> 1.022704e+02
<STATE> 3
<MEAN> 25
 7.762003e+00 4.566452e+00 7.332206e+00 8.390513e+00 1.961851e+00 -3.024724e+00 -2.075614e+00 -1.221405e+01 -1.069436e+01 2.937319e-01 -7.612100e-01 -6.596416e+00 9.601384e-03 1.384682e-01 -8.470476e-03 7.624619e-02 1.106602e-01 -1.801293e-01 -7.804333e-02 7.573695e-02 1.498878e-01 -7.370179e-02 -7.873670e-02 -1.024992e-01 -9.500531e-02
<VARIANCE> 25
 9.263828e+00 8.270155e+00 1.575599e+01 9.452428e+00 1.267826e+01 4.019476e+01 2.717929e+01 4.843338e+01 3.316475e+01 2.075964e+01 4.668830e+01 2.806862e+01 5.039985e-01 7.010637e-01 8.917720e-01 1.008433e+00 8.581311e-01 1.173537e+00 1.298206e+00 2.172910e+00 2.152873e+00 1.853269e+00 1.431897e+00 1.698708e+00 4.738602e-01
<GCONST> 8.384148e+01
<STATE> 4
<MEAN> 25
 4.270243e+00 1.533261e+00 8.668062e+00 1.090651e+00 -4.621251e+00 -3.429359e+00 -3.368839e+00 -2.756259e+00 -5.972439e+00 -4.616468e+00 -6.698055e-01 -6.137809e+00 -5.096092e-01 -4.703425e-01 -3.063201e-01 -7.879623e-01 -3.689841e-01 2.626514e-01 5.484552e-01 1.432506e+00 7.277641e-01 -4.680980e-01 -4.021830e-01 2.401502e-01 3.965203e-01
<VARIANCE> 25
 3.926086e+01 5.750386e+01 6.704031e+01 5.832143e+01 6.605582e+01 6.205668e+01 5.914339e+01 1.156548e+02 4.548092e+01 2.623700e+01 3.490987e+01 3.202510e+01 2.093349e+00 2.133044e+00 3.724098e+00 4.006495e+00 5.973553e+00 4.059477e+00 3.555418e+00 6.283974e+00 3.651061e+00 3.095107e+00 2.246616e+00 3.059171e+00 2.634205e+00
<GCONST> 1.090081e+02
<TRANSP> 5
 0.000000e+00 1.000000e+00 0.000000e+00 0.000000e+00 0.000000e+00
 0.000000e+00 5.088900e-01 4.911100e-01 0.000000e+00 0.000000e+00
 0.000000e+00 0.000000e+00 8.405137e-01 1.594863e-01 0.000000e+00
 0.000000e+00 0.000000e+00 0.000000e+00 7.980822e-01 2.019178e-01
 0.000000e+00 0.000000e+00 0.000000e+00 0.000000e+00 0.000000e+00
<ENDHMM>
~h "n"
<BEGINHMM>
<NUMSTATES> 5
<STATE> 2
<MEAN> 25
 6.749088e+00 2.255044e+00 5.958418e+00 4.148745e+00 -2.494497e+00 -3.799681e+00 -2.029202e+00 -7.547143e+00 -9.095959e+00 -1.010561e+00 -5.894864e+00 -5.663053e+00 -1.878762e-01 3.354328e-01 8.258928e-02 3.102188e-01 1.737255e-01 9.953695e-02 -6.106954e-02 -2.671498e-01 1.426521e-01 -1.344758e-01 -1.666137e-01 1.861902e-01 -5.581565e-01
<VARIANCE> 25
 8.807834e+00 1.862149e+01 2.562001e+01 3.189304e+01 2.709452e+01 1.625192e+01 2.208887e+01 6.994083e+01 4.006089e+01 2.798023e+01 2.083392e+01 1.414003e+01 4.327295e-01 9.444709e-01 1.214371e+00 1.946347e+00 1.619964e+00 1.327471e+00 1.223139e+00 5.071626e+00 2.149396e+00 2.155165e+00 1.233481e+00 8.730865e-01 9.071168e-01
<GCONST> 8.795629e+01
<STATE> 3
<MEAN> 25
 1.301915e+00 3.753127e+00 1.858872e+00 5.312877e+00 3.620741e+00 4.386742e-01 -6.373921e-01 -1.507727e+00 -7.430209e-01 -3.670139e+00 -4.875452e+00 -2.056521e+00 -1.022610e+00 -5.650682e-01 -8.191131e-01 -3.198748e-01 5.944158e-01 7.518842e-01 7.371491e-01 1.010561e+00 1.162412e+00 7.187212e-01 8.317290e-01 8.382133e-01 -6.272733e-01
<VARIANCE> 25
 1.521322e+01 2.148441e+01 2.571679e+01 2.507593e+01 1.931663e+01 2.844199e+01 2.632167e+01 4.128520e+01 3.334176e+01 2.790566e+01 3.211147e+01 2.196089e+01 1.362731e+00 1.495491e+00 1.611997e+00 2.174038e+00 1.726615e+00 2.477846e+00 2.352499e+00 3.449939e+00 3.019771e+00 2.895441e+00 2.872734e+00 2.200026e+00 1.044309e+00
<GCONST> 9.446812e+01
<STATE> 4
<MEAN> 25
 -3.617468e+00 -2.117711e+00 -3.469219e+00 1.257595e+00 3.501623e+00 2.094020e+00 3.383661e+00 2.811152e+00 4.794013e+00 2.166863e+00 2.274661e+00 3.900338e+00 -4.883755e-02 -4.359258e-02 -3.298955e-02 -6.204221e-02 1.697929e-03 2.134480e-02 7.048399e-02 5.466444e-03 4.385534e-02 8.022771e-02 1.314293e-01 6.347841e-02 -2.959754e-02
<VARIANCE> 25
 7.417777e+00 1.035693e+01 1.049103e+01 1.569869e+01 1.088321e+01 1.257548e+01 1.509046e+01 1.711363e+01 2.108496e+01 1.614715e+01 2.157970e+01 1.738573e+01 2.948304e-01 3.781542e-01 5.564743e-01 7.861640e-01 8.757815e-01 1.080976e+00 1.294856e+00 1.550760e+00 1.485431e+00 1.628236e+00 1.449247e+00 1.341940e+00 1.608741e-01
<GCONST> 7.496625e+01
<TRANSP> 5
 0.000000e+00 1.000000e+00 0.000000e+00 0.000000e+00 0.000000e+00
 0.000000e+00 8.698382e-01 1.301618e-01 0.000000e+00 0.000000e+00
 0.000000e+00 0.000000e+00 7.253051e-01 2.746949e-01 0.000000e+00
 0.000000e+00 0.000000e+00 0.000000e+00 9.211234e-01 7.887664e-02
 0.000000e+00 0.000000e+00 0.000000e+00 0.000000e+00 0.000000e+00
<ENDHMM>
~h "p"
<BEGINHMM>
<NUMSTATES> 5
<STATE> 2
<MEAN> 25
 -8.578718e-01 2.083861e+00 -2.597164e+00 -1.505902e+00 4.267649e+00 8.199286e-01 8.791573e-01 7.572682e-01 3.412017e+00 7.754841e-01 8.542626e-01 2.030471e-01 1.478905e-01 -4.068361e-02 -5.334856e-01 -7.404567e-01 4.549118e-03 -4.230223e-02 -1.562777e-01 7.414988e-02 2.291801e-01 1.986722e-01 6.100143e-02 -8.478512e-02 9.068055e-01
<VARIANCE> 25
 3.518462e+01 1.876761e+01 4.963670e+01 4.729375e+01 4.285542e+01 4.178801e+01 2.931098e+01 2.321456e+01 2.825618e+01 2.617450e+01 2.069622e+01 2.534879e+01 5.011103e+00 2.881632e+00 3.682688e+00 4.482277e+00 3.198245e+00 4.900128e+00 3.391968e+00 3.458168e+00 4.567930e+00 3.157550e+00 3.643069e+00 3.421691e+00 7.149593e+00
<GCONST> 1.049294e+02
<STATE> 3
<MEAN> 25
 2.641394e+00 7.100828e-02 -3.199087e+00 -1.487893e+00 2.430293e+00 1.089000e+00 -2.071743e+00 5.618411e-01 1.814026e+00 8.348538e-01 -1.995614e+00 -2.659020e+00 -2.802195e-01 -9.024976e-01 3.809784e-01 1.166246e+00 -1.839485e-01 -9.156802e-02 -6.641963e-02 6.709929e-01 1.709208e-01 5.325061e-02 -2.399147e-01 3.692679e-01 1.200414e-01
<VARIANCE> 25
 3.436351e+01 2.858748e+01 5.359884e+01 3.753120e+01 3.426291e+01 2.792076e+01 6.128439e+01 4.507464e+01 3.261474e+01 3.735895e+01 5.181886e+01 3.122410e+01 7.026171e+00 4.298585e+00 5.496477e+00 4.144778e+00 5.125408e+00 2.925209e+00 7.183740e+00 6.718509e+00 7.016013e+00 6.307407e+00 5.341309e+00 4.509656e+00 7.485632e+00
<GCONST> 1.118279e+02
<STATE> 4
<MEAN> 25
 1.312420e-01 -1.002463e+00 -1.484309e+00 -1.713587e-01 1.480102e+00 1.356076e+00 7.850082e-03 -1.048416e+00 1.327774e+00 6.092530e-01 -7.088589e-01 -1.847672e+00 -1.342640e-01 -9.443746e-02 2.993606e-01 8.971658e-02 -4.445728e-01 6.322794e-02 1.877344e-01 -2.241035e-01 -1.473412e-01 1.023970e-01 1.715508e-01 1.700021e-01 5.500503e-01
<VARIANCE> 25
 2.247461e+01 1.884534e+01 2.540925e+01 2.450074e+01 2.550476e+01 1.660578e+01 3.535905e+01 3.348726e+01 3.013794e+01 3.030216e+01 2.519830e+01 2.576267e+01 3.130798e+00 1.808230e+00 3.927735e+00 1.787734e+00 3.067927e+00 2.019349e+00 4.724634e+00 2.644122e+00 3.024189e+00 2.641746e+00 1.662701e+00 2.265983e+00 3.082488e+00
<GCONST> 9.740926e+01
<TRANSP> 5
 0.000000e+00 1.000000e+00 0.000000e+00 0.000000e+00 0.000000e+00
 0.000000e+00 6.532146e-01 3.467854e-01 0.000000e+00 0.000000e+00
 0.000000e+00 0.000000e+00 5.230234e-01 4.769765e-01 0.000000e+00
 0.000000e+00 0.000000e+00 0.000000e+00 7.692970e-01 2.307030e-01
 0.000000e+00 0.000000e+00 0.000000e+00 0.000000e+00 0.000000e+00
<ENDHMM>
~h "r"
<BEGINHMM>
<NUMSTATES> 5
<STATE> 2
<MEAN> 25
 9.477452e+00 -2.143348e+00 -6.018745e+00 4.071320e+00 1.473940e+00 -4.971860e+00 -9.861432e+00 -8.868321e-01 1.853756e+00 -4.930677e+00 -2.808705e-01 9.286584e-01 1.134159e+00 -3.072405e-01 -7.627643e-01 6.579387e-01 -1.779094e-01 -9.144112e-01 -1.571452e+00 8.589878e-01 3.457975e-01 -9.332089e-01 -1.748937e-01 -8.999199e-02 8.271202e-01
<VARIANCE> 25
 6.119786e+01 2.950458e+01 6.502840e+01 2.494961e+01 3.130622e+01 8.681052e+01 7.241249e+01 7.688140e+01 5.367455e+01 5.386474e+01 2.410571e+01 3.261633e+01 4.240318e+00 3.095691e+00 5.119271e+00 2.104732e+00 3.998405e+00 4.384243e+00 5.033207e+00 7.184255e+00 5.221355e+00 5.364054e+00 2.651183e+00 3.172569e+00 3.381633e+00
<GCONST> 1.100902e+02
<STATE> 3
<MEAN> 25
 8.464439e+00 -2.069345e+00 -2.749285e+00 7.098048e+00 -2.687523e+00 -7.529079e+00 -9.535043e+00 4.027322e+00 -1.599426e+00 -7.633963e+00 8.657500e-01 2.655930e+00 -1.094600e+00 2.393070e-01 2.127130e+00 -2.455856e-01 -1.085607e+00 2.351667e-01 2.275293e+00 6.581645e-03 -1.676448e+00 5.111838e-01 2.014795e-01 -2.491854e-01 -6.753052e-01
<VARIANCE> 25
 4.485349e+01 3.969592e+01 5.872056e+01 5.432841e+01 5.246733e+01 7.670089e+01 7.392332e+01 5.441885e+01 5.693917e+01 7.214053e+01 3.921091e+01 3.694185e+01 2.525221e+00 3.015952e+00 3.862688e+00 3.433985e+00 5.435335e+00 4.312952e+00 4.007710e+00 6.453741e+00 6.114164e+00 6.674927e+00 4.082686e+00 2.993306e+00 3.738364e+00
<GCONST> 1.122517e+02
<STATE> 4
<MEAN> 25
 3.260053e-01 1.073960e+00 4.367210e+00 3.380866e+00 -1.558998e+00 -1.405357e+00 1.421740e+00 -1.843552e+00 -2.665102e+00 -1.811420e+00 1.521076e+00 -5.180863e-01 -5.459332e-01 5.343359e-02 2.885524e-01 -2.174731e-01 -2.001691e-01 2.384998e-01 3.718683e-01 -4.063038e-01 1.209976e-01 3.942235e-01 -9.410675e-02 -1.860608e-01 -3.502198e-01
<VARIANCE> 25
 1.082458e+02 3.922240e+01 9.932468e+01 3.527394e+01 6.953889e+01 4.431601e+01 5.362302e+01 5.995614e+01 3.246398e+01 4.720716e+01 3.665014e+01 3.865482e+01 5.039182e+00 2.530105e+00 3.606903e+00 4.281404e+00 5.006430e+00 5.258024e+00 4.295580e+00 5.173028e+00 4.324898e+00 4.544089e+00 3.661963e+00 3.706819e+00 2.523268e+00
<GCONST> 1.113278e+02
<TRANSP> 5
 0.000000e+00 1.000000e+00 0.000000e+00 0.000000e+00 0.000000e+00
 0.000000e+00 6.993898e-01 3.006102e-01 0.000000e+00 0.000000e+00
 0.000000e+00 0.000000e+00 5.742835e-01 4.257165e-01 0.000000e+00
 0.000000e+00 0.000000e+00 0.000000e+00 6.812715e-01 3.187285e-01
 0.000000e+00 0.000000e+00 0.000000e+00 0.000000e+00 0.000000e+00
<ENDHMM>
~h "s"
<BEGINHMM>
<NUMSTATES> 5
<STATE> 2
<MEAN> 25
 -7.522762e+00 2.219129e+00 -1.831824e-01 -2.933862e+00 5.555433e+00 -7.360116e+00 3.500784e+00 1.815899e-01 -2.102925e-01 3.784868e-01 -2.776816e+00 2.441941e+00 -3.753343e+00 1.316577e+00 -4.721854e-01 -9.343047e-01 1.787354e+00 -1.288578e+00 1.729269e+00 4.441072e-01 2.560844e-01 -4.268800e-01 4.405494e-01 8.257271e-01 1.659472e+00
<VARIANCE> 25
 8.066977e+01 3.483755e+01 2.795741e+01 2.297796e+01 2.789723e+01 5.290987e+01 3.590388e+01 3.861447e+01 2.805994e+01 2.686162e+01 3.038362e+01 1.846536e+01 4.242088e+00 4.242529e+00 3.693359e+00 2.356673e+00 2.839668e+00 3.939843e+00 3.763640e+00 2.692264e+00 3.546029e+00 2.832587e+00 2.460092e+00 1.787913e+00 2.589286e+00
<GCONST> 1.023639e+02
<STATE> 3
<MEAN> 25
 -2.004031e+01 7.650383e+00 -2.190095e+00 -6.027550e+00 1.103593e+01 -6.879747e+00 6.720092e+00 3.414976e+00 1.550015e-01 -5.182435e-01 -1.658603e-01 5.886065e+00 -6.399357e-01 2.896318e-01 -3.437984e-01 -1.574536e-01 1.904489e-01 6.609984e-01 -1.694739e-01 2.142592e-01 3.179859e-01 -8.196790e-02 2.282163e-01 2.254339e-01 2.402639e-01
<VARIANCE> 25
 6.801112e+01 2.247547e+01 3.688874e+01 2.174978e+01 3.394126e+01 3.304832e+01 1.894091e+01 4.802482e+01 2.068485e+01 1.657989e+01 1.588649e+01 1.299067e+01 1.866982e+00 1.442582e+00 1.972886e+00 1.264036e+00 2.090626e+00 1.578478e+00 1.394034e+00 1.861713e+00 1.502443e+00 1.808281e+00 1.312957e+00 1.105119e+00 9.601757e-01
<GCONST> 9.035271e+01
<STATE> 4
<MEAN> 25
 -1.650114e+01 6.562964e+00 -6.227209e+00 -3.583459e+00 8.445298e+00 -7.029144e+00 7.045883e+00 5.588286e-01 3.660806e+00 -6.781745e-01 -4.669438e-01 4.529811e+00 1.244793e+00 -5.719817e-01 1.455249e-01 1.791496e-01 -7.126786e-01 1.428554e-01 -4.719593e-01 -2.117899e-01 3.989703e-02 1.925042e-01 -9.841278e-02 -4.904807e-01 -4.646329e-01
<VARIANCE> 25
 5.797636e+01 1.785919e+01 3.034280e+01 2.155537e+01 2.285235e+01 2.763722e+01 2.162784e+01 2.276998e+01 2.124211e+01 2.128288e+01 1.566355e+01 1.638366e+01 3.994842e+00 1.109769e+00 1.733559e+00 1.424624e+00 1.460024e+00 2.477183e+00 2.237848e+00 2.043413e+00 2.158961e+00 2.129270e+00 1.577742e+00 1.897222e+00 2.792672e+00
<GCONST> 9.252955e+01
<TRANSP> 5
 0.000000e+00 1.000000e+00 0.000000e+00 0.000000e+00 0.000000e+00
 0.000000e+00 6.930484e-01 3.069517e-01 0.000000e+00 0.000000e+00
 0.000000e+00 0.000000e+00 7.017956e-01 2.982045e-01 0.000000e+00
 0.000000e+00 0.000000e+00 0.000000e+00 8.599999e-01 1.400001e-01
 0.000000e+00 0.000000e+00 0.000000e+00 0.000000e+00 0.000000e+00
<ENDHMM>
~h "t"
<BEGINHMM>
<NUMSTATES> 5
<STATE> 2
<MEAN> 25
 -5.973973e+00 -2.151308e+00 1.316498e+00 -3.643527e+00 5.464550e-01 -3.987535e-01 1.437386e+00 -1.508467e+00 2.541141e-01 8.167472e-02 -2.102330e-01 2.455199e+00 -1.932541e+00 -4.231061e-01 7.903727e-01 -1.353415e+00 -5.205982e-01 -6.044385e-01 4.951641e-01 2.434931e-01 -3.353780e-01 1.219911e-01 3.510307e-01 6.629289e-01 2.467482e+00
<VARIANCE> 25
 4.115393e+01 2.635546e+01 3.542155e+01 3.836150e+01 2.589265e+01 2.874758e+01 3.404463e+01 2.916911e+01 3.215432e+01 2.197861e+01 2.076800e+01 2.043482e+01 4.047317e+00 2.810369e+00 3.790465e+00 3.842445e+00 2.388828e+00 4.611718e+00 5.160182e+00 4.347623e+00 4.423077e+00 3.309392e+00 3.265522e+00 2.827069e+00 1.210606e+01
<GCONST> 1.042948e+02
<STATE> 3
<MEAN> 25
 -7.636515e+00 -1.154590e+00 5.781600e+00 -1.592194e+00 -1.125492e+00 -4.595285e+00 3.789823e+00 2.185373e+00 -8.574353e-01 -1.119822e-02 4.035084e-01 3.952327e+00 1.654088e+00 3.430709e-01 -8.965170e-04 1.501487e+00 3.847044e-01 3.097953e-01 -1.855897e-01 6.329074e-01 5.864144e-01 3.084225e-01 -9.630081e-02 -1.544488e-01 -1.576849e+00
<VARIANCE> 25
 6.707043e+01 3.061018e+01 3.984221e+01 4.304798e+01 3.554560e+01 5.054465e+01 4.094163e+01 4.508420e+01 2.455970e+01 3.811211e+01 2.535005e+01 2.185031e+01 5.184313e+00 2.938475e+00 3.029549e+00 2.313260e+00 3.680138e+00 6.746799e+00 4.380054e+00 2.659862e+00 3.139910e+00 3.196594e+00 2.346721e+00 2.159639e+00 3.750215e+00
<GCONST> 1.047832e+02
<STATE> 4
<MEAN> 25
 -3.741843e+00 -1.111814e+00 -1.676085e+00 1.339103e+00 2.940229e+00 2.788599e+00 3.277706e+00 1.750600e+00 3.823051e+00 2.338896e+00 1.731074e+00 3.093184e+00 1.871589e-01 2.805741e-02 -1.560164e-01 9.066060e-02 -2.539840e-02 9.498924e-02 -9.443776e-02 -1.310248e-02 3.370587e-02 -1.022311e-01 1.578004e-02 -7.204624e-02 -9.442644e-02
<VARIANCE> 25
 9.913090e+00 8.751319e+00 1.404580e+01 1.177931e+01 1.486518e+01 1.857698e+01 1.997412e+01 1.611001e+01 1.598992e+01 1.627587e+01 1.639752e+01 1.464876e+01 8.949510e-01 5.819738e-01 1.020101e+00 8.712216e-01 1.137080e+00 1.419731e+00 1.707653e+00 1.685327e+00 1.614543e+00 1.422567e+00 1.350353e+00 1.317537e+00 3.747112e-01
<GCONST> 7.914838e+01
<TRANSP> 5
 0.000000e+00 1.000000e+00 0.000000e+00 0.000000e+00 0.000000e+00
 0.000000e+00 6.682371e-01 3.317628e-01 0.000000e+00 0.000000e+00
 0.000000e+00 0.000000e+00 7.028226e-01 2.971774e-01 0.000000e+00
 0.000000e+00 0.000000e+00 0.000000e+00 8.958856e-01 1.041143e-01
 0.000000e+00 0.000000e+00 0.000000e+00 0.000000e+00 0.000000e+00
<ENDHMM>
~h "u"
<BEGINHMM>
<NUMSTATES> 5
<STATE> 2
<MEAN> 25
 -8.665590e-01 3.829894e+00 1.185687e+00 -1.743570e+00 1.042945e+00 -8.314335e-01 4.343864e+00 5.343254e-01 -1.511637e+00 4.977195e-01 -4.203128e+00 -3.223340e+00 -9.057815e-02 -1.726398e-01 5.178764e-02 -3.512442e-01 -1.579434e-02 -3.568216e-01 -2.122486e-01 -6.155609e-02 -1.432519e-01 -1.181527e-02 1.679451e-01 2.660363e-01 1.740423e-01
<VARIANCE> 25
 5.883374e+01 1.052842e+02 2.640572e+01 3.028713e+01 5.028147e+01 1.053443e+02 4.270986e+01 3.166000e+01 2.568879e+01 2.216455e+01 4.072983e+01 2.242397e+01 3.099562e+00 9.439696e+00 2.767673e+00 4.613176e+00 5.164751e+00 1.090917e+01 5.366106e+00 4.456363e+00 3.238660e+00 2.595680e+00 4.818547e+00 2.930282e+00 1.082635e+01
<GCONST> 1.105962e+02
<STATE> 3
<MEAN> 25
 9.557943e-01 -4.321215e+00 5.552804e+00 -4.010450e+00 6.295071e-01 -8.392860e-01 -1.742498e+00 -2.714175e+00 -1.662134e+00 2.855439e-01 3.075624e+00 -1.115352e+00 1.835044e+00 5.143436e-02 -9.013813e-01 -5.750162e-01 -8.396590e-01 -1.127058e+00 -8.262216e-01 -1.095194e+00 -1.862402e-01 -1.319732e+00 1.430401e+00 2.592039e-01 1.964182e+00
<VARIANCE> 25
 2.920985e+01 5.803647e+01 3.773608e+01 2.350699e+01 6.269520e+01 6.917240e+01 3.449635e+01 4.215073e+01 2.255987e+01 2.671077e+01 4.398712e+01 1.849160e+01 2.113003e+00 8.272426e+00 4.875270e+00 2.647786e+00 6.847757e+00 5.627749e+00 3.282357e+00 9.948842e+00 2.829876e+00 1.888233e+00 8.182432e+00 1.740655e+00 8.234761e+00
<GCONST> 1.079269e+02
<STATE> 4
<MEAN> 25
 6.700096e+00 -2.410855e+00 1.454065e+00 -4.290220e+00 -6.504371e-01 -5.988957e+00 -3.098979e+00 2.153520e-01 3.750393e-02 -3.878692e+00 4.013827e+00 -2.582492e+00 1.386410e-02 1.841752e-02 -1.356858e-01 -9.968077e-02 -2.822049e-01 2.547313e-01 1.064362e-01 7.945695e-02 6.762934e-03 -2.318994e-02 -1.060569e-01 3.446437e-02 -1.786379e-01
<VARIANCE> 25
 3.396358e+01 8.112930e+01 3.886222e+01 2.477735e+01 3.495195e+01 4.249567e+01 3.696982e+01 3.842377e+01 3.001532e+01 3.537528e+01 4.288670e+01 1.560143e+01 1.359039e+00 2.376333e+00 2.253153e+00 2.058335e+00 2.950568e+00 2.991505e+00 2.400450e+00 2.548701e+00 1.363314e+00 1.929891e+00 2.696814e+00 1.577994e+00 1.617773e+00
<GCONST> 9.836626e+01
<TRANSP> 5
 0.000000e+00 1.000000e+00 0.000000e+00 0.000000e+00 0.000000e+00
 0.000000e+00 8.468713e-01 1.531287e-01 0.000000e+00 0.000000e+00
 0.000000e+00 0.000000e+00 5.770757e-01 4.229243e-01 0.000000e+00
 0.000000e+00 0.000000e+00 0.000000e+00 9.054292e-01 9.457079e-02
 0.000000e+00 0.000000e+00 0.000000e+00 0.000000e+00 0.000000e+00
<ENDHMM>
~h "v"
<BEGINHMM>
<NUMSTATES> 5
<STATE> 2
<MEAN> 25
 1.522246e+00 1.262485e+00 -2.313673e+00 2.857297e+00 3.386013e+00 1.984109e+00 -4.164880e-01 -1.235059e+00 4.155967e-01 -1.833385e+00 -2.841407e+00 -6.823884e-01 -1.341081e+00 -4.988376e-01 -4.563310e-01 -1.663781e-01 3.236070e-02 6.349857e-02 8.411229e-01 7.932338e-01 1.331264e+00 3.243184e-01 2.877208e-01 8.733147e-01 -8.673204e-01
<VARIANCE> 25
 3.299762e+01 1.225436e+01 2.265054e+01 1.503191e+01 1.889859e+01 1.907460e+01 1.337075e+01 1.497661e+01 1.753048e+01 1.284237e+01 1.963177e+01 2.142707e+01 1.452335e+00 1.444875e+00 1.240425e+00 1.906355e+00 3.035911e+00 3.683260e+00 2.191200e+00 1.346470e+00 2.175428e+00 1.082401e+00 1.809499e+00 1.241912e+00 7.820092e-01
<GCONST> 8.694340e+01
<STATE> 3
<MEAN> 25
 -4.760382e+00 -2.605222e-01 -2.371556e+00 4.217099e+00 1.820813e+00 5.705720e-01 -2.497272e-01 1.511298e+00 3.513880e+00 1.748556e+00 7.367527e-01 1.436305e+00 -2.928798e-01 -3.444564e-01 5.482974e-02 2.519977e-03 1.742565e-01 1.496709e-01 2.402441e-01 1.085018e-01 5.489247e-02 2.190934e-01 2.058744e-01 2.563643e-01 -2.083946e-01
<VARIANCE> 25
 2.116231e+01 1.424641e+01 1.622310e+01 1.436103e+01 1.704452e+01 8.738988e+00 1.663199e+01 1.707336e+01 1.036526e+01 1.423314e+01 1.541534e+01 1.915921e+01 2.308245e+00 4.631402e-01 8.128636e-01 5.225884e-01 1.668609e+00 1.227711e+00 1.809564e+00 9.724032e-01 1.442627e+00 1.495271e+00 2.139027e+00 1.775962e+00 1.012802e+00
<GCONST> 8.105030e+01
<STATE> 4
<MEAN> 25
 -2.257696e+00 -3.634664e+00 -3.229465e+00 -2.864093e-01 1.939345e+00 4.661749e-01 1.475547e+00 1.359879e+00 3.131916e+00 2.026753e+00 -1.149371e+00 2.357719e+00 3.606848e-02 6.779748e-02 3.988492e-02 4.694021e-02 1.278597e-02 -2.591767e-03 -3.614346e-02 -4.831003e-02 -5.882061e-02 -3.590763e-02 -4.486962e-02 -4.038240e-02 1.649755e-02
<VARIANCE> 25
 1.257307e+00 7.379588e+00 6.742246e+00 8.106640e+00 9.949354e+00 1.128817e+01 1.351340e+01 1.053835e+01 1.521260e+01 1.477890e+01 1.590447e+01 1.204805e+01 2.056766e-01 3.100466e-01 5.710393e-01 6.172798e-01 8.592712e-01 1.154967e+00 1.372345e+00 1.197366e+00 2.020666e+00 1.699748e+00 1.178093e+00 1.305597e+00 6.249153e-02
<GCONST> 6.811206e+01
<TRANSP> 5
 0.000000e+00 1.000000e+00 0.000000e+00 0.000000e+00 0.000000e+00
 0.000000e+00 5.684170e-01 4.315830e-01 0.000000e+00 0.000000e+00
 0.000000e+00 0.000000e+00 5.384694e-01 4.615307e-01 0.000000e+00
 0.000000e+00 0.000000e+00 0.000000e+00 9.459357e-01 5.406430e-02
 0.000000e+00 0.000000e+00 0.000000e+00 0.000000e+00 0.000000e+00
<ENDHMM>
~h "w"
<BEGINHMM>
<NUMSTATES> 5
<STATE> 2
<MEAN> 25
 1.029106e+01 7.327441e+00 -2.374471e+00 -6.198267e+00 -6.011209e-02 5.431973e+00 -5.498028e-01 -4.709187e+00 -2.033453e+00 -7.382513e-01 2.103921e+00 -6.334792e-01 5.942056e-01 -2.050685e-01 -2.864929e-01 -1.555697e-01 -4.729465e-01 3.741333e-01 -3.980860e-01 1.488857e-01 9.679409e-02 3.089807e-01 4.463677e-01 -7.345566e-01 8.675616e-01
<VARIANCE> 25
 1.131320e+01 1.512488e+01 1.439392e+01 3.485198e+01 1.783469e+01 4.143261e+01 4.823898e+01 3.964159e+01 4.367316e+01 4.384613e+01 4.417994e+01 2.667753e+01 3.278669e+00 3.741210e+00 1.393276e+00 4.617865e+00 2.345028e+00 6.969000e+00 3.756491e+00 3.899453e+00 5.549964e+00 5.943761e+00 4.191510e+00 3.689708e+00 1.720427e+00
<GCONST> 1.027218e+02
<STATE> 3
<MEAN> 25
 7.418186e+00 -2.181821e+00 3.448161e-01 2.181260e+00 -5.536938e+00 -2.789225e+00 -1.969893e+00 5.520640e+00 2.489454e+00 -1.211188e+00 -3.355612e-01 -6.794332e+00 -3.262848e-01 -1.038612e+00 1.366798e+00 8.595240e-01 -1.755898e+00 -2.961575e+00 1.486865e+00 3.386431e+00 -8.200530e-01 -1.662570e+00 -7.996700e-01 7.759318e-01 2.681311e-01
<VARIANCE> 25
 6.875871e+00 1.915642e+01 2.361047e+01 2.228162e+01 2.306077e+01 5.203418e+01 7.095724e+01 6.895166e+01 3.224591e+01 4.525697e+01 2.274420e+01 3.500080e+01 7.511761e-01 1.505948e+00 2.077677e+00 3.241028e+00 2.093104e+00 4.759465e+00 3.215613e+00 3.717532e+00 5.956171e+00 3.013213e+00 8.538751e+00 3.003121e+00 4.762938e-01
<GCONST> 9.884426e+01
<STATE> 4
<MEAN> 25
 7.037429e+00 -3.444845e+00 6.831282e-01 3.990984e+00 -1.159970e+01 -7.415936e+00 -2.376076e+00 9.746245e+00 -7.429476e-01 -3.153258e+00 4.142340e+00 -8.343711e-01 -1.991101e-01 1.626303e-01 -1.863451e-01 -4.826450e-01 1.204682e-01 -7.614466e-02 -2.195368e-01 -8.282512e-01 -5.492571e-01 2.639866e-01 -7.791860e-02 2.901255e-01 -8.018313e-01
<VARIANCE> 25
 1.520441e+01 1.763301e+01 2.440695e+01 2.883816e+01 4.545832e+01 2.073539e+01 7.309083e+01 8.573288e+01 4.157480e+01 2.077028e+01 2.477641e+01 2.163590e+01 7.977347e-01 1.050845e+00 1.363558e+00 1.254323e+00 2.926191e+00 1.698056e+00 1.424100e+00 2.302792e+00 2.519195e+00 1.708459e+00 2.709877e+00 2.077396e+00 1.197560e+00
<GCONST> 9.325068e+01
<TRANSP> 5
 0.000000e+00 1.000000e+00 0.000000e+00 0.000000e+00 0.000000e+00
 0.000000e+00 8.816129e-01 1.183870e-01 0.000000e+00 0.000000e+00
 0.000000e+00 0.000000e+00 6.691897e-01 3.308102e-01 0.000000e+00
 0.000000e+00 0.000000e+00 0.000000e+00 8.273605e-01 1.726396e-01
 0.000000e+00 0.000000e+00 0.000000e+00 0.000000e+00 0.000000e+00
<ENDHMM>
~h "y"
<BEGINHMM>
<NUMSTATES> 5
<STATE> 2
<MEAN> 25
 -9.775303e+00 -3.507097e-01 1.194759e+01 -7.932151e-01 -3.218418e+00 2.329995e-01 6.719177e+00 -8.005788e+00 -9.250893e-01 2.173424e+00 -1.489929e+00 2.123186e+00 1.637905e+00 1.377188e+00 1.211133e+00 1.235805e+00 -1.718073e+00 -1.042295e+00 -8.782004e-01 -3.779011e-01 -2.113913e+00 -1.318605e+00 -4.467354e-02 -7.461031e-01 3.545301e-01
<VARIANCE> 25
 7.386214e+01 3.450031e+01 5.098998e+01 3.686138e+01 3.810140e+01 3.313419e+01 5.742801e+01 3.058622e+01 2.960579e+01 2.879112e+01 4.154905e+01 2.098011e+01 9.610393e+00 3.320076e+00 3.119233e+00 4.779761e+00 3.904732e+00 3.470902e+00 5.967922e+00 4.374800e+00 7.041755e+00 2.101099e+00 4.836767e+00 3.212003e+00 2.028163e+00
<GCONST> 1.076375e+02
<STATE> 3
<MEAN> 25
 4.642347e+00 5.957393e+00 1.043576e+01 5.850005e+00 -6.568048e+00 -6.786178e+00 -3.316329e+00 -5.212853e+00 -8.549981e+00 -4.429954e+00 2.648034e+00 -1.712502e+00 1.057182e+00 1.298393e-01 5.461442e-01 9.528167e-01 -1.898483e+00 -1.098777e+00 -8.682858e-01 1.597962e+00 -2.210748e+00 -1.447082e+00 1.203233e+00 -6.442841e-01 4.335720e-01
<VARIANCE> 25
 1.141077e+01 2.223468e+01 5.138874e+01 1.687937e+01 7.268293e+01 4.024623e+01 2.806153e+01 6.513934e+01 9.493298e+01 2.301924e+01 2.356615e+01 1.947599e+01 4.818759e+00 3.622892e+00 3.813011e+00 4.356426e+00 4.282430e+00 4.987158e+00 8.186131e+00 8.055696e+00 6.805561e+00 4.225171e+00 5.779036e+00 2.415930e+00 1.335585e+00
<GCONST> 1.067637e+02
<STATE> 4
<MEAN> 25
 2.849970e+00 6.475713e+00 1.520968e+01 6.956101e+00 -8.870529e+00 -6.535137e+00 -2.345954e+00 -3.964202e+00 -1.116645e+01 -3.357245e+00 4.793782e+00 -2.973192e+00 3.873245e-01 -1.284558e-01 -8.115315e-01 6.323835e-02 9.125565e-01 -2.151834e-01 -5.682285e-01 6.388170e-01 6.009080e-01 -1.882711e-01 -4.417935e-01 -1.978421e-02 -2.760000e-01
<VARIANCE> 25
 1.029148e+01 1.752219e+01 3.268224e+01 2.759370e+01 4.751232e+01 5.144021e+01 2.757276e+01 4.068112e+01 5.570559e+01 3.235678e+01 3.040894e+01 1.812470e+01 7.751509e-01 6.099665e-01 3.060264e+00 2.844835e+00 4.059536e+00 4.344396e+00 2.399924e+00 3.070991e+00 5.467031e+00 2.662807e+00 2.635279e+00 1.405538e+00 1.042959e+00
<GCONST> 9.689098e+01
<TRANSP> 5
 0.000000e+00 1.000000e+00 0.000000e+00 0.000000e+00 0.000000e+00
 0.000000e+00 7.203268e-01 2.796732e-01 0.000000e+00 0.000000e+00
 0.000000e+00 0.000000e+00 6.195108e-01 3.804892e-01 0.000000e+00
 0.000000e+00 0.000000e+00 0.000000e+00 7.404135e-01 2.595865e-01
 0.000000e+00 0.000000e+00 0.000000e+00 0.000000e+00 0.000000e+00
<ENDHMM>
~h "z"
<BEGINHMM>
<NUMSTATES> 5
<STATE> 2
<MEAN> 25
 -1.219833e+01 1.178816e+01 4.082796e+00 -3.524843e+00 8.751125e+00 -5.060891e+00 1.823583e+00 -1.185967e+00 -2.395327e+00 -2.327764e+00 -1.928841e+00 3.778762e+00 -2.904597e+00 2.909535e-01 -6.910242e-01 -9.633065e-01 1.642760e+00 -3.253854e-01 3.742808e-01 7.981073e-01 7.885474e-01 3.470807e-01 1.145894e-01 2.302428e-01 5.050277e-01
<VARIANCE> 25
 9.709975e+01 2.416990e+01 8.198555e+01 3.978848e+01 7.104285e+01 6.207462e+01 2.361430e+01 2.006966e+01 4.835932e+01 1.423897e+01 1.835289e+01 1.292054e+01 3.473642e+00 1.782225e+00 3.584528e+00 2.942049e+00 5.713037e+00 5.010075e+00 1.653744e+00 2.601615e+00 1.899279e+00 1.686890e+00 1.480818e+00 1.855653e+00 5.694907e-01
<GCONST> 9.895818e+01
<STATE> 3
<MEAN> 25
 -2.068066e+01 7.392926e+00 -2.132142e+00 -7.791625e+00 1.062837e+01 -8.742964e+00 4.831190e+00 3.341129e+00 9.566799e-01 9.226123e-01 -2.201049e+00 4.940192e+00 1.160580e+00 -9.396573e-01 7.583234e-02 1.731572e-01 -6.853923e-01 -3.820225e-01 1.218082e-01 -3.984824e-02 -2.596024e-01 2.975906e-01 -1.792415e-01 -1.975207e-01 -6.423061e-01
<VARIANCE> 25
 3.067909e+01 2.136667e+01 2.999220e+01 3.118342e+01 1.433056e+01 3.555728e+01 3.542463e+01 2.072102e+01 2.198555e+01 2.161077e+01 1.650870e+01 1.387021e+01 2.922189e+00 8.097597e-01 1.468288e+00 1.084970e+00 1.751472e+00 1.811751e+00 2.025810e+00 1.864129e+00 2.055267e+00 1.557710e+00 1.423939e+00 1.288104e+00 1.301434e+00
<GCONST> 8.954662e+01
<STATE> 4
<MEAN> 25
 -5.176223e+00 -1.984116e+00 -1.943456e+00 -1.555404e+00 1.547106e+00 -4.066760e+00 2.676799e+00 3.407932e-01 -2.904076e-01 2.330619e+00 -1.105897e+00 1.697411e+00 4.219768e-01 -2.674213e-01 -9.325564e-02 2.664469e-01 -3.113735e-01 6.379336e-01 -1.355361e-01 -2.033998e-02 2.415922e-01 4.716367e-02 3.664675e-02 -1.531173e-01 -3.906967e-01
<VARIANCE> 25
 1.587845e+01 1.829616e+01 2.861413e+01 1.622976e+01 2.890618e+01 3.860971e+01 3.003730e+01 2.347414e+01 4.506719e+01 2.104787e+01 1.320302e+01 1.505357e+01 2.425598e+00 1.277791e+00 1.781246e+00 1.553478e+00 2.666830e+00 2.919876e+00 2.664305e+00 2.750406e+00 2.600038e+00 2.208404e+00 1.232122e+00 1.377095e+00 1.733262e+00
<GCONST> 9.250190e+01
<TRANSP> 5
 0.000000e+00 1.000000e+00 0.000000e+00 0.000000e+00 0.000000e+00
 0.000000e+00 8.359202e-01 1.640798e-01 0.000000e+00 0.000000e+00
 0.000000e+00 0.000000e+00 8.786724e-01 1.213276e-01 0.000000e+00
 0.000000e+00 0.000000e+00 0.000000e+00 9.175001e-01 8.249991e-02
 0.000000e+00 0.000000e+00 0.000000e+00 0.000000e+00 0.000000e+00
<ENDHMM>
~h "aa"
<BEGINHMM>
<NUMSTATES> 5
<STATE> 2
<MEAN> 25
 5.433977e+00 -2.156521e+00 -1.672530e+00 -4.497404e+00 3.003467e-01 7.963365e+00 2.537196e-01 -3.232829e-01 2.014383e+00 1.228976e+00 -5.642610e-01 -7.021295e+00 1.112575e+00 -7.642635e-01 -8.959342e-01 -1.139553e+00 -4.156290e-01 2.053521e+00 -8.070386e-02 -3.648608e-01 -1.451840e-01 -2.540881e-01 7.249209e-01 -8.850934e-01 9.019552e-01
<VARIANCE> 25
 2.874960e+01 3.673962e+01 2.438681e+01 6.081764e+01 2.943271e+01 5.793408e+01 4.357188e+01 2.778854e+01 2.596034e+01 3.259277e+01 2.500601e+01 5.507668e+01 4.150356e+00 2.501760e+00 1.841826e+00 3.614097e+00 3.206271e+00 4.379008e+00 2.684695e+00 2.658488e+00 2.776524e+00 3.015262e+00 2.621257e+00 3.478380e+00 1.228149e+00
<GCONST> 1.021039e+02
<STATE> 3
<MEAN> 25
 8.828211e+00 -4.809268e+00 -6.767942e+00 -1.000215e+01 3.655225e-01 1.615358e+01 -6.000130e-01 -3.318230e+00 9.522673e-01 -1.154240e+00 1.323117e+00 -1.103685e+01 -4.489956e-02 2.887498e-01 -4.329636e-02 2.775686e-01 -7.936591e-02 -4.349400e-01 -3.050011e-02 1.285480e-01 -3.054670e-01 2.278607e-01 -3.490443e-01 1.977440e-01 -5.515608e-01
<VARIANCE> 25
 1.067293e+01 2.276523e+01 1.210250e+01 2.340983e+01 1.397372e+01 5.146035e+01 4.197737e+01 3.932687e+01 5.486163e+01 5.201464e+01 3.572243e+01 3.733681e+01 4.643945e-01 1.168322e+00 8.288209e-01 1.180759e+00 1.125146e+00 2.373746e+00 1.948928e+00 2.632293e+00 1.697455e+00 1.539539e+00 1.682760e+00 1.784420e+00 1.169976e+00
<GCONST> 9.042716e+01
<STATE> 4
<MEAN> 25
 7.957115e-01 -2.953469e+00 -3.926616e+00 -2.971619e+00 5.330899e-01 2.170810e+00 -1.538435e+00 2.233711e-01 1.512580e+00 1.313475e+00 -1.831087e+00 -8.021466e-01 -1.159238e-01 1.043654e-01 1.948022e-01 1.923711e-01 -1.261346e-02 -1.810372e-01 2.150206e-02 1.427932e-01 9.217293e-02 1.694327e-01 1.116226e-01 3.241573e-01 -2.388559e-01
<VARIANCE> 25
 1.601834e+01 7.203310e+00 1.043786e+01 1.485581e+01 1.239892e+01 3.017174e+01 1.676093e+01 2.223158e+01 2.183220e+01 1.570726e+01 1.867846e+01 1.922949e+01 5.311462e-01 7.756596e-01 1.755642e+00 1.175902e+00 8.795600e-01 1.447952e+00 1.431127e+00 2.450320e+00 2.604176e+00 1.775707e+00 2.568519e+00 1.620869e+00 9.743586e-01
<GCONST> 8.357166e+01
<TRANSP> 5
 0.000000e+00 1.000000e+00 0.000000e+00 0.000000e+00 0.000000e+00
 0.000000e+00 7.545171e-01 2.454828e-01 0.000000e+00 0.000000e+00
 0.000000e+00 0.000000e+00 8.439077e-01 1.560923e-01 0.000000e+00
 0.000000e+00 0.000000e+00 0.000000e+00 8.415750e-01 1.584249e-01
 0.000000e+00 0.000000e+00 0.000000e+00 0.000000e+00 0.000000e+00
<ENDHMM>
~h "ae"
<BEGINHMM>
<NUMSTATES> 5
<STATE> 2
<MEAN> 25
 8.101698e-01 -2.086269e+00 4.169605e-01 1.116252e+00 -1.375745e+00 -1.714017e+00 1.120743e+00 1.800770e+00 -9.404304e-02 -2.166101e+00 -8.827969e-01 -2.051925e+00 1.131491e+00 -1.336968e+00 2.605730e-01 -7.178919e-01 -8.835217e-01 -4.030533e-01 4.771002e-02 1.209548e+00 -8.595066e-01 -8.477060e-01 -1.024515e+00 -1.484427e+00 2.607890e+00
<VARIANCE> 25
 2.715963e+01 4.318605e+01 3.900850e+01 2.495226e+01 4.363654e+01 4.006665e+01 3.412781e+01 3.426447e+01 3.825565e+01 2.292108e+01 3.504661e+01 3.865975e+01 2.529293e+00 3.447007e+00 3.119933e+00 1.883876e+00 4.767021e+00 3.185480e+00 2.943166e+00 2.646920e+00 5.319578e+00 3.514460e+00 5.241096e+00 5.809068e+00 6.734848e+00
<GCONST> 1.053747e+02
<STATE> 3
<MEAN> 25
 5.950158e+00 -8.634274e+00 -2.037951e+00 -2.440065e+00 -2.746053e+00 -1.158938e+00 2.495963e+00 5.088520e+00 -1.992369e+00 -6.657895e+00 -6.641809e+00 -8.195652e+00 3.676948e-01 -1.351604e-01 -4.204751e-01 8.649038e-02 2.967626e-01 2.811556e-01 -2.172934e-01 -1.020739e-01 3.064694e-01 -2.714180e-01 -2.821522e-01 -3.076060e-01 2.309586e-01
<VARIANCE> 25
 1.102172e+01 2.917052e+01 3.121355e+01 1.443659e+01 2.538426e+01 2.389999e+01 2.653622e+01 3.282483e+01 2.824492e+01 2.359294e+01 3.761757e+01 3.854836e+01 4.778672e-01 8.945065e-01 8.059153e-01 1.152451e+00 1.486346e+00 1.272239e+00 1.306821e+00 1.675078e+00 1.371234e+00 1.519623e+00 1.600207e+00 1.935428e+00 1.180087e+00
<GCONST> 8.731654e+01
<STATE> 4
<MEAN> 25
 7.920383e+00 -6.215095e+00 -2.877504e+00 -5.773463e-02 -2.498285e+00 -3.234046e+00 7.359607e-01 4.802330e+00 9.950016e-01 -5.639751e+00 -5.090474e+00 -8.287266e+00 -2.510526e-01 1.347695e+00 6.062352e-01 7.566019e-01 2.748540e-01 -2.034428e-01 4.949557e-02 -1.301409e+00 -1.892964e-01 1.390791e+00 5.229610e-01 7.229541e-01 -1.771351e+00
<VARIANCE> 25
 1.158034e+01 2.323479e+01 4.160453e+01 1.619899e+01 3.000125e+01 4.549606e+01 3.802157e+01 3.806296e+01 5.375523e+01 4.378885e+01 3.469000e+01 4.907385e+01 1.563759e+00 2.030958e+00 2.176158e+00 2.733547e+00 3.086143e+00 3.455284e+00 2.075473e+00 5.473929e+00 3.881419e+00 3.336008e+00 2.082465e+00 3.434658e+00 2.689155e+00
<GCONST> 1.010083e+02
<TRANSP> 5
 0.000000e+00 1.000000e+00 0.000000e+00 0.000000e+00 0.000000e+00
 0.000000e+00 7.944025e-01 2.055975e-01 0.000000e+00 0.000000e+00
 0.000000e+00 0.000000e+00 8.658615e-01 1.341385e-01 0.000000e+00
 0.000000e+00 0.000000e+00 0.000000e+00 7.629837e-01 2.370163e-01
 0.000000e+00 0.000000e+00 0.000000e+00 0.000000e+00 0.000000e+00
<ENDHMM>
~h "ah"
<BEGINHMM>
<NUMSTATES> 5
<STATE> 2
<MEAN> 25
 3.536209e+00 -3.109446e+00 1.336100e+00 -5.465739e-01 -3.145211e+00 -3.360122e+00 -1.085214e+00 1.257909e+00 -1.030953e+00 -1.285476e+00 -2.932261e+00 -4.071044e+00 1.611355e+00 -1.995847e-01 -6.155364e-01 -7.614922e-01 -2.290945e-01 -2.637543e-02 -7.349929e-01 -1.801434e-01 -4.935696e-01 3.175192e-01 -3.553361e-01 -1.343850e+00 1.065555e+00
<VARIANCE> 25
 4.230705e+01 4.317590e+01 4.940394e+01 4.260903e+01 4.018448e+01 6.834821e+01 5.048743e+01 7.101711e+01 4.163636e+01 2.712201e+01 3.274837e+01 5.222868e+01 4.743345e+00 3.370171e+00 3.490152e+00 4.663794e+00 3.482368e+00 5.841879e+00 3.826217e+00 5.416860e+00 5.090058e+00 3.009073e+00 3.681495e+00 5.018489e+00 5.290387e+00
<GCONST> 1.106027e+02
<STATE> 3
<MEAN> 25
 7.612746e+00 -1.299998e-01 -2.368040e+00 -3.825356e+00 -2.669398e+00 6.000090e-01 -4.852995e+00 -2.046147e+00 -1.664231e+00 1.514021e+00 -2.538980e+00 -7.163379e+00 1.537524e-01 7.215163e-01 -1.962093e-01 3.722911e-02 4.673175e-01 4.265613e-01 1.224590e-01 -7.202806e-01 -3.182581e-01 3.282497e-01 2.427924e-01 2.450960e-01 -8.076527e-01
<VARIANCE> 25
 2.567571e+01 4.186436e+01 4.091743e+01 5.604230e+01 2.350685e+01 6.545296e+01 4.448347e+01 5.612334e+01 5.071932e+01 3.523821e+01 4.945864e+01 6.272179e+01 2.415120e+00 2.831905e+00 2.853773e+00 5.416542e+00 3.103890e+00 4.225444e+00 3.104171e+00 4.058749e+00 5.022128e+00 3.795959e+00 3.076185e+00 4.206469e+00 3.073788e+00
<GCONST> 1.077534e+02
<STATE> 4
<MEAN> 25
 3.072882e+00 -6.087341e-01 -2.269475e+00 7.633237e-01 1.646865e-01 2.203446e+00 4.289924e-01 6.291480e-01 2.136570e+00 2.768677e-01 -1.535831e+00 -4.023386e+00 -9.471174e-02 2.739944e-01 8.732977e-02 -1.711626e-02 3.431647e-01 1.049569e-01 2.219285e-01 -9.588160e-02 -2.271035e-01 2.415523e-01 2.374782e-01 2.833714e-01 -3.998050e-01
<VARIANCE> 25
 4.918760e+01 1.893853e+01 3.582465e+01 4.543446e+01 2.067677e+01 3.624569e+01 3.585757e+01 5.540344e+01 4.953995e+01 2.594047e+01 3.659374e+01 4.901334e+01 1.992426e+00 1.684626e+00 1.850442e+00 2.479750e+00 1.805306e+00 2.427336e+00 1.946482e+00 2.689574e+00 2.795208e+00 2.083455e+00 2.695812e+00 3.212095e+00 1.613231e+00
<GCONST> 9.930895e+01
<TRANSP> 5
 0.000000e+00 1.000000e+00 0.000000e+00 0.000000e+00 0.000000e+00
 0.000000e+00 6.218149e-01 3.781851e-01 0.000000e+00 0.000000e+00
 0.000000e+00 0.000000e+00 5.903322e-01 4.096678e-01 0.000000e+00
 0.000000e+00 0.000000e+00 0.000000e+00 6.701724e-01 3.298276e-01
 0.000000e+00 0.000000e+00 0.000000e+00 0.000000e+00 0.000000e+00
<ENDHMM>
~h "ao"
<BEGINHMM>
<NUMSTATES> 5
<STATE> 2
<MEAN> 25
 -5.798586e+00 -2.235954e+00 -1.029518e-01 -1.166580e+00 -2.330547e+00 -4.042703e-01 3.065689e+00 9.673330e-01 1.228181e+00 5.543442e-01 9.182325e-01 2.094476e+00 2.634876e+00 1.098388e+00 -3.848833e-01 -1.863009e+00 -1.291689e+00 1.327991e+00 -7.722064e-01 -2.891302e-01 -7.921743e-01 -9.626188e-01 1.731513e-01 -4.738257e-01 1.170016e+00
<VARIANCE> 25
 8.554707e+01 4.743130e+01 1.224085e+01 2.295189e+01 3.205778e+01 3.118895e+01 4.293751e+01 2.649774e+01 2.789616e+01 2.374782e+01 2.177101e+01 2.320733e+01 1.564853e+01 3.523833e+00 1.437701e+00 7.972500e+00 6.354635e+00 7.802345e+00 4.591710e+00 3.323593e+00 4.827323e+00 3.770968e+00 3.425750e+00 3.648651e+00 8.411491e+00
<GCONST> 1.071937e+02
<STATE> 3
<MEAN> 25
 9.522905e+00 4.207836e+00 -4.474846e+00 -2.300539e+01 -4.657812e+00 1.549063e+01 -3.443946e-01 -1.559252e+00 -2.324079e+00 -7.065799e+00 -5.353515e-01 -2.977160e+00 9.684070e-01 5.923933e-01 -1.515945e-01 -1.417901e+00 -1.055691e+00 4.983258e-01 1.856734e-01 6.271203e-02 -1.819558e-01 -2.805814e-01 -1.800863e-01 -3.199619e-02 7.887803e-01
<VARIANCE> 25
 9.668491e+00 2.188723e+01 1.220045e+01 4.929706e+01 3.764280e+01 4.541976e+01 2.297203e+01 1.402498e+01 1.733523e+01 2.271070e+01 1.089979e+01 1.250169e+01 1.857323e+00 6.257155e-01 7.644198e-01 5.482739e+00 2.093702e+00 4.823822e+00 1.186960e+00 2.224170e+00 1.357009e+00 1.950182e+00 1.208722e+00 1.805531e+00 2.766883e+00
<GCONST> 8.944830e+01
<STATE> 4
<MEAN> 25
 1.387823e+01 6.783480e+00 -6.547133e+00 -6.920310e+00 -6.433817e+00 5.935992e+00 -5.650124e+00 1.476624e+00 -4.903613e+00 -5.703431e+00 3.532592e+00 2.211008e+00 7.267582e-02 -3.986511e-01 -2.541386e-01 1.090457e+00 6.705606e-01 -5.537029e-01 -7.199278e-01 6.103607e-02 3.220342e-01 -1.745508e-02 1.768342e-03 2.214519e-01 -1.589278e-02
<VARIANCE> 25
 8.165727e+00 2.709016e+01 2.911790e+01 9.494280e+01 4.880685e+01 3.856387e+01 5.888061e+01 2.445971e+01 4.681945e+01 2.389709e+01 5.015292e+01 2.271026e+01 1.576730e-01 5.891387e-01 9.365911e-01 1.124300e+00 1.552177e+00 1.978393e+00 3.688712e+00 2.583933e+00 3.536978e+00 2.043602e+00 2.624135e+00 1.782614e+00 2.456647e-01
<GCONST> 9.131024e+01
<TRANSP> 5
 0.000000e+00 1.000000e+00 0.000000e+00 0.000000e+00 0.000000e+00
 0.000000e+00 7.670181e-01 2.329818e-01 0.000000e+00 0.000000e+00
 0.000000e+00 0.000000e+00 7.919610e-01 2.080390e-01 0.000000e+00
 0.000000e+00 0.000000e+00 0.000000e+00 9.124791e-01 8.752090e-02
 0.000000e+00 0.000000e+00 0.000000e+00 0.000000e+00 0.000000e+00
<ENDHMM>
~h "aw"
<BEGINHMM>
<NUMSTATES> 5
<STATE> 2
<MEAN> 25
 7.898238e+00 -2.739776e+00 -4.264569e+00 -1.263981e+00 -3.294706e-01 5.929080e+00 -4.184078e+00 3.418937e+00 8.493859e-01 -2.912560e+00 -3.179130e+00 -7.916518e+00 2.587159e-01 7.182543e-01 -4.528562e-01 2.129574e-01 1.638227e-01 3.223152e-01 -4.583364e-01 -9.813437e-01 -3.959931e-01 -9.229229e-02 7.459260e-01 1.326399e-01 -5.226068e-01
<VARIANCE> 25
 7.306716e+00 2.528443e+01 2.047049e+01 3.161364e+01 2.500626e+01 5.412039e+01 5.872934e+01 3.711786e+01 2.068905e+01 8.623322e+01 4.958712e+01 1.776392e+01 1.808816e-01 8.039076e-01 6.020909e-01 8.643570e-01 1.515403e+00 1.141903e+00 2.387321e+00 1.745586e+00 1.809104e+00 2.504856e+00 3.644298e+00 1.191788e+00 2.782427e-01
<GCONST> 8.789817e+01
<STATE> 3
<MEAN> 25
 7.358325e+00 6.227619e+00 -2.427142e+00 1.512411e-01 -4.287289e-01 2.209502e+00 -6.643655e+00 -9.631039e+00 -7.898448e+00 -1.617393e+00 3.834396e+00 -5.060607e+00 -5.506112e-01 -2.792397e-01 9.229798e-01 4.590161e-01 4.453007e-01 -9.198996e-01 6.754191e-01 -6.773698e-02 5.148395e-01 1.975200e-01 -9.860948e-01 4.136785e-01 -8.300837e-01
<VARIANCE> 25
 1.478405e+01 1.938196e+01 3.147986e+01 2.669739e+01 1.507991e+01 4.819052e+01 4.354037e+01 2.835140e+01 3.919154e+01 4.777341e+01 4.629146e+01 1.760041e+01 1.289958e+00 1.526735e+00 1.641643e+00 3.537691e+00 1.106401e+00 3.289300e+00 4.397828e+00 4.835520e+00 5.451190e+00 4.501843e+00 3.427283e+00 2.500125e+00 2.131524e+00
<GCONST> 9.917449e+01
<STATE> 4
<MEAN> 25
 2.690606e+00 -2.514577e+00 -5.132685e+00 -1.494633e+00 3.120662e+00 7.978413e+00 4.903788e+00 -3.823421e+00 4.924096e+00 -4.593309e-01 3.195820e-01 -5.453005e+00 -2.664658e-01 -5.916761e-01 -1.282365e-02 -1.590521e-02 9.438855e-02 2.868374e-01 3.253338e-01 1.818344e-01 2.840779e-01 -7.588623e-02 7.988770e-02 3.527943e-01 7.780190e-02
<VARIANCE> 25
 3.541783e+01 4.010784e+01 2.397332e+01 2.033849e+01 1.067555e+01 5.519184e+01 2.597495e+01 3.667414e+01 3.713935e+01 2.142873e+01 2.839147e+01 5.740297e+01 6.386886e-01 2.242163e+00 1.183357e+00 1.578407e+00 1.046448e+00 2.575736e+00 2.159714e+00 2.898012e+00 3.524417e+00 4.116270e+00 1.775805e+00 2.909306e+00 9.862248e-01
<GCONST> 9.482112e+01
<TRANSP> 5
 0.000000e+00 1.000000e+00 0.000000e+00 0.000000e+00 0.000000e+00
 0.000000e+00 9.121304e-01 8.786957e-02 0.000000e+00 0.000000e+00
 0.000000e+00 0.000000e+00 8.021263e-01 1.978737e-01 0.000000e+00
 0.000000e+00 0.000000e+00 0.000000e+00 7.843570e-01 2.156430e-01
 0.000000e+00 0.000000e+00 0.000000e+00 0.000000e+00 0.000000e+00
<ENDHMM>
~h "ay"
<BEGINHMM>
<NUMSTATES> 5
<STATE> 2
<MEAN> 25
 9.680716e+00 -6.081769e+00 8.384682e+00 -1.862664e+00 -1.450567e+01 -7.737127e+00 -5.363503e+00 4.028964e+00 -7.871681e+00 -2.100408e+00 -1.140695e-01 -1.283021e+00 -6.805092e-01 9.459522e-01 2.004560e+00 -5.527192e-01 -4.300738e-01 9.748121e-02 9.205072e-02 -1.450227e+00 -1.537430e+00 2.562520e-01 1.057444e-01 -1.680032e-01 -4.866634e-01
<VARIANCE> 25
 1.229095e+01 2.655792e+01 5.722232e+01 1.606792e+01 3.081873e+01 2.198944e+01 2.703792e+01 4.936832e+01 5.588372e+01 1.953022e+01 2.336243e+01 2.402645e+01 1.395426e+00 1.976612e+00 2.542853e+00 7.595198e-01 2.427911e+00 2.082752e+00 2.395741e+00 4.510193e+00 3.010945e+00 2.140065e+00 2.728024e+00 2.239647e+00 8.698124e-01
<GCONST> 9.480669e+01
<STATE> 3
<MEAN> 25
 -2.744155e-01 4.698214e+00 1.357114e+01 6.486998e-01 -3.313180e+00 -3.652067e+00 -2.718517e-01 -4.700027e+00 -9.380584e+00 -3.070633e+00 -1.942707e+00 -4.021044e+00 -1.204645e+00 7.687437e-01 -1.571540e+00 1.541078e+00 2.973487e+00 1.254306e+00 1.948317e+00 7.990222e-01 1.894702e+00 6.130163e-03 -2.066435e-01 5.647592e-01 -1.976299e+00
<VARIANCE> 25
 3.708842e+01 2.430766e+01 5.627396e+01 5.085257e+01 6.371410e+01 3.702544e+01 4.421107e+01 3.715518e+01 6.550970e+01 2.300114e+01 1.985037e+01 3.994559e+01 6.462803e+00 3.807376e+00 7.337243e+00 5.008666e+00 3.009789e+00 2.843582e+00 1.486524e+00 3.228523e+00 6.678210e+00 3.347329e+00 2.021963e+00 2.597265e+00 4.944121e+00
<GCONST> 1.067600e+02
<STATE> 4
<MEAN> 25
 -7.642301e+00 5.390008e+00 6.519778e-01 7.407777e-01 8.312368e+00 -1.037735e+00 8.327583e+00 1.257626e+00 2.661527e+00 1.740988e+00 -1.086154e-01 1.931376e+00 -8.000211e-01 -5.788239e-01 -1.168464e+00 -6.930252e-01 3.136620e-01 5.479460e-01 3.153783e-01 6.544962e-01 1.274015e+00 6.134104e-01 3.709903e-01 8.672881e-01 -5.720155e-01
<VARIANCE> 25
 1.053457e+02 1.984502e+01 1.018935e+02 7.389495e+01 2.716055e+01 7.826309e+01 2.448501e+01 2.831508e+01 2.043553e+01 1.445423e+01 2.482627e+01 2.001291e+01 3.116180e+00 8.632430e-01 2.625768e+00 1.657302e+00 1.131051e+00 1.692762e+00 1.017433e+00 1.971328e+00 3.161402e+00 1.982579e+00 2.993348e+00 1.976627e+00 7.853419e-01
<GCONST> 9.579569e+01
<TRANSP> 5
 0.000000e+00 1.000000e+00 0.000000e+00 0.000000e+00 0.000000e+00
 0.000000e+00 8.727181e-01 1.272819e-01 0.000000e+00 0.000000e+00
 0.000000e+00 0.000000e+00 7.902852e-01 2.097149e-01 0.000000e+00
 0.000000e+00 0.000000e+00 0.000000e+00 7.196288e-01 2.803712e-01
 0.000000e+00 0.000000e+00 0.000000e+00 0.000000e+00 0.000000e+00
<ENDHMM>
~h "ch"
<BEGINHMM>
<NUMSTATES> 5
<STATE> 2
<MEAN> 25
 -3.589947e+00 -1.975368e+00 -7.899933e-01 3.824549e+00 2.601306e+00 1.238401e+00 3.940876e+00 2.569051e+00 5.256400e+00 2.367490e+00 3.690715e-01 3.441812e+00 -2.423542e-01 -9.216838e-02 1.635414e-01 -3.263189e-01 7.898727e-02 3.287868e-01 -1.651671e-01 -2.136263e-01 2.232466e-01 1.914756e-01 2.819382e-01 -7.541686e-02 -1.462668e-01
<VARIANCE> 25
 5.047422e+00 7.114005e+00 1.141125e+01 8.377557e+00 1.030700e+01 1.300714e+01 1.286327e+01 2.129558e+01 9.002250e+00 1.482211e+01 1.669306e+01 1.311450e+01 7.316355e-01 9.842182e-01 8.958189e-01 1.490379e+00 1.424838e+00 2.148944e+00 1.680701e+00 1.704027e+00 1.449126e+00 2.203487e+00 1.326538e+00 1.545481e+00 1.275183e+00
<GCONST> 7.913541e+01
<STATE> 3
<MEAN> 25
 -8.383152e+00 -4.547754e+00 2.089860e+00 -2.751493e+00 1.624311e+00 6.418568e+00 -1.087190e+00 -4.689200e-01 5.915948e+00 -2.026804e+00 2.971432e+00 4.376383e+00 -3.925423e+00 8.195332e-01 1.983307e+00 -1.991966e+00 -9.431240e-01 1.237537e+00 -1.092712e+00 -2.134490e+00 9.437243e-01 -1.222670e+00 5.860872e-01 -2.243421e-02 2.768153e+00
<VARIANCE> 25
 3.208788e+01 2.426849e+01 1.703400e+01 2.151842e+01 2.183811e+01 1.891719e+01 4.281720e+01 3.503752e+01 1.631412e+01 1.851958e+01 9.807591e+00 3.118825e+00 2.146406e+00 3.156816e+00 9.818910e-01 1.095835e+00 2.338019e+00 2.967230e+00 4.031797e+00 2.267941e+00 1.144214e+00 2.270348e+00 1.147597e+00 1.663375e+00 3.862797e+00
<GCONST> 9.006646e+01
<STATE> 4
<MEAN> 25
 -1.764667e+01 6.326408e-01 9.186100e+00 -3.018772e+00 -5.218335e+00 2.254971e+00 6.119994e+00 -7.319286e+00 5.198912e+00 -2.501199e+00 2.871440e+00 -1.247283e+00 1.060766e+00 6.434612e-02 2.336154e-01 8.470881e-01 -7.060829e-01 -1.995838e+00 2.584278e-01 -1.110342e-02 -9.071782e-01 -3.759550e-01 -5.601676e-01 -5.759073e-01 7.263215e-01
<VARIANCE> 25
 3.386451e+01 9.891524e+00 1.066528e+01 2.207162e+01 1.936834e+01 4.058429e+01 2.519481e+01 2.587449e+01 1.482745e+01 1.015178e+01 1.364706e+01 1.482756e+01 8.624456e+00 1.484940e+00 1.466174e+00 2.391847e+00 2.682350e+00 3.076432e+00 5.234740e+00 2.716619e+00 1.084187e+00 1.959439e+00 1.135276e+00 1.483260e+00 2.588807e+00
<GCONST> 9.148899e+01
<TRANSP> 5
 0.000000e+00 1.000000e+00 0.000000e+00 0.000000e+00 0.000000e+00
 0.000000e+00 9.012793e-01 9.872071e-02 0.000000e+00 0.000000e+00
 0.000000e+00 0.000000e+00 6.467506e-01 3.532494e-01 0.000000e+00
 0.000000e+00 0.000000e+00 0.000000e+00 8.786118e-01 1.213882e-01
 0.000000e+00 0.000000e+00 0.000000e+00 0.000000e+00 0.000000e+00
<ENDHMM>
~h "dh"
<BEGINHMM>
<NUMSTATES> 5
<STATE> 2
<MEAN> 25
 1.821328e+00 3.942805e+00 4.137912e+00 3.526918e+00 -4.326444e+00 -7.710798e+00 -5.570438e+00 -1.467193e+00 -1.463839e+00 2.530877e-01 8.252022e-02 -2.486650e+00 2.023808e+00 -2.084986e+00 6.996207e-01 -5.367652e-01 -2.321901e+00 -1.302409e+00 -1.610023e+00 6.179799e-01 2.553509e-01 -1.225846e-01 4.480963e-01 -4.236764e-01 1.053385e+00
<VARIANCE> 25
 9.029058e+00 2.615382e+01 1.908348e+01 1.069712e+01 3.569641e+01 3.116223e+01 3.361207e+01 1.615695e+01 1.637224e+01 7.954065e+00 1.624866e+01 1.951078e+01 2.364936e+00 1.589350e+00 1.404371e+00 3.011800e+00 2.141044e+00 2.508864e+00 1.726801e+00 1.133275e+00 1.106176e+00 2.668012e+00 2.140375e+00 3.741273e+00 1.099006e+00
<GCONST> 8.904567e+01
<STATE> 3
<MEAN> 25
 7.769335e+00 -2.364181e+00 3.050959e+00 9.649747e+00 -1.014833e+01 -1.236847e+01 -8.459563e+00 3.905661e+00 5.274585e-01 -5.823431e+00 3.280165e+00 3.995198e+00 7.865441e-01 -1.599171e-01 -1.464512e+00 1.153895e+00 4.123042e-01 -1.948704e-01 -1.132972e+00 9.560106e-01 1.674488e-01 -8.152133e-01 6.620941e-02 5.475431e-01 -4.646819e-01
<VARIANCE> 25
 5.560772e+00 2.422039e+01 2.400627e+01 3.857963e+01 2.022680e+01 3.264229e+01 5.253616e+01 2.026405e+01 1.595082e+01 1.945139e+01 1.551166e+01 3.123583e+01 3.639646e-01 6.402030e-01 5.801253e-01 1.994046e+00 1.838722e+00 1.256085e+00 9.902999e-01 9.522849e-01 1.237142e+00 1.407702e+00 5.306391e-01 1.721842e+00 3.500836e-01
<GCONST> 8.194677e+01
<STATE> 4
<MEAN> 25
 8.835051e+00 8.258983e-01 -3.617185e+00 1.089726e+01 -7.310005e+00 -9.076637e+00 -1.377979e+01 6.043022e+00 -1.783449e-01 -6.966358e+00 2.995945e+00 4.063385e+00 -2.225414e-03 4.870538e-01 -2.997294e-01 -5.833984e-01 6.377882e-01 6.257779e-01 1.744915e-01 -2.102181e-01 7.312563e-01 -1.914715e-01 -4.595995e-01 -5.461719e-01 -7.551968e-01
<VARIANCE> 25
 2.991397e+00 1.590800e+01 5.321818e+00 4.103123e+01 1.053792e+01 3.668776e+01 2.798046e+01 2.025430e+01 2.498060e+01 2.540148e+01 1.488359e+01 6.984451e+01 7.950400e-01 1.004270e+00 7.471202e-01 7.304201e-01 1.122569e+00 1.012105e+00 2.067035e+00 9.519332e-01 1.964565e+00 1.048961e+00 1.682903e+00 2.144883e+00 3.210161e-01
<GCONST> 8.173653e+01
<TRANSP> 5
 0.000000e+00 1.000000e+00 0.000000e+00 0.000000e+00 0.000000e+00
 0.000000e+00 7.211726e-01 2.788274e-01 0.000000e+00 0.000000e+00
 0.000000e+00 0.000000e+00 7.861076e-01 2.138924e-01 0.000000e+00
 0.000000e+00 0.000000e+00 0.000000e+00 5.726786e-01 4.273214e-01
 0.000000e+00 0.000000e+00 0.000000e+00 0.000000e+00 0.000000e+00
<ENDHMM>
~h "eh"
<BEGINHMM>
<NUMSTATES> 5
<STATE> 2
<MEAN> 25
 4.490471e+00 -5.452707e+00 1.887831e+00 -2.029541e+00 -6.282978e+00 -5.603027e+00 2.064426e+00 6.521650e+00 -3.023132e+00 -2.836756e+00 -3.440196e+00 -5.781302e+00 4.927892e-01 -4.252644e-01 -1.531824e-01 -2.808886e-01 3.264998e-02 -6.048159e-01 -2.515871e-01 2.714138e-01 -2.296533e-01 -3.280100e-01 -6.257474e-01 -7.826872e-01 8.419793e-01
<VARIANCE> 25
 2.953632e+01 1.819971e+01 2.625775e+01 1.878949e+01 4.292806e+01 4.266197e+01 5.519449e+01 2.254935e+01 2.179700e+01 2.440866e+01 1.742444e+01 3.407869e+01 2.148110e+00 2.245302e+00 2.493557e+00 2.156113e+00 3.428289e+00 3.736485e+00 3.827219e+00 2.641484e+00 2.786172e+00 2.241547e+00 2.260917e+00 3.498396e+00 3.320275e+00
<GCONST> 9.895697e+01
<STATE> 3
<MEAN> 25
 5.311575e+00 -1.629956e+00 1.418689e+00 -5.091534e-01 -3.646792e+00 -7.250398e+00 -2.412809e+00 3.266993e+00 -2.830618e+00 -1.715570e+00 -4.929533e+00 -5.627399e+00 -3.160997e-01 1.066687e+00 -2.559119e-01 3.623389e-01 8.058627e-01 5.109243e-01 -1.155623e-01 -9.613204e-01 2.400237e-01 1.897763e-01 -3.838953e-01 1.891415e-01 -7.460815e-01
<VARIANCE> 25
 2.271445e+01 4.477658e+01 3.823603e+01 4.388100e+01 5.978397e+01 4.045716e+01 3.626177e+01 3.107296e+01 1.371611e+01 3.047931e+01 2.765643e+01 2.863538e+01 1.464521e+00 1.798683e+00 2.173699e+00 3.050489e+00 4.834925e+00 3.720905e+00 2.118953e+00 2.136564e+00 2.150973e+00 1.760669e+00 2.159474e+00 2.078991e+00 4.138725e+00
<GCONST> 9.933910e+01
<STATE> 4
<MEAN> 25
 -8.289317e-01 6.102895e-01 -2.210994e-01 6.517454e-01 1.224613e+00 -1.870345e+00 1.382716e+00 1.856019e+00 7.074559e-01 7.826673e-01 -2.381207e+00 -2.332001e+00 2.024693e-01 2.611432e-01 6.406299e-02 -2.585086e-01 -5.452818e-02 4.348602e-01 -2.004689e-01 -6.416660e-01 -2.692681e-01 2.934134e-01 3.252967e-01 -1.589750e-01 1.659882e-01
<VARIANCE> 25
 5.977545e+01 3.222282e+01 4.829928e+01 2.273524e+01 3.647516e+01 4.810135e+01 3.867579e+01 2.085025e+01 3.237552e+01 2.151481e+01 3.381130e+01 4.918131e+01 4.553966e+00 1.880767e+00 2.299281e+00 3.365062e+00 3.039594e+00 4.530584e+00 3.215031e+00 2.879413e+00 2.867596e+00 2.433712e+00 1.811510e+00 2.710036e+00 2.993432e+00
<GCONST> 1.023087e+02
<TRANSP> 5
 0.000000e+00 1.000000e+00 0.000000e+00 0.000000e+00 0.000000e+00
 0.000000e+00 7.955963e-01 2.044036e-01 0.000000e+00 0.000000e+00
 0.000000e+00 0.000000e+00 6.887394e-01 3.112606e-01 0.000000e+00
 0.000000e+00 0.000000e+00 0.000000e+00 6.617656e-01 3.382345e-01
 0.000000e+00 0.000000e+00 0.000000e+00 0.000000e+00 0.000000e+00
<ENDHMM>
~h "er"
<BEGINHMM>
<NUMSTATES> 5
<STATE> 2
<MEAN> 25
 1.168483e+01 -3.262630e-01 -3.723136e+00 7.962472e+00 -7.506579e-01 -9.959339e+00 -1.519700e+01 4.690125e+00 1.548193e+00 -7.745112e+00 9.809182e-01 5.489466e+00 2.202089e-01 -5.787993e-02 -3.930786e-01 2.635789e-01 1.168719e-01 -2.035365e-01 -6.586260e-01 4.823181e-01 3.063699e-01 -1.911219e-01 -2.733448e-01 9.520654e-02 -1.855547e-01
<VARIANCE> 25
 1.298510e+01 1.362117e+01 4.877422e+01 4.465208e+01 4.047264e+01 4.935521e+01 5.347429e+01 5.006344e+01 4.281692e+01 2.927227e+01 3.832982e+01 1.738663e+01 1.246928e+00 6.770945e-01 1.677742e+00 1.117384e+00 2.009347e+00 2.031132e+00 3.559562e+00 1.996349e+00 2.059923e+00 1.519589e+00 1.580008e+00 1.280735e+00 3.574359e-01
<GCONST> 9.257984e+01
<STATE> 3
<MEAN> 25
 5.203276e+00 -1.088717e+00 -1.434871e+00 7.728439e+00 -1.212360e+00 -6.997921e+00 -6.700709e+00 5.984444e+00 1.242023e+00 -6.455863e+00 -3.497306e+00 3.316449e+00 -1.222258e+00 -2.549935e-01 4.914717e-01 -9.311488e-01 -4.788814e-02 1.028840e+00 1.889341e+00 -5.643299e-01 -4.856190e-01 6.743833e-01 -2.021484e-01 -5.378847e-01 -6.738088e-01
<VARIANCE> 25
 2.556753e+01 1.964530e+01 2.236606e+01 3.918001e+01 3.003328e+01 6.473333e+01 6.261332e+01 5.518635e+01 3.689572e+01 2.969073e+01 3.229160e+01 3.088016e+01 1.180463e+00 9.511335e-01 1.796969e+00 2.435293e+00 2.839074e+00 3.779838e+00 3.497736e+00 3.119760e+00 2.608258e+00 2.530327e+00 2.731071e+00 1.941880e+00 8.162630e-01
<GCONST> 9.827328e+01
<STATE> 4
<MEAN> 25
 -1.348645e+00 -3.310234e+00 -4.147325e+00 -1.851337e+00 7.905444e-01 7.472857e-01 -3.629363e-01 8.178935e-01 2.547005e+00 1.667632e+00 -1.571095e+00 7.675584e-01 -1.085932e-01 3.393586e-02 1.458814e-02 -1.417424e-01 7.920701e-02 2.031064e-01 1.382862e-01 -7.180437e-02 5.987912e-02 2.605566e-01 1.363710e-01 -7.641506e-02 -6.712025e-02
<VARIANCE> 25
 6.776293e+00 5.146659e+00 1.299202e+01 1.159309e+01 1.427117e+01 1.902551e+01 1.638023e+01 1.653694e+01 2.038329e+01 1.963515e+01 1.575333e+01 1.580640e+01 4.267146e-01 4.810213e-01 8.539031e-01 1.124231e+00 1.084474e+00 1.481780e+00 1.742159e+00 1.680141e+00 1.667967e+00 1.658084e+00 1.573797e+00 1.730067e+00 1.777083e-01
<GCONST> 7.744395e+01
<TRANSP> 5
 0.000000e+00 1.000000e+00 0.000000e+00 0.000000e+00 0.000000e+00
 0.000000e+00 9.081708e-01 9.182918e-02 0.000000e+00 0.000000e+00
 0.000000e+00 0.000000e+00 8.476401e-01 1.523599e-01 0.000000e+00
 0.000000e+00 0.000000e+00 0.000000e+00 9.305708e-01 6.942926e-02
 0.000000e+00 0.000000e+00 0.000000e+00 0.000000e+00 0.000000e+00
<ENDHMM>
~h "ey"
<BEGINHMM>
<NUMSTATES> 5
<STATE> 2
<MEAN> 25
 2.977537e+00 1.641977e+00 1.404559e+01 -4.369551e+00 -1.442020e+01 1.114568e+00 -2.243350e+00 -2.457595e+00 -9.774411e+00 2.654423e+00 9.695184e-01 -4.582321e+00 -1.292313e-01 3.097400e-01 5.294960e-01 -1.535753e-01 3.423141e-02 3.182242e-01 -2.301354e-01 -7.419709e-01 -2.240147e-01 6.520201e-02 -1.455206e-02 -2.547986e-01 -2.438302e-01
<VARIANCE> 25
 7.943290e+00 1.656339e+01 1.820778e+01 3.783434e+01 1.316795e+01 5.572305e+01 5.718519e+01 4.137077e+01 2.632168e+01 1.639236e+01 3.489775e+01 2.158146e+01 2.190153e-01 3.519074e-01 5.672082e-01 6.374439e-01 6.338656e-01 9.058872e-01 9.254019e-01 1.107188e+00 1.244344e+00 8.836055e-01 9.462262e-01 7.425917e-01 1.629338e-01
<GCONST> 7.823680e+01
<STATE> 3
<MEAN> 25
 1.977475e+00 2.651780e+00 1.546887e+01 -1.810099e+00 -1.193840e+01 -1.373447e+00 6.133487e-01 -4.361129e+00 -9.857974e+00 -6.960299e-01 1.879627e+00 -4.848141e+00 -3.052860e-02 7.750315e-02 -3.756725e-01 5.804959e-01 6.756501e-01 -4.754959e-01 2.092901e-01 6.631781e-02 5.915059e-02 -7.209960e-01 4.893675e-02 1.579912e-01 -6.991552e-01
<VARIANCE> 25
 1.178050e+01 1.994852e+01 4.765623e+01 4.296104e+01 2.990849e+01 4.028074e+01 6.910876e+01 7.202482e+01 4.573713e+01 2.304376e+01 3.437420e+01 2.496352e+01 1.275675e+00 1.015490e+00 1.067961e+00 1.158228e+00 1.492682e+00 2.465530e+00 2.768405e+00 2.779724e+00 3.178169e+00 1.535964e+00 1.959519e+00 1.522913e+00 3.923441e-01
<GCONST> 9.391084e+01
<STATE> 4
<MEAN> 25
 2.784850e+00 1.946896e+00 8.815286e+00 1.196310e+00 -6.784982e+00 -1.440101e+00 3.860360e-01 -2.965016e+00 -5.917300e+00 -1.833903e+00 1.875097e-02 -5.822961e+00 -1.865786e-01 -8.336855e-02 -1.822167e+00 8.521304e-01 1.838451e+00 -8.620240e-02 -3.023941e-01 3.511424e-01 1.203498e+00 -1.842113e-01 -4.928671e-01 5.146455e-01 -1.054576e+00
<VARIANCE> 25
 1.198482e+01 3.351775e+01 6.749617e+01 2.968595e+01 3.642763e+01 4.415436e+01 5.398818e+01 8.492137e+01 5.264276e+01 2.702962e+01 2.534886e+01 2.684317e+01 3.281605e+00 1.231692e+00 1.962502e+00 4.229819e+00 2.872917e+00 5.751898e+00 5.411786e+00 2.813527e+00 3.607264e+00 3.113270e+00 2.540219e+00 2.581987e+00 1.043789e+00
<GCONST> 1.025254e+02
<TRANSP> 5
 0.000000e+00 1.000000e+00 0.000000e+00 0.000000e+00 0.000000e+00
 0.000000e+00 9.017609e-01 9.823914e-02 0.000000e+00 0.000000e+00
 0.000000e+00 0.000000e+00 3.589122e-01 6.410878e-01 0.000000e+00
 0.000000e+00 0.000000e+00 0.000000e+00 7.041809e-01 2.958191e-01
 0.000000e+00 0.000000e+00 0.000000e+00 0.000000e+00 0.000000e+00
<ENDHMM>
~h "hh"
<BEGINHMM>
<NUMSTATES> 5
<STATE> 2
<MEAN> 25
 2.853282e+00 -4.692412e+00 -2.559232e+00 -8.446406e-01 4.578442e+00 7.093437e+00 1.106618e+00 1.038533e-01 2.539419e+00 5.442129e-01 -1.355257e-01 -5.817062e+00 -2.735025e-01 -2.806429e-01 -2.273296e-01 -1.666209e-01 -1.277615e-01 -1.599740e-01 3.850894e-01 -2.415476e-01 3.343531e-02 -1.501967e-01 2.951039e-01 5.990275e-01 -8.808161e-02
<VARIANCE> 25
 3.966801e+01 5.067878e+01 5.903018e+01 7.858844e+01 3.922595e+01 2.860083e+01 4.691310e+01 4.589501e+01 1.773160e+01 2.037114e+01 2.703873e+01 1.011919e+02 6.346503e-01 9.802537e-01 1.265007e+00 2.075568e+00 1.643682e+00 1.975582e+00 9.144154e-01 1.951696e+00 1.600453e+00 1.901379e+00 1.584101e+00 2.624446e+00 2.956917e-01
<GCONST> 9.406347e+01
<STATE> 3
<MEAN> 25
 -3.638378e+00 -2.513545e+00 -4.797571e+00 -6.800742e-01 2.860631e+00 5.937800e+00 4.028010e+00 1.586571e-01 3.042255e+00 5.738133e-01 5.265258e+00 6.077154e+00 4.013590e-01 6.044924e-01 -3.137767e-01 3.832341e-01 -2.368848e-01 8.539717e-01 7.598086e-02 7.782159e-01 9.757780e-02 -4.618585e-01 4.655719e-02 -2.774639e-01 -9.854799e-02
<VARIANCE> 25
 1.798194e+01 2.782063e+01 3.204373e+01 3.513829e+01 2.561666e+01 7.317319e+01 1.275456e+01 5.037186e+01 5.611305e+01 3.090283e+01 2.900816e+01 3.084816e+01 1.417748e+00 2.285643e+00 2.435290e+00 1.382869e+00 1.084562e+00 4.946055e+00 1.323507e+00 3.129389e+00 2.138194e+00 1.747985e+00 1.324740e+00 1.030293e+00 4.276927e-01
<GCONST> 9.371571e+01
<STATE> 4
<MEAN> 25
 -4.690929e+00 -4.816366e-01 -3.435359e-01 2.775944e+00 2.492433e+00 2.460144e+00 3.721089e+00 1.698407e+00 4.655645e+00 1.853235e+00 2.672154e+00 4.424582e+00 6.695581e-02 -4.682697e-02 -4.670808e-02 -8.842719e-02 -7.983183e-02 -3.664518e-02 4.517581e-02 6.359768e-03 -9.132997e-02 -3.470721e-04 -9.499159e-02 -9.783156e-02 1.800237e-02
<VARIANCE> 25
 5.796782e+00 3.759770e+00 5.301655e+00 6.444669e+00 9.254583e+00 1.082715e+01 1.310698e+01 1.816184e+01 1.152202e+01 1.430109e+01 1.364637e+01 1.178720e+01 3.501155e-01 3.491762e-01 5.066394e-01 5.919764e-01 8.650478e-01 1.156376e+00 1.308514e+00 1.496258e+00 1.289468e+00 1.663670e+00 1.496561e+00 1.149460e+00 1.816746e-01
<GCONST> 6.979102e+01
<TRANSP> 5
 0.000000e+00 1.000000e+00 0.000000e+00 0.000000e+00 0.000000e+00
 0.000000e+00 7.412823e-01 2.587177e-01 0.000000e+00 0.000000e+00
 0.000000e+00 0.000000e+00 4.881470e-01 5.118530e-01 0.000000e+00
 0.000000e+00 0.000000e+00 0.000000e+00 9.462692e-01 5.373087e-02
 0.000000e+00 0.000000e+00 0.000000e+00 0.000000e+00 0.000000e+00
<ENDHMM>
~h "ih"
<BEGINHMM>
<NUMSTATES> 5
<STATE> 2
<MEAN> 25
 3.812186e+00 9.696273e-01 6.305362e+00 -5.941818e-03 -7.984526e+00 -3.598782e+00 -1.582785e+00 -2.824995e+00 -8.462653e+00 -1.162543e+00 -1.220628e+00 -4.256077e+00 -9.211048e-02 3.310871e-01 -1.080242e-01 2.845360e-01 5.341802e-01 7.327264e-02 1.076895e-01 -4.698954e-01 2.812378e-01 -5.972601e-02 -2.012855e-01 -2.698619e-01 -3.119910e-01
<VARIANCE> 25
 2.848209e+01 2.802930e+01 4.098240e+01 4.000661e+01 6.987223e+01 4.899230e+01 4.222135e+01 6.620390e+01 5.634549e+01 3.219440e+01 2.488648e+01 3.589445e+01 2.417879e+00 2.426941e+00 4.519495e+00 3.279440e+00 6.871043e+00 5.154836e+00 4.440059e+00 4.494072e+00 6.396819e+00 2.813011e+00 2.746855e+00 1.742966e+00 5.841647e+00
<GCONST> 1.076513e+02
<STATE> 3
<MEAN> 25
 1.230012e+00 4.272511e+00 3.158505e+00 1.089806e+00 2.786445e+00 -3.625451e+00 -5.657113e+00 -2.065191e+00 -4.643295e-01 -1.461608e+00 -3.161066e+00 -2.913737e+00 -4.119344e-01 -3.717433e-01 -4.574984e-01 7.699817e-02 5.536787e-01 2.937270e-01 4.022263e-01 7.136714e-01 8.946249e-01 1.386919e-01 2.873862e-01 4.570273e-01 -9.782977e-02
<VARIANCE> 25
 1.861333e+01 3.406157e+01 2.974201e+01 4.189228e+01 5.527053e+01 3.599597e+01 1.080299e+02 4.424804e+01 2.523438e+01 2.307853e+01 2.228360e+01 2.760842e+01 2.319267e+00 2.290479e+00 2.733887e+00 1.590747e+00 5.124942e+00 3.136652e+00 3.298797e+00 4.065313e+00 3.050881e+00 1.802900e+00 2.145397e+00 1.621445e+00 2.081722e+00
<GCONST> 1.005815e+02
<STATE> 4
<MEAN> 25
 -1.876046e+00 1.060419e-01 2.002760e+00 4.085776e+00 2.989659e+00 2.376323e+00 5.702031e+00 4.250722e+00 6.089365e+00 3.177481e+00 2.306232e+00 2.862395e+00 -3.250178e-01 -4.341786e-01 -4.430930e-01 -3.474736e-01 1.308569e-01 1.219378e-01 1.482672e-01 2.390093e-02 2.238758e-01 3.724999e-01 5.457816e-01 3.344992e-01 -4.289405e-01
<VARIANCE> 25
 2.615652e+01 2.769881e+01 3.339950e+01 2.312440e+01 3.647903e+01 3.562931e+01 4.233886e+01 3.797889e+01 3.136228e+01 3.564289e+01 1.955164e+01 2.997292e+01 1.957069e+00 1.756183e+00 2.163632e+00 1.565216e+00 2.470198e+00 1.663899e+00 2.059650e+00 2.371216e+00 2.494020e+00 2.581538e+00 1.430851e+00 1.988810e+00 1.150216e+00
<GCONST> 9.562882e+01
<TRANSP> 5
 0.000000e+00 1.000000e+00 0.000000e+00 0.000000e+00 0.000000e+00
 0.000000e+00 7.791018e-01 2.208982e-01 0.000000e+00 0.000000e+00
 0.000000e+00 0.000000e+00 5.822099e-01 4.177901e-01 0.000000e+00
 0.000000e+00 0.000000e+00 0.000000e+00 6.506737e-01 3.493264e-01
 0.000000e+00 0.000000e+00 0.000000e+00 0.000000e+00 0.000000e+00
<ENDHMM>
~h "iy"
<BEGINHMM>
<NUMSTATES> 5
<STATE> 2
<MEAN> 25
 1.740860e+00 4.170007e+00 1.032573e+01 2.524488e+00 -4.677302e+00 -2.519411e+00 -1.274190e+00 -6.916902e+00 -6.995587e+00 -1.968884e+00 1.604303e+00 -3.311488e+00 5.133914e-01 7.932250e-01 2.491796e+00 -7.560676e-01 -1.856877e+00 -1.558567e-01 -9.126046e-01 -1.525258e+00 -2.206277e+00 2.676771e-02 2.295775e-01 -1.222548e+00 1.504929e+00
<VARIANCE> 25
 4.048582e+01 2.841355e+01 6.015323e+01 5.194478e+01 7.275753e+01 5.108265e+01 3.579694e+01 5.259582e+01 5.782516e+01 4.967223e+01 3.903715e+01 5.308419e+01 3.581085e+00 2.782545e+00 4.324087e+00 5.311003e+00 5.544500e+00 6.711795e+00 3.268440e+00 3.724285e+00 5.040759e+00 4.497085e+00 4.316503e+00 3.061221e+00 2.148024e+00
<GCONST> 1.104178e+02
<STATE> 3
<MEAN> 25
 2.179034e+00 7.214545e+00 1.735889e+01 -1.514132e+00 -8.723196e+00 -3.172441e-01 -4.661899e+00 -1.282612e+01 -9.822596e+00 -3.691065e+00 9.701425e-01 -4.790320e+00 3.179697e-02 1.142529e-02 -6.902878e-02 -4.579051e-01 -4.319092e-02 3.608495e-01 -2.791654e-01 9.786501e-02 1.604368e-01 2.262759e-03 9.899368e-02 -1.271743e-01 1.001021e-01
<VARIANCE> 25
 2.024557e+01 2.555853e+01 2.034177e+01 3.761362e+01 4.030882e+01 4.311309e+01 2.100255e+01 4.652301e+01 2.344855e+01 4.937844e+01 4.840189e+01 2.340859e+01 1.114884e+00 1.980842e+00 1.360659e+00 2.826845e+00 2.343974e+00 3.031968e+00 2.064589e+00 2.318180e+00 1.509958e+00 1.710585e+00 1.878026e+00 2.669764e+00 4.209494e-01
<GCONST> 9.462989e+01
<STATE> 4
<MEAN> 25
 3.540301e+00 2.658424e+00 2.020455e+01 -3.277815e+00 -1.123299e+01 -9.546074e-01 -1.034307e+01 -5.466945e+00 -1.314179e+01 -1.476633e+00 1.026960e-01 -6.072664e+00 7.440153e-03 -1.659380e-01 -8.817050e-01 7.011861e-01 7.466807e-01 -2.988949e-01 3.303567e-01 5.249308e-01 7.353907e-01 -1.262735e-01 -2.412620e-01 4.161957e-02 -4.545272e-01
<VARIANCE> 25
 9.313080e+00 1.944271e+01 4.822766e+01 5.122367e+01 2.578664e+01 4.294773e+01 4.872091e+01 3.097282e+01 3.412355e+01 2.443064e+01 2.677942e+01 1.746167e+01 6.551671e-01 7.574240e-01 2.302140e+00 1.361520e+00 2.106590e+00 1.549403e+00 2.264170e+00 1.816466e+00 2.726185e+00 2.623379e+00 1.623966e+00 2.740651e+00 5.492588e-01
<GCONST> 9.206052e+01
<TRANSP> 5
 0.000000e+00 1.000000e+00 0.000000e+00 0.000000e+00 0.000000e+00
 0.000000e+00 7.265390e-01 2.734610e-01 0.000000e+00 0.000000e+00
 0.000000e+00 0.000000e+00 7.721403e-01 2.278597e-01 0.000000e+00
 0.000000e+00 0.000000e+00 0.000000e+00 8.077564e-01 1.922436e-01
 0.000000e+00 0.000000e+00 0.000000e+00 0.000000e+00 0.000000e+00
<ENDHMM>
~h "jh"
<BEGINHMM>
<NUMSTATES> 5
<STATE> 2
<MEAN> 25
 -9.573427e-01 -1.072001e+00 -6.585752e-01 8.728027e-01 -4.104704e+00 -1.813762e+00 -8.826229e-01 -3.490223e+00 -1.969483e+00 6.178006e-01 9.916321e-02 1.226258e+00 5.563367e-01 -8.256088e-01 5.526728e-01 -9.910749e-01 -2.075131e+00 -1.634202e+00 -1.744339e+00 2.391366e-02 -1.092048e+00 -4.981001e-02 -8.290014e-01 -1.425384e+00 4.596931e+00
<VARIANCE> 25
 3.215549e+01 1.340891e+01 3.179006e+01 1.092222e+01 3.970227e+01 3.952465e+01 2.507722e+01 4.914945e+01 2.068237e+01 1.215620e+01 7.619489e+00 2.401347e+01 1.006328e+01 2.419913e+00 3.044855e+00 2.202105e+00 3.768756e+00 6.604110e+00 1.371263e+00 1.126103e+01 4.928315e+00 1.316523e+00 6.786841e-01 1.799157e+00 8.050936e+00
<GCONST> 9.827750e+01
<STATE> 3
<MEAN> 25
 5.323092e+00 -6.945274e+00 -6.165514e-01 -4.973020e+00 -4.558539e+00 -2.314507e+00 -5.674077e+00 -4.596504e-01 1.156020e+00 1.039350e+00 -3.306286e+00 -8.565260e+00 2.201790e-01 -1.768400e-01 3.645283e-01 8.313899e-02 -1.098256e-01 -5.437170e-01 1.574566e-01 2.790313e-01 -5.408123e-01 -2.161394e-01 6.941377e-03 1.247084e-01 -2.237234e-01
<VARIANCE> 25
 2.125027e+02 3.197581e+01 4.274667e+01 1.465295e+01 1.825013e+01 4.476785e+01 5.697712e+01 4.862622e+01 1.322544e+01 1.686226e+01 1.540181e+01 6.069440e+01 3.172029e+00 1.251379e+00 2.792801e+00 2.353799e+00 2.648739e+00 4.950254e+00 2.184081e+00 4.217554e+00 3.390798e+00 1.797179e+00 2.622993e+00 2.925102e+00 6.601824e-01
<GCONST> 9.957619e+01
<STATE> 4
<MEAN> 25
 7.876593e-01 3.475922e-01 1.086368e+01 -3.759341e-01 -4.396458e+00 -3.743775e+00 -5.514389e+00 2.737623e-01 -8.543687e+00 -4.456929e+00 -1.438529e+00 -3.634401e+00 -2.531024e-01 3.235915e-01 8.343267e-02 -8.944774e-02 5.018005e-01 9.297224e-01 2.484789e-02 -2.325331e-01 5.468071e-01 -9.652003e-02 1.831184e-01 5.015707e-03 -3.120537e-01
<VARIANCE> 25
 5.602228e+01 3.452665e+01 3.387747e+01 3.639165e+01 5.345027e+01 6.076266e+01 2.229659e+01 2.694262e+01 7.379180e+01 1.588740e+01 1.940531e+01 1.547063e+01 8.399076e+00 3.568963e+00 3.473148e+00 5.093267e+00 4.260670e+00 5.773824e+00 3.900738e+00 2.774904e+00 7.009552e+00 1.811706e+00 2.198196e+00 1.949684e+00 6.872324e+00
<GCONST> 1.056689e+02
<TRANSP> 5
 0.000000e+00 1.000000e+00 0.000000e+00 0.000000e+00 0.000000e+00
 0.000000e+00 8.079141e-01 1.920859e-01 0.000000e+00 0.000000e+00
 0.000000e+00 0.000000e+00 8.903357e-01 1.096643e-01 0.000000e+00
 0.000000e+00 0.000000e+00 0.000000e+00 9.242655e-01 7.573450e-02
 0.000000e+00 0.000000e+00 0.000000e+00 0.000000e+00 0.000000e+00
<ENDHMM>
~h "ng"
<BEGINHMM>
<NUMSTATES> 5
<STATE> 2
<MEAN> 25
 2.666231e+00 2.713318e+00 -3.173679e+00 5.879157e+00 2.998686e+00 -1.389570e+00 2.159732e+00 -4.640225e+00 -2.294326e+00 -2.033275e-01 -3.336521e-01 -3.250355e+00 -8.917491e-01 -6.986635e-01 -4.010647e-01 -4.601702e-01 4.121765e-01 7.349812e-01 3.068071e-01 9.577702e-01 9.772241e-01 4.777376e-01 9.168249e-01 1.220769e+00 -6.955850e-01
<VARIANCE> 25
 4.032874e+01 5.413678e+00 8.210414e+00 8.145058e+00 4.111679e+00 1.915329e+01 7.245291e+00 3.030355e+01 3.251773e+01 8.027244e+00 1.182940e+01 3.238500e+01 1.107553e+00 1.042397e+00 1.339873e+00 5.564916e-01 5.063027e-01 2.076173e+00 2.006759e+00 2.152802e+00 1.543850e+00 2.085679e+00 2.385996e+00 2.498538e+00 1.891402e-01
<GCONST> 7.945933e+01
<STATE> 3
<MEAN> 25
 -6.232882e+00 -1.265204e+00 -8.698496e-01 1.745013e+00 5.038980e+00 5.210054e+00 6.059238e+00 4.082809e+00 6.221807e+00 3.825250e+00 3.727184e+00 5.269221e+00 -1.583076e-02 -1.812032e-02 -5.692149e-02 3.445966e-02 8.249167e-02 -4.143644e-03 1.009234e-01 7.521234e-02 1.304123e-01 1.077668e-01 7.771558e-02 -1.050573e-03 -4.663060e-02
<VARIANCE> 25
 1.569305e+00 1.748622e+00 7.545299e+00 6.356408e+00 6.539349e+00 8.469878e+00 1.009471e+01 1.021937e+01 1.058105e+01 1.140177e+01 8.799236e+00 8.384096e+00 1.434570e-01 2.629266e-01 3.753701e-01 9.485840e-01 5.902900e-01 7.603160e-01 1.178124e+00 1.297769e+00 1.125756e+00 1.453178e+00 1.330966e+00 1.082839e+00 4.934640e-02
<GCONST> 6.173325e+01
<STATE> 4
<MEAN> 25
 -6.256086e+00 -1.020316e-02 -5.622773e+00 2.311517e+00 5.990051e+00 4.855025e+00 6.394016e+00 3.568096e+00 6.583525e+00 3.879215e+00 4.377860e+00 5.499203e+00 -7.769650e-02 7.934555e-02 -1.117019e-01 9.744354e-02 -6.858575e-02 -1.405763e-01 -1.448814e-01 3.536561e-02 -1.155809e-01 -3.211114e-01 2.098041e-02 2.056818e-01 1.732385e-01
<VARIANCE> 25
 4.541062e+00 4.826880e+00 1.720482e+01 3.181242e+00 6.596835e+00 9.711228e+00 9.577756e+00 1.029827e+01 1.548090e+01 1.368177e+01 8.583382e+00 8.426557e+00 5.081217e-01 3.474039e-01 7.040430e-01 5.159116e-01 7.294697e-01 1.265804e+00 1.156455e+00 9.735993e-01 2.227108e+00 1.367266e+00 1.041904e+00 1.102165e+00 2.617396e-01
<GCONST> 6.862820e+01
<TRANSP> 5
 0.000000e+00 1.000000e+00 0.000000e+00 0.000000e+00 0.000000e+00
 0.000000e+00 7.866725e-01 2.133275e-01 0.000000e+00 0.000000e+00
 0.000000e+00 0.000000e+00 9.359407e-01 6.405934e-02 0.000000e+00
 0.000000e+00 0.000000e+00 0.000000e+00 8.687894e-01 1.312106e-01
 0.000000e+00 0.000000e+00 0.000000e+00 0.000000e+00 0.000000e+00
<ENDHMM>
~h "ow"
<BEGINHMM>
<NUMSTATES> 5
<STATE> 2
<MEAN> 25
 1.157401e+01 2.245772e+00 -4.005746e+00 -9.883108e+00 -3.827044e+00 7.097219e+00 -8.606691e+00 -4.073116e+00 -5.299051e+00 1.442127e+00 2.878486e+00 -3.341653e+00 6.314854e-02 4.056188e-01 -4.449266e-02 -1.260714e-01 -1.316519e-01 1.466677e-01 1.786717e-01 -1.531208e-01 -4.352576e-01 -5.173014e-01 5.216749e-02 3.563443e-01 -3.605289e-01
<VARIANCE> 25
 5.161376e+00 3.543429e+01 1.623371e+01 2.009594e+01 2.853278e+01 3.403722e+01 3.766036e+01 3.380902e+01 4.951202e+01 5.533475e+01 2.828973e+01 3.318438e+01 1.296494e-01 5.394403e-01 3.316765e-01 7.420858e-01 5.670940e-01 1.275926e+00 8.330621e-01 1.006399e+00 9.798155e-01 1.379718e+00 1.099862e+00 7.869183e-01 1.494829e-01
<GCONST> 7.942607e+01
<STATE> 3
<MEAN> 25
 8.972189e+00 4.477726e+00 -2.833952e-01 -1.787536e+00 -2.201626e+00 3.025545e+00 -4.634164e+00 -4.716583e+00 -3.463779e+00 -6.182771e+00 5.122361e-01 -2.410464e+00 -7.222667e-01 -5.471227e-01 2.262481e-01 7.416991e-01 4.783656e-01 -4.163048e-01 2.561097e-01 2.528056e-01 6.318584e-01 4.429153e-01 -9.462407e-02 -6.561773e-02 -5.904270e-01
<VARIANCE> 25
 1.669522e+01 1.896371e+01 4.366006e+01 3.692520e+01 2.035108e+01 2.544708e+01 3.548903e+01 3.302236e+01 3.457383e+01 2.951129e+01 4.942760e+01 4.280519e+01 1.312347e+00 9.943946e-01 1.390934e+00 3.088813e+00 2.396960e+00 2.346144e+00 2.551864e+00 2.729488e+00 3.338025e+00 2.485441e+00 3.145041e+00 2.115117e+00 6.237279e-01
<GCONST> 9.592168e+01
<STATE> 4
<MEAN> 25
 -3.863421e+00 -2.599054e+00 -2.874143e+00 8.988561e-01 2.227792e+00 2.360833e+00 2.971695e+00 1.396332e+00 3.028868e+00 2.396098e+00 2.734855e+00 3.042814e+00 -1.305684e-01 -1.442670e-01 -3.928462e-02 5.966045e-02 1.216868e-01 1.044945e-01 1.055167e-01 1.962757e-02 -4.990061e-02 8.183809e-02 1.244775e-01 1.546269e-01 4.411490e-02
<VARIANCE> 25
 9.507751e+00 7.189646e+00 9.584452e+00 1.388037e+01 1.200347e+01 1.269807e+01 2.177262e+01 1.620328e+01 1.769937e+01 1.535516e+01 2.000111e+01 1.778283e+01 3.513501e-01 5.822953e-01 7.747365e-01 7.265381e-01 1.254840e+00 1.111551e+00 1.569374e+00 1.399132e+00 1.109182e+00 1.575690e+00 1.542876e+00 1.284493e+00 1.794990e-01
<GCONST> 7.591640e+01
<TRANSP> 5
 0.000000e+00 1.000000e+00 0.000000e+00 0.000000e+00 0.000000e+00
 0.000000e+00 9.478822e-01 5.211774e-02 0.000000e+00 0.000000e+00
 0.000000e+00 0.000000e+00 9.186184e-01 8.138162e-02 0.000000e+00
 0.000000e+00 0.000000e+00 0.000000e+00 9.383585e-01 6.164153e-02
 0.000000e+00 0.000000e+00 0.000000e+00 0.000000e+00 0.000000e+00
<ENDHMM>
~h "oy"
<BEGINHMM>
<NUMSTATES> 5
<STATE> 2
<MEAN> 25
 1.263426e+01 -2.727583e+00 4.620224e+00 -5.525588e+00 -1.145919e+01 -8.179895e-01 -8.319440e+00 -1.013357e+00 -8.792089e+00 -1.803783e+00 5.197327e-03 -7.969203e+00 -3.283316e-01 2.591766e-01 3.190481e-01 8.669713e-02 3.829477e-01 -4.146811e-01 2.550878e-01 -2.033688e-01 -2.716541e-01 -1.239150e-01 -5.071757e-02 2.498105e-01 -2.532479e-01
<VARIANCE> 25
 1.850803e+01 4.966515e+01 8.881021e+01 6.914967e+01 4.500773e+01 9.901184e+01 6.220294e+01 5.440083e+01 4.556376e+01 2.572319e+01 2.371051e+01 3.208281e+01 2.736766e+00 2.068522e+00 4.353065e+00 3.295867e+00 3.730299e+00 5.191570e+00 4.446668e+00 4.723142e+00 3.781543e+00 2.776814e+00 2.639419e+00 3.093565e+00 4.988721e-01
<GCONST> 1.058840e+02
<STATE> 3
<MEAN> 25
 -1.547701e+01 6.283325e+00 -3.642583e+00 -3.400835e+00 9.750385e+00 -9.630240e+00 3.991021e+00 1.373038e+00 7.049515e-01 -7.993036e-01 -2.608387e+00 2.886790e+00 -6.188329e-01 -2.268174e-01 -7.418998e-01 1.928947e-01 5.403107e-01 3.066271e-01 -2.567366e-02 6.938136e-01 8.840227e-01 4.963390e-01 -3.851533e-03 4.492084e-01 -4.870243e-01
<VARIANCE> 25
 5.762154e+01 7.173699e+00 1.879422e+01 1.748685e+01 2.825276e+01 1.356667e+01 3.799874e+01 2.707687e+01 3.094012e+01 2.413977e+01 1.615774e+01 2.162994e+01 1.036788e+01 5.423340e-01 3.390882e+00 2.481705e+00 2.500097e+00 3.006255e+00 2.136432e+00 1.510270e+00 4.308439e+00 3.588852e+00 2.284113e+00 1.367716e+00 1.834756e+00
<GCONST> 9.465345e+01
<STATE> 4
<MEAN> 25
 -4.645102e+00 -7.383613e-01 -5.321599e-01 3.801327e+00 3.654517e+00 1.952034e+00 3.032503e+00 9.655323e-01 4.345382e+00 1.414366e+00 6.461918e-01 2.864754e+00 -2.468082e-02 -9.090310e-02 1.784532e-02 1.553771e-01 -1.550165e-01 2.621853e-01 -9.711824e-04 -3.701904e-02 2.422847e-02 -3.687991e-02 6.673001e-02 -4.740999e-02 -1.633658e-01
<VARIANCE> 25
 1.322238e+01 9.596889e+00 1.514317e+01 1.752881e+01 1.368384e+01 2.115796e+01 1.886179e+01 2.151898e+01 2.405223e+01 1.536010e+01 1.427451e+01 1.685303e+01 1.142445e+00 1.250212e+00 1.729873e+00 1.739087e+00 1.456478e+00 2.203583e+00 2.027676e+00 2.739144e+00 1.865303e+00 1.736740e+00 1.810009e+00 2.102634e+00 9.662755e-01
<GCONST> 8.625716e+01
<TRANSP> 5
 0.000000e+00 1.000000e+00 0.000000e+00 0.000000e+00 0.000000e+00
 0.000000e+00 9.643254e-01 3.567466e-02 0.000000e+00 0.000000e+00
 0.000000e+00 0.000000e+00 9.010698e-01 9.893022e-02 0.000000e+00
 0.000000e+00 0.000000e+00 0.000000e+00 9.563959e-01 4.360414e-02
