~o
<STREAMINFO> 1 25
<VECSIZE> 25<NULLD><MFCC_D_N_Z_0><DIAGC>
~h "proto"
<BEGINHMM>
<NUMSTATES> 5
<STATE> 2
<MEAN> 25
 3.192364e-09 -8.557309e-09 1.933154e-08 6.202940e-08 -5.143252e-09 1.312416e-08 -7.980909e-10 2.403140e-08 -6.845847e-08 7.493187e-09 -3.218967e-08 3.054915e-08 -3.431455e-03 1.198671e-02 -1.059546e-02 8.084691e-03 -3.366336e-03 1.387773e-03 -3.401222e-03 8.231724e-03 -3.362322e-03 5.591461e-03 9.041622e-04 -8.324897e-04 -3.131291e-03
<VARIANCE> 25
 6.523484e+01 3.494769e+01 5.564297e+01 4.930426e+01 4.667942e+01 5.182100e+01 5.011460e+01 4.508089e+01 5.155953e+01 3.282148e+01 3.159749e+01 3.876217e+01 2.246927e+00 1.829102e+00 2.111806e+00 2.480233e+00 2.530630e+00 2.919836e+00 2.675019e+00 2.947302e+00 2.846936e+00 2.320962e+00 2.276192e+00 2.072601e+00 2.252928e+00
<GCONST> 1.030398e+02
<STATE> 3
<MEAN> 25
 3.192364e-09 -8.557309e-09 1.933154e-08 6.202940e-08 -5.143252e-09 1.312416e-08 -7.980909e-10 2.403140e-08 -6.845847e-08 7.493187e-09 -3.218967e-08 3.054915e-08 -3.431455e-03 1.198671e-02 -1.059546e-02 8.084691e-03 -3.366336e-03 1.387773e-03 -3.401222e-03 8.231724e-03 -3.362322e-03 5.591461e-03 9.041622e-04 -8.324897e-04 -3.131291e-03
<VARIANCE> 25
 6.523484e+01 3.494769e+01 5.564297e+01 4.930426e+01 4.667942e+01 5.182100e+01 5.011460e+01 4.508089e+01 5.155953e+01 3.282148e+01 3.159749e+01 3.876217e+01 2.246927e+00 1.829102e+00 2.111806e+00 2.480233e+00 2.530630e+00 2.919836e+00 2.675019e+00 2.947302e+00 2.846936e+00 2.320962e+00 2.276192e+00 2.072601e+00 2.252928e+00
<GCONST> 1.030398e+02
<STATE> 4
<MEAN> 25
 3.192364e-09 -8.557309e-09 1.933154e-08 6.202940e-08 -5.143252e-09 1.312416e-08 -7.980909e-10 2.403140e-08 -6.845847e-08 7.493187e-09 -3.218967e-08 3.054915e-08 -3.431455e-03 1.198671e-02 -1.059546e-02 8.084691e-03 -3.366336e-03 1.387773e-03 -3.401222e-03 8.231724e-03 -3.362322e-03 5.591461e-03 9.041622e-04 -8.324897e-04 -3.131291e-03
<VARIANCE> 25
 6.523484e+01 3.494769e+01 5.564297e+01 4.930426e+01 4.667942e+01 5.182100e+01 5.011460e+01 4.508089e+01 5.155953e+01 3.282148e+01 3.159749e+01 3.876217e+01 2.246927e+00 1.829102e+00 2.111806e+00 2.480233e+00 2.530630e+00 2.919836e+00 2.675019e+00 2.947302e+00 2.846936e+00 2.320962e+00 2.276192e+00 2.072601e+00 2.252928e+00
<GCONST> 1.030398e+02
<TRANSP> 5
 0.000000e+00 1.000000e+00 0.000000e+00 0.000000e+00 0.000000e+00
 0.000000e+00 6.000000e-01 4.000000e-01 0.000000e+00 0.000000e+00
 0.000000e+00 0.000000e+00 6.000000e-01 4.000000e-01 0.000000e+00
 0.000000e+00 0.000000e+00 0.000000e+00 7.000000e-01 3.000000e-01
 0.000000e+00 0.000000e+00 0.000000e+00 0.000000e+00 0.000000e+00
<ENDHMM>
