~o
<STREAMINFO> 1 25
<VECSIZE> 25<NULLD><MFCC_D_N_Z_0><DIAGC>
~h "a"
<BEGINHMM>
<NUMSTATES> 5
<STATE> 2
<MEAN> 25
 4.303325e+00 -5.911984e+00 -3.457854e+00 -6.221772e+00 -5.657568e+00 -3.523823e+00 3.670878e+00 1.660326e-01 2.756113e+00 -1.989139e+00 4.826826e+00 3.037018e+00 2.615289e-01 -2.721392e-01 -4.570100e-01 -3.026861e-01 -4.771478e-01 -7.742558e-02 3.851788e-01 1.847229e-01 5.785825e-02 -8.020578e-02 7.108530e-01 3.639954e-01 2.582598e-01
<VARIANCE> 25
 9.632507e+00 2.585070e+01 2.288680e+01 2.729776e+01 4.101281e+01 2.415031e+01 4.703554e+01 2.171411e+01 2.934831e+01 2.669820e+01 3.853563e+01 1.860470e+01 6.949685e-01 1.777682e+00 1.159102e+00 2.417413e+00 4.197225e+00 3.166022e+00 2.762587e+00 2.084537e+00 2.014173e+00 1.781077e+00 3.592908e+00 1.771186e+00 2.100345e+00
<GCONST> 9.441718e+01
<STATE> 3
<MEAN> 25
 5.804171e+00 -1.848700e+00 -6.705580e+00 -3.790356e+00 -2.928772e+00 -2.977991e+00 1.441298e+00 1.845590e+00 -3.805200e-01 -2.212239e+00 6.554899e+00 2.507348e+00 -1.839689e-01 1.531606e+00 1.265770e-01 1.912664e+00 1.726977e+00 9.191514e-01 -1.029518e+00 -8.195885e-02 -2.394636e-01 2.880200e-01 -1.645583e+00 -6.030779e-01 -1.873710e+00
<VARIANCE> 25
 7.176930e+00 3.044930e+01 2.773457e+01 3.341950e+01 4.354086e+01 3.030789e+01 4.151683e+01 6.127113e+01 1.833309e+01 4.221128e+01 4.932500e+01 2.353979e+01 9.466462e-01 2.031194e+00 2.774508e+00 3.255820e+00 3.990029e+00 3.311217e+00 3.179040e+00 3.824028e+00 2.330233e+00 3.056500e+00 7.586547e+00 2.634638e+00 1.546531e+00
<GCONST> 1.002288e+02
<STATE> 4
<MEAN> 25
 1.820013e+00 8.071693e+00 -5.560727e+00 2.892797e+00 3.310413e+00 3.118213e+00 8.572286e-01 1.052302e+00 4.307804e-01 3.109078e+00 -2.075027e+00 1.525624e+00 -5.133618e-01 5.100817e-01 3.872740e-01 6.728811e-01 2.935463e-01 2.587135e-01 4.322567e-02 -3.461890e-02 -4.545411e-02 2.899654e-01 -6.042389e-01 -1.294352e-01 -8.366380e-01
<VARIANCE> 25
 2.143915e+01 3.617735e+01 3.731199e+01 3.500473e+01 3.767725e+01 2.607510e+01 3.627452e+01 3.102217e+01 1.659807e+01 2.524335e+01 4.062260e+01 3.099148e+01 6.990772e-01 1.408213e+00 1.658155e+00 2.991436e+00 2.736688e+00 2.293716e+00 2.210651e+00 1.876129e+00 1.594106e+00 1.865074e+00 3.075487e+00 1.716476e+00 8.115355e-01
<GCONST> 9.425687e+01
<TRANSP> 5
 0.000000e+00 1.000000e+00 0.000000e+00 0.000000e+00 0.000000e+00
 0.000000e+00 8.648503e-01 1.351497e-01 0.000000e+00 0.000000e+00
 0.000000e+00 0.000000e+00 7.470514e-01 2.529486e-01 0.000000e+00
 0.000000e+00 0.000000e+00 0.000000e+00 8.151044e-01 1.848956e-01
 0.000000e+00 0.000000e+00 0.000000e+00 0.000000e+00 0.000000e+00
<ENDHMM>
~h "b"
<BEGINHMM>
<NUMSTATES> 5
<STATE> 2
<MEAN> 25
 3.116324e+00 6.144555e+00 4.649870e+00 6.668031e+00 5.098775e+00 1.633036e+00 6.337753e-01 -3.051578e+00 -1.677376e+00 -3.813797e+00 -3.376734e+00 -2.047656e+00 4.252010e-01 8.469783e-01 7.675193e-01 7.107010e-01 3.504197e-01 -1.914895e-01 -3.373863e-01 -3.532866e-01 -4.542567e-01 -8.926073e-01 -5.068558e-01 -1.919203e-01 9.426769e-02
<VARIANCE> 25
 1.909554e+01 1.739005e+01 1.836639e+01 1.110172e+01 1.128641e+01 1.799562e+01 1.847653e+01 2.362763e+01 3.433664e+01 2.407962e+01 1.990180e+01 1.547220e+01 2.127972e+00 2.424745e+00 1.811570e+00 1.604954e+00 1.463084e+00 1.511054e+00 2.442264e+00 3.373638e+00 3.265444e+00 2.625312e+00 2.366712e+00 2.183450e+00 1.913775e+00
<GCONST> 9.096052e+01
<STATE> 3
<MEAN> 25
 1.983009e+00 5.430607e+00 4.556846e+00 6.816189e+00 5.768677e+00 1.645625e+00 3.722976e-01 -2.254170e+00 -1.135695e+00 -3.972871e+00 -3.140447e+00 -1.983939e+00 2.590655e-01 -8.925552e-01 -7.027963e-01 -1.430330e+00 -1.119857e+00 -3.048095e-01 -6.358510e-01 5.253011e-01 3.457823e-01 9.228240e-01 5.998424e-01 7.995801e-02 1.865502e+00
<VARIANCE> 25
 1.515827e+01 1.500067e+01 2.183313e+01 2.037523e+01 1.903187e+01 1.968570e+01 2.727484e+01 2.044998e+01 2.409575e+01 2.187441e+01 1.779836e+01 1.549560e+01 2.685135e+00 1.848826e+00 2.041883e+00 3.411405e+00 4.244650e+00 3.908086e+00 3.228568e+00 3.302552e+00 3.149630e+00 2.462745e+00 2.562634e+00 2.115505e+00 5.062168e+00
<GCONST> 9.568768e+01
<STATE> 4
<MEAN> 25
 7.914079e+00 3.055646e-01 2.782459e+00 -3.592587e+00 -5.374693e+00 -2.711280e+00 -7.673278e+00 -5.346293e-01 -6.374756e+00 -8.358178e-01 -1.916092e+00 -4.463368e+00 5.158610e-01 -7.145193e-01 -4.270803e-02 -1.257847e+00 -1.340144e+00 -2.151241e-01 -7.333502e-01 3.720640e-01 -4.023793e-01 5.766968e-01 2.321181e-01 -3.427351e-01 1.418067e+00
<VARIANCE> 25
 2.823495e+01 3.264000e+01 6.758618e+01 5.170802e+01 7.093279e+01 8.277818e+01 4.056060e+01 4.678246e+01 6.412818e+01 3.050879e+01 3.883383e+01 3.087539e+01 2.498207e+00 3.673865e+00 3.781095e+00 7.391430e+00 7.630380e+00 6.276011e+00 3.401849e+00 5.426752e+00 6.657383e+00 3.844017e+00 3.681729e+00 2.590358e+00 6.539875e+00
<GCONST> 1.115334e+02
<TRANSP> 5
 0.000000e+00 1.000000e+00 0.000000e+00 0.000000e+00 0.000000e+00
 0.000000e+00 7.772717e-01 2.227284e-01 0.000000e+00 0.000000e+00
 0.000000e+00 0.000000e+00 7.203034e-01 2.796966e-01 0.000000e+00
 0.000000e+00 0.000000e+00 0.000000e+00 7.545604e-01 2.454396e-01
 0.000000e+00 0.000000e+00 0.000000e+00 0.000000e+00 0.000000e+00
<ENDHMM>
~h "d"
<BEGINHMM>
<NUMSTATES> 5
<STATE> 2
<MEAN> 25
 2.248015e+00 2.305259e+00 6.117457e+00 3.247590e+00 -6.891666e-02 -4.118585e+00 -2.011413e+00 -1.588463e+00 -1.864030e+00 -1.346018e+00 -2.137181e+00 -1.703712e+00 -7.306776e-03 1.207230e-01 -5.120485e-02 3.234282e-01 -1.622634e-01 -4.300228e-01 -3.721862e-03 -2.444295e-01 -1.036595e-01 3.410455e-02 5.028889e-02 3.490331e-01 1.641075e-01
<VARIANCE> 25
 2.848414e+01 3.358179e+01 3.142355e+01 4.530750e+01 5.801137e+01 5.383465e+01 3.447714e+01 4.304327e+01 2.944938e+01 3.798669e+01 2.841659e+01 1.565757e+01 3.317667e+00 2.720989e+00 4.406978e+00 6.422098e+00 8.049345e+00 6.068024e+00 3.113750e+00 4.999663e+00 3.665173e+00 3.250091e+00 3.710963e+00 2.183819e+00 6.909692e+00
<GCONST> 1.072180e+02
<STATE> 3
<MEAN> 25
 1.557352e+00 2.972704e-01 3.368557e+00 1.974731e+00 -1.254082e+00 -4.438316e+00 -1.274957e+00 -9.816728e-01 -1.043087e+00 2.824405e-01 6.527562e-02 3.991557e-01 -8.642858e-02 -5.161226e-01 -5.170791e-01 -9.137386e-02 2.387227e-01 6.572087e-01 4.261850e-01 9.179432e-01 6.631424e-01 3.855911e-01 2.012972e-01 4.171050e-01 -2.104227e-02
<VARIANCE> 25
 2.986449e+01 2.454138e+01 2.625888e+01 3.826413e+01 5.609142e+01 4.129885e+01 4.439597e+01 5.494576e+01 3.341558e+01 2.807115e+01 3.643061e+01 2.742989e+01 3.022594e+00 2.169628e+00 3.706395e+00 3.455951e+00 6.554510e+00 6.774977e+00 3.461567e+00 5.782092e+00 4.543068e+00 3.794952e+00 3.486989e+00 3.624985e+00 3.954896e+00
<GCONST> 1.067344e+02
<STATE> 4
<MEAN> 25
 -2.731738e+00 -1.006819e+00 -4.689160e-01 2.193577e+00 2.785928e+00 1.836914e+00 3.324967e+00 2.042193e+00 3.597226e+00 1.525013e+00 1.382241e+00 2.635504e+00 2.796087e-03 -8.257335e-02 -1.052623e-01 -9.852892e-02 -8.951841e-03 2.152126e-01 1.784718e-01 1.514450e-01 1.194484e-01 3.136343e-03 4.281782e-02 -1.185510e-01 1.130576e-01
<VARIANCE> 25
 1.765648e+01 1.385715e+01 1.873597e+01 1.608099e+01 2.179883e+01 2.087674e+01 2.283614e+01 2.177438e+01 2.327566e+01 2.234171e+01 1.793469e+01 2.170597e+01 7.516217e-01 7.741514e-01 1.088567e+00 1.386456e+00 1.785084e+00 1.810776e+00 1.929599e+00 2.102739e+00 1.922617e+00 1.816410e+00 1.542947e+00 1.567981e+00 6.305758e-01
<GCONST> 8.581946e+01
<TRANSP> 5
 0.000000e+00 1.000000e+00 0.000000e+00 0.000000e+00 0.000000e+00
 0.000000e+00 7.204368e-01 2.795631e-01 0.000000e+00 0.000000e+00
 0.000000e+00 0.000000e+00 3.243599e-01 6.756402e-01 0.000000e+00
 0.000000e+00 0.000000e+00 0.000000e+00 7.892511e-01 2.107489e-01
 0.000000e+00 0.000000e+00 0.000000e+00 0.000000e+00 0.000000e+00
<ENDHMM>
~h "e"
<BEGINHMM>
<NUMSTATES> 5
<STATE> 2
<MEAN> 25
 -8.024231e+00 -1.026365e+01 1.514397e+01 -1.252063e+01 -2.470046e+00 7.839866e+00 2.480733e-01 3.883051e-01 5.405747e-01 3.695049e+00 1.184085e+00 -1.333347e+00 -9.352227e-01 -1.177573e+00 1.416864e+00 -1.233479e+00 -2.278063e-01 5.829263e-01 -6.984324e-02 4.480071e-01 9.941956e-02 1.022458e-01 -1.802631e-01 -1.535277e-01 5.202962e-01
<VARIANCE> 25
 7.958951e+01 5.927821e+01 1.465658e+02 8.931326e+01 2.745004e+01 4.669633e+01 3.012650e+01 3.642934e+01 2.365645e+01 2.990928e+01 1.721382e+01 1.749146e+01 7.003687e+00 5.630569e+00 1.114088e+01 7.736788e+00 2.419906e+00 6.054353e+00 3.548447e+00 4.314988e+00 1.956923e+00 2.816854e+00 1.384387e+00 1.220050e+00 3.367718e+00
<GCONST> 1.073015e+02
<STATE> 3
<MEAN> 25
 -2.152325e+00 -5.652918e+00 7.451808e+00 -7.278906e+00 1.284333e-01 3.340856e+00 5.459815e-01 -2.237332e+00 -1.661092e+00 1.122799e+00 6.520417e-01 -2.256624e-01 2.828821e+00 2.483397e+00 -2.968281e+00 2.195319e+00 5.306742e-01 -2.353204e+00 3.120731e-01 -1.697668e+00 -8.190089e-01 -1.184035e+00 3.755500e-01 8.240433e-01 3.165604e-01
<VARIANCE> 25
 3.832064e+01 6.101925e+01 7.278584e+01 8.021923e+01 3.522657e+01 5.159747e+01 4.356673e+01 5.047780e+01 2.088935e+01 3.016756e+01 2.294292e+01 1.405557e+01 3.573713e+00 5.442678e+00 7.445754e+00 5.036014e+00 3.811028e+00 5.549550e+00 4.735760e+00 6.590536e+00 2.355596e+00 4.098912e+00 2.486408e+00 1.476263e+00 2.776555e+00
<GCONST> 1.074731e+02
<STATE> 4
<MEAN> 25
 6.687562e+00 -2.722382e+00 -4.519347e+00 -2.608521e+00 -2.121890e+00 -4.393822e+00 -2.822837e-01 -3.854061e+00 -3.556085e+00 -5.861510e+00 4.529050e+00 4.328536e+00 2.988317e-01 3.361842e-01 -8.276048e-01 2.813953e-01 -7.312446e-02 -1.955670e-01 -1.721370e-02 4.658087e-01 2.773992e-01 -3.483562e-01 -2.940600e-01 1.857646e-01 -3.984061e-01
<VARIANCE> 25
 1.116631e+01 2.345652e+01 3.428584e+01 2.503502e+01 2.408640e+01 3.473934e+01 3.591533e+01 4.869361e+01 2.663235e+01 4.120687e+01 3.778221e+01 1.779688e+01 1.361284e+00 2.879411e+00 2.013554e+00 2.020205e+00 3.358376e+00 3.586729e+00 2.091035e+00 3.504893e+00 1.826869e+00 2.620852e+00 4.380820e+00 1.700319e+00 1.977226e+00
<GCONST> 9.748327e+01
<TRANSP> 5
 0.000000e+00 1.000000e+00 0.000000e+00 0.000000e+00 0.000000e+00
 0.000000e+00 7.971153e-01 2.028847e-01 0.000000e+00 0.000000e+00
 0.000000e+00 0.000000e+00 5.710859e-01 4.289142e-01 0.000000e+00
 0.000000e+00 0.000000e+00 0.000000e+00 8.201777e-01 1.798222e-01
 0.000000e+00 0.000000e+00 0.000000e+00 0.000000e+00 0.000000e+00
<ENDHMM>
~h "f"
<BEGINHMM>
<NUMSTATES> 5
<STATE> 2
<MEAN> 25
 -3.246489e+00 1.539101e-01 -1.469786e+00 -8.496462e-01 1.726852e+00 5.914876e+00 4.896984e+00 8.769574e-01 -3.532919e-01 1.069706e+00 -1.625694e+00 -7.611017e-01 -1.253408e+00 3.692869e-01 -2.129035e-01 -9.629409e-01 -9.655393e-01 -2.304147e+00 -1.968495e-01 4.276951e-02 -1.139096e+00 -7.677044e-01 1.649401e-01 6.235524e-01 -2.114776e-01
<VARIANCE> 25
 9.693288e+01 2.063201e+01 1.284692e+01 2.636777e+01 4.706310e+01 8.208249e+01 2.365369e+01 2.684863e+01 2.887448e+01 1.940848e+01 1.173831e+01 7.095018e+00 1.503373e+01 2.085371e+00 1.828207e+00 6.074513e+00 9.095378e+00 6.551136e+00 2.854133e+00 4.581561e+00 3.545639e+00 2.262000e+00 1.004864e+00 3.008131e+00 1.584281e+00
<GCONST> 1.009961e+02
<STATE> 3
<MEAN> 25
 -4.162926e+00 1.627312e+00 -4.304369e+00 -2.891043e+00 -2.911382e+00 1.210099e+00 1.007259e+00 1.076248e-01 -7.611400e-01 -1.220395e+00 6.155055e-01 8.316170e-02 -7.592146e-02 -3.133096e-01 -3.528065e-01 -1.256583e-01 -2.436876e-01 -3.403255e-01 -5.090557e-01 -2.304528e-01 -8.546238e-02 2.647822e-01 6.285856e-01 3.053520e-01 -3.183374e-01
<VARIANCE> 25
 1.645215e+02 2.656210e+01 9.289442e+00 6.628947e+01 6.643209e+01 2.296483e+01 1.438260e+01 2.499799e+01 3.857492e+01 2.945299e+01 1.157294e+01 9.729653e+00 1.710364e+00 9.211742e-01 7.904394e-01 1.245024e+00 1.924419e+00 2.183291e+00 1.879462e+00 1.719016e+00 1.621241e+00 2.937767e+00 9.841766e-01 1.119085e+00 1.415481e+00
<GCONST> 9.077821e+01
<STATE> 4
<MEAN> 25
 -5.914605e+00 -2.974751e+00 -3.835856e+00 -2.331073e+00 8.591630e-02 2.824636e-01 8.074551e-01 9.693490e-01 1.603351e+00 2.907484e+00 -9.762026e-01 9.389769e-01 2.073996e-01 2.971130e-02 -1.533068e-03 -3.100795e-02 2.254030e-02 1.450232e-02 -8.448973e-02 -1.729341e-01 -5.427565e-03 -6.985553e-02 -1.773055e-01 -1.318232e-02 -1.215637e-01
<VARIANCE> 25
 3.317336e+01 1.032172e+01 8.811509e+00 1.047386e+01 1.570706e+01 1.193984e+01 1.290657e+01 1.684018e+01 1.516990e+01 1.715551e+01 1.312173e+01 1.423105e+01 1.703460e+00 8.242730e-01 8.178905e-01 9.219319e-01 1.225519e+00 1.249295e+00 1.359225e+00 1.466808e+00 1.529614e+00 1.731274e+00 1.360456e+00 1.350616e+00 1.625279e+00
<GCONST> 8.095567e+01
<TRANSP> 5
 0.000000e+00 1.000000e+00 0.000000e+00 0.000000e+00 0.000000e+00
 0.000000e+00 5.264115e-01 4.735885e-01 0.000000e+00 0.000000e+00
 0.000000e+00 0.000000e+00 6.521660e-01 3.478341e-01 0.000000e+00
 0.000000e+00 0.000000e+00 0.000000e+00 9.227408e-01 7.725917e-02
 0.000000e+00 0.000000e+00 0.000000e+00 0.000000e+00 0.000000e+00
<ENDHMM>
~h "g"
<BEGINHMM>
<NUMSTATES> 5
<STATE> 2
<MEAN> 25
 4.342681e-01 2.638473e+00 5.606634e+00 3.544119e+00 4.276261e+00 -3.142378e-01 -1.599318e-01 -1.024608e+00 2.519138e+00 5.325548e-01 -4.969215e+00 -3.848093e+00 3.680778e-01 -4.212504e-01 4.112553e-01 -1.749504e-01 2.709905e-01 -1.304355e+00 -7.076048e-01 -1.375463e+00 -3.966419e-01 -3.335763e-01 -7.907669e-02 -3.382272e-01 1.865837e+00
<VARIANCE> 25
 1.708171e+01 1.148591e+02 3.577709e+01 4.762339e+01 3.282403e+01 3.580987e+01 3.623788e+01 5.859737e+01 2.282312e+01 2.178195e+01 2.539082e+01 2.531366e+01 2.961762e+00 1.057549e+01 5.317813e+00 6.286663e+00 4.634818e+00 3.692217e+00 4.371998e+00 8.034083e+00 2.147787e+00 2.727148e+00 3.198411e+00 2.876900e+00 6.053185e+00
<GCONST> 1.075142e+02
<STATE> 3
<MEAN> 25
 2.049392e+00 -2.101476e+00 2.434458e+00 3.266657e+00 4.694626e+00 -5.758834e+00 -6.219293e+00 -8.533261e+00 -1.781856e+00 -1.714525e+00 1.599293e-01 -2.410589e+00 1.834688e-01 2.110081e-01 4.324969e-02 -4.091548e-01 -1.275838e+00 -4.730901e-02 -6.631296e-01 -7.748179e-01 -6.141291e-01 1.708945e-01 1.088702e+00 5.992728e-01 3.783197e-01
<VARIANCE> 25
 2.898452e+01 2.842942e+01 4.116127e+01 3.526165e+01 4.016871e+01 3.845063e+01 4.839536e+01 4.414633e+01 2.969404e+01 1.734149e+01 5.834798e+01 1.701485e+01 2.551419e+00 2.478682e+00 4.619057e+00 1.921025e+00 3.264935e+00 3.786852e+00 3.510188e+00 3.040540e+00 2.668281e+00 1.700919e+00 2.699508e+00 1.317876e+00 2.385479e+00
<GCONST> 1.006563e+02
<STATE> 4
<MEAN> 25
 2.507603e+00 1.765481e+00 8.900830e+00 -2.366036e+00 -6.802179e+00 -4.097059e+00 -3.932955e+00 -5.464025e+00 -8.324553e+00 2.563673e-01 5.270680e-01 -2.424775e+00 2.842156e-01 -9.677055e-02 1.231114e-01 -8.281919e-03 -3.913893e-01 -2.449633e-01 2.115785e-01 9.362987e-01 -1.303258e-01 -9.463427e-02 3.133584e-01 6.358311e-03 2.455473e-01
<VARIANCE> 25
 4.077699e+01 1.803339e+01 9.186135e+01 2.748338e+01 7.376534e+01 4.556926e+01 3.751868e+01 3.431087e+01 7.721925e+01 2.104555e+01 3.489702e+01 2.791442e+01 4.217869e+00 2.547694e+00 5.390562e+00 3.024947e+00 5.158789e+00 5.863019e+00 5.586867e+00 3.449011e+00 7.312468e+00 3.409022e+00 3.407604e+00 2.464340e+00 2.005955e+00
<GCONST> 1.075104e+02
<TRANSP> 5
 0.000000e+00 1.000000e+00 0.000000e+00 0.000000e+00 0.000000e+00
 0.000000e+00 8.076222e-01 1.923779e-01 0.000000e+00 0.000000e+00
 0.000000e+00 0.000000e+00 7.368977e-01 2.631023e-01 0.000000e+00
 0.000000e+00 0.000000e+00 0.000000e+00 8.518874e-01 1.481126e-01
 0.000000e+00 0.000000e+00 0.000000e+00 0.000000e+00 0.000000e+00
<ENDHMM>
~h "i"
<BEGINHMM>
<NUMSTATES> 5
<STATE> 2
<MEAN> 25
 2.995657e+00 -1.459240e+00 4.533140e+00 9.464397e+00 8.177041e+00 -8.542268e+00 -8.721245e+00 4.428944e-02 -4.827713e+00 -4.082685e+00 2.861579e+00 -7.644052e+00 -2.907416e-01 1.723606e-01 1.263784e-02 7.113639e-01 -6.884232e-02 -3.467617e-01 -1.896219e-01 -2.292285e-02 -9.780125e-03 6.941956e-02 -5.149953e-01 -1.979859e-01 -5.827047e-01
<VARIANCE> 25
 7.240451e+00 1.610643e+01 3.623802e+01 3.877956e+01 3.165128e+01 5.311107e+01 3.340385e+01 3.594236e+01 2.097816e+01 2.831434e+01 3.062849e+01 3.738187e+01 6.906915e-01 1.290095e+00 1.698185e+00 3.299430e+00 3.489848e+00 5.171103e+00 3.347243e+00 1.914039e+00 1.560309e+00 1.511008e+00 1.879342e+00 1.838367e+00 9.478848e-01
<GCONST> 9.430375e+01
<STATE> 3
<MEAN> 25
 9.639201e-01 8.313190e-01 4.625259e+00 1.320694e+01 4.953687e+00 -4.382315e+00 -5.588797e+00 1.872261e+00 -8.196692e-01 -1.197787e+00 -1.296484e+00 -5.601629e+00 -3.727583e-01 7.262409e-01 -1.730989e-01 8.325993e-02 -2.467913e-01 8.389397e-01 8.583064e-01 7.644610e-01 7.586377e-01 6.089149e-01 -2.907657e-01 6.868268e-01 -1.029676e+00
<VARIANCE> 25
 1.088870e+01 3.837078e+01 3.463784e+01 2.727772e+01 2.143991e+01 3.857057e+01 2.553767e+01 6.173956e+01 2.783336e+01 3.041371e+01 2.784308e+01 2.813426e+01 6.153026e-01 1.708280e+00 1.181147e+00 2.289272e+00 1.487743e+00 3.243061e+00 3.014880e+00 1.534543e+00 9.867589e-01 6.423161e-01 1.085851e+00 1.645338e+00 6.177369e-01
<GCONST> 9.011125e+01
<STATE> 4
<MEAN> 25
 -3.112506e+00 5.889245e+00 -1.108140e+00 8.041903e+00 2.175331e+00 -9.532081e-01 -1.890550e+00 2.609506e+00 3.511689e+00 3.169776e+00 -3.620842e+00 1.604687e+00 -2.075475e-01 1.381898e-01 -4.045579e-01 -5.463871e-01 -1.654968e-01 4.177379e-01 2.320901e-01 -8.889497e-02 2.086155e-01 1.446764e-01 -5.130639e-02 2.876762e-01 -3.162382e-01
<VARIANCE> 25
 1.702106e+01 2.973267e+01 2.623244e+01 2.269608e+01 1.724358e+01 4.637115e+01 3.292225e+01 3.609100e+01 2.294001e+01 1.392777e+01 1.862642e+01 1.084748e+01 4.501323e-01 8.773838e-01 1.237466e+00 1.133015e+00 1.365903e+00 2.571972e+00 2.584547e+00 1.601153e+00 1.623366e+00 1.033782e+00 1.289025e+00 1.027652e+00 1.969852e-01
<GCONST> 8.466236e+01
<TRANSP> 5
 0.000000e+00 1.000000e+00 0.000000e+00 0.000000e+00 0.000000e+00
 0.000000e+00 8.338727e-01 1.661274e-01 0.000000e+00 0.000000e+00
 0.000000e+00 0.000000e+00 7.686001e-01 2.313998e-01 0.000000e+00
 0.000000e+00 0.000000e+00 0.000000e+00 8.785574e-01 1.214425e-01
 0.000000e+00 0.000000e+00 0.000000e+00 0.000000e+00 0.000000e+00
<ENDHMM>
~h "j"
<BEGINHMM>
<NUMSTATES> 5
<STATE> 2
<MEAN> 25
 -6.163418e+00 -1.017839e+01 1.226307e+01 -3.822531e+00 -3.685013e-02 2.983974e+00 3.013094e+00 1.460992e+00 2.206192e+00 8.431102e-01 -4.262427e+00 -6.115830e+00 1.940992e+00 5.297928e-01 -8.554820e-01 2.230237e+00 1.773968e+00 -1.422467e+00 1.032186e-01 -9.927244e-01 -8.545750e-01 -1.066150e+00 8.453885e-02 -6.894356e-01 6.146715e-01
<VARIANCE> 25
 5.556532e+01 1.445836e+02 6.028414e+01 1.059502e+02 5.568306e+01 3.560514e+01 2.745237e+01 2.971685e+01 1.245361e+01 1.071688e+01 1.655526e+01 9.221177e+00 7.222218e+00 1.802888e+01 8.657644e+00 8.878810e+00 6.779246e+00 3.580277e+00 3.327009e+00 2.412743e+00 1.521705e+00 2.365918e+00 1.379206e+00 9.900959e-01 7.427517e+00
<GCONST> 1.059999e+02
<STATE> 3
<MEAN> 25
 3.960285e+00 -1.812790e+00 3.194281e+00 7.680596e+00 3.573612e+00 -3.903281e+00 -2.539388e+00 -4.407156e+00 -3.180923e-01 -3.698090e+00 -4.040352e+00 -7.396991e+00 6.279925e-02 3.534207e-01 -6.859858e-01 4.220420e-01 -9.519995e-02 2.146986e-01 1.012329e-01 -2.272823e-01 -6.314089e-01 5.463685e-01 6.141031e-01 6.316022e-01 -8.888292e-01
<VARIANCE> 25
 2.834507e+00 6.072212e+01 6.966417e+00 1.689357e+01 2.130546e+01 2.041438e+01 3.892007e+01 5.018031e+01 1.266525e+01 9.767919e+00 1.976736e+01 9.871070e+00 1.179686e+00 2.296449e+00 1.632475e+00 1.895473e+00 2.725770e+00 3.297185e+00 2.363146e+00 1.770929e+00 1.224597e+00 1.841436e+00 1.234774e+00 1.078023e+00 1.716102e+00
<GCONST> 8.699981e+01
<STATE> 4
<MEAN> 25
 -9.729778e-01 2.449299e+00 4.327213e+00 7.888810e+00 5.677860e+00 4.251830e+00 3.617207e+00 2.277667e+00 7.748086e-01 3.412185e+00 -2.177646e+00 -1.537190e+00 -5.723775e-01 -1.455805e+00 6.718914e-01 -1.113112e+00 2.641162e-02 -1.232427e-01 1.622701e-01 4.459312e-01 -3.313715e-01 -1.085992e-02 1.042567e+00 3.818480e-01 8.907605e-01
<VARIANCE> 25
 1.887971e+01 1.161165e+02 6.966312e+01 4.967944e+01 4.577521e+01 4.806735e+01 3.223426e+01 3.282346e+01 1.278774e+01 2.396393e+01 2.409795e+01 1.485538e+01 3.504542e+00 1.983208e+01 9.585752e+00 6.689858e+00 5.640362e+00 1.282058e+01 3.813239e+00 3.532636e+00 3.825724e+00 4.942601e+00 4.173111e+00 2.324585e+00 1.543287e+01
<GCONST> 1.112870e+02
<TRANSP> 5
 0.000000e+00 1.000000e+00 0.000000e+00 0.000000e+00 0.000000e+00
 0.000000e+00 7.000231e-01 2.999769e-01 0.000000e+00 0.000000e+00
 0.000000e+00 0.000000e+00 7.748826e-01 2.251174e-01 0.000000e+00
 0.000000e+00 0.000000e+00 0.000000e+00 8.583471e-01 1.416529e-01
 0.000000e+00 0.000000e+00 0.000000e+00 0.000000e+00 0.000000e+00
<ENDHMM>
~h "k"
<BEGINHMM>
<NUMSTATES> 5
<STATE> 2
<MEAN> 25
 -5.896422e+00 -1.145599e+00 -1.917903e+00 -4.932509e-01 1.363888e+00 -1.425253e+00 2.881670e+00 6.008649e-01 2.124050e+00 2.113468e+00 -3.241271e-01 4.183641e+00 2.235279e-02 -6.085308e-01 -6.568582e-02 -8.105877e-01 9.842222e-02 -7.374960e-01 -1.180639e-01 -3.662925e-01 -5.567796e-01 7.556991e-02 -2.905338e-01 -6.944583e-03 1.972836e+00
<VARIANCE> 25
 2.657626e+01 4.001801e+01 4.370505e+01 5.606211e+01 2.684127e+01 4.608348e+01 2.882142e+01 3.634974e+01 4.002945e+01 1.886975e+01 2.921190e+01 2.163269e+01 3.014311e+00 4.513073e+00 5.429396e+00 5.227180e+00 3.042758e+00 5.738791e+00 3.559252e+00 3.783544e+00 4.160860e+00 1.802117e+00 4.519724e+00 2.702428e+00 9.184578e+00
<GCONST> 1.060219e+02
<STATE> 3
<MEAN> 25
 -2.716525e+00 -2.897278e+00 -1.407632e+00 -3.609792e+00 1.988487e+00 -2.870325e+00 1.000408e+00 -1.152278e+00 -9.098792e-01 1.537796e+00 -1.447287e+00 9.533147e-01 8.014452e-01 1.642273e-01 5.964658e-01 3.205907e-01 -1.024452e-01 2.607964e-01 -1.204448e-01 -1.977948e-03 -3.532737e-01 -7.242379e-01 3.459855e-01 -9.611110e-01 1.226061e+00
<VARIANCE> 25
 5.576910e+01 4.211477e+01 9.778272e+01 6.152743e+01 6.068067e+01 7.297637e+01 3.459218e+01 4.660878e+01 5.669252e+01 2.740727e+01 4.237259e+01 2.958344e+01 4.509917e+00 6.036179e+00 5.768977e+00 5.968461e+00 4.924984e+00 9.285163e+00 4.829609e+00 4.402287e+00 5.926565e+00 3.584898e+00 4.282101e+00 4.371264e+00 6.745714e+00
<GCONST> 1.142914e+02
<STATE> 4
<MEAN> 25
 2.135027e+00 -2.199388e+00 4.402803e-02 -4.458524e-01 -3.011880e+00 4.767626e-01 2.095474e+00 -1.360599e+00 -2.871898e+00 -8.482953e-01 1.529846e-01 -2.907159e+00 2.216761e-01 -1.303537e-02 1.282184e-01 2.947376e-01 -2.017208e-01 2.032873e-01 -1.766267e-01 -5.110219e-02 2.011562e-01 -1.837063e-01 2.285111e-01 -2.652999e-01 -6.070028e-02
<VARIANCE> 25
 6.744375e+01 3.927192e+01 8.198014e+01 4.520995e+01 6.769198e+01 6.229071e+01 6.042449e+01 5.145130e+01 5.352636e+01 3.552147e+01 2.521092e+01 4.350113e+01 2.938545e+00 2.592299e+00 3.507017e+00 3.617788e+00 3.785467e+00 5.238168e+00 4.146390e+00 3.970222e+00 4.520279e+00 3.248700e+00 2.627317e+00 3.056774e+00 3.366376e+00
<GCONST> 1.093290e+02
<TRANSP> 5
 0.000000e+00 1.000000e+00 0.000000e+00 0.000000e+00 0.000000e+00
 0.000000e+00 7.892978e-01 2.107022e-01 0.000000e+00 0.000000e+00
 0.000000e+00 0.000000e+00 6.108782e-01 3.891218e-01 0.000000e+00
 0.000000e+00 0.000000e+00 0.000000e+00 7.659060e-01 2.340940e-01
 0.000000e+00 0.000000e+00 0.000000e+00 0.000000e+00 0.000000e+00
<ENDHMM>
~h "l"
<BEGINHMM>
<NUMSTATES> 5
<STATE> 2
<MEAN> 25
 1.036531e+01 5.032588e+00 -6.105150e+00 -1.393810e+01 -5.156349e+00 5.024595e+00 -3.060661e+00 -9.351467e-01 -7.406754e+00 6.876059e-01 7.655088e-01 -4.887669e+00 5.087684e-02 6.937966e-01 7.385399e-02 -1.360744e-01 -1.815641e-01 6.690111e-03 8.058840e-02 2.458653e-02 -4.500290e-01 -1.605223e-01 4.724654e-02 4.900453e-01 -5.193772e-01
<VARIANCE> 25
 1.433639e+01 2.420186e+01 1.892612e+01 6.992785e+01 2.734180e+01 4.506093e+01 2.889956e+01 2.861340e+01 4.262784e+01 3.424651e+01 2.371609e+01 3.764643e+01 6.254234e-01 1.253951e+00 9.659386e-01 3.727649e+00 1.415234e+00 3.017130e+00 1.629022e+00 2.115044e+00 2.673324e+00 2.386086e+00 2.043404e+00 1.756599e+00 6.283767e-01
<GCONST> 9.329189e+01
<STATE> 3
<MEAN> 25
 6.501509e+00 5.490265e+00 -3.605550e+00 -4.289815e+00 -1.752275e+00 2.834605e+00 -1.484320e+00 -1.543460e+00 -3.686062e+00 -4.580830e-01 -1.298558e+00 -1.964173e+00 -7.291032e-01 -4.698873e-01 7.110962e-01 1.369417e+00 5.498696e-01 -1.234015e-01 2.080347e-01 -4.280547e-02 9.080233e-01 -1.095663e-01 -2.979661e-01 1.430019e-01 -5.144920e-01
<VARIANCE> 25
 1.453619e+01 3.606958e+01 2.201389e+01 4.364627e+01 2.982717e+01 3.673140e+01 3.568393e+01 3.899151e+01 4.271384e+01 4.038459e+01 3.551800e+01 3.132697e+01 1.034498e+00 1.703168e+00 1.362954e+00 3.649102e+00 2.900894e+00 2.932454e+00 2.389982e+00 3.443582e+00 3.519253e+00 3.049516e+00 2.885759e+00 2.270784e+00 1.082062e+00
<GCONST> 9.853260e+01
<STATE> 4
<MEAN> 25
 -1.853048e+00 -4.076999e-01 -6.670703e-01 1.946124e+00 2.532589e+00 2.359342e+00 2.260176e+00 7.751920e-01 2.806941e+00 6.477744e-01 3.957777e-01 1.675483e+00 -2.391359e-01 -2.342462e-01 1.059102e-01 1.221080e-01 1.186650e-03 -1.278561e-01 3.499326e-02 4.826717e-02 2.169775e-01 9.054083e-02 6.236514e-02 8.577098e-02 -1.222389e-01
<VARIANCE> 25
 2.702347e+01 2.564537e+01 1.470303e+01 2.170179e+01 2.221309e+01 2.199901e+01 2.010456e+01 2.588415e+01 3.071213e+01 2.110287e+01 2.923656e+01 2.683788e+01 4.541205e-01 7.337751e-01 7.466674e-01 1.295071e+00 1.054690e+00 1.380591e+00 1.340721e+00 1.635516e+00 1.803687e+00 1.802137e+00 1.947135e+00 1.521219e+00 3.185039e-01
<GCONST> 8.498797e+01
<TRANSP> 5
 0.000000e+00 1.000000e+00 0.000000e+00 0.000000e+00 0.000000e+00
 0.000000e+00 8.283075e-01 1.716925e-01 0.000000e+00 0.000000e+00
 0.000000e+00 0.000000e+00 6.846420e-01 3.153580e-01 0.000000e+00
 0.000000e+00 0.000000e+00 0.000000e+00 8.862882e-01 1.137118e-01
 0.000000e+00 0.000000e+00 0.000000e+00 0.000000e+00 0.000000e+00
<ENDHMM>
~h "m"
<BEGINHMM>
<NUMSTATES> 5
<STATE> 2
<MEAN> 25
 3.921136e+00 3.006616e+00 5.032787e+00 4.698436e+00 5.838404e-01 -9.763423e-02 3.048030e-01 -7.217214e+00 -5.137745e+00 -3.267110e-01 6.340750e-01 -2.682661e+00 1.647782e+00 1.191842e+00 1.327946e+00 1.593401e+00 5.369677e-01 -7.674277e-01 -6.318812e-01 -2.041895e+00 -1.783081e+00 1.247425e-01 4.471715e-03 -5.272698e-01 4.515805e-02
<VARIANCE> 25
 4.640379e+01 1.783774e+01 2.029404e+01 2.897567e+01 2.541995e+01 2.784484e+01 2.313293e+01 4.721296e+01 4.637151e+01 2.197539e+01 2.751989e+01 3.208517e+01 4.182444e+00 2.412134e+00 3.486638e+00 2.506385e+00 2.118881e+00 3.480611e+00 2.432158e+00 4.020886e+00 3.700164e+00 2.600035e+00 3.318331e+00 3.130229e+00 2.440980e+00
<GCONST> 1.005648e+02
<STATE> 3
<MEAN> 25
 8.027100e+00 4.529433e+00 7.250850e+00 8.042320e+00 1.931404e+00 -2.727533e+00 -1.970089e+00 -1.222856e+01 -1.092671e+01 2.762958e-02 -1.262675e+00 -6.077940e+00 1.345059e-02 9.249335e-02 -2.269086e-02 1.289781e-01 1.597284e-01 -2.075731e-01 -1.501662e-01 1.031114e-02 8.363147e-02 -4.516407e-02 -1.194443e-01 -1.303310e-01 -8.228351e-02
<VARIANCE> 25
 9.366901e+00 8.293737e+00 1.804891e+01 1.110839e+01 1.297336e+01 4.229396e+01 2.787226e+01 5.358217e+01 3.892196e+01 2.028865e+01 4.089771e+01 2.613313e+01 6.206450e-01 7.563974e-01 1.156327e+00 1.626368e+00 1.103323e+00 1.391084e+00 1.484739e+00 2.830864e+00 2.617119e+00 1.933029e+00 1.662335e+00 1.691239e+00 5.911137e-01
<GCONST> 8.673143e+01
<STATE> 4
<MEAN> 25
 4.275002e+00 1.527137e+00 8.832330e+00 1.487324e+00 -4.008569e+00 -3.494164e+00 -3.470909e+00 -3.209977e+00 -6.141248e+00 -4.399601e+00 -7.836052e-01 -6.254865e+00 -4.460823e-01 -4.894534e-01 -3.492077e-01 -6.966258e-01 -2.578573e-01 2.038538e-01 4.112163e-01 1.462068e+00 6.946816e-01 -4.059404e-01 -3.248889e-01 2.326840e-01 3.631721e-01
<VARIANCE> 25
 3.897103e+01 5.516471e+01 6.283278e+01 5.833475e+01 6.574833e+01 6.623161e+01 5.885743e+01 1.215157e+02 4.587685e+01 2.975368e+01 3.652634e+01 2.989696e+01 1.928987e+00 1.810457e+00 3.411469e+00 3.566305e+00 5.569418e+00 3.774375e+00 3.405789e+00 6.219451e+00 3.592668e+00 2.723865e+00 2.208366e+00 2.847470e+00 2.254035e+00
<GCONST> 1.080759e+02
<TRANSP> 5
 0.000000e+00 1.000000e+00 0.000000e+00 0.000000e+00 0.000000e+00
 0.000000e+00 5.011174e-01 4.988826e-01 0.000000e+00 0.000000e+00
 0.000000e+00 0.000000e+00 8.220364e-01 1.779636e-01 0.000000e+00
 0.000000e+00 0.000000e+00 0.000000e+00 8.028769e-01 1.971231e-01
 0.000000e+00 0.000000e+00 0.000000e+00 0.000000e+00 0.000000e+00
<ENDHMM>
~h "n"
<BEGINHMM>
<NUMSTATES> 5
<STATE> 2
<MEAN> 25
 6.466896e+00 1.735198e+00 4.943686e+00 3.782803e+00 -2.145799e+00 -3.723590e+00 -2.325792e+00 -6.244301e+00 -7.759900e+00 -1.761836e+00 -6.312973e+00 -5.928353e+00 -2.357387e-01 3.374538e-01 -2.752629e-02 4.142068e-01 2.577446e-01 5.736770e-02 -3.434337e-02 -2.217658e-01 1.934369e-01 -1.406765e-01 -1.740048e-01 2.746113e-01 -6.634990e-01
<VARIANCE> 25
 1.107665e+01 2.181948e+01 3.032697e+01 3.323700e+01 2.542892e+01 1.921414e+01 2.249600e+01 7.922288e+01 3.842897e+01 2.897865e+01 2.006543e+01 1.817831e+01 6.040123e-01 1.172622e+00 1.466376e+00 2.459306e+00 1.606691e+00 1.819511e+00 1.417042e+00 5.310240e+00 2.114333e+00 2.222477e+00 1.507143e+00 1.264250e+00 1.077091e+00
<GCONST> 9.123705e+01
<STATE> 3
<MEAN> 25
 1.968324e+00 3.825919e+00 2.094483e+00 5.925768e+00 2.511031e+00 -8.786747e-01 -6.458731e-01 -2.305418e+00 -1.414815e+00 -3.247502e+00 -4.739488e+00 -2.092658e+00 -8.716496e-01 -3.777218e-01 -6.335102e-01 -1.089759e-01 6.436870e-01 7.935833e-01 6.579841e-01 7.821694e-01 1.075069e+00 5.319389e-01 6.626654e-01 7.048880e-01 -6.339705e-01
<VARIANCE> 25
 1.697429e+01 2.334883e+01 2.595885e+01 2.867752e+01 2.081775e+01 2.715881e+01 2.720031e+01 4.756261e+01 3.529079e+01 3.171684e+01 3.268105e+01 2.244213e+01 1.329234e+00 1.371571e+00 1.432548e+00 1.881287e+00 1.671403e+00 2.576820e+00 2.400203e+00 3.203120e+00 2.689159e+00 2.795596e+00 2.826989e+00 2.151782e+00 9.621678e-01
<GCONST> 9.453887e+01
<STATE> 4
<MEAN> 25
 -3.397890e+00 -2.062953e+00 -3.134398e+00 1.292359e+00 3.312373e+00 2.335821e+00 3.063272e+00 2.626102e+00 4.391978e+00 1.938997e+00 1.773753e+00 3.458235e+00 -6.966059e-02 -3.917546e-02 -5.105721e-02 -6.691220e-02 1.097662e-02 4.699170e-02 9.816252e-02 1.034697e-03 4.642935e-02 9.517337e-02 1.279297e-01 5.609029e-02 -5.205721e-02
<VARIANCE> 25
 8.212722e+00 1.225248e+01 1.219534e+01 1.738004e+01 1.171137e+01 1.475580e+01 1.589181e+01 1.860002e+01 2.224820e+01 1.716804e+01 2.200126e+01 1.733456e+01 3.323122e-01 5.148974e-01 6.341565e-01 8.684956e-01 9.645461e-01 1.266875e+00 1.295614e+00 1.618283e+00 1.640798e+00 1.708230e+00 1.467183e+00 1.321118e+00 2.301978e-01
<GCONST> 7.744754e+01
<TRANSP> 5
 0.000000e+00 1.000000e+00 0.000000e+00 0.000000e+00 0.000000e+00
 0.000000e+00 8.475606e-01 1.524394e-01 0.000000e+00 0.000000e+00
 0.000000e+00 0.000000e+00 7.112921e-01 2.887079e-01 0.000000e+00
 0.000000e+00 0.000000e+00 0.000000e+00 9.251168e-01 7.488325e-02
 0.000000e+00 0.000000e+00 0.000000e+00 0.000000e+00 0.000000e+00
<ENDHMM>
~h "p"
<BEGINHMM>
<NUMSTATES> 5
<STATE> 2
<MEAN> 25
 9.249391e-01 2.269271e+00 -2.935065e+00 -2.614624e+00 2.565938e+00 9.314418e-01 2.795989e-01 5.305215e-01 2.662941e+00 1.479050e-01 -1.691415e-01 -1.087944e+00 -2.677344e-01 -4.098269e-02 -2.213757e-01 -1.800684e-01 2.172652e-01 -2.304720e-01 9.647444e-02 2.647056e-01 3.691089e-01 8.747642e-02 -2.180408e-01 5.599849e-02 5.374342e-01
<VARIANCE> 25
 4.056853e+01 2.397257e+01 4.705798e+01 6.160936e+01 5.021967e+01 4.350515e+01 3.675459e+01 1.983618e+01 3.768869e+01 3.057956e+01 2.814568e+01 2.992402e+01 4.411339e+00 3.404601e+00 3.843076e+00 7.181091e+00 3.735991e+00 4.960769e+00 4.248417e+00 3.237804e+00 4.344014e+00 2.830795e+00 3.878794e+00 3.199462e+00 8.485238e+00
<GCONST> 1.076001e+02
<STATE> 3
<MEAN> 25
 1.526151e+00 1.108555e+00 -2.392159e+00 -1.263458e+00 2.372698e+00 1.020669e-01 -4.926694e-01 9.036341e-02 1.644198e+00 4.820203e-01 -2.024682e+00 -2.102532e+00 -4.696251e-01 -8.343160e-01 3.153055e-01 1.066248e+00 2.263900e-01 1.624720e-01 -5.387787e-02 2.370653e-01 1.034992e-01 1.012810e-01 -3.071092e-02 3.620564e-01 1.789078e-01
<VARIANCE> 25
 3.904466e+01 2.657188e+01 6.100409e+01 3.408306e+01 2.921959e+01 2.765270e+01 5.504435e+01 3.622333e+01 3.398253e+01 4.117728e+01 4.900610e+01 2.936729e+01 7.617860e+00 4.197130e+00 4.798563e+00 4.741508e+00 4.605044e+00 3.307737e+00 6.340033e+00 5.664836e+00 6.162985e+00 5.304537e+00 4.820511e+00 4.206113e+00 8.284801e+00
<GCONST> 1.108443e+02
<STATE> 4
<MEAN> 25
 -2.422357e-01 -1.165095e+00 -1.355100e+00 -2.680972e-01 1.657051e+00 1.398206e+00 -4.107585e-01 -8.981882e-01 1.575981e+00 4.090924e-01 -9.452996e-01 -1.727126e+00 -2.004984e-01 -2.355100e-01 3.809046e-01 7.471422e-02 -3.219014e-01 1.544025e-01 2.083016e-01 -1.270426e-01 -1.426232e-01 1.177182e-01 2.333222e-01 2.755764e-01 5.499994e-01
<VARIANCE> 25
 2.701816e+01 2.012714e+01 3.092649e+01 2.512366e+01 2.714150e+01 1.770106e+01 4.129521e+01 3.671911e+01 2.885669e+01 2.814822e+01 2.951122e+01 2.611957e+01 3.316740e+00 1.912642e+00 4.021478e+00 2.181489e+00 3.245785e+00 2.331435e+00 4.679240e+00 2.716582e+00 3.333466e+00 3.119704e+00 2.034589e+00 2.460649e+00 3.109382e+00
<GCONST> 9.941932e+01
<TRANSP> 5
 0.000000e+00 1.000000e+00 0.000000e+00 0.000000e+00 0.000000e+00
 0.000000e+00 6.083722e-01 3.916278e-01 0.000000e+00 0.000000e+00
 0.000000e+00 0.000000e+00 5.891762e-01 4.108237e-01 0.000000e+00
 0.000000e+00 0.000000e+00 0.000000e+00 7.632922e-01 2.367078e-01
 0.000000e+00 0.000000e+00 0.000000e+00 0.000000e+00 0.000000e+00
<ENDHMM>
~h "r"
<BEGINHMM>
<NUMSTATES> 5
<STATE> 2
<MEAN> 25
 7.916254e+00 -2.126018e+00 -4.988131e+00 4.356722e+00 8.865718e-01 -4.881598e+00 -8.398022e+00 2.115472e-01 1.723936e+00 -4.918410e+00 1.484386e-01 1.275830e+00 1.018307e+00 -3.153064e-01 -3.346029e-01 6.099936e-01 -4.302976e-01 -1.124711e+00 -1.391714e+00 8.108650e-01 6.337508e-02 -8.394224e-01 -4.400029e-02 -2.051296e-01 8.995374e-01
<VARIANCE> 25
 6.681870e+01 3.169633e+01 7.122684e+01 3.169075e+01 3.918324e+01 9.277460e+01 8.028560e+01 7.802032e+01 5.857124e+01 6.324371e+01 2.506778e+01 3.564970e+01 4.493066e+00 3.331635e+00 6.265256e+00 2.331750e+00 4.720021e+00 4.241336e+00 5.678567e+00 6.644346e+00 6.960013e+00 6.178762e+00 3.021069e+00 3.528607e+00 3.471101e+00
<GCONST> 1.126676e+02
<STATE> 3
<MEAN> 25
 7.291106e+00 -2.249956e+00 -2.169524e+00 6.360149e+00 -1.592603e+00 -7.011206e+00 -8.125132e+00 2.796434e+00 -1.299961e+00 -6.079847e+00 4.443263e-01 1.803402e+00 -8.293295e-01 1.121205e-01 1.614563e+00 -3.412091e-01 -9.743876e-01 1.633459e-01 1.586858e+00 -2.247304e-01 -1.235508e+00 6.229326e-01 1.671625e-01 -3.163773e-01 -4.811231e-01
<VARIANCE> 25
 5.933449e+01 4.020554e+01 6.100838e+01 4.905556e+01 5.736591e+01 8.131945e+01 7.924737e+01 5.403527e+01 5.549192e+01 8.777546e+01 4.054097e+01 3.753712e+01 3.100841e+00 3.148119e+00 5.034700e+00 3.403590e+00 5.824748e+00 4.782865e+00 6.230749e+00 6.561737e+00 6.325174e+00 6.265279e+00 3.909689e+00 3.169145e+00 3.698183e+00
<GCONST> 1.140187e+02
<STATE> 4
<MEAN> 25
 -1.960157e-01 5.992475e-01 4.329588e+00 3.211647e+00 -2.409767e+00 -2.130942e+00 3.432289e-01 -2.221348e+00 -2.295560e+00 -1.815356e+00 1.207340e+00 -1.527874e-01 -3.665648e-01 7.012147e-02 2.953773e-01 -2.439274e-01 -1.749620e-01 3.369560e-01 3.300595e-01 -3.183188e-01 1.038627e-01 3.437113e-01 3.271816e-03 -6.534141e-02 -3.043815e-01
<VARIANCE> 25
 1.079925e+02 3.640297e+01 9.498320e+01 3.558061e+01 7.175905e+01 4.312247e+01 5.595507e+01 5.555299e+01 3.464870e+01 5.200815e+01 3.833146e+01 3.734158e+01 4.366597e+00 2.139985e+00 3.706037e+00 3.946341e+00 4.896664e+00 4.906672e+00 4.195413e+00 4.874091e+00 3.756883e+00 4.341465e+00 3.054101e+00 3.337621e+00 2.320694e+00
<GCONST> 1.102614e+02
<TRANSP> 5
 0.000000e+00 1.000000e+00 0.000000e+00 0.000000e+00 0.000000e+00
 0.000000e+00 6.962315e-01 3.037685e-01 0.000000e+00 0.000000e+00
 0.000000e+00 0.000000e+00 5.750308e-01 4.249692e-01 0.000000e+00
 0.000000e+00 0.000000e+00 0.000000e+00 7.173315e-01 2.826685e-01
 0.000000e+00 0.000000e+00 0.000000e+00 0.000000e+00 0.000000e+00
<ENDHMM>
~h "s"
<BEGINHMM>
<NUMSTATES> 5
<STATE> 2
<MEAN> 25
 -9.077613e+00 2.295393e+00 4.829472e-02 -3.312722e+00 6.040425e+00 -7.273811e+00 3.924847e+00 1.549272e+00 3.003981e-01 5.470305e-01 -2.249965e+00 2.999305e+00 -3.302553e+00 1.299202e+00 -4.298896e-01 -9.334425e-01 1.506192e+00 -1.092617e+00 1.484236e+00 2.047100e-01 5.333267e-02 -4.997403e-01 3.032342e-01 7.983369e-01 1.552434e+00
<VARIANCE> 25
 8.614675e+01 3.522453e+01 3.212397e+01 2.680292e+01 3.164352e+01 5.419998e+01 3.298937e+01 4.671402e+01 2.786365e+01 2.523798e+01 2.882687e+01 1.798878e+01 5.517361e+00 3.852952e+00 3.214853e+00 2.730353e+00 3.273799e+00 4.321082e+00 4.107611e+00 2.915520e+00 3.350859e+00 2.404081e+00 2.434198e+00 1.912189e+00 3.287062e+00
<GCONST> 1.034925e+02
<STATE> 3
<MEAN> 25
 -1.803263e+01 6.609304e+00 -2.354155e+00 -5.735309e+00 9.102916e+00 -5.988446e+00 5.923522e+00 2.946856e+00 -1.269457e-02 -6.965098e-01 -2.164791e-01 5.770390e+00 -4.948427e-01 1.966725e-01 -3.350796e-01 -8.805850e-02 -9.189432e-03 5.064120e-01 -1.994878e-01 2.003968e-02 2.504588e-01 -1.054652e-01 2.879319e-01 1.309509e-01 2.863106e-01
<VARIANCE> 25
 9.241366e+01 2.500831e+01 4.191402e+01 2.718334e+01 5.083680e+01 4.059628e+01 2.551248e+01 5.010798e+01 2.283553e+01 2.175730e+01 1.452618e+01 1.489737e+01 3.439528e+00 2.020566e+00 2.809853e+00 1.658219e+00 2.441245e+00 2.066637e+00 2.238899e+00 2.242353e+00 1.676391e+00 1.985587e+00 1.301261e+00 1.225161e+00 1.538569e+00
<GCONST> 9.591103e+01
<STATE> 4
<MEAN> 25
 -1.532831e+01 6.371297e+00 -5.306462e+00 -3.702271e+00 7.932784e+00 -6.890649e+00 6.771130e+00 4.013894e-01 2.538070e+00 -6.086718e-01 -7.507792e-01 4.412512e+00 1.161765e+00 -4.994618e-01 1.857460e-01 1.894681e-01 -6.872413e-01 1.768508e-01 -4.161726e-01 -1.257099e-01 -9.095311e-02 1.835325e-01 -9.683869e-02 -4.617344e-01 -3.286075e-01
<VARIANCE> 25
 8.042278e+01 2.136927e+01 3.180529e+01 2.258573e+01 3.220998e+01 2.762757e+01 2.453228e+01 2.377816e+01 2.448869e+01 2.233334e+01 1.603643e+01 1.922582e+01 3.960681e+00 1.309012e+00 1.847078e+00 1.369141e+00 1.720622e+00 2.404145e+00 2.399549e+00 2.333276e+00 2.213082e+00 1.910765e+00 1.573270e+00 1.950458e+00 2.616184e+00
<GCONST> 9.440913e+01
<TRANSP> 5
 0.000000e+00 1.000000e+00 0.000000e+00 0.000000e+00 0.000000e+00
 0.000000e+00 7.296597e-01 2.703403e-01 0.000000e+00 0.000000e+00
 0.000000e+00 0.000000e+00 5.983820e-01 4.016180e-01 0.000000e+00
 0.000000e+00 0.000000e+00 0.000000e+00 8.825541e-01 1.174460e-01
 0.000000e+00 0.000000e+00 0.000000e+00 0.000000e+00 0.000000e+00
<ENDHMM>
~h "t"
<BEGINHMM>
<NUMSTATES> 5
<STATE> 2
<MEAN> 25
 -5.186003e+00 -1.494722e+00 2.184106e+00 -2.826939e+00 6.493900e-01 -1.148222e-01 1.762986e+00 -1.198833e+00 5.152004e-01 -4.694451e-03 -1.581209e-01 2.329485e+00 -1.682059e+00 -4.172635e-01 6.655356e-01 -1.066976e+00 -3.804173e-01 -4.913423e-01 4.247761e-01 2.961287e-01 -1.846963e-01 1.744419e-01 3.376531e-01 6.032756e-01 1.942754e+00
<VARIANCE> 25
 4.983058e+01 3.299647e+01 3.670436e+01 4.262186e+01 3.053958e+01 3.317339e+01 3.552016e+01 3.333026e+01 3.390656e+01 2.399970e+01 2.275823e+01 2.199657e+01 4.918780e+00 3.280164e+00 4.100406e+00 4.793544e+00 3.113800e+00 4.579239e+00 4.612828e+00 4.408842e+00 4.705865e+00 3.141107e+00 3.579411e+00 2.952246e+00 1.310740e+01
<GCONST> 1.066755e+02
<STATE> 3
<MEAN> 25
 -8.103258e+00 -1.720363e+00 5.569313e+00 -2.371598e+00 -1.624436e+00 -4.724183e+00 3.434488e+00 2.371387e+00 -7.787358e-01 -2.619115e-01 6.292372e-01 3.712392e+00 1.578033e+00 2.757533e-01 -8.819880e-02 1.334932e+00 2.554965e-01 -4.025936e-04 -6.816413e-02 6.839321e-01 4.931327e-01 2.564872e-01 -1.399977e-01 -2.064729e-01 -1.325375e+00
<VARIANCE> 25
 6.723811e+01 2.960671e+01 4.072762e+01 4.331821e+01 3.353112e+01 4.614648e+01 4.428621e+01 4.838550e+01 2.545257e+01 3.457758e+01 2.699414e+01 2.191636e+01 5.365092e+00 3.144650e+00 3.244130e+00 2.827868e+00 3.986860e+00 7.168267e+00 4.330823e+00 2.838625e+00 3.316348e+00 3.398910e+00 2.429257e+00 2.315043e+00 4.889990e+00
<GCONST> 1.058360e+02
<STATE> 4
<MEAN> 25
 -3.722522e+00 -1.046007e+00 -1.136260e+00 1.158479e+00 2.683692e+00 2.370429e+00 3.644226e+00 1.291486e+00 3.483194e+00 2.494565e+00 1.429100e+00 3.050686e+00 2.969280e-01 4.456122e-02 -1.711991e-01 1.324059e-01 -4.355381e-03 1.143554e-01 -1.610770e-01 -5.844316e-02 -5.140816e-03 -1.015554e-01 -1.572195e-02 -8.961848e-02 -1.156267e-01
<VARIANCE> 25
 1.174039e+01 9.983764e+00 1.562438e+01 1.236723e+01 1.631553e+01 2.437374e+01 2.284347e+01 1.692844e+01 1.701961e+01 1.669821e+01 1.645594e+01 1.529358e+01 1.401048e+00 7.542983e-01 1.251877e+00 1.043520e+00 1.294159e+00 1.952018e+00 1.982051e+00 1.799564e+00 1.754897e+00 1.577164e+00 1.429532e+00 1.440460e+00 9.241388e-01
<GCONST> 8.327822e+01
<TRANSP> 5
 0.000000e+00 1.000000e+00 0.000000e+00 0.000000e+00 0.000000e+00
 0.000000e+00 6.865323e-01 3.134677e-01 0.000000e+00 0.000000e+00
 0.000000e+00 0.000000e+00 6.406689e-01 3.593312e-01 0.000000e+00
 0.000000e+00 0.000000e+00 0.000000e+00 8.747238e-01 1.252763e-01
 0.000000e+00 0.000000e+00 0.000000e+00 0.000000e+00 0.000000e+00
<ENDHMM>
~h "u"
<BEGINHMM>
<NUMSTATES> 5
<STATE> 2
<MEAN> 25
 -1.024860e+00 3.813991e+00 1.328096e+00 -1.982510e+00 1.069049e+00 -7.245303e-01 3.987685e+00 4.299420e-01 -1.649714e+00 5.185814e-01 -4.020875e+00 -2.997304e+00 -3.331642e-02 -1.115515e-01 3.660520e-02 -2.838915e-01 -5.906149e-02 -3.857019e-01 -2.250822e-01 -8.977603e-02 -1.494929e-01 3.981072e-03 2.464321e-01 2.755972e-01 1.663824e-01
<VARIANCE> 25
 5.784655e+01 1.070346e+02 2.734735e+01 2.774373e+01 4.945638e+01 1.053748e+02 4.292865e+01 3.151990e+01 2.510438e+01 2.263404e+01 4.389414e+01 2.189600e+01 3.240438e+00 9.009593e+00 2.627508e+00 4.423772e+00 5.457163e+00 1.097439e+01 5.321122e+00 4.696137e+00 3.117267e+00 2.574350e+00 5.062522e+00 2.756697e+00 1.044079e+01
<GCONST> 1.104910e+02
<STATE> 3
<MEAN> 25
 1.571688e+00 -4.637732e+00 4.989649e+00 -4.571724e+00 -1.421887e+00 -1.455103e+00 -1.995871e+00 -2.113918e+00 -7.628733e-01 -2.580417e-01 3.247883e+00 -1.142591e+00 1.375100e+00 -2.703904e-01 -6.284968e-01 -5.937446e-01 -1.069169e+00 -1.133240e+00 -8.139337e-01 -3.739292e-01 1.181105e-01 -1.015211e+00 1.487071e+00 5.972154e-02 1.681766e+00
<VARIANCE> 25
 2.765583e+01 5.465154e+01 3.326433e+01 2.028261e+01 4.200164e+01 6.557485e+01 3.301003e+01 2.846973e+01 2.023459e+01 2.419569e+01 3.936901e+01 1.807475e+01 2.329960e+00 5.874062e+00 2.987839e+00 2.321665e+00 5.787521e+00 5.248873e+00 2.910926e+00 7.235054e+00 2.225368e+00 2.425268e+00 5.265734e+00 1.664466e+00 7.198179e+00
<GCONST> 1.041544e+02
<STATE> 4
<MEAN> 25
 6.750079e+00 -2.599244e+00 1.696872e+00 -4.518691e+00 -9.092711e-01 -6.105151e+00 -3.204014e+00 5.783803e-01 3.304413e-01 -3.659029e+00 4.635795e+00 -2.586240e+00 1.954643e-02 8.093455e-02 -1.709309e-01 -4.537116e-02 -1.687333e-01 2.385394e-01 1.517192e-01 1.825950e-04 2.619366e-02 -1.587668e-03 -1.562793e-01 1.015408e-01 -1.796838e-01
<VARIANCE> 25
 3.528840e+01 8.206783e+01 3.958748e+01 2.662868e+01 3.584943e+01 4.188756e+01 3.778227e+01 3.687378e+01 3.118231e+01 3.734038e+01 3.846454e+01 1.572805e+01 1.481256e+00 2.709904e+00 2.507456e+00 2.082007e+00 2.810302e+00 3.004312e+00 2.473792e+00 3.188358e+00 1.493989e+00 2.103225e+00 3.078894e+00 1.564883e+00 1.666104e+00
<GCONST> 9.936609e+01
<TRANSP> 5
 0.000000e+00 1.000000e+00 0.000000e+00 0.000000e+00 0.000000e+00
 0.000000e+00 8.486465e-01 1.513535e-01 0.000000e+00 0.000000e+00
 0.000000e+00 0.000000e+00 5.701630e-01 4.298371e-01 0.000000e+00
 0.000000e+00 0.000000e+00 0.000000e+00 8.994009e-01 1.005992e-01
 0.000000e+00 0.000000e+00 0.000000e+00 0.000000e+00 0.000000e+00
<ENDHMM>
~h "v"
<BEGINHMM>
<NUMSTATES> 5
<STATE> 2
<MEAN> 25
 1.090364e+00 3.245055e-01 -2.288993e+00 2.276597e+00 1.959017e+00 1.596129e+00 -3.340869e-01 1.851893e-01 1.530001e+00 -2.052862e+00 -1.507103e+00 -1.680621e+00 -1.140394e+00 -4.218655e-01 -5.284548e-01 -2.470621e-01 6.349369e-02 1.059771e-01 6.359661e-01 5.735609e-01 1.006905e+00 3.416378e-01 2.814309e-01 5.236623e-01 -6.205853e-01
<VARIANCE> 25
 3.813276e+01 1.248635e+01 2.413286e+01 1.798582e+01 3.263032e+01 2.941070e+01 1.236547e+01 2.066293e+01 1.536796e+01 1.302603e+01 2.297495e+01 3.158434e+01 1.697728e+00 1.139705e+00 6.813125e-01 1.907701e+00 2.843675e+00 3.186794e+00 2.034389e+00 2.103486e+00 2.201814e+00 1.263419e+00 1.603321e+00 2.439503e+00 7.814815e-01
<GCONST> 8.920247e+01
<STATE> 3
<MEAN> 25
 -3.069247e+00 -5.573681e-01 -2.882347e+00 3.780172e+00 1.170224e+00 3.941910e-01 -7.153512e-01 1.902253e+00 2.794559e+00 8.116818e-01 6.280395e-01 -4.617877e-01 -3.022557e-01 -2.440050e-01 -3.270274e-02 2.223236e-03 1.766262e-01 2.058896e-01 3.097869e-01 -1.328323e-02 6.579562e-02 3.590958e-01 3.387970e-02 1.608617e-01 -1.878755e-01
<VARIANCE> 25
 4.007613e+01 1.232578e+01 1.681614e+01 1.847414e+01 2.725614e+01 1.520052e+01 1.478901e+01 1.891064e+01 1.206794e+01 1.629160e+01 1.716654e+01 3.747005e+01 2.125713e+00 6.079193e-01 6.151304e-01 5.326905e-01 1.567033e+00 1.190271e+00 1.628937e+00 1.115800e+00 1.329974e+00 1.252921e+00 2.243923e+00 1.639278e+00 9.982673e-01
<GCONST> 8.346894e+01
<STATE> 4
<MEAN> 25
 -2.034703e+00 -3.996954e+00 -3.009123e+00 -4.811032e-01 1.484385e+00 1.924140e-01 1.058115e+00 1.326648e+00 2.950266e+00 1.661628e+00 -2.057681e+00 1.725078e+00 9.100044e-02 1.239265e-01 7.640062e-02 7.638327e-02 5.483083e-02 3.329967e-02 4.500186e-03 -5.574152e-02 -9.819736e-02 -5.163609e-02 -3.546757e-02 -2.830723e-03 3.111723e-02
<VARIANCE> 25
 3.736127e+00 8.176062e+00 7.941416e+00 9.135553e+00 1.084826e+01 1.214796e+01 1.319425e+01 1.163121e+01 1.537687e+01 1.446893e+01 1.340204e+01 1.495195e+01 3.069008e-01 4.257484e-01 6.204138e-01 6.919991e-01 8.725153e-01 1.180063e+00 1.488221e+00 1.348729e+00 1.973261e+00 1.756542e+00 1.313747e+00 1.341495e+00 1.030860e-01
<GCONST> 7.165298e+01
<TRANSP> 5
 0.000000e+00 1.000000e+00 0.000000e+00 0.000000e+00 0.000000e+00
 0.000000e+00 4.233657e-01 5.766342e-01 0.000000e+00 0.000000e+00
 0.000000e+00 0.000000e+00 5.491180e-01 4.508820e-01 0.000000e+00
 0.000000e+00 0.000000e+00 0.000000e+00 9.372646e-01 6.273543e-02
 0.000000e+00 0.000000e+00 0.000000e+00 0.000000e+00 0.000000e+00
<ENDHMM>
~h "w"
<BEGINHMM>
<NUMSTATES> 5
<STATE> 2
<MEAN> 25
 9.551223e+00 6.374654e+00 -2.180609e+00 -5.083317e+00 2.180406e-02 5.479377e+00 -1.919544e-01 -4.015349e+00 -1.489900e+00 -6.208895e-01 2.010364e+00 -1.277357e+00 5.007783e-01 -2.309934e-01 -4.845709e-02 2.369394e-01 -4.099363e-01 1.271056e-01 -2.796343e-01 3.457534e-01 2.655671e-02 -2.878812e-02 2.628226e-01 -6.548623e-01 7.863333e-01
<VARIANCE> 25
 1.459347e+01 2.253535e+01 1.412269e+01 3.977156e+01 1.839301e+01 4.451713e+01 5.035437e+01 4.319004e+01 4.503507e+01 4.327934e+01 4.474778e+01 3.069336e+01 3.119355e+00 3.815511e+00 2.009262e+00 4.207750e+00 2.834233e+00 7.547303e+00 3.898093e+00 5.765937e+00 5.648036e+00 6.057606e+00 4.952091e+00 3.764714e+00 1.622737e+00
<GCONST> 1.049953e+02
<STATE> 3
<MEAN> 25
 6.963297e+00 -1.450825e+00 9.914005e-01 2.697203e+00 -5.818960e+00 -2.775690e+00 -1.737092e+00 6.352168e+00 1.158858e+00 -1.939540e+00 8.886094e-01 -5.822903e+00 -5.383902e-02 -7.721563e-01 9.534744e-01 4.945266e-01 -1.410795e+00 -2.283371e+00 8.614454e-01 2.317760e+00 -1.343335e+00 -8.016971e-01 -1.416126e-01 7.518361e-01 2.638299e-01
<VARIANCE> 25
 7.870007e+00 2.526124e+01 2.142358e+01 2.786097e+01 3.704459e+01 3.278636e+01 5.509192e+01 1.013424e+02 4.548574e+01 4.067263e+01 2.783676e+01 3.244939e+01 1.355622e+00 1.906321e+00 1.952037e+00 2.843310e+00 1.879984e+00 4.236353e+00 3.619858e+00 6.754755e+00 5.293073e+00 3.996450e+00 7.766041e+00 3.652266e+00 6.412540e-01
<GCONST> 1.015771e+02
<STATE> 4
<MEAN> 25
 7.057785e+00 -2.879061e+00 6.540797e-01 3.507942e+00 -1.101634e+01 -7.031994e+00 -2.580940e+00 8.079693e+00 -9.890367e-01 -2.890589e+00 3.634947e+00 -6.105149e-01 -2.593768e-01 1.708628e-01 -1.578225e-01 -3.854178e-01 3.174062e-01 -3.798616e-02 -9.673724e-02 -6.763926e-01 -1.864115e-01 2.606132e-01 -3.734903e-01 2.092303e-01 -9.438868e-01
<VARIANCE> 25
 1.491831e+01 2.160753e+01 2.593429e+01 3.160319e+01 5.711517e+01 2.438301e+01 7.731882e+01 9.923169e+01 4.437053e+01 2.280124e+01 2.557846e+01 2.344767e+01 9.211299e-01 1.225674e+00 2.197776e+00 1.438491e+00 4.137901e+00 2.475665e+00 1.611423e+00 2.739024e+00 3.287935e+00 1.962495e+00 2.631516e+00 2.004694e+00 1.674532e+00
<GCONST> 9.705850e+01
<TRANSP> 5
 0.000000e+00 1.000000e+00 0.000000e+00 0.000000e+00 0.000000e+00
 0.000000e+00 8.804232e-01 1.195768e-01 0.000000e+00 0.000000e+00
 0.000000e+00 0.000000e+00 5.660177e-01 4.339823e-01 0.000000e+00
 0.000000e+00 0.000000e+00 0.000000e+00 8.332961e-01 1.667039e-01
 0.000000e+00 0.000000e+00 0.000000e+00 0.000000e+00 0.000000e+00
<ENDHMM>
~h "y"
<BEGINHMM>
<NUMSTATES> 5
<STATE> 2
<MEAN> 25
 -8.097115e+00 5.055612e-01 1.165608e+01 5.516203e-01 -4.017645e+00 -1.482422e+00 5.663347e+00 -7.910475e+00 -1.935774e+00 7.351704e-01 4.155420e-02 1.173962e+00 1.704589e+00 1.119214e+00 1.084322e+00 1.287533e+00 -1.662926e+00 -1.415423e+00 -1.089276e+00 4.948558e-02 -2.282445e+00 -1.444225e+00 3.098659e-01 -8.186883e-01 4.512407e-01
<VARIANCE> 25
 9.357565e+01 3.753877e+01 4.469299e+01 3.571518e+01 4.649804e+01 4.047191e+01 6.222617e+01 3.144864e+01 5.644934e+01 3.195729e+01 4.106027e+01 2.289245e+01 9.866859e+00 3.160945e+00 3.447903e+00 4.262722e+00 4.240331e+00 3.172562e+00 6.156619e+00 5.561313e+00 6.831468e+00 2.475446e+00 5.376173e+00 2.961791e+00 1.795646e+00
<GCONST> 1.093906e+02
<STATE> 3
<MEAN> 25
 4.925263e+00 5.371417e+00 9.956268e+00 6.222241e+00 -6.684993e+00 -6.773763e+00 -3.477080e+00 -5.311795e+00 -8.810178e+00 -5.004736e+00 3.293951e+00 -1.843623e+00 8.055965e-01 1.894827e-01 4.016648e-01 3.969970e-01 -1.229316e+00 -6.361220e-01 -8.281546e-01 1.035676e+00 -1.425953e+00 -9.056355e-01 5.215389e-01 -3.283938e-01 3.144540e-01
<VARIANCE> 25
 1.293693e+01 2.307466e+01 5.127919e+01 1.736778e+01 7.253590e+01 4.205066e+01 3.097978e+01 7.278011e+01 9.063199e+01 2.754555e+01 2.894753e+01 1.900782e+01 4.103001e+00 3.878107e+00 4.216208e+00 3.465490e+00 5.573907e+00 4.902066e+00 8.266715e+00 7.920249e+00 6.837869e+00 4.492857e+00 5.871523e+00 2.663066e+00 1.571888e+00
<GCONST> 1.078795e+02
<STATE> 4
<MEAN> 25
 2.747906e+00 6.611599e+00 1.506065e+01 6.129833e+00 -7.790664e+00 -5.560222e+00 -2.368271e+00 -4.787457e+00 -9.379525e+00 -2.652344e+00 3.490683e+00 -2.644939e+00 3.653388e-01 -1.359768e-01 -7.696935e-01 -1.008754e-01 8.285686e-01 -6.679690e-02 -5.307216e-01 6.617979e-01 5.581082e-01 -9.571926e-02 -3.734643e-01 -5.831648e-02 -2.408657e-01
<VARIANCE> 25
 1.133803e+01 1.749653e+01 4.008547e+01 2.631202e+01 5.533748e+01 6.092060e+01 2.971409e+01 4.283906e+01 6.301833e+01 3.204637e+01 2.806244e+01 2.113080e+01 1.090182e+00 7.854426e-01 3.702649e+00 3.047237e+00 4.729203e+00 4.985489e+00 2.755419e+00 3.485473e+00 5.947070e+00 2.936234e+00 2.701932e+00 1.460323e+00 1.345474e+00
<GCONST> 9.968598e+01
<TRANSP> 5
 0.000000e+00 1.000000e+00 0.000000e+00 0.000000e+00 0.000000e+00
 0.000000e+00 7.601535e-01 2.398466e-01 0.000000e+00 0.000000e+00
 0.000000e+00 0.000000e+00 5.743972e-01 4.256028e-01 0.000000e+00
 0.000000e+00 0.000000e+00 0.000000e+00 7.194244e-01 2.805756e-01
 0.000000e+00 0.000000e+00 0.000000e+00 0.000000e+00 0.000000e+00
<ENDHMM>
~h "z"
<BEGINHMM>
<NUMSTATES> 5
<STATE> 2
<MEAN> 25
 -1.228735e+01 1.172552e+01 3.746727e+00 -3.457887e+00 8.618761e+00 -5.461492e+00 2.040999e+00 -1.000923e+00 -2.548359e+00 -2.561212e+00 -2.035714e+00 3.834514e+00 -2.736742e+00 2.322153e-01 -5.818186e-01 -9.732037e-01 1.481801e+00 -3.203994e-01 4.717616e-01 7.230636e-01 7.381464e-01 3.127003e-01 9.591282e-02 2.080623e-01 4.913908e-01
<VARIANCE> 25
 1.019896e+02 2.320635e+01 8.123404e+01 4.043052e+01 7.035225e+01 5.757802e+01 2.492077e+01 2.105263e+01 4.727182e+01 1.471580e+01 1.754954e+01 1.307185e+01 3.861717e+00 1.807893e+00 3.653067e+00 2.859557e+00 6.211648e+00 4.867811e+00 1.704502e+00 2.751992e+00 2.031879e+00 1.703573e+00 1.478169e+00 1.967683e+00 5.436835e-01
<GCONST> 9.930697e+01
<STATE> 3
<MEAN> 25
 -1.967765e+01 6.827372e+00 -2.096881e+00 -7.760368e+00 1.019965e+01 -8.550638e+00 4.619231e+00 3.232675e+00 7.990024e-01 1.183389e+00 -2.141575e+00 4.754153e+00 1.286812e+00 -9.061102e-01 2.621919e-02 2.867743e-01 -7.489064e-01 -2.487183e-01 5.514678e-02 -1.036981e-01 -2.259615e-01 3.065923e-01 -1.382091e-01 -2.332104e-01 -7.042621e-01
<VARIANCE> 25
 4.558280e+01 2.168222e+01 3.104591e+01 3.005258e+01 1.764335e+01 3.832557e+01 3.614008e+01 2.112956e+01 2.467290e+01 2.087841e+01 1.649719e+01 1.490013e+01 2.952203e+00 8.687981e-01 1.522783e+00 1.160721e+00 2.036730e+00 2.188701e+00 2.091105e+00 1.930719e+00 2.182568e+00 1.671319e+00 1.441128e+00 1.438501e+00 1.317248e+00
<GCONST> 9.128531e+01
<STATE> 4
<MEAN> 25
 -4.635782e+00 -1.700444e+00 -1.873322e+00 -5.386503e-01 1.638523e+00 -3.001927e+00 3.123076e+00 5.239044e-01 1.221278e-01 2.652283e+00 -5.963587e-01 1.540933e+00 3.271416e-01 -1.973543e-01 2.918287e-02 2.819029e-01 -2.453015e-01 5.099549e-01 -3.824537e-02 -3.460298e-02 4.940750e-02 -2.141017e-02 1.155009e-02 -1.560948e-01 -2.687786e-01
<VARIANCE> 25
 2.435255e+01 1.794936e+01 2.582027e+01 2.006702e+01 3.161722e+01 4.084853e+01 2.691588e+01 2.428222e+01 4.327589e+01 2.075101e+01 1.500528e+01 2.150346e+01 2.182412e+00 1.405778e+00 1.530145e+00 1.406573e+00 2.281651e+00 2.859447e+00 2.482115e+00 2.989110e+00 2.692794e+00 2.205966e+00 1.235926e+00 1.371158e+00 1.730711e+00
<GCONST> 9.312511e+01
<TRANSP> 5
 0.000000e+00 1.000000e+00 0.000000e+00 0.000000e+00 0.000000e+00
 0.000000e+00 8.534204e-01 1.465796e-01 0.000000e+00 0.000000e+00
 0.000000e+00 0.000000e+00 8.783656e-01 1.216345e-01 0.000000e+00
 0.000000e+00 0.000000e+00 0.000000e+00 9.195653e-01 8.043470e-02
 0.000000e+00 0.000000e+00 0.000000e+00 0.000000e+00 0.000000e+00
<ENDHMM>
~h "aa"
<BEGINHMM>
<NUMSTATES> 5
<STATE> 2
<MEAN> 25
 6.820662e+00 -4.798972e+00 -3.884122e+00 -6.757368e+00 -1.278907e-01 1.095475e+01 -2.775749e-01 -1.151215e+00 1.890907e+00 2.605044e-01 9.914258e-02 -9.361530e+00 5.500154e-01 -5.065834e-01 -7.234517e-01 -7.705131e-01 -1.320686e-01 1.491487e+00 -2.849739e-02 -3.723830e-01 -1.425623e-01 -1.298530e-01 4.694559e-01 -5.188565e-01 3.779075e-01
<VARIANCE> 25
 2.701549e+01 3.322835e+01 2.469319e+01 5.564311e+01 2.668279e+01 7.537249e+01 3.951119e+01 3.025250e+01 3.079181e+01 4.056203e+01 2.333866e+01 5.896398e+01 2.446254e+00 1.613744e+00 1.246365e+00 2.967857e+00 2.135468e+00 4.049908e+00 1.952075e+00 2.011613e+00 2.099473e+00 2.296861e+00 2.328667e+00 2.802984e+00 1.357175e+00
<GCONST> 9.898296e+01
<STATE> 3
<MEAN> 25
 8.226254e+00 -3.551889e+00 -6.819275e+00 -9.446748e+00 7.183056e-01 1.589689e+01 5.372772e-02 -3.452195e+00 1.123477e+00 -1.156522e+00 2.107027e+00 -1.011009e+01 2.000468e-01 4.954053e-01 -3.703175e-02 2.744754e-01 -3.425407e-01 -5.150473e-01 -1.872101e-01 2.223180e-01 -3.855472e-01 1.684332e-01 -3.256181e-01 1.468440e-01 -6.004845e-01
<VARIANCE> 25
 1.602970e+01 1.784818e+01 1.579151e+01 2.585162e+01 1.846385e+01 5.645500e+01 4.858638e+01 4.960603e+01 5.961459e+01 5.255707e+01 3.454859e+01 3.991315e+01 1.283746e+00 1.282388e+00 1.103243e+00 1.573014e+00 1.793768e+00 2.565200e+00 2.275977e+00 3.269284e+00 2.152674e+00 2.367863e+00 2.010117e+00 2.211447e+00 1.569248e+00
<GCONST> 9.578493e+01
<STATE> 4
<MEAN> 25
 1.274009e+00 -2.835445e+00 -4.006089e+00 -3.137834e+00 2.523879e-01 2.926555e+00 -1.453184e+00 7.825747e-02 1.238395e+00 1.374309e+00 -1.701544e+00 -1.162627e+00 -1.879239e-01 1.801159e-01 2.962688e-01 2.391406e-01 2.087371e-02 -2.160221e-01 7.799210e-03 1.604602e-01 1.006207e-02 1.704675e-01 2.208318e-02 3.658897e-01 -2.962465e-01
<VARIANCE> 25
 1.933841e+01 8.943364e+00 1.185119e+01 1.656843e+01 1.363587e+01 3.915439e+01 2.009535e+01 2.517360e+01 2.435629e+01 1.719868e+01 2.119991e+01 2.282842e+01 6.619925e-01 8.933557e-01 1.726263e+00 1.219327e+00 1.076351e+00 1.810301e+00 1.615340e+00 2.645148e+00 2.505820e+00 1.710575e+00 2.298191e+00 1.750772e+00 1.074320e+00
<GCONST> 8.636361e+01
<TRANSP> 5
 0.000000e+00 1.000000e+00 0.000000e+00 0.000000e+00 0.000000e+00
 0.000000e+00 8.219558e-01 1.780442e-01 0.000000e+00 0.000000e+00
 0.000000e+00 0.000000e+00 7.755954e-01 2.244046e-01 0.000000e+00
 0.000000e+00 0.000000e+00 0.000000e+00 8.452833e-01 1.547167e-01
 0.000000e+00 0.000000e+00 0.000000e+00 0.000000e+00 0.000000e+00
<ENDHMM>
~h "ae"
<BEGINHMM>
<NUMSTATES> 5
<STATE> 2
<MEAN> 25
 3.184338e-01 -1.823556e+00 1.529712e-01 2.326068e-01 -1.627909e+00 -8.998123e-01 2.287009e+00 1.912723e+00 1.644069e-01 -1.262300e+00 -3.491770e-01 -2.322994e+00 1.015860e+00 -1.245117e+00 3.055529e-01 -5.026704e-01 -7.236592e-01 -4.498187e-01 2.120704e-01 1.023069e+00 -8.107224e-01 -9.613814e-01 -1.049680e+00 -1.501438e+00 2.521133e+00
<VARIANCE> 25
 2.970577e+01 3.663711e+01 4.223264e+01 2.222716e+01 4.454232e+01 4.234018e+01 2.981634e+01 2.846151e+01 4.320379e+01 2.064186e+01 2.857030e+01 3.688287e+01 3.399546e+00 3.371785e+00 3.036267e+00 1.763145e+00 4.799701e+00 2.637866e+00 2.701486e+00 2.283878e+00 5.651264e+00 3.192216e+00 4.700186e+00 5.640768e+00 6.662100e+00
<GCONST> 1.043647e+02
<STATE> 3
<MEAN> 25
 5.334823e+00 -8.564395e+00 -2.075206e+00 -2.464046e+00 -2.523494e+00 -1.211225e+00 2.764125e+00 4.746153e+00 -1.634340e+00 -6.344818e+00 -6.776574e+00 -8.533322e+00 5.395942e-01 -2.668371e-01 -4.643437e-01 6.859909e-02 2.915340e-01 3.046781e-01 -2.447056e-01 6.111246e-02 1.975575e-01 -4.381410e-01 -4.621458e-01 -3.592845e-01 3.407427e-01
<VARIANCE> 25
 1.316878e+01 3.276649e+01 2.892620e+01 1.322361e+01 2.695353e+01 2.545162e+01 2.692586e+01 3.097065e+01 2.622133e+01 2.596189e+01 3.272063e+01 3.659746e+01 6.749189e-01 1.273389e+00 9.498280e-01 1.352741e+00 1.821778e+00 1.261580e+00 1.294313e+00 1.877911e+00 1.536737e+00 1.718008e+00 1.866647e+00 2.231638e+00 1.961442e+00
<GCONST> 8.972002e+01
<STATE> 4
<MEAN> 25
 7.614563e+00 -6.389185e+00 -3.169790e+00 -5.350899e-01 -2.010212e+00 -2.311054e+00 2.101072e-01 3.994478e+00 7.145597e-01 -5.591579e+00 -6.360555e+00 -8.643941e+00 -1.226114e-01 1.101655e+00 3.604582e-01 6.247261e-01 2.630953e-01 -1.905502e-01 -1.008202e-01 -1.275101e+00 -1.179644e-01 1.175097e+00 3.659954e-01 6.895289e-01 -1.403861e+00
<VARIANCE> 25
 1.353985e+01 2.462023e+01 4.198989e+01 1.742278e+01 3.065663e+01 3.794593e+01 2.895914e+01 4.217112e+01 5.525014e+01 4.780220e+01 3.268624e+01 4.465387e+01 1.393941e+00 1.846954e+00 2.076535e+00 2.564092e+00 2.706663e+00 2.805048e+00 2.188324e+00 5.047506e+00 3.885314e+00 3.421846e+00 1.825636e+00 2.941886e+00 2.389699e+00
<GCONST> 9.986948e+01
<TRANSP> 5
 0.000000e+00 1.000000e+00 0.000000e+00 0.000000e+00 0.000000e+00
 0.000000e+00 7.565180e-01 2.434819e-01 0.000000e+00 0.000000e+00
 0.000000e+00 0.000000e+00 8.417614e-01 1.582386e-01 0.000000e+00
 0.000000e+00 0.000000e+00 0.000000e+00 7.943729e-01 2.056271e-01
 0.000000e+00 0.000000e+00 0.000000e+00 0.000000e+00 0.000000e+00
<ENDHMM>
~h "ah"
<BEGINHMM>
<NUMSTATES> 5
<STATE> 2
<MEAN> 25
 4.096302e+00 -2.823273e+00 5.110079e-01 -1.134323e+00 -2.603436e+00 -2.390501e+00 -9.615628e-01 1.086140e+00 -1.534137e+00 -1.008073e+00 -3.531690e+00 -4.874999e+00 1.199943e+00 -1.693100e-02 -4.664469e-01 -5.895473e-01 -1.629779e-01 1.415990e-01 -6.181355e-01 -2.997707e-01 -3.975586e-01 3.714669e-01 -3.343972e-01 -9.820013e-01 6.644854e-01
<VARIANCE> 25
 4.664331e+01 5.023372e+01 5.150342e+01 4.534116e+01 3.261050e+01 5.771560e+01 4.922358e+01 6.666397e+01 5.407476e+01 3.014005e+01 3.969615e+01 5.771872e+01 4.249282e+00 3.970546e+00 3.077199e+00 4.354859e+00 2.866375e+00 4.254305e+00 3.571211e+00 5.396992e+00 5.183916e+00 3.575362e+00 3.533252e+00 4.272163e+00 5.394748e+00
<GCONST> 1.104313e+02
<STATE> 3
<MEAN> 25
 6.023324e+00 4.925320e-01 -1.651936e+00 -2.722738e+00 -1.999657e+00 3.307703e-01 -3.847120e+00 -2.350042e+00 -1.549297e+00 1.185619e+00 -2.553995e+00 -5.696936e+00 1.798351e-01 4.617384e-01 -3.427249e-01 -2.454987e-01 2.803076e-01 4.178538e-01 1.622673e-02 -3.199807e-01 -1.656316e-01 2.777520e-01 3.280315e-01 1.717715e-01 -4.387313e-01
<VARIANCE> 25
 4.093616e+01 4.510048e+01 4.502657e+01 5.788036e+01 2.795736e+01 5.646752e+01 5.043689e+01 5.221569e+01 5.578933e+01 3.488500e+01 4.079902e+01 5.769643e+01 3.013788e+00 2.996808e+00 2.647140e+00 5.009086e+00 3.074301e+00 3.909057e+00 2.976297e+00 4.364223e+00 4.669350e+00 3.863136e+00 2.575066e+00 3.911469e+00 2.941709e+00
<GCONST> 1.080287e+02
<STATE> 4
<MEAN> 25
 -1.607637e-02 -4.081438e-01 -2.299869e+00 1.017352e+00 1.232006e+00 2.064100e+00 1.898991e+00 1.338109e+00 2.993491e+00 1.651974e+00 3.939532e-01 -1.065613e+00 1.529644e-03 1.259777e-01 6.011059e-02 -8.219147e-02 1.728239e-01 3.194768e-02 5.661004e-02 -4.875971e-02 -1.689455e-01 9.755257e-02 1.441815e-01 2.084321e-01 -2.291837e-01
<VARIANCE> 25
 5.935413e+01 1.757977e+01 2.747363e+01 4.499607e+01 2.078104e+01 3.006017e+01 3.442524e+01 4.063671e+01 3.929462e+01 2.534657e+01 3.439954e+01 5.827181e+01 1.654493e+00 1.465099e+00 1.452166e+00 2.313404e+00 1.460975e+00 2.099344e+00 1.754871e+00 2.134013e+00 2.311169e+00 1.972194e+00 2.197762e+00 3.249013e+00 1.447901e+00
<GCONST> 9.659572e+01
<TRANSP> 5
 0.000000e+00 1.000000e+00 0.000000e+00 0.000000e+00 0.000000e+00
 0.000000e+00 6.533812e-01 3.466188e-01 0.000000e+00 0.000000e+00
 0.000000e+00 0.000000e+00 4.772101e-01 5.227900e-01 0.000000e+00
 0.000000e+00 0.000000e+00 0.000000e+00 7.716794e-01 2.283206e-01
 0.000000e+00 0.000000e+00 0.000000e+00 0.000000e+00 0.000000e+00
<ENDHMM>
~h "ao"
<BEGINHMM>
<NUMSTATES> 5
<STATE> 2
<MEAN> 25
 -5.719309e+00 -2.189523e+00 -2.028091e-01 -9.698664e-01 -1.996599e+00 2.851157e-02 3.153270e+00 1.056227e+00 1.413598e+00 7.622288e-01 1.002939e+00 2.141025e+00 2.588136e+00 1.060448e+00 -4.659317e-01 -1.996639e+00 -1.269578e+00 1.370533e+00 -8.290519e-01 -2.684492e-01 -7.787377e-01 -9.742381e-01 1.618134e-01 -5.248272e-01 1.207084e+00
<VARIANCE> 25
 8.046012e+01 4.478439e+01 1.250147e+01 2.546908e+01 3.134997e+01 3.287994e+01 4.174572e+01 2.616533e+01 2.788621e+01 2.264252e+01 2.185225e+01 2.344131e+01 1.510184e+01 3.353559e+00 1.317093e+00 7.947662e+00 6.130071e+00 7.561951e+00 4.397587e+00 3.403903e+00 4.632633e+00 3.720843e+00 3.336793e+00 3.654052e+00 8.213539e+00
<GCONST> 1.067899e+02
<STATE> 3
<MEAN> 25
 9.375993e+00 3.705487e+00 -4.038212e+00 -2.246563e+01 -4.556725e+00 1.529834e+01 -6.207747e-01 -1.520942e+00 -2.743906e+00 -6.856061e+00 -5.979342e-01 -3.012073e+00 1.059402e+00 6.183206e-01 -1.577022e-01 -1.591013e+00 -1.074619e+00 6.463701e-01 1.966792e-01 4.893369e-02 -2.173881e-01 -3.230347e-01 -2.363775e-01 -7.183072e-03 8.776010e-01
<VARIANCE> 25
 1.008940e+01 1.774858e+01 9.924415e+00 5.475646e+01 3.976585e+01 5.111039e+01 2.327154e+01 1.476719e+01 1.632510e+01 2.270167e+01 1.129602e+01 1.294492e+01 2.341496e+00 6.953757e-01 7.644264e-01 5.708641e+00 2.362773e+00 5.262541e+00 1.240055e+00 2.319544e+00 1.497684e+00 2.034894e+00 1.192516e+00 1.879658e+00 2.837275e+00
<GCONST> 9.029171e+01
<STATE> 4
<MEAN> 25
 1.372359e+01 6.693888e+00 -6.688470e+00 -6.465423e+00 -6.447998e+00 5.574766e+00 -6.060811e+00 1.569523e+00 -4.415652e+00 -6.077202e+00 3.581020e+00 2.231753e+00 4.157370e-02 -3.778223e-01 -1.401562e-01 1.138041e+00 4.998555e-01 -6.401801e-01 -5.657757e-01 1.257117e-01 2.355828e-01 -1.356470e-01 3.468074e-02 2.059480e-01 -2.951020e-02
<VARIANCE> 25
 8.227723e+00 2.762367e+01 2.818180e+01 1.208983e+02 4.667241e+01 4.920977e+01 6.318814e+01 2.852386e+01 4.696109e+01 2.517985e+01 4.678909e+01 2.225094e+01 2.031241e-01 5.825751e-01 1.131625e+00 1.269162e+00 1.862138e+00 1.992714e+00 3.713253e+00 2.554969e+00 3.557806e+00 2.180701e+00 2.483420e+00 1.674388e+00 2.444831e-01
<GCONST> 9.262045e+01
<TRANSP> 5
 0.000000e+00 1.000000e+00 0.000000e+00 0.000000e+00 0.000000e+00
 0.000000e+00 7.588758e-01 2.411243e-01 0.000000e+00 0.000000e+00
 0.000000e+00 0.000000e+00 7.750087e-01 2.249912e-01 0.000000e+00
 0.000000e+00 0.000000e+00 0.000000e+00 9.197930e-01 8.020707e-02
 0.000000e+00 0.000000e+00 0.000000e+00 0.000000e+00 0.000000e+00
<ENDHMM>
~h "aw"
<BEGINHMM>
<NUMSTATES> 5
<STATE> 2
<MEAN> 25
 7.495231e+00 -1.633096e+00 -3.247439e+00 -8.599775e-01 -9.182622e-01 5.988456e+00 -3.452447e+00 2.975250e+00 6.944925e-01 -2.312126e+00 -2.097984e+00 -7.137180e+00 3.185314e-01 8.419042e-01 -4.408403e-01 2.349698e-01 1.015145e-01 3.589679e-01 -5.655032e-01 -1.100234e+00 -4.711137e-01 -7.827497e-02 7.381318e-01 1.835506e-01 -5.192548e-01
<VARIANCE> 25
 7.893199e+00 3.616351e+01 2.230472e+01 3.380644e+01 2.189290e+01 5.870525e+01 6.068275e+01 4.899054e+01 2.792885e+01 9.153190e+01 6.196831e+01 1.910708e+01 3.099701e-01 9.397879e-01 6.536809e-01 1.071973e+00 1.606993e+00 1.218703e+00 2.598273e+00 2.351913e+00 2.409078e+00 2.872139e+00 4.323923e+00 1.187234e+00 5.073699e-01
<GCONST> 9.209023e+01
<STATE> 3
<MEAN> 25
 6.750506e+00 5.986219e+00 -1.270800e+00 1.227774e+00 1.952259e-02 1.987977e+00 -6.293355e+00 -9.353441e+00 -7.743756e+00 -2.281360e+00 3.180198e+00 -5.117037e+00 -6.187229e-01 -5.328090e-01 7.508878e-01 2.727727e-01 5.598124e-01 -8.006088e-01 6.872380e-01 2.138346e-01 7.248498e-01 4.233944e-01 -8.696486e-01 4.267842e-01 -8.229856e-01
<VARIANCE> 25
 1.557362e+01 1.902495e+01 3.461129e+01 2.455283e+01 1.935538e+01 4.451942e+01 5.228380e+01 3.258817e+01 4.317721e+01 4.587366e+01 4.521147e+01 1.915773e+01 9.904703e-01 1.215492e+00 1.863849e+00 3.135847e+00 1.057133e+00 3.313437e+00 4.410924e+00 4.573402e+00 5.122117e+00 4.570723e+00 3.848876e+00 2.416643e+00 1.673835e+00
<GCONST> 9.904556e+01
<STATE> 4
<MEAN> 25
 2.765371e+00 -2.506773e+00 -5.219613e+00 -1.487483e+00 2.931072e+00 7.136515e+00 4.286326e+00 -3.219452e+00 4.969134e+00 2.412810e-01 2.330487e-01 -5.194975e+00 -1.949943e-01 -5.446734e-01 2.303827e-03 -1.215338e-01 7.831797e-03 1.676538e-01 3.020758e-01 8.156638e-03 2.800695e-01 -3.135146e-02 1.320596e-01 2.516634e-01 6.413534e-02
<VARIANCE> 25
 3.329461e+01 3.415145e+01 2.427726e+01 1.902286e+01 1.038050e+01 5.485321e+01 2.800916e+01 3.996647e+01 4.115886e+01 2.834098e+01 2.668815e+01 5.951991e+01 6.057820e-01 2.207945e+00 1.008190e+00 1.351862e+00 9.714541e-01 2.298533e+00 2.211511e+00 2.561357e+00 3.303463e+00 3.192376e+00 1.658785e+00 3.018737e+00 1.034814e+00
<GCONST> 9.405460e+01
<TRANSP> 5
 0.000000e+00 1.000000e+00 0.000000e+00 0.000000e+00 0.000000e+00
 0.000000e+00 8.962754e-01 1.037246e-01 0.000000e+00 0.000000e+00
 0.000000e+00 0.000000e+00 7.693421e-01 2.306579e-01 0.000000e+00
 0.000000e+00 0.000000e+00 0.000000e+00 8.035403e-01 1.964597e-01
 0.000000e+00 0.000000e+00 0.000000e+00 0.000000e+00 0.000000e+00
<ENDHMM>
~h "ay"
<BEGINHMM>
<NUMSTATES> 5
<STATE> 2
<MEAN> 25
 1.003317e+01 -6.159974e+00 6.850479e+00 -1.625036e+00 -1.303005e+01 -7.976543e+00 -7.068272e+00 2.519151e+00 -7.295474e+00 -2.395354e+00 -9.180460e-01 -1.746419e+00 -5.764821e-01 7.351458e-01 1.790117e+00 -5.530258e-01 -4.891587e-01 1.218424e-01 1.552240e-01 -9.620220e-01 -1.401891e+00 1.697303e-01 5.111770e-03 -2.172861e-01 -3.142924e-01
<VARIANCE> 25
 2.373962e+01 2.619111e+01 8.684632e+01 1.848471e+01 5.583659e+01 2.103595e+01 3.686438e+01 5.070743e+01 6.276641e+01 1.924862e+01 2.340209e+01 2.100712e+01 2.318337e+00 2.550013e+00 4.021304e+00 1.001374e+00 3.352871e+00 2.043445e+00 3.058928e+00 6.021972e+00 3.191733e+00 2.233710e+00 2.450178e+00 2.138829e+00 1.555136e+00
<GCONST> 9.972718e+01
<STATE> 3
<MEAN> 25
 -3.150529e-01 4.844164e+00 1.358274e+01 1.137195e+00 -2.838135e+00 -3.294806e+00 2.335457e-01 -4.435792e+00 -9.040887e+00 -2.841192e+00 -1.872308e+00 -3.997063e+00 -1.100742e+00 6.188073e-01 -1.730382e+00 1.573527e+00 2.865826e+00 1.336536e+00 1.928906e+00 8.599665e-01 1.958357e+00 1.711472e-01 -1.704959e-01 5.651464e-01 -2.066885e+00
<VARIANCE> 25
 3.678755e+01 2.329789e+01 5.437543e+01 5.204937e+01 6.780995e+01 3.527232e+01 4.423142e+01 3.918637e+01 6.112771e+01 2.319624e+01 1.968818e+01 4.090216e+01 6.748768e+00 3.745379e+00 7.329261e+00 5.035762e+00 3.011702e+00 2.648720e+00 1.526484e+00 3.375064e+00 6.740129e+00 3.311671e+00 2.161907e+00 2.610394e+00 4.351284e+00
<GCONST> 1.066951e+02
<STATE> 4
<MEAN> 25
 -8.831000e+00 5.298182e+00 -6.092376e-01 -2.108844e-01 7.774828e+00 -2.250348e+00 7.805171e+00 8.356559e-01 2.297830e+00 1.464317e+00 -4.937592e-01 1.767497e+00 -7.348962e-01 -5.691773e-01 -1.095666e+00 -6.372642e-01 3.847527e-01 4.970700e-01 2.761675e-01 5.243992e-01 1.309128e+00 5.177161e-01 3.725611e-01 9.099929e-01 -4.823404e-01
<VARIANCE> 25
 9.850648e+01 1.983941e+01 9.821215e+01 6.878894e+01 2.901616e+01 7.885479e+01 2.297274e+01 2.853448e+01 1.840046e+01 1.529103e+01 2.610847e+01 2.043810e+01 2.779046e+00 9.558423e-01 2.596146e+00 1.551697e+00 1.258361e+00 1.973938e+00 1.159072e+00 2.252014e+00 3.248300e+00 2.200860e+00 2.979235e+00 2.007076e+00 1.544339e+00
<GCONST> 9.691261e+01
<TRANSP> 5
 0.000000e+00 1.000000e+00 0.000000e+00 0.000000e+00 0.000000e+00
 0.000000e+00 8.826159e-01 1.173842e-01 0.000000e+00 0.000000e+00
 0.000000e+00 0.000000e+00 7.807903e-01 2.192096e-01 0.000000e+00
 0.000000e+00 0.000000e+00 0.000000e+00 6.808252e-01 3.191748e-01
 0.000000e+00 0.000000e+00 0.000000e+00 0.000000e+00 0.000000e+00
<ENDHMM>
~h "ch"
<BEGINHMM>
<NUMSTATES> 5
<STATE> 2
<MEAN> 25
 -3.239911e+00 -1.807141e+00 -8.087674e-01 4.064096e+00 2.491446e+00 7.789902e-01 3.892738e+00 2.739685e+00 4.792892e+00 1.836080e+00 1.154347e-01 3.369403e+00 -2.225419e-01 -1.714473e-02 4.944605e-02 -1.693724e-01 2.066354e-01 4.075011e-01 -8.672261e-02 -5.287036e-02 2.980042e-01 2.858351e-01 2.871520e-01 -2.100269e-02 -4.685177e-01
<VARIANCE> 25
 7.107655e+00 8.640303e+00 1.297415e+01 8.820726e+00 1.058418e+01 1.231981e+01 1.400179e+01 2.285380e+01 9.374583e+00 1.771874e+01 1.599162e+01 1.397954e+01 5.487765e-01 9.637630e-01 7.246929e-01 1.616839e+00 1.322172e+00 2.233652e+00 1.791145e+00 1.825246e+00 1.520461e+00 2.202157e+00 1.396266e+00 1.561031e+00 1.991899e+00
<GCONST> 8.043141e+01
<STATE> 3
<MEAN> 25
 -6.912806e+00 -3.350847e+00 1.772291e+00 -1.886919e+00 2.479750e+00 5.520508e+00 -1.071787e+00 4.815079e-01 4.187123e+00 -2.509934e+00 2.266906e+00 3.477450e+00 -3.387093e+00 6.173505e-01 1.702916e+00 -1.780924e+00 -6.108589e-01 1.376209e+00 -1.193455e+00 -1.778650e+00 9.839616e-01 -1.017167e+00 4.756416e-01 1.095525e-01 2.397280e+00
<VARIANCE> 25
 4.474823e+01 3.161849e+01 1.773005e+01 2.559267e+01 1.835419e+01 1.919678e+01 4.137924e+01 2.851720e+01 2.531703e+01 1.866917e+01 8.500373e+00 4.745741e+00 3.336494e+00 3.475196e+00 1.237166e+00 1.671346e+00 3.237190e+00 2.519722e+00 3.726514e+00 2.302034e+00 9.675198e-01 2.182158e+00 1.355862e+00 1.570349e+00 4.877444e+00
<GCONST> 9.262567e+01
<STATE> 4
<MEAN> 25
 -1.814229e+01 1.527166e+00 8.587488e+00 -3.488417e+00 -5.205105e+00 3.611269e+00 4.733974e+00 -6.937823e+00 5.339016e+00 -2.072328e+00 3.050468e+00 -9.313529e-01 5.495076e-01 1.020071e-01 3.673948e-01 9.893867e-01 -8.638831e-01 -1.566812e+00 6.356153e-01 -1.758573e-01 -5.717002e-01 -2.941120e-01 -3.586708e-01 -6.805885e-01 8.811684e-01
<VARIANCE> 25
 3.803962e+01 8.846907e+00 1.057421e+01 1.922399e+01 1.760019e+01 3.522264e+01 1.891789e+01 2.290125e+01 1.507035e+01 8.851308e+00 1.243214e+01 1.397489e+01 7.140832e+00 1.365991e+00 1.142519e+00 1.463811e+00 2.509652e+00 3.358595e+00 3.359401e+00 2.732423e+00 1.263303e+00 1.655193e+00 1.128561e+00 1.163146e+00 2.803364e+00
<GCONST> 8.881309e+01
<TRANSP> 5
 0.000000e+00 1.000000e+00 0.000000e+00 0.000000e+00 0.000000e+00
 0.000000e+00 9.048274e-01 9.517262e-02 0.000000e+00 0.000000e+00
 0.000000e+00 0.000000e+00 6.556792e-01 3.443207e-01 0.000000e+00
 0.000000e+00 0.000000e+00 0.000000e+00 8.419578e-01 1.580422e-01
 0.000000e+00 0.000000e+00 0.000000e+00 0.000000e+00 0.000000e+00
<ENDHMM>
~h "dh"
<BEGINHMM>
<NUMSTATES> 5
<STATE> 2
<MEAN> 25
 3.239970e+00 2.349055e+00 5.211744e+00 4.341906e+00 -3.744911e+00 -7.388038e+00 -6.856152e+00 -3.605047e+00 -3.708044e+00 1.038048e+00 -6.731492e-01 -5.086281e+00 8.589222e-01 -8.065515e-01 4.228634e-01 2.672457e-01 -8.185360e-01 -4.578465e-01 -6.645296e-01 -6.375340e-02 4.537125e-03 -2.747533e-01 9.698655e-02 2.787181e-01 3.486841e-03
<VARIANCE> 25
 8.126280e+00 2.278683e+01 1.835778e+01 1.697132e+01 3.588940e+01 2.756842e+01 2.933719e+01 5.309880e+01 3.390242e+01 1.533510e+01 1.696512e+01 4.305095e+01 2.348818e+00 2.742053e+00 1.600744e+00 2.510131e+00 3.669217e+00 2.099277e+00 2.401219e+00 2.064022e+00 1.909058e+00 1.943769e+00 1.395073e+00 2.488257e+00 1.337447e+00
<GCONST> 9.374722e+01
<STATE> 3
<MEAN> 25
 7.442830e+00 -1.511392e+00 2.568455e+00 1.083763e+01 -9.598778e+00 -1.130342e+01 -8.369283e+00 3.285640e+00 -5.716290e-02 -5.699244e+00 2.818921e+00 4.126832e+00 7.084337e-01 -2.300762e-02 -1.450470e+00 8.791438e-01 5.148486e-01 -1.729749e-01 -1.071282e+00 1.061394e+00 9.738475e-02 -7.453174e-01 -4.604690e-03 4.583077e-01 -4.795933e-01
<VARIANCE> 25
 7.444742e+00 2.965723e+01 1.697529e+01 2.616993e+01 2.657549e+01 3.874397e+01 4.603688e+01 3.108003e+01 2.012752e+01 1.859081e+01 1.797342e+01 1.883354e+01 4.850121e-01 5.674479e-01 6.350786e-01 2.314728e+00 1.755659e+00 1.152052e+00 1.262621e+00 9.112579e-01 1.120456e+00 1.672502e+00 5.872310e-01 1.785034e+00 4.114822e-01
<GCONST> 8.311970e+01
<STATE> 4
<MEAN> 25
 6.683730e+00 2.214665e+00 -1.262318e+00 1.053386e+01 -5.406754e+00 -6.974545e+00 -1.061293e+01 3.276617e+00 -1.546766e+00 -6.677994e+00 1.022004e+00 3.261921e+00 -1.682832e-01 2.559348e-01 -3.655898e-01 -5.397218e-01 7.594062e-01 4.475197e-01 3.818094e-01 2.397531e-01 7.304252e-01 -2.301560e-01 -4.380607e-01 -5.535120e-01 -7.154974e-01
<VARIANCE> 25
 1.705147e+01 1.871419e+01 1.972983e+01 2.742839e+01 2.676274e+01 4.850831e+01 5.054097e+01 5.244320e+01 2.011142e+01 1.712958e+01 2.604430e+01 4.831277e+01 8.277706e-01 1.052285e+00 6.581784e-01 1.033302e+00 1.235614e+00 8.966846e-01 2.061964e+00 1.073624e+00 1.513266e+00 1.273657e+00 1.934325e+00 2.028725e+00 3.556501e-01
<GCONST> 8.740015e+01
<TRANSP> 5
 0.000000e+00 1.000000e+00 0.000000e+00 0.000000e+00 0.000000e+00
 0.000000e+00 8.467693e-01 1.532308e-01 0.000000e+00 0.000000e+00
 0.000000e+00 0.000000e+00 7.454635e-01 2.545365e-01 0.000000e+00
 0.000000e+00 0.000000e+00 0.000000e+00 6.621597e-01 3.378403e-01
 0.000000e+00 0.000000e+00 0.000000e+00 0.000000e+00 0.000000e+00
<ENDHMM>
~h "eh"
<BEGINHMM>
<NUMSTATES> 5
<STATE> 2
<MEAN> 25
 4.612803e+00 -5.266430e+00 1.667153e+00 -1.912890e+00 -5.675766e+00 -5.458610e+00 1.563309e+00 6.286854e+00 -3.099236e+00 -2.635189e+00 -3.631220e+00 -5.798277e+00 3.914924e-01 -3.169606e-01 -2.091744e-01 -1.264108e-01 1.899992e-01 -3.884273e-01 -2.294688e-01 2.302469e-01 -8.491910e-02 -3.120631e-01 -4.685858e-01 -6.222366e-01 7.053574e-01
<VARIANCE> 25
 3.256009e+01 2.388779e+01 2.988665e+01 2.027354e+01 4.522711e+01 4.316238e+01 5.772547e+01 2.699383e+01 2.123645e+01 2.425781e+01 1.780311e+01 3.743278e+01 2.408929e+00 2.612226e+00 2.322982e+00 2.031516e+00 2.885145e+00 3.534400e+00 3.698195e+00 2.455271e+00 2.806532e+00 2.063626e+00 2.263651e+00 3.641878e+00 3.522144e+00
<GCONST> 9.972863e+01
<STATE> 3
<MEAN> 25
 4.128190e+00 -2.559314e+00 -3.718321e-02 -1.197830e+00 -3.460564e+00 -6.483953e+00 -8.573222e-01 4.271442e+00 -1.962319e+00 -1.480579e+00 -4.585187e+00 -5.723891e+00 -1.761692e-01 8.577964e-01 -2.635983e-01 2.990380e-01 5.388508e-01 4.026604e-01 -2.809499e-01 -9.204459e-01 2.310711e-01 3.924477e-01 -2.996741e-01 1.917206e-01 -4.184439e-01
<VARIANCE> 25
 4.102737e+01 4.646492e+01 3.876126e+01 3.093084e+01 5.584293e+01 4.008207e+01 4.949350e+01 3.005120e+01 1.930257e+01 3.264534e+01 2.887079e+01 3.661354e+01 1.949232e+00 1.783846e+00 2.169943e+00 2.408640e+00 3.670161e+00 3.262570e+00 2.556050e+00 1.833749e+00 2.086337e+00 1.971932e+00 1.741318e+00 2.228358e+00 3.109410e+00
<GCONST> 9.984875e+01
<STATE> 4
<MEAN> 25
 -8.915597e-01 -5.922629e-01 -1.084520e+00 -3.339073e-01 8.177104e-01 -1.947205e+00 2.079629e+00 2.187188e+00 1.708730e+00 2.163480e+00 -1.761588e+00 -1.569584e+00 1.116856e-01 2.681694e-01 -2.922210e-02 -2.157944e-01 -2.109210e-02 2.677970e-01 -1.208235e-01 -6.778068e-01 -1.502391e-01 1.826831e-01 2.452755e-01 -2.229478e-01 -2.156213e-02
<VARIANCE> 25
 5.183489e+01 2.764568e+01 3.573159e+01 1.689863e+01 3.210766e+01 4.091228e+01 3.252058e+01 1.731051e+01 2.674945e+01 2.192482e+01 2.838101e+01 4.140347e+01 3.811673e+00 1.489628e+00 1.531187e+00 2.355218e+00 2.494871e+00 3.806927e+00 2.517161e+00 2.160903e+00 2.131589e+00 2.110699e+00 1.442748e+00 1.795637e+00 1.817147e+00
<GCONST> 9.659169e+01
<TRANSP> 5
 0.000000e+00 1.000000e+00 0.000000e+00 0.000000e+00 0.000000e+00
 0.000000e+00 7.785664e-01 2.214336e-01 0.000000e+00 0.000000e+00
 0.000000e+00 0.000000e+00 5.816936e-01 4.183064e-01 0.000000e+00
 0.000000e+00 0.000000e+00 0.000000e+00 6.487821e-01 3.512179e-01
 0.000000e+00 0.000000e+00 0.000000e+00 0.000000e+00 0.000000e+00
<ENDHMM>
~h "er"
<BEGINHMM>
<NUMSTATES> 5
<STATE> 2
<MEAN> 25
 1.144667e+01 -2.986362e-01 -3.431058e+00 8.260415e+00 -7.869204e-01 -9.519532e+00 -1.465359e+01 4.436513e+00 1.289378e+00 -7.773332e+00 1.108394e+00 5.473348e+00 1.424760e-01 -6.841947e-02 -3.104620e-01 2.468258e-01 8.150704e-02 -1.365438e-01 -5.073586e-01 4.575489e-01 2.676302e-01 -1.960346e-01 -1.912923e-01 8.446209e-02 -1.897097e-01
<VARIANCE> 25
 1.532881e+01 1.394510e+01 5.026731e+01 4.200683e+01 4.174271e+01 4.750694e+01 6.136977e+01 5.421776e+01 4.280054e+01 2.964513e+01 3.638165e+01 1.835709e+01 1.682815e+00 7.490563e-01 1.924237e+00 1.210929e+00 2.351530e+00 2.334796e+00 4.360330e+00 2.205271e+00 2.131517e+00 1.637731e+00 1.724040e+00 1.378985e+00 4.599780e-01
<GCONST> 9.470267e+01
<STATE> 3
<MEAN> 25
 5.525161e+00 -8.535194e-01 -8.631713e-01 8.143167e+00 -1.395156e+00 -6.401740e+00 -6.405578e+00 6.446814e+00 1.123277e+00 -6.303958e+00 -2.334014e+00 2.997922e+00 -1.073592e+00 -2.409745e-01 3.732588e-01 -8.705338e-01 -3.176897e-02 9.767376e-01 1.687704e+00 -4.667010e-01 -4.058258e-01 5.934438e-01 -1.999775e-01 -5.529320e-01 -5.965408e-01
<VARIANCE> 25
 2.437813e+01 2.035145e+01 2.255016e+01 3.981783e+01 2.877125e+01 6.059067e+01 6.306221e+01 5.796941e+01 3.130886e+01 3.373795e+01 3.589942e+01 3.435002e+01 9.791775e-01 9.536868e-01 1.652524e+00 2.276183e+00 2.573099e+00 3.786960e+00 3.302795e+00 3.197482e+00 2.449133e+00 2.789042e+00 2.628481e+00 2.438389e+00 8.161384e-01
<GCONST> 9.816738e+01
<STATE> 4
<MEAN> 25
 -1.217295e+00 -3.352777e+00 -3.541966e+00 -1.310892e+00 7.271534e-01 1.032225e-01 -2.634924e-01 1.216341e+00 2.137876e+00 1.120926e+00 -1.898081e+00 7.817050e-01 -1.423285e-01 3.080833e-02 2.165274e-02 -2.241488e-01 1.082991e-01 2.164246e-01 1.539339e-01 -1.490895e-01 4.835971e-02 3.619984e-01 1.300430e-01 -1.149457e-01 -9.100068e-02
<VARIANCE> 25
 9.900775e+00 5.965565e+00 1.539348e+01 1.385558e+01 1.597643e+01 2.052014e+01 1.829918e+01 1.883954e+01 2.143647e+01 2.376550e+01 1.733974e+01 1.702287e+01 5.293781e-01 5.275279e-01 9.612175e-01 1.256374e+00 1.202287e+00 1.454257e+00 1.888542e+00 1.811480e+00 1.703189e+00 1.662983e+00 1.647073e+00 1.806847e+00 2.366355e-01
<GCONST> 8.033661e+01
<TRANSP> 5
 0.000000e+00 1.000000e+00 0.000000e+00 0.000000e+00 0.000000e+00
 0.000000e+00 9.108238e-01 8.917620e-02 0.000000e+00 0.000000e+00
 0.000000e+00 0.000000e+00 8.405310e-01 1.594690e-01 0.000000e+00
 0.000000e+00 0.000000e+00 0.000000e+00 9.161595e-01 8.384055e-02
 0.000000e+00 0.000000e+00 0.000000e+00 0.000000e+00 0.000000e+00
<ENDHMM>
~h "ey"
<BEGINHMM>
<NUMSTATES> 5
<STATE> 2
<MEAN> 25
 3.149862e+00 1.394782e+00 1.354300e+01 -3.917143e+00 -1.432174e+01 5.146505e-01 -1.963016e+00 -1.397217e+00 -9.468705e+00 2.635091e+00 1.113558e+00 -4.198330e+00 -1.257703e-01 3.189018e-01 6.506073e-01 -2.106794e-01 -1.721304e-01 3.970685e-01 -2.307232e-01 -7.528205e-01 -3.176302e-01 1.875265e-01 1.270214e-02 -2.133088e-01 -1.741992e-01
<VARIANCE> 25
 9.300772e+00 1.780429e+01 1.977811e+01 3.730070e+01 1.635917e+01 5.613371e+01 5.825428e+01 3.858945e+01 2.965514e+01 1.784138e+01 3.402294e+01 2.003591e+01 3.905754e-01 3.949131e-01 7.121586e-01 8.220732e-01 1.123732e+00 1.039914e+00 1.372178e+00 1.263522e+00 1.570369e+00 1.029022e+00 1.095243e+00 8.727342e-01 2.475331e-01
<GCONST> 8.233614e+01
<STATE> 3
<MEAN> 25
 -1.199476e+00 2.654166e+00 1.442352e+01 -2.110792e+00 -1.085433e+01 -6.238455e-01 8.068933e-01 -3.655648e+00 -7.144730e+00 -5.306453e-01 1.629478e+00 -3.659787e+00 -3.033507e-01 7.759187e-02 -3.172770e-01 3.032564e-01 6.489235e-01 -1.114031e-01 2.228290e-01 -8.262765e-02 4.260587e-01 -4.861946e-01 8.350815e-03 8.347657e-02 -4.736632e-01
<VARIANCE> 25
 7.356616e+01 1.700182e+01 3.912092e+01 4.151561e+01 3.389503e+01 4.367664e+01 7.102317e+01 5.904139e+01 6.221991e+01 2.084028e+01 3.026430e+01 3.006236e+01 2.887645e+00 8.610018e-01 1.278486e+00 1.362431e+00 1.793514e+00 2.002729e+00 2.496696e+00 2.664571e+00 3.833204e+00 1.303274e+00 1.487131e+00 1.446766e+00 5.616668e-01
<GCONST> 9.653064e+01
<STATE> 4
<MEAN> 25
 2.756685e+00 2.837372e+00 7.657932e+00 4.415163e-01 -6.282181e+00 -1.942093e-01 -9.996548e-01 -5.578307e+00 -5.786955e+00 -1.077909e+00 -6.571123e-01 -5.004970e+00 7.285229e-02 -7.658476e-02 -9.715379e-01 6.350642e-01 1.071928e+00 -2.438015e-01 -1.160821e-01 4.307739e-01 5.564477e-01 -2.967937e-01 -2.486617e-01 1.601876e-01 -6.883170e-01
<VARIANCE> 25
 2.448892e+01 2.972373e+01 7.002270e+01 3.795535e+01 3.867357e+01 4.292648e+01 4.589385e+01 6.970340e+01 5.336100e+01 2.088694e+01 2.608526e+01 2.987628e+01 2.911526e+00 9.851050e-01 1.797662e+00 2.583959e+00 2.729537e+00 3.763439e+00 3.637734e+00 2.565242e+00 3.331373e+00 2.201710e+00 1.659096e+00 1.683048e+00 6.743075e-01
<GCONST> 9.935998e+01
<TRANSP> 5
 0.000000e+00 1.000000e+00 0.000000e+00 0.000000e+00 0.000000e+00
 0.000000e+00 8.973786e-01 1.026214e-01 0.000000e+00 0.000000e+00
 0.000000e+00 0.000000e+00 5.936580e-01 4.063420e-01 0.000000e+00
 0.000000e+00 0.000000e+00 0.000000e+00 7.845712e-01 2.154288e-01
 0.000000e+00 0.000000e+00 0.000000e+00 0.000000e+00 0.000000e+00
<ENDHMM>
~h "hh"
<BEGINHMM>
<NUMSTATES> 5
<STATE> 2
<MEAN> 25
 2.913128e+00 -4.829220e+00 -3.232931e+00 -1.373710e+00 3.966873e+00 6.666028e+00 1.262349e+00 4.871300e-02 2.339359e+00 1.046080e-01 -9.931191e-02 -5.524997e+00 -2.086472e-01 -2.390903e-01 -3.254241e-01 -1.494306e-02 -1.374140e-01 1.116691e-01 3.543654e-01 7.042916e-02 1.636085e-01 -1.976686e-01 2.360869e-01 4.192370e-01 -1.252336e-01
<VARIANCE> 25
 3.800602e+01 4.717035e+01 5.369396e+01 7.565244e+01 3.908994e+01 3.184567e+01 4.496783e+01 4.616700e+01 1.435028e+01 1.872521e+01 2.843722e+01 1.072969e+02 5.988407e-01 1.032321e+00 1.259264e+00 2.003172e+00 1.591256e+00 2.500363e+00 7.813694e-01 2.150264e+00 1.486122e+00 2.102143e+00 1.640064e+00 2.576649e+00 3.275807e-01
<GCONST> 9.393830e+01
<STATE> 3
<MEAN> 25
 -3.255647e+00 -2.027995e+00 -2.873125e+00 2.163933e+00 3.923311e+00 4.827955e+00 3.874062e+00 1.261943e+00 4.070351e+00 4.456134e-01 2.582448e+00 3.377250e+00 6.238721e-02 1.719008e-01 -1.117667e-01 2.750859e-01 -1.877750e-01 7.201067e-01 -8.758558e-02 6.257825e-01 1.566338e-01 -2.648873e-02 -1.419315e-02 -1.838487e-01 -2.208093e-02
<VARIANCE> 25
 1.972890e+01 2.345256e+01 3.313319e+01 3.401448e+01 3.454866e+01 5.047828e+01 2.223845e+01 3.638402e+01 2.487151e+01 2.437621e+01 2.740561e+01 3.654493e+01 8.482762e-01 2.200043e+00 1.857143e+00 1.216925e+00 9.059573e-01 4.038422e+00 1.387679e+00 2.930106e+00 1.557047e+00 1.690140e+00 1.392076e+00 8.310817e-01 2.889118e-01
<GCONST> 9.059858e+01
<STATE> 4
<MEAN> 25
 -4.847323e+00 -6.876962e-01 -4.620189e-01 2.874381e+00 2.402100e+00 2.363878e+00 3.657795e+00 1.891904e+00 4.625914e+00 1.883475e+00 2.597661e+00 4.074585e+00 7.340874e-02 -4.443894e-02 -5.501330e-02 -9.161461e-02 -1.048196e-01 -2.717877e-02 9.797680e-02 2.377989e-02 -1.202565e-01 -3.761961e-02 -1.173815e-01 -1.455354e-01 5.424842e-02
<VARIANCE> 25
 7.288564e+00 4.953168e+00 6.808942e+00 8.648622e+00 1.030229e+01 1.383355e+01 1.775776e+01 1.987107e+01 1.301953e+01 1.452316e+01 1.316131e+01 1.358769e+01 5.665564e-01 6.299386e-01 7.154226e-01 7.702532e-01 1.000817e+00 1.288393e+00 1.649250e+00 1.796051e+00 1.453488e+00 1.619617e+00 1.397961e+00 1.291578e+00 3.946589e-01
<GCONST> 7.509428e+01
<TRANSP> 5
 0.000000e+00 1.000000e+00 0.000000e+00 0.000000e+00 0.000000e+00
 0.000000e+00 7.302240e-01 2.697761e-01 0.000000e+00 0.000000e+00
 0.000000e+00 0.000000e+00 4.699751e-01 5.300249e-01 0.000000e+00
 0.000000e+00 0.000000e+00 0.000000e+00 9.443172e-01 5.568272e-02
 0.000000e+00 0.000000e+00 0.000000e+00 0.000000e+00 0.000000e+00
<ENDHMM>
~h "ih"
<BEGINHMM>
<NUMSTATES> 5
<STATE> 2
<MEAN> 25
 3.256948e+00 2.224046e+00 5.774862e+00 1.174889e+00 -6.153630e+00 -2.735279e+00 -1.493575e+00 -4.383840e+00 -7.913154e+00 -8.165410e-01 -1.432987e+00 -4.070910e+00 -2.170020e-01 2.990659e-01 -9.424694e-02 2.499703e-01 3.850988e-01 3.635965e-02 1.126316e-01 -4.187348e-01 3.790194e-01 -1.863284e-02 2.062290e-03 -1.976466e-01 -3.048601e-01
<VARIANCE> 25
 3.246924e+01 2.576395e+01 3.959742e+01 4.086309e+01 7.313092e+01 3.996584e+01 4.517289e+01 5.736100e+01 6.217144e+01 3.256561e+01 2.509391e+01 3.545728e+01 2.223335e+00 2.488870e+00 4.698971e+00 3.289525e+00 6.293127e+00 4.039611e+00 4.138917e+00 4.989977e+00 5.630827e+00 2.968256e+00 2.512354e+00 1.770967e+00 4.908321e+00
<GCONST> 1.069217e+02
<STATE> 3
<MEAN> 25
 6.688053e-01 3.243963e+00 2.663193e+00 1.652940e+00 1.179687e+00 -2.556728e+00 -2.385802e+00 -1.746353e+00 1.045104e-01 -6.967545e-01 -1.590660e+00 -1.778592e+00 -5.026513e-01 -4.783912e-01 -5.086043e-01 -2.907954e-02 5.108423e-01 3.320966e-01 3.297713e-01 7.981737e-01 1.000130e+00 1.072447e-01 3.171930e-01 5.453951e-01 -1.585153e-01
<VARIANCE> 25
 2.510351e+01 3.334186e+01 3.300414e+01 3.702203e+01 7.411063e+01 3.533690e+01 9.291460e+01 4.530644e+01 3.002654e+01 2.465425e+01 1.803501e+01 2.269151e+01 2.431530e+00 2.512369e+00 2.838370e+00 1.753394e+00 5.103302e+00 2.923574e+00 3.356169e+00 3.788781e+00 2.764099e+00 2.324022e+00 2.443861e+00 1.850908e+00 1.769293e+00
<GCONST> 1.012218e+02
<STATE> 4
<MEAN> 25
 -2.238514e+00 -5.619271e-01 5.945562e-01 3.015246e+00 2.236701e+00 1.883069e+00 4.291272e+00 3.610665e+00 5.477028e+00 2.891851e+00 1.373633e+00 2.504627e+00 -2.266594e-01 -3.582954e-01 -3.653417e-01 -2.823128e-01 1.971951e-01 1.834369e-01 1.911763e-01 1.815677e-01 2.110863e-01 2.757361e-01 3.352552e-01 3.276350e-01 -2.827260e-01
<VARIANCE> 25
 2.165476e+01 2.217503e+01 3.571669e+01 2.507023e+01 4.055465e+01 3.428577e+01 4.450232e+01 3.242181e+01 2.958299e+01 2.971470e+01 1.820520e+01 2.429863e+01 1.586837e+00 1.588848e+00 2.050745e+00 1.468264e+00 2.359116e+00 1.715825e+00 2.057343e+00 2.086348e+00 2.052819e+00 2.203920e+00 1.376970e+00 1.769711e+00 1.153449e+00
<GCONST> 9.372609e+01
<TRANSP> 5
 0.000000e+00 1.000000e+00 0.000000e+00 0.000000e+00 0.000000e+00
 0.000000e+00 7.562555e-01 2.437446e-01 0.000000e+00 0.000000e+00
 0.000000e+00 0.000000e+00 4.636720e-01 5.363280e-01 0.000000e+00
 0.000000e+00 0.000000e+00 0.000000e+00 7.205776e-01 2.794224e-01
 0.000000e+00 0.000000e+00 0.000000e+00 0.000000e+00 0.000000e+00
<ENDHMM>
~h "iy"
<BEGINHMM>
<NUMSTATES> 5
<STATE> 2
<MEAN> 25
 2.332106e+00 4.178339e+00 1.035233e+01 3.421445e+00 -4.794135e+00 -2.101998e+00 -9.613421e-01 -7.475183e+00 -6.452629e+00 -1.613146e+00 2.359784e+00 -4.726902e+00 3.924206e-01 9.709257e-01 2.101323e+00 -5.422001e-01 -1.356046e+00 5.836029e-02 -5.180467e-01 -1.467660e+00 -1.503051e+00 -1.791349e-02 1.532110e-01 -1.086407e+00 1.162293e+00
<VARIANCE> 25
 3.747902e+01 2.679174e+01 5.839196e+01 4.666226e+01 5.941098e+01 4.146921e+01 2.903868e+01 4.557182e+01 5.116071e+01 3.856598e+01 4.164178e+01 5.092633e+01 2.974256e+00 2.248897e+00 3.833778e+00 5.268362e+00 4.995696e+00 5.630193e+00 2.960532e+00 3.751110e+00 5.572228e+00 3.467839e+00 3.831298e+00 3.371062e+00 2.159199e+00
<GCONST> 1.079527e+02
<STATE> 3
<MEAN> 25
 1.092583e+00 7.037518e+00 1.694887e+01 -1.861972e+00 -8.318978e+00 -6.604763e-02 -3.959146e+00 -1.293652e+01 -9.573371e+00 -2.853061e+00 1.078532e+00 -4.964160e+00 1.326901e-02 -7.400148e-02 -6.758573e-02 -2.736103e-01 -2.744334e-02 2.496062e-01 -1.899991e-01 9.572425e-02 1.260781e-01 5.529373e-02 1.520306e-02 -1.040685e-01 4.526165e-02
<VARIANCE> 25
 4.690679e+01 2.460835e+01 2.082932e+01 3.893520e+01 4.078746e+01 4.139769e+01 2.719340e+01 4.190834e+01 2.935415e+01 4.317928e+01 4.443325e+01 1.965849e+01 1.424818e+00 1.747385e+00 1.508259e+00 2.907072e+00 2.484221e+00 2.860729e+00 2.067035e+00 2.475683e+00 1.486115e+00 1.734466e+00 1.964401e+00 2.599516e+00 5.323836e-01
<GCONST> 9.601469e+01
<STATE> 4
<MEAN> 25
 3.557147e+00 2.767009e+00 1.880737e+01 -2.331106e+00 -1.032950e+01 -1.167773e+00 -9.630735e+00 -5.442702e+00 -1.196836e+01 -1.372990e+00 -3.690305e-01 -6.074007e+00 -7.076502e-02 -1.719898e-01 -9.727749e-01 6.479193e-01 7.291296e-01 -2.091443e-01 4.197531e-01 5.367012e-01 7.739685e-01 -1.933983e-01 -3.344527e-01 1.008883e-01 -4.215793e-01
<VARIANCE> 25
 1.276554e+01 2.179841e+01 5.879528e+01 5.359323e+01 3.370131e+01 3.909063e+01 5.093380e+01 3.830544e+01 4.285318e+01 2.108641e+01 2.370619e+01 1.958358e+01 6.816908e-01 7.444216e-01 2.306508e+00 1.375724e+00 1.942658e+00 1.722458e+00 2.092190e+00 1.764329e+00 2.752521e+00 2.147160e+00 1.670276e+00 2.751279e+00 5.486609e-01
<GCONST> 9.302899e+01
<TRANSP> 5
 0.000000e+00 1.000000e+00 0.000000e+00 0.000000e+00 0.000000e+00
 0.000000e+00 7.742457e-01 2.257543e-01 0.000000e+00 0.000000e+00
 0.000000e+00 0.000000e+00 7.799772e-01 2.200228e-01 0.000000e+00
 0.000000e+00 0.000000e+00 0.000000e+00 8.277102e-01 1.722898e-01
 0.000000e+00 0.000000e+00 0.000000e+00 0.000000e+00 0.000000e+00
<ENDHMM>
~h "jh"
<BEGINHMM>
<NUMSTATES> 5
<STATE> 2
<MEAN> 25
 -2.638197e-02 -9.740818e-01 -5.192903e-01 1.191791e+00 -4.195047e+00 -2.456892e+00 -1.419144e+00 -2.975467e+00 -1.776170e+00 7.089414e-01 -1.211561e-01 4.059038e-01 6.102423e-01 -8.636935e-01 3.529338e-01 -1.069550e+00 -1.693744e+00 -1.288554e+00 -1.646238e+00 -9.375647e-02 -8.080437e-01 8.293702e-02 -8.415270e-01 -1.498915e+00 4.275724e+00
<VARIANCE> 25
 3.575459e+01 1.583581e+01 3.139507e+01 1.187680e+01 3.811716e+01 3.976027e+01 2.814178e+01 5.043872e+01 2.019613e+01 1.134704e+01 8.754881e+00 2.730200e+01 8.774919e+00 2.416599e+00 3.113048e+00 2.279066e+00 5.035324e+00 8.162391e+00 1.498777e+00 1.099180e+01 5.650607e+00 1.604491e+00 7.269146e-01 1.722117e+00 9.021588e+00
<GCONST> 9.985994e+01
<STATE> 3
<MEAN> 25
 4.744922e+00 -6.914125e+00 -5.847791e-01 -5.140434e+00 -4.407137e+00 -1.714882e+00 -5.353140e+00 -1.040527e+00 1.188863e+00 1.119905e+00 -3.233914e+00 -8.409120e+00 1.529600e-01 -1.981850e-01 4.054686e-01 8.132543e-02 -2.166921e-01 -5.786807e-01 1.669882e-01 3.070014e-01 -5.279130e-01 -2.554838e-01 -2.165095e-02 1.522011e-01 -1.741169e-01
<VARIANCE> 25
 2.231957e+02 3.243579e+01 4.529904e+01 1.447305e+01 1.823170e+01 4.147574e+01 5.802925e+01 4.687378e+01 1.397180e+01 1.739088e+01 1.598039e+01 6.596362e+01 4.137090e+00 1.203839e+00 2.694805e+00 2.457011e+00 2.484977e+00 5.052818e+00 2.278336e+00 4.324884e+00 3.106498e+00 1.727822e+00 2.573970e+00 2.718881e+00 8.798779e-01
<GCONST> 1.001218e+02
<STATE> 4
<MEAN> 25
 9.579695e-01 -6.783492e-01 9.721327e+00 -9.327716e-01 -4.405061e+00 -3.299541e+00 -5.532367e+00 5.983501e-01 -7.215844e+00 -3.860821e+00 -1.274243e+00 -3.494392e+00 -2.469620e-01 1.197594e-01 -4.083480e-02 -3.889956e-01 4.366203e-01 5.556726e-01 1.821954e-02 -2.194203e-01 4.286325e-01 -2.798416e-02 2.190989e-01 -4.951982e-02 -1.456446e-01
<VARIANCE> 25
 6.024045e+01 4.116160e+01 4.632838e+01 3.584056e+01 5.315128e+01 7.848669e+01 2.362532e+01 2.831038e+01 9.008475e+01 1.768122e+01 2.123134e+01 1.612437e+01 7.583557e+00 3.572672e+00 3.349896e+00 5.245815e+00 4.146927e+00 6.035764e+00 3.580492e+00 3.192965e+00 6.793403e+00 1.775273e+00 2.196411e+00 1.928056e+00 6.143875e+00
<GCONST> 1.067992e+02
<TRANSP> 5
 0.000000e+00 1.000000e+00 0.000000e+00 0.000000e+00 0.000000e+00
 0.000000e+00 8.172682e-01 1.827318e-01 0.000000e+00 0.000000e+00
 0.000000e+00 0.000000e+00 8.856736e-01 1.143263e-01 0.000000e+00
 0.000000e+00 0.000000e+00 0.000000e+00 9.352744e-01 6.472556e-02
 0.000000e+00 0.000000e+00 0.000000e+00 0.000000e+00 0.000000e+00
<ENDHMM>
~h "ng"
<BEGINHMM>
<NUMSTATES> 5
<STATE> 2
<MEAN> 25
 1.506913e+00 1.948663e+00 -3.331906e+00 5.141390e+00 3.266093e+00 -2.416244e-01 2.550693e+00 -3.641942e+00 -1.140206e+00 4.962091e-01 1.460734e-01 -1.392664e+00 -7.844341e-01 -4.860946e-01 -3.193874e-01 -4.999384e-01 3.201693e-01 7.517229e-01 5.962604e-01 6.579087e-01 7.851311e-01 5.250859e-01 1.206710e+00 1.119132e+00 -5.818887e-01
<VARIANCE> 25
 4.151516e+01 8.520632e+00 9.860133e+00 9.963196e+00 5.789289e+00 2.523569e+01 9.213714e+00 3.739513e+01 3.365241e+01 9.941265e+00 1.501634e+01 4.166913e+01 7.995995e-01 7.917268e-01 1.016018e+00 6.104410e-01 4.649435e-01 1.981026e+00 1.605769e+00 1.673077e+00 1.500756e+00 2.939922e+00 3.148326e+00 2.274372e+00 1.602850e-01
<GCONST> 8.107434e+01
<STATE> 3
<MEAN> 25
 -5.116564e+00 -9.950593e-01 -1.774818e+00 1.584775e+00 4.823356e+00 4.455534e+00 5.384803e+00 3.410114e+00 5.519362e+00 3.832907e+00 3.669160e+00 4.862365e+00 -3.469829e-02 1.645277e-02 -4.675629e-02 1.013460e-02 4.785806e-02 -5.483008e-03 3.553793e-02 4.825446e-02 9.188151e-02 5.450559e-02 5.983907e-02 -1.288094e-02 -2.079502e-02
<VARIANCE> 25
 5.565799e+00 2.186671e+00 8.168796e+00 5.580389e+00 7.219660e+00 1.073050e+01 1.086001e+01 1.007708e+01 1.379303e+01 1.269526e+01 8.080150e+00 8.431458e+00 1.875843e-01 2.603870e-01 4.934543e-01 7.997417e-01 7.195838e-01 8.460409e-01 1.126825e+00 1.060430e+00 1.473168e+00 1.518366e+00 1.162841e+00 1.091339e+00 5.901970e-02
<GCONST> 6.464388e+01
<STATE> 4
<MEAN> 25
 -5.700548e+00 -8.946780e-02 -5.749709e+00 2.348066e+00 5.767501e+00 4.301995e+00 5.938835e+00 3.257233e+00 6.402515e+00 3.315309e+00 4.189145e+00 5.552468e+00 -4.510379e-02 4.972320e-02 -1.212154e-01 1.979659e-01 -1.997651e-01 -2.521771e-01 -1.377731e-01 9.322274e-02 -2.760186e-01 -4.104855e-01 -6.087183e-02 8.200147e-04 2.762634e-01
<VARIANCE> 25
 4.095956e+00 5.263783e+00 1.629056e+01 2.885566e+00 7.645973e+00 9.659160e+00 1.108873e+01 1.161909e+01 1.483520e+01 1.269280e+01 9.188241e+00 8.039719e+00 4.393335e-01 4.066432e-01 6.167918e-01 6.209204e-01 8.554856e-01 1.625555e+00 1.029793e+00 1.008369e+00 2.622628e+00 1.200368e+00 1.460729e+00 1.517419e+00 4.287352e-01
<GCONST> 7.035030e+01
<TRANSP> 5
 0.000000e+00 1.000000e+00 0.000000e+00 0.000000e+00 0.000000e+00
 0.000000e+00 7.066997e-01 2.933003e-01 0.000000e+00 0.000000e+00
 0.000000e+00 0.000000e+00 9.566702e-01 4.332983e-02 0.000000e+00
 0.000000e+00 0.000000e+00 0.000000e+00 8.704737e-01 1.295263e-01
 0.000000e+00 0.000000e+00 0.000000e+00 0.000000e+00 0.000000e+00
<ENDHMM>
~h "ow"
<BEGINHMM>
<NUMSTATES> 5
<STATE> 2
<MEAN> 25
 1.158661e+01 2.316806e+00 -3.839628e+00 -9.363358e+00 -3.607350e+00 6.131858e+00 -8.853332e+00 -4.425997e+00 -5.242289e+00 1.728463e+00 2.064026e+00 -3.547559e+00 5.523854e-02 3.216760e-01 -3.983801e-02 -1.599261e-01 -1.669381e-01 1.895526e-01 1.409068e-01 -6.021059e-02 -3.425645e-01 -4.994932e-01 1.074578e-01 2.881878e-01 -2.965177e-01
<VARIANCE> 25
 5.369943e+00 3.513490e+01 1.557572e+01 2.252094e+01 2.909300e+01 4.255125e+01 3.773993e+01 3.737321e+01 4.855237e+01 5.376303e+01 3.694765e+01 3.337137e+01 1.776797e-01 8.002095e-01 3.446746e-01 7.207156e-01 7.725779e-01 1.191668e+00 8.552576e-01 1.647198e+00 1.191017e+00 1.360709e+00 1.146047e+00 8.497049e-01 2.436930e-01
<GCONST> 8.236558e+01
<STATE> 3
<MEAN> 25
 8.887676e+00 4.350494e+00 -2.752512e-01 -1.683418e+00 -2.115716e+00 3.367512e+00 -4.699790e+00 -4.541625e+00 -3.320698e+00 -6.298008e+00 4.933447e-01 -2.575603e+00 -7.057511e-01 -5.317718e-01 2.901283e-01 7.372481e-01 4.576153e-01 -4.573846e-01 2.633474e-01 2.638453e-01 6.178609e-01 4.080963e-01 -1.645790e-01 -1.131179e-01 -5.893108e-01
<VARIANCE> 25
 1.618987e+01 1.868313e+01 4.439611e+01 3.621163e+01 1.939180e+01 3.019692e+01 3.879190e+01 3.459195e+01 3.445801e+01 3.010385e+01 4.882103e+01 4.283572e+01 1.409751e+00 1.045034e+00 1.392890e+00 3.131719e+00 2.460511e+00 2.490374e+00 2.515977e+00 2.728971e+00 3.317492e+00 2.541089e+00 3.074852e+00 2.261294e+00 6.314640e-01
<GCONST> 9.641691e+01
<STATE> 4
<MEAN> 25
 -4.055881e+00 -2.545372e+00 -3.181602e+00 9.497505e-01 2.607774e+00 2.582861e+00 2.612189e+00 1.200836e+00 2.688068e+00 2.278342e+00 3.093466e+00 3.526661e+00 -1.231619e-01 -1.332490e-01 -4.612193e-02 4.521698e-02 1.121859e-01 7.350299e-02 1.016052e-01 2.319807e-02 -2.070314e-02 1.026809e-01 1.379134e-01 1.660727e-01 4.597032e-02
<VARIANCE> 25
 1.142900e+01 1.047950e+01 1.111214e+01 1.539403e+01 1.216012e+01 1.268951e+01 2.190657e+01 2.162553e+01 2.328868e+01 1.558269e+01 2.134455e+01 2.075732e+01 5.860180e-01 7.200374e-01 8.234867e-01 7.920870e-01 1.161093e+00 1.107023e+00 1.685498e+00 1.786291e+00 1.256609e+00 1.513207e+00 1.468300e+00 1.316073e+00 3.571821e-01
<GCONST> 7.939691e+01
<TRANSP> 5
 0.000000e+00 1.000000e+00 0.000000e+00 0.000000e+00 0.000000e+00
 0.000000e+00 9.522390e-01 4.776093e-02 0.000000e+00 0.000000e+00
 0.000000e+00 0.000000e+00 9.175346e-01 8.246540e-02 0.000000e+00
 0.000000e+00 0.000000e+00 0.000000e+00 9.466997e-01 5.330029e-02
 0.000000e+00 0.000000e+00 0.000000e+00 0.000000e+00 0.000000e+00
<ENDHMM>
~h "oy"
<BEGINHMM>
<NUMSTATES> 5
<STATE> 2
<MEAN> 25
 1.053756e+01 -2.704102e+00 6.863213e+00 -5.040808e+00 -9.545339e+00 -3.921381e+00 -7.961987e+00 -2.050011e+00 -8.018794e+00 -2.177122e+00 6.983058e-01 -6.448163e+00 -3.961974e-01 5.976753e-01 4.429597e-02 1.387909e-01 5.277520e-01 -6.438703e-01 5.615707e-01 -2.602939e-01 -3.705767e-01 -2.872221e-01 -9.046225e-02 5.131162e-01 -4.216742e-01
<VARIANCE> 25
 3.619401e+01 5.528852e+01 9.091611e+01 7.513984e+01 5.762350e+01 1.016864e+02 7.576675e+01 5.814351e+01 5.965372e+01 2.087584e+01 2.358632e+01 2.137320e+01 5.159795e+00 1.767579e+00 5.361400e+00 3.657079e+00 4.228523e+00 5.215714e+00 4.786259e+00 4.584776e+00 3.874938e+00 2.388392e+00 2.777233e+00 2.845309e+00 5.540516e-01
<GCONST> 1.078642e+02
<STATE> 3
<MEAN> 25
 -1.612037e+01 6.113933e+00 -4.000563e+00 -3.752630e+00 9.980352e+00 -9.424074e+00 3.820760e+00 1.611294e+00 9.956997e-01 -7.672797e-01 -2.351888e+00 2.956950e+00 -4.239144e-01 -2.935148e-01 -6.557856e-01 1.551387e-01 4.775526e-01 2.045953e-01 -1.040042e-01 6.642109e-01 8.151038e-01 5.141056e-01 -1.006073e-01 4.208061e-01 -4.286758e-01
<VARIANCE> 25
 5.268198e+01 6.662745e+00 1.656943e+01 1.552085e+01 2.863788e+01 1.257182e+01 3.923122e+01 2.674301e+01 2.986465e+01 2.319326e+01 1.553011e+01 2.115673e+01 9.324902e+00 4.770865e-01 3.120654e+00 2.363624e+00 2.222918e+00 2.650314e+00 1.849673e+00 1.499893e+00 4.217117e+00 3.544384e+00 2.118619e+00 1.307178e+00 1.580261e+00
<GCONST> 9.300018e+01
<STATE> 4
<MEAN> 25
 -4.606938e+00 -6.873327e-01 -7.058345e-01 3.802705e+00 3.535479e+00 2.015069e+00 3.037847e+00 9.391288e-01 4.322297e+00 1.741760e+00 5.331358e-01 3.160341e+00 5.587867e-02 -1.065999e-01 -2.149451e-02 6.836955e-02 -1.046454e-01 2.206157e-01 1.173443e-02 -3.312363e-02 7.151884e-03 -2.020684e-02 9.406840e-02 -7.247773e-03 -1.655034e-01
<VARIANCE> 25
 1.268055e+01 9.920963e+00 1.603591e+01 1.700144e+01 1.324756e+01 2.218852e+01 1.791829e+01 1.984673e+01 2.416284e+01 1.516196e+01 1.449881e+01 1.752378e+01 1.196843e+00 1.177205e+00 1.880603e+00 1.856111e+00 1.446411e+00 2.316972e+00 2.031284e+00 2.517994e+00 2.110103e+00 1.685674e+00 1.757484e+00 2.149804e+00 1.263778e+00
<GCONST> 8.665489e+01
<TRANSP> 5
 0.000000e+00 1.000000e+00 0.000000e+00 0.000000e+00 0.000000e+00
 0.000000e+00 9.474361e-01 5.256391e-02 0.000000e+00 0.000000e+00
 0.000000e+00 0.000000e+00 8.949654e-01 1.050347e-01 0.000000e+00
 0.000000e+00 0.000000e+00 0.000000e+00 9.610875e-01 3.891245e-02
 0.000000e+00 0.000000e+00 0.000000e+00 0.000000e+00 0.000000e+00
<ENDHMM>
~h "sh"
<BEGINHMM>
<NUMSTATES> 5
<STATE> 2
<MEAN> 25
 -1.982836e+01 -7.973291e-01 1.143069e+01 -2.327097e+00 -4.139953e+00 -1.227036e+00 6.792830e+00 -3.457534e+00 4.783601e+00 -3.333131e+00 3.130875e+00 2.706228e+00 -3.290225e-01 -3.580792e-02 -2.878929e-01 -1.916984e-01 5.127347e-02 5.591582e-02 4.214716e-02 1.561508e-01 5.286969e-01 -2.253448e-01 7.557032e-02 2.237549e-01 -3.387108e-02
<VARIANCE> 25
