~o
<STREAMINFO> 1 25
<VECSIZE> 25<NULLD><MFCC_D_N_Z_0><DIAGC>
~s "silst"
<MEAN> 25
 -4.701073e+00 -6.614313e-01 -3.045123e+00 1.967122e+00 2.664105e+00 2.502614e+00 3.209689e+00 1.846190e+00 4.445495e+00 2.946214e+00 1.616640e+00 3.132423e+00 -4.037265e-02 1.395935e-01 4.437433e-02 8.572438e-02 -3.249171e-02 9.647559e-03 -9.416668e-02 -1.770866e-02 -1.799365e-01 -1.015082e-01 -5.529308e-02 -1.037904e-01 1.373977e-01
<VARIANCE> 25
 1.105535e+01 1.360265e+01 1.286182e+01 1.673182e+01 1.233813e+01 1.716459e+01 2.111312e+01 1.805456e+01 1.812230e+01 1.467705e+01 1.993040e+01 1.946141e+01 1.099322e+00 1.500695e+00 1.220083e+00 1.388269e+00 1.312676e+00 1.838464e+00 1.740633e+00 2.156124e+00 2.010683e+00 1.815873e+00 1.805380e+00 1.834023e+00 6.790753e-01
<GCONST> 8.451109e+01
~h "a"
<BEGINHMM>
<NUMSTATES> 5
<STATE> 2
<MEAN> 25
 3.588519e+00 -7.097292e+00 -1.901212e+00 -6.233087e+00 -6.309671e+00 -3.279139e+00 2.232947e+00 -6.316769e-01 3.960725e+00 -4.516004e-01 5.253658e+00 1.990817e+00 1.508372e-01 -8.970351e-02 -4.056691e-01 -4.714436e-02 -2.153554e-01 3.459841e-03 2.005334e-01 1.674009e-01 1.451461e-02 -2.777893e-02 3.974996e-01 2.542107e-01 -4.398102e-02
<VARIANCE> 25
 1.030731e+01 1.846256e+01 2.734814e+01 2.101325e+01 1.987494e+01 1.677859e+01 4.999631e+01 1.874923e+01 2.116739e+01 2.512086e+01 2.700109e+01 2.100922e+01 4.080180e-01 1.202358e+00 7.398935e-01 1.614956e+00 2.364790e+00 1.911478e+00 1.832323e+00 1.563679e+00 1.486720e+00 1.297176e+00 2.523031e+00 1.395947e+00 1.183532e+00
<GCONST> 8.693038e+01
<STATE> 3
<MEAN> 25
 5.510557e+00 -1.145748e+00 -6.188365e+00 -2.842102e+00 -2.080709e+00 -2.931516e+00 8.097563e-01 2.309157e+00 -9.355366e-01 -2.572056e+00 5.964574e+00 2.216024e+00 -3.074765e-01 1.562629e+00 3.028340e-01 2.032155e+00 1.807456e+00 1.130525e+00 -1.172663e+00 1.281808e-01 -5.411836e-02 3.397632e-01 -1.778541e+00 -7.230201e-01 -2.077322e+00
<VARIANCE> 25
 7.666521e+00 3.217500e+01 2.847531e+01 4.311057e+01 4.554492e+01 3.589226e+01 3.730191e+01 6.092429e+01 1.833444e+01 3.491830e+01 5.993678e+01 2.320490e+01 9.943044e-01 2.116382e+00 2.966645e+00 3.537458e+00 3.994569e+00 3.441445e+00 3.340286e+00 4.783854e+00 2.421010e+00 3.267040e+00 7.513324e+00 2.828135e+00 1.508834e+00
<GCONST> 1.014178e+02
<STATE> 4
<MEAN> 25
 8.719494e-01 8.163122e+00 -3.679148e+00 3.931923e+00 3.450870e+00 3.231267e+00 4.456490e-01 1.331814e+00 3.065771e-03 2.554555e+00 -2.412992e+00 1.187458e+00 -4.136037e-01 3.638113e-01 3.044332e-01 3.913756e-01 1.278254e-01 1.490388e-01 3.444433e-02 -7.878123e-02 -2.180596e-02 1.070328e-01 -3.922019e-01 -4.248792e-02 -5.641609e-01
<VARIANCE> 25
 2.081121e+01 4.091336e+01 4.221989e+01 3.919713e+01 3.587273e+01 2.611621e+01 4.042903e+01 2.522673e+01 2.056787e+01 2.698147e+01 4.062732e+01 3.235479e+01 4.346948e-01 1.095623e+00 1.202830e+00 2.077889e+00 2.257138e+00 2.024611e+00 1.858196e+00 1.394167e+00 1.467132e+00 1.697863e+00 2.318829e+00 1.299457e+00 3.684651e-01
<GCONST> 9.103833e+01
<TRANSP> 5
 0.000000e+00 1.000000e+00 0.000000e+00 0.000000e+00 0.000000e+00
 0.000000e+00 8.779719e-01 1.220280e-01 0.000000e+00 0.000000e+00
 0.000000e+00 0.000000e+00 7.670029e-01 2.329971e-01 0.000000e+00
 0.000000e+00 0.000000e+00 0.000000e+00 8.334200e-01 1.665800e-01
 0.000000e+00 0.000000e+00 0.000000e+00 0.000000e+00 0.000000e+00
<ENDHMM>
~h "b"
<BEGINHMM>
<NUMSTATES> 5
<STATE> 2
<MEAN> 25
 3.956357e+00 7.632538e+00 6.522573e+00 7.940522e+00 5.459968e+00 1.018481e+00 -4.256289e-01 -4.068950e+00 -3.036859e+00 -5.233477e+00 -4.105413e+00 -2.854482e+00 -1.891514e-02 4.012503e-01 3.552518e-01 4.299711e-01 4.282561e-01 2.028563e-01 1.483423e-02 -1.290114e-02 -1.296615e-02 -4.743649e-01 -2.870611e-01 -8.431450e-02 -5.443476e-02
<VARIANCE> 25
 1.116665e+01 7.675231e+00 1.067482e+01 7.559989e+00 1.065989e+01 1.478279e+01 1.390470e+01 1.985779e+01 2.923450e+01 1.842904e+01 1.551001e+01 1.313285e+01 1.726905e+00 1.727500e+00 1.378888e+00 8.914373e-01 1.090929e+00 1.357493e+00 2.232857e+00 2.409853e+00 2.767859e+00 2.075890e+00 1.628569e+00 1.420852e+00 7.927964e-01
<GCONST> 8.280538e+01
<STATE> 3
<MEAN> 25
 1.357159e+00 5.048677e+00 3.588435e+00 7.210246e+00 7.049527e+00 2.860521e+00 2.161793e+00 -1.868011e+00 -6.737270e-01 -3.583613e+00 -2.617502e+00 -9.376032e-01 3.623054e-01 -1.035497e+00 -1.222853e+00 -1.877715e+00 -1.787578e+00 -8.976629e-01 -1.062829e+00 3.265578e-01 4.831374e-01 1.079512e+00 9.454159e-01 4.512112e-01 2.214554e+00
<VARIANCE> 25
 1.577201e+01 1.172122e+01 1.901110e+01 1.054287e+01 1.106893e+01 1.696721e+01 2.446309e+01 2.480882e+01 3.362489e+01 2.409663e+01 1.871931e+01 1.207417e+01 2.698061e+00 1.811126e+00 1.896503e+00 3.357043e+00 2.631621e+00 3.304518e+00 1.876534e+00 4.319271e+00 4.005088e+00 2.457157e+00 2.716063e+00 1.694809e+00 3.135724e+00
<GCONST> 9.287793e+01
<STATE> 4
<MEAN> 25
 4.845530e+00 1.465740e+00 1.709690e+00 -1.185520e+00 -3.307673e+00 -2.338560e+00 -3.862340e+00 3.934924e-02 -1.042140e+00 1.048582e-01 4.741424e-01 -1.416739e+00 1.370978e+00 -1.440416e+00 -1.442619e-01 -2.862330e+00 -2.934717e+00 -4.833189e-01 -1.443978e+00 1.092372e+00 -5.786103e-01 1.307384e+00 6.243009e-01 -5.125442e-01 3.712158e+00
<VARIANCE> 25
 2.655415e+01 2.339342e+01 3.289953e+01 2.994185e+01 4.399846e+01 5.400483e+01 2.795022e+01 3.401842e+01 3.759510e+01 2.508187e+01 2.838466e+01 2.739620e+01 3.256369e+00 3.516420e+00 5.047445e+00 5.205757e+00 6.229901e+00 8.496562e+00 3.051131e+00 6.097054e+00 7.098650e+00 4.645821e+00 4.685000e+00 3.655035e+00 4.692730e+00
<GCONST> 1.078885e+02
<TRANSP> 5
 0.000000e+00 1.000000e+00 0.000000e+00 0.000000e+00 0.000000e+00
 0.000000e+00 7.966518e-01 2.033482e-01 0.000000e+00 0.000000e+00
 0.000000e+00 0.000000e+00 5.153809e-01 4.846191e-01 0.000000e+00
 0.000000e+00 0.000000e+00 0.000000e+00 5.954396e-01 4.045604e-01
 0.000000e+00 0.000000e+00 0.000000e+00 0.000000e+00 0.000000e+00
<ENDHMM>
~h "d"
<BEGINHMM>
<NUMSTATES> 5
<STATE> 2
<MEAN> 25
 1.894632e+00 2.559287e+00 6.307519e+00 2.559264e+00 -1.291869e-01 -3.948660e+00 -1.980309e+00 -1.049330e+00 -2.509381e+00 -1.582453e+00 -1.845749e+00 -2.166553e+00 2.770134e-01 9.827304e-03 3.578672e-01 -1.774553e-01 -8.258168e-01 -7.411103e-01 -2.743366e-01 -2.150430e-01 -4.155498e-01 1.832694e-01 3.679826e-01 4.208068e-01 4.235374e-01
<VARIANCE> 25
 2.837203e+01 3.401803e+01 3.108982e+01 5.421424e+01 6.760423e+01 4.828536e+01 4.678645e+01 4.163324e+01 2.864836e+01 4.420456e+01 2.700318e+01 1.724927e+01 3.625619e+00 2.723369e+00 3.821122e+00 6.722898e+00 8.191875e+00 6.392906e+00 3.558332e+00 4.494710e+00 3.884432e+00 2.853781e+00 3.031616e+00 2.193850e+00 6.030856e+00
<GCONST> 1.075657e+02
<STATE> 3
<MEAN> 25
 8.793674e-01 2.408650e-01 2.793751e+00 1.511878e+00 -1.005164e+00 -4.487643e+00 -1.799384e+00 -1.150459e-01 3.202419e-02 5.656407e-01 5.830142e-01 2.064522e+00 -6.824808e-01 -8.821356e-01 -1.146424e+00 2.286477e-01 7.558327e-01 1.591248e+00 1.398235e+00 1.325604e+00 1.850159e+00 8.315315e-01 5.629602e-01 8.864815e-01 -9.377651e-01
<VARIANCE> 25
 1.920971e+01 1.639760e+01 3.421161e+01 3.383781e+01 5.879168e+01 5.774440e+01 4.560946e+01 3.994706e+01 3.762250e+01 2.743913e+01 3.486528e+01 3.265167e+01 2.073192e+00 1.075045e+00 2.691859e+00 1.610206e+00 5.250985e+00 5.412564e+00 2.599452e+00 3.627355e+00 3.122714e+00 4.225544e+00 4.023462e+00 4.240755e+00 1.554227e+00
<GCONST> 1.020850e+02
<STATE> 4
<MEAN> 25
 -3.101004e+00 -1.977499e+00 -2.008354e+00 1.904584e+00 2.901469e+00 2.615295e+00 3.774580e+00 2.665273e+00 4.703300e+00 2.428081e+00 1.786302e+00 3.282975e+00 1.139451e-02 -5.560582e-02 -1.024392e-02 -1.612835e-02 -1.540538e-03 1.157019e-01 1.147378e-01 4.915211e-02 6.762330e-03 -2.879174e-02 1.322703e-02 -7.693329e-02 1.914389e-02
<VARIANCE> 25
 9.401229e+00 5.847743e+00 1.298266e+01 1.122136e+01 1.548338e+01 1.428463e+01 1.489680e+01 1.457243e+01 1.527148e+01 1.898537e+01 1.433945e+01 1.439342e+01 2.162935e-01 3.333240e-01 5.158028e-01 7.480985e-01 9.448450e-01 9.901367e-01 1.486155e+00 1.600036e+00 1.420970e+00 1.588170e+00 1.231362e+00 1.158294e+00 1.820149e-01
<GCONST> 7.339683e+01
<TRANSP> 5
 0.000000e+00 1.000000e+00 0.000000e+00 0.000000e+00 0.000000e+00
 0.000000e+00 7.031787e-01 2.968213e-01 0.000000e+00 0.000000e+00
 0.000000e+00 0.000000e+00 4.899510e-01 5.100489e-01 0.000000e+00
 0.000000e+00 0.000000e+00 0.000000e+00 8.582621e-01 1.417379e-01
 0.000000e+00 0.000000e+00 0.000000e+00 0.000000e+00 0.000000e+00
<ENDHMM>
~h "e"
<BEGINHMM>
<NUMSTATES> 5
<STATE> 2
<MEAN> 25
 -8.324449e+00 -1.002388e+01 1.495260e+01 -1.344772e+01 -2.112349e+00 8.420012e+00 3.521664e-01 6.347705e-01 1.305790e+00 4.138672e+00 8.944154e-01 -1.290061e+00 -6.576984e-01 -8.450868e-01 1.013185e+00 -1.009892e+00 -1.997349e-01 2.952552e-01 -1.098764e-01 2.019401e-01 1.878094e-02 4.562478e-02 -2.403924e-01 -2.204661e-02 4.259180e-01
<VARIANCE> 25
 8.273895e+01 5.670291e+01 1.601278e+02 7.418919e+01 2.250141e+01 3.486987e+01 2.664284e+01 3.214606e+01 1.949841e+01 2.800987e+01 1.918161e+01 1.819579e+01 7.866380e+00 4.459721e+00 1.163840e+01 7.743608e+00 2.360724e+00 6.057119e+00 3.056920e+00 3.905344e+00 1.959124e+00 2.466333e+00 1.201038e+00 1.109257e+00 2.338270e+00
<GCONST> 1.052694e+02
<STATE> 3
<MEAN> 25
 2.303673e-01 -3.940872e+00 4.800047e+00 -6.971769e+00 3.281260e-01 1.682772e+00 8.284321e-01 -3.891977e+00 -2.119869e+00 4.152627e-01 1.766688e+00 1.106740e+00 2.754068e+00 2.419908e+00 -3.384905e+00 2.233656e+00 3.007737e-01 -3.051148e+00 4.694468e-01 -1.727851e+00 -1.276148e+00 -1.390522e+00 5.691486e-01 1.180972e+00 2.121781e-01
<VARIANCE> 25
 3.923661e+01 4.732754e+01 7.171832e+01 5.459907e+01 3.069822e+01 6.266255e+01 4.437786e+01 4.246785e+01 2.296890e+01 3.714801e+01 2.330729e+01 2.500716e+01 3.809957e+00 4.100482e+00 5.456958e+00 3.921367e+00 2.924438e+00 5.449558e+00 4.479271e+00 6.322741e+00 1.853550e+00 4.768222e+00 2.723990e+00 1.390312e+00 2.301595e+00
<GCONST> 1.062354e+02
<STATE> 4
<MEAN> 25
 6.639663e+00 -1.765886e+00 -4.406410e+00 -1.397927e+00 -2.070522e+00 -5.677594e+00 9.229845e-02 -4.418887e+00 -4.797330e+00 -7.064669e+00 3.300269e+00 3.785980e+00 3.258877e-01 2.132752e-01 -6.337762e-01 1.701121e-01 -2.253874e-01 1.041006e-01 -1.308921e-01 4.213736e-01 3.334875e-01 -3.182319e-01 -2.222793e-01 -1.724526e-02 -3.318673e-01
<VARIANCE> 25
 9.176498e+00 2.041451e+01 2.840202e+01 2.172734e+01 3.035768e+01 2.414454e+01 3.677793e+01 4.031501e+01 2.174367e+01 3.912751e+01 4.531450e+01 1.676186e+01 6.111504e-01 1.499282e+00 1.168387e+00 1.722495e+00 3.039639e+00 2.024139e+00 2.099297e+00 2.186195e+00 1.408025e+00 1.926067e+00 4.351395e+00 1.371842e+00 8.036690e-01
<GCONST> 9.140083e+01
<TRANSP> 5
 0.000000e+00 1.000000e+00 0.000000e+00 0.000000e+00 0.000000e+00
 0.000000e+00 8.031520e-01 1.968480e-01 0.000000e+00 0.000000e+00
 0.000000e+00 0.000000e+00 5.771995e-01 4.228005e-01 0.000000e+00
 0.000000e+00 0.000000e+00 0.000000e+00 8.110978e-01 1.889022e-01
 0.000000e+00 0.000000e+00 0.000000e+00 0.000000e+00 0.000000e+00
<ENDHMM>
~h "f"
<BEGINHMM>
<NUMSTATES> 5
<STATE> 2
<MEAN> 25
 -4.602712e+00 -3.918741e-01 -1.358763e+00 -7.280205e-01 1.692451e+00 6.354799e+00 4.956210e+00 2.238624e-01 -8.945406e-01 1.063760e+00 -2.036597e+00 -8.977325e-01 -1.662008e+00 4.129719e-01 -1.998892e-01 -6.558864e-01 -8.218040e-01 -2.466628e+00 -2.670838e-01 -1.101662e-01 -9.912947e-01 -6.519375e-01 1.977004e-01 7.966263e-01 -2.070661e-01
<VARIANCE> 25
 9.072704e+01 1.569819e+01 1.312615e+01 1.879291e+01 4.198175e+01 8.892701e+01 2.188047e+01 3.524706e+01 2.362503e+01 1.751386e+01 1.049228e+01 6.957529e+00 1.379327e+01 2.245899e+00 2.337232e+00 5.890040e+00 8.415608e+00 5.822744e+00 3.055428e+00 5.911213e+00 3.116954e+00 1.456847e+00 7.751725e-01 2.459721e+00 1.452988e+00
<GCONST> 9.927849e+01
<STATE> 3
<MEAN> 25
 -1.600489e+00 2.490627e+00 -5.543352e+00 -4.292345e+00 -4.343699e+00 9.993433e-01 2.223878e-01 -5.265911e-01 -2.100043e+00 -2.903003e+00 1.149948e+00 7.562454e-01 2.311107e-01 -4.974678e-01 -4.906039e-01 8.096970e-02 -5.528027e-02 -2.365923e-01 -4.362352e-01 -1.256912e-01 -4.261302e-02 4.371963e-01 7.380201e-01 4.612201e-01 -3.424240e-01
<VARIANCE> 25
 2.068360e+02 2.524751e+01 7.296279e+00 7.684582e+01 6.467751e+01 2.517661e+01 1.159171e+01 1.206086e+01 3.962236e+01 2.144415e+01 1.392043e+01 1.053740e+01 1.321188e+00 1.169435e+00 7.669556e-01 1.503713e+00 3.340994e+00 1.581048e+00 2.008931e+00 1.353065e+00 1.227237e+00 3.238232e+00 1.030803e+00 1.231602e+00 1.879825e+00
<GCONST> 9.039706e+01
<STATE> 4
<MEAN> 25
 -6.735540e+00 -2.819264e+00 -3.531449e+00 -2.442593e+00 -4.683296e-01 -1.240998e-01 7.219955e-01 1.792465e-01 1.196986e+00 2.530936e+00 -8.085141e-01 8.932856e-01 2.637423e-01 4.867458e-02 4.167477e-02 -1.548116e-02 9.074111e-02 5.162973e-02 -1.341585e-01 -1.682196e-01 6.065312e-02 -7.887544e-03 -1.783097e-01 -3.683284e-02 -2.036067e-01
<VARIANCE> 25
 3.615123e+01 1.192425e+01 9.855755e+00 1.023819e+01 1.437936e+01 1.211351e+01 1.437413e+01 1.322610e+01 1.512716e+01 1.610383e+01 1.271522e+01 1.550761e+01 1.780203e+00 8.317355e-01 8.577070e-01 9.547893e-01 1.266054e+00 1.434252e+00 1.482307e+00 1.122887e+00 1.363625e+00 1.597614e+00 1.226910e+00 1.336588e+00 1.885882e+00
<GCONST> 8.102128e+01
<TRANSP> 5
 0.000000e+00 1.000000e+00 0.000000e+00 0.000000e+00 0.000000e+00
 0.000000e+00 5.677591e-01 4.322409e-01 0.000000e+00 0.000000e+00
 0.000000e+00 0.000000e+00 6.499978e-01 3.500022e-01 0.000000e+00
 0.000000e+00 0.000000e+00 0.000000e+00 9.026675e-01 9.733251e-02
 0.000000e+00 0.000000e+00 0.000000e+00 0.000000e+00 0.000000e+00
<ENDHMM>
~h "g"
<BEGINHMM>
<NUMSTATES> 5
<STATE> 2
<MEAN> 25
 8.450098e-01 3.481117e+00 5.671912e+00 3.574184e+00 3.805227e+00 -1.272592e-01 6.084986e-02 -1.125665e+00 2.407184e+00 2.682193e-01 -4.518703e+00 -3.017379e+00 -5.747925e-02 -4.347361e-01 3.535532e-01 -4.192798e-01 3.665819e-01 -9.870712e-01 -4.961318e-01 -1.176455e+00 -3.298303e-01 -2.679135e-01 3.878802e-02 -2.306497e-01 1.960420e+00
<VARIANCE> 25
 3.278045e+01 9.057877e+01 3.230189e+01 4.656759e+01 3.442783e+01 3.196589e+01 3.477628e+01 4.617769e+01 2.017250e+01 2.351040e+01 2.139530e+01 2.529767e+01 3.684936e+00 9.896975e+00 5.011424e+00 6.053795e+00 4.018908e+00 3.807699e+00 3.418927e+00 6.158622e+00 2.200286e+00 2.639047e+00 2.286402e+00 2.977089e+00 5.541844e+00
<GCONST> 1.062730e+02
<STATE> 3
<MEAN> 25
 2.796236e+00 -2.740375e+00 1.747173e+00 3.253910e+00 4.791740e+00 -7.079448e+00 -7.744372e+00 -8.826540e+00 -2.683485e+00 -2.389334e+00 2.927299e+00 -2.257758e+00 6.647082e-01 2.940784e-01 9.566292e-03 -3.337869e-01 -1.493006e+00 3.517979e-01 -5.079216e-01 -6.014961e-01 -3.221418e-01 3.182760e-01 1.015281e+00 5.979719e-01 9.107536e-02
<VARIANCE> 25
 3.080235e+01 1.986819e+01 3.408638e+01 3.727152e+01 3.386615e+01 2.858479e+01 3.792710e+01 4.159360e+01 1.970395e+01 1.729289e+01 4.633128e+01 2.223853e+01 1.057548e+00 1.879717e+00 3.574167e+00 1.317030e+00 2.182113e+00 3.995389e+00 5.469321e+00 3.048404e+00 1.949954e+00 1.572070e+00 2.756428e+00 1.346526e+00 1.667095e+00
<GCONST> 9.667657e+01
<STATE> 4
<MEAN> 25
 2.255462e+00 1.855213e+00 1.283635e+01 -2.427524e+00 -1.020978e+01 -4.790164e+00 -3.783468e+00 -5.249772e+00 -9.914573e+00 1.024795e+00 1.585386e+00 -2.621607e+00 9.263127e-01 -4.207730e-01 5.986617e-01 1.474287e-01 -1.089830e+00 -3.553853e-01 3.445957e-02 1.575692e+00 -5.706586e-01 -6.470717e-02 4.399776e-01 -5.286716e-01 4.517702e-01
<VARIANCE> 25
 2.215408e+01 1.592346e+01 6.724297e+01 2.299299e+01 4.411256e+01 3.319328e+01 3.437255e+01 2.437737e+01 8.221561e+01 1.344783e+01 2.780386e+01 2.464775e+01 3.190988e+00 2.478418e+00 6.127731e+00 3.040285e+00 4.533581e+00 3.851743e+00 4.996871e+00 3.106226e+00 7.318918e+00 2.091698e+00 2.836423e+00 1.915392e+00 1.348986e+00
<GCONST> 1.020295e+02
<TRANSP> 5
 0.000000e+00 1.000000e+00 0.000000e+00 0.000000e+00 0.000000e+00
 0.000000e+00 8.577622e-01 1.422378e-01 0.000000e+00 0.000000e+00
 0.000000e+00 0.000000e+00 7.511900e-01 2.488100e-01 0.000000e+00
 0.000000e+00 0.000000e+00 0.000000e+00 7.534702e-01 2.465298e-01
 0.000000e+00 0.000000e+00 0.000000e+00 0.000000e+00 0.000000e+00
<ENDHMM>
~h "i"
<BEGINHMM>
<NUMSTATES> 5
<STATE> 2
<MEAN> 25
 2.605152e+00 -1.723657e+00 5.997595e+00 9.420919e+00 8.801478e+00 -7.528524e+00 -8.467715e+00 2.547821e-01 -4.633149e+00 -5.071995e+00 1.875632e+00 -8.331428e+00 -1.132013e-01 3.807535e-02 -1.162937e-01 4.410964e-01 -2.046276e-01 -2.767404e-01 -1.369696e-01 3.378202e-02 3.757697e-02 -2.647404e-02 -3.708885e-01 -6.827497e-02 -3.702022e-01
<VARIANCE> 25
 6.847362e+00 1.695403e+01 3.082186e+01 3.769562e+01 2.274750e+01 5.568935e+01 2.921587e+01 4.303135e+01 2.000827e+01 2.351098e+01 3.253311e+01 3.723848e+01 5.448624e-01 7.935375e-01 1.465911e+00 2.449301e+00 2.968252e+00 4.462411e+00 2.570640e+00 1.803264e+00 1.167124e+00 1.053885e+00 1.741708e+00 1.677388e+00 5.812779e-01
<GCONST> 9.058698e+01
<STATE> 3
<MEAN> 25
 6.467725e-01 1.581607e+00 2.802069e+00 1.349863e+01 3.889959e+00 -3.858000e+00 -4.052074e+00 2.393833e+00 -7.008518e-02 8.184624e-01 -1.045889e+00 -3.721892e+00 -6.166896e-01 7.797925e-01 -5.885604e-01 -7.672920e-02 -2.721969e-01 9.344130e-01 1.196422e+00 7.332999e-01 8.160808e-01 1.104008e+00 -2.101194e-01 1.022498e+00 -1.386612e+00
<VARIANCE> 25
 1.219483e+01 2.950326e+01 2.939712e+01 3.141918e+01 1.742913e+01 4.761648e+01 3.255050e+01 5.933134e+01 3.235682e+01 2.092058e+01 2.890102e+01 2.122665e+01 5.510269e-01 1.720167e+00 1.582129e+00 2.895628e+00 1.747402e+00 3.562569e+00 3.291597e+00 1.742315e+00 1.661982e+00 6.768592e-01 1.867623e+00 2.032386e+00 6.706035e-01
<GCONST> 9.198035e+01
<STATE> 4
<MEAN> 25
 -4.136481e+00 5.288235e+00 -2.232287e+00 6.616990e+00 2.490368e+00 7.260305e-01 -9.065399e-01 1.091426e+00 3.117147e+00 3.153899e+00 -4.146280e+00 1.845548e+00 -2.269028e-01 -5.800657e-02 -2.665974e-01 -5.181183e-01 -1.766652e-01 2.430739e-01 -5.520545e-02 -1.227349e-01 1.474448e-01 5.864250e-02 -1.674563e-02 8.585455e-02 -1.969088e-01
<VARIANCE> 25
 1.715411e+01 2.207375e+01 2.010571e+01 2.121867e+01 1.984155e+01 5.519805e+01 3.473141e+01 2.724067e+01 2.065126e+01 1.349951e+01 1.638201e+01 9.607765e+00 3.177938e-01 7.899030e-01 9.886718e-01 1.255818e+00 1.451150e+00 3.026370e+00 2.773354e+00 1.551966e+00 1.465814e+00 9.555750e-01 1.300811e+00 8.781923e-01 1.433934e-01
<GCONST> 8.278107e+01
<TRANSP> 5
 0.000000e+00 1.000000e+00 0.000000e+00 0.000000e+00 0.000000e+00
 0.000000e+00 8.440752e-01 1.559248e-01 0.000000e+00 0.000000e+00
 0.000000e+00 0.000000e+00 7.787067e-01 2.212934e-01 0.000000e+00
 0.000000e+00 0.000000e+00 0.000000e+00 8.909250e-01 1.090749e-01
 0.000000e+00 0.000000e+00 0.000000e+00 0.000000e+00 0.000000e+00
<ENDHMM>
~h "j"
<BEGINHMM>
<NUMSTATES> 5
<STATE> 2
<MEAN> 25
 -6.561180e+00 -1.013234e+01 1.248013e+01 -4.241676e+00 1.564825e-02 3.016266e+00 2.776221e+00 1.134169e+00 2.168400e+00 9.898540e-01 -3.678249e+00 -5.872117e+00 1.922974e+00 3.464654e-01 -7.740212e-01 1.879228e+00 1.560293e+00 -1.378731e+00 3.743964e-02 -8.540694e-01 -9.303131e-01 -1.076636e+00 8.885952e-02 -7.643126e-01 8.504199e-01
<VARIANCE> 25
 6.059548e+01 1.259468e+02 5.862436e+01 1.056916e+02 5.663716e+01 3.683461e+01 2.571436e+01 2.898475e+01 1.452086e+01 1.524855e+01 1.656858e+01 7.644083e+00 6.492640e+00 1.667032e+01 8.700699e+00 9.575017e+00 6.368600e+00 4.120743e+00 3.337681e+00 2.442363e+00 2.147094e+00 2.426838e+00 1.374786e+00 9.285667e-01 7.834975e+00
<GCONST> 1.065431e+02
<STATE> 3
<MEAN> 25
 3.968623e+00 -2.032536e+00 3.054470e+00 7.501294e+00 2.998521e+00 -3.601459e+00 -3.108384e+00 -4.494436e+00 1.860174e-01 -3.778669e+00 -4.471147e+00 -7.570251e+00 6.641011e-03 5.932931e-01 -6.378769e-01 4.219373e-01 9.620695e-02 1.851240e-01 1.615040e-01 -1.852608e-01 -5.796121e-01 5.687153e-01 5.548471e-01 5.610518e-01 -9.256794e-01
<VARIANCE> 25
 2.331669e+00 6.013490e+01 8.082251e+00 1.615767e+01 1.452319e+01 1.592411e+01 3.510108e+01 5.198038e+01 1.033131e+01 8.762565e+00 2.011191e+01 1.064195e+01 8.004699e-01 1.403194e+00 1.026638e+00 1.042193e+00 2.138648e+00 2.552639e+00 2.180204e+00 1.887871e+00 4.897776e-01 1.631542e+00 5.654088e-01 1.029875e+00 1.666423e+00
<GCONST> 8.162826e+01
<STATE> 4
<MEAN> 25
 -2.111861e-01 6.448426e+00 1.958136e+00 1.065505e+01 6.247924e+00 4.643082e+00 3.847048e+00 1.493831e+00 1.035614e+00 3.835393e+00 -3.392025e+00 -1.110471e+00 -9.176960e-01 -1.441268e+00 8.129681e-01 -1.226152e+00 -7.503166e-01 7.464798e-01 8.595909e-01 1.083354e+00 3.077539e-02 6.599813e-01 6.742249e-01 4.069038e-01 1.359818e-01
<VARIANCE> 25
 1.400305e+01 6.485224e+01 2.504035e+01 2.056239e+01 4.539210e+01 5.111681e+01 2.629148e+01 3.013395e+01 1.558496e+01 1.746929e+01 1.992246e+01 1.335913e+01 2.752734e+00 1.903628e+01 6.133121e+00 6.194311e+00 4.493289e+00 1.073551e+01 1.463002e+00 1.510009e+00 3.355259e+00 3.511167e+00 4.659746e+00 2.507480e+00 1.469571e+01
<GCONST> 1.044947e+02
<TRANSP> 5
 0.000000e+00 1.000000e+00 0.000000e+00 0.000000e+00 0.000000e+00
 0.000000e+00 7.366248e-01 2.633752e-01 0.000000e+00 0.000000e+00
 0.000000e+00 0.000000e+00 7.593813e-01 2.406187e-01 0.000000e+00
 0.000000e+00 0.000000e+00 0.000000e+00 8.284678e-01 1.715322e-01
 0.000000e+00 0.000000e+00 0.000000e+00 0.000000e+00 0.000000e+00
<ENDHMM>
~h "k"
<BEGINHMM>
<NUMSTATES> 5
<STATE> 2
<MEAN> 25
 -6.078336e+00 -1.355042e+00 -1.979568e+00 -3.966219e-02 7.409375e-01 -8.882687e-01 3.005551e+00 -3.507997e-01 2.541960e+00 2.425263e+00 -2.720042e-01 5.112578e+00 -1.580441e-01 -9.479696e-01 -2.238704e-01 -1.267326e+00 -7.921728e-02 -9.751434e-01 -4.671764e-01 -7.053891e-01 -5.026877e-01 2.233698e-01 -7.109581e-01 -1.976003e-02 2.550288e+00
<VARIANCE> 25
 1.530826e+01 3.912726e+01 3.772495e+01 5.061610e+01 2.098358e+01 3.287927e+01 3.457293e+01 3.581985e+01 3.439992e+01 1.809581e+01 2.760758e+01 2.027580e+01 2.565753e+00 4.659012e+00 6.064925e+00 5.919722e+00 3.299124e+00 4.027069e+00 3.809695e+00 3.935658e+00 3.799711e+00 1.675328e+00 3.622700e+00 2.388071e+00 8.958685e+00
<GCONST> 1.038736e+02
<STATE> 3
<MEAN> 25
 -3.893032e+00 -4.022967e+00 -4.304064e+00 -3.897489e+00 2.976637e+00 -2.171324e+00 1.598552e-01 -1.507547e+00 3.692367e-02 2.004808e+00 -1.689834e+00 6.860673e-01 4.860710e-01 -7.324181e-01 6.221008e-01 -9.571865e-01 -3.153132e-02 5.593407e-01 5.197371e-02 -1.351930e-02 -6.929911e-01 -7.236626e-01 8.902110e-01 -9.165827e-01 2.385441e+00
<VARIANCE> 25
 3.434525e+01 5.497814e+01 9.261175e+01 6.183380e+01 7.082639e+01 6.784348e+01 3.354890e+01 4.212601e+01 6.422495e+01 2.360592e+01 3.781509e+01 2.656661e+01 4.081269e+00 8.670479e+00 7.272141e+00 5.090229e+00 3.872376e+00 8.760561e+00 4.311257e+00 4.106401e+00 5.288954e+00 2.396387e+00 4.807172e+00 3.376779e+00 9.227947e+00
<GCONST> 1.132350e+02
<STATE> 4
<MEAN> 25
 -6.571845e-01 -3.807794e+00 2.769910e-01 -9.321866e-01 -1.820375e+00 -7.346390e-01 4.370783e+00 -5.231347e-01 -2.357627e+00 -1.070873e+00 5.597297e-01 -6.623338e-01 7.171041e-01 5.237296e-01 5.824082e-01 7.296806e-01 -2.390060e-01 -2.882373e-01 -3.142838e-01 2.371235e-01 2.073310e-01 -5.755165e-01 2.055612e-01 -4.789818e-01 3.120596e-01
<VARIANCE> 25
 4.920043e+01 4.581689e+01 1.022129e+02 6.002735e+01 5.506264e+01 6.358042e+01 4.927135e+01 6.385856e+01 4.772274e+01 3.504902e+01 2.260880e+01 3.170456e+01 4.231721e+00 3.392007e+00 3.698194e+00 3.979312e+00 5.517988e+00 4.286411e+00 4.750251e+00 4.410467e+00 5.119314e+00 3.725702e+00 2.018945e+00 3.861924e+00 3.072891e+00
<GCONST> 1.102844e+02
<TRANSP> 5
 0.000000e+00 1.000000e+00 0.000000e+00 0.000000e+00 0.000000e+00
 0.000000e+00 6.556232e-01 3.443769e-01 0.000000e+00 0.000000e+00
 0.000000e+00 0.000000e+00 5.866557e-01 4.133443e-01 0.000000e+00
 0.000000e+00 0.000000e+00 0.000000e+00 6.806530e-01 3.193470e-01
 0.000000e+00 0.000000e+00 0.000000e+00 0.000000e+00 0.000000e+00
<ENDHMM>
~h "l"
<BEGINHMM>
<NUMSTATES> 5
<STATE> 2
<MEAN> 25
 1.034630e+01 5.452228e+00 -6.290471e+00 -1.392716e+01 -5.358687e+00 5.748357e+00 -2.750398e+00 -8.449520e-01 -7.276759e+00 7.279314e-01 1.266568e+00 -4.391210e+00 1.032647e-02 6.910340e-01 1.500826e-01 -7.433124e-02 -2.438288e-01 -1.793308e-01 2.352349e-02 1.424807e-02 -4.466247e-01 -1.883633e-01 -4.773823e-03 5.545359e-01 -5.369942e-01
<VARIANCE> 25
 1.324425e+01 2.113185e+01 1.974292e+01 6.986058e+01 2.798137e+01 4.275294e+01 2.848763e+01 2.561517e+01 4.179578e+01 3.222686e+01 2.358425e+01 3.607998e+01 3.847037e-01 1.009906e+00 8.065256e-01 2.859575e+00 1.239777e+00 2.434586e+00 1.478145e+00 1.933759e+00 2.328017e+00 2.188986e+00 1.772657e+00 1.622938e+00 4.165678e-01
<GCONST> 9.029678e+01
<STATE> 3
<MEAN> 25
 6.124545e+00 6.163716e+00 -2.262539e+00 -4.454068e+00 -1.040689e+00 2.096610e+00 -2.235167e+00 -2.568181e+00 -3.737010e+00 2.798091e-01 -1.031427e+00 -1.803698e+00 -9.530687e-01 -1.044281e+00 7.136576e-01 1.611832e+00 5.114000e-01 -1.085186e-01 2.740708e-01 2.632464e-01 1.381691e+00 4.053120e-02 -2.069920e-01 -1.555506e-01 -4.029276e-01
<VARIANCE> 25
 2.064380e+01 3.571090e+01 2.158467e+01 5.034895e+01 3.264632e+01 3.423913e+01 4.384061e+01 4.442581e+01 4.085994e+01 3.982781e+01 3.730880e+01 4.051556e+01 1.205652e+00 1.854510e+00 1.614064e+00 4.649159e+00 3.704077e+00 3.252141e+00 3.073855e+00 3.760944e+00 3.603500e+00 3.677445e+00 3.726093e+00 3.502351e+00 1.893322e+00
<GCONST> 1.023976e+02
<STATE> 4
<MEAN> 25
 -2.972766e+00 -1.158103e+00 -4.682747e-01 2.450726e+00 3.126133e+00 2.577012e+00 2.712727e+00 1.679286e+00 4.108688e+00 1.202434e+00 1.070210e+00 2.473809e+00 -1.986988e-01 -2.207094e-01 1.055619e-01 6.913060e-02 -4.644685e-02 -1.137764e-01 4.564537e-02 4.418273e-02 1.547971e-01 6.044840e-02 1.143995e-01 1.821439e-01 -1.408383e-01
<VARIANCE> 25
 2.033416e+01 1.568618e+01 1.223375e+01 1.906881e+01 2.205671e+01 1.909836e+01 2.223140e+01 2.063648e+01 2.584001e+01 1.835501e+01 2.494299e+01 2.301166e+01 2.796585e-01 5.031524e-01 7.451299e-01 9.192341e-01 1.015315e+00 1.429323e+00 1.353185e+00 1.560472e+00 1.821982e+00 1.903379e+00 1.764432e+00 1.257007e+00 1.608311e-01
<GCONST> 8.084357e+01
<TRANSP> 5
 0.000000e+00 1.000000e+00 0.000000e+00 0.000000e+00 0.000000e+00
 0.000000e+00 8.332942e-01 1.667058e-01 0.000000e+00 0.000000e+00
 0.000000e+00 0.000000e+00 7.564936e-01 2.435064e-01 0.000000e+00
 0.000000e+00 0.000000e+00 0.000000e+00 8.664030e-01 1.335970e-01
 0.000000e+00 0.000000e+00 0.000000e+00 0.000000e+00 0.000000e+00
<ENDHMM>
~h "m"
<BEGINHMM>
<NUMSTATES> 5
<STATE> 2
<MEAN> 25
 6.155890e+00 3.097418e+00 4.461602e+00 5.902975e+00 4.318750e-01 -1.120020e+00 -1.136577e+00 -9.058066e+00 -7.757576e+00 -1.682813e+00 1.691164e+00 -3.892596e+00 1.381054e+00 1.105712e+00 1.304502e+00 1.923039e+00 1.142200e+00 -8.736765e-01 -6.070659e-01 -2.481306e+00 -1.898570e+00 5.825412e-01 4.575204e-01 -5.947830e-01 -2.722655e-01
<VARIANCE> 25
 2.788645e+01 1.534460e+01 2.132177e+01 3.235047e+01 2.215195e+01 3.067315e+01 2.316850e+01 5.973248e+01 4.441242e+01 2.779619e+01 3.246458e+01 2.897881e+01 3.968329e+00 2.438818e+00 4.541791e+00 3.336846e+00 2.960968e+00 3.743646e+00 2.606243e+00 4.141542e+00 4.011429e+00 4.512078e+00 3.362984e+00 3.596114e+00 2.834614e+00
<GCONST> 1.024645e+02
<STATE> 3
<MEAN> 25
 7.753294e+00 4.584009e+00 7.228878e+00 8.396451e+00 2.282639e+00 -3.002531e+00 -2.407468e+00 -1.208881e+01 -1.029805e+01 4.618121e-01 -3.824446e-01 -6.458106e+00 3.798173e-02 1.279973e-01 3.144581e-02 5.094919e-02 3.703275e-02 -1.523405e-01 -8.773068e-02 8.620977e-02 1.837195e-01 -7.724138e-02 -7.471824e-02 -5.204424e-02 -4.107904e-02
<VARIANCE> 25
 9.755826e+00 8.471618e+00 1.589632e+01 9.535960e+00 1.259747e+01 4.256899e+01 2.739219e+01 5.060876e+01 3.374402e+01 2.169133e+01 4.594288e+01 3.024280e+01 4.370371e-01 7.425547e-01 7.864662e-01 8.276321e-01 6.978960e-01 1.133088e+00 1.353876e+00 1.925827e+00 1.802235e+00 1.743770e+00 1.388529e+00 1.650363e+00 4.620278e-01
<GCONST> 8.310504e+01
<STATE> 4
<MEAN> 25
 4.357197e+00 1.452514e+00 8.737286e+00 1.386502e+00 -5.227788e+00 -2.673052e+00 -3.654611e+00 -3.420183e+00 -5.894288e+00 -4.821142e+00 -7.009763e-02 -5.670591e+00 -6.048961e-01 -4.374188e-01 -1.834850e-01 -8.478191e-01 -6.015665e-01 4.217693e-01 5.792480e-01 1.383349e+00 6.820322e-01 -5.159004e-01 -4.155994e-01 2.557389e-01 4.039750e-01
<VARIANCE> 25
 3.878769e+01 5.583711e+01 6.761937e+01 5.888620e+01 5.404422e+01 5.759423e+01 5.192029e+01 1.101674e+02 4.506171e+01 2.757878e+01 3.751652e+01 2.925261e+01 1.823979e+00 2.286706e+00 3.618891e+00 3.870653e+00 5.673792e+00 3.753392e+00 3.711735e+00 5.976042e+00 3.627788e+00 3.109502e+00 2.130552e+00 2.478248e+00 2.644641e+00
<GCONST> 1.080228e+02
<TRANSP> 5
 0.000000e+00 1.000000e+00 0.000000e+00 0.000000e+00 0.000000e+00
 0.000000e+00 5.316559e-01 4.683441e-01 0.000000e+00 0.000000e+00
 0.000000e+00 0.000000e+00 8.257928e-01 1.742071e-01 0.000000e+00
 0.000000e+00 0.000000e+00 0.000000e+00 8.033401e-01 1.966599e-01
 0.000000e+00 0.000000e+00 0.000000e+00 0.000000e+00 0.000000e+00
<ENDHMM>
~h "n"
<BEGINHMM>
<NUMSTATES> 5
<STATE> 2
<MEAN> 25
 6.778268e+00 2.920288e+00 6.693017e+00 4.850636e+00 -2.799689e+00 -3.933882e+00 -1.821348e+00 -8.995026e+00 -9.733212e+00 -3.892558e-01 -5.789331e+00 -5.576305e+00 -2.031685e-01 2.556977e-01 4.490380e-02 2.065684e-01 1.776455e-01 1.302193e-01 -1.052994e-01 -1.486803e-01 2.273698e-01 -1.586210e-01 -1.527014e-01 1.608076e-01 -4.702984e-01
<VARIANCE> 25
 8.305763e+00 1.693546e+01 1.922921e+01 2.625481e+01 2.793722e+01 1.748351e+01 2.129934e+01 5.737467e+01 3.739878e+01 2.277465e+01 1.896918e+01 1.280273e+01 3.815449e-01 8.222369e-01 9.673927e-01 1.520510e+00 1.568124e+00 1.159918e+00 1.167893e+00 4.046999e+00 1.985000e+00 1.935828e+00 1.119389e+00 7.792534e-01 6.517075e-01
<GCONST> 8.481623e+01
<STATE> 3
<MEAN> 25
 1.038526e+00 2.302877e+00 1.654139e+00 3.935011e+00 2.851662e+00 -3.606546e-01 -9.852097e-01 -4.906809e-01 -4.184915e-01 -4.357548e+00 -4.742270e+00 -1.674240e+00 -9.558827e-01 -6.558121e-01 -9.117759e-01 -4.922595e-01 3.037212e-01 4.855922e-01 8.561576e-01 1.109042e+00 1.093704e+00 6.458417e-01 9.864548e-01 8.939984e-01 -4.366271e-01
<VARIANCE> 25
 2.218186e+01 2.573508e+01 3.184406e+01 3.335213e+01 2.301102e+01 2.893022e+01 2.955838e+01 4.944817e+01 3.339796e+01 3.086646e+01 3.522692e+01 2.556602e+01 1.530795e+00 1.681238e+00 1.798825e+00 3.003591e+00 2.509403e+00 2.769453e+00 2.757005e+00 4.353186e+00 3.256876e+00 3.293277e+00 3.137174e+00 2.384446e+00 1.641509e+00
<GCONST> 9.872798e+01
<STATE> 4
<MEAN> 25
 -3.931340e+00 -2.203978e+00 -3.418483e+00 1.284138e+00 3.518910e+00 1.999264e+00 3.676854e+00 3.103160e+00 5.031231e+00 2.137357e+00 2.250309e+00 4.093016e+00 -3.857545e-02 -2.880008e-02 -4.553670e-02 -5.099265e-02 2.640160e-02 3.239296e-02 6.441265e-02 6.147778e-03 4.037405e-02 8.678026e-02 9.800799e-02 4.537713e-02 -3.813687e-02
<VARIANCE> 25
 6.143623e+00 9.351288e+00 1.025847e+01 1.357448e+01 1.059071e+01 1.303635e+01 1.518021e+01 1.504239e+01 1.953890e+01 1.502804e+01 2.000681e+01 1.678400e+01 2.463646e-01 3.400054e-01 4.837668e-01 6.631460e-01 8.005846e-01 1.060054e+00 1.322090e+00 1.517837e+00 1.428503e+00 1.557832e+00 1.383816e+00 1.260331e+00 1.204577e-01
<GCONST> 7.294701e+01
<TRANSP> 5
 0.000000e+00 1.000000e+00 0.000000e+00 0.000000e+00 0.000000e+00
 0.000000e+00 8.622151e-01 1.377849e-01 0.000000e+00 0.000000e+00
 0.000000e+00 0.000000e+00 7.735724e-01 2.264276e-01 0.000000e+00
 0.000000e+00 0.000000e+00 0.000000e+00 9.189938e-01 8.100615e-02
 0.000000e+00 0.000000e+00 0.000000e+00 0.000000e+00 0.000000e+00
<ENDHMM>
~h "p"
<BEGINHMM>
<NUMSTATES> 5
<STATE> 2
<MEAN> 25
 -2.039981e+00 1.717739e+00 -2.729073e+00 -7.777570e-01 4.921709e+00 1.583390e-01 7.725909e-01 6.610614e-01 3.270562e+00 1.124147e+00 1.398587e+00 1.072216e+00 5.248868e-01 1.079506e-01 -4.905095e-01 -5.072818e-01 -6.565175e-02 -9.515008e-02 -4.906722e-01 -4.672849e-01 -4.639200e-01 6.574924e-02 2.196318e-01 -1.869817e-01 1.249073e+00
<VARIANCE> 25
 2.777952e+01 1.736513e+01 3.529186e+01 3.800491e+01 2.258391e+01 3.097662e+01 2.399375e+01 2.764632e+01 2.899567e+01 1.959369e+01 1.775270e+01 1.865736e+01 5.963747e+00 2.555172e+00 3.291889e+00 5.252504e+00 3.052762e+00 5.012236e+00 3.575195e+00 3.739784e+00 4.499606e+00 2.633851e+00 2.728019e+00 3.337351e+00 6.090775e+00
<GCONST> 1.019029e+02
<STATE> 3
<MEAN> 25
 4.874918e+00 -4.732156e-01 -4.810488e+00 -2.576814e+00 1.738311e+00 2.025714e+00 -4.727678e+00 6.707627e-02 5.752224e-01 -6.242128e-02 -2.353028e+00 -4.186475e+00 -2.594283e-01 -1.268202e+00 9.625451e-01 6.540578e-01 -7.243848e-01 -4.029603e-01 1.291347e-01 1.330640e+00 5.611257e-01 -4.008170e-01 -4.353965e-01 2.324774e-01 7.321988e-01
<VARIANCE> 25
 2.198064e+01 3.149916e+01 5.285154e+01 3.686919e+01 2.441471e+01 2.950838e+01 5.766923e+01 5.779716e+01 2.503004e+01 3.812222e+01 6.144305e+01 2.966290e+01 4.595964e+00 3.437440e+00 5.092435e+00 3.758539e+00 4.928978e+00 2.866067e+00 7.809677e+00 6.592287e+00 5.949914e+00 5.846060e+00 6.512983e+00 5.174064e+00 3.777740e+00
<GCONST> 1.098191e+02
<STATE> 4
<MEAN> 25
 4.257357e-01 -1.035576e+00 -1.536085e+00 -6.401132e-01 1.244859e+00 9.884122e-01 1.479536e-01 -1.190224e-01 2.249485e+00 1.326893e+00 -5.079920e-01 -2.100375e+00 -1.371403e-01 -4.063621e-02 3.292226e-01 1.559756e-01 -2.990896e-01 -2.046915e-02 2.526740e-01 -2.176141e-02 -1.037708e-01 1.019360e-01 9.295482e-02 1.972771e-01 4.122153e-01
<VARIANCE> 25
 1.855313e+01 1.581259e+01 2.159002e+01 1.945708e+01 2.846111e+01 1.916658e+01 3.215350e+01 3.620027e+01 3.141695e+01 3.065401e+01 2.106290e+01 2.610944e+01 2.347285e+00 1.512288e+00 3.158158e+00 1.502706e+00 2.843267e+00 1.822636e+00 4.156940e+00 3.375095e+00 3.356138e+00 2.821957e+00 1.483069e+00 2.272875e+00 2.809777e+00
<GCONST> 9.581708e+01
<TRANSP> 5
 0.000000e+00 1.000000e+00 0.000000e+00 0.000000e+00 0.000000e+00
 0.000000e+00 6.873434e-01 3.126566e-01 0.000000e+00 0.000000e+00
 0.000000e+00 0.000000e+00 4.878665e-01 5.121335e-01 0.000000e+00
 0.000000e+00 0.000000e+00 0.000000e+00 7.944235e-01 2.055766e-01
 0.000000e+00 0.000000e+00 0.000000e+00 0.000000e+00 0.000000e+00
<ENDHMM>
~h "r"
<BEGINHMM>
<NUMSTATES> 5
<STATE> 2
<MEAN> 25
 9.707583e+00 -1.599710e+00 -6.558843e+00 3.672311e+00 2.507962e+00 -4.735215e+00 -9.982363e+00 -2.063003e+00 1.850720e+00 -4.327999e+00 -5.965478e-01 1.159748e+00 1.228424e+00 -2.517172e-01 -1.078354e+00 5.586907e-01 1.355183e-01 -8.048385e-01 -1.662445e+00 5.247213e-01 4.840892e-01 -8.119804e-01 -2.593274e-01 -2.057707e-01 8.761424e-01
<VARIANCE> 25
 5.537101e+01 2.652268e+01 6.015406e+01 2.772331e+01 3.191506e+01 8.417032e+01 7.451437e+01 6.417323e+01 4.560757e+01 5.475082e+01 2.891467e+01 2.938945e+01 3.609905e+00 2.850576e+00 3.728557e+00 2.143414e+00 3.321904e+00 4.695422e+00 4.555708e+00 6.940942e+00 4.511545e+00 4.817802e+00 2.627908e+00 2.632736e+00 2.887515e+00
<GCONST> 1.082787e+02
<STATE> 3
<MEAN> 25
 1.035046e+01 -3.235415e+00 -4.465596e+00 7.333066e+00 -3.400655e+00 -7.948756e+00 -1.159563e+01 5.063406e+00 -8.390797e-02 -8.664385e+00 1.101054e+00 2.355264e+00 -9.699647e-01 8.815870e-02 2.191092e+00 -4.795962e-02 -1.267801e+00 -1.193585e-01 2.155724e+00 5.266981e-01 -1.829224e+00 8.995549e-02 1.045309e-01 -2.943239e-01 -3.377236e-01
<VARIANCE> 25
 3.375212e+01 3.761726e+01 5.620979e+01 5.012278e+01 4.791204e+01 6.771391e+01 6.817219e+01 5.391807e+01 5.799395e+01 5.633441e+01 3.770607e+01 3.533192e+01 1.071623e+00 2.929780e+00 3.173507e+00 3.238035e+00 4.220249e+00 3.675766e+00 3.872529e+00 6.211667e+00 4.059755e+00 4.992434e+00 3.295561e+00 2.688236e+00 2.519138e+00
<GCONST> 1.081277e+02
<STATE> 4
<MEAN> 25
 4.727563e-01 1.273011e+00 6.855529e-01 3.663886e+00 -3.262304e-01 -4.816850e-01 4.178327e-01 -8.206450e-01 -3.262248e+00 -7.324409e-01 2.982649e-02 -1.039701e-01 -1.291901e+00 8.378496e-02 6.194356e-01 -8.736546e-02 -2.597688e-01 5.443528e-01 6.635079e-01 -3.792553e-01 3.631757e-02 7.404504e-01 -1.186499e-01 -2.809293e-02 -8.962790e-01
<VARIANCE> 25
 7.785126e+01 4.739791e+01 7.807683e+01 3.903997e+01 5.981194e+01 5.055993e+01 4.230692e+01 6.264926e+01 3.740926e+01 5.282862e+01 3.564328e+01 4.213199e+01 5.331515e+00 3.083068e+00 4.349725e+00 5.554353e+00 4.831242e+00 5.542533e+00 4.513179e+00 5.555266e+00 5.984736e+00 5.607967e+00 4.255462e+00 4.216276e+00 4.208358e+00
<GCONST> 1.133140e+02
<TRANSP> 5
 0.000000e+00 1.000000e+00 0.000000e+00 0.000000e+00 0.000000e+00
 0.000000e+00 7.083018e-01 2.916982e-01 0.000000e+00 0.000000e+00
 0.000000e+00 0.000000e+00 5.866818e-01 4.133182e-01 0.000000e+00
 0.000000e+00 0.000000e+00 0.000000e+00 6.428984e-01 3.571015e-01
 0.000000e+00 0.000000e+00 0.000000e+00 0.000000e+00 0.000000e+00
<ENDHMM>
~h "s"
<BEGINHMM>
<NUMSTATES> 5
<STATE> 2
<MEAN> 25
 -7.961871e+00 2.253257e+00 -7.306306e-01 -3.058212e+00 5.551729e+00 -7.344919e+00 3.534976e+00 5.757825e-02 -1.723261e-01 2.268694e-01 -2.569932e+00 2.468661e+00 -3.610628e+00 1.145966e+00 -5.635778e-01 -1.007179e+00 1.689016e+00 -1.215427e+00 1.542659e+00 4.974457e-01 2.660510e-01 -3.729849e-01 3.630335e-01 8.580106e-01 1.641240e+00
<VARIANCE> 25
 8.281994e+01 3.607676e+01 2.949059e+01 2.354947e+01 2.993048e+01 5.141954e+01 3.617737e+01 3.641285e+01 2.682335e+01 2.711013e+01 2.790377e+01 1.793249e+01 4.208213e+00 4.535657e+00 3.547603e+00 2.132133e+00 2.841820e+00 4.214151e+00 4.039122e+00 2.860514e+00 3.764056e+00 2.664961e+00 2.571932e+00 1.808364e+00 2.412923e+00
<GCONST> 1.024451e+02
<STATE> 3
<MEAN> 25
 -2.071895e+01 8.370841e+00 -5.101823e+00 -4.607784e+00 1.057243e+01 -7.872283e+00 8.021173e+00 1.666695e+00 2.031393e+00 -1.349536e+00 -7.626175e-02 5.744106e+00 -2.280977e-01 5.641874e-02 -2.118523e-01 -1.209243e-01 4.308780e-02 2.519698e-01 -1.026239e-01 2.281947e-01 2.411139e-01 5.266219e-02 3.849189e-02 1.957653e-02 1.615787e-01
<VARIANCE> 25
 3.880756e+01 1.476628e+01 3.797650e+01 1.644316e+01 2.289695e+01 1.947574e+01 1.569549e+01 3.423166e+01 2.259358e+01 1.533061e+01 1.548268e+01 1.193587e+01 7.577347e-01 9.858822e-01 1.004213e+00 9.366390e-01 1.527637e+00 1.575584e+00 1.030885e+00 1.697796e+00 1.609650e+00 1.655125e+00 1.336642e+00 1.017045e+00 5.433942e-01
<GCONST> 8.395048e+01
<STATE> 4
<MEAN> 25
 -1.286494e+01 4.450029e+00 -4.903826e+00 -4.126653e+00 7.215849e+00 -5.640846e+00 5.013037e+00 9.291519e-01 3.365026e+00 7.279209e-01 -1.013571e+00 3.833851e+00 2.147900e+00 -8.060088e-01 4.261537e-01 4.548371e-01 -1.003015e+00 5.001417e-01 -7.680588e-01 -4.142467e-01 -4.379985e-02 2.307108e-01 -9.037264e-02 -6.112225e-01 -1.170447e+00
<VARIANCE> 25
 7.322243e+01 1.577726e+01 3.006594e+01 3.165147e+01 2.930134e+01 4.033614e+01 2.564695e+01 3.094233e+01 2.299007e+01 2.588957e+01 1.799741e+01 1.942711e+01 4.310138e+00 1.229131e+00 2.522852e+00 1.879135e+00 1.628551e+00 3.400856e+00 2.737509e+00 2.406417e+00 2.052838e+00 2.792772e+00 1.756752e+00 2.396489e+00 3.406441e+00
<GCONST> 9.708420e+01
<TRANSP> 5
 0.000000e+00 1.000000e+00 0.000000e+00 0.000000e+00 0.000000e+00
 0.000000e+00 7.251713e-01 2.748287e-01 0.000000e+00 0.000000e+00
 0.000000e+00 0.000000e+00 8.444313e-01 1.555687e-01 0.000000e+00
 0.000000e+00 0.000000e+00 0.000000e+00 7.611802e-01 2.388198e-01
 0.000000e+00 0.000000e+00 0.000000e+00 0.000000e+00 0.000000e+00
<ENDHMM>
~h "t"
<BEGINHMM>
<NUMSTATES> 5
<STATE> 2
<MEAN> 25
 -6.188517e+00 -2.317585e+00 1.368745e+00 -3.989698e+00 4.250734e-01 -8.061883e-01 1.084139e+00 -1.800945e+00 -2.552684e-02 1.941674e-01 1.672997e-01 2.462042e+00 -1.917960e+00 -5.091254e-01 7.678508e-01 -1.529465e+00 -6.611288e-01 -8.647192e-01 4.946596e-01 3.240473e-01 -3.941845e-01 9.757827e-03 3.124506e-01 6.435375e-01 2.901210e+00
<VARIANCE> 25
 4.328884e+01 2.267196e+01 3.883756e+01 3.704354e+01 2.744297e+01 2.561707e+01 3.156025e+01 2.880603e+01 2.972658e+01 2.129445e+01 2.245076e+01 1.979377e+01 4.240010e+00 2.646837e+00 4.214415e+00 3.481812e+00 1.822561e+00 3.989089e+00 4.278501e+00 4.152016e+00 4.221297e+00 3.236760e+00 3.196429e+00 2.408847e+00 9.005623e+00
<GCONST> 1.028412e+02
<STATE> 3
<MEAN> 25
 -5.891995e+00 -6.043091e-01 5.944773e+00 -6.411752e-01 -1.704152e-01 -3.579310e+00 4.397509e+00 2.580208e+00 -1.730983e-01 6.136711e-01 3.926230e-01 3.872832e+00 1.593486e+00 2.894206e-01 -1.878139e-01 1.257588e+00 3.481233e-01 5.038041e-01 -2.058506e-01 5.545691e-01 6.967254e-01 3.714229e-01 -5.208356e-02 3.625982e-03 -1.573673e+00
<VARIANCE> 25
 7.411183e+01 3.003932e+01 4.672974e+01 5.013597e+01 4.440858e+01 6.038570e+01 4.403075e+01 4.400228e+01 2.759420e+01 3.614017e+01 2.538940e+01 2.353577e+01 5.178631e+00 2.952631e+00 3.175958e+00 2.839745e+00 3.863278e+00 6.104319e+00 4.230754e+00 2.484050e+00 3.021281e+00 3.059782e+00 2.501113e+00 2.194757e+00 3.411976e+00
<GCONST> 1.057688e+02
<STATE> 4
<MEAN> 25
 -3.324496e+00 -1.240974e+00 -1.683582e+00 1.140349e+00 2.799446e+00 2.632291e+00 2.891409e+00 1.751981e+00 3.819430e+00 2.205782e+00 1.609290e+00 2.988970e+00 1.355554e-01 -1.185482e-02 -1.581050e-01 6.926440e-02 -7.187796e-02 1.123483e-01 -1.227566e-01 -5.794537e-02 1.782059e-02 -1.109973e-01 2.401192e-02 -6.963576e-02 -9.036944e-02
<VARIANCE> 25
 1.194592e+01 8.826866e+00 1.249482e+01 1.215548e+01 1.511142e+01 1.836741e+01 1.845495e+01 1.572239e+01 1.548600e+01 1.729914e+01 1.598009e+01 1.517649e+01 5.443028e-01 4.515020e-01 8.221345e-01 8.250764e-01 1.113328e+00 1.279222e+00 1.532342e+00 1.551561e+00 1.416552e+00 1.334299e+00 1.289252e+00 1.223817e+00 1.501867e-01
<GCONST> 7.663125e+01
<TRANSP> 5
 0.000000e+00 1.000000e+00 0.000000e+00 0.000000e+00 0.000000e+00
 0.000000e+00 6.672064e-01 3.327936e-01 0.000000e+00 0.000000e+00
 0.000000e+00 0.000000e+00 7.536391e-01 2.463609e-01 0.000000e+00
 0.000000e+00 0.000000e+00 0.000000e+00 8.867089e-01 1.132910e-01
 0.000000e+00 0.000000e+00 0.000000e+00 0.000000e+00 0.000000e+00
<ENDHMM>
~h "u"
<BEGINHMM>
<NUMSTATES> 5
<STATE> 2
<MEAN> 25
 -4.959737e-01 3.701233e+00 1.735364e+00 -6.062655e-01 7.079659e-01 -1.427916e+00 4.796000e+00 1.116500e+00 -7.333539e-01 -1.721505e-01 -5.825780e+00 -4.060135e+00 -3.563065e-01 -7.408968e-02 -8.699655e-02 -1.310703e-01 3.640409e-01 -5.140720e-01 6.511144e-02 2.675590e-01 -1.296910e-01 1.312848e-01 -1.582185e-01 8.799095e-02 -1.213138e-01
<VARIANCE> 25
 5.610210e+01 8.564087e+01 2.740696e+01 3.720910e+01 5.773980e+01 9.210877e+01 4.221943e+01 3.585480e+01 2.501284e+01 3.037225e+01 4.575352e+01 3.285964e+01 3.005318e+00 8.275641e+00 2.931307e+00 4.854369e+00 4.798175e+00 9.478154e+00 5.167645e+00 4.093029e+00 2.941106e+00 2.384841e+00 5.155253e+00 3.330865e+00 9.750559e+00
<GCONST> 1.110078e+02
<STATE> 3
<MEAN> 25
 -4.140529e-01 -5.538127e+00 7.694044e+00 -3.694450e+00 1.370075e+00 2.726191e-01 -5.690958e-01 8.177388e-01 -2.292260e+00 3.622100e-01 2.853562e+00 -1.955059e+00 2.008276e+00 -4.485514e-01 -5.852073e-02 -6.483872e-01 -1.323209e-01 -8.696385e-01 -1.520476e+00 -1.435818e+00 -6.707882e-01 -1.654774e+00 2.353484e+00 3.960369e-01 2.802986e+00
<VARIANCE> 25
 4.569710e+01 9.235944e+01 6.967931e+01 2.802570e+01 6.035291e+01 9.073936e+01 3.833996e+01 4.153301e+01 2.097141e+01 3.428471e+01 5.392296e+01 1.989419e+01 1.953736e+00 1.103482e+01 6.711021e+00 5.005908e+00 8.236737e+00 8.053100e+00 3.930336e+00 9.289863e+00 4.055613e+00 2.179248e+00 5.789880e+00 2.782299e+00 8.396926e+00
<GCONST> 1.128725e+02
<STATE> 4
<MEAN> 25
 7.316278e+00 -2.223017e-01 8.624005e-01 -2.982581e+00 8.853196e-02 -5.913728e+00 -1.824223e+00 3.234014e-01 -2.184779e+00 -5.353445e+00 2.761712e+00 -3.500440e+00 9.618184e-02 2.785426e-02 -1.749759e-01 -8.964836e-02 -4.011731e-01 1.918439e-01 4.638594e-02 -3.523807e-02 -8.032482e-03 -2.474017e-02 5.854634e-02 -1.033102e-02 -1.148710e-01
<VARIANCE> 25
 3.256821e+01 7.556232e+01 3.916723e+01 2.619519e+01 3.919342e+01 5.050840e+01 4.020756e+01 4.174778e+01 2.036521e+01 2.690085e+01 4.780536e+01 1.947269e+01 1.546079e+00 2.951271e+00 2.824235e+00 2.252639e+00 3.521908e+00 3.666673e+00 2.694792e+00 3.243866e+00 1.350870e+00 1.943188e+00 3.076757e+00 1.707196e+00 1.807159e+00
<GCONST> 1.001574e+02
<TRANSP> 5
 0.000000e+00 1.000000e+00 0.000000e+00 0.000000e+00 0.000000e+00
 0.000000e+00 8.706828e-01 1.293173e-01 0.000000e+00 0.000000e+00
 0.000000e+00 0.000000e+00 5.802531e-01 4.197469e-01 0.000000e+00
 0.000000e+00 0.000000e+00 0.000000e+00 8.989903e-01 1.010097e-01
 0.000000e+00 0.000000e+00 0.000000e+00 0.000000e+00 0.000000e+00
<ENDHMM>
~h "v"
<BEGINHMM>
<NUMSTATES> 5
<STATE> 2
<MEAN> 25
 2.760146e+00 2.326497e+00 -1.414917e+00 3.564493e+00 2.962049e+00 1.414761e+00 -1.488899e+00 -2.006788e+00 -1.273328e+00 -2.534765e+00 -2.646313e+00 -1.144439e+00 -1.420167e+00 -4.756114e-01 -5.584494e-01 -1.348562e-01 3.738569e-01 2.775469e-01 1.018494e+00 6.761426e-01 1.363842e+00 2.968660e-01 -2.078498e-01 7.573398e-01 -8.926793e-01
<VARIANCE> 25
 2.755128e+01 1.468037e+01 2.715831e+01 1.342600e+01 2.365622e+01 2.525046e+01 1.586473e+01 1.510460e+01 2.086074e+01 1.309110e+01 2.042608e+01 1.856784e+01 1.300273e+00 1.683354e+00 1.310723e+00 1.817818e+00 4.031602e+00 3.536041e+00 1.866101e+00 1.301953e+00 2.350727e+00 1.172047e+00 1.990331e+00 1.588318e+00 9.547074e-01
<GCONST> 8.858254e+01
<STATE> 3
<MEAN> 25
 -4.870760e+00 -4.633068e-02 -2.005608e+00 4.044443e+00 1.783916e+00 1.647902e-01 -7.473011e-01 1.069032e+00 2.777710e+00 1.059288e+00 5.636512e-01 1.341017e+00 -3.051523e-01 -3.367579e-01 -5.906046e-02 -1.484624e-01 1.055403e-01 7.559665e-02 8.955434e-02 1.421579e-01 2.503563e-01 4.034755e-01 2.414789e-01 1.768933e-01 -3.001162e-01
<VARIANCE> 25
 1.964849e+01 1.443639e+01 1.707969e+01 1.470495e+01 1.410372e+01 8.330841e+00 1.649353e+01 2.017878e+01 1.061143e+01 1.132840e+01 1.601156e+01 1.728947e+01 2.340168e+00 6.057089e-01 9.717116e-01 7.301332e-01 1.843577e+00 1.539948e+00 1.781331e+00 1.191862e+00 1.758345e+00 1.748491e+00 2.065595e+00 1.843774e+00 9.204301e-01
<GCONST> 8.228683e+01
<STATE> 4
<MEAN> 25
 -2.241169e+00 -3.698487e+00 -3.264329e+00 -3.847270e-01 1.780178e+00 3.778965e-01 1.371085e+00 1.360971e+00 3.158539e+00 2.062515e+00 -1.254879e+00 2.297317e+00 1.144257e-02 4.121280e-02 4.068767e-02 5.540195e-02 2.295911e-02 -1.021285e-02 -2.219824e-02 -8.180020e-03 -3.753017e-02 -2.484276e-02 -4.268317e-02 -1.752473e-02 1.101127e-02
<VARIANCE> 25
 1.109890e+00 7.893805e+00 6.958264e+00 8.503983e+00 9.856393e+00 1.112037e+01 1.380379e+01 1.092733e+01 1.518486e+01 1.506489e+01 1.525773e+01 1.173405e+01 1.995912e-01 2.712657e-01 5.180876e-01 5.899327e-01 8.536299e-01 1.144948e+00 1.317431e+00 1.197603e+00 1.972172e+00 1.684282e+00 1.194310e+00 1.326358e+00 6.388743e-02
<GCONST> 6.777254e+01
<TRANSP> 5
 0.000000e+00 1.000000e+00 0.000000e+00 0.000000e+00 0.000000e+00
 0.000000e+00 6.215143e-01 3.784857e-01 0.000000e+00 0.000000e+00
 0.000000e+00 0.000000e+00 5.443737e-01 4.556263e-01 0.000000e+00
 0.000000e+00 0.000000e+00 0.000000e+00 9.432443e-01 5.675575e-02
 0.000000e+00 0.000000e+00 0.000000e+00 0.000000e+00 0.000000e+00
<ENDHMM>
~h "w"
<BEGINHMM>
<NUMSTATES> 5
<STATE> 2
<MEAN> 25
 1.015980e+01 8.283154e+00 -1.260216e+00 -5.690900e+00 -2.118251e-01 4.281898e+00 -6.925364e-01 -4.655754e+00 -2.223329e+00 -2.096451e+00 9.229033e-01 -4.024371e-03 5.923753e-01 -6.927604e-02 -3.101284e-01 -4.290162e-01 -4.375870e-01 5.865467e-01 -3.451218e-01 -1.328523e-01 -1.226908e-01 3.741139e-01 6.966363e-01 -6.223834e-01 9.090906e-01
<VARIANCE> 25
 1.135124e+01 9.291792e+00 1.655912e+01 4.403780e+01 1.683047e+01 4.268823e+01 4.138565e+01 3.630825e+01 4.015806e+01 4.084900e+01 4.515121e+01 2.037238e+01 2.370408e+00 2.906635e+00 1.229743e+00 3.160300e+00 1.993914e+00 4.895448e+00 3.696433e+00 2.927896e+00 4.368204e+00 6.185303e+00 3.486717e+00 3.256771e+00 1.584445e+00
<GCONST> 9.945041e+01
<STATE> 3
<MEAN> 25
 7.950481e+00 -1.326056e+00 -1.494484e+00 1.003071e+00 -3.534934e+00 1.087372e+00 -3.251826e+00 1.299340e+00 2.781591e+00 1.104733e+00 1.419612e+00 -7.594290e+00 -5.346001e-01 -1.551612e+00 1.441561e+00 1.653040e+00 -1.536623e+00 -3.475493e+00 1.031663e+00 3.759015e+00 2.432916e-01 -1.436105e+00 -1.729791e+00 8.028652e-02 5.367557e-01
<VARIANCE> 25
 7.997270e+00 1.844204e+01 3.088797e+01 2.540020e+01 2.567253e+01 7.724148e+01 7.647703e+01 9.149416e+01 3.760789e+01 6.171614e+01 3.844576e+01 3.295509e+01 7.962639e-01 1.680715e+00 2.130511e+00 4.345049e+00 2.476789e+00 4.134408e+00 4.342169e+00 2.335814e+00 7.965775e+00 3.946077e+00 6.519983e+00 4.887234e+00 6.592502e-01
<GCONST> 1.025981e+02
<STATE> 4
<MEAN> 25
 8.244659e+00 -3.312598e+00 4.784476e-01 4.603818e+00 -1.105749e+01 -6.807882e+00 -1.944809e+00 1.181734e+01 -2.449270e-01 -4.150849e+00 4.373699e+00 -1.302356e+00 -1.019655e-01 5.730230e-03 -8.561198e-02 -3.085586e-01 -4.931396e-01 -2.296280e-01 -8.726195e-02 -3.514051e-01 -8.163201e-01 1.315058e-01 2.626418e-01 2.987968e-01 -3.562500e-01
<VARIANCE> 25
 8.796293e+00 1.423157e+01 2.679585e+01 3.081000e+01 4.593768e+01 1.542904e+01 8.704241e+01 8.142944e+01 3.768741e+01 2.154976e+01 2.633316e+01 2.840419e+01 4.166901e-01 6.528530e-01 1.147642e+00 9.499381e-01 1.846976e+00 1.516450e+00 1.672866e+00 1.930526e+00 2.842896e+00 1.667637e+00 3.217082e+00 2.533201e+00 5.264964e-01
<GCONST> 9.023898e+01
<TRANSP> 5
 0.000000e+00 1.000000e+00 0.000000e+00 0.000000e+00 0.000000e+00
 0.000000e+00 8.774261e-01 1.225739e-01 0.000000e+00 0.000000e+00
 0.000000e+00 0.000000e+00 6.926602e-01 3.073398e-01 0.000000e+00
 0.000000e+00 0.000000e+00 0.000000e+00 7.953719e-01 2.046281e-01
 0.000000e+00 0.000000e+00 0.000000e+00 0.000000e+00 0.000000e+00
<ENDHMM>
~h "y"
<BEGINHMM>
<NUMSTATES> 5
<STATE> 2
<MEAN> 25
 -1.197305e+01 -1.049794e+00 1.060283e+01 -3.965681e+00 -1.381507e+00 1.243437e+00 5.834574e+00 -6.600393e+00 1.383726e+00 2.360080e+00 -1.189933e+00 3.160466e+00 7.315209e-01 9.418170e-01 1.183172e+00 1.090486e+00 -1.338431e+00 -5.452153e-01 7.619636e-02 -5.271206e-01 -1.224506e+00 -7.653446e-01 -4.023013e-01 -3.263909e-01 4.396259e-01
<VARIANCE> 25
 5.979263e+01 2.704648e+01 4.681002e+01 5.487851e+01 3.747930e+01 2.644516e+01 5.782183e+01 3.227581e+01 1.789195e+01 2.600336e+01 3.758829e+01 1.785512e+01 8.435468e+00 3.166834e+00 3.100453e+00 4.063615e+00 3.006127e+00 3.119316e+00 5.091058e+00 3.400051e+00 4.710002e+00 2.000074e+00 3.006330e+00 2.164655e+00 2.470241e+00
<GCONST> 1.041972e+02
<STATE> 3
<MEAN> 25
 2.962010e+00 6.836432e+00 1.185733e+01 4.690839e+00 -5.830751e+00 -5.978787e+00 -1.934708e+00 -7.244194e+00 -7.419825e+00 -2.513329e+00 1.397099e+00 -1.237950e+00 1.711616e+00 2.456079e-01 5.822887e-01 1.108675e+00 -2.363329e+00 -1.218161e+00 -1.487523e+00 1.831710e+00 -3.076297e+00 -1.380693e+00 1.706148e+00 -1.071869e+00 4.527880e-01
<VARIANCE> 25
 1.867215e+01 1.617177e+01 6.555811e+01 2.316186e+01 6.821968e+01 3.858211e+01 2.995307e+01 4.761118e+01 7.247606e+01 2.195865e+01 2.071963e+01 2.185497e+01 5.450399e+00 3.489022e+00 3.790792e+00 5.123825e+00 4.452808e+00 4.792944e+00 6.384446e+00 5.692428e+00 6.073775e+00 3.724032e+00 4.194142e+00 2.848264e+00 1.199242e+00
<GCONST> 1.059552e+02
<STATE> 4
<MEAN> 25
 3.795685e+00 5.294431e+00 1.386611e+01 7.788348e+00 -1.028177e+01 -7.814630e+00 -3.583156e+00 -1.971523e+00 -1.383500e+01 -4.542507e+00 6.587109e+00 -3.391937e+00 4.751705e-01 -2.358128e-01 -9.900963e-01 1.615736e-01 9.264051e-01 -8.113928e-01 -6.048136e-01 9.518989e-01 6.380419e-01 -4.616556e-01 -3.147833e-01 1.204813e-01 -9.217744e-02
<VARIANCE> 25
 9.828173e+00 2.279080e+01 4.156643e+01 2.684858e+01 4.195970e+01 4.150869e+01 2.863675e+01 5.002200e+01 4.293435e+01 3.397124e+01 2.082921e+01 1.711409e+01 6.961241e-01 7.046907e-01 2.648265e+00 2.787017e+00 3.910963e+00 2.404862e+00 2.824959e+00 2.191441e+00 4.218063e+00 2.632594e+00 3.078457e+00 1.489990e+00 5.356353e-01
<GCONST> 9.492448e+01
<TRANSP> 5
 0.000000e+00 1.000000e+00 0.000000e+00 0.000000e+00 0.000000e+00
 0.000000e+00 7.671677e-01 2.328322e-01 0.000000e+00 0.000000e+00
 0.000000e+00 0.000000e+00 6.563007e-01 3.436994e-01 0.000000e+00
 0.000000e+00 0.000000e+00 0.000000e+00 7.194160e-01 2.805840e-01
 0.000000e+00 0.000000e+00 0.000000e+00 0.000000e+00 0.000000e+00
<ENDHMM>
~h "z"
<BEGINHMM>
<NUMSTATES> 5
<STATE> 2
<MEAN> 25
 -1.149996e+01 1.154915e+01 4.667812e+00 -2.843062e+00 8.548502e+00 -4.837087e+00 1.887965e+00 -1.242821e+00 -2.331959e+00 -2.298999e+00 -1.670349e+00 3.523941e+00 -3.162198e+00 3.762163e-01 -8.112284e-01 -9.094540e-01 1.741897e+00 -9.599987e-02 3.527832e-01 7.977449e-01 9.433162e-01 4.517375e-01 7.129799e-02 1.445706e-01 5.406013e-01
<VARIANCE> 25
 9.179703e+01 2.835597e+01 8.061050e+01 4.302327e+01 7.191599e+01 6.286839e+01 2.440113e+01 2.071848e+01 4.743557e+01 1.294581e+01 1.915288e+01 1.342129e+01 3.170477e+00 1.865695e+00 3.477206e+00 3.478340e+00 5.764864e+00 4.915568e+00 1.649843e+00 2.397985e+00 1.655855e+00 1.515958e+00 1.590875e+00 1.766260e+00 6.448047e-01
<GCONST> 9.907887e+01
<STATE> 3
<MEAN> 25
 -2.199274e+01 8.088996e+00 -2.433991e+00 -7.938249e+00 1.137354e+01 -8.113914e+00 4.853494e+00 3.747476e+00 1.469648e+00 6.826883e-01 -1.981912e+00 5.191944e+00 6.993645e-01 -9.617085e-01 -2.409465e-03 -4.643124e-02 -5.866792e-01 -4.794649e-01 2.467415e-01 2.100037e-01 -1.200715e-01 2.958938e-01 -1.898532e-01 -5.238627e-02 -3.951641e-01
<VARIANCE> 25
 1.833153e+01 1.877344e+01 2.787184e+01 3.268673e+01 1.092957e+01 3.348117e+01 3.145810e+01 1.801836e+01 1.686491e+01 1.985780e+01 1.303398e+01 1.233294e+01 2.358629e+00 8.129475e-01 1.192672e+00 9.992977e-01 1.579087e+00 1.535340e+00 1.669047e+00 1.499579e+00 1.932816e+00 1.518838e+00 1.491683e+00 1.029768e+00 9.284642e-01
<GCONST> 8.580019e+01
<STATE> 4
<MEAN> 25
 -6.253357e+00 -1.251293e+00 -1.143881e+00 -1.813938e+00 1.725155e+00 -5.559568e+00 2.585630e+00 3.308296e-01 -1.457977e+00 1.899158e+00 -1.757802e+00 1.854030e+00 7.825428e-01 -2.638795e-01 -1.640680e-02 4.149950e-01 -4.723290e-01 7.250687e-01 -2.287282e-01 -4.258300e-01 7.435405e-02 6.507722e-02 -8.436652e-02 -2.025129e-01 -5.975641e-01
<VARIANCE> 25
 1.860242e+01 2.783247e+01 3.462436e+01 2.268720e+01 3.401143e+01 5.015326e+01 3.525378e+01 2.742294e+01 5.281378e+01 2.377543e+01 1.832130e+01 1.408385e+01 3.437757e+00 1.762729e+00 2.347728e+00 1.691065e+00 3.054897e+00 3.181810e+00 3.121431e+00 3.232498e+00 3.418720e+00 2.590194e+00 1.292860e+00 1.636511e+00 2.561647e+00
<GCONST> 9.750433e+01
<TRANSP> 5
 0.000000e+00 1.000000e+00 0.000000e+00 0.000000e+00 0.000000e+00
 0.000000e+00 8.254264e-01 1.745736e-01 0.000000e+00 0.000000e+00
 0.000000e+00 0.000000e+00 8.710023e-01 1.289977e-01 0.000000e+00
 0.000000e+00 0.000000e+00 0.000000e+00 9.077529e-01 9.224711e-02
 0.000000e+00 0.000000e+00 0.000000e+00 0.000000e+00 0.000000e+00
<ENDHMM>
~h "aa"
<BEGINHMM>
<NUMSTATES> 5
<STATE> 2
<MEAN> 25
 3.482439e+00 7.073920e-01 3.915613e-01 -1.890773e+00 2.218195e+00 4.893229e+00 -1.566293e-01 -7.306352e-01 1.594795e+00 7.425044e-01 -4.057933e-01 -4.004264e+00 1.411879e+00 -5.063504e-01 -6.287890e-01 -1.178668e+00 -8.334080e-01 2.107828e+00 -2.930025e-01 -3.464628e-01 -1.502486e-01 -1.314777e-01 6.589586e-01 -1.156664e+00 1.138939e+00
<VARIANCE> 25
 3.921419e+01 3.252287e+01 3.030832e+01 4.954202e+01 3.628624e+01 5.184722e+01 4.025171e+01 3.284319e+01 2.665948e+01 2.483120e+01 2.567706e+01 5.279831e+01 6.906976e+00 2.912681e+00 2.485858e+00 4.905973e+00 4.162169e+00 5.682330e+00 3.487808e+00 3.553299e+00 4.425345e+00 3.076543e+00 2.550550e+00 3.784379e+00 1.095525e+00
<GCONST> 1.049989e+02
<STATE> 3
<MEAN> 25
 8.965320e+00 -4.925373e+00 -6.484861e+00 -1.052589e+01 -6.476708e-02 1.656453e+01 -5.456590e-01 -3.029968e+00 1.043924e+00 -7.410375e-01 1.588865e+00 -1.086959e+01 3.981167e-02 1.605690e-01 -2.192803e-01 1.119810e-01 4.635676e-02 -1.349432e-01 -1.024938e-02 2.684676e-02 -3.667108e-01 7.311362e-02 -2.291063e-01 1.426969e-01 -3.995659e-01
<VARIANCE> 25
 8.878191e+00 2.348509e+01 1.220461e+01 2.505063e+01 1.446182e+01 4.645403e+01 4.063223e+01 3.563476e+01 4.937847e+01 5.043806e+01 3.166645e+01 3.725915e+01 2.468314e-01 1.199754e+00 6.103410e-01 1.205099e+00 1.003376e+00 2.721373e+00 1.683939e+00 2.217554e+00 1.541522e+00 1.607161e+00 1.534770e+00 1.906844e+00 9.697003e-01
<GCONST> 8.843911e+01
<STATE> 4
<MEAN> 25
 8.598020e-01 -3.053767e+00 -4.146319e+00 -2.941907e+00 6.715540e-01 2.450450e+00 -1.483034e+00 2.310313e-01 1.524481e+00 1.500552e+00 -1.764726e+00 -9.564510e-01 -6.941061e-02 1.248794e-01 1.784666e-01 2.213516e-01 2.733591e-03 -2.502303e-01 4.979328e-02 1.258014e-01 9.751785e-02 1.941654e-01 7.333601e-03 2.551864e-01 -2.472324e-01
<VARIANCE> 25
 1.526143e+01 7.263272e+00 1.077992e+01 1.636696e+01 1.213671e+01 2.977893e+01 1.425642e+01 2.216408e+01 2.353408e+01 1.719381e+01 2.025380e+01 2.008309e+01 2.855671e-01 7.007824e-01 1.628519e+00 1.132113e+00 9.640450e-01 1.598844e+00 1.270184e+00 1.914664e+00 2.107089e+00 1.657049e+00 2.337331e+00 1.271388e+00 9.373362e-01
<GCONST> 8.208400e+01
<TRANSP> 5
 0.000000e+00 1.000000e+00 0.000000e+00 0.000000e+00 0.000000e+00
 0.000000e+00 7.808580e-01 2.191420e-01 0.000000e+00 0.000000e+00
 0.000000e+00 0.000000e+00 8.619837e-01 1.380163e-01 0.000000e+00
 0.000000e+00 0.000000e+00 0.000000e+00 8.472232e-01 1.527769e-01
 0.000000e+00 0.000000e+00 0.000000e+00 0.000000e+00 0.000000e+00
<ENDHMM>
~h "ae"
<BEGINHMM>
<NUMSTATES> 5
<STATE> 2
<MEAN> 25
 1.347547e+00 -3.048030e+00 6.037616e-01 9.612553e-01 -1.933018e+00 -2.390481e+00 1.006396e+00 2.836102e+00 -5.674887e-01 -2.807199e+00 -2.219018e+00 -2.568485e+00 1.248028e+00 -1.325456e+00 2.188754e-01 -8.703340e-01 -9.095808e-01 -3.647352e-01 6.143521e-02 1.184462e+00 -1.025509e+00 -8.238690e-01 -1.184922e+00 -1.380240e+00 2.732481e+00
<VARIANCE> 25
 2.687021e+01 4.530576e+01 3.496272e+01 2.622355e+01 4.445309e+01 3.806792e+01 3.290086e+01 3.934453e+01 3.679013e+01 2.540832e+01 4.283522e+01 3.500346e+01 2.467151e+00 3.195933e+00 2.975210e+00 1.678314e+00 4.920612e+00 3.450108e+00 2.714196e+00 2.451643e+00 4.078550e+00 3.419602e+00 5.008722e+00 4.672017e+00 6.377790e+00
<GCONST> 1.046661e+02
<STATE> 3
<MEAN> 25
 6.338071e+00 -8.504186e+00 -2.022661e+00 -2.294696e+00 -2.762789e+00 -7.622060e-01 2.641487e+00 4.966317e+00 -1.855152e+00 -6.997323e+00 -6.351114e+00 -8.709065e+00 2.836750e-01 4.602078e-02 -3.809205e-01 1.658698e-01 2.859197e-01 1.583136e-01 -1.667839e-01 -1.956750e-01 3.629613e-01 -5.524505e-02 -1.102870e-01 -2.800229e-01 -1.391783e-02
<VARIANCE> 25
 9.540333e+00 2.962412e+01 3.693017e+01 1.459667e+01 2.630658e+01 2.546406e+01 2.720587e+01 2.977542e+01 3.111417e+01 2.299722e+01 3.816740e+01 4.297699e+01 3.399425e-01 7.705764e-01 7.785643e-01 1.112866e+00 1.473884e+00 1.494843e+00 1.337678e+00 1.789559e+00 1.225446e+00 1.638521e+00 1.322921e+00 1.863271e+00 7.247391e-01
<GCONST> 8.651795e+01
<STATE> 4
<MEAN> 25
 7.973374e+00 -5.028208e+00 -1.394691e+00 6.174991e-01 -2.684225e+00 -4.260659e+00 1.103641e+00 3.832846e+00 1.947419e-01 -4.676352e+00 -4.705648e+00 -7.043065e+00 -3.835834e-01 1.672585e+00 7.644832e-01 9.728773e-01 3.945752e-01 -1.146026e-02 -4.536132e-03 -1.735407e+00 -3.058169e-01 1.545629e+00 5.812940e-01 8.387744e-01 -2.223264e+00
<VARIANCE> 25
 1.236675e+01 2.693419e+01 4.732003e+01 1.707421e+01 3.398185e+01 4.078940e+01 4.291216e+01 4.689336e+01 5.853389e+01 4.454041e+01 3.106864e+01 4.363010e+01 2.234136e+00 2.075458e+00 2.405523e+00 3.032072e+00 3.244138e+00 3.334997e+00 2.266356e+00 5.679107e+00 4.760469e+00 3.360466e+00 2.277598e+00 3.662587e+00 2.517244e+00
<GCONST> 1.026433e+02
<TRANSP> 5
 0.000000e+00 1.000000e+00 0.000000e+00 0.000000e+00 0.000000e+00
 0.000000e+00 7.974011e-01 2.025989e-01 0.000000e+00 0.000000e+00
 0.000000e+00 0.000000e+00 8.715103e-01 1.284896e-01 0.000000e+00
 0.000000e+00 0.000000e+00 0.000000e+00 7.206702e-01 2.793298e-01
 0.000000e+00 0.000000e+00 0.000000e+00 0.000000e+00 0.000000e+00
<ENDHMM>
~h "ah"
<BEGINHMM>
<NUMSTATES> 5
<STATE> 2
<MEAN> 25
 2.677486e+00 -3.017025e+00 1.297137e+00 -3.970027e-01 -3.162387e+00 -3.340620e+00 -9.427212e-01 1.374356e-01 -9.919279e-01 -1.511611e+00 -2.619387e+00 -2.890787e+00 1.772200e+00 -3.906878e-01 -4.252839e-01 -8.813392e-01 -4.943970e-01 -5.707005e-02 -7.121828e-01 1.154150e-01 -6.711675e-01 1.182398e-01 -5.228026e-01 -1.506269e+00 1.437682e+00
<VARIANCE> 25
 4.047718e+01 3.663425e+01 5.090802e+01 4.320852e+01 3.766945e+01 6.933455e+01 4.893591e+01 6.019495e+01 4.338786e+01 2.906027e+01 3.069258e+01 4.082197e+01 3.681742e+00 3.398061e+00 3.991809e+00 4.837840e+00 3.482790e+00 6.286534e+00 4.057105e+00 5.061630e+00 5.620336e+00 3.111151e+00 3.642883e+00 5.071746e+00 5.506498e+00
<GCONST> 1.101529e+02
<STATE> 3
<MEAN> 25
 8.056112e+00 -2.618573e+00 -2.243533e+00 -3.662950e+00 -3.751045e+00 -1.328432e+00 -5.318882e+00 1.644257e-01 -1.711038e+00 9.055908e-01 -3.535527e+00 -8.199993e+00 3.583350e-01 9.335022e-01 -2.181280e-01 4.106320e-02 6.070538e-01 6.085716e-01 1.276343e-01 -9.862223e-01 -4.789595e-01 3.651160e-01 2.230806e-01 8.511464e-03 -9.217193e-01
<VARIANCE> 25
 2.123036e+01 4.368834e+01 4.497480e+01 5.046046e+01 2.743802e+01 6.570589e+01 4.271978e+01 6.961204e+01 4.329509e+01 3.583721e+01 3.923490e+01 6.256086e+01 1.957498e+00 2.722080e+00 2.911295e+00 5.160556e+00 2.706805e+00 3.378609e+00 2.579039e+00 3.952117e+00 4.270477e+00 3.942750e+00 2.942820e+00 3.821194e+00 3.031254e+00
<GCONST> 1.064243e+02
<STATE> 4
<MEAN> 25
 5.891939e+00 2.449652e-01 -1.822126e+00 7.870878e-01 -3.197113e-01 1.717070e+00 2.764112e-01 -4.057091e-01 3.902130e-01 -4.487174e-02 -2.279428e+00 -5.361755e+00 -1.951988e-01 4.417641e-01 1.073022e-01 1.702635e-01 4.466054e-01 1.271857e-01 4.564936e-01 -3.232169e-01 -3.213509e-01 1.633464e-01 2.283999e-01 4.308374e-01 -7.449111e-01
<VARIANCE> 25
 3.430439e+01 1.995342e+01 4.416763e+01 5.958708e+01 2.190134e+01 3.695832e+01 3.327784e+01 6.777905e+01 5.764124e+01 3.148860e+01 4.260904e+01 4.749321e+01 2.244237e+00 1.939805e+00 2.259585e+00 2.627562e+00 1.853017e+00 2.958430e+00 1.829336e+00 3.583357e+00 2.894895e+00 2.916015e+00 2.710278e+00 3.264551e+00 1.759127e+00
<GCONST> 1.015971e+02
<TRANSP> 5
 0.000000e+00 1.000000e+00 0.000000e+00 0.000000e+00 0.000000e+00
 0.000000e+00 5.765172e-01 4.234828e-01 0.000000e+00 0.000000e+00
 0.000000e+00 0.000000e+00 6.129516e-01 3.870484e-01 0.000000e+00
 0.000000e+00 0.000000e+00 0.000000e+00 6.088361e-01 3.911640e-01
 0.000000e+00 0.000000e+00 0.000000e+00 0.000000e+00 0.000000e+00
<ENDHMM>
~h "ao"
<BEGINHMM>
<NUMSTATES> 5
<STATE> 2
<MEAN> 25
 -5.618015e+00 -2.241008e+00 -1.112817e-01 -1.325466e+00 -2.587471e+00 -4.835573e-01 2.892938e+00 8.528379e-01 1.107267e+00 4.314913e-01 8.053190e-01 1.964398e+00 2.556262e+00 1.024587e+00 -2.954570e-01 -1.756342e+00 -1.296736e+00 1.295769e+00 -6.921024e-01 -3.173497e-01 -7.991282e-01 -8.739586e-01 1.860835e-01 -4.624086e-01 1.148171e+00
<VARIANCE> 25
 8.962173e+01 4.879047e+01 1.232389e+01 2.607170e+01 3.333832e+01 3.096579e+01 4.338169e+01 2.658852e+01 2.812674e+01 2.366628e+01 2.166864e+01 2.262883e+01 1.567403e+01 3.755733e+00 1.639386e+00 7.881024e+00 6.459081e+00 7.822908e+00 4.728047e+00 3.334351e+00 4.991306e+00 3.549355e+00 3.475629e+00 3.646357e+00 8.290888e+00
<GCONST> 1.076320e+02
<STATE> 3
<MEAN> 25
 1.017875e+01 5.447164e+00 -4.475229e+00 -2.306591e+01 -5.692335e+00 1.603573e+01 -9.203833e-01 -1.412162e+00 -1.830255e+00 -7.260287e+00 -4.616627e-01 -2.840345e+00 8.370203e-01 6.490664e-01 -4.524496e-02 -1.027390e+00 -9.723460e-01 2.380380e-01 8.194923e-02 1.489665e-01 -3.612737e-02 -1.079369e-01 -1.236840e-01 -4.152563e-02 5.688453e-01
<VARIANCE> 25
 1.179744e+01 3.048330e+01 1.664226e+01 4.344249e+01 4.210681e+01 3.497477e+01 2.382726e+01 1.466668e+01 1.821800e+01 2.307341e+01 1.068052e+01 1.179378e+01 1.622253e+00 7.157867e-01 7.618607e-01 5.308752e+00 1.808951e+00 4.882420e+00 1.157438e+00 2.156330e+00 1.767129e+00 2.185680e+00 1.233992e+00 1.623319e+00 2.746723e+00
<GCONST> 9.013995e+01
<STATE> 4
<MEAN> 25
 1.384900e+01 6.447426e+00 -6.635258e+00 -6.300550e+00 -6.194335e+00 5.322661e+00 -5.166179e+00 1.675778e+00 -5.709486e+00 -5.352520e+00 3.879887e+00 2.371185e+00 8.821341e-02 -5.228830e-01 -3.620807e-01 1.016903e+00 8.457876e-01 -3.991680e-01 -7.894986e-01 -1.874269e-02 2.936740e-01 -2.177015e-02 1.699697e-02 2.701504e-01 4.320074e-02
<VARIANCE> 25
 8.721483e+00 2.480231e+01 2.862343e+01 7.395666e+01 4.871911e+01 2.921276e+01 5.331010e+01 2.097888e+01 4.515326e+01 2.381007e+01 5.240599e+01 2.351824e+01 1.360561e-01 3.922058e-01 9.350676e-01 1.032237e+00 1.330389e+00 1.876116e+00 4.051211e+00 2.508864e+00 3.666044e+00 1.916620e+00 2.813774e+00 1.924978e+00 2.052165e-01
<GCONST> 8.968153e+01
<TRANSP> 5
 0.000000e+00 1.000000e+00 0.000000e+00 0.000000e+00 0.000000e+00
 0.000000e+00 7.688517e-01 2.311483e-01 0.000000e+00 0.000000e+00
 0.000000e+00 0.000000e+00 8.164123e-01 1.835878e-01 0.000000e+00
 0.000000e+00 0.000000e+00 0.000000e+00 9.003804e-01 9.961956e-02
 0.000000e+00 0.000000e+00 0.000000e+00 0.000000e+00 0.000000e+00
<ENDHMM>
~h "aw"
<BEGINHMM>
<NUMSTATES> 5
<STATE> 2
<MEAN> 25
 7.839488e+00 -3.517807e+00 -4.267467e+00 -1.080668e+00 -7.178721e-03 5.696337e+00 -3.668502e+00 4.088511e+00 1.194045e+00 -3.439785e+00 -4.532195e+00 -7.960607e+00 2.001156e-01 5.840839e-01 -4.449800e-01 2.457860e-01 1.985369e-01 3.335514e-01 -5.321822e-01 -8.316551e-01 -1.810374e-01 8.960275e-02 6.049270e-01 9.606132e-03 -4.696515e-01
<VARIANCE> 25
 7.305064e+00 1.774594e+01 1.964108e+01 3.207293e+01 2.595962e+01 5.584760e+01 5.770940e+01 2.942350e+01 1.962820e+01 8.599114e+01 2.888154e+01 1.635233e+01 1.339147e-01 6.582038e-01 6.385361e-01 8.261497e-01 1.486481e+00 1.221394e+00 2.308905e+00 1.484951e+00 1.151210e+00 1.955947e+00 3.283687e+00 1.126298e+00 1.982671e-01
<GCONST> 8.482410e+01
<STATE> 3
<MEAN> 25
 8.004461e+00 5.713967e+00 -3.692024e+00 -6.916702e-01 -8.924031e-01 3.154027e+00 -7.179754e+00 -9.124623e+00 -7.240569e+00 -3.894315e-01 4.816174e+00 -5.584400e+00 -3.012750e-01 1.297132e-01 9.127597e-01 5.841334e-01 3.125073e-01 -9.704289e-01 5.082785e-01 -5.472811e-01 -1.973584e-01 -2.961408e-01 -5.283314e-01 4.051300e-01 -8.282638e-01
<VARIANCE> 25
 1.500786e+01 2.240583e+01 2.683614e+01 2.385693e+01 1.383857e+01 5.119543e+01 4.035457e+01 3.151398e+01 4.029935e+01 4.804697e+01 5.967381e+01 1.856445e+01 1.307654e+00 1.978697e+00 1.605236e+00 3.436167e+00 1.251636e+00 3.231967e+00 3.713519e+00 4.614874e+00 5.940465e+00 4.871493e+00 4.831520e+00 2.252131e+00 1.945593e+00
<GCONST> 9.983144e+01
<STATE> 4
<MEAN> 25
 2.401362e+00 -2.353365e+00 -4.333333e+00 -7.939657e-01 3.206468e+00 7.202299e+00 4.720060e+00 -3.758416e+00 4.384480e+00 -7.442833e-01 1.284336e-02 -5.263962e+00 -3.362616e-01 -5.403520e-01 3.495890e-02 4.627028e-02 6.288760e-02 3.184213e-01 4.296041e-01 3.680589e-01 5.202951e-01 -3.504007e-02 5.792772e-02 4.430346e-01 5.563158e-03
<VARIANCE> 25
 3.528400e+01 4.205224e+01 2.642163e+01 2.305793e+01 1.089298e+01 6.350393e+01 2.732784e+01 3.242339e+01 3.670922e+01 2.056661e+01 2.811155e+01 5.428014e+01 7.609416e-01 2.586471e+00 1.739800e+00 1.796061e+00 1.276468e+00 2.337897e+00 2.645477e+00 3.587461e+00 3.824022e+00 4.406750e+00 1.769080e+00 2.891178e+00 1.036441e+00
<GCONST> 9.659695e+01
<TRANSP> 5
 0.000000e+00 1.000000e+00 0.000000e+00 0.000000e+00 0.000000e+00
 0.000000e+00 9.063945e-01 9.360555e-02 0.000000e+00 0.000000e+00
 0.000000e+00 0.000000e+00 8.352845e-01 1.647154e-01 0.000000e+00
 0.000000e+00 0.000000e+00 0.000000e+00 8.012127e-01 1.987874e-01
 0.000000e+00 0.000000e+00 0.000000e+00 0.000000e+00 0.000000e+00
<ENDHMM>
~h "ay"
<BEGINHMM>
<NUMSTATES> 5
<STATE> 2
<MEAN> 25
 9.647515e+00 -5.975993e+00 8.342716e+00 -1.669720e+00 -1.404796e+01 -6.772534e+00 -4.546274e+00 5.945958e+00 -7.257106e+00 -1.871225e+00 -8.115119e-02 -1.412189e+00 -6.677355e-01 9.621530e-01 1.795210e+00 -3.705385e-01 -4.230842e-01 1.326659e-02 1.174168e-02 -1.478782e+00 -1.487375e+00 2.820704e-01 2.358803e-01 -1.100562e-01 -5.574229e-01
<VARIANCE> 25
 8.026693e+00 2.162692e+01 4.631022e+01 1.586217e+01 3.499738e+01 3.415385e+01 2.704358e+01 7.143745e+01 5.722403e+01 1.874267e+01 2.323086e+01 2.537105e+01 6.708426e-01 1.508159e+00 2.597371e+00 7.557387e-01 2.209310e+00 2.177143e+00 1.918382e+00 4.030529e+00 2.894338e+00 1.899022e+00 2.642192e+00 2.115225e+00 5.238436e-01
<GCONST> 9.279272e+01
<STATE> 3
<MEAN> 25
 1.146521e+00 5.045055e+00 1.408509e+01 9.559406e-01 -5.787585e+00 -3.255057e+00 -1.917632e+00 -6.396506e+00 -1.111766e+01 -3.380936e+00 -2.862923e+00 -5.866831e+00 -1.849280e+00 9.008558e-01 -2.080782e+00 1.395785e+00 3.323156e+00 1.281418e+00 1.888526e+00 6.112732e-01 2.081039e+00 -2.012672e-01 -3.045459e-01 4.349246e-01 -2.590026e+00
<VARIANCE> 25
 1.914901e+01 2.221043e+01 5.809219e+01 3.986196e+01 6.610291e+01 3.430011e+01 3.502665e+01 2.316114e+01 6.376102e+01 2.258638e+01 1.663123e+01 2.454708e+01 3.302876e+00 3.838177e+00 5.257885e+00 4.683613e+00 2.387742e+00 2.012764e+00 1.903633e+00 3.507716e+00 6.370972e+00 3.363071e+00 2.023693e+00 2.581426e+00 2.520644e+00
<GCONST> 1.023111e+02
<STATE> 4
<MEAN> 25
 -1.070026e+01 5.159593e+00 -2.640711e+00 -1.778262e+00 6.221351e+00 -2.063225e+00 6.033168e+00 -4.460875e-02 2.071228e+00 5.842023e-01 2.503548e-01 6.819624e-01 -1.059030e+00 -7.093611e-01 -1.246994e+00 -8.571345e-01 5.118950e-01 3.755583e-01 3.651466e-01 6.373994e-01 1.321866e+00 6.662011e-01 4.926429e-01 1.100235e+00 -3.284472e-01
<VARIANCE> 25
 4.919277e+01 2.469546e+01 3.626432e+01 3.175950e+01 2.255044e+01 6.867636e+01 1.127417e+01 1.400375e+01 1.985990e+01 1.092703e+01 2.280820e+01 2.294440e+01 3.515123e+00 1.019849e+00 2.924107e+00 1.598898e+00 9.435580e-01 1.529384e+00 1.210833e+00 2.145649e+00 3.613861e+00 2.219836e+00 3.606766e+00 2.219245e+00 4.043572e-01
<GCONST> 9.154274e+01
<TRANSP> 5
 0.000000e+00 1.000000e+00 0.000000e+00 0.000000e+00 0.000000e+00
 0.000000e+00 8.712230e-01 1.287770e-01 0.000000e+00 0.000000e+00
 0.000000e+00 0.000000e+00 7.609790e-01 2.390210e-01 0.000000e+00
 0.000000e+00 0.000000e+00 0.000000e+00 6.470720e-01 3.529280e-01
 0.000000e+00 0.000000e+00 0.000000e+00 0.000000e+00 0.000000e+00
<ENDHMM>
~h "ch"
<BEGINHMM>
<NUMSTATES> 5
<STATE> 2
<MEAN> 25
 -3.626053e+00 -2.166799e+00 -8.214254e-01 3.707537e+00 2.571122e+00 1.296274e+00 3.903418e+00 2.592958e+00 5.213715e+00 2.328127e+00 5.277336e-01 3.416020e+00 -2.926296e-01 -8.919249e-02 1.793688e-01 -3.606451e-01 7.164258e-02 2.874051e-01 -2.246216e-01 -2.192139e-01 1.579444e-01 1.351971e-01 3.142062e-01 -5.768225e-02 -6.555693e-02
<VARIANCE> 25
 5.122171e+00 8.516349e+00 1.150794e+01 8.644014e+00 1.095024e+01 1.220889e+01 1.304078e+01 2.114085e+01 9.232937e+00 1.430740e+01 1.778964e+01 1.316479e+01 8.903360e-01 9.999673e-01 9.316434e-01 1.499197e+00 1.392599e+00 2.063288e+00 1.749922e+00 1.795598e+00 1.276519e+00 2.064150e+00 1.422366e+00 1.602912e+00 1.287406e+00
<GCONST> 7.964085e+01
<STATE> 3
<MEAN> 25
 -9.986830e+00 -3.444827e+00 2.907141e+00 -3.201347e+00 2.049878e+00 6.996454e+00 -9.448959e-01 -8.984630e-01 6.014618e+00 -2.358593e+00 3.044725e+00 4.408697e+00 -4.002488e+00 1.011581e+00 1.971388e+00 -1.853781e+00 -1.059394e+00 1.105733e+00 -8.118794e-01 -2.215733e+00 9.620153e-01 -1.221457e+00 4.427719e-01 -3.067321e-01 2.870847e+00
<VARIANCE> 25
 4.056287e+01 2.534872e+01 1.850442e+01 2.022708e+01 1.903635e+01 1.638643e+01 4.439380e+01 3.384867e+01 1.476903e+01 1.646464e+01 1.003372e+01 3.631428e+00 1.985461e+00 2.904859e+00 9.260928e-01 1.474678e+00 2.642594e+00 3.415767e+00 4.453167e+00 1.781044e+00 1.263292e+00 2.662615e+00 8.325559e-01 1.396578e+00 3.963935e+00
<GCONST> 9.003058e+01
<STATE> 4
<MEAN> 25
 -1.551798e+01 3.736543e-01 8.786747e+00 -2.470926e+00 -5.313866e+00 4.568588e-01 5.563175e+00 -7.196836e+00 4.659213e+00 -2.982506e+00 2.271081e+00 -1.380841e+00 1.613348e+00 -1.686918e-02 -1.148690e-01 7.383469e-01 -6.616951e-01 -1.994473e+00 -3.365794e-01 -8.270549e-03 -9.490588e-01 -4.344665e-01 -5.062504e-01 -3.161861e-01 5.590075e-01
<VARIANCE> 25
 7.189529e+01 9.965239e+00 1.280640e+01 2.341108e+01 1.891485e+01 6.113138e+01 2.897939e+01 2.494041e+01 1.743935e+01 1.141087e+01 1.603752e+01 1.347453e+01 8.760097e+00 1.433828e+00 2.210865e+00 2.450105e+00 2.388238e+00 3.036120e+00 7.433031e+00 3.183146e+00 1.027135e+00 1.785743e+00 1.176206e+00 2.052649e+00 2.375483e+00
<GCONST> 9.424770e+01
<TRANSP> 5
 0.000000e+00 1.000000e+00 0.000000e+00 0.000000e+00 0.000000e+00
 0.000000e+00 9.013947e-01 9.860527e-02 0.000000e+00 0.000000e+00
 0.000000e+00 0.000000e+00 6.438265e-01 3.561735e-01 0.000000e+00
 0.000000e+00 0.000000e+00 0.000000e+00 8.873439e-01 1.126561e-01
 0.000000e+00 0.000000e+00 0.000000e+00 0.000000e+00 0.000000e+00
<ENDHMM>
~h "dh"
<BEGINHMM>
<NUMSTATES> 5
<STATE> 2
<MEAN> 25
 9.992570e-02 5.069297e+00 2.921981e+00 2.958127e+00 -2.501619e+00 -5.150916e+00 -4.075657e+00 -2.204433e+00 -1.261995e+00 -6.660268e-03 6.131373e-01 -2.823756e+00 2.176184e+00 -1.863641e+00 5.076929e-01 -9.066727e-01 -2.457338e+00 -1.494640e+00 -1.683551e+00 6.053849e-01 2.554630e-01 1.632766e-01 6.087744e-01 -9.290618e-01 1.307684e+00
<VARIANCE> 25
 2.429588e+01 2.138172e+01 1.712788e+01 1.750120e+01 3.210571e+01 3.623418e+01 5.042189e+01 1.336529e+01 1.421081e+01 1.459783e+01 1.348147e+01 2.989472e+01 2.202775e+00 1.725216e+00 1.695964e+00 2.659258e+00 2.050927e+00 2.759232e+00 1.814371e+00 1.074307e+00 1.237730e+00 2.216789e+00 2.121876e+00 3.162903e+00 1.136930e+00
<GCONST> 9.109223e+01
<STATE> 3
<MEAN> 25
 7.497927e+00 -2.390625e+00 3.709357e+00 8.576285e+00 -1.002534e+01 -1.238800e+01 -7.631127e+00 3.557669e+00 4.549223e-01 -5.286664e+00 3.257389e+00 3.415961e+00 8.087480e-01 -3.263069e-01 -1.389733e+00 1.323851e+00 2.385928e-01 -1.786283e-01 -1.149609e+00 9.806736e-01 2.428160e-01 -1.028564e+00 8.913004e-02 7.132606e-01 -4.616008e-01
<VARIANCE> 25
 6.177229e+00 2.397103e+01 2.545040e+01 3.890895e+01 2.063702e+01 3.139612e+01 4.461799e+01 1.901165e+01 1.734644e+01 1.918970e+01 1.561741e+01 3.699925e+01 3.300949e-01 5.625599e-01 8.340597e-01 1.486736e+00 1.833850e+00 1.481809e+00 1.017646e+00 8.757480e-01 1.533248e+00 1.487399e+00 4.383510e-01 1.497654e+00 2.537665e-01
<GCONST> 8.167484e+01
<STATE> 4
<MEAN> 25
 9.307239e+00 1.028297e-01 -4.917047e+00 1.230637e+01 -5.291634e+00 -9.621056e+00 -1.292988e+01 7.468691e+00 3.349311e+00 -8.668666e+00 4.556471e+00 5.535839e+00 -1.845226e-01 5.058575e-01 -2.422034e-01 -2.058584e-01 4.843925e-01 1.874378e-01 -4.235556e-02 -1.214927e-01 1.850405e-01 -9.165536e-02 -1.856344e-01 -1.031285e-01 -6.695978e-01
<VARIANCE> 25
 2.289215e+00 1.459524e+01 7.915514e+00 2.673180e+01 1.694753e+01 2.748927e+01 2.379863e+01 1.317895e+01 2.737237e+01 1.408629e+01 1.376101e+01 4.367429e+01 4.503249e-01 4.904307e-01 7.032521e-01 8.094297e-01 1.047931e+00 1.260752e+00 1.145413e+00 7.810035e-01 1.279944e+00 7.632574e-01 8.337083e-01 1.018499e+00 1.809211e-01
<GCONST> 7.525283e+01
<TRANSP> 5
 0.000000e+00 1.000000e+00 0.000000e+00 0.000000e+00 0.000000e+00
 0.000000e+00 7.726533e-01 2.273467e-01 0.000000e+00 0.000000e+00
 0.000000e+00 0.000000e+00 7.816539e-01 2.183461e-01 0.000000e+00
 0.000000e+00 0.000000e+00 0.000000e+00 7.906945e-01 2.093055e-01
 0.000000e+00 0.000000e+00 0.000000e+00 0.000000e+00 0.000000e+00
<ENDHMM>
~h "eh"
<BEGINHMM>
<NUMSTATES> 5
<STATE> 2
<MEAN> 25
 4.529108e+00 -5.406276e+00 2.165207e+00 -1.646998e+00 -7.160945e+00 -5.674171e+00 2.544355e+00 7.069340e+00 -3.131263e+00 -2.552751e+00 -3.313956e+00 -5.180070e+00 5.467426e-01 -5.107895e-01 -2.343299e-01 -3.655594e-01 -1.961837e-01 -6.348525e-01 -2.913045e-01 3.020390e-01 -3.502691e-01 -1.700993e-01 -5.002291e-01 -7.155410e-01 7.931870e-01
<VARIANCE> 25
 2.330253e+01 1.424962e+01 2.416890e+01 1.558608e+01 4.090172e+01 3.790392e+01 5.016555e+01 1.933407e+01 2.198568e+01 2.645607e+01 1.844346e+01 3.272620e+01 1.679176e+00 1.805748e+00 2.107707e+00 1.867767e+00 3.015014e+00 3.001978e+00 3.610848e+00 2.612460e+00 2.377801e+00 2.283382e+00 1.921521e+00 3.278694e+00 2.603995e+00
<GCONST> 9.609202e+01
<STATE> 3
<MEAN> 25
 5.778668e+00 -3.278715e+00 2.128584e+00 -1.715841e+00 -6.368036e+00 -8.731085e+00 -2.754965e+00 4.271881e+00 -3.775051e+00 -1.401853e+00 -5.172990e+00 -5.314042e+00 -4.076577e-01 1.463742e+00 7.036427e-02 7.020588e-01 1.319695e+00 8.391281e-01 -1.737678e-01 -1.468533e+00 1.533991e-01 3.248625e-02 -6.079591e-01 2.306366e-01 -1.717299e+00
<VARIANCE> 25
 1.829865e+01 3.408890e+01 3.828445e+01 3.561280e+01 4.431397e+01 4.032685e+01 2.728881e+01 2.363461e+01 2.078179e+01 3.544873e+01 3.330079e+01 2.770019e+01 1.186011e+00 1.108146e+00 2.199733e+00 3.081514e+00 3.383144e+00 3.398408e+00 2.016881e+00 2.023023e+00 3.006170e+00 2.257777e+00 2.016757e+00 1.808129e+00 3.915839e+00
<GCONST> 9.759634e+01
<STATE> 4
<MEAN> 25
 -7.586554e-02 1.818323e+00 1.151292e+00 1.605600e+00 1.725862e+00 -1.983700e+00 2.831345e-01 5.324380e-01 -4.466146e-01 -2.157540e-01 -2.812009e+00 -3.116927e+00 2.053865e-01 3.281175e-01 6.174611e-03 -3.478836e-01 4.946154e-02 4.412746e-01 -2.895207e-01 -6.396487e-01 -2.414289e-01 2.902286e-01 2.613979e-01 -2.448052e-01 4.067492e-01
<VARIANCE> 25
 6.158625e+01 3.099489e+01 4.999608e+01 3.587194e+01 4.512740e+01 4.196766e+01 4.988933e+01 2.512515e+01 3.915079e+01 2.277893e+01 3.207044e+01 4.772104e+01 4.788154e+00 2.189750e+00 2.761751e+00 3.796988e+00 3.335396e+00 5.040593e+00 3.442930e+00 3.371663e+00 2.791829e+00 2.559511e+00 2.655518e+00 3.367223e+00 3.479834e+00
<GCONST> 1.051778e+02
<TRANSP> 5
 0.000000e+00 1.000000e+00 0.000000e+00 0.000000e+00 0.000000e+00
 0.000000e+00 8.013030e-01 1.986969e-01 0.000000e+00 0.000000e+00
 0.000000e+00 0.000000e+00 6.940006e-01 3.059993e-01 0.000000e+00
 0.000000e+00 0.000000e+00 0.000000e+00 7.239217e-01 2.760783e-01
 0.000000e+00 0.000000e+00 0.000000e+00 0.000000e+00 0.000000e+00
<ENDHMM>
~h "er"
<BEGINHMM>
<NUMSTATES> 5
<STATE> 2
<MEAN> 25
 1.153668e+01 -1.062368e-01 -3.561578e+00 8.053689e+00 -7.005519e-01 -9.790433e+00 -1.520797e+01 4.930387e+00 1.266678e+00 -7.611200e+00 1.002273e+00 5.612750e+00 2.183127e-01 -4.955247e-02 -4.637500e-01 2.329497e-01 2.775521e-01 -8.644319e-02 -6.833542e-01 3.884583e-01 3.575092e-01 -9.119070e-02 -3.811218e-01 2.843413e-02 -2.462477e-01
<VARIANCE> 25
 1.270764e+01 1.450123e+01 4.836761e+01 4.584683e+01 4.121148e+01 5.278595e+01 5.225645e+01 4.884996e+01 4.054490e+01 3.127527e+01 3.782240e+01 1.659446e+01 7.298701e-01 5.658746e-01 1.324605e+00 1.035127e+00 1.514904e+00 1.603820e+00 2.920191e+00 1.791299e+00 1.961175e+00 1.372650e+00 1.520430e+00 1.207363e+00 2.999891e-01
<GCONST> 9.035198e+01
<STATE> 3
<MEAN> 25
 4.923030e+00 -1.482360e+00 -1.707396e+00 6.935248e+00 -6.851402e-01 -7.429709e+00 -6.921585e+00 4.598969e+00 1.439587e+00 -6.301414e+00 -3.809329e+00 3.177709e+00 -1.287820e+00 -2.993189e-01 5.292834e-01 -9.824020e-01 -8.320274e-02 8.876904e-01 1.825750e+00 -4.556426e-01 -3.719179e-01 7.175848e-01 -1.037864e-01 -4.961994e-01 -5.940497e-01
<VARIANCE> 25
 3.386965e+01 1.875864e+01 2.543288e+01 3.765728e+01 3.245482e+01 6.109522e+01 7.427879e+01 4.635343e+01 4.252200e+01 2.962250e+01 3.114268e+01 2.637484e+01 1.390935e+00 1.093191e+00 2.201357e+00 2.396950e+00 3.118635e+00 4.388684e+00 3.855183e+00 3.824827e+00 2.829607e+00 2.727594e+00 2.851027e+00 1.895665e+00 9.216542e-01
<GCONST> 9.989054e+01
<STATE> 4
<MEAN> 25
 -1.367676e+00 -3.390948e+00 -4.080276e+00 -2.447188e+00 6.347677e-01 6.106164e-01 -5.364071e-01 6.966336e-01 2.442269e+00 1.849839e+00 -1.746733e+00 8.595342e-01 -8.543777e-02 2.176530e-02 -1.327087e-02 -8.165426e-02 6.453384e-02 1.989860e-01 1.221502e-01 -5.634583e-02 5.726810e-02 1.999130e-01 1.175499e-01 -5.366208e-02 -6.671516e-02
<VARIANCE> 25
 6.404377e+00 4.541573e+00 1.122086e+01 9.127539e+00 1.168885e+01 1.705771e+01 1.440424e+01 1.545143e+01 1.797621e+01 1.767325e+01 1.354916e+01 1.498841e+01 3.584637e-01 4.160770e-01 7.622392e-01 1.016506e+00 1.008109e+00 1.383549e+00 1.622926e+00 1.551704e+00 1.636991e+00 1.590826e+00 1.491318e+00 1.714871e+00 1.448789e-01
<GCONST> 7.478407e+01
<TRANSP> 5
 0.000000e+00 1.000000e+00 0.000000e+00 0.000000e+00 0.000000e+00
 0.000000e+00 9.008679e-01 9.913199e-02 0.000000e+00 0.000000e+00
 0.000000e+00 0.000000e+00 8.570717e-01 1.429283e-01 0.000000e+00
 0.000000e+00 0.000000e+00 0.000000e+00 9.289950e-01 7.100501e-02
 0.000000e+00 0.000000e+00 0.000000e+00 0.000000e+00 0.000000e+00
<ENDHMM>
~h "ey"
<BEGINHMM>
<NUMSTATES> 5
<STATE> 2
<MEAN> 25
 2.881178e+00 1.725561e+00 1.438317e+01 -5.179587e+00 -1.476897e+01 1.900705e+00 -2.690007e+00 -3.034868e+00 -9.767910e+00 2.627244e+00 7.327161e-01 -4.977128e+00 -1.092035e-01 3.329149e-01 4.817382e-01 -1.621069e-01 1.220730e-01 2.714716e-01 -2.908854e-01 -7.239945e-01 -1.538146e-01 8.380855e-02 -6.368342e-02 -2.468944e-01 -2.607928e-01
<VARIANCE> 25
 7.298923e+00 1.586592e+01 1.812771e+01 3.101279e+01 1.267341e+01 5.066854e+01 5.788570e+01 3.503728e+01 2.546921e+01 1.605784e+01 3.526291e+01 2.023182e+01 1.459097e-01 3.065963e-01 4.655414e-01 5.324633e-01 4.758377e-01 8.318074e-01 6.872013e-01 9.395228e-01 1.032410e+00 7.243581e-01 7.456438e-01 6.432690e-01 1.216770e-01
<GCONST> 7.469633e+01
<STATE> 3
<MEAN> 25
 3.052358e+00 3.032573e+00 1.496515e+01 4.637137e-01 -1.297112e+01 -1.505912e+00 3.775051e-01 -4.454771e+00 -1.020682e+01 -2.763726e-01 4.005631e+00 -5.819542e+00 1.423986e-01 -6.578182e-02 -4.716004e-01 6.537896e-01 8.169866e-01 -6.131544e-01 2.869110e-01 2.329838e-01 -4.317169e-02 -5.795764e-01 -9.172534e-02 1.841786e-02 -8.135005e-01
<VARIANCE> 25
 5.486810e+00 2.477021e+01 3.169345e+01 5.402717e+01 2.776843e+01 4.891720e+01 6.430318e+01 7.505606e+01 3.049967e+01 2.046571e+01 3.778676e+01 2.990768e+01 6.925052e-01 7.336095e-01 1.158188e+00 1.577025e+00 1.667005e+00 3.253257e+00 2.889089e+00 3.345323e+00 2.061553e+00 1.901554e+00 2.183485e+00 1.642153e+00 3.615960e-01
<GCONST> 9.297715e+01
<STATE> 4
<MEAN> 25
 2.707990e+00 1.409068e+00 7.921103e+00 1.191217e+00 -5.244018e+00 -3.386114e+00 3.981018e-01 -1.621536e+00 -5.277295e+00 -2.424168e+00 -7.989672e-01 -4.966920e+00 -6.792549e-01 1.150877e-01 -2.020460e+00 8.826708e-01 2.268067e+00 4.282748e-01 -3.538996e-02 1.393908e-01 1.762978e+00 -2.562502e-02 -8.079138e-01 8.612227e-01 -1.254949e+00
<VARIANCE> 25
 2.088025e+01 3.470715e+01 8.356978e+01 2.208427e+01 4.435237e+01 4.277635e+01 5.959245e+01 8.330507e+01 5.183261e+01 2.656233e+01 2.415720e+01 3.329214e+01 4.999357e+00 2.020142e+00 2.801284e+00 4.434381e+00 4.004669e+00 6.478109e+00 5.389059e+00 3.656476e+00 3.366915e+00 3.140695e+00 3.499475e+00 2.880722e+00 1.595901e+00
<GCONST> 1.062341e+02
<TRANSP> 5
 0.000000e+00 1.000000e+00 0.000000e+00 0.000000e+00 0.000000e+00
 0.000000e+00 8.924533e-01 1.075467e-01 0.000000e+00 0.000000e+00
 0.000000e+00 0.000000e+00 6.537386e-01 3.462613e-01 0.000000e+00
 0.000000e+00 0.000000e+00 0.000000e+00 7.016557e-01 2.983443e-01
 0.000000e+00 0.000000e+00 0.000000e+00 0.000000e+00 0.000000e+00
<ENDHMM>
~h "hh"
<BEGINHMM>
<NUMSTATES> 5
<STATE> 2
<MEAN> 25
 3.025328e+00 -3.907892e+00 -1.658571e+00 4.236110e-01 3.914627e+00 8.224818e+00 1.315360e+00 1.287282e+00 3.255611e+00 5.492897e-02 -1.401193e+00 -6.836285e+00 -4.944949e-01 -5.642897e-01 -3.302493e-01 -3.904061e-01 -1.274439e-01 2.255835e-02 5.333747e-01 -8.051990e-02 2.719228e-01 -4.865713e-02 6.999004e-01 3.109463e-01 -2.872515e-02
<VARIANCE> 25
 2.883956e+01 4.437319e+01 5.577812e+01 6.694363e+01 4.633342e+01 1.925237e+01 4.827410e+01 2.826153e+01 2.584025e+01 1.844344e+01 2.524524e+01 7.564597e+01 1.303644e+00 1.220194e+00 1.825884e+00 2.991758e+00 1.995454e+00 2.638507e+00 2.449392e+00 2.810957e+00 2.385432e+00 2.073131e+00 3.187782e+00 2.935028e+00 8.008326e-01
<GCONST> 9.842470e+01
<STATE> 3
<MEAN> 25
 -2.424131e+00 -3.707589e+00 -5.092387e+00 -3.073005e+00 2.876731e+00 5.374805e+00 1.732486e+00 -2.560454e+00 2.725298e-01 -5.337383e-01 5.931880e+00 4.807243e+00 2.588956e-01 3.082197e-02 8.744843e-02 5.583162e-02 -1.621287e-01 5.667513e-02 9.162759e-02 7.653759e-02 -4.059667e-01 -3.338117e-01 2.297271e-01 1.933135e-01 2.997503e-01
<VARIANCE> 25
 2.370750e+01 3.728806e+01 3.429285e+01 3.214019e+01 3.749969e+01 5.121626e+01 1.906841e+01 4.947614e+01 5.598882e+01 3.428646e+01 2.383826e+01 3.917472e+01 1.484368e+00 2.474473e+00 1.722369e+00 1.378719e+00 1.787132e+00 4.616471e+00 2.071843e+00 3.383958e+00 1.609939e+00 1.832463e+00 1.443110e+00 2.750142e+00 7.763367e-01
<GCONST> 9.697632e+01
<STATE> 4
<MEAN> 25
 -4.759762e+00 -5.459385e-01 -2.533763e-01 2.705641e+00 2.395829e+00 2.429929e+00 3.582856e+00 1.628365e+00 4.467301e+00 1.911911e+00 2.500616e+00 4.228150e+00 5.558182e-02 -8.723517e-03 -4.574824e-02 -7.733261e-02 -4.962185e-02 -3.280090e-02 2.149851e-02 2.570960e-04 -7.222015e-02 2.710815e-02 -5.968225e-02 -1.918256e-02 -6.869086e-03
<VARIANCE> 25
 5.470005e+00 3.456983e+00 7.421773e+00 7.768029e+00 1.232227e+01 8.197690e+00 1.115222e+01 1.689491e+01 1.204625e+01 1.337575e+01 1.343361e+01 1.285219e+01 2.054341e-01 2.389678e-01 3.871071e-01 5.066260e-01 6.583945e-01 9.385050e-01 1.037414e+00 1.335073e+00 1.143871e+00 1.420244e+00 1.535017e+00 1.052774e+00 7.087532e-02
<GCONST> 6.654800e+01
<TRANSP> 5
 0.000000e+00 1.000000e+00 0.000000e+00 0.000000e+00 0.000000e+00
 0.000000e+00 7.627975e-01 2.372025e-01 0.000000e+00 0.000000e+00
 0.000000e+00 0.000000e+00 7.258397e-01 2.741602e-01 0.000000e+00
 0.000000e+00 0.000000e+00 0.000000e+00 9.329193e-01 6.708065e-02
 0.000000e+00 0.000000e+00 0.000000e+00 0.000000e+00 0.000000e+00
<ENDHMM>
~h "ih"
<BEGINHMM>
<NUMSTATES> 5
<STATE> 2
<MEAN> 25
 4.437468e+00 -2.855328e-01 5.828022e+00 -7.160910e-01 -9.102646e+00 -3.357431e+00 -1.597263e+00 -1.745058e+00 -8.485215e+00 -9.389719e-01 -9.051404e-01 -4.585191e+00 9.762474e-02 5.300984e-01 -5.890236e-02 3.258024e-01 3.392876e-01 -5.617635e-03 9.570374e-02 -6.326343e-01 -1.649645e-01 -1.280969e-01 -1.716359e-01 -3.042680e-01 -3.313699e-01
<VARIANCE> 25
 2.767152e+01 2.975800e+01 4.783779e+01 3.852035e+01 6.391072e+01 7.240926e+01 4.329847e+01 6.923653e+01 6.409360e+01 2.977428e+01 2.883228e+01 4.016608e+01 2.427921e+00 2.502744e+00 4.150493e+00 3.515630e+00 6.524332e+00 5.446445e+00 3.944415e+00 4.119297e+00 6.155629e+00 2.574010e+00 2.743502e+00 1.865510e+00 5.659892e+00
<GCONST> 1.082058e+02
<STATE> 3
<MEAN> 25
 1.660563e+00 5.355989e+00 3.534935e+00 1.617933e+00 2.338037e+00 -2.880774e+00 -4.091829e+00 -3.481369e+00 -1.522719e+00 -1.986784e+00 -3.261401e+00 -2.888091e+00 -4.885538e-01 -9.634896e-02 -2.019153e-01 2.657219e-01 7.187390e-01 3.263736e-01 2.375787e-01 5.448976e-01 9.345182e-01 2.368331e-03 4.464079e-02 3.412221e-01 -1.637796e-01
<VARIANCE> 25
 1.837148e+01 2.852542e+01 2.919296e+01 3.457695e+01 4.239384e+01 3.779527e+01 9.250156e+01 4.260889e+01 2.574022e+01 1.939531e+01 2.366982e+01 2.744321e+01 1.976989e+00 2.339874e+00 2.406468e+00 1.510357e+00 4.838264e+00 3.331230e+00 3.326546e+00 4.167823e+00 3.021300e+00 1.456731e+00 2.275223e+00 1.272959e+00 2.376448e+00
<GCONST> 9.911581e+01
<STATE> 4
<MEAN> 25
 -1.491535e+00 2.543456e-01 2.470459e+00 4.418416e+00 3.539414e+00 2.778895e+00 6.037464e+00 4.517632e+00 6.194096e+00 3.491915e+00 2.163210e+00 2.770523e+00 -4.731456e-01 -4.342753e-01 -5.395516e-01 -3.364957e-01 9.580787e-02 1.174458e-01 6.960289e-02 -6.808919e-02 2.918763e-01 4.097100e-01 6.430618e-01 3.452145e-01 -4.407011e-01
<VARIANCE> 25
 2.671366e+01 2.780639e+01 3.480387e+01 2.343472e+01 3.818264e+01 4.022987e+01 4.170087e+01 4.037857e+01 3.455213e+01 3.593775e+01 1.967952e+01 2.725957e+01 2.079239e+00 1.825333e+00 2.727769e+00 1.815800e+00 2.806711e+00 1.940526e+00 2.346261e+00 2.483828e+00 2.732804e+00 2.795734e+00 1.519889e+00 1.985976e+00 1.668778e+00
<GCONST> 9.747799e+01
<TRANSP> 5
 0.000000e+00 1.000000e+00 0.000000e+00 0.000000e+00 0.000000e+00
 0.000000e+00 7.969323e-01 2.030677e-01 0.000000e+00 0.000000e+00
 0.000000e+00 0.000000e+00 7.049053e-01 2.950947e-01 0.000000e+00
 0.000000e+00 0.000000e+00 0.000000e+00 6.478682e-01 3.521318e-01
 0.000000e+00 0.000000e+00 0.000000e+00 0.000000e+00 0.000000e+00
<ENDHMM>
~h "iy"
<BEGINHMM>
<NUMSTATES> 5
<STATE> 2
<MEAN> 25
 2.139525e+00 3.627300e+00 9.306290e+00 3.367896e+00 -3.972973e+00 -3.096425e+00 -1.785645e+00 -6.003749e+00 -6.376760e+00 -2.131152e+00 1.422209e+00 -2.055934e+00 7.292356e-01 6.190698e-01 2.592163e+00 -4.755316e-01 -2.330333e+00 -4.088910e-01 -7.384857e-01 -1.378787e+00 -2.479698e+00 -5.401004e-01 2.552038e-01 -1.001422e+00 1.543921e+00
<VARIANCE> 25
 4.291666e+01 2.874765e+01 5.956057e+01 5.913596e+01 6.987586e+01 5.159953e+01 3.644781e+01 5.453467e+01 6.001543e+01 5.107590e+01 3.519359e+01 5.989740e+01 3.643628e+00 3.004429e+00 4.154173e+00 6.090230e+00 6.031581e+00 6.774108e+00 4.370498e+00 3.960124e+00 5.083475e+00 6.645457e+00 4.269477e+00 3.474094e+00 1.907832e+00
<GCONST> 1.117458e+02
<STATE> 3
<MEAN> 25
 2.419200e+00 7.009053e+00 1.712497e+01 -7.480130e-01 -8.630908e+00 -6.643674e-01 -4.489507e+00 -1.238727e+01 -9.494217e+00 -3.771300e+00 1.025198e+00 -4.512145e+00 -2.196100e-02 5.106109e-02 1.647176e-03 -5.425308e-01 -8.336956e-02 4.537381e-01 -2.519214e-01 1.309425e-02 1.570974e-01 -3.058415e-03 8.491185e-02 -1.675961e-01 1.362250e-01
<VARIANCE> 25
 1.986736e+01 2.649730e+01 1.993895e+01 4.222046e+01 4.779033e+01 4.136192e+01 2.059310e+01 4.603085e+01 2.403547e+01 4.862446e+01 4.551276e+01 2.466753e+01 1.079384e+00 1.977944e+00 1.359868e+00 2.600877e+00 1.975744e+00 3.066031e+00 1.855267e+00 2.487108e+00 1.442617e+00 1.658183e+00 1.939309e+00 2.700233e+00 3.732249e-01
<GCONST> 9.437366e+01
<STATE> 4
<MEAN> 25
 3.296979e+00 2.879320e+00 2.110633e+01 -3.944484e+00 -1.112868e+01 -2.315068e-01 -1.094351e+01 -5.991556e+00 -1.401187e+01 -1.411844e+00 -8.977802e-02 -6.344816e+00 2.006679e-03 -1.708009e-01 -7.482647e-01 7.013453e-01 5.858516e-01 -3.130459e-01 3.301806e-01 5.357560e-01 5.703258e-01 -1.704370e-01 -1.700354e-01 5.613744e-02 -4.434173e-01
<VARIANCE> 25
 8.762165e+00 1.787851e+01 3.894899e+01 4.817911e+01 2.369209e+01 4.272839e+01 4.535838e+01 2.658520e+01 2.452569e+01 2.518632e+01 2.789286e+01 1.612258e+01 5.705038e-01 6.955485e-01 2.176486e+00 1.342303e+00 1.655915e+00 1.485605e+00 2.410416e+00 1.712677e+00 2.495719e+00 2.443945e+00 1.350332e+00 2.513680e+00 4.694327e-01
<GCONST> 8.982762e+01
<TRANSP> 5
 0.000000e+00 1.000000e+00 0.000000e+00 0.000000e+00 0.000000e+00
 0.000000e+00 7.471223e-01 2.528777e-01 0.000000e+00 0.000000e+00
 0.000000e+00 0.000000e+00 7.873209e-01 2.126792e-01 0.000000e+00
 0.000000e+00 0.000000e+00 0.000000e+00 7.941156e-01 2.058844e-01
 0.000000e+00 0.000000e+00 0.000000e+00 0.000000e+00 0.000000e+00
<ENDHMM>
~h "jh"
<BEGINHMM>
<NUMSTATES> 5
<STATE> 2
<MEAN> 25
 -1.888498e+00 -8.182930e-01 -1.725998e+00 8.067919e-01 -4.784605e+00 -2.064049e+00 -1.114593e-01 -3.743902e+00 -2.755116e+00 9.406982e-01 4.925377e-01 1.528773e+00 1.819517e+00 -6.174051e-01 6.845759e-01 -3.228461e-01 -2.295431e+00 -2.657203e+00 -2.091780e+00 3.156275e-01 -1.796600e+00 -2.652967e-01 -9.181859e-01 -1.858113e+00 4.737798e+00
<VARIANCE> 25
 4.259049e+01 9.593748e+00 2.679808e+01 8.666691e+00 4.148359e+01 3.608349e+01 3.220769e+01 5.379691e+01 2.414388e+01 1.480058e+01 8.419700e+00 2.191306e+01 2.845264e+00 2.257260e+00 3.115404e+00 1.898811e+00 3.167133e+00 2.457677e+00 8.151991e-01 1.296513e+01 3.600757e+00 1.603709e+00 6.366330e-01 6.904324e-01 1.024860e+01
<GCONST> 9.457838e+01
<STATE> 3
<MEAN> 25
 1.019675e+01 -7.718802e+00 -2.089589e+00 -4.929055e+00 -4.331651e+00 -3.995170e+00 -7.795499e+00 4.870017e-01 7.759694e-01 1.060979e+00 -3.442143e+00 -1.038216e+01 3.350351e-01 -1.004856e-01 4.795073e-01 -1.405366e-01 -1.250597e-02 -3.633312e-01 -1.675396e-01 1.334690e-01 -4.698529e-01 -1.394535e-01 4.795823e-02 1.453441e-01 -2.391606e-01
<VARIANCE> 25
 6.839877e+01 3.036243e+01 2.429226e+01 1.551068e+01 2.009364e+01 4.718396e+01 2.844128e+01 5.445370e+01 1.463859e+01 1.693566e+01 1.530468e+01 3.424653e+01 1.932959e+00 9.560078e-01 3.204734e+00 2.014466e+00 3.091419e+00 5.027683e+00 1.756842e+00 4.420182e+00 4.224495e+00 1.636081e+00 2.789498e+00 3.205823e+00 4.220394e-01
<GCONST> 9.602536e+01
<STATE> 4
<MEAN> 25
 2.295185e-01 9.575386e-01 1.201994e+01 -8.677890e-01 -4.573159e+00 -4.136479e+00 -5.742086e+00 -3.305008e-02 -9.612268e+00 -5.078970e+00 -9.215172e-01 -3.789187e+00 -2.858562e-01 4.838316e-01 1.286444e-01 -4.582193e-02 4.644048e-01 6.930887e-01 -8.379447e-02 -3.077291e-01 4.439753e-01 -1.131613e-01 -5.822169e-02 9.499296e-02 -3.736365e-01
<VARIANCE> 25
 6.428592e+01 3.391385e+01 2.499584e+01 3.600682e+01 5.362017e+01 5.348518e+01 2.216451e+01 2.512575e+01 6.178625e+01 1.422158e+01 1.718275e+01 1.493109e+01 9.045612e+00 3.444317e+00 3.400190e+00 5.475213e+00 4.659437e+00 5.198257e+00 3.721350e+00 2.847488e+00 6.799424e+00 2.021304e+00 1.405485e+00 1.810299e+00 7.534454e+00
<GCONST> 1.045308e+02
<TRANSP> 5
 0.000000e+00 1.000000e+00 0.000000e+00 0.000000e+00 0.000000e+00
 0.000000e+00 7.650963e-01 2.349037e-01 0.000000e+00 0.000000e+00
 0.000000e+00 0.000000e+00 8.809946e-01 1.190054e-01 0.000000e+00
 0.000000e+00 0.000000e+00 0.000000e+00 9.169703e-01 8.302971e-02
 0.000000e+00 0.000000e+00 0.000000e+00 0.000000e+00 0.000000e+00
<ENDHMM>
~h "ng"
<BEGINHMM>
<NUMSTATES> 5
<STATE> 2
<MEAN> 25
 2.898535e+00 2.831789e+00 -2.889683e+00 5.952651e+00 3.217006e+00 -1.567741e+00 2.055616e+00 -5.030379e+00 -2.536666e+00 -2.258310e-01 -8.658296e-01 -3.399118e+00 -8.770043e-01 -7.667918e-01 -5.286904e-01 -4.068444e-01 5.241947e-01 6.525476e-01 2.281448e-01 1.092591e+00 1.065685e+00 4.443384e-01 9.138402e-01 1.226406e+00 -7.637335e-01
<VARIANCE> 25
 3.689211e+01 5.336529e+00 1.145525e+01 7.210441e+00 4.041607e+00 1.596674e+01 7.411535e+00 2.619922e+01 3.121551e+01 8.527951e+00 1.018606e+01 3.093063e+01 1.255633e+00 1.076339e+00 1.516728e+00 6.136296e-01 7.510805e-01 1.956181e+00 1.940742e+00 2.365113e+00 1.612018e+00 2.371786e+00 2.326369e+00 2.536025e+00 2.096063e-01
<GCONST> 8.010798e+01
<STATE> 3
<MEAN> 25
 -6.368281e+00 -1.307263e+00 -3.336082e-01 1.593486e+00 4.843559e+00 5.293071e+00 6.075781e+00 4.189967e+00 6.241629e+00 3.877553e+00 3.857719e+00 5.174628e+00 -1.037042e-02 -4.483287e-02 -4.475853e-02 2.342588e-03 6.807931e-02 1.645123e-02 9.809349e-02 4.385447e-02 9.568965e-02 7.349841e-02 1.793414e-01 6.589500e-02 -4.571844e-02
<VARIANCE> 25
 1.435388e+00 1.688980e+00 3.826180e+00 6.338425e+00 6.618779e+00 8.960224e+00 1.000757e+01 1.034186e+01 1.093953e+01 1.115834e+01 8.935422e+00 7.991978e+00 1.616366e-01 2.596512e-01 3.888495e-01 9.807809e-01 6.211432e-01 8.154343e-01 1.236160e+00 1.335995e+00 1.055744e+00 1.422913e+00 1.257704e+00 1.105103e+00 5.093345e-02
<GCONST> 6.126187e+01
<STATE> 4
<MEAN> 25
 -5.963790e+00 -3.288410e-01 -5.660390e+00 2.464210e+00 6.208801e+00 5.148829e+00 6.433783e+00 3.692943e+00 6.507201e+00 3.839974e+00 3.905212e+00 5.619043e+00 -8.851460e-02 1.174011e-01 -5.091644e-02 9.916909e-02 1.452324e-02 -5.334923e-02 -2.437369e-03 7.476078e-02 -2.492510e-02 -1.566186e-01 -8.239900e-02 4.110064e-02 7.525662e-02
<VARIANCE> 25
 4.050092e+00 3.604508e+00 1.766422e+01 3.405674e+00 6.435634e+00 8.262046e+00 9.159811e+00 9.869624e+00 1.366711e+01 1.377469e+01 8.291946e+00 8.839544e+00 4.057990e-01 2.579089e-01 6.045687e-01 4.919214e-01 6.437104e-01 1.036502e+00 1.065420e+00 9.435368e-01 1.916936e+00 1.549808e+00 1.162304e+00 1.036998e+00 1.074385e-01
<GCONST> 6.591063e+01
<TRANSP> 5
 0.000000e+00 1.000000e+00 0.000000e+00 0.000000e+00 0.000000e+00
 0.000000e+00 7.971117e-01 2.028883e-01 0.000000e+00 0.000000e+00
 0.000000e+00 0.000000e+00 9.305541e-01 6.944589e-02 0.000000e+00
 0.000000e+00 0.000000e+00 0.000000e+00 8.817733e-01 1.182267e-01
 0.000000e+00 0.000000e+00 0.000000e+00 0.000000e+00 0.000000e+00
<ENDHMM>
~h "ow"
<BEGINHMM>
<NUMSTATES> 5
<STATE> 2
<MEAN> 25
 1.150936e+01 1.617752e+00 -3.936469e+00 -1.059444e+01 -4.095284e+00 7.796988e+00 -8.843530e+00 -4.101078e+00 -5.731509e+00 2.190969e+00 3.496821e+00 -3.474684e+00 7.756570e-02 5.068514e-01 -5.009669e-02 -1.536573e-01 -1.198201e-01 1.898541e-01 2.373130e-01 -1.700231e-01 -4.847985e-01 -5.661753e-01 2.238435e-02 4.731551e-01 -4.020083e-01
<VARIANCE> 25
 4.538222e+00 3.013764e+01 1.361696e+01 1.650053e+01 2.405621e+01 3.173938e+01 3.541777e+01 3.480219e+01 4.816090e+01 5.468573e+01 2.669899e+01 3.191101e+01 1.045401e-01 4.141012e-01 2.761008e-01 7.290900e-01 5.511241e-01 1.096775e+00 7.012064e-01 9.646775e-01 9.372987e-01 1.406952e+00 1.155268e+00 6.124224e-01 1.290610e-01
<GCONST> 7.690461e+01
<STATE> 3
<MEAN> 25
 8.701136e+00 5.015805e+00 -6.310296e-01 -1.843940e+00 -2.175416e+00 2.730426e+00 -4.420519e+00 -4.646989e+00 -3.787649e+00 -6.006237e+00 -1.243022e-01 -1.887504e+00 -7.397351e-01 -5.222805e-01 1.115604e-01 6.771702e-01 4.311320e-01 -3.152153e-01 1.942561e-01 2.018482e-01 5.899069e-01 4.604496e-01 4.655806e-02 2.306945e-02 -5.614588e-01
<VARIANCE> 25
 2.154114e+01 2.358824e+01 4.074706e+01 3.622714e+01 2.382898e+01 2.216088e+01 3.493761e+01 3.013774e+01 3.311870e+01 2.594969e+01 4.358381e+01 4.034486e+01 1.236041e+00 9.828798e-01 1.273875e+00 2.807487e+00 2.150424e+00 2.099286e+00 2.620972e+00 2.551070e+00 3.086829e+00 2.378512e+00 3.033952e+00 2.133753e+00 5.916549e-01
<GCONST> 9.514468e+01
<STATE> 4
<MEAN> 25
 -4.040638e+00 -2.436432e+00 -2.584193e+00 1.396650e+00 1.918294e+00 2.368036e+00 3.393001e+00 2.006624e+00 3.870392e+00 2.501837e+00 2.499152e+00 2.941940e+00 -6.802621e-02 -9.267595e-02 -1.201385e-03 6.328736e-02 1.115847e-01 8.540835e-02 1.286806e-01 6.113046e-02 -4.416583e-03 9.137420e-02 3.756493e-02 5.208087e-02 -3.824372e-02
<VARIANCE> 25
 9.656844e+00 4.880893e+00 7.870291e+00 1.100611e+01 1.059018e+01 1.279165e+01 2.038094e+01 1.207859e+01 9.404912e+00 1.359282e+01 1.684764e+01 1.565558e+01 1.169172e-01 2.333139e-01 7.017978e-01 6.238794e-01 1.254158e+00 9.922018e-01 1.196411e+00 1.216730e+00 9.478327e-01 1.416192e+00 1.447182e+00 1.090440e+00 3.814125e-02
<GCONST> 6.875274e+01
<TRANSP> 5
 0.000000e+00 1.000000e+00 0.000000e+00 0.000000e+00 0.000000e+00
 0.000000e+00 9.404970e-01 5.950300e-02 0.000000e+00 0.000000e+00
 0.000000e+00 0.000000e+00 9.277945e-01 7.220554e-02 0.000000e+00
 0.000000e+00 0.000000e+00 0.000000e+00 9.298898e-01 7.011024e-02
 0.000000e+00 0.000000e+00 0.000000e+00 0.000000e+00 0.000000e+00
<ENDHMM>
~h "oy"
<BEGINHMM>
<NUMSTATES> 5
<STATE> 2
<MEAN> 25
 1.345171e+01 -1.991444e+00 3.426369e+00 -5.893489e+00 -1.239070e+01 3.991253e-01 -8.426600e+00 -1.033244e+00 -8.604213e+00 -1.798240e+00 3.499126e-01 -8.192043e+00 -2.876425e-01 4.301819e-02 3.673399e-01 1.731840e-01 2.707165e-01 -3.502115e-01 1.331994e-01 -1.729556e-01 -2.897550e-01 5.178466e-02 -3.780396e-02 8.027196e-02 -9.009915e-02
<VARIANCE> 25
 1.248176e+01 5.834235e+01 9.591334e+01 6.328010e+01 3.797857e+01 9.758588e+01 5.656382e+01 5.199920e+01 4.192767e+01 2.849951e+01 2.482765e+01 3.053972e+01 1.650672e+00 2.606687e+00 3.729555e+00 3.414107e+00 3.722454e+00 5.267551e+00 3.725089e+00 4.659425e+00 3.756380e+00 3.139368e+00 2.742937e+00 3.091985e+00 6.287477e-01
<GCONST> 1.051444e+02
<STATE> 3
<MEAN> 25
 -1.208164e+01 6.258493e+00 -1.122519e+00 -2.672924e+00 1.000909e+01 -9.460587e+00 1.822897e+00 3.148706e-01 -4.263056e-01 -1.013771e+00 -2.270936e+00 8.390468e-01 -1.685436e+00 -2.443876e-01 -1.558481e+00 2.817185e-01 8.605135e-01 3.670789e-01 5.316885e-01 8.105315e-01 1.301602e+00 1.757351e-01 5.209911e-01 7.204469e-01 -4.924740e-01
<VARIANCE> 25
 8.305380e+01 1.142299e+01 3.106751e+01 2.088660e+01 3.937409e+01 2.042686e+01 4.861073e+01 4.291389e+01 5.178099e+01 2.969459e+01 1.401954e+01 2.051105e+01 1.365670e+01 6.936558e-01 4.943583e+00 3.172807e+00 3.713186e+00 4.240931e+00 3.699355e+00 2.653466e+00 5.836395e+00 4.475156e+00 2.514478e+00 1.925340e+00 1.527788e+00
<GCONST> 1.019152e+02
<STATE> 4
<MEAN> 25
 -6.414573e+00 3.845172e-01 8.845307e-01 1.184618e+00 4.045634e+00 -2.965394e-01 3.183967e+00 5.760018e-01 3.167531e+00 1.053797e+00 8.480102e-01 3.000153e+00 -1.900550e-01 -2.331691e-01 -1.060290e-01 1.839162e-01 -1.164192e-01 2.624468e-01 -2.515334e-01 5.379915e-02 1.741963e-01 -1.688737e-02 3.582592e-01 5.717236e-01 -3.107322e-01
<VARIANCE> 25
 6.081200e+01 1.910128e+01 3.805313e+01 1.745377e+01 1.720671e+01 3.506842e+01 4.721682e+01 2.731433e+01 3.432446e+01 1.620712e+01 9.232282e+00 1.958339e+01 1.466897e+00 1.516056e+00 3.989597e+00 1.309105e+00 1.273012e+00 2.237989e+00 5.567194e+00 1.850082e+00 3.972120e+00 1.801804e+00 1.212834e+00 2.142402e+00 1.259302e+00
<GCONST> 9.357139e+01
<TRANSP> 5
 0.000000e+00 1.000000e+00 0.000000e+00 0.000000e+00 0.000000e+00
 0.000000e+00 9.664578e-01 3.354219e-02 0.000000e+00 0.000000e+00
 0.000000e+00 0.000000e+00 8.356236e-01 1.643764e-01 0.000000e+00
 0.000000e+00 0.000000e+00 0.000000e+00 6.617728e-01 3.382272e-01
